V1	V2
0.500574250351441	-0.573912197140981
0.500574250351441	-2.64812719233273
0.500574250351441	-2.09434166382917
0.500574250351441	-0.299425736175127
0.500574250351441	-0.847154303606885
0.500574250351441	-2.22631730188114
0.500574250351441	1.0699416384821
0.500574250351441	1.53088600092325
0.500574250351441	0.585609823250628
0.500574250351441	1.5233944073556
0.500574250351441	1.09639895412453
0.500574250351441	-3.81913101916364
0.500574250351441	0.0632976176913758
0.500574250351441	-2.38088700139633
0.500574250351441	0.0705238960049677
0.500574250351441	-0.294677717465113
0.500574250351441	3.56320370489689
0.500574250351441	1.87775429790025
0.500574250351441	-0.422702647264213
0.500574250351441	-0.418136432920264
0.500574250351441	0.524324350375728
0.500574250351441	-1.34692279248019
0.500574250351441	0.94424320015289
0.500574250351441	0.321931692749335
0.500574250351441	-3.80051199175239
0.500574250351441	-1.57137077429137
0.500574250351441	1.44967684738969
0.500574250351441	2.35238311188003
0.500574250351441	-1.7543978489069
0.500574250351441	1.8658162729874
0.500574250351441	1.45538797092999
0.500574250351441	-2.52315419074056
0.500574250351441	-1.96485084185781
0.500574250351441	-0.152566016226585
0.500574250351441	-0.971141522152969
0.500574250351441	0.767758995719685
0.500574250351441	-2.53324805070939
0.500574250351441	4.41488968028646
0.500574250351441	-1.47369336918346
0.500574250351441	-0.20619504104733
0.500574250351441	2.0116843555977
0.500574250351441	1.65697255314951
0.500574250351441	1.49035005774547
0.500574250351441	1.42149531915269
0.500574250351441	-3.50183337703283
0.500574250351441	1.39681144725467
0.500574250351441	-2.59424508497206
0.500574250351441	0.479776175316484
0.500574250351441	1.34902744137997
0.500574250351441	3.18706920211913
0.500574250351441	-1.14656673030964
0.500574250351441	3.17683908527277
0.500574250351441	-0.774486940099443
0.500574250351441	3.27590974570488
0.500574250351441	1.73175059248596
0.500574250351441	0.645248237513659
0.500574250351441	0.364425679491404
0.500574250351441	-2.52778181024095
0.500574250351441	0.606348683475055
0.500574250351441	2.45103526183624
0.500574250351441	-1.29857243604802
0.500574250351441	-0.0346740835767747
0.500574250351441	-1.15697450993241
0.500574250351441	-0.0732736809560617
0.500574250351441	0.583185680230251
0.500574250351441	-0.40724456248866
0.500574250351441	0.35298652049773
0.500574250351441	0.0279639400918512
0.500574250351441	1.30836583282641
0.500574250351441	1.12228249634159
0.500574250351441	-1.86629629962324
0.500574250351441	-0.316951852988211
0.500574250351441	1.59589486329475
0.500574250351441	-2.23170950382008
0.500574250351441	-3.14274963449346
0.500574250351441	1.6350406194012
0.500574250351441	1.02072363382695
0.500574250351441	2.9838366520418
0.500574250351441	-2.27624799661369
0.500574250351441	2.24452302912202
0.500574250351441	-2.37564080836456
0.500574250351441	-2.4429235989779
0.500574250351441	1.44367419939887
0.500574250351441	-1.3512959114984
0.500574250351441	2.65452291590772
0.500574250351441	0.781592286247616
0.500574250351441	-1.2861439153852
0.500574250351441	0.173350527320544
0.500574250351441	-0.263623919264216
0.500574250351441	1.06111994391857
0.500574250351441	-0.435787829358777
0.500574250351441	-0.0124134466477663
0.500574250351441	-2.69195286183391
0.500574250351441	0.853702861045983
0.500574250351441	-2.77857022845538
0.500574250351441	-0.870055721195044
0.500574250351441	-2.53111104476108
0.500574250351441	1.2117855186304
0.500574250351441	-2.25204465988134
0.500574250351441	0.939613234294828
0.500574250351441	1.08048069963445
0.500574250351441	-1.94670058627356
0.500574250351441	0.0335659897982801
0.500574250351441	0.540147350084073
0.500574250351441	1.64424665922443
0.500574250351441	-0.0340792000479127
0.500574250351441	-0.0106573110663497
0.500574250351441	1.67676910307486
0.500574250351441	1.64563512378963
0.500574250351441	1.60725761185557
0.500574250351441	0.739758006666303
0.500574250351441	0.543093766875874
0.500574250351441	-0.436141886664181
0.500574250351441	-1.90930635414187
0.500574250351441	-1.46908962090924
0.500574250351441	-0.944993311637187
0.500574250351441	-1.51390449427253
0.500574250351441	0.439126973205529
0.500574250351441	1.75693994305093
0.500574250351441	0.235974395339419
0.500574250351441	1.61785836911772
0.500574250351441	0.647875937306576
0.500574250351441	1.73532162152194
0.500574250351441	0.486964787495634
0.500574250351441	0.722317866010306
0.500574250351441	-0.487229056958018
0.500574250351441	-0.214886633867852
0.500574250351441	-1.13981865482033
0.500574250351441	0.320647779763938
0.500574250351441	2.14902528998453
0.500574250351441	1.05697796090588
0.500574250351441	1.39303052795889
0.500574250351441	-0.325021749564815
0.500574250351441	-0.389746710639013
0.500574250351441	3.02211624249606
0.500574250351441	1.76588890652227
0.500574250351441	-0.499098188247679
0.500574250351441	1.89793922891808
0.500574250351441	1.92093357385935
0.500574250351441	1.16632655521797
0.500574250351441	0.497119468570236
0.500574250351441	-0.73410162732376
0.500574250351441	-1.3761581857677
0.500574250351441	-1.68234309614957
0.500574250351441	-0.348024009560735
0.500574250351441	-0.083436477572171
0.500574250351441	2.56932667105836
0.500574250351441	1.91424908331768
0.500574250351441	-2.06563677218478
0.500574250351441	-0.246295910899484
0.500574250351441	-0.157168938529807
0.500574250351441	1.88806107502235
0.500574250351441	2.38249020155108
0.500574250351441	-2.43599926326018
0.500574250351441	1.2437401478698
0.500574250351441	-1.81291053209456
0.500574250351441	-2.81989510943192
0.500574250351441	-1.17475224614277
0.500574250351441	-1.75772466407701
0.500574250351441	1.79194791145199
0.500574250351441	2.50805786016441
0.500574250351441	-1.30955145213057
0.500574250351441	1.63007666839515
0.500574250351441	1.91034082983704
0.500574250351441	1.31784766910732
0.500574250351441	-0.740158148115814
0.500574250351441	1.77551265226554
0.500574250351441	-4.30327148096448
0.500574250351441	0.634640481849111
0.500574250351441	0.937425928939312
0.500574250351441	0.724516800307232
0.500574250351441	-2.11985717642002
0.500574250351441	0.339189348998378
0.500574250351441	-1.33609307394093
0.500574250351441	0.947431840814687
0.500574250351441	1.32778264080418
0.500574250351441	1.95108999684822
0.500574250351441	1.77959128297975
0.500574250351441	-0.766064787287714
0.500574250351441	-0.0621591369612595
0.500574250351441	-0.140184395768109
0.500574250351441	-0.264141941167203
0.500574250351441	2.81552748280175
0.500574250351441	2.50770987692953
0.500574250351441	0.814315318494405
0.500574250351441	1.05869480236318
0.500574250351441	1.07577366443036
0.500574250351441	-1.16374415186997
0.500574250351441	-2.63342099498945
0.500574250351441	-2.90364452400344
0.500574250351441	-5.45471773150544
0.500574250351441	-1.96081760510197
0.500574250351441	-1.93419623489753
0.500574250351441	-1.00507968656512
0.500574250351441	0.940786039452252
0.500574250351441	-0.716879240598743
0.500574250351441	-2.55674487313278
0.500574250351441	3.58792972270389
0.500574250351441	-0.912963799312749
0.500574250351441	1.62822324940094
0.500574250351441	1.25033929354348
0.500574250351441	-0.729876751615386
0.500574250351441	1.90057875877032
0.500574250351441	-2.40681629512101
0.500574250351441	1.0547556716968
0.500574250351441	-0.181948542627659
0.500574250351441	1.46513173255979
0.500574250351441	3.2895878981531
0.500574250351441	1.49924322275399
0.500574250351441	-2.71657756856246
0.500574250351441	-0.258651524947901
0.500574250351441	-1.5481709750612
0.500574250351441	3.86540181570072
0.500574250351441	-2.25332563294588
0.500574250351441	1.725221563176
0.500574250351441	-1.81710716687426
0.500574250351441	-0.876275587336359
0.500574250351441	-0.0350079302257988
0.500574250351441	0.215309145159878
0.500574250351441	1.20952294290978
0.500574250351441	-0.166256982276266
0.500574250351441	0.456796865580085
0.500574250351441	-0.0874416551368107
0.500574250351441	1.03189852270364
0.500574250351441	-1.61771583241112
0.500574250351441	-0.483410894891396
0.500574250351441	0.467151682350192
0.500574250351441	-0.790858601092516
0.500574250351441	2.43738019856618
0.500574250351441	-2.98546208596598
0.500574250351441	-3.42808825787868
0.500574250351441	-0.301665407038293
0.500574250351441	0.867610143705015
0.500574250351441	-0.88710143747381
0.500574250351441	0.70128792589438
0.500574250351441	-1.94032352035762
0.500574250351441	0.855170174499733
0.500574250351441	-0.906444253752376
0.500574250351441	1.30089458407652
0.500574250351441	-0.349337796840924
0.500574250351441	0.0940519183693205
0.500574250351441	-1.99566688584036
0.500574250351441	0.133994939719372
0.500574250351441	-0.316296617716826
0.500574250351441	0.185993569350853
0.500574250351441	0.626503282665826
0.500574250351441	1.98866227483804
0.500574250351441	-1.24970939029907
0.500574250351441	-0.291423864903216
0.500574250351441	1.04358531231388
0.500574250351441	-0.0888582372066686
0.500574250351441	-3.90705418510212
0.500574250351441	3.1206736850819
0.500574250351441	-0.280917855988559
0.500574250351441	-0.91586638120619
0.500574250351441	-0.161308853885981
0.500574250351441	-0.740635670155779
0.500574250351441	1.54996631412473
0.500574250351441	-3.83935457017466
0.500574250351441	-0.563307430730433
0.500574250351441	-0.684563695345165
0.500574250351441	0.494976993707596
0.500574250351441	-3.5337552641027
0.500574250351441	1.17484575685489
0.500574250351441	-2.48080202336332
0.500574250351441	-0.972162262565142
0.500574250351441	1.18609388016035
0.500574250351441	-0.708409924893317
0.500574250351441	-0.408234220655078
0.500574250351441	0.379357995238955
0.500574250351441	0.640454569121843
0.500574250351441	-0.432832303894909
0.500574250351441	-2.22833216235385
0.500574250351441	2.38602888235356
0.500574250351441	1.7596835304023
0.500574250351441	3.26730913794566
0.500574250351441	0.737869784007422
0.500574250351441	0.224644495666279
0.500574250351441	2.74461695226966
0.500574250351441	2.90116125991757
0.500574250351441	1.59664623427897
0.500574250351441	0.529790742388975
0.500574250351441	-0.737404544413369
0.500574250351441	-0.486329755523016
0.500574250351441	0.0148485498291784
0.500574250351441	-1.52257909019914
0.500574250351441	-0.789570554714761
0.500574250351441	0.568807398543726
0.500574250351441	-0.382027857177896
0.500574250351441	2.26438814158876
0.500574250351441	1.81606353143882
0.500574250351441	-1.10820394396749
0.500574250351441	0.158260908465198
0.500574250351441	1.85151302970196
0.500574250351441	0.115075805566658
0.500574250351441	1.20195325447428
0.500574250351441	0.455647504987308
0.500574250351441	1.41788492194334
0.500574250351441	-0.0860591011250946
0.500574250351441	-0.0784848821663751
0.500574250351441	-2.32929742500227
0.500574250351441	0.692271694131037
0.500574250351441	2.30640750988354
0.500574250351441	0.273674216613873
0.500574250351441	0.347769819799712
0.500574250351441	-1.07384038733953
0.500574250351441	-0.0672057990961399
0.500574250351441	-0.00880210761169309
0.500574250351441	0.49030906040349
0.500574250351441	0.52853267119734
0.500574250351441	2.99978099888295
0.500574250351441	-1.07781370584417
0.500574250351441	-3.13101301111287
0.500574250351441	-1.82144225431265
0.500574250351441	0.767006156572869
0.500574250351441	-0.0974695112536743
0.500574250351441	-1.24379888922933
0.500574250351441	-1.14939565595051
0.500574250351441	0.0786314755638742
0.500574250351441	0.340775439020462
0.500574250351441	1.75802836235814
0.500574250351441	-2.7450768755931
0.500574250351441	-1.09932745791292
0.500574250351441	-1.10984099500485
0.500574250351441	2.38928118483896
0.500574250351441	-0.254451133735717
0.500574250351441	-1.62852294865245
0.500574250351441	0.3613898475223
0.500574250351441	-0.821335500891696
0.500574250351441	-1.42657012895145
0.500574250351441	0.73411137515679
0.500574250351441	-1.5249809804351
0.500574250351441	2.36345276657386
0.500574250351441	0.452088185768414
0.500574250351441	0.978003091504181
0.500574250351441	0.311364875107259
0.500574250351441	-0.812557680762552
0.500574250351441	0.868768050124931
0.500574250351441	-3.85553021810917
0.500574250351441	-0.912882523800594
0.500574250351441	1.81849923651401
0.500574250351441	-3.12892553147447
0.500574250351441	2.09120790255356
0.500574250351441	-2.77024527772046
0.500574250351441	-0.537928725853849
0.500574250351441	2.37664187603269
0.500574250351441	0.852411749870839
0.500574250351441	-0.476371633519726
0.500574250351441	2.88373059516905
0.500574250351441	1.53663670329793
0.500574250351441	-2.32862075837868
0.500574250351441	1.8938524934892
0.500574250351441	-3.89410215365962
0.500574250351441	4.4985627234796
0.500574250351441	-1.41199669898203
0.500574250351441	0.30101015427935
0.500574250351441	1.44714923539485
0.500574250351441	-2.7966476531582
0.500574250351441	1.9918481608465
0.500574250351441	0.137483050590919
0.500574250351441	1.66529132313066
0.500574250351441	-1.57306834079444
0.500574250351441	1.79709908023667
0.500574250351441	-1.57925235212843
0.500574250351441	0.789522904324219
0.500574250351441	-2.03742379776691
0.500574250351441	-0.245905109164017
0.500574250351441	0.957269202947163
0.500574250351441	0.67172115528091
0.500574250351441	2.02516879763287
0.500574250351441	-2.91956284885166
0.500574250351441	1.05174514524544
0.500574250351441	-0.0660079110854461
0.500574250351441	-2.64891357636946
0.500574250351441	-0.633244780489388
0.500574250351441	-1.4928894076374
0.500574250351441	1.69728852244641
0.500574250351441	-0.262271575742908
0.500574250351441	-0.568528019148808
0.500574250351441	1.48638024679528
0.500574250351441	0.0347408165923113
0.500574250351441	-2.17430639032131
0.500574250351441	-1.26575896557391
0.500574250351441	1.89969201283058
0.500574250351441	-1.52433415059803
0.500574250351441	-1.61668345993986
0.500574250351441	2.64374410888491
0.500574250351441	-0.205649451950201
0.500574250351441	1.11582702046554
0.500574250351441	3.48727171040806
0.500574250351441	2.21904125490583
0.500574250351441	-3.37792720579093
0.500574250351441	0.353630492134773
0.500574250351441	-1.51048512481841
0.500574250351441	1.21751520848143
0.500574250351441	-3.57942965923341
0.500574250351441	0.168925441058281
0.500574250351441	0.697458542404824
0.500574250351441	-0.145177856423222
0.500574250351441	0.0473807520025069
0.500574250351441	-0.0426644824184308
0.500574250351441	-0.0230576348130711
0.500574250351441	3.88151036810025
0.500574250351441	1.1593436466018
0.500574250351441	1.15809628263397
0.500574250351441	-0.770438264689222
0.500574250351441	-1.99197895656944
0.500574250351441	1.16066767174667
0.500574250351441	0.604532793766914
0.500574250351441	-0.914877810240579
0.500574250351441	0.937746022781511
0.500574250351441	0.521369052806111
0.500574250351441	-0.479657002050153
0.500574250351441	-2.51687588724866
0.500574250351441	3.70319444492523
0.500574250351441	1.23025296458017
0.500574250351441	0.439451925778851
0.500574250351441	-0.427640479503111
0.500574250351441	1.18105538908304
0.500574250351441	-1.21744055184835
0.500574250351441	1.32029516498736
0.500574250351441	0.859120844330189
0.500574250351441	-0.423891596057988
0.500574250351441	-0.944333627050845
0.500574250351441	0.595283005369684
0.500574250351441	-0.655180990365736
0.500574250351441	-2.24558379721574
0.500574250351441	-0.0982927554050441
0.500574250351441	0.879298271392177
0.500574250351441	-2.57714280246292
0.500574250351441	3.68668934452534
0.500574250351441	0.73410272489873
0.500574250351441	2.16871284376782
0.500574250351441	0.0831952751270855
0.500574250351441	0.132091850865869
0.500574250351441	-1.02848430439289
0.500574250351441	0.434134797295755
0.500574250351441	1.7030231282948
0.500574250351441	1.67978661522912
0.500574250351441	1.82249770743295
0.500574250351441	-1.98327502125574
0.500574250351441	-0.163177860039063
0.500574250351441	-0.885736697177304
0.500574250351441	1.22175563261375
0.500574250351441	-0.629937025716384
0.500574250351441	0.554234782535261
0.500574250351441	0.934193139139161
0.500574250351441	1.29768649976976
0.500574250351441	1.98591964892185
0.500574250351441	-0.161233750647138
0.500574250351441	-2.02954568086602
0.500574250351441	-2.43098550122638
0.500574250351441	-0.873463959052444
0.500574250351441	-5.89978536399692
0.500574250351441	1.31171684075838
0.500574250351441	1.35242572908945
0.500574250351441	1.14089644030246
0.500574250351441	-2.07747591345004
0.500574250351441	-0.404374362534107
0.500574250351441	0.105104252805745
0.500574250351441	-0.7789714181738
0.500574250351441	2.23166461578401
0.500574250351441	-0.345178849535856
0.500574250351441	2.87129943421477
0.500574250351441	-0.446277999643105
0.500574250351441	0.250259821315815
0.500574250351441	-1.79124453902617
0.500574250351441	-1.77086042006233
0.500574250351441	-3.40934745167594
0.500574250351441	-0.0333497934632305
0.500574250351441	-0.160941293429779
0.500574250351441	0.882677982619228
0.500574250351441	1.583440947209
0.500574250351441	1.5567263169879
0.500574250351441	1.24987656265695
0.500574250351441	-0.757587392317053
0.500574250351441	0.556542574024178
0.500574250351441	0.13310096962357
0.500574250351441	-1.13469257667326
0.500574250351441	0.719586975223727
0.500574250351441	-0.682376883249042
0.500574250351441	2.21717666176936
0.500574250351441	2.73356685609897
0.500574250351441	1.46847395170365
0.500574250351441	0.31292854993093
0.500574250351441	1.2403699215732
0.500574250351441	1.73241221473119
0.500574250351441	0.413939558000042
0.500574250351441	0.547381196672827
0.500574250351441	-0.449050415190289
0.500574250351441	1.1388591017982
0.500574250351441	0.612283293661616
0.500574250351441	-0.772787613070083
0.500574250351441	-1.26740223914289
0.500574250351441	-0.77201707129551
0.500574250351441	-0.136484637219784
0.500574250351441	1.40294438682907
0.500574250351441	2.67829888441926
0.500574250351441	-0.835492605159786
0.500574250351441	1.76251585451019
0.500574250351441	-1.59876747099742
0.500574250351441	0.667720761604393
0.500574250351441	-0.459275769999454
0.500574250351441	1.49043016678801
0.500574250351441	0.668416574213119
0.500574250351441	-3.34755048289304
0.500574250351441	-0.267011539317476
0.500574250351441	2.7200370109923
0.500574250351441	-1.25155295531815
0.500574250351441	0.953751509439684
0.500574250351441	-0.814216116177711
0.500574250351441	0.272206678195325
0.500574250351441	3.66982716209524
0.500574250351441	-2.79396377716863
0.500574250351441	-0.982259031264839
0.500574250351441	2.78252893503095
0.500574250351441	2.22456858412245
0.500574250351441	-1.04776893259223
0.500574250351441	1.54240297373871
0.500574250351441	0.989912257902326
0.500574250351441	0.934954813010183
0.500574250351441	-3.2732777690459
0.500574250351441	-1.13081466298504
0.500574250351441	-3.04627828825301
0.500574250351441	-1.96055100230913
0.500574250351441	0.946160383847339
0.500574250351441	-1.85271883874269
0.500574250351441	2.38940783217289
0.500574250351441	0.480675790923254
0.500574250351441	0.652221254534545
0.500574250351441	1.3359672486561
0.500574250351441	0.0125803585347555
0.500574250351441	1.04478095979795
0.500574250351441	-0.120943033381046
0.500574250351441	-4.43497860395661
0.500574250351441	-2.40258419456473
0.500574250351441	-0.364781002115873
0.500574250351441	-1.14289644872812
0.500574250351441	0.22316860329521
0.500574250351441	2.95080346709571
0.500574250351441	1.46484258997896
0.500574250351441	0.733705222737623
0.500574250351441	-2.2707589094938
0.500574250351441	2.21617321390961
0.500574250351441	-2.21177911549611
0.500574250351441	-1.5176305355329
0.500574250351441	-0.183095829572178
0.500574250351441	0.142881694088203
0.500574250351441	-2.92360708520026
0.500574250351441	3.71531226098174
0.500574250351441	1.42596847126927
0.500574250351441	0.348100238477098
0.500574250351441	1.78980484097724
0.500574250351441	1.31071280643928
0.500574250351441	-1.20115799603343
0.500574250351441	0.975534756814003
0.500574250351441	1.79478706902715
0.500574250351441	2.26936616485839
0.500574250351441	0.461281003466617
0.500574250351441	0.963770110406962
0.500574250351441	-2.00462166652972
0.500574250351441	1.5476612325775
0.500574250351441	-0.812958974335949
0.500574250351441	2.59732285092875
0.500574250351441	3.22402375629428
0.500574250351441	-0.0962185936189144
0.500574250351441	0.827138732695694
0.500574250351441	1.88541441989939
0.500574250351441	-0.384748618700019
0.500574250351441	2.51657690240871
0.500574250351441	2.74221105603542
0.500574250351441	3.15133711390797
0.500574250351441	0.777209116096017
0.500574250351441	1.11782533640298
0.500574250351441	-1.62167673366285
0.500574250351441	-0.313372089914921
0.500574250351441	-1.26825419091272
0.500574250351441	4.48544828175523
0.500574250351441	1.60203105322197
0.500574250351441	1.84026261866568
0.500574250351441	1.72014281160267
0.500574250351441	2.12324171278424
0.500574250351441	-1.37816715759388
0.500574250351441	2.89740609035758
0.500574250351441	1.70746899036379
0.500574250351441	-3.20352640006288
0.500574250351441	-1.08689228923848
0.500574250351441	-0.528737902770281
0.500574250351441	-0.436544415586113
0.500574250351441	0.60787177047747
0.500574250351441	0.0164674787907124
0.500574250351441	2.40165513224866
0.500574250351441	0.755865862715467
0.500574250351441	-0.563199505952788
0.500574250351441	-0.997581111344232
0.500574250351441	-2.00123595740721
0.500574250351441	-3.51077737618846
0.500574250351441	2.25037857375777
0.500574250351441	-0.683734436209996
0.500574250351441	4.50351714387077
0.500574250351441	-1.19703397547077
0.500574250351441	2.79771974045699
0.500574250351441	-2.98055589663356
0.500574250351441	1.83840599827667
0.500574250351441	-2.55163386743144
0.500574250351441	-1.07984829486913
0.500574250351441	-1.30517416923119
0.500574250351441	-1.06674730340282
0.500574250351441	0.595409707893708
0.500574250351441	-2.702691130425
0.500574250351441	-1.03196450628572
0.500574250351441	-1.87964473281804
0.500574250351441	1.15579605017515
0.500574250351441	-1.07272857180899
0.500574250351441	3.49020766612847
0.500574250351441	1.03822988824031
0.500574250351441	-0.932572333208025
0.500574250351441	-0.922583810087815
0.500574250351441	-0.0389912288839867
0.500574250351441	1.70359424529521
0.500574250351441	1.68834889030619
0.500574250351441	3.21792828330431
0.500574250351441	0.391582894877885
0.500574250351441	-0.789578982058423
0.500574250351441	0.762746853280525
0.500574250351441	2.55623463013234
0.500574250351441	-1.22393651886056
0.500574250351441	-0.629853640790781
0.500574250351441	2.28391820534188
0.500574250351441	-0.497592625288377
0.500574250351441	-2.3670921876625
0.500574250351441	-0.602237566607684
0.500574250351441	0.324972376016657
0.500574250351441	-4.15363783817852
0.500574250351441	1.57574566362807
0.500574250351441	-2.81395194218274
0.500574250351441	0.845135237079248
0.500574250351441	-4.00015184269863
0.500574250351441	-2.26160711440345
0.500574250351441	-0.789990642000298
0.500574250351441	-1.67455554137171
0.500574250351441	2.80012155921672
0.500574250351441	-0.323425789130717
0.500574250351441	-0.511942156275452
0.500574250351441	1.3622482086053
0.500574250351441	-0.466146440565449
0.500574250351441	0.770271205754131
0.500574250351441	-0.625874704960729
0.500574250351441	0.291554572133236
0.500574250351441	0.86559261918697
0.500574250351441	-0.54122374178904
0.500574250351441	-1.58090969593864
0.500574250351441	-4.07651941251701
0.500574250351441	0.534601684413463
0.500574250351441	-0.0391968141076973
0.500574250351441	-0.945143449453688
0.500574250351441	1.73106677918639
0.500574250351441	-2.53665915779703
0.500574250351441	0.0467841744434239
0.500574250351441	-0.223320846420997
0.500574250351441	0.738012735206279
0.500574250351441	-1.77276832957068
0.500574250351441	2.6196091285332
0.500574250351441	-1.41823225083559
0.500574250351441	-0.62543398060523
0.500574250351441	-5.52302805170619
0.500574250351441	1.71292683415806
0.500574250351441	1.41974531171205
0.500574250351441	-1.62573847556175
0.500574250351441	0.328951694912089
0.500574250351441	2.87774084040093
0.500574250351441	-2.88350027904861
0.500574250351441	-0.241165376894134
0.500574250351441	-1.49111291486303
0.500574250351441	-1.37130256003352
0.500574250351441	1.96057582676242
0.500574250351441	-2.51481792425173
0.500574250351441	-1.82457965920759
0.500574250351441	0.102497368048759
0.500574250351441	-0.824876621727178
0.500574250351441	1.69676484808087
0.500574250351441	1.58347876953251
0.500574250351441	-1.60804354430115
0.500574250351441	0.549881365827463
0.500574250351441	-0.899385751030223
0.500574250351441	0.110221121097737
0.500574250351441	2.31885125776279
0.500574250351441	-2.02163281288327
0.500574250351441	-0.336054224333786
0.500574250351441	2.1214668433499
0.500574250351441	1.51197302156537
0.500574250351441	0.801569689280193
0.500574250351441	-1.21985591463376
0.500574250351441	-0.402015835872838
0.500574250351441	-1.91288829151233
0.500574250351441	1.92078778797046
0.500574250351441	0.402606320295011
0.500574250351441	-4.02952202215063
0.500574250351441	-1.50740011572514
0.500574250351441	1.69421030940971
0.500574250351441	-1.31188598264134
0.500574250351441	-2.4464568466162
0.500574250351441	-1.66050802327775
0.500574250351441	3.33825636713302
0.500574250351441	0.876572274675095
0.500574250351441	-0.24657786448179
0.500574250351441	2.4536125926926
0.500574250351441	2.76754913617347
0.500574250351441	-0.257728902197751
0.500574250351441	2.8658338311799
0.500574250351441	3.51669930084761
0.500574250351441	0.712052274823964
0.500574250351441	-1.96175834142018
0.500574250351441	1.47980637321133
0.500574250351441	-0.0341041880374888
0.500574250351441	0.428204416504173
0.500574250351441	-2.59672785209439
0.500574250351441	-0.293502112824136
0.500574250351441	-0.423598386598606
0.500574250351441	-2.63825317868831
0.500574250351441	-2.70370164881344
0.500574250351441	-0.655001854569367
0.500574250351441	2.38287743963584
0.500574250351441	0.0280084725286365
0.500574250351441	-2.50587759423938
0.500574250351441	3.33957944462394
0.500574250351441	0.540044489530658
0.500574250351441	-2.20019048555646
0.500574250351441	-2.47803808357157
0.500574250351441	2.67453468604629
0.500574250351441	0.681097298269076
0.500574250351441	-0.600158611032839
0.500574250351441	2.38378762198538
0.500574250351441	2.13944304005208
0.500574250351441	0.250542908566331
0.500574250351441	-0.160445505412863
0.500574250351441	0.109086080451377
0.500574250351441	0.461385891703983
0.500574250351441	0.729438479082052
0.500574250351441	0.809627400497266
0.500574250351441	0.195232453591132
0.500574250351441	0.976599412309728
0.500574250351441	1.24099244548363
0.500574250351441	-1.29445221470913
0.500574250351441	2.73762513455788
0.500574250351441	-3.5637005951729
0.500574250351441	1.14827548962176
0.500574250351441	-0.315436522756354
0.500574250351441	-0.756477364911735
0.500574250351441	-0.249161853696286
0.500574250351441	1.95710527630694
0.500574250351441	-2.54820648774561
0.500574250351441	-0.447294697692232
0.500574250351441	0.0560284323867393
0.500574250351441	2.40329718135955
0.500574250351441	1.00844789212742
0.500574250351441	0.970042548745703
0.500574250351441	2.71490797886409
0.500574250351441	-1.65921738144503
0.500574250351441	1.29074335486381
0.500574250351441	0.371385988631271
0.500574250351441	0.171494100116309
0.500574250351441	1.78104804073696
0.500574250351441	-1.86602797188431
0.500574250351441	-0.612775608834337
0.500574250351441	3.38006894573221
0.500574250351441	-1.7894078755915
0.500574250351441	2.87633724215147
0.500574250351441	-0.607086298295592
0.500574250351441	0.791631827380328
0.500574250351441	2.31826246841002
0.500574250351441	-2.26336204219818
0.500574250351441	0.724572685844219
0.500574250351441	1.88693946333227
0.500574250351441	-1.32022919856982
0.500574250351441	0.344826967131546
0.500574250351441	1.09598367728284
0.500574250351441	-0.891233684666126
0.500574250351441	-1.42222947848679
0.500574250351441	-2.41547875527371
0.500574250351441	-3.4460234073048
0.500574250351441	0.300259851319311
0.500574250351441	1.89877592216354
0.500574250351441	2.38617408427671
0.500574250351441	1.65429425569629
0.500574250351441	-1.82913975273624
0.500574250351441	0.150365446147724
0.500574250351441	2.97928944702007
0.500574250351441	-0.413474389883522
0.500574250351441	0.894469528706434
0.500574250351441	0.742485532588692
0.500574250351441	0.97739638507031
0.500574250351441	-0.880696069980086
0.500574250351441	-0.340247594187602
0.500574250351441	0.756802922632115
0.500574250351441	-1.26990709862951
0.500574250351441	-0.430540591710329
0.500574250351441	-2.39674105291583
0.500574250351441	0.84504917248432
0.500574250351441	2.08057993035614
0.500574250351441	-0.859379370902968
0.500574250351441	-0.471785670722259
0.500574250351441	-1.28258392777266
0.500574250351441	1.9845839447699
0.500574250351441	0.104686445542487
0.500574250351441	-0.684928715711568
0.500574250351441	-1.53202420384789
0.500574250351441	-1.58519259968989
0.500574250351441	0.167056903641537
0.500574250351441	-0.615087822023
0.500574250351441	-2.68098234479891
0.500574250351441	1.30770680970369
0.500574250351441	1.11873813015811
0.500574250351441	1.73716226921105
0.500574250351441	-0.0341988931796209
0.500574250351441	-4.25506069240219
0.500574250351441	-0.588808626832254
0.500574250351441	2.94964927849741
0.500574250351441	-1.39255518200921
0.500574250351441	1.17044719281799
0.500574250351441	-0.103628334920213
0.500574250351441	-1.35265077127997
0.500574250351441	-0.489361722991266
0.500574250351441	1.79183706809092
0.500574250351441	0.805616991598509
0.500574250351441	0.084829784958206
0.500574250351441	1.78266630123969
0.500574250351441	-2.28862630720253
0.500574250351441	-0.299813993149623
0.500574250351441	-0.255434486662757
0.500574250351441	1.1808764408928
0.500574250351441	1.4647753013428
0.500574250351441	1.27431959274336
0.500574250351441	-0.189243753668084
0.500574250351441	-1.31268748020864
0.500574250351441	-1.06132229218492
0.500574250351441	1.54535084320091
0.500574250351441	2.07188369998045
0.500574250351441	2.40794407870884
0.500574250351441	0.161116020569363
0.500574250351441	-2.19318410323464
0.500574250351441	-1.48943064396487
0.500574250351441	1.0703864172213
0.500574250351441	0.613434699720901
0.500574250351441	-1.5510738625945
0.500574250351441	-0.577898577952173
0.500574250351441	0.415103368395751
0.500574250351441	2.10227030198345
0.500574250351441	1.7230931719934
0.500574250351441	-1.6849116531138
0.500574250351441	-1.80759022432393
0.500574250351441	-0.676683714170252
0.500574250351441	2.5137226581343
0.500574250351441	-0.475722807636348
0.500574250351441	0.979447426725315
0.500574250351441	0.451463309755255
0.500574250351441	0.884522781800609
0.500574250351441	-0.475036990424339
0.500574250351441	-0.91679793669956
0.500574250351441	-2.43576461400908
0.500574250351441	-0.467629759293185
0.500574250351441	1.56132066188359
0.500574250351441	2.51124312542285
0.500574250351441	2.43010454625887
0.500574250351441	-0.518698529320769
0.500574250351441	3.15540138133304
0.500574250351441	-2.94201678985099
0.500574250351441	0.120937723105506
0.500574250351441	0.892884129861216
0.500574250351441	-0.078711465888869
0.500574250351441	1.43444248021448
0.500574250351441	-1.71294166100453
0.500574250351441	0.777512024452106
0.500574250351441	1.80691133765428
0.500574250351441	-1.15093610580514
0.500574250351441	1.24564731359838
0.500574250351441	1.18155617090654
0.500574250351441	-1.60376613158451
0.500574250351441	1.19436086358399
0.500574250351441	-0.171820358254703
0.500574250351441	0.488483041184971
0.500574250351441	1.6821105382973
0.500574250351441	-1.45608497657354
0.500574250351441	-1.64471044533286
0.500574250351441	-0.698523715303235
0.500574250351441	-1.25449539702291
0.500574250351441	0.550175088319776
0.500574250351441	1.51472971696484
0.500574250351441	2.02331648166695
0.500574250351441	0.652784415538335
0.500574250351441	-1.06361167418827
0.500574250351441	-3.43109837499687
0.500574250351441	1.00352399846112
0.500574250351441	-1.84931196406392
0.500574250351441	-1.2428096761455
0.500574250351441	0.242989470474054
0.500574250351441	1.59906827813107
0.500574250351441	-1.27968045572189
0.500574250351441	1.86356876895372
0.500574250351441	4.19181513271315
0.500574250351441	-1.92598564832774
0.500574250351441	2.09085306681526
0.500574250351441	-2.17625001282081
0.500574250351441	-2.51377399976702
0.500574250351441	-4.87290219525495
0.500574250351441	-0.317608757902711
0.500574250351441	-0.435236352909765
0.500574250351441	-1.24916369624076
0.500574250351441	0.951498083302003
0.500574250351441	1.32043619450853
0.500574250351441	-0.178802093551397
0.500574250351441	-1.53098793674304
0.500574250351441	-0.780185031161995
0.500574250351441	2.71964077013756
0.500574250351441	-0.818672433463515
0.500574250351441	-1.85811540442649
0.500574250351441	-1.43776339671408
0.500574250351441	2.84184959235666
0.500574250351441	1.18141811364693
0.500574250351441	0.624431683952857
0.500574250351441	-0.876511224985698
0.500574250351441	0.820281069438014
0.500574250351441	-0.148447904284595
0.500574250351441	0.213232242002885
0.500574250351441	2.93745971953348
0.500574250351441	-1.21782295236358
0.500574250351441	-3.3464660830127
0.500574250351441	-0.624273643730536
0.500574250351441	-1.29863323577252
0.500574250351441	1.10709727421254
0.500574250351441	1.58864008238184
0.500574250351441	2.71896889963936
0.500574250351441	0.66041680870735
0.500574250351441	0.418583835551093
0.500574250351441	0.787940030214774
0.500574250351441	-2.31475861623463
0.500574250351441	-0.760999681910921
0.500574250351441	2.71196558177315
0.500574250351441	1.02472211963987
0.500574250351441	-1.41972595350958
0.500574250351441	2.14098615429224
0.500574250351441	2.53409013483041
0.500574250351441	-1.54015570685474
0.500574250351441	1.02929321266517
0.500574250351441	0.452892750596821
0.500574250351441	3.2660815642792
0.500574250351441	0.129869900664136
0.500574250351441	0.509982524891409
0.500574250351441	0.678160095914802
0.500574250351441	2.16196818377614
0.500574250351441	1.7047189664366
0.500574250351441	-0.961951512242944
0.500574250351441	1.81156735450725
0.500574250351441	-2.54341391596111
0.500574250351441	-0.544186648077165
0.500574250351441	2.25594224839091
0.500574250351441	1.36365303664141
0.500574250351441	0.566937439970985
0.500574250351441	0.201340139226271
0.500574250351441	0.664225618978517
0.500574250351441	-2.12647970913749
0.500574250351441	-1.31110936825269
0.500574250351441	1.40249396678665
0.500574250351441	-1.32873827024245
0.500574250351441	-1.15876765108513
0.500574250351441	0.91366961367785
0.500574250351441	-3.56333850771572
0.500574250351441	-2.35977543589111
0.500574250351441	-0.861638914455821
0.500574250351441	2.22018182510973
0.500574250351441	-2.39917767712471
0.500574250351441	1.81403870489881
0.500574250351441	1.88824045834098
0.500574250351441	0.420775914693699
0.500574250351441	-0.130122214532264
0.500574250351441	1.77339959881636
0.500574250351441	0.192622640386606
0.500574250351441	1.14061621147313
0.500574250351441	2.73022916103158
0.500574250351441	-0.871157142774198
0.500574250351441	-0.949661116342607
0.500574250351441	1.08067105279363
0.500574250351441	0.557184809961282
0.500574250351441	1.39122385500523
0.500574250351441	-0.649615511253067
0.500574250351441	1.08550777551657
0.500574250351441	1.69418595433025
0.500574250351441	-0.306045228345255
0.500574250351441	3.77111402257202
0.500574250351441	-0.719755690476227
0.500574250351441	-0.825536108912988
0.500574250351441	-0.335039747992525
0.500574250351441	0.638173298191777
0.500574250351441	3.48741069926257
0.500574250351441	0.329997879459505
0.500574250351441	1.1253357920801
0.500574250351441	-4.43009725679415
0.500574250351441	0.277286179220908
0.500574250351441	1.73169333298244
0.500574250351441	-3.34148349105026
0.500574250351441	0.726001476780649
0.500574250351441	-2.22939990074785
0.500574250351441	0.922578079611274
0.500574250351441	-2.31755010844512
0.500574250351441	0.85629715519741
0.500574250351441	0.654140399494011
0.500574250351441	-1.61926778486354
0.500574250351441	0.926317040142138
0.500574250351441	-0.254752842746367
0.500574250351441	-0.963691925248742
0.500574250351441	0.126404790536615
0.500574250351441	-4.09677143881052
0.500574250351441	-0.0138940544659647
0.500574250351441	1.87358263851059
0.500574250351441	-1.42683975273589
0.500574250351441	3.7688462958854
0.500574250351441	0.203942532150624
0.500574250351441	-2.00694143424424
0.500574250351441	0.511875214587377
0.500574250351441	0.785498458737003
0.500574250351441	2.83483515428187
0.500574250351441	-1.39053595821873
0.500574250351441	0.508202117564338
0.500574250351441	1.96724622919013
0.500574250351441	2.31142348531874
0.500574250351441	-1.36457090557086
0.500574250351441	0.407990682588089
0.500574250351441	-1.72000254942794
0.500574250351441	1.5146911321831
0.500574250351441	2.23711796414304
0.500574250351441	1.98797625082717
0.500574250351441	-4.0966972258591
0.500574250351441	0.16352448121032
0.500574250351441	0.0799102013061237
0.500574250351441	2.97303593332963
0.500574250351441	1.67580466774183
0.500574250351441	-0.054626450247369
0.500574250351441	0.495621528455885
0.500574250351441	0.206372951309522
0.500574250351441	-0.178611784306764
0.500574250351441	-0.0812704224229748
0.500574250351441	-1.08497713598
0.500574250351441	-2.6658758636733
0.500574250351441	0.453082598027532
0.500574250351441	-1.94780382051874
0.500574250351441	0.977910015510552
0.500574250351441	3.39671620398459
0.500574250351441	-1.59642391499322
0.500574250351441	-0.515197077986439
0.500574250351441	-0.412424581717293
0.500574250351441	2.16731775487989
0.500574250351441	0.431519533125794
0.500574250351441	0.331765614915728
0.500574250351441	1.07799975753484
0.500574250351441	0.182327355854916
0.500574250351441	-0.26023647112919
0.500574250351441	-2.26273271787768
0.500574250351441	2.30470893251567
0.500574250351441	-1.87258369524739
0.500574250351441	-2.07738389645921
0.500574250351441	-0.176681669892833
0.500574250351441	-1.06361461165026
0.500574250351441	-1.31360119114431
0.500574250351441	1.99327504819287
0.500574250351441	-0.318648854283786
0.500574250351441	1.10946727665591
0.500574250351441	0.708533487629442
0.500574250351441	3.06303553586696
0.500574250351441	0.504091822914965
0.500574250351441	4.15482223564947
0.500574250351441	-2.30555732697898
0.500574250351441	1.61374169946532
0.500574250351441	-0.197913510445762
0.500574250351441	-0.981314138810621
0.500574250351441	0.0928375917567621
0.500574250351441	0.613390266252843
0.500574250351441	0.126412550744078
0.500574250351441	-1.25229788087392
0.500574250351441	1.09211386169357
0.500574250351441	-0.613099189294111
0.500574250351441	0.327971023810541
0.500574250351441	1.81177777700373
0.500574250351441	2.17722450644102
0.500574250351441	0.785627083013324
0.500574250351441	1.01145039819017
0.500574250351441	-1.40913595950292
0.500574250351441	-2.09385632673154
0.500574250351441	-2.71515303140748
0.500574250351441	1.73001871483364
0.500574250351441	-0.368164165289745
0.500574250351441	-1.85434531321748
0.500574250351441	0.120553242443144
0.500574250351441	2.38266587483731
0.500574250351441	-0.212068860589305
0.500574250351441	-3.2609105940092
0.500574250351441	-2.14838067427652
0.500574250351441	2.16582338736665
0.500574250351441	0.487064622060533
0.500574250351441	1.40852346036117
0.500574250351441	-0.382128542961162
0.500574250351441	1.49688508918728
0.500574250351441	2.38472790792971
0.500574250351441	0.664548915937615
0.500574250351441	2.593611655914
0.500574250351441	2.12977292064513
0.500574250351441	1.91217211294166
0.500574250351441	-2.10781145994011
0.500574250351441	2.25727979573424
0.500574250351441	-2.41837882761982
0.500574250351441	-0.766080325251973
0.500574250351441	3.07067880161407
0.500574250351441	-3.22253397619411
0.500574250351441	-1.33818111222521
0.500574250351441	2.56500383177266
0.500574250351441	-0.705437248464957
0.500574250351441	2.10816655699149
0.500574250351441	2.70853228269649
0.500574250351441	-1.42677941005342
0.500574250351441	0.296152024455949
0.500574250351441	2.67880213088666
0.500574250351441	0.722966796873536
0.500574250351441	-0.390696489566135
0.500574250351441	0.404013938715842
0.500574250351441	-1.11676780301585
0.500574250351441	1.15677936361191
0.500574250351441	-1.53888294319393
0.500574250351441	0.340834980367315
0.500574250351441	-0.0180096407640207
0.500574250351441	-0.753131866507498
0.500574250351441	-2.15297291344517
0.500574250351441	-0.73005600977924
0.500574250351441	1.2760930201344
0.500574250351441	0.173380050104601
0.500574250351441	-0.482298263660635
0.500574250351441	2.17941249545947
0.500574250351441	0.207202245344007
0.500574250351441	-0.0128392064936307
0.500574250351441	1.38032962965832
0.500574250351441	-0.108915348057142
0.500574250351441	0.959463445614105
0.500574250351441	-2.81743370900116
0.500574250351441	1.74780070333082
0.500574250351441	3.1288816557528
0.500574250351441	0.663733071948588
0.500574250351441	-0.0309082694565177
0.500574250351441	1.61872119211624
0.500574250351441	2.78788101261808
0.500574250351441	-0.803303603849542
0.500574250351441	-1.71018369346388
0.500574250351441	1.03435268667084
0.500574250351441	-0.737595507098632
0.500574250351441	-1.92212107360362
0.500574250351441	2.35220753096333
0.500574250351441	1.85401836093429
0.500574250351441	-3.38762864104363
0.500574250351441	-1.98028468184518
0.500574250351441	2.23334333409915
0.500574250351441	2.07069343951032
0.500574250351441	1.85181339401968
0.500574250351441	0.739276382137962
0.500574250351441	0.0651367468238675
0.500574250351441	2.05811850024418
0.500574250351441	-0.429590470739143
0.500574250351441	0.842165943233407
0.500574250351441	0.289246091246216
0.500574250351441	0.892869909276186
0.500574250351441	-0.499973928820499
0.500574250351441	0.677174481908498
0.500574250351441	1.62288803954452
0.500574250351441	1.2633592364418
0.500574250351441	-2.03102962693493
0.500574250351441	3.77312398188809
0.500574250351441	1.2561878043397
0.500574250351441	0.771849848438215
0.500574250351441	-1.70348033546927
0.500574250351441	-0.463999746226889
0.500574250351441	0.330545638744031
0.500574250351441	-0.945035673302723
0.500574250351441	1.71361717697733
0.500574250351441	0.060670225969119
0.500574250351441	-1.05458960816798
0.500574250351441	-0.624816199302948
0.500574250351441	-3.41875359687368
0.500574250351441	-3.31450188377637
0.500574250351441	1.64358074172644
0.500574250351441	1.56416536352844
0.500574250351441	1.56507819087455
0.500574250351441	0.897139439350941
0.500574250351441	-0.0257579498692166
0.500574250351441	-2.07333345190517
0.500574250351441	-1.87359924361144
0.500574250351441	3.34882544641537
0.500574250351441	0.592867683046752
0.500574250351441	0.704029383519323
0.500574250351441	1.11782773466183
0.500574250351441	0.517367127624215
0.500574250351441	-0.624537526836836
0.500574250351441	0.0761710224649335
0.500574250351441	3.54358303274004
0.500574250351441	-0.480676204228345
0.500574250351441	1.54275367687324
0.500574250351441	0.756767419776509
0.500574250351441	2.74016311140698
0.500574250351441	1.60001686386393
0.500574250351441	2.60914512706415
0.500574250351441	-0.149158987103732
0.500574250351441	1.2632926410549
0.500574250351441	2.34867809986251
0.500574250351441	-1.89152454584805
0.500574250351441	1.86901332524824
0.500574250351441	-2.28601889346543
0.500574250351441	0.734243405996896
0.500574250351441	-2.83391562713772
0.500574250351441	2.99633812491169
0.500574250351441	-0.663348384416949
0.500574250351441	-0.694297778294818
0.500574250351441	0.344581938581015
0.500574250351441	0.131058794652798
0.500574250351441	-1.98062673323429
0.500574250351441	-0.196835083997556
0.500574250351441	-1.08110420435736
0.500574250351441	1.76187841961825
0.500574250351441	0.1025852884766
0.500574250351441	0.244951919692042
0.500574250351441	0.441811540709459
0.500574250351441	-1.5859386260222
0.500574250351441	-0.789947894826085
0.500574250351441	-0.943412905338306
0.500574250351441	-1.40149921050899
0.500574250351441	2.53591556669543
0.500574250351441	-0.0932839467263022
0.500574250351441	1.64942032434697
0.500574250351441	-1.23717215340594
0.500574250351441	-0.235946828818751
0.500574250351441	2.4962441926545
0.500574250351441	2.34544179828389
0.500574250351441	3.02820838590729
0.500574250351441	-0.121145839526374
0.500574250351441	1.17042439238199
0.500574250351441	-3.51344654499534
0.500574250351441	-0.610947368067754
0.500574250351441	2.81593407559506
0.500574250351441	-1.11269140719701
0.500574250351441	-1.85775871602813
0.500574250351441	-1.18786018375063
0.500574250351441	-0.819622382265539
0.500574250351441	2.44677326942021
0.500574250351441	-0.818588689666743
0.500574250351441	-1.25353652986081
0.500574250351441	-0.31448207852689
0.500574250351441	0.657375142416559
0.500574250351441	0.756639618759543
0.500574250351441	-1.24185741655145
0.500574250351441	1.48302577934433
0.500574250351441	-1.36698011116443
0.500574250351441	2.06260987737641
0.500574250351441	0.974702802617443
0.500574250351441	-1.15988526093312
0.500574250351441	0.855623465759315
0.500574250351441	0.273581517916931
0.500574250351441	-1.22902785611607
0.500574250351441	-0.21751897733251
0.500574250351441	0.40190368201289
0.500574250351441	1.15547762001942
0.500574250351441	0.978809855742067
0.500574250351441	1.08982707074306
0.500574250351441	0.96043023731292
0.500574250351441	0.442334451913762
0.500574250351441	-0.920742245902378
0.500574250351441	2.64351168965784
0.500574250351441	0.720715609910549
0.500574250351441	1.71884860419269
0.500574250351441	-0.697103051531521
0.500574250351441	-0.535350416009347
0.500574250351441	-0.49820820175719
0.500574250351441	-2.43705964316179
0.500574250351441	2.43984638822027
0.500574250351441	0.277358243098213
0.500574250351441	1.22478376855799
0.500574250351441	1.51298265578728
0.500574250351441	-0.444072773954233
0.500574250351441	0.744625399664162
0.500574250351441	-1.07383928175122
0.500574250351441	1.14241731488437
0.500574250351441	-0.229157754707746
0.500574250351441	-0.413031037365382
0.500574250351441	1.86658900899899
0.500574250351441	2.15907782345264
0.500574250351441	-1.12189259169958
0.500574250351441	-1.88646923493467
0.500574250351441	0.106995362465106
0.500574250351441	1.50727527646984
0.500574250351441	0.584256737511929
0.500574250351441	0.196250939009239
0.500574250351441	-0.722347335159903
0.500574250351441	1.8958150942012
0.500574250351441	0.881368065978634
0.500574250351441	0.784007244780568
0.500574250351441	1.21489661857624
0.500574250351441	1.98952598434815
0.500574250351441	2.19673848896014
0.500574250351441	-2.31474608830198
0.500574250351441	0.217026331976136
0.500574250351441	2.12260992565895
0.500574250351441	0.096017391910717
0.500574250351441	3.00257328639093
0.500574250351441	3.35901904984101
0.500574250351441	0.616732586658213
0.500574250351441	-1.03539765339539
0.500574250351441	1.561439291468
0.500574250351441	-1.50694417565528
0.500574250351441	-0.31537114022418
0.500574250351441	3.72363035489481
0.500574250351441	1.57600979200048
0.500574250351441	1.29711650056949
0.500574250351441	1.16853764899811
0.500574250351441	1.78083196089549
0.500574250351441	1.15299828258746
0.500574250351441	-0.984402653580386
0.500574250351441	0.932281544234785
0.500574250351441	2.12964434593412
0.500574250351441	1.4808209912454
0.500574250351441	1.76517039100577
0.500574250351441	0.109613045759822
0.500574250351441	2.84764590439876
0.500574250351441	-0.977915226076796
0.500574250351441	-1.66785070442485
0.500574250351441	0.646723125720172
0.500574250351441	1.32666640089774
0.500574250351441	1.07310329105872
0.500574250351441	0.818455235050376
0.500574250351441	-0.578659338863133
0.500574250351441	-0.301870992956275
0.500574250351441	-1.55389585250582
0.500574250351441	0.452948274713023
0.500574250351441	-0.127083977761931
0.500574250351441	2.97951678121334
0.500574250351441	-2.83348188948958
0.500574250351441	-2.68018687892217
0.500574250351441	2.03803479545163
0.500574250351441	2.54550892285233
0.500574250351441	-1.09849443137694
0.500574250351441	-0.557864407069523
0.500574250351441	3.20275132985841
0.500574250351441	-2.1086389191584
0.500574250351441	0.862207644371747
0.500574250351441	1.08150645205689
0.500574250351441	0.948753190847317
0.500574250351441	-0.249447613879852
0.500574250351441	0.981376881681079
0.500574250351441	1.74614860616038
0.500574250351441	0.298647100011863
0.500574250351441	1.12255223559591
0.500574250351441	-0.620088501954562
0.500574250351441	0.262597938097716
0.500574250351441	-1.67790188626681
0.500574250351441	0.777862757623641
0.500574250351441	-2.64302190032149
0.500574250351441	-3.84471062332489
0.500574250351441	-1.08915442714492
0.500574250351441	1.13672848768284
0.500574250351441	0.608397724329937
0.500574250351441	-2.26394105403639
0.500574250351441	0.277461270675971
0.500574250351441	-0.229622853170071
0.500574250351441	2.8152567194345
0.500574250351441	-3.09056926905446
0.500574250351441	1.31945787661825
0.500574250351441	1.46815999141505
0.500574250351441	-2.83335430592111
0.500574250351441	-0.262318628070688
0.500574250351441	-0.382504368592024
0.500574250351441	2.4181653817472
0.500574250351441	-2.18853255420304
0.500574250351441	-2.08284393203979
0.500574250351441	1.22185982168124
0.500574250351441	2.41093483279239
0.500574250351441	1.1059566660539
0.500574250351441	-1.61440381930919
0.500574250351441	-4.06691237154848
0.500574250351441	2.93495799757114
0.500574250351441	-0.527676914653984
0.500574250351441	-2.40839784011888
0.500574250351441	1.26042087156599
0.500574250351441	1.12335151701948
0.500574250351441	1.56967809736697
0.500574250351441	1.85376658445025
0.500574250351441	3.8922781450252
0.500574250351441	1.5210484822369
0.500574250351441	1.89517983937326
0.500574250351441	-0.24786289518245
0.500574250351441	1.36737983944644
0.500574250351441	-2.41333039040307
0.500574250351441	-2.30775549732732
0.500574250351441	1.15020135388692
0.500574250351441	-1.11429973553439
0.500574250351441	1.32780043854909
0.500574250351441	2.01289853037654
0.500574250351441	-0.760224737227823
0.500574250351441	1.34237691894378
0.500574250351441	1.31095696237094
0.500574250351441	-0.934708424078703
0.500574250351441	-1.19427679982935
0.500574250351441	-1.62368164587956
0.500574250351441	2.9289127816627
0.500574250351441	-1.09598380473415
0.500574250351441	-1.92350574975116
0.500574250351441	0.303934899373036
0.500574250351441	-0.273553784098503
0.500574250351441	-1.24726037762555
0.500574250351441	-0.319680807867702
0.500574250351441	1.4978887660951
0.500574250351441	-0.784815787071985
0.500574250351441	0.905215718033109
0.500574250351441	-1.6304180383603
0.500574250351441	0.531372389897548
0.500574250351441	-1.51997427708407
0.500574250351441	-1.5222269620949
0.500574250351441	-1.3582970544803
0.500574250351441	-0.372481182794022
0.500574250351441	-1.15711413894038
0.500574250351441	-0.0163481881643008
0.500574250351441	-1.56002859791057
0.500574250351441	-1.99663119910233
0.500574250351441	2.15589622525139
0.500574250351441	-1.29632452977481
0.500574250351441	1.74502678754337
0.500574250351441	2.54766194543477
0.500574250351441	0.414423652793324
0.500574250351441	-2.36510504081641
0.500574250351441	1.33731146863852
0.500574250351441	-1.31901226569354
0.500574250351441	0.144558465545469
0.500574250351441	0.668321144634014
0.500574250351441	1.80785103201257
0.500574250351441	-3.59740952610549
0.500574250351441	2.6814101801013
0.500574250351441	-3.46757875219692
0.500574250351441	1.81621200648793
0.500574250351441	-3.38669638889067
0.500574250351441	-0.0196317970148563
0.500574250351441	-1.0107557297837
0.500574250351441	-2.31673799835441
0.500574250351441	0.0701046395832563
0.500574250351441	0.0768173445907401
0.500574250351441	-1.23609568407375
0.500574250351441	-2.15481483740327
0.500574250351441	-1.7174471658568
0.500574250351441	1.62520788255581
0.500574250351441	1.20563736085977
0.500574250351441	2.37806476381803
0.500574250351441	0.592487598383954
0.500574250351441	3.56790500211278
0.500574250351441	-2.82770297605846
0.500574250351441	1.94270522155136
0.500574250351441	-1.05159777735974
0.500574250351441	0.689623033018066
0.500574250351441	-2.20959362468023
0.500574250351441	2.59816928844029
0.500574250351441	-1.68045719295867
0.500574250351441	0.610245664480932
0.500574250351441	-0.269058210030771
0.500574250351441	1.44118589713764
0.500574250351441	0.323941571775308
0.500574250351441	0.396184708280238
0.500574250351441	-4.84086704087586
0.500574250351441	2.17782578471731
0.500574250351441	-1.2858485384933
0.500574250351441	-0.878801919477088
0.500574250351441	0.0152797597966838
0.500574250351441	1.17325881754473
0.500574250351441	0.826295321651646
0.500574250351441	-1.50728372092734
0.500574250351441	-1.10650585372921
0.500574250351441	-3.46481106554509
0.500574250351441	2.96473173638832
0.500574250351441	-0.997609748842049
0.500574250351441	-0.126053393196379
0.500574250351441	-0.595050465620922
0.500574250351441	-1.03099497715889
0.500574250351441	0.488639022713432
0.500574250351441	0.740901767373078
0.500574250351441	1.49752501666263
0.500574250351441	0.605185746665345
0.500574250351441	-0.301705154301423
0.500574250351441	1.23128043154069
0.500574250351441	-0.0163910999657517
0.500574250351441	-1.97646443666507
0.500574250351441	-0.304720285304207
0.500574250351441	0.716812878548904
0.500574250351441	0.580057542068658
0.500574250351441	-1.22559788727993
0.500574250351441	-3.84214182739485
0.500574250351441	-0.643349428790003
0.500574250351441	-0.550396663269442
0.500574250351441	-0.922515893162672
0.500574250351441	1.01731741309694
0.500574250351441	-3.10149613623891
0.500574250351441	-2.89778778743946
0.500574250351441	-3.22598772734191
0.500574250351441	-1.71124983189335
0.500574250351441	-1.41538245520877
0.500574250351441	-0.370109710056273
0.500574250351441	-1.95236451163844
0.500574250351441	0.0152902850912078
0.500574250351441	-0.716190041248773
0.500574250351441	0.325533144458316
0.500574250351441	-3.97833264124901
0.500574250351441	3.07301177958872
0.500574250351441	-2.94939562772583
0.500574250351441	-0.539329439042977
0.500574250351441	-0.900949463934921
0.500574250351441	-4.12082919987057
0.500574250351441	2.41028510432838
0.500574250351441	-1.69997850699995
0.500574250351441	0.582214245280873
0.500574250351441	1.17739865602459
0.500574250351441	-1.12633403908995
0.500574250351441	3.41059988604225
0.500574250351441	3.08858865204412
0.500574250351441	-5.19809804914467
0.500574250351441	-0.0245880352024876
0.500574250351441	-0.993486209576851
0.500574250351441	-0.699665763023223
0.500574250351441	0.101565768424898
0.500574250351441	0.316741025186968
0.500574250351441	1.9529987651234
0.500574250351441	3.07479529113623
0.500574250351441	0.129858649323108
0.500574250351441	-4.1237702553054
0.500574250351441	-1.52591524045715
0.500574250351441	-1.6692084163871
0.500574250351441	-1.65229103414257
0.500574250351441	-1.03544631602866
0.500574250351441	2.88860246149573
0.500574250351441	0.196969304589143
0.500574250351441	1.6141686998602
0.500574250351441	-3.90825178449974
0.500574250351441	0.504622181368262
0.500574250351441	1.3638599095572
0.500574250351441	-1.09952770832656
0.500574250351441	-3.5581451512798
0.500574250351441	0.149135991304831
0.500574250351441	0.117686873470713
0.500574250351441	-1.39057957132585
0.500574250351441	-2.30431492076423
0.500574250351441	-1.30627567541932
0.500574250351441	2.86385682603795
0.500574250351441	0.415700726804086
0.500574250351441	1.15696079926838
0.500574250351441	-0.771613092149721
0.500574250351441	-1.93463371298757
0.500574250351441	-1.65482846235491
0.500574250351441	1.23068704550761
0.500574250351441	-0.297351614670326
0.500574250351441	3.32189575767815
0.500574250351441	0.936399153883631
0.500574250351441	0.356085181194452
0.500574250351441	-1.31243341520106
0.500574250351441	-2.10901714229593
0.500574250351441	2.65564103150956
0.500574250351441	-0.695945571451922
0.500574250351441	-0.379612650568632
0.500574250351441	-2.04570897304578
0.500574250351441	-1.79867573466055
0.500574250351441	-2.25469386410064
0.500574250351441	-1.17359545265443
0.500574250351441	0.225326757200062
0.500574250351441	0.614041970402841
0.500574250351441	-0.0489850412665902
0.500574250351441	-0.714722614432969
0.500574250351441	1.1543210180998
0.500574250351441	-2.22739022176797
0.500574250351441	-2.51377118179661
0.500574250351441	-1.4931146594118
0.500574250351441	-3.64464349428099
0.500574250351441	0.74556208756211
0.500574250351441	-0.263185264446545
0.500574250351441	1.54107568821062
0.500574250351441	2.76852249031866
0.500574250351441	1.3116351914256
0.500574250351441	-1.17619607142671
0.500574250351441	-0.853920183586386
0.500574250351441	-0.748883741059963
0.500574250351441	-1.36788084121375
0.500574250351441	0.512951355538952
0.500574250351441	-0.676013355355714
0.500574250351441	-2.01114185916413
0.500574250351441	0.263249930439965
0.500574250351441	-1.07990174728444
0.500574250351441	-1.3776886795169
0.500574250351441	1.05055486320122
0.500574250351441	-2.70687997929367
0.500574250351441	-2.25429668293356
0.500574250351441	0.302028224994864
0.500574250351441	0.00186121200480116
0.500574250351441	0.623388156829087
0.500574250351441	1.46386099277993
0.500574250351441	-1.88320760156266
0.500574250351441	1.29686319095621
0.500574250351441	1.92873134450594
0.500574250351441	-0.504729498234791
0.500574250351441	-0.489919626687488
0.500574250351441	1.05992258214726
0.500574250351441	-1.08642769036142
0.500574250351441	-2.21348408938683
0.500574250351441	-0.363495447115149
0.500574250351441	-0.5170598931584
0.500574250351441	-0.686759098108375
0.500574250351441	1.17931031669003
0.500574250351441	-0.523839398303672
0.500574250351441	-0.599426903892379
0.500574250351441	-1.67480208140681
0.500574250351441	-1.54746519262182
0.500574250351441	0.145965870622462
0.500574250351441	-1.25908714771788
0.500574250351441	0.669411936724114
0.500574250351441	0.0140865060205293
0.500574250351441	1.04586886674821
0.500574250351441	-2.28317706748007
0.500574250351441	1.78052991982127
0.500574250351441	-0.232156053145104
0.500574250351441	0.866067241646423
0.500574250351441	3.19195471354883
0.500574250351441	2.401898289746
0.500574250351441	-1.73639137207443
0.500574250351441	-3.53086422299059
0.500574250351441	0.101977867383493
0.500574250351441	0.0362186182827848
0.500574250351441	1.79414618693638
0.500574250351441	-1.4872209456292
0.500574250351441	0.185269801068753
0.500574250351441	2.40789380983411
0.500574250351441	-1.33020896267629
0.500574250351441	0.774840002717212
0.500574250351441	-0.629027653264895
0.500574250351441	0.948493863076308
0.500574250351441	-0.0699644338108207
0.500574250351441	-0.951008509544572
0.500574250351441	-0.440084576887273
0.500574250351441	-0.941083261635743
0.500574250351441	0.355704005041062
0.500574250351441	2.07775536860458
0.500574250351441	-0.654113081908744
0.500574250351441	-0.795953961835185
0.500574250351441	1.99153389286902
0.500574250351441	0.443799970096673
0.500574250351441	-1.58305114413746
0.500574250351441	-3.09042065977108
0.500574250351441	0.392190993685254
0.500574250351441	-1.33888647815688
0.500574250351441	0.245282944674916
0.500574250351441	0.675384787485619
0.500574250351441	2.43508552819018
0.500574250351441	0.640684740224643
0.500574250351441	2.29983383765875
0.500574250351441	-0.0135970917546047
0.500574250351441	0.63021235130622
0.500574250351441	1.82700377592202
0.500574250351441	-1.01051614210491
0.500574250351441	-2.23324487334936
0.500574250351441	0.953018166402217
0.500574250351441	-1.27187430686401
0.500574250351441	1.26118796975583
0.500574250351441	-0.910156143719757
0.500574250351441	-0.873555853386407
0.500574250351441	0.578721223573833
0.500574250351441	-0.0660325973369993
0.500574250351441	-0.273107726557647
0.500574250351441	-2.66391649275447
0.500574250351441	0.421268771457559
0.500574250351441	-0.0729242848016405
0.500574250351441	2.50729678463607
0.500574250351441	2.33728809758689
0.500574250351441	2.85243704012209
0.500574250351441	1.82672130409915
0.500574250351441	-1.69900883739501
0.500574250351441	0.678815497241448
0.500574250351441	2.01460914483095
0.500574250351441	0.684818569670664
0.500574250351441	-2.14058033445078
0.500574250351441	1.32192163841658
0.500574250351441	-0.38504499977979
0.500574250351441	1.54918613753405
0.500574250351441	-0.652829037904141
0.500574250351441	0.790029786424313
0.500574250351441	2.07366487136089
0.500574250351441	1.11316570319917
0.500574250351441	-0.625990003064448
0.500574250351441	2.31691546244178
0.500574250351441	2.49332623933167
0.500574250351441	1.48362283042118
0.500574250351441	-2.56186834302124
0.500574250351441	1.8534638208931
0.500574250351441	-0.60078095643885
0.500574250351441	0.420149279521191
0.500574250351441	-0.293968850622928
0.500574250351441	-0.147885122817335
0.500574250351441	2.89655067089848
0.500574250351441	0.3456055574262
0.500574250351441	-0.67295285638599
0.500574250351441	-0.886331775394293
0.500574250351441	-0.0820773419067145
0.500574250351441	-0.80619986555023
0.500574250351441	3.86435377919757
0.500574250351441	-0.191888909226055
0.500574250351441	2.47186674037468
0.500574250351441	-0.221843514657433
0.500574250351441	0.619424279807962
0.500574250351441	1.06268898040563
0.500574250351441	2.09372731597343
0.500574250351441	-1.42071394891021
0.500574250351441	-2.22225855540577
0.500574250351441	1.05485701671606
0.500574250351441	1.56166959608826
0.500574250351441	-0.0654146601187371
0.500574250351441	1.12145322994831
0.500574250351441	-0.395418834055587
0.500574250351441	-0.754640662290072
0.500574250351441	-0.870954487224605
0.500574250351441	-0.678800895426846
0.500574250351441	3.96698743593523
0.500574250351441	0.466632857815689
0.500574250351441	5.17971231683747
0.500574250351441	0.338379052241786
0.500574250351441	-0.332603185071651
0.500574250351441	0.436940853258147
0.500574250351441	-0.226867391181081
0.500574250351441	-1.35743855591976
0.500574250351441	-2.79147483794949
0.500574250351441	-1.21782193394271
0.500574250351441	2.35204749777142
0.500574250351441	0.259837766681173
0.500574250351441	-1.30235305404596
0.500574250351441	-2.00284121737641
0.500574250351441	-0.788906349321007
0.500574250351441	1.12700148191291
0.500574250351441	-1.17344100563479
0.500574250351441	-4.87842943917216
0.500574250351441	0.0412928780002773
0.500574250351441	-0.790614270292107
0.500574250351441	-0.105645878540489
0.500574250351441	0.849052143247022
0.500574250351441	-4.14263864738425
0.500574250351441	1.19494460744243
0.500574250351441	1.49427347536077
0.500574250351441	-2.18862441064824
0.500574250351441	-2.48505243983938
0.500574250351441	2.81348767262103
0.500574250351441	-0.273153572188214
0.500574250351441	-0.902172988118291
0.500574250351441	0.887683087883396
0.500574250351441	1.5335141104393
0.500574250351441	0.130918402779031
0.500574250351441	-0.492856649182368
0.500574250351441	-1.90108362282025
0.500574250351441	-1.76020042628204
0.500574250351441	-1.41633391106735
0.500574250351441	0.400177523704944
0.500574250351441	0.673190403332249
0.500574250351441	1.01650999858722
0.500574250351441	1.44225789493509
0.500574250351441	-1.30621210672874
0.500574250351441	-2.66643372915807
0.500574250351441	-1.79097011039769
0.500574250351441	-0.547313313733923
0.500574250351441	-3.73034938369288
0.500574250351441	-0.0809488285819597
0.500574250351441	-1.3419187555788
0.500574250351441	0.21451555468926
0.500574250351441	0.361408733458589
0.500574250351441	-0.446460268380147
0.500574250351441	-4.6939056914272
0.500574250351441	1.83743131106538
0.500574250351441	0.987092608847128
0.500574250351441	2.91334545844047
0.500574250351441	1.3466671276159
0.500574250351441	0.583626871925063
0.500574250351441	0.0494769179457215
0.500574250351441	0.939510998427702
0.500574250351441	1.9264817040464
0.500574250351441	0.544505841481211
0.500574250351441	-0.179811583463291
0.500574250351441	-0.619601022277294
0.500574250351441	-2.37675158655234
0.500574250351441	-1.53427145109048
0.500574250351441	0.107369939221851
0.500574250351441	1.56411954777681
0.500574250351441	2.23482391096228
0.500574250351441	-0.487402079646248
0.500574250351441	2.59297927075466
0.500574250351441	0.00976030207430156
0.500574250351441	2.77624079731373
0.500574250351441	-1.15852188888779
0.500574250351441	3.0072578228138
0.500574250351441	-0.911530851356751
0.500574250351441	1.66460573684526
0.500574250351441	-3.58327532418679
0.500574250351441	-1.23114394414605
0.500574250351441	-2.54895567063651
0.500574250351441	-2.75349213383864
0.500574250351441	0.432281092670564
0.500574250351441	-3.21558649147045
0.500574250351441	-2.02471676977454
0.500574250351441	2.50648821578297
0.500574250351441	1.20346616474885
0.500574250351441	-0.0145938199648832
0.500574250351441	2.55619106468147
0.500574250351441	0.347277120564023
0.500574250351441	2.45773503655061
0.500574250351441	2.41554347360085
0.500574250351441	-0.960604421752066
0.500574250351441	-1.24859374880495
0.500574250351441	-1.1905212849272
0.500574250351441	-2.49147823463657
0.500574250351441	1.08331901351926
0.500574250351441	-2.37836684745552
0.500574250351441	-0.325474300794806
0.500574250351441	0.334520427451448
0.500574250351441	-2.15241929920579
0.500574250351441	-0.555161721859495
0.500574250351441	0.311448686878816
0.500574250351441	0.903531741399611
0.500574250351441	-0.745654837421352
0.500574250351441	-0.49236121535705
0.500574250351441	-0.170597413908023
0.500574250351441	0.752859821032455
0.500574250351441	0.155692602226505
0.500574250351441	0.941041721521813
0.500574250351441	-0.863494469495286
0.500574250351441	-0.202885235745384
0.500574250351441	-0.800017866380582
0.500574250351441	0.930562661190464
0.500574250351441	1.04262171419247
0.500574250351441	-0.984768406614297
0.500574250351441	2.92843756435888
0.500574250351441	-0.489472396663793
0.500574250351441	1.30662835181999
0.500574250351441	-0.0659873543193044
0.500574250351441	1.37760766089816
0.500574250351441	1.00044305024673
0.500574250351441	1.7896892989437
0.500574250351441	1.81368111653531
0.500574250351441	2.17748702775675
0.500574250351441	0.370285405548721
0.500574250351441	-1.14536287220673
0.500574250351441	0.761114065965675
0.500574250351441	-2.77348107640031
0.500574250351441	1.25694542765778
0.500574250351441	-0.523149317822703
0.500574250351441	0.942289062304511
0.500574250351441	-0.927762030307139
0.500574250351441	-0.794787370415026
0.500574250351441	2.67146605099136
0.500574250351441	1.18153132022769
0.500574250351441	0.21599898290161
0.500574250351441	-3.08532016872762
0.500574250351441	-1.75711626033601
0.500574250351441	0.169988457456586
0.500574250351441	0.200376871661152
0.500574250351441	-0.60574390257765
0.500574250351441	-0.0347636845450303
0.500574250351441	-1.02136628766073
0.500574250351441	-0.337091245113029
0.500574250351441	0.165244105872066
0.500574250351441	0.303967254246814
0.500574250351441	0.916537632761226
0.500574250351441	-2.83015897985296
0.500574250351441	-0.128790440348631
0.500574250351441	3.16078738047018
0.500574250351441	1.70168120594771
0.500574250351441	1.86693506110511
0.500574250351441	-0.158208298588763
0.500574250351441	1.85971454394172
0.500574250351441	1.55443757233827
0.500574250351441	0.757510500009477
0.500574250351441	-0.626450643867187
0.500574250351441	-0.957553625885595
0.500574250351441	1.69074229384993
0.500574250351441	-1.87013735845328
0.500574250351441	-1.98932670075317
0.500574250351441	-0.0300068042232375
0.500574250351441	-1.96968191175631
0.500574250351441	-0.587774014620305
0.500574250351441	-1.91613972651226
0.500574250351441	1.4155148642863
0.500574250351441	-1.62633732511034
0.500574250351441	0.0118547744370332
0.500574250351441	-0.315799157057821
0.500574250351441	3.61279564290622
0.500574250351441	1.37777571669239
0.500574250351441	1.70414392356354
0.500574250351441	0.954559914377924
0.500574250351441	3.6874477819658
0.500574250351441	-3.43689969908985
0.500574250351441	-2.63154214322487
0.500574250351441	0.59059656466124
0.500574250351441	2.20543390959434
0.500574250351441	-1.02512648063986
0.500574250351441	1.10700774347645
0.500574250351441	2.81267133670037
0.500574250351441	-0.852424812832595
0.500574250351441	2.07956239429737
0.500574250351441	0.184740508288776
0.500574250351441	0.215520533690043
0.500574250351441	-1.78406799884942
0.500574250351441	0.9458854464106
0.500574250351441	-1.04909304413747
0.500574250351441	-1.2325910174249
0.500574250351441	0.455547767036741
0.500574250351441	0.821711686327582
0.500574250351441	2.03561810110371
0.500574250351441	-1.48297254529731
0.500574250351441	3.1820640120646
0.500574250351441	0.492636758289837
0.500574250351441	0.629955985632218
0.500574250351441	-1.02264739684466
0.500574250351441	-1.11970181602973
0.500574250351441	1.4292238833096
0.500574250351441	2.35192225041954
0.500574250351441	-0.0622821177523356
0.500574250351441	1.18932757937783
0.500574250351441	-1.53908629692158
0.500574250351441	-2.67026030096801
0.500574250351441	-1.38713508978576
0.500574250351441	-1.85007953994554
0.500574250351441	-1.46068439633679
0.500574250351441	3.72017146281639
0.500574250351441	0.932709449418706
0.500574250351441	-1.85528347639718
0.500574250351441	-0.266832058997228
0.500574250351441	-0.516701228962376
0.500574250351441	-0.576402455385526
0.500574250351441	1.8430003094004
0.500574250351441	-1.79977880894884
0.500574250351441	2.01014653495456
0.500574250351441	0.397316533541247
0.500574250351441	-3.19274004269077
0.500574250351441	0.834412362474421
0.500574250351441	-3.70792309565166
0.500574250351441	-1.1631643354332
0.500574250351441	0.702977257906536
0.500574250351441	-1.23062467988091
0.500574250351441	-2.20837438490439
0.500574250351441	-0.019779474361556
0.500574250351441	2.55657095833991
0.500574250351441	-0.211595863491031
0.500574250351441	2.87252143287771
0.500574250351441	-3.14486133140838
0.500574250351441	-0.233301402260867
0.500574250351441	1.9433543928074
0.500574250351441	-1.11865304127134
0.500574250351441	-1.2673592159222
0.500574250351441	-3.21693272181015
0.500574250351441	0.974806136703517
0.500574250351441	0.955942386828259
0.500574250351441	2.28843954095077
0.500574250351441	2.33796530771621
0.500574250351441	0.107827825700234
0.500574250351441	-1.5234600489931
0.500574250351441	3.44049946316469
0.500574250351441	0.507204207326822
0.500574250351441	1.04848918356259
0.500574250351441	1.37522721897713
0.500574250351441	1.04566110569061
0.500574250351441	2.58275889262331
0.500574250351441	-0.188156845762578
0.500574250351441	0.394519357799094
0.500574250351441	-1.47471163242752
0.500574250351441	1.54093661674402
0.500574250351441	-0.610046450336025
0.500574250351441	-0.558742690269007
0.500574250351441	3.1153594079416
0.500574250351441	-0.136615925798822
0.500574250351441	-0.764273864188247
0.500574250351441	-2.44557009303001
0.500574250351441	-0.445285450858631
0.500574250351441	0.48550365348741
0.500574250351441	-0.995225414207503
0.500574250351441	0.135122775819593
0.500574250351441	-0.719434183191982
0.500574250351441	1.34708801947051
0.500574250351441	0.967710225933605
0.500574250351441	0.776018958867992
0.500574250351441	-0.779714885510014
0.500574250351441	0.263598345862736
0.500574250351441	-1.61393511270284
0.500574250351441	1.35228108786848
0.500574250351441	2.22255148923055
0.500574250351441	3.24841802631126
0.500574250351441	-1.53354453055141
0.500574250351441	0.231840948313813
0.500574250351441	-0.356639184951906
0.500574250351441	-1.43622998999863
0.500574250351441	-0.740022757189244
0.500574250351441	-2.11952259336094
0.500574250351441	3.53703746384973
0.500574250351441	0.334451859458181
0.500574250351441	0.395085411321755
0.500574250351441	-2.7059658301864
