V1	V2
-0.0844328279642532	0.142285162807337
-0.0844328279642532	-0.039345946145783
-0.0844328279642532	0.0181211167357276
-0.0844328279642532	-0.84329488916131
-0.0844328279642532	-2.10077837570977
-0.0844328279642532	-0.160017632367598
-0.0844328279642532	0.766988912572494
-0.0844328279642532	0.304705010529542
-0.0844328279642532	-0.861581345034978
-0.0844328279642532	1.09936949075283
-0.0844328279642532	0.0572475902648044
-0.0844328279642532	-0.0722735003288619
-0.0844328279642532	0.780211275186392
-0.0844328279642532	-0.824527616526996
-0.0844328279642532	-0.0150193224512947
-0.0844328279642532	-0.571061666470968
-0.0844328279642532	-0.962315135898656
-0.0844328279642532	1.79521495599584
-0.0844328279642532	-0.521221907887615
-0.0844328279642532	1.05671028645614
-0.0844328279642532	0.599239718188016
-0.0844328279642532	-0.541258877613327
-0.0844328279642532	0.344567771974059
-0.0844328279642532	0.323848871200301
-0.0844328279642532	-1.10751458273849
-0.0844328279642532	0.617463298491984
-0.0844328279642532	0.448145113521893
-0.0844328279642532	-0.936567250350382
-0.0844328279642532	-0.158890250952791
-0.0844328279642532	-0.194051659973621
-0.0844328279642532	0.378011935682
-0.0844328279642532	-0.252129861627036
-0.0844328279642532	0.963556143261197
-0.0844328279642532	0.255500026770719
-0.0844328279642532	-1.35091230132036
-0.0844328279642532	0.28818744258901
-0.0844328279642532	-0.693275608581995
-0.0844328279642532	-0.544488272721839
-0.0844328279642532	-1.09221046007394
-0.0844328279642532	-0.416440661879633
-0.0844328279642532	-1.44394925973553
-0.0844328279642532	-0.752501087250824
-0.0844328279642532	-0.435471330418018
-0.0844328279642532	0.730304387567642
-0.0844328279642532	-0.0970295786749418
-0.0844328279642532	-6.88577293850301e-05
-0.0844328279642532	-0.85019564773857
-0.0844328279642532	0.0897060802514567
-0.0844328279642532	0.240866253444928
-0.0844328279642532	0.661528347593784
-0.0844328279642532	0.654960722889673
-0.0844328279642532	1.02521833645092
-0.0844328279642532	0.519639382515326
-0.0844328279642532	0.0244401681026183
-0.0844328279642532	-0.0443167540919482
-0.0844328279642532	-1.09892084977618
-0.0844328279642532	-1.88376744365367
-0.0844328279642532	0.591190894024724
-0.0844328279642532	0.364948204113983
-0.0844328279642532	-0.117020373073398
-0.0844328279642532	0.463367922065249
-0.0844328279642532	0.167444243496128
-0.0844328279642532	0.392335179895465
-0.0844328279642532	-1.80596537305986
-0.0844328279642532	0.627687410021398
-0.0844328279642532	0.478971956307195
-0.0844328279642532	-0.571860332513875
-0.0844328279642532	-0.75209687413026
-0.0844328279642532	-1.73437515563741
-0.0844328279642532	0.556582038248511
-0.0844328279642532	1.04458653793334
-0.0844328279642532	0.261359643982289
-0.0844328279642532	-0.489882304606521
-0.0844328279642532	0.56809762068038
-0.0844328279642532	-0.479576958249122
-0.0844328279642532	-0.228098460463869
-0.0844328279642532	-0.950121820363549
-0.0844328279642532	-1.11129220938209
-0.0844328279642532	0.159158894128399
-0.0844328279642532	-0.741281125190824
-0.0844328279642532	-0.0762258817170753
-0.0844328279642532	-1.76844685246353
-0.0844328279642532	0.196859728205261
-0.0844328279642532	-0.233032976666447
-0.0844328279642532	-0.270741439140767
-0.0844328279642532	-0.977739173194216
-0.0844328279642532	0.122408888060654
-0.0844328279642532	0.351747963675031
-0.0844328279642532	-0.85181784680853
-0.0844328279642532	0.946766743088808
-0.0844328279642532	-0.483185035961608
-0.0844328279642532	-0.816803563377501
-0.0844328279642532	0.669166725710237
-0.0844328279642532	0.476839440348346
-0.0844328279642532	0.0167310828720524
-0.0844328279642532	0.597878079086446
-0.0844328279642532	-0.352575495747995
-0.0844328279642532	-1.13707942366511
-0.0844328279642532	1.83175126951056
-0.0844328279642532	-1.42747805516475
-0.0844328279642532	0.0293052433211436
-0.0844328279642532	-0.372642643057876
-0.0844328279642532	-0.0140143758228071
-0.0844328279642532	0.028850559356588
-0.0844328279642532	0.0323289426166582
-0.0844328279642532	0.718274947113748
-0.0844328279642532	-1.46787435577914
-0.0844328279642532	0.382723529787818
-0.0844328279642532	0.119447282991363
-0.0844328279642532	-0.420605247132052
-0.0844328279642532	1.42609800310532
-0.0844328279642532	-0.573757864895235
-0.0844328279642532	1.1858167008411
-0.0844328279642532	1.43194316882238
-0.0844328279642532	1.0296264092881
-0.0844328279642532	0.206591862416023
-0.0844328279642532	0.73926323821286
-0.0844328279642532	-0.377864534650811
-0.0844328279642532	-0.0215442988595456
-0.0844328279642532	1.07131399181525
-0.0844328279642532	0.909159708848509
-0.0844328279642532	0.141895873339283
-0.0844328279642532	-0.84052515154616
-0.0844328279642532	-0.467065619765478
-0.0844328279642532	-0.108256613020718
-0.0844328279642532	-0.0979638456567713
-0.0844328279642532	-0.323094051675817
-0.0844328279642532	-0.294364239463153
-0.0844328279642532	-1.9360596077492
-0.0844328279642532	0.971666528961929
-0.0844328279642532	-0.93321576272556
-0.0844328279642532	0.391965494400516
-0.0844328279642532	-0.13437279476172
-0.0844328279642532	0.438938590923126
-0.0844328279642532	-0.196772378601789
-0.0844328279642532	-0.390982422087657
-0.0844328279642532	0.605885838816082
-0.0844328279642532	0.896064147958722
-0.0844328279642532	0.585074870180879
-0.0844328279642532	-0.455839564828878
-0.0844328279642532	0.846133568804429
-0.0844328279642532	-1.00999099670659
-0.0844328279642532	-0.220212829604336
-0.0844328279642532	1.46707472099606
-0.0844328279642532	-1.65913850282507
-0.0844328279642532	-0.805226102714631
-0.0844328279642532	0.266228045635501
-0.0844328279642532	1.92720277874642
-0.0844328279642532	-0.971812932427813
-0.0844328279642532	0.496361934610043
-0.0844328279642532	0.241781952546656
-0.0844328279642532	-0.221617539666699
-0.0844328279642532	-0.75178730073846
-0.0844328279642532	0.213724883286464
-0.0844328279642532	1.33861239440837
-0.0844328279642532	-0.825543772538317
-0.0844328279642532	0.69526370220655
-0.0844328279642532	0.152441907919385
-0.0844328279642532	-0.165934143776081
-0.0844328279642532	-1.16134020341853
-0.0844328279642532	0.116147007124741
-0.0844328279642532	-1.39267218386309
-0.0844328279642532	0.304749781930713
-0.0844328279642532	1.24636138445202
-0.0844328279642532	-0.263821111950861
-0.0844328279642532	1.15839381019279
-0.0844328279642532	0.402278455652542
-0.0844328279642532	0.846226839583625
-0.0844328279642532	1.3979521072546
-0.0844328279642532	-0.917700913370069
-0.0844328279642532	-0.534166893124624
-0.0844328279642532	-1.34260469981264
-0.0844328279642532	-0.906727017339946
-0.0844328279642532	-1.39547550869553
-0.0844328279642532	0.244235703920594
-0.0844328279642532	-0.0120323929217854
-0.0844328279642532	0.405113577637035
-0.0844328279642532	0.471547458744553
-0.0844328279642532	-0.954679639651964
-0.0844328279642532	0.085387862545744
-0.0844328279642532	-0.771457822153497
-0.0844328279642532	0.430387028309937
-0.0844328279642532	0.210379864715204
-0.0844328279642532	-0.804074458250625
-0.0844328279642532	-0.701466112506619
-0.0844328279642532	-0.0289482210709728
-0.0844328279642532	0.667825411965392
-0.0844328279642532	-0.704711248743436
-0.0844328279642532	-0.684889685914371
-0.0844328279642532	0.279088001263759
-0.0844328279642532	-0.82502781600774
-0.0844328279642532	-0.0738132143178767
-0.0844328279642532	-1.79774061571744
-0.0844328279642532	-0.431293577434694
-0.0844328279642532	0.374698880960743
-0.0844328279642532	-0.139667931655186
-0.0844328279642532	0.598288389891458
-0.0844328279642532	-0.882453095712133
-0.0844328279642532	-0.656839897862202
-0.0844328279642532	0.452262361486902
-0.0844328279642532	-0.015114008820742
-0.0844328279642532	-0.598720620289601
-0.0844328279642532	0.503559299613777
-0.0844328279642532	-1.111488452049
-0.0844328279642532	-0.173044498246941
-0.0844328279642532	0.0342938477445358
-0.0844328279642532	-0.484196956194221
-0.0844328279642532	0.118874759793087
-0.0844328279642532	-0.17557146737683
-0.0844328279642532	-0.561190291491844
-0.0844328279642532	0.441619738588145
-0.0844328279642532	0.0616326548113548
-0.0844328279642532	0.190407368088447
-0.0844328279642532	0.329428177063726
-0.0844328279642532	-1.95284986650739
-0.0844328279642532	0.198300956224639
-0.0844328279642532	-0.598652382579779
-0.0844328279642532	-0.340765957473014
-0.0844328279642532	-1.71692622526257
-0.0844328279642532	-1.12576920293284
-0.0844328279642532	0.135663677430127
-0.0844328279642532	-0.869731117793172
-0.0844328279642532	-0.220831109228602
-0.0844328279642532	-1.58498781233168
-0.0844328279642532	-0.0610736515063266
-0.0844328279642532	-0.0928286384302446
-0.0844328279642532	0.605985819893291
-0.0844328279642532	-0.54971770622554
-0.0844328279642532	1.36106250696209
-0.0844328279642532	-0.445314583952047
-0.0844328279642532	-1.05743567251551
-0.0844328279642532	-0.90331531755038
-0.0844328279642532	0.0568271323539449
-0.0844328279642532	-0.270896786126709
-0.0844328279642532	-0.586196822053594
-0.0844328279642532	0.492657452826858
-0.0844328279642532	0.582518243740619
-0.0844328279642532	-0.426986473814303
-0.0844328279642532	0.538454090048848
-0.0844328279642532	0.894534877086983
-0.0844328279642532	-0.281527996990004
-0.0844328279642532	-1.72827065537396
-0.0844328279642532	-0.295508000288308
-0.0844328279642532	-0.636755831127015
-0.0844328279642532	0.230885228560563
-0.0844328279642532	-0.277773348116238
-0.0844328279642532	-1.13666033364673
-0.0844328279642532	-0.385489897665931
-0.0844328279642532	-0.398161435731158
-0.0844328279642532	0.0173686953156356
-0.0844328279642532	-1.21402432862659
-0.0844328279642532	-0.420923499869762
-0.0844328279642532	-1.10249653028867
-0.0844328279642532	-1.6475846650409
-0.0844328279642532	0.381207431932697
-0.0844328279642532	-0.472295989361463
-0.0844328279642532	0.297488419250367
-0.0844328279642532	1.60972648784282
-0.0844328279642532	0.271262872018021
-0.0844328279642532	0.214412835298809
-0.0844328279642532	0.231493168592994
-0.0844328279642532	1.80736408477654
-0.0844328279642532	-0.485405144034591
-0.0844328279642532	0.53577517851933
-0.0844328279642532	-0.369736775254374
-0.0844328279642532	1.07795449917323
-0.0844328279642532	-0.449423779705388
-0.0844328279642532	0.508594935409317
-0.0844328279642532	-0.0796614705713097
-0.0844328279642532	-0.701701446893932
-0.0844328279642532	0.00216863943251511
-0.0844328279642532	-1.25785796834997
-0.0844328279642532	0.719835874020003
-0.0844328279642532	-0.519480809408325
-0.0844328279642532	1.04272781779894
-0.0844328279642532	-0.35633190461229
-0.0844328279642532	0.656410900639091
-0.0844328279642532	0.781972033154577
-0.0844328279642532	0.0305930677194333
-0.0844328279642532	-1.41157721709257
-0.0844328279642532	-0.668966634753033
-0.0844328279642532	1.35112002164163
-0.0844328279642532	-1.39348787165478
-0.0844328279642532	-1.16608985498273
-0.0844328279642532	0.558967721296693
-0.0844328279642532	0.230103022635397
-0.0844328279642532	-0.761286767177765
-0.0844328279642532	-0.935004464247964
-0.0844328279642532	0.0255410340117415
-0.0844328279642532	0.274005529257064
-0.0844328279642532	0.422468975099626
-0.0844328279642532	-0.00951915720684582
-0.0844328279642532	0.205366370413714
-0.0844328279642532	-0.610847836172038
-0.0844328279642532	-1.41061279241255
-0.0844328279642532	-0.365215978017307
-0.0844328279642532	-0.810186507891242
-0.0844328279642532	0.172036875556586
-0.0844328279642532	0.663766297991494
-0.0844328279642532	-0.014921577777212
-0.0844328279642532	-0.482639694680316
-0.0844328279642532	-0.102807796738272
-0.0844328279642532	-1.11747416298704
-0.0844328279642532	-2.2943403927591
-0.0844328279642532	-0.828993415347142
-0.0844328279642532	0.532970583810826
-0.0844328279642532	0.358226112076601
-0.0844328279642532	-0.968515722480202
-0.0844328279642532	0.0486129323262219
-0.0844328279642532	-0.706983129350267
-0.0844328279642532	-0.251441454449253
-0.0844328279642532	0.93017296100626
-0.0844328279642532	0.0769514509613991
-0.0844328279642532	0.150108117798087
-0.0844328279642532	-0.45096468324585
-0.0844328279642532	0.0526571408412835
-0.0844328279642532	-0.125706605339701
-0.0844328279642532	-0.22261463192023
-0.0844328279642532	-0.457843273961704
-0.0844328279642532	-1.36603109412632
-0.0844328279642532	-1.0658546269573
-0.0844328279642532	0.121695316371401
-0.0844328279642532	-0.860896668230115
-0.0844328279642532	-0.348845167586475
-0.0844328279642532	-1.58939551754098
-0.0844328279642532	0.199961895264078
-0.0844328279642532	0.541565748052218
-0.0844328279642532	0.518045835338601
-0.0844328279642532	1.18027624326288
-0.0844328279642532	0.779003406844538
-0.0844328279642532	0.437472509984048
-0.0844328279642532	-0.46852650865052
-0.0844328279642532	0.0398733065916765
-0.0844328279642532	-0.690876908187597
-0.0844328279642532	-0.639160481599014
-0.0844328279642532	-0.901353534478211
-0.0844328279642532	0.050403195374809
-0.0844328279642532	-0.0773873462728076
-0.0844328279642532	0.29193536495735
-0.0844328279642532	-0.274576565995158
-0.0844328279642532	0.0699932658056497
-0.0844328279642532	0.178004140735386
-0.0844328279642532	0.757076079678534
-0.0844328279642532	1.47797277649861
-0.0844328279642532	0.348658344642157
-0.0844328279642532	-0.260033863312184
-0.0844328279642532	0.0265171313580552
-0.0844328279642532	-0.740621366574214
-0.0844328279642532	-1.39399132450896
-0.0844328279642532	0.120005575159681
-0.0844328279642532	-0.400348753026506
-0.0844328279642532	0.590304314328812
-0.0844328279642532	-0.0118883593172896
-0.0844328279642532	-1.81403176502887
-0.0844328279642532	-0.566756097846124
-0.0844328279642532	-3.49597643873401
-0.0844328279642532	-0.409816068781414
-0.0844328279642532	-0.87721701699769
-0.0844328279642532	-0.713703604618484
-0.0844328279642532	-0.974906566479998
-0.0844328279642532	-0.211104834676831
-0.0844328279642532	0.519574761867581
-0.0844328279642532	0.169370385026706
-0.0844328279642532	0.506755835989495
-0.0844328279642532	-0.356822838211919
-0.0844328279642532	-0.751222824664183
-0.0844328279642532	1.56087854362199
-0.0844328279642532	-0.663063685042239
-0.0844328279642532	-0.210612689633866
-0.0844328279642532	-0.584156744634566
-0.0844328279642532	1.12198069222275
-0.0844328279642532	0.110080243445079
-0.0844328279642532	0.219761858148416
-0.0844328279642532	-0.0674051094653265
-0.0844328279642532	-0.627079642732088
-0.0844328279642532	0.347242980589684
-0.0844328279642532	-1.27685144635578
-0.0844328279642532	0.57228058409974
-0.0844328279642532	-0.967354766495095
-0.0844328279642532	-0.127609436056574
-0.0844328279642532	-0.498151492857492
-0.0844328279642532	-0.603625625334875
-0.0844328279642532	0.307543085138061
-0.0844328279642532	-0.873198701213774
-0.0844328279642532	-0.605205023026368
-0.0844328279642532	0.840964518675719
-0.0844328279642532	-0.0285885455545944
-0.0844328279642532	0.0501036908800998
-0.0844328279642532	0.368997372298121
-0.0844328279642532	-0.0449659606334265
-0.0844328279642532	0.0915461893738012
-0.0844328279642532	-0.710985620283225
-0.0844328279642532	-1.16417604655126
-0.0844328279642532	0.559644154103914
-0.0844328279642532	-0.0206245582589411
-0.0844328279642532	-0.863853503661257
-0.0844328279642532	-0.290662543759503
-0.0844328279642532	-0.535444238937107
-0.0844328279642532	-0.220482604143328
-0.0844328279642532	2.15321383020514
-0.0844328279642532	-0.205212584315337
-0.0844328279642532	-0.600677984839269
-0.0844328279642532	-0.676197577420311
-0.0844328279642532	0.165876149844841
-0.0844328279642532	-0.156730552056384
-0.0844328279642532	-0.580346149949182
-0.0844328279642532	-0.417969075565843
-0.0844328279642532	-0.934896734864175
-0.0844328279642532	-1.74873311965099
-0.0844328279642532	0.128390416338473
-0.0844328279642532	-1.6206878993435
-0.0844328279642532	-0.0149429952637874
-0.0844328279642532	0.327117203032468
-0.0844328279642532	-0.43405266349172
-0.0844328279642532	-0.412565953307169
-0.0844328279642532	-0.600835573058191
-0.0844328279642532	-0.528392254976236
-0.0844328279642532	-0.325494130707149
-0.0844328279642532	0.231511604294013
-0.0844328279642532	-0.324389834167132
-0.0844328279642532	0.789867959047747
-0.0844328279642532	0.620359165522796
-0.0844328279642532	0.482472081554466
-0.0844328279642532	-0.453940210883374
-0.0844328279642532	-1.37075757182318
-0.0844328279642532	-0.195287402259147
-0.0844328279642532	1.33512313651956
-0.0844328279642532	0.233968886858104
-0.0844328279642532	0.793214464226104
-0.0844328279642532	-1.02946206829476
-0.0844328279642532	0.152837144048899
-0.0844328279642532	-1.22961965110315
-0.0844328279642532	0.491240277212206
-0.0844328279642532	0.60376957663928
-0.0844328279642532	-1.40222383234562
-0.0844328279642532	-0.704148777990685
-0.0844328279642532	-0.153765704256926
-0.0844328279642532	0.302749930489963
-0.0844328279642532	0.151217745299768
-0.0844328279642532	-1.27485735393768
-0.0844328279642532	-0.127772404098149
-0.0844328279642532	-0.629348874470494
-0.0844328279642532	0.817468772412649
-0.0844328279642532	-0.814379465132308
-0.0844328279642532	0.0610437056503201
-0.0844328279642532	-0.185600255665335
-0.0844328279642532	-0.0263240091876966
-0.0844328279642532	0.659352280739228
-0.0844328279642532	-0.222885899703655
-0.0844328279642532	-0.837738732442581
-0.0844328279642532	-0.345190877677137
-0.0844328279642532	0.506024402383076
-0.0844328279642532	0.547859604061848
-0.0844328279642532	0.425273338546067
-0.0844328279642532	-1.08036461618838
-0.0844328279642532	-0.148021047811621
-0.0844328279642532	-0.195814508585634
-0.0844328279642532	-1.05707809168966
-0.0844328279642532	1.77801391200871
-0.0844328279642532	-0.653529144409113
-0.0844328279642532	0.314635780163009
-0.0844328279642532	0.552035631395601
-0.0844328279642532	0.423859952571373
-0.0844328279642532	0.0522239672962783
-0.0844328279642532	-1.69842802244785
-0.0844328279642532	0.190397622864271
-0.0844328279642532	-0.46528466279991
-0.0844328279642532	-0.666015016303877
-0.0844328279642532	0.185529808326653
-0.0844328279642532	-0.589409613548241
-0.0844328279642532	0.583651076191423
-0.0844328279642532	-1.02100730991615
-0.0844328279642532	-1.72127222574143
-0.0844328279642532	-0.415679423726562
-0.0844328279642532	0.850915649810524
-0.0844328279642532	1.03875043294207
-0.0844328279642532	-0.0952047560868792
-0.0844328279642532	-0.804170615165422
-0.0844328279642532	-1.55471794078894
-0.0844328279642532	1.39315373917918
-0.0844328279642532	0.451906316995537
-0.0844328279642532	1.0434190717457
-0.0844328279642532	-0.359409747049124
-0.0844328279642532	-0.423995945305805
-0.0844328279642532	-0.566140967596311
-0.0844328279642532	-0.0395773067705463
-0.0844328279642532	0.594159705901433
-0.0844328279642532	0.40442183079444
-0.0844328279642532	-1.32593445115784
-0.0844328279642532	-0.359696676362077
-0.0844328279642532	0.537945161244949
-0.0844328279642532	-0.729921271848024
-0.0844328279642532	-0.344915474899746
-0.0844328279642532	-1.03355641515112
-0.0844328279642532	1.09061015742366
-0.0844328279642532	-0.579274385795923
-0.0844328279642532	-1.42661588987521
-0.0844328279642532	-1.46708863436052
-0.0844328279642532	-0.843473541207253
-0.0844328279642532	0.86621054305235
-0.0844328279642532	-0.208582707581161
-0.0844328279642532	-1.59610617909679
-0.0844328279642532	-1.3731357343571
-0.0844328279642532	0.32523570895173
-0.0844328279642532	-1.89472718046358
-0.0844328279642532	-0.211514756351178
-0.0844328279642532	0.252809906401456
-0.0844328279642532	-0.9313421273058
-0.0844328279642532	-1.01413070602796
-0.0844328279642532	0.402422332505825
-0.0844328279642532	0.248075707556701
-0.0844328279642532	-1.70429503472086
-0.0844328279642532	-0.0257698376959077
-0.0844328279642532	0.579509126120378
-0.0844328279642532	-0.948141326499449
-0.0844328279642532	-1.06915837598644
-0.0844328279642532	-0.0289916739951472
-0.0844328279642532	0.586480745139447
-0.0844328279642532	-0.957912587918401
-0.0844328279642532	0.959377008817484
-0.0844328279642532	-0.720341567328141
-0.0844328279642532	0.386629348870432
-0.0844328279642532	0.211726268461543
-0.0844328279642532	-0.82329684952909
-0.0844328279642532	-1.54157992195219
-0.0844328279642532	0.593985455895712
-0.0844328279642532	-0.773704854224601
-0.0844328279642532	-1.21478041374911
-0.0844328279642532	-0.933456627510434
-0.0844328279642532	-1.13913746780626
-0.0844328279642532	-0.147421487471657
-0.0844328279642532	-0.728573698321441
-0.0844328279642532	0.173563086904405
-0.0844328279642532	-2.27717762664043
-0.0844328279642532	-0.828284025767477
-0.0844328279642532	0.478133239698394
-0.0844328279642532	0.448471993692568
-0.0844328279642532	1.70861385114344
-0.0844328279642532	0.601151644827397
-0.0844328279642532	-1.02431532620234
-0.0844328279642532	-1.27761387634725
-0.0844328279642532	-0.795758832869414
-0.0844328279642532	-0.643177588803244
-0.0844328279642532	-0.757364337715391
-0.0844328279642532	-0.266818205119549
-0.0844328279642532	0.700963719701164
-0.0844328279642532	-1.10142428666795
-0.0844328279642532	-0.564739941867241
-0.0844328279642532	-1.07958707952905
-0.0844328279642532	0.643581885657419
-0.0844328279642532	-0.679496821882989
-0.0844328279642532	-0.177490202448954
-0.0844328279642532	0.0546788444661424
-0.0844328279642532	-0.209346131169852
-0.0844328279642532	-0.729974260172416
-0.0844328279642532	1.62337078598241
-0.0844328279642532	-0.901184297597922
-0.0844328279642532	-2.49460322617783
-0.0844328279642532	-0.0942102658877602
-0.0844328279642532	0.14264091406455
-0.0844328279642532	1.0654968104356
-0.0844328279642532	-0.523504137209134
-0.0844328279642532	-1.43602094646897
-0.0844328279642532	0.439063209106536
-0.0844328279642532	-0.440755489968037
-0.0844328279642532	0.315633825735834
-0.0844328279642532	-0.475950368478866
-0.0844328279642532	-0.386718826936992
-0.0844328279642532	0.083811195274702
-0.0844328279642532	-1.24068947277175
-0.0844328279642532	-1.45070993102867
-0.0844328279642532	-1.13690706472731
-0.0844328279642532	0.897663666361176
-0.0844328279642532	-1.03833531130214
-0.0844328279642532	0.629772853946026
-0.0844328279642532	0.379361014110032
-0.0844328279642532	0.28870983442204
-0.0844328279642532	-0.295282845017081
-0.0844328279642532	-0.699719584754725
-0.0844328279642532	-0.324407632723844
-0.0844328279642532	-0.0845200498500596
-0.0844328279642532	-1.46925499229379
-0.0844328279642532	-0.387665689150275
-0.0844328279642532	-1.00820270252136
-0.0844328279642532	-0.475236500234246
-0.0844328279642532	-0.651861548429583
-0.0844328279642532	-0.232902835521443
-0.0844328279642532	-0.0764452193187815
-0.0844328279642532	-0.272107561254145
-0.0844328279642532	-0.124075478811033
-0.0844328279642532	0.718064117087103
-0.0844328279642532	-1.89237944628482
-0.0844328279642532	1.15482458821235
-0.0844328279642532	1.74422356388115
-0.0844328279642532	-0.817190670182487
-0.0844328279642532	-0.197155100376907
-0.0844328279642532	0.652008867807574
-0.0844328279642532	-0.676767470459637
-0.0844328279642532	0.473436109324471
-0.0844328279642532	-0.226525888111148
-0.0844328279642532	1.12275991750423
-0.0844328279642532	-0.211350177233609
-0.0844328279642532	1.18695922713189
-0.0844328279642532	1.15788720470844
-0.0844328279642532	-0.513232522880411
-0.0844328279642532	1.65827381416094
-0.0844328279642532	-1.41880382125169
-0.0844328279642532	-0.706751526585261
-0.0844328279642532	0.215789645596775
-0.0844328279642532	0.361647369047503
-0.0844328279642532	0.110170947904635
-0.0844328279642532	-0.120278623630963
-0.0844328279642532	0.980993707806068
-0.0844328279642532	-1.15977301509439
-0.0844328279642532	0.244140767453139
-0.0844328279642532	-2.10501216035351
-0.0844328279642532	-0.0414920490557051
-0.0844328279642532	0.390185569549992
-0.0844328279642532	-0.567446142900032
-0.0844328279642532	-0.30511936244535
-0.0844328279642532	-0.61095595005591
-0.0844328279642532	-1.18651615859217
-0.0844328279642532	-1.34782520744268
-0.0844328279642532	0.586987835760358
-0.0844328279642532	-0.337981287303268
-0.0844328279642532	-1.2202313071641
-0.0844328279642532	-0.142371889968377
-0.0844328279642532	0.699401479585617
-0.0844328279642532	-0.0364026262409105
-0.0844328279642532	-0.407280932767797
-0.0844328279642532	-0.641251266508817
-0.0844328279642532	-0.830329556164166
-0.0844328279642532	-0.156293403148279
-0.0844328279642532	-0.432333926559359
-0.0844328279642532	-1.58679427812144
-0.0844328279642532	-0.0930224303533222
-0.0844328279642532	1.05252762929989
-0.0844328279642532	-0.419387135189421
-0.0844328279642532	0.996215773998962
-0.0844328279642532	0.485163202104403
-0.0844328279642532	-0.557296024009606
-0.0844328279642532	-0.207233630567927
-0.0844328279642532	0.295931285006727
-0.0844328279642532	-0.240151190049431
-0.0844328279642532	-0.117924440201552
-0.0844328279642532	-1.0417440365992
-0.0844328279642532	0.276566536992675
-0.0844328279642532	-0.803876886260969
-0.0844328279642532	0.377892830120725
-0.0844328279642532	0.413826427806878
-0.0844328279642532	0.287275341387886
-0.0844328279642532	-0.769494984234662
-0.0844328279642532	-0.277139254921082
-0.0844328279642532	0.669502660837622
-0.0844328279642532	-0.932831565027104
-0.0844328279642532	-0.276695029140431
-0.0844328279642532	0.00816215007150589
-0.0844328279642532	0.254697465487439
-0.0844328279642532	0.963261199616753
-0.0844328279642532	-1.02545915063959
-0.0844328279642532	0.261395919813801
-0.0844328279642532	-0.881744162669413
-0.0844328279642532	0.661141848849823
-0.0844328279642532	-0.565506838507584
-0.0844328279642532	-0.124119805993065
-0.0844328279642532	-0.791403054582545
-0.0844328279642532	-0.306205665065281
-0.0844328279642532	-0.733651914656122
-0.0844328279642532	-0.116288136008198
-0.0844328279642532	1.17638076162531
-0.0844328279642532	-0.212573443846331
-0.0844328279642532	0.840265692513114
-0.0844328279642532	0.677325816250775
-0.0844328279642532	0.256963815776224
-0.0844328279642532	2.35752404130178
-0.0844328279642532	0.613950227777217
-0.0844328279642532	-0.786671441584492
-0.0844328279642532	-1.53829717203239
-0.0844328279642532	1.69107630899033
-0.0844328279642532	-0.751421324414601
-0.0844328279642532	-0.0423872642885215
-0.0844328279642532	0.229071415417906
-0.0844328279642532	-1.05694457070887
-0.0844328279642532	-1.27876196294979
-0.0844328279642532	-1.50772445454221
-0.0844328279642532	-0.267683966812051
-0.0844328279642532	-0.565231845082661
-0.0844328279642532	-0.0410741949034943
-0.0844328279642532	-0.482905059863555
-0.0844328279642532	0.779459585836378
-0.0844328279642532	-1.62895920330694
-0.0844328279642532	-0.0297124909770794
-0.0844328279642532	-0.738429892067426
-0.0844328279642532	-0.388222735333716
-0.0844328279642532	-1.42589251545049
-0.0844328279642532	-1.10597881427593
-0.0844328279642532	0.203269557768692
-0.0844328279642532	-0.619007789436409
-0.0844328279642532	0.51538237312591
-0.0844328279642532	-1.95447326767714
-0.0844328279642532	1.1155366181596
-0.0844328279642532	-1.00840309005659
-0.0844328279642532	1.17584329012787
-0.0844328279642532	-0.701038874486176
-0.0844328279642532	0.70990148439525
-0.0844328279642532	0.955170734161452
-0.0844328279642532	-0.281423102120662
-0.0844328279642532	-1.31339583038747
-0.0844328279642532	-1.43897849413869
-0.0844328279642532	-0.340571036835108
-0.0844328279642532	-1.08389967229989
-0.0844328279642532	0.835339117591637
-0.0844328279642532	0.5932588578777
-0.0844328279642532	-0.747563040112905
-0.0844328279642532	-0.367549732661345
-0.0844328279642532	-0.412389130448329
-0.0844328279642532	-0.759517573221817
-0.0844328279642532	-0.132381633278399
-0.0844328279642532	-0.76651345873033
-0.0844328279642532	-0.0434850772807955
-0.0844328279642532	-0.646327839977317
-0.0844328279642532	0.77361435203489
-0.0844328279642532	0.495325929857845
-0.0844328279642532	0.233317853687723
-0.0844328279642532	0.521870267665481
-0.0844328279642532	0.882955848228629
-0.0844328279642532	0.341108786070219
-0.0844328279642532	-0.233697780888495
-0.0844328279642532	0.506543739559703
-0.0844328279642532	-1.2902712551351
-0.0844328279642532	-0.420175396730876
-0.0844328279642532	1.34104434919699
-0.0844328279642532	1.23897928319084
-0.0844328279642532	1.25000523784216
-0.0844328279642532	-0.835541316785736
-0.0844328279642532	-0.761581030248369
-0.0844328279642532	-0.70499221109084
-0.0844328279642532	0.0118305518079538
-0.0844328279642532	0.419970481974637
-0.0844328279642532	-0.586824680036049
-0.0844328279642532	0.631342889451261
-0.0844328279642532	0.455168569407402
-0.0844328279642532	0.884223027925717
-0.0844328279642532	0.0763239448742006
-0.0844328279642532	-0.275360409988103
-0.0844328279642532	0.406200005799946
-0.0844328279642532	-1.37168436385191
-0.0844328279642532	-0.67530749322599
-0.0844328279642532	1.44321329047548
-0.0844328279642532	-0.474282392630126
-0.0844328279642532	-0.195867723398322
-0.0844328279642532	-0.324023541443466
-0.0844328279642532	-1.35668511284926
-0.0844328279642532	0.263790946580027
-0.0844328279642532	-0.444721811340436
-0.0844328279642532	0.222278778544947
-0.0844328279642532	-2.36029865850092
-0.0844328279642532	0.434202515303266
-0.0844328279642532	-0.221927529798958
-0.0844328279642532	-0.276795090121926
-0.0844328279642532	-0.135336927507542
-0.0844328279642532	-1.27108563326123
-0.0844328279642532	-0.488678300839297
-0.0844328279642532	0.0295256121490581
-0.0844328279642532	0.321959657608531
-0.0844328279642532	0.0793623274719195
-0.0844328279642532	0.309982533570903
-0.0844328279642532	0.727154536080228
-0.0844328279642532	-2.35773284478076
-0.0844328279642532	-0.941319585921722
-0.0844328279642532	0.480626692165497
-0.0844328279642532	-0.281916919020361
-0.0844328279642532	0.570967433528551
-0.0844328279642532	-1.49580062310134
-0.0844328279642532	-1.54325112008186
-0.0844328279642532	-0.22589191475123
-0.0844328279642532	-0.647565659272889
-0.0844328279642532	-0.540950389884689
-0.0844328279642532	-0.573905757811499
-0.0844328279642532	1.0267238164647
-0.0844328279642532	-0.563758652902354
-0.0844328279642532	0.431261301404657
-0.0844328279642532	-0.319727358291576
-0.0844328279642532	-0.468520160205152
-0.0844328279642532	-0.302702742671134
-0.0844328279642532	-0.0535141196275966
-0.0844328279642532	0.523906331537798
-0.0844328279642532	-0.542807401996495
-0.0844328279642532	-0.163056871151916
-0.0844328279642532	0.0224702188664203
-0.0844328279642532	-0.665308211956535
-0.0844328279642532	0.049430625676866
-0.0844328279642532	0.233826610544877
-0.0844328279642532	-0.946371177564263
-0.0844328279642532	-1.03569671229335
-0.0844328279642532	-1.09356931044578
-0.0844328279642532	-0.943940406720497
-0.0844328279642532	0.721592708828062
-0.0844328279642532	-0.461603320791259
-0.0844328279642532	-0.264127689030907
-0.0844328279642532	-1.0243815203616
-0.0844328279642532	-1.69428931114118
-0.0844328279642532	0.726163376816313
-0.0844328279642532	0.39727643663543
-0.0844328279642532	0.645225498142498
-0.0844328279642532	-0.767000151530482
-0.0844328279642532	-0.277273240345298
-0.0844328279642532	1.89900261040779
-0.0844328279642532	-0.574312457424025
-0.0844328279642532	-0.139898098626968
-0.0844328279642532	-0.182128290465702
-0.0844328279642532	1.20581808057743
-0.0844328279642532	0.0946457151946198
-0.0844328279642532	0.424463416943741
-0.0844328279642532	-0.720815988459098
-0.0844328279642532	0.126064828162207
-0.0844328279642532	-0.390086155200983
-0.0844328279642532	-0.0724237685732447
-0.0844328279642532	0.484014868595594
-0.0844328279642532	1.39069225169833
-0.0844328279642532	-0.779521347805449
-0.0844328279642532	-0.69633344335216
-0.0844328279642532	-1.70986313274255
-0.0844328279642532	-0.159779175711009
-0.0844328279642532	1.27071327725063
-0.0844328279642532	-1.42397869632693
-0.0844328279642532	-0.562467836395427
-0.0844328279642532	-1.51193170409628
-0.0844328279642532	0.658854393781372
-0.0844328279642532	-0.78405152804422
-0.0844328279642532	-0.447303340880083
-0.0844328279642532	1.64156678220444
-0.0844328279642532	-0.606521540588471
-0.0844328279642532	-0.544337074550885
-0.0844328279642532	1.35147345665376
-0.0844328279642532	-0.468329806923705
-0.0844328279642532	0.508605928452848
-0.0844328279642532	-0.226316191314808
-0.0844328279642532	1.15330052176937
-0.0844328279642532	0.186564003502355
-0.0844328279642532	0.792766063455748
-0.0844328279642532	0.422373525731178
-0.0844328279642532	-1.31505726886219
-0.0844328279642532	0.37402238127142
-0.0844328279642532	0.160438341461198
-0.0844328279642532	0.368390976071371
-0.0844328279642532	-0.723649459763223
-0.0844328279642532	-0.739311958743976
-0.0844328279642532	-0.951894502758911
-0.0844328279642532	0.37274248608805
-0.0844328279642532	-0.797117879254184
-0.0844328279642532	-0.358978346058805
-0.0844328279642532	-0.137459254428741
-0.0844328279642532	-0.256451676847401
-0.0844328279642532	0.346897947992126
-0.0844328279642532	-0.35986446515264
-0.0844328279642532	-0.60728787902875
-0.0844328279642532	-0.954894823409848
-0.0844328279642532	-0.999324448484707
-0.0844328279642532	-0.79247034086686
-0.0844328279642532	0.862261547442834
-0.0844328279642532	0.860819542981194
-0.0844328279642532	0.251713492790579
-0.0844328279642532	-0.884132800247006
-0.0844328279642532	-0.142593121255683
-0.0844328279642532	0.464518215358666
-0.0844328279642532	-0.542459588534573
-0.0844328279642532	-1.48405641229167
-0.0844328279642532	0.696762869540738
-0.0844328279642532	-0.0863505022872495
-0.0844328279642532	-0.219113508994401
-0.0844328279642532	0.125782913626804
-0.0844328279642532	1.63319100446424
-0.0844328279642532	0.213955319405809
-0.0844328279642532	-1.24499455805733
-0.0844328279642532	0.644596839021421
-0.0844328279642532	-0.150874840211568
-0.0844328279642532	-0.385184609784684
-0.0844328279642532	0.26902955871422
-0.0844328279642532	0.141124909814309
-0.0844328279642532	0.629956178941651
-0.0844328279642532	-0.670765112468253
-0.0844328279642532	-0.385980350302194
-0.0844328279642532	-0.324637815440539
-0.0844328279642532	1.08219924551318
-0.0844328279642532	-0.219377224380249
-0.0844328279642532	0.0657434346618189
-0.0844328279642532	-0.401550275503048
-0.0844328279642532	-1.44881936820657
-0.0844328279642532	-0.286757667024052
-0.0844328279642532	0.571699996653248
-0.0844328279642532	-0.0868906676220398
-0.0844328279642532	0.0840895883458614
-0.0844328279642532	0.300685454026926
-0.0844328279642532	-0.167259735671106
-0.0844328279642532	0.0773632047710926
-0.0844328279642532	-0.66421466373577
-0.0844328279642532	-0.501331606917404
-0.0844328279642532	-0.804500358281864
-0.0844328279642532	-0.0137466480100059
-0.0844328279642532	0.313529160245018
-0.0844328279642532	0.39312621289535
-0.0844328279642532	-1.37081038141256
-0.0844328279642532	-0.468720129451231
-0.0844328279642532	0.941393299949983
-0.0844328279642532	-0.382768835480949
-0.0844328279642532	-1.47470430962562
-0.0844328279642532	-0.293314496751975
-0.0844328279642532	1.05114994517584
-0.0844328279642532	-1.24603137891224
-0.0844328279642532	-0.228741825442636
-0.0844328279642532	-0.303947224525043
-0.0844328279642532	-0.93181142980578
-0.0844328279642532	-0.627056040082117
-0.0844328279642532	-1.50522452867365
-0.0844328279642532	0.701410373856977
-0.0844328279642532	-0.940143066183484
-0.0844328279642532	-0.378626553640881
-0.0844328279642532	0.471002457615
-0.0844328279642532	-0.454716732254429
-0.0844328279642532	0.156338055158304
-0.0844328279642532	-1.21651946806741
-0.0844328279642532	-0.683519383771827
-0.0844328279642532	-0.304889680554187
-0.0844328279642532	0.614609433460174
-0.0844328279642532	0.0867363298277759
-0.0844328279642532	0.212299434288671
-0.0844328279642532	1.31175446118837
-0.0844328279642532	-1.04901430871388
-0.0844328279642532	-0.934871659379262
-0.0844328279642532	-0.120447305943287
-0.0844328279642532	-0.630047998327981
-0.0844328279642532	0.414167860092199
-0.0844328279642532	-0.706054196599979
-0.0844328279642532	0.76168497169499
-0.0844328279642532	0.856882915531365
-0.0844328279642532	-0.731315169175421
-0.0844328279642532	0.743072624384531
-0.0844328279642532	0.719048139837877
-0.0844328279642532	-0.8300622413384
-0.0844328279642532	0.276568290066415
-0.0844328279642532	-0.614956582466615
-0.0844328279642532	0.268115428086755
-0.0844328279642532	-0.193734992674166
-0.0844328279642532	-1.04361055898799
-0.0844328279642532	-0.270955706324159
-0.0844328279642532	0.162208277651459
-0.0844328279642532	-0.185491601327541
-0.0844328279642532	-0.777750247947139
-0.0844328279642532	0.416453390422014
-0.0844328279642532	-0.178864832029262
-0.0844328279642532	-0.817923672540783
-0.0844328279642532	0.541685925546535
-0.0844328279642532	-1.49128831049659
-0.0844328279642532	0.512450609150484
-0.0844328279642532	1.48018332854874
-0.0844328279642532	-1.17011750187083
-0.0844328279642532	-0.355021801138335
-0.0844328279642532	-2.1480015418927
-0.0844328279642532	0.272179028146503
-0.0844328279642532	-0.397598623056311
-0.0844328279642532	0.151413311805847
-0.0844328279642532	-0.0933244870217571
-0.0844328279642532	0.476512647942819
-0.0844328279642532	-0.820950029365779
-0.0844328279642532	-0.580605596180654
-0.0844328279642532	-0.629387904965014
-0.0844328279642532	-0.325217417706114
-0.0844328279642532	-0.50945142962361
-0.0844328279642532	-0.357288628427398
-0.0844328279642532	-0.562184794863676
-0.0844328279642532	-0.533035815327615
-0.0844328279642532	-0.0303571867254178
-0.0844328279642532	0.985831807942333
-0.0844328279642532	-0.843031304702873
-0.0844328279642532	-0.431799283670131
-0.0844328279642532	0.692316664906208
-0.0844328279642532	0.0234812503699509
-0.0844328279642532	-1.56003498293363
-0.0844328279642532	-0.20174052509681
-0.0844328279642532	-1.36631759429975
-0.0844328279642532	-0.156575198259073
-0.0844328279642532	-1.01592450211087
-0.0844328279642532	0.000169542423549274
-0.0844328279642532	1.60789253493903
-0.0844328279642532	-0.468532081175887
-0.0844328279642532	-0.840593659953225
-0.0844328279642532	-0.188448656738057
-0.0844328279642532	-1.13088851987755
-0.0844328279642532	-0.796451076682118
-0.0844328279642532	-1.42042209422749
-0.0844328279642532	0.771876136689841
-0.0844328279642532	0.260280684093274
-0.0844328279642532	-0.611970737335131
-0.0844328279642532	-2.63803775920218
-0.0844328279642532	-1.43589374565586
-0.0844328279642532	0.48921785773064
-0.0844328279642532	-0.151537471409021
-0.0844328279642532	-0.855123354245727
-0.0844328279642532	-0.557781822050384
-0.0844328279642532	-0.0152591443168326
-0.0844328279642532	-0.165383876859192
-0.0844328279642532	0.893712873041551
-0.0844328279642532	1.03178517979572
-0.0844328279642532	-0.395678562725074
-0.0844328279642532	0.501652488163217
-0.0844328279642532	-0.513799302781415
-0.0844328279642532	-0.0593817599069837
-0.0844328279642532	0.0867395500809529
-0.0844328279642532	0.727359605891259
-0.0844328279642532	-0.54005400191096
-0.0844328279642532	-0.542384229316522
-0.0844328279642532	-0.680055952201847
-0.0844328279642532	0.0380412341249894
-0.0844328279642532	0.585100709762941
-0.0844328279642532	-0.666734177334039
-0.0844328279642532	1.95279249560133
-0.0844328279642532	-0.147881075014769
-0.0844328279642532	-0.341239979578361
-0.0844328279642532	0.462080263418162
-0.0844328279642532	0.296522334523651
-0.0844328279642532	-1.04910945078821
-0.0844328279642532	-0.471944087581591
-0.0844328279642532	-0.110237538211187
-0.0844328279642532	-0.777354783914291
-0.0844328279642532	-0.490956014198041
-0.0844328279642532	0.297321406500529
-0.0844328279642532	0.20441756012783
-0.0844328279642532	-1.72007258689131
-0.0844328279642532	0.417189371672936
-0.0844328279642532	-1.41457924236697
-0.0844328279642532	0.791982319114606
-0.0844328279642532	1.567221416025
-0.0844328279642532	-0.909178193437672
-0.0844328279642532	-0.530685890176485
-0.0844328279642532	-1.59272316908693
-0.0844328279642532	-0.82742845281372
-0.0844328279642532	-0.790665263270707
-0.0844328279642532	0.982314831792351
-0.0844328279642532	0.087703453049933
-0.0844328279642532	-0.242735146490464
-0.0844328279642532	-0.845670767150661
-0.0844328279642532	-1.24652706570343
-0.0844328279642532	-1.30794017046746
-0.0844328279642532	-1.34769136832598
-0.0844328279642532	-0.065801519549872
-0.0844328279642532	-0.635243965101129
-0.0844328279642532	0.50849931946318
-0.0844328279642532	0.472559929166781
-0.0844328279642532	1.1038248310294
-0.0844328279642532	0.840647168938979
-0.0844328279642532	-1.49241353911998
-0.0844328279642532	0.136906035351252
-0.0844328279642532	1.01691868913902
-0.0844328279642532	-1.57568025849244
-0.0844328279642532	-0.0994619002317663
-0.0844328279642532	0.705769774669157
-0.0844328279642532	0.602910072942496
-0.0844328279642532	0.0835193786007373
-0.0844328279642532	0.0382774254003238
-0.0844328279642532	0.440907751235716
-0.0844328279642532	-0.94114240940263
-0.0844328279642532	-0.851701541245049
-0.0844328279642532	0.23738339111889
-0.0844328279642532	-0.198477930301873
-0.0844328279642532	-1.32473789301143
-0.0844328279642532	-0.669077978731153
-0.0844328279642532	0.362770695765445
-0.0844328279642532	1.38858848893347
-0.0844328279642532	0.0828885510377084
-0.0844328279642532	-1.0013794642792
-0.0844328279642532	0.672207509269768
-0.0844328279642532	-0.443489829858773
-0.0844328279642532	-0.257465210077079
-0.0844328279642532	0.869335810735397
-0.0844328279642532	-0.338645001811916
-0.0844328279642532	0.201747036473549
-0.0844328279642532	-0.128858189905685
-0.0844328279642532	-1.82531664577878
-0.0844328279642532	-1.4029962469736
-0.0844328279642532	0.364593543278744
-0.0844328279642532	-0.575298179975295
-0.0844328279642532	-1.81812398258038
-0.0844328279642532	-0.0864308443063102
-0.0844328279642532	0.894231664590681
-0.0844328279642532	-0.765465434423522
-0.0844328279642532	-0.791301718982005
-0.0844328279642532	0.417920553054469
-0.0844328279642532	-0.389973488961932
-0.0844328279642532	1.06722402630037
-0.0844328279642532	-1.37283398609645
-0.0844328279642532	0.867406711565213
-0.0844328279642532	1.28806434022096
-0.0844328279642532	-0.324912037420123
-0.0844328279642532	0.185689964092163
-0.0844328279642532	-0.561396043932248
-0.0844328279642532	-0.200250259660304
-0.0844328279642532	-1.60226439554735
-0.0844328279642532	0.537125338289048
-0.0844328279642532	1.3664058172724
-0.0844328279642532	-1.41565267951674
-0.0844328279642532	-0.525102807322071
-0.0844328279642532	0.154130003548598
-0.0844328279642532	0.59319572789861
-0.0844328279642532	-0.310555343625257
-0.0844328279642532	-1.01705711741216
-0.0844328279642532	-0.827683529942451
-0.0844328279642532	-0.340117031610024
-0.0844328279642532	-1.84237431741785
-0.0844328279642532	-0.042520737818311
-0.0844328279642532	0.987054300534613
-0.0844328279642532	-0.553591900385257
-0.0844328279642532	-0.77251948337496
-0.0844328279642532	1.3063530029212
-0.0844328279642532	-0.718291757625064
-0.0844328279642532	-1.22479833120529
-0.0844328279642532	-0.129844649042077
-0.0844328279642532	-1.50024098013633
-0.0844328279642532	0.396717590725615
-0.0844328279642532	1.38148680213972
-0.0844328279642532	-1.11664529763379
-0.0844328279642532	1.12557597065106
-0.0844328279642532	0.928544881446218
-0.0844328279642532	-0.188254977030866
-0.0844328279642532	-0.486308671491091
-0.0844328279642532	0.398266785717038
-0.0844328279642532	-0.474288527342868
-0.0844328279642532	-0.651577056049636
-0.0844328279642532	0.560534050213434
-0.0844328279642532	-1.32866387153036
-0.0844328279642532	-1.66041120215095
-0.0844328279642532	0.690067865038284
-0.0844328279642532	-0.493687656111994
-0.0844328279642532	1.03305046868735
-0.0844328279642532	0.705704692183037
-0.0844328279642532	-0.410484287513523
-0.0844328279642532	-2.10262889140555
-0.0844328279642532	-1.49736910852262
-0.0844328279642532	-1.74636437228371
-0.0844328279642532	-0.746918935876703
-0.0844328279642532	0.469229191851124
-0.0844328279642532	-0.439401743906828
-0.0844328279642532	-0.332920538242167
-0.0844328279642532	1.17291985980149
-0.0844328279642532	0.410903127865605
-0.0844328279642532	-0.266258139921849
-0.0844328279642532	-0.587020407389158
-0.0844328279642532	-0.323538799924435
-0.0844328279642532	0.0455145198232145
-0.0844328279642532	0.395717673532058
-0.0844328279642532	0.485099435692891
-0.0844328279642532	-0.200885911778709
-0.0844328279642532	0.555487465776348
-0.0844328279642532	-0.788120757875525
-0.0844328279642532	-0.0876029349679293
-0.0844328279642532	-0.20982609564204
-0.0844328279642532	-0.497984395065945
-0.0844328279642532	0.873024157196742
-0.0844328279642532	-0.464382561910568
-0.0844328279642532	-0.517120427008336
-0.0844328279642532	0.0895352926775246
-0.0844328279642532	1.00387550711098
-0.0844328279642532	0.459826768792333
-0.0844328279642532	-1.69297364173405
-0.0844328279642532	0.468958407733982
-0.0844328279642532	0.360561989896709
-0.0844328279642532	-0.30021658806206
-0.0844328279642532	-0.0480935526971464
-0.0844328279642532	-0.461720740464564
-0.0844328279642532	0.311224707311919
-0.0844328279642532	-0.320154534320402
-0.0844328279642532	-0.282947282644532
-0.0844328279642532	-0.415637992064209
-0.0844328279642532	-0.505579824825965
-0.0844328279642532	0.818599386633288
-0.0844328279642532	-0.386572473109403
-0.0844328279642532	0.63364080817372
-0.0844328279642532	1.37233709683172
-0.0844328279642532	0.0878740408293162
-0.0844328279642532	-0.239058797086614
-0.0844328279642532	1.51809684951181
-0.0844328279642532	-1.28706366082185
-0.0844328279642532	0.34185182414976
-0.0844328279642532	-0.763632898706128
-0.0844328279642532	-0.280014810020575
-0.0844328279642532	0.441563244081742
-0.0844328279642532	0.953866471820021
-0.0844328279642532	0.135740620688189
-0.0844328279642532	-0.980478889274448
-0.0844328279642532	0.501245583278113
-0.0844328279642532	-0.124425676372208
-0.0844328279642532	0.551312122190488
-0.0844328279642532	0.790637994232394
-0.0844328279642532	0.188177772543678
-0.0844328279642532	0.457242834317253
-0.0844328279642532	-0.0951069309215633
-0.0844328279642532	0.0163579932966478
-0.0844328279642532	0.564832551275092
-0.0844328279642532	-1.65718632574564
-0.0844328279642532	-0.196163245483792
-0.0844328279642532	-1.64699619770313
-0.0844328279642532	-0.153562285989185
-0.0844328279642532	0.0996784653937617
-0.0844328279642532	-0.785405726174066
-0.0844328279642532	0.798615446052725
-0.0844328279642532	0.483727443749991
-0.0844328279642532	0.805507046275704
-0.0844328279642532	-0.437111845391755
-0.0844328279642532	-0.031292591553477
-0.0844328279642532	-0.236967008486392
-0.0844328279642532	-0.657724440476954
-0.0844328279642532	0.408504667025561
-0.0844328279642532	0.63435576968584
-0.0844328279642532	0.0995848802108696
-0.0844328279642532	-0.673030817799862
-0.0844328279642532	0.331787068257899
-0.0844328279642532	0.929583405085001
-0.0844328279642532	-0.0324046704960068
-0.0844328279642532	0.125938752558863
-0.0844328279642532	1.12965921435071
-0.0844328279642532	-0.416276355656194
-0.0844328279642532	0.59079889703937
-0.0844328279642532	-0.0258028258119261
-0.0844328279642532	-0.718375620122298
-0.0844328279642532	0.513966017831525
-0.0844328279642532	0.427822816632439
-0.0844328279642532	-0.0532438549199625
-0.0844328279642532	-0.0144044913866033
-0.0844328279642532	-1.13382903098949
-0.0844328279642532	-0.12101745500804
-0.0844328279642532	0.186677796888493
-0.0844328279642532	-0.45038060640751
-0.0844328279642532	-1.9373139741332
-0.0844328279642532	-0.693368999974119
-0.0844328279642532	-0.546619617105758
-0.0844328279642532	-1.16594055225935
-0.0844328279642532	-1.30781185462296
-0.0844328279642532	-1.16869345160642
-0.0844328279642532	0.417282771089191
-0.0844328279642532	1.72768444333483
-0.0844328279642532	0.63809257089305
-0.0844328279642532	-1.33657052827549
-0.0844328279642532	0.549368121794704
-0.0844328279642532	-1.07530780592289
-0.0844328279642532	1.34444614242493
-0.0844328279642532	-0.515756890733417
-0.0844328279642532	-0.611923789211122
-0.0844328279642532	-0.325377273295825
-0.0844328279642532	-0.0699469991887014
-0.0844328279642532	-1.0928936827556
-0.0844328279642532	0.645408390181831
-0.0844328279642532	-1.76330716219516
-0.0844328279642532	-0.230753627897375
-0.0844328279642532	0.573613397852679
-0.0844328279642532	0.140717852057499
-0.0844328279642532	-1.44163471690118
-0.0844328279642532	0.666730592080945
-0.0844328279642532	-0.0272928970790609
-0.0844328279642532	-0.889969703790737
-0.0844328279642532	0.682931994330364
-0.0844328279642532	-0.136181586437601
-0.0844328279642532	-0.830712275942076
-0.0844328279642532	-0.681304997602833
-0.0844328279642532	0.977875183099592
-0.0844328279642532	0.0318819281847311
-0.0844328279642532	-0.247885772210008
-0.0844328279642532	0.819420777583748
-0.0844328279642532	0.31124288850534
-0.0844328279642532	-0.491131391625714
-0.0844328279642532	-0.396268957774868
-0.0844328279642532	-0.329780947998639
-0.0844328279642532	0.205358369409861
-0.0844328279642532	-1.71759272872062
-0.0844328279642532	-0.886944521707715
-0.0844328279642532	0.26917725893767
-0.0844328279642532	-0.649918766499347
-0.0844328279642532	0.424543822974126
-0.0844328279642532	1.71242391672785
-0.0844328279642532	-0.347358852492313
-0.0844328279642532	-1.42579783091232
-0.0844328279642532	-1.22090103792747
-0.0844328279642532	0.0613539657449031
-0.0844328279642532	-1.08084264796067
-0.0844328279642532	-0.12983034156057
-0.0844328279642532	-0.319632722587624
-0.0844328279642532	-0.130116116846065
-0.0844328279642532	0.236707282615402
-0.0844328279642532	0.339629560672122
-0.0844328279642532	0.896142675983032
-0.0844328279642532	1.27899116597773
-0.0844328279642532	-0.2809823343643
-0.0844328279642532	-0.0337600488387757
-0.0844328279642532	-0.0426486968394002
-0.0844328279642532	-2.17591843886864
-0.0844328279642532	-0.968196505500885
-0.0844328279642532	0.254499664956974
-0.0844328279642532	-0.268852055480554
-0.0844328279642532	-1.38445071811766
-0.0844328279642532	-2.16542518819853
-0.0844328279642532	0.300777513623512
-0.0844328279642532	-0.264656783198046
-0.0844328279642532	0.312523681588818
-0.0844328279642532	-0.224735327142522
-0.0844328279642532	-0.246571121268534
-0.0844328279642532	0.819323623096228
-0.0844328279642532	-0.713495232152567
-0.0844328279642532	0.355355272699413
-0.0844328279642532	-0.742669878103449
-0.0844328279642532	1.45207402333318
-0.0844328279642532	-0.309061915946476
-0.0844328279642532	-0.313969501767744
-0.0844328279642532	-0.418870966496311
-0.0844328279642532	0.122349632374451
-0.0844328279642532	0.889717131755841
-0.0844328279642532	0.033869048993509
-0.0844328279642532	-2.47808753990543
-0.0844328279642532	-0.737241678365756
-0.0844328279642532	1.4289519811872
-0.0844328279642532	-0.688705823353626
-0.0844328279642532	1.16354694268213
-0.0844328279642532	-0.624582194421212
-0.0844328279642532	-0.368352166723245
-0.0844328279642532	-1.21964266513273
-0.0844328279642532	0.737342192918437
-0.0844328279642532	-0.760496765760408
-0.0844328279642532	-0.870712769893991
-0.0844328279642532	-0.734322487259597
-0.0844328279642532	0.721920190170337
-0.0844328279642532	-0.33355298108674
-0.0844328279642532	-0.0302001236304328
-0.0844328279642532	-1.24823878744184
-0.0844328279642532	-0.070793511609093
-0.0844328279642532	0.0401296247253349
-0.0844328279642532	-1.22209082060077
-0.0844328279642532	-0.348636391837335
-0.0844328279642532	-0.0981946867206034
-0.0844328279642532	-0.219452269528709
-0.0844328279642532	0.584762750336836
-0.0844328279642532	-0.639321679326958
-0.0844328279642532	-0.0375114027749035
-0.0844328279642532	0.430687037298281
-0.0844328279642532	0.458910706396345
-0.0844328279642532	0.563458475456397
-0.0844328279642532	-0.194047775277415
-0.0844328279642532	-0.225072763620425
-0.0844328279642532	0.345604943004993
-0.0844328279642532	-0.148257412275591
-0.0844328279642532	-0.157554172482456
-0.0844328279642532	-0.622285987289963
-0.0844328279642532	-0.361501381962345
-0.0844328279642532	-0.0183222638633005
-0.0844328279642532	-0.952494667104151
-0.0844328279642532	-0.22694289907723
-0.0844328279642532	-0.294016045401452
-0.0844328279642532	0.417368582711394
-0.0844328279642532	-0.582819087965035
-0.0844328279642532	0.575742292597567
-0.0844328279642532	0.172649266826735
-0.0844328279642532	0.377947623811149
-0.0844328279642532	1.35053709890638
-0.0844328279642532	-0.498581586660212
-0.0844328279642532	-0.777854032024177
-0.0844328279642532	2.06149290562146
-0.0844328279642532	-1.13141124256297
-0.0844328279642532	0.422395364249191
-0.0844328279642532	-0.571058222752153
-0.0844328279642532	0.329232926824936
-0.0844328279642532	-0.931699959054392
-0.0844328279642532	1.84475536044224
-0.0844328279642532	0.583892767392982
-0.0844328279642532	0.381351896808297
-0.0844328279642532	-0.437352592421611
-0.0844328279642532	-0.961825630398931
-0.0844328279642532	0.400040367341621
-0.0844328279642532	0.326517356671587
-0.0844328279642532	0.773514355121442
-0.0844328279642532	-0.30958401140273
-0.0844328279642532	-0.172110936171158
-0.0844328279642532	-0.145612856999442
-0.0844328279642532	-0.299465498749196
-0.0844328279642532	-1.43879954981834
-0.0844328279642532	0.417414757367084
-0.0844328279642532	0.992127653153506
-0.0844328279642532	0.666391728900383
-0.0844328279642532	-0.778273360182254
-0.0844328279642532	0.832093039972435
-0.0844328279642532	0.168215865883298
-0.0844328279642532	-0.398287659070849
-0.0844328279642532	-0.298057935393846
-0.0844328279642532	-0.714218725423468
-0.0844328279642532	-0.145485732572332
-0.0844328279642532	-0.672451840076604
-0.0844328279642532	0.0707830698165104
-0.0844328279642532	-0.183700184012647
-0.0844328279642532	-0.763009586914041
-0.0844328279642532	-0.172806498826088
-0.0844328279642532	-0.753133189961282
-0.0844328279642532	-1.30404464070416
-0.0844328279642532	-0.49854680036178
-0.0844328279642532	-0.092242559033668
-0.0844328279642532	0.26232607528042
-0.0844328279642532	-0.475497330309167
-0.0844328279642532	-0.0110142088328793
-0.0844328279642532	-0.666939875215693
-0.0844328279642532	0.245629534892775
-0.0844328279642532	-0.854333562514118
-0.0844328279642532	-0.853962989745742
-0.0844328279642532	-1.1191477246922
-0.0844328279642532	0.170560532841186
-0.0844328279642532	1.07451216805323
-0.0844328279642532	-0.242861015381127
-0.0844328279642532	-0.749036180120854
-0.0844328279642532	-0.0192906632891976
-0.0844328279642532	0.315472621455779
-0.0844328279642532	0.725613651488327
-0.0844328279642532	-0.084600453807596
-0.0844328279642532	0.32712362151322
-0.0844328279642532	0.240326374088902
-0.0844328279642532	1.26822481153889
-0.0844328279642532	-0.128094930966853
-0.0844328279642532	1.23593578808276
-0.0844328279642532	1.27336204373099
-0.0844328279642532	1.10147247763931
-0.0844328279642532	0.254111160515766
-0.0844328279642532	0.351602068477902
-0.0844328279642532	0.533775132166184
-0.0844328279642532	-0.465532821153005
-0.0844328279642532	-0.874986934186467
-0.0844328279642532	1.5475984448816
-0.0844328279642532	0.208408153991073
-0.0844328279642532	0.430653543398471
-0.0844328279642532	-0.679508509884997
-0.0844328279642532	-0.0315493440742678
-0.0844328279642532	0.579492290777903
-0.0844328279642532	-1.26259660001459
-0.0844328279642532	0.124087643087165
-0.0844328279642532	-0.910724944246716
-0.0844328279642532	-1.14912915966923
-0.0844328279642532	-0.678903228771336
-0.0844328279642532	-0.149849220066152
-0.0844328279642532	0.545749595661764
-0.0844328279642532	-2.20600823891139
-0.0844328279642532	-0.175873539846229
-0.0844328279642532	-0.389204764058682
-0.0844328279642532	-1.20759633574317
-0.0844328279642532	-0.00897053097606104
-0.0844328279642532	-0.671180267053245
-0.0844328279642532	-0.753491771873485
-0.0844328279642532	-0.230659595180928
-0.0844328279642532	-0.175849253565719
-0.0844328279642532	-1.03265019436217
-0.0844328279642532	-0.717311519660669
-0.0844328279642532	-0.698365187971682
-0.0844328279642532	-0.286722550653867
-0.0844328279642532	2.01909151932838
-0.0844328279642532	-2.40562887206322
-0.0844328279642532	-1.10825577075462
-0.0844328279642532	-0.772865745855881
-0.0844328279642532	0.549766542503114
-0.0844328279642532	-0.785395592090307
-0.0844328279642532	-1.50852919754641
-0.0844328279642532	-1.24257300686345
-0.0844328279642532	0.175263509070579
-0.0844328279642532	-0.115187950644525
-0.0844328279642532	0.565274803232207
-0.0844328279642532	0.269976217915158
-0.0844328279642532	-1.23323486419709
-0.0844328279642532	0.576524962477627
-0.0844328279642532	0.666930783395365
-0.0844328279642532	-0.732380211518702
-0.0844328279642532	-0.606052810578589
-0.0844328279642532	-0.670125475915739
-0.0844328279642532	-2.98055638560266
-0.0844328279642532	-0.956440976759598
-0.0844328279642532	0.0975649174329405
-0.0844328279642532	-0.398286788102023
-0.0844328279642532	-1.90529626430196
-0.0844328279642532	-0.779932005028869
-0.0844328279642532	-1.23830481465053
-0.0844328279642532	0.812124839801886
-0.0844328279642532	0.482162462802822
-0.0844328279642532	-1.17891180897764
-0.0844328279642532	-0.553830933650246
-0.0844328279642532	-0.571241446559469
-0.0844328279642532	-1.49470824868627
-0.0844328279642532	-0.559778504310632
-0.0844328279642532	-0.474107634332192
-0.0844328279642532	0.200731257273297
-0.0844328279642532	0.899974423836873
-0.0844328279642532	-0.451092181379838
-0.0844328279642532	-1.21033638913991
-0.0844328279642532	-1.74511435852489
-0.0844328279642532	1.44569065191354
-0.0844328279642532	-1.08851197095833
-0.0844328279642532	0.991576386176103
-0.0844328279642532	-0.668857200426206
-0.0844328279642532	0.390877474902773
-0.0844328279642532	0.862817300857611
-0.0844328279642532	0.291421009150092
-0.0844328279642532	-1.70793046737757
-0.0844328279642532	0.863929304578399
-0.0844328279642532	-1.65333593609997
-0.0844328279642532	-0.287880843570523
-0.0844328279642532	0.627914433216944
-0.0844328279642532	0.219120168641531
-0.0844328279642532	-0.961044170977992
-0.0844328279642532	-1.47651560002361
-0.0844328279642532	0.354174767623885
-0.0844328279642532	0.283187377995162
-0.0844328279642532	1.70858403564462
-0.0844328279642532	0.62748872245972
-0.0844328279642532	-0.441016225083619
-0.0844328279642532	-0.305860887399355
-0.0844328279642532	-1.08403442773672
-0.0844328279642532	-0.317909695587787
-0.0844328279642532	-0.030510515443563
-0.0844328279642532	1.2505928057742
-0.0844328279642532	1.20515935902844
-0.0844328279642532	0.118446135164071
-0.0844328279642532	-0.812135285694289
-0.0844328279642532	-1.11463649483679
-0.0844328279642532	1.16628736357029
-0.0844328279642532	-1.32958032940722
-0.0844328279642532	-0.133131402277062
-0.0844328279642532	0.899978890683823
-0.0844328279642532	-1.02911663678855
-0.0844328279642532	0.0892251284686516
-0.0844328279642532	0.456769428716374
-0.0844328279642532	-1.1378873854393
-0.0844328279642532	0.737931370924468
-0.0844328279642532	0.534536293157174
-0.0844328279642532	-0.945680569331351
-0.0844328279642532	-1.26346487700298
-0.0844328279642532	0.479259765244763
-0.0844328279642532	0.263791537973145
-0.0844328279642532	-0.487064264603028
-0.0844328279642532	0.0545696747932674
-0.0844328279642532	0.18234073706568
-0.0844328279642532	0.447995958560046
-0.0844328279642532	0.0151525916341271
-0.0844328279642532	-0.43477565092147
-0.0844328279642532	-0.0752897415484597
-0.0844328279642532	-0.0340642828357254
-0.0844328279642532	-0.956731673942002
-0.0844328279642532	0.0527125316048931
-0.0844328279642532	0.876857292966207
-0.0844328279642532	-0.876411004950569
-0.0844328279642532	-0.105996321846824
-0.0844328279642532	0.226824349965213
-0.0844328279642532	-0.856567928839588
-0.0844328279642532	-0.244384490338867
-0.0844328279642532	-0.835190884542207
-0.0844328279642532	0.428794072250476
-0.0844328279642532	0.996802510643256
-0.0844328279642532	1.40840212854783
-0.0844328279642532	-0.733781786181684
-0.0844328279642532	0.577830627538688
-0.0844328279642532	-0.972963177869506
-0.0844328279642532	-0.295106089951776
-0.0844328279642532	0.560704007652788
-0.0844328279642532	-0.794084526115093
-0.0844328279642532	0.0413865099809527
-0.0844328279642532	0.0173886658746412
-0.0844328279642532	1.10264870758999
-0.0844328279642532	-0.144661188447767
-0.0844328279642532	-0.30694729908129
-0.0844328279642532	-0.686066246554486
-0.0844328279642532	-0.825016385962808
-0.0844328279642532	-1.34832040271433
-0.0844328279642532	0.276647133517599
-0.0844328279642532	1.67321079152727
-0.0844328279642532	-0.622069264760906
-0.0844328279642532	0.798880054246773
-0.0844328279642532	1.10406231797489
-0.0844328279642532	1.11951460856918
-0.0844328279642532	-1.70346124349676
-0.0844328279642532	-0.907318755882848
-0.0844328279642532	-1.74902575674951
-0.0844328279642532	-1.65420978163662
-0.0844328279642532	-0.49044311192899
-0.0844328279642532	0.60777525608961
-0.0844328279642532	-0.738874078980736
-0.0844328279642532	-0.00634812113420935
-0.0844328279642532	0.267014064643632
-0.0844328279642532	0.91822452731946
-0.0844328279642532	0.257583424506404
-0.0844328279642532	-0.295905481113046
-0.0844328279642532	-1.10134253888953
-0.0844328279642532	-1.27856705319822
-0.0844328279642532	0.0371742183883192
-0.0844328279642532	0.351350369224861
-0.0844328279642532	0.0890888131485568
-0.0844328279642532	-0.61336598151809
-0.0844328279642532	0.272743310384158
-0.0844328279642532	-1.61299095198055
-0.0844328279642532	-1.03210110603558
-0.0844328279642532	-1.65422024281832
-0.0844328279642532	-0.567289758563579
-0.0844328279642532	0.688493065817823
-0.0844328279642532	-0.411495273321197
-0.0844328279642532	0.46524809343795
-0.0844328279642532	-0.142260096302596
-0.0844328279642532	1.59570081129193
-0.0844328279642532	0.0644784333668973
-0.0844328279642532	-0.393382371517834
-0.0844328279642532	-0.933621644308047
-0.0844328279642532	0.362800075935272
-0.0844328279642532	-0.753139379545495
-0.0844328279642532	0.112201230024812
-0.0844328279642532	-0.927689036723123
-0.0844328279642532	-0.320751391295378
-0.0844328279642532	1.50941721219108
-0.0844328279642532	1.44456871486399
-0.0844328279642532	-0.691769969062179
-0.0844328279642532	0.2991503350264
-0.0844328279642532	0.61514236892414
-0.0844328279642532	-0.399795561383314
-0.0844328279642532	0.897721261366083
-0.0844328279642532	1.11715409889394
-0.0844328279642532	1.64168690118798
-0.0844328279642532	-0.713038837868563
-0.0844328279642532	-0.809453520412493
-0.0844328279642532	0.316948631743692
-0.0844328279642532	-1.13774300039074
-0.0844328279642532	1.47670783517474
-0.0844328279642532	-1.60311858274357
-0.0844328279642532	0.098543842012262
-0.0844328279642532	-0.0692125733700486
-0.0844328279642532	0.994162542871429
-0.0844328279642532	-1.74884611799002
-0.0844328279642532	0.886585241406859
-0.0844328279642532	-0.333147046402615
-0.0844328279642532	-0.819924379155186
-0.0844328279642532	-0.880141806265851
-0.0844328279642532	0.568352088720271
-0.0844328279642532	-0.305549054952465
-0.0844328279642532	-0.697334424078935
-0.0844328279642532	0.945419538744499
-0.0844328279642532	-1.94570690243251
-0.0844328279642532	1.36386739126092
-0.0844328279642532	-1.75513978480422
-0.0844328279642532	-0.0843767202143439
-0.0844328279642532	-0.125157625697778
-0.0844328279642532	-0.221668029282743
-0.0844328279642532	-1.59935606422563
-0.0844328279642532	-1.38887607768786
-0.0844328279642532	0.424241402697067
-0.0844328279642532	-0.464034232535166
-0.0844328279642532	-0.173130520049227
-0.0844328279642532	0.199543299326887
-0.0844328279642532	0.127323547866887
-0.0844328279642532	-0.678420872441308
-0.0844328279642532	-1.03721797596429
-0.0844328279642532	-1.16307528915624
-0.0844328279642532	-0.854989717776206
-0.0844328279642532	-2.21221688082036
-0.0844328279642532	-0.51044810362637
-0.0844328279642532	0.029946383582427
-0.0844328279642532	0.0539134988068923
-0.0844328279642532	-0.915164787825294
-0.0844328279642532	0.856257496860302
-0.0844328279642532	-0.200080864367358
-0.0844328279642532	-1.27788737049497
-0.0844328279642532	-0.636086659882292
-0.0844328279642532	1.43208835050397
-0.0844328279642532	-0.301171816128516
-0.0844328279642532	0.157469534720757
-0.0844328279642532	-0.882033648776133
-0.0844328279642532	-0.377780812912871
-0.0844328279642532	0.641301222945902
-0.0844328279642532	0.616826829222333
-0.0844328279642532	-1.90524355950748
-0.0844328279642532	0.566757265942684
-0.0844328279642532	-1.49701322447883
-0.0844328279642532	-2.68076147217649
-0.0844328279642532	0.206109772337136
-0.0844328279642532	0.637323661672887
-0.0844328279642532	-0.931674570501588
-0.0844328279642532	-0.956845012942818
-0.0844328279642532	-0.204068233145129
-0.0844328279642532	0.694597351566188
-0.0844328279642532	-0.0685058049098615
-0.0844328279642532	1.51045676379033
-0.0844328279642532	-1.08596857207788
-0.0844328279642532	-0.397954660079357
-0.0844328279642532	0.266012144510331
-0.0844328279642532	-0.20477526372321
-0.0844328279642532	-0.604727830094582
-0.0844328279642532	-0.17414225315289
-0.0844328279642532	-0.36743863968217
-0.0844328279642532	-0.487299692769486
-0.0844328279642532	-0.31008027764442
-0.0844328279642532	0.00175596831535785
-0.0844328279642532	1.06812457485341
-0.0844328279642532	0.380503052606691
-0.0844328279642532	-0.0623005323342909
-0.0844328279642532	-0.0117976333764602
-0.0844328279642532	-0.0446787635108734
-0.0844328279642532	-0.288351658946397
-0.0844328279642532	0.321100161001485
-0.0844328279642532	-0.14036733103902
-0.0844328279642532	-2.54189350923545
-0.0844328279642532	0.26919505121219
-0.0844328279642532	0.802306230600884
-0.0844328279642532	-1.43348292318428
-0.0844328279642532	-1.47165181238289
-0.0844328279642532	-0.153040267633035
-0.0844328279642532	-1.42662384533512
-0.0844328279642532	-1.40683207140145
-0.0844328279642532	-0.38660475971248
-0.0844328279642532	0.347176038758899
-0.0844328279642532	-0.149843832861858
-0.0844328279642532	-0.364654954178171
-0.0844328279642532	0.792544632791447
-0.0844328279642532	-1.21555755595557
-0.0844328279642532	-1.10410243171693
-0.0844328279642532	-0.0665473604597047
-0.0844328279642532	-0.819727197466065
-0.0844328279642532	0.841036698871367
-0.0844328279642532	-0.900999623822827
-0.0844328279642532	0.0573225345421946
-0.0844328279642532	-0.587581534817875
-0.0844328279642532	0.830034500668354
-0.0844328279642532	-0.709528963288228
-0.0844328279642532	-1.61786911340058
-0.0844328279642532	-0.151470322802361
-0.0844328279642532	0.586520397089753
-0.0844328279642532	-0.28811528117647
-0.0844328279642532	0.61377300768358
-0.0844328279642532	-1.29878887832691
-0.0844328279642532	-0.644769614007203
-0.0844328279642532	0.367849530313844
-0.0844328279642532	-1.17739474622547
-0.0844328279642532	-2.33402762471374
-0.0844328279642532	-0.326447298538898
-0.0844328279642532	0.591096544020161
-0.0844328279642532	0.106412171502424
-0.0844328279642532	-0.166845956310727
-0.0844328279642532	-1.5573479107942
-0.0844328279642532	-0.74393051816574
-0.0844328279642532	-0.333977330291226
-0.0844328279642532	0.155112944861408
-0.0844328279642532	1.25115052272816
-0.0844328279642532	0.738438431215386
-0.0844328279642532	-0.712417063670603
-0.0844328279642532	0.604873031793034
-0.0844328279642532	-1.30674581590488
-0.0844328279642532	1.43291757828561
-0.0844328279642532	-0.359084976521203
-0.0844328279642532	-0.328585458521783
-0.0844328279642532	0.14676773213883
-0.0844328279642532	0.027348655499349
-0.0844328279642532	0.242655077509063
-0.0844328279642532	0.530281524446917
-0.0844328279642532	0.0739862549215005
-0.0844328279642532	-0.557910518221082
-0.0844328279642532	1.0299047683617
-0.0844328279642532	1.03324758966855
-0.0844328279642532	-1.66275227945198
-0.0844328279642532	-0.594507413515284
-0.0844328279642532	-0.530803214977233
-0.0844328279642532	0.347083057969048
-0.0844328279642532	-0.615939716707317
-0.0844328279642532	0.500850547396603
-0.0844328279642532	-0.398847588006245
-0.0844328279642532	-0.814109168480496
-0.0844328279642532	-1.01300849099365
-0.0844328279642532	-0.320433406772803
-0.0844328279642532	-0.0939969852545204
-0.0844328279642532	-0.468775878075753
-0.0844328279642532	-0.496486139084325
-0.0844328279642532	-1.39294548958368
-0.0844328279642532	0.306873423475359
-0.0844328279642532	0.528932251242477
-0.0844328279642532	-1.15171795526344
-0.0844328279642532	-1.57522125734559
-0.0844328279642532	-0.72428602527334
-0.0844328279642532	-0.831275023667729
-0.0844328279642532	-1.00198330878485
-0.0844328279642532	0.67760427165312
-0.0844328279642532	-0.267246047810517
-0.0844328279642532	0.242319622124995
-0.0844328279642532	-0.623210181648169
-0.0844328279642532	1.16338410558654
-0.0844328279642532	0.0553425265008016
-0.0844328279642532	-0.709817476695616
-0.0844328279642532	-1.87598718435086
-0.0844328279642532	-0.69695361662103
-0.0844328279642532	-0.0922545380442514
-0.0844328279642532	-0.00124561143974944
-0.0844328279642532	0.285720683997805
-0.0844328279642532	-0.0412854454552054
-0.0844328279642532	0.515091077759489
-0.0844328279642532	0.118537124236362
-0.0844328279642532	-1.33368119138815
-0.0844328279642532	0.785515071009826
-0.0844328279642532	-0.52017102015019
-0.0844328279642532	-0.00779786879837019
-0.0844328279642532	0.0308283870501427
-0.0844328279642532	-1.01667736947984
-0.0844328279642532	0.137730223230712
-0.0844328279642532	-2.28590543147173
-0.0844328279642532	-1.13445610794004
-0.0844328279642532	0.182593326439218
-0.0844328279642532	0.847608235261298
-0.0844328279642532	-0.833129295117629
-0.0844328279642532	-0.257209668218028
-0.0844328279642532	-0.195112710651017
-0.0844328279642532	-0.866418734410079
-0.0844328279642532	0.384048817993463
-0.0844328279642532	-0.644739271304154
-0.0844328279642532	-0.85777378383818
-0.0844328279642532	0.195794110814031
-0.0844328279642532	-0.310935022667664
-0.0844328279642532	0.666667739834093
-0.0844328279642532	-0.309925141782841
-0.0844328279642532	1.14415421217811
-0.0844328279642532	-1.74270683035481
-0.0844328279642532	-0.466101066946486
-0.0844328279642532	-0.433466538653697
-0.0844328279642532	-1.78323379294481
-0.0844328279642532	0.687224568792246
-0.0844328279642532	-0.53004821311006
-0.0844328279642532	-0.277842382957857
-0.0844328279642532	0.20177554103519
-0.0844328279642532	-0.413849074254724
-0.0844328279642532	0.981608212228267
-0.0844328279642532	0.0879468815718596
-0.0844328279642532	0.150164258301647
-0.0844328279642532	-0.27005166891432
-0.0844328279642532	1.43871633883156
-0.0844328279642532	0.31073070691199
-0.0844328279642532	-0.111388284381725
-0.0844328279642532	-0.980644345545084
-0.0844328279642532	-1.75679337265164
-0.0844328279642532	-0.099023716283785
-0.0844328279642532	0.485067284630091
-0.0844328279642532	0.663353549803187
-0.0844328279642532	1.16750343822849
-0.0844328279642532	0.0162458594252257
-0.0844328279642532	0.0365652038252264
-0.0844328279642532	1.44479543639079
-0.0844328279642532	-0.0438624075520408
-0.0844328279642532	0.0515390115588197
-0.0844328279642532	-0.419386630658614
-0.0844328279642532	-1.0676070593609
-0.0844328279642532	-0.370982686928862
-0.0844328279642532	-0.685078522215459
-0.0844328279642532	-1.57326727280109
-0.0844328279642532	-1.3205677174043
-0.0844328279642532	-0.427493143530658
-0.0844328279642532	0.789161315299054
-0.0844328279642532	-0.617873212202166
-0.0844328279642532	-0.916420220325818
-0.0844328279642532	-0.166238474781164
-0.0844328279642532	-0.835667784143133
-0.0844328279642532	0.334689482568574
-0.0844328279642532	-0.0463972492506954
-0.0844328279642532	-1.04492119937679
-0.0844328279642532	0.725039703712657
-0.0844328279642532	1.30231745532458
-0.0844328279642532	0.151405576697432
-0.0844328279642532	0.0145709944977952
-0.0844328279642532	0.748635266519479
-0.0844328279642532	-0.924138786180936
-0.0844328279642532	-0.117466257966569
-0.0844328279642532	-1.50788037986072
-0.0844328279642532	1.2779842578474
-0.0844328279642532	-1.08793754568769
-0.0844328279642532	0.00483369178425974
-0.0844328279642532	-1.0562131129507
-0.0844328279642532	-0.520163881856693
-0.0844328279642532	0.21757995988315
-0.0844328279642532	-0.808001168701754
-0.0844328279642532	-0.856020447950677
-0.0844328279642532	1.33111616481378
-0.0844328279642532	-0.407902144427457
-0.0844328279642532	-0.036031618007069
-0.0844328279642532	0.975219831300496
-0.0844328279642532	1.41632928677783
-0.0844328279642532	0.685701564168074
-0.0844328279642532	-0.602801155715007
-0.0844328279642532	1.08062077871715
-0.0844328279642532	-0.0521226346546619
-0.0844328279642532	-0.988515938297212
-0.0844328279642532	-0.331460299526981
-0.0844328279642532	1.17521206138931
-0.0844328279642532	-0.376699863722234
-0.0844328279642532	-0.541870657439215
-0.0844328279642532	1.55126846609375
-0.0844328279642532	1.14531608281604
-0.0844328279642532	-0.0950444667933965
-0.0844328279642532	-0.0806107556689817
-0.0844328279642532	1.52706504572532
-0.0844328279642532	-0.246722503379544
-0.0844328279642532	0.141902247264756
-0.0844328279642532	-0.268947369765471
-0.0844328279642532	-1.15838652373845
-0.0844328279642532	1.23337156389805
-0.0844328279642532	-1.52183067001382
-0.0844328279642532	-2.05016646217794
-0.0844328279642532	0.479556234096673
-0.0844328279642532	-1.9252812110319
-0.0844328279642532	0.655298839968943
-0.0844328279642532	0.505163084558003
-0.0844328279642532	1.13438033737618
-0.0844328279642532	0.937274523155029
-0.0844328279642532	-0.272250445161113
-0.0844328279642532	-1.34663503513866
-0.0844328279642532	-0.413347085434587
-0.0844328279642532	1.23098444150834
-0.0844328279642532	-0.979615951136985
-0.0844328279642532	-1.57508421339231
-0.0844328279642532	-0.846092552751102
-0.0844328279642532	-0.317511982658804
-0.0844328279642532	-0.822602241392342
-0.0844328279642532	-0.366079567932754
-0.0844328279642532	-0.483783986769243
-0.0844328279642532	0.0103090918909778
-0.0844328279642532	-2.22134573638725
-0.0844328279642532	0.451298849769341
-0.0844328279642532	-0.51510716130737
-0.0844328279642532	-1.2656180488639
-0.0844328279642532	0.64344582726228
-0.0844328279642532	0.0683850648701316
-0.0844328279642532	0.423068327182573
-0.0844328279642532	0.299339606374872
-0.0844328279642532	0.572488970756531
-0.0844328279642532	-0.0484856672115157
-0.0844328279642532	-0.671566737180925
-0.0844328279642532	0.707496323558615
-0.0844328279642532	-0.200579245959691
-0.0844328279642532	-0.465172015995204
-0.0844328279642532	-0.0610871048409329
-0.0844328279642532	-1.28941647815156
-0.0844328279642532	-0.172140645773506
-0.0844328279642532	0.169237392391842
-0.0844328279642532	-1.17414418435511
-0.0844328279642532	-0.132240913156981
-0.0844328279642532	-1.04616283620944
-0.0844328279642532	0.0336327711369826
-0.0844328279642532	-0.0492536418018581
-0.0844328279642532	-0.234114482018011
-0.0844328279642532	-0.498106390917705
-0.0844328279642532	0.00521745556281772
-0.0844328279642532	0.800201973626454
-0.0844328279642532	0.189799168914519
-0.0844328279642532	-1.98483564797677
-0.0844328279642532	-0.165598878053984
-0.0844328279642532	0.474813001650322
-0.0844328279642532	-0.453620125699949
-0.0844328279642532	-0.480867385270891
-0.0844328279642532	0.415382131317703
-0.0844328279642532	0.201558306508826
-0.0844328279642532	-0.479177750967843
-0.0844328279642532	0.771059360904442
-0.0844328279642532	-1.49197615068664
-0.0844328279642532	0.624561479617885
-0.0844328279642532	-0.762136568012131
-0.0844328279642532	0.191229852442476
-0.0844328279642532	0.547070219866775
-0.0844328279642532	-1.04135417343886
-0.0844328279642532	0.233487638527137
-0.0844328279642532	-0.161543910194812
-0.0844328279642532	0.253245335752112
-0.0844328279642532	0.419342789164418
-0.0844328279642532	-0.324718442840879
-0.0844328279642532	0.369445072037685
-0.0844328279642532	0.395720029954084
-0.0844328279642532	-0.942515861507356
-0.0844328279642532	-0.72533968432155
-0.0844328279642532	0.70213638973495
-0.0844328279642532	-1.73983641798946
-0.0844328279642532	-0.292803798757564
-0.0844328279642532	-0.686562332732237
-0.0844328279642532	-0.354425877235272
-0.0844328279642532	-0.952327552496378
-0.0844328279642532	0.681957447587131
-0.0844328279642532	0.049488765298932
-0.0844328279642532	-1.22007745820443
-0.0844328279642532	-0.053611278047061
-0.0844328279642532	-0.416355599560458
-0.0844328279642532	-0.622767581318225
-0.0844328279642532	-0.55494868240978
-0.0844328279642532	0.499314079918147
-0.0844328279642532	-0.103681309658828
-0.0844328279642532	-0.601793978825313
-0.0844328279642532	-0.9019341016275
-0.0844328279642532	-1.3428774310044
-0.0844328279642532	-0.153033245064837
-0.0844328279642532	-0.886957901495375
-0.0844328279642532	0.272169612073419
-0.0844328279642532	-1.14276865494718
-0.0844328279642532	-1.02387797271459
-0.0844328279642532	0.414950581613972
-0.0844328279642532	0.0994967680033234
-0.0844328279642532	-0.982109697867639
-0.0844328279642532	0.0933187258622681
-0.0844328279642532	-0.743628101005402
-0.0844328279642532	-0.0614768200603208
