V1	V2
0.287829595338113	0.231288336841633
0.287829595338113	-0.22737128611956
0.287829595338113	-0.392333701355955
0.287829595338113	-0.268564447365517
0.287829595338113	-1.26341970711879
0.287829595338113	-0.423801263196562
0.287829595338113	0.552159815469722
0.287829595338113	0.844593262039901
0.287829595338113	0.0445000632008998
0.287829595338113	0.840527507476974
0.287829595338113	-0.192049413017255
0.287829595338113	-0.588958070013472
0.287829595338113	0.674780835445571
0.287829595338113	-0.913707356614193
0.287829595338113	-0.117542247910905
0.287829595338113	-0.648402818007707
0.287829595338113	-1.02948720703334
0.287829595338113	1.58373557604765
0.287829595338113	-0.663230905049254
0.287829595338113	0.787423135074999
0.287829595338113	0.54889668355607
0.287829595338113	-0.896333607278283
0.287829595338113	0.215192132209165
0.287829595338113	0.268035161912241
0.287829595338113	-1.31175541808171
0.287829595338113	0.129363238258012
0.287829595338113	0.217651438791474
0.287829595338113	-0.353170774318592
0.287829595338113	0.418257939833897
0.287829595338113	-0.170970805320014
0.287829595338113	0.465548425736309
0.287829595338113	-0.679282627527865
0.287829595338113	0.770338982557291
0.287829595338113	1.11132164143193
0.287829595338113	-1.27852580141666
0.287829595338113	0.142281051618284
0.287829595338113	-0.3424698696988
0.287829595338113	-1.0758074718084
0.287829595338113	-1.46247621272209
0.287829595338113	-0.677225291793587
0.287829595338113	-1.78099210718509
0.287829595338113	-0.515852081380739
0.287829595338113	-0.542780024474187
0.287829595338113	0.432218364158498
0.287829595338113	-0.436253175728826
0.287829595338113	-0.361747114025771
0.287829595338113	-0.339071540510886
0.287829595338113	0.599078546494482
0.287829595338113	-0.0685901050114239
0.287829595338113	0.632258830011672
0.287829595338113	0.465065872703139
0.287829595338113	0.822667778956983
0.287829595338113	0.279129640655942
0.287829595338113	-0.315118493585395
0.287829595338113	0.244431447664823
0.287829595338113	-0.867087209925103
0.287829595338113	-0.665352547168972
0.287829595338113	0.336839324223085
0.287829595338113	2.6405562159486
0.287829595338113	-0.325884971473474
0.287829595338113	0.372687314787594
0.287829595338113	-0.151393721001149
0.287829595338113	0.18163806964122
0.287829595338113	-0.58165806220476
0.287829595338113	0.503589679936454
0.287829595338113	0.193947511501495
0.287829595338113	-0.931364181157065
0.287829595338113	0.409246974285519
0.287829595338113	-1.52320418292938
0.287829595338113	0.038120022980813
0.287829595338113	1.14626437207279
0.287829595338113	0.224174407568469
0.287829595338113	-0.663509539244167
0.287829595338113	0.222967746188267
0.287829595338113	0.271391722655036
0.287829595338113	-0.476033802447454
0.287829595338113	-1.16505588826351
0.287829595338113	-0.591612449282405
0.287829595338113	0.0855350758427704
0.287829595338113	-0.838597523755176
0.287829595338113	-0.302711286998935
0.287829595338113	-0.652825120881172
0.287829595338113	0.544619121314639
0.287829595338113	0.0679751863182538
0.287829595338113	-0.468219085631905
0.287829595338113	-0.925485235008523
0.287829595338113	-0.554571642509547
0.287829595338113	0.488676911907923
0.287829595338113	-0.336295090622492
0.287829595338113	1.01300588667079
0.287829595338113	-0.416140817761097
0.287829595338113	-0.784202224654038
0.287829595338113	-0.27572652945852
0.287829595338113	0.577037346668675
0.287829595338113	0.942566356198189
0.287829595338113	0.343455005643591
0.287829595338113	-0.436564130147332
0.287829595338113	-1.12765413086089
0.287829595338113	1.75178897910548
0.287829595338113	-1.35059142801275
0.287829595338113	-0.580184765332991
0.287829595338113	-0.698122890753545
0.287829595338113	-0.18465012525721
0.287829595338113	-0.457110100942742
0.287829595338113	-0.0742178435567418
0.287829595338113	0.766833878761521
0.287829595338113	-1.40839716057414
0.287829595338113	-0.34906818413484
0.287829595338113	-0.0237806867908503
0.287829595338113	-0.834451943278523
0.287829595338113	1.07062686613496
0.287829595338113	-0.701181472446354
0.287829595338113	0.908454636854042
0.287829595338113	1.34156425371461
0.287829595338113	0.836312326048311
0.287829595338113	0.0990732667093894
0.287829595338113	1.36128336684473
0.287829595338113	-0.452152710540354
0.287829595338113	-0.798064083688541
0.287829595338113	0.859676547671455
0.287829595338113	0.741435251129424
0.287829595338113	-0.179789597410043
0.287829595338113	-1.12111722711888
0.287829595338113	-0.852156576064168
0.287829595338113	-0.206751014293161
0.287829595338113	-0.0174599029101969
0.287829595338113	-0.424168160136233
0.287829595338113	-0.281933693037516
0.287829595338113	-1.88570472200897
0.287829595338113	0.664027380892612
0.287829595338113	-0.790274959818053
0.287829595338113	0.235528565622651
0.287829595338113	0.571426078265574
0.287829595338113	0.104619467826463
0.287829595338113	-0.429573485169254
0.287829595338113	0.406816706135196
0.287829595338113	0.572046459500605
0.287829595338113	0.738846802699658
0.287829595338113	0.445438450230888
0.287829595338113	-0.661508610391252
0.287829595338113	0.446968101098449
0.287829595338113	-1.18776702814865
0.287829595338113	-0.585195005306073
0.287829595338113	1.03029430870184
0.287829595338113	-1.19289480330019
0.287829595338113	0.270223852652347
0.287829595338113	0.426763074737217
0.287829595338113	1.87515638503329
0.287829595338113	-0.542900853765243
0.287829595338113	0.324025159754385
0.287829595338113	0.575233358709283
0.287829595338113	-0.845291220668983
0.287829595338113	-0.978519267782289
0.287829595338113	0.056443293415164
0.287829595338113	1.10595354369615
0.287829595338113	-0.981271660583459
0.287829595338113	0.907656169918141
0.287829595338113	0.771904879004598
0.287829595338113	-0.21247028933703
0.287829595338113	-1.4548929828814
0.287829595338113	-0.191426272382827
0.287829595338113	-0.613344936137199
0.287829595338113	0.329438503678318
0.287829595338113	0.374971660595829
0.287829595338113	-0.418751052545332
0.287829595338113	0.907434516554773
0.287829595338113	0.255092078344056
0.287829595338113	0.559970681174665
0.287829595338113	1.11302046404388
0.287829595338113	-1.1089242882381
0.287829595338113	-0.734763582478831
0.287829595338113	-1.33703390725706
0.287829595338113	-1.1694534020221
0.287829595338113	-1.33644287371189
0.287829595338113	0.140088528111512
0.287829595338113	-0.215091747492391
0.287829595338113	0.428886285865232
0.287829595338113	0.807109336263952
0.287829595338113	-0.474648001804031
0.287829595338113	0.0705319834720797
0.287829595338113	-0.0851293805995716
0.287829595338113	0.0331404337503258
0.287829595338113	0.468482737262374
0.287829595338113	-0.845287615176883
0.287829595338113	0.0751331835821141
0.287829595338113	0.394189584058957
0.287829595338113	0.272456037258742
0.287829595338113	-0.0266696124612125
0.287829595338113	-0.631902186823236
0.287829595338113	0.218051871258783
0.287829595338113	-1.16515871558626
0.287829595338113	-0.521114546367638
0.287829595338113	-0.895307391511071
0.287829595338113	-0.955375409172035
0.287829595338113	0.268467663398404
0.287829595338113	-0.299011210434809
0.287829595338113	0.778612997704762
0.287829595338113	-0.914077750980507
0.287829595338113	-0.858716807508301
0.287829595338113	0.856354662105026
0.287829595338113	0.0461694111700446
0.287829595338113	-0.234858448102589
0.287829595338113	0.370767901421409
0.287829595338113	-0.983898902287361
0.287829595338113	-0.0754162107388296
0.287829595338113	-0.394041565941503
0.287829595338113	-0.863776098587977
0.287829595338113	0.312235575323253
0.287829595338113	-0.352014315101766
0.287829595338113	-0.62230892393158
0.287829595338113	-0.102342442156296
0.287829595338113	-0.0388973145729032
0.287829595338113	-0.175432841151633
0.287829595338113	0.0584258935769633
0.287829595338113	-1.84273154227253
0.287829595338113	-0.188067947599961
0.287829595338113	-0.801692129855567
0.287829595338113	-0.332021515436431
0.287829595338113	-1.13396044515246
0.287829595338113	-1.3648397282574
0.287829595338113	0.575808375835663
0.287829595338113	-0.443356627956895
0.287829595338113	0.469316221183703
0.287829595338113	-1.48100195785459
0.287829595338113	-0.231496800809662
0.287829595338113	-0.521644299729903
0.287829595338113	0.241440726659714
0.287829595338113	-0.45908576389413
0.287829595338113	0.787617630059327
0.287829595338113	-0.294353150203165
0.287829595338113	-1.44124983685731
0.287829595338113	-1.01254007772552
0.287829595338113	0.0835859074331218
0.287829595338113	-0.926963191250174
0.287829595338113	-0.748422182429799
0.287829595338113	-0.0437334831793059
0.287829595338113	0.468588617605491
0.287829595338113	-0.631637255792089
0.287829595338113	0.0899043211349628
0.287829595338113	0.824188923720396
0.287829595338113	-0.273681000043261
0.287829595338113	-2.06718042602688
0.287829595338113	0.405924635468402
0.287829595338113	-0.194632433322791
0.287829595338113	0.517424205450371
0.287829595338113	-0.417120075126299
0.287829595338113	-0.381391418982261
0.287829595338113	-0.289780082212719
0.287829595338113	-0.114331990625647
0.287829595338113	0.182472102239235
0.287829595338113	-1.51599854334647
0.287829595338113	-0.614976419355433
0.287829595338113	-1.39251434826714
0.287829595338113	-0.774283902979388
0.287829595338113	0.727980514014654
0.287829595338113	-0.947072049407865
0.287829595338113	0.787281842533272
0.287829595338113	1.02519943805494
0.287829595338113	-0.015167192443684
0.287829595338113	2.54948557501979
0.287829595338113	-0.283490759639314
0.287829595338113	1.32017922961854
0.287829595338113	-0.207073650184842
0.287829595338113	0.278686144495747
0.287829595338113	-0.34755858017915
0.287829595338113	0.839789565470344
0.287829595338113	-0.336446168101435
0.287829595338113	0.194014364433126
0.287829595338113	-0.782522401447945
0.287829595338113	-0.530852371223663
0.287829595338113	-0.316291869309733
0.287829595338113	-1.33342953090632
0.287829595338113	0.177100013870525
0.287829595338113	0.169415803768235
0.287829595338113	0.729509949279283
0.287829595338113	-0.911667949893232
0.287829595338113	0.0395324983469365
0.287829595338113	0.392569791261177
0.287829595338113	0.449046768910225
0.287829595338113	-1.68351805870996
0.287829595338113	-1.18039104002636
0.287829595338113	0.0126429980121223
0.287829595338113	-1.37345011349437
0.287829595338113	-1.10541707028161
0.287829595338113	0.877056963122868
0.287829595338113	0.353836484225877
0.287829595338113	-1.074018579448
0.287829595338113	-1.04715661683951
0.287829595338113	-0.298934825416492
0.287829595338113	-0.144802413816684
0.287829595338113	0.0960702369387398
0.287829595338113	-0.207147412662948
0.287829595338113	-0.438468468299266
0.287829595338113	-0.778564864450999
0.287829595338113	-1.66487219239178
0.287829595338113	-0.414205519219493
0.287829595338113	-0.605830540052221
0.287829595338113	0.940379791608628
0.287829595338113	0.466439127493842
0.287829595338113	-0.234051880326085
0.287829595338113	-0.597848136784918
0.287829595338113	-0.338217811456211
0.287829595338113	-1.33109289002362
0.287829595338113	-0.803721200555398
0.287829595338113	-0.574416656895604
0.287829595338113	0.285640858484314
0.287829595338113	-0.05215754850785
0.287829595338113	-0.933194194270545
0.287829595338113	-0.324057676843388
0.287829595338113	-1.02076172091794
0.287829595338113	-0.584301079784908
0.287829595338113	0.731793711669077
0.287829595338113	-0.0676177478468318
0.287829595338113	0.0103826777636833
0.287829595338113	0.363380984874677
0.287829595338113	0.488788354976489
0.287829595338113	0.0693672808860377
0.287829595338113	-0.282263161481382
0.287829595338113	-0.193931631164681
0.287829595338113	-1.17373177922191
0.287829595338113	-1.39437922199536
0.287829595338113	-0.0327026156505994
0.287829595338113	-0.327898557038036
0.287829595338113	0.547159038633836
0.287829595338113	-1.91852014467669
0.287829595338113	0.0384117189258895
0.287829595338113	0.0799737226656063
0.287829595338113	1.16780907371665
0.287829595338113	0.675915155560869
0.287829595338113	0.907550094526581
0.287829595338113	0.149013251491528
0.287829595338113	-0.467643525478611
0.287829595338113	0.514933415314363
0.287829595338113	-0.844541102490602
0.287829595338113	-0.493812227872809
0.287829595338113	-0.486541979336099
0.287829595338113	0.154417915736939
0.287829595338113	-0.378549117338959
0.287829595338113	0.169226231350944
0.287829595338113	0.0131628652961098
0.287829595338113	-0.11229272239602
0.287829595338113	0.491374534123739
0.287829595338113	0.310806706144977
0.287829595338113	0.849135180674683
0.287829595338113	0.15474778187896
0.287829595338113	-0.331916731421291
0.287829595338113	-0.341368306010931
0.287829595338113	-0.98653268520556
0.287829595338113	-1.54729030244354
0.287829595338113	-0.211748879906416
0.287829595338113	-0.24454041623251
0.287829595338113	-0.0250039650524201
0.287829595338113	-0.135009817667989
0.287829595338113	-1.50962767811578
0.287829595338113	1.92050381290193
0.287829595338113	-3.65530187008844
0.287829595338113	-0.440416452386902
0.287829595338113	-1.00301819227148
0.287829595338113	-0.928739703272178
0.287829595338113	-1.05138302679859
0.287829595338113	-0.573316828135926
0.287829595338113	0.315639487202517
0.287829595338113	0.0376681397285594
0.287829595338113	0.516196240607293
0.287829595338113	-0.727562206340096
0.287829595338113	0.610255417407835
0.287829595338113	1.63365291654238
0.287829595338113	0.337185070510131
0.287829595338113	-0.646801487854209
0.287829595338113	-0.461293427672896
0.287829595338113	0.899138778845067
0.287829595338113	0.756911324721933
0.287829595338113	-0.0514491877567842
0.287829595338113	-0.481112667669649
0.287829595338113	-0.217027040866228
0.287829595338113	0.318510143961223
0.287829595338113	0.198683100895405
0.287829595338113	0.499621485380956
0.287829595338113	-1.20918792055174
0.287829595338113	-0.527470340984273
0.287829595338113	0.891255975117289
0.287829595338113	-0.894301612698186
0.287829595338113	1.73234876020396
0.287829595338113	-1.22298104824506
0.287829595338113	-0.741817342597884
0.287829595338113	1.1497299031072
0.287829595338113	1.24671630185592
0.287829595338113	0.332005321669101
0.287829595338113	0.00962880087476137
0.287829595338113	0.622680938252461
0.287829595338113	-0.325468092774088
0.287829595338113	-0.415959476333821
0.287829595338113	-0.552592061582502
0.287829595338113	-0.186614645053119
0.287829595338113	0.453616735973942
0.287829595338113	-1.20508613769825
0.287829595338113	-0.0637873735692551
0.287829595338113	-0.618960705182513
0.287829595338113	0.199626810197827
0.287829595338113	1.89167330905508
0.287829595338113	0.350980979796596
0.287829595338113	0.07891759872577
0.287829595338113	0.198320567132726
0.287829595338113	-0.0882152217175332
0.287829595338113	-0.551096866364421
0.287829595338113	0.096903915796549
0.287829595338113	-0.106446136928973
0.287829595338113	1.52841237034159
0.287829595338113	-1.04679076874312
0.287829595338113	-0.229300926572776
0.287829595338113	-1.16838935902828
0.287829595338113	-0.472938174345238
0.287829595338113	0.170740049932981
0.287829595338113	0.173190443562451
0.287829595338113	-0.88931216362273
0.287829595338113	-0.945564952182806
0.287829595338113	-0.601929143990279
0.287829595338113	0.702947445603616
0.287829595338113	-0.335822584130334
0.287829595338113	0.264204360610357
0.287829595338113	0.32913024305709
0.287829595338113	0.355995749344402
0.287829595338113	0.297937444236965
0.287829595338113	-0.562925601226979
0.287829595338113	-1.23509659020042
0.287829595338113	-0.00175265899603971
0.287829595338113	1.08671044203768
0.287829595338113	0.115344852846306
0.287829595338113	1.09450549421126
0.287829595338113	0.0312786702915773
0.287829595338113	0.864491973710972
0.287829595338113	-0.622427143827505
0.287829595338113	0.477496974029581
0.287829595338113	0.433117752402229
0.287829595338113	-1.75245427726993
0.287829595338113	-0.375050291841337
0.287829595338113	-0.544309057313622
0.287829595338113	0.115882675374305
0.287829595338113	-0.28188237317087
0.287829595338113	0.0579916405218945
0.287829595338113	1.41782138973195
0.287829595338113	-0.644957907265333
0.287829595338113	0.67235859031252
0.287829595338113	-0.359114130622768
0.287829595338113	0.0505120338404588
0.287829595338113	-0.315262206857632
0.287829595338113	-0.544456886020967
0.287829595338113	0.257342380404385
0.287829595338113	-0.582985552941672
0.287829595338113	-0.139390539574464
0.287829595338113	-0.438973771540493
0.287829595338113	0.169462426597914
0.287829595338113	0.242294314180338
0.287829595338113	-0.0248465690694921
0.287829595338113	-0.886262082004873
0.287829595338113	-0.35888413272362
0.287829595338113	0.796473505313664
0.287829595338113	-0.946563861989727
0.287829595338113	1.14348633725245
0.287829595338113	-1.02648585021965
0.287829595338113	0.22264615276281
0.287829595338113	0.597271792461203
0.287829595338113	0.301945298157957
0.287829595338113	-0.198130359919894
0.287829595338113	-1.5667048597011
0.287829595338113	1.22188943093775
0.287829595338113	-0.615789447064333
0.287829595338113	-0.839850191612307
0.287829595338113	0.173920083725616
0.287829595338113	0.153102054382131
0.287829595338113	0.558063355482577
0.287829595338113	0.00107782460135653
0.287829595338113	-1.43897573271648
0.287829595338113	-0.120421429561365
0.287829595338113	0.727875744057457
0.287829595338113	0.585171148168488
0.287829595338113	-0.423748371762983
0.287829595338113	1.10393730220775
0.287829595338113	-1.53114914478499
0.287829595338113	0.952788260467397
0.287829595338113	0.742694127378996
0.287829595338113	0.49562326005033
0.287829595338113	-0.575848247545586
0.287829595338113	0.104111684975297
0.287829595338113	-0.102274005938533
0.287829595338113	0.50997696645738
0.287829595338113	0.449314490765207
0.287829595338113	0.0208168203317385
0.287829595338113	-0.495835927249534
0.287829595338113	0.626162955525412
0.287829595338113	0.816157591956376
0.287829595338113	-1.1141571246069
0.287829595338113	0.180773844736077
0.287829595338113	-0.159039668076748
0.287829595338113	1.02172660698955
0.287829595338113	-0.807901844920909
0.287829595338113	-0.223632398740939
0.287829595338113	-0.752793033472042
0.287829595338113	0.161716252323817
0.287829595338113	1.01894900678258
0.287829595338113	-0.14593645880603
0.287829595338113	-1.64314431674697
0.287829595338113	-1.48886673049521
0.287829595338113	0.803820591752704
0.287829595338113	-0.749995834264062
0.287829595338113	1.02358348499551
0.287829595338113	0.148978685971947
0.287829595338113	0.240070439809362
0.287829595338113	-0.983171680155156
0.287829595338113	0.256834222574124
0.287829595338113	-0.0959945089736003
0.287829595338113	0.177831029444064
0.287829595338113	-0.187859044261824
0.287829595338113	0.18549141631301
0.287829595338113	0.19930328611192
0.287829595338113	-1.1913675903073
0.287829595338113	-0.72086207974068
0.287829595338113	0.713932051788277
0.287829595338113	-0.374496730353144
0.287829595338113	0.647169074364449
0.287829595338113	-0.772960266068228
0.287829595338113	-0.179286491008355
0.287829595338113	-0.20022910650367
0.287829595338113	-1.1092866161436
0.287829595338113	-1.02966514395296
0.287829595338113	0.393588698311529
0.287829595338113	-0.401306991926642
0.287829595338113	-1.21036972370763
0.287829595338113	-0.285654458072511
0.287829595338113	-0.893124831403977
0.287829595338113	-0.245160385845878
0.287829595338113	-0.726733482269562
0.287829595338113	-0.0505912831745654
0.287829595338113	-1.78565356604499
0.287829595338113	-0.841480070863948
0.287829595338113	0.152626510398363
0.287829595338113	0.245588648183542
0.287829595338113	1.04117167339032
0.287829595338113	0.811854950806268
0.287829595338113	-1.2150559645786
0.287829595338113	-1.04248422279788
0.287829595338113	-0.999845348018379
0.287829595338113	-0.429064094225399
0.287829595338113	-1.3136955069228
0.287829595338113	-0.460464620111924
0.287829595338113	1.85978016900487
0.287829595338113	-1.24127398518864
0.287829595338113	0.507936088737157
0.287829595338113	-1.00855004140443
0.287829595338113	0.187164152698386
0.287829595338113	0.443176000042669
0.287829595338113	-0.185811976073989
0.287829595338113	0.825411783447993
0.287829595338113	-0.109054244053421
0.287829595338113	-1.03979555378258
0.287829595338113	2.27113981307227
0.287829595338113	-0.9452075858018
0.287829595338113	-2.68707385903708
0.287829595338113	-0.0806020452042731
0.287829595338113	0.00300908289754886
0.287829595338113	0.732345531569575
0.287829595338113	-0.493084849908499
0.287829595338113	-1.04175618078198
0.287829595338113	0.480589301807459
0.287829595338113	-0.753552996533752
0.287829595338113	0.0520047185083214
0.287829595338113	0.449647641741119
0.287829595338113	-0.158752166928664
0.287829595338113	0.150511947780601
0.287829595338113	-1.3978889677978
0.287829595338113	-0.573865861164329
0.287829595338113	-1.37049911337152
0.287829595338113	1.05962971698488
0.287829595338113	-0.529721204155202
0.287829595338113	0.298402469136505
0.287829595338113	1.21820947719934
0.287829595338113	0.152600605754344
0.287829595338113	0.115915377100649
0.287829595338113	-1.07304988834349
0.287829595338113	-0.652283082254126
0.287829595338113	0.0347798775797692
0.287829595338113	-1.5225804170937
0.287829595338113	0.107086191617537
0.287829595338113	-1.41462972499947
0.287829595338113	-0.577714085076611
0.287829595338113	0.363495583772167
0.287829595338113	-0.476422236807419
0.287829595338113	-0.219013856320156
0.287829595338113	0.427660952768477
0.287829595338113	-0.166337338628697
0.287829595338113	0.413445424299123
0.287829595338113	-1.36674173714855
0.287829595338113	0.691763019162231
0.287829595338113	2.01880101154941
0.287829595338113	-0.953809547900654
0.287829595338113	-0.344491534859035
0.287829595338113	0.316645627472049
0.287829595338113	0.613593912640251
0.287829595338113	0.0523523876085363
0.287829595338113	-0.523812215107
0.287829595338113	1.10914255205152
0.287829595338113	0.511443323117231
0.287829595338113	1.59368287269769
0.287829595338113	0.921559166613147
0.287829595338113	-1.03929166862534
0.287829595338113	1.37888614504468
0.287829595338113	0.497046372568452
0.287829595338113	-0.765172908315368
0.287829595338113	-0.156860576898463
0.287829595338113	-0.0643956905636003
0.287829595338113	0.306792476590541
0.287829595338113	-0.0529729622915163
0.287829595338113	0.809643267929289
0.287829595338113	0.0485701353737902
0.287829595338113	0.0466293556855817
0.287829595338113	-0.551965715475305
0.287829595338113	0.755769991501268
0.287829595338113	0.0933240424844577
0.287829595338113	-0.719655963472935
0.287829595338113	-0.271865868752865
0.287829595338113	0.0108322841265469
0.287829595338113	-1.27990899523337
0.287829595338113	-0.559116830375615
0.287829595338113	1.05767278613394
0.287829595338113	-0.208974303470224
0.287829595338113	-1.39604870255738
0.287829595338113	0.525627171485997
0.287829595338113	0.533470578268897
0.287829595338113	0.304904921047498
0.287829595338113	-0.380934859753133
0.287829595338113	-0.626345273644624
0.287829595338113	0.436579796138844
0.287829595338113	0.171464692329746
0.287829595338113	-0.297579083312449
0.287829595338113	-1.65830375350565
0.287829595338113	0.0183704711736006
0.287829595338113	0.856331785093559
0.287829595338113	-0.253311503402582
0.287829595338113	1.20751168503438
0.287829595338113	0.520111299458623
0.287829595338113	-0.720504508854834
0.287829595338113	0.225420830967593
0.287829595338113	-0.0151818540968485
0.287829595338113	0.902950613037291
0.287829595338113	-0.271082218814776
0.287829595338113	-1.17510205530778
0.287829595338113	0.579122798586674
0.287829595338113	-1.08255208600604
0.287829595338113	0.101643640380793
0.287829595338113	0.182424349657754
0.287829595338113	-0.0981596765445474
0.287829595338113	-0.498780502332099
0.287829595338113	-0.29576174006143
0.287829595338113	0.324479728671538
0.287829595338113	-0.800632139841834
0.287829595338113	-0.458273056146986
0.287829595338113	-0.10887914499796
0.287829595338113	0.122283282037479
0.287829595338113	0.781894541531418
0.287829595338113	-1.0219384891439
0.287829595338113	0.0811936615028515
0.287829595338113	-0.0376051569806677
0.287829595338113	0.410220380925448
0.287829595338113	-1.17840692540121
0.287829595338113	0.0297409633780426
0.287829595338113	-1.03291603868923
0.287829595338113	-0.192647470626675
0.287829595338113	-1.13875156072173
0.287829595338113	-0.154815584448219
0.287829595338113	1.32896219271389
0.287829595338113	0.0834674151193759
0.287829595338113	0.584000658542124
0.287829595338113	0.675993639455431
0.287829595338113	0.514210044161491
0.287829595338113	1.74107547794313
0.287829595338113	0.484492898116383
0.287829595338113	-0.94382762328717
0.287829595338113	-0.227387825194501
0.287829595338113	2.25383232596228
0.287829595338113	-0.357267907093412
0.287829595338113	0.0823222278358458
0.287829595338113	-0.0989888098092919
0.287829595338113	-0.712480161088337
0.287829595338113	1.57340884673108
0.287829595338113	-1.77611814619132
0.287829595338113	-0.328682375398753
0.287829595338113	0.141937062168548
0.287829595338113	0.567976810589343
0.287829595338113	-0.538694935195068
0.287829595338113	0.449144983752827
0.287829595338113	-1.70932171942998
0.287829595338113	-0.507026206757324
0.287829595338113	-0.338138944420262
0.287829595338113	-0.537264040233552
0.287829595338113	-0.181996850150721
0.287829595338113	-1.12788515938948
0.287829595338113	-0.220661811746282
0.287829595338113	-0.927485800663817
0.287829595338113	0.291943322313887
0.287829595338113	-2.36297192456133
0.287829595338113	0.697207789471797
0.287829595338113	-1.15070357798328
0.287829595338113	0.542271758882553
0.287829595338113	-0.884052634577948
0.287829595338113	0.248126463742398
0.287829595338113	0.580176803799613
0.287829595338113	-0.264965431178251
0.287829595338113	-0.919088353549178
0.287829595338113	-1.18465194864723
0.287829595338113	0.11718096683131
0.287829595338113	-0.59354781904095
0.287829595338113	0.521138024876908
0.287829595338113	0.637247069189737
0.287829595338113	-0.524403678968667
0.287829595338113	-0.5417618909641
0.287829595338113	-0.548429805537328
0.287829595338113	-0.906604609285029
0.287829595338113	0.400718120522551
0.287829595338113	-0.676519793297658
0.287829595338113	-0.108849929660202
0.287829595338113	0.232672117452427
0.287829595338113	0.622994201015018
0.287829595338113	0.439397676686017
0.287829595338113	0.134837079957574
0.287829595338113	0.538260240909484
0.287829595338113	0.586231637993929
0.287829595338113	-0.130759759936723
0.287829595338113	0.289127809608409
0.287829595338113	-0.0274621429118405
0.287829595338113	-0.949836540042423
0.287829595338113	0.574995585182261
0.287829595338113	0.552836216730793
0.287829595338113	0.861490377727804
0.287829595338113	2.2218730386989
0.287829595338113	-1.05162448005151
0.287829595338113	-0.00427676173283587
0.287829595338113	-0.24867734072971
0.287829595338113	-0.300096748514477
0.287829595338113	0.739569215297244
0.287829595338113	-0.763102856316685
0.287829595338113	0.597724999922729
0.287829595338113	1.57941070090714
0.287829595338113	0.420507777497928
0.287829595338113	-0.0121671769916354
0.287829595338113	-0.239604075114258
0.287829595338113	1.3911924348284
0.287829595338113	-1.4550086351517
0.287829595338113	-0.855541339899109
0.287829595338113	1.52137654002367
0.287829595338113	-0.169387796992048
0.287829595338113	0.591299113190328
0.287829595338113	-0.503071041664224
0.287829595338113	-1.00881746401246
0.287829595338113	0.0464391054643727
0.287829595338113	-0.731832046815324
0.287829595338113	0.162434410497347
0.287829595338113	-2.62625058194606
0.287829595338113	0.00797734821832563
0.287829595338113	-0.336399728514529
0.287829595338113	-0.835094011990197
0.287829595338113	0.681369834786405
0.287829595338113	-1.31277055843549
0.287829595338113	-0.844151018159916
0.287829595338113	0.752383244247678
0.287829595338113	0.076478799264116
0.287829595338113	1.14274551117222
0.287829595338113	0.584204900752745
0.287829595338113	0.573667971188119
0.287829595338113	-1.37958496185951
0.287829595338113	-1.53040354777327
0.287829595338113	0.969374888112903
0.287829595338113	-0.52232655570613
0.287829595338113	0.438632295001351
0.287829595338113	-1.65851499740253
0.287829595338113	-1.22196199812364
0.287829595338113	-0.107398901224659
0.287829595338113	-0.778436628027009
0.287829595338113	-0.72080451432231
0.287829595338113	-0.92016917007869
0.287829595338113	0.693222944140231
0.287829595338113	-0.69839414653234
0.287829595338113	0.328476951617148
0.287829595338113	-0.775904075527539
0.287829595338113	-0.642807310608294
0.287829595338113	-0.526522401830004
0.287829595338113	-0.194924125293639
0.287829595338113	0.368195091660265
0.287829595338113	-0.517970949475444
0.287829595338113	-0.840211587477825
0.287829595338113	0.0339974624624624
0.287829595338113	-0.282794794930716
0.287829595338113	0.448188504160026
0.287829595338113	0.218723014209864
0.287829595338113	0.500002561128255
0.287829595338113	0.112188752751241
0.287829595338113	-0.392703634182269
0.287829595338113	-0.81319924429495
0.287829595338113	0.508212341680039
0.287829595338113	-0.752891269761228
0.287829595338113	0.098408622551851
0.287829595338113	-0.967111747853327
0.287829595338113	-1.81555483136089
0.287829595338113	0.504486220490659
0.287829595338113	1.09559773965653
0.287829595338113	0.432985202224494
0.287829595338113	0.305080966269205
0.287829595338113	-0.179074879632108
0.287829595338113	1.49239382024061
0.287829595338113	-0.729411575879272
0.287829595338113	-0.726685504116695
0.287829595338113	-0.647899998276795
0.287829595338113	1.15922457392185
0.287829595338113	0.0239371948175418
0.287829595338113	0.264652001466803
0.287829595338113	-0.924141425960187
0.287829595338113	0.147590339490709
0.287829595338113	-0.0923707803951288
0.287829595338113	0.354441054243917
0.287829595338113	0.35790766935401
0.287829595338113	1.12391934799977
0.287829595338113	-0.798998846082682
0.287829595338113	-0.353676031865536
0.287829595338113	-1.53001862348233
0.287829595338113	-0.0763509440262418
0.287829595338113	0.751206441437485
0.287829595338113	-0.540277826339111
0.287829595338113	-0.804922337181683
0.287829595338113	-0.48386298037385
0.287829595338113	0.699587279792919
0.287829595338113	-1.02392821531026
0.287829595338113	-0.631432567995621
0.287829595338113	1.34473671084998
0.287829595338113	-0.712687995039776
0.287829595338113	0.525115451789659
0.287829595338113	1.67176646381597
0.287829595338113	0.620387289642288
0.287829595338113	0.745690300966036
0.287829595338113	-0.0224579596922965
0.287829595338113	0.983987562025479
0.287829595338113	0.386971245496241
0.287829595338113	1.43116047091686
0.287829595338113	0.948947856037801
0.287829595338113	-1.69622506160042
0.287829595338113	0.870030833878861
0.287829595338113	-0.120098854496639
0.287829595338113	-0.288749545321458
0.287829595338113	-1.00302728061494
0.287829595338113	-0.610576383924624
0.287829595338113	-0.672680998087841
0.287829595338113	0.542887487399707
0.287829595338113	0.311604888517802
0.287829595338113	0.893466786379911
0.287829595338113	-0.306745275397667
0.287829595338113	1.62003511773511
0.287829595338113	0.36617344073014
0.287829595338113	-0.263523420894135
0.287829595338113	-0.522960599506654
0.287829595338113	-0.149921062075624
0.287829595338113	-1.03649940689111
0.287829595338113	-0.212019571865394
0.287829595338113	0.817528446993482
0.287829595338113	0.652457806989798
0.287829595338113	0.0320823049285011
0.287829595338113	-0.238700883002732
0.287829595338113	0.381972319779432
0.287829595338113	0.290992166863791
0.287829595338113	-0.58258525860035
0.287829595338113	-1.76796420330762
0.287829595338113	0.747422592903185
0.287829595338113	-0.199236159133076
0.287829595338113	-0.543234063839996
0.287829595338113	-0.216655906368825
0.287829595338113	1.93643305601846
0.287829595338113	0.27423187296349
0.287829595338113	-0.357122549116855
0.287829595338113	1.61046478816941
0.287829595338113	-0.0485943566408373
0.287829595338113	0.294508175930595
0.287829595338113	1.53376219579798
0.287829595338113	0.382603238212997
0.287829595338113	0.336306476685206
0.287829595338113	-0.764072859504786
0.287829595338113	-0.693202077150936
0.287829595338113	-1.05101171635965
0.287829595338113	0.639462766008684
0.287829595338113	-0.370222960950692
0.287829595338113	0.246951572554117
0.287829595338113	-0.00564909255266599
0.287829595338113	-0.624320194969759
0.287829595338113	0.256144963642694
0.287829595338113	0.185067319499247
0.287829595338113	0.301418619407514
0.287829595338113	-0.0884235585986843
0.287829595338113	1.14161196503741
0.287829595338113	-0.533609644366265
0.287829595338113	-0.341039475942882
0.287829595338113	-0.535057558885917
0.287829595338113	-0.0185755309259505
0.287829595338113	-1.03073290843017
0.287829595338113	-0.376498633826088
0.287829595338113	-0.389348664755676
0.287829595338113	1.09923510582729
0.287829595338113	-0.950675472888882
0.287829595338113	0.304014631372457
0.287829595338113	0.610871441523297
0.287829595338113	-0.609194833045603
0.287829595338113	-0.87870857989984
0.287829595338113	-0.283465471933663
0.287829595338113	0.840148493869638
0.287829595338113	-1.69965414601399
0.287829595338113	-0.816965691678824
0.287829595338113	0.809889532364835
0.287829595338113	-0.355462850017911
0.287829595338113	-0.705212071076303
0.287829595338113	-1.87442735162333
0.287829595338113	0.588175979700043
0.287829595338113	-1.01313840452408
0.287829595338113	-0.634288231870762
0.287829595338113	0.933540568813097
0.287829595338113	-0.778885206816529
0.287829595338113	0.0383868526082125
0.287829595338113	-1.44753790894391
0.287829595338113	0.739671419126829
0.287829595338113	-0.258529036889101
0.287829595338113	0.481050757331971
0.287829595338113	-0.603619411901008
0.287829595338113	0.213610187931771
0.287829595338113	1.08617607617097
0.287829595338113	-1.02136471223778
0.287829595338113	-1.29672269929469
0.287829595338113	0.0503898514778029
0.287829595338113	0.23519078612264
0.287829595338113	0.683166058851267
0.287829595338113	-0.901429753142505
0.287829595338113	0.587599945706053
0.287829595338113	0.549802996966271
0.287829595338113	-0.588277779437512
0.287829595338113	0.240740743090598
0.287829595338113	1.07205297785493
0.287829595338113	-0.897495943750652
0.287829595338113	-0.121784776373776
0.287829595338113	0.653234699113362
0.287829595338113	-0.123139524491169
0.287829595338113	0.0149890801036925
0.287829595338113	-0.54659310910851
0.287829595338113	-0.583816362472696
0.287829595338113	-0.232061434534579
0.287829595338113	-0.403456990118752
0.287829595338113	0.58066523880716
0.287829595338113	-0.0297821416427553
0.287829595338113	0.23834031346999
0.287829595338113	0.194432783802487
0.287829595338113	0.251621027498455
0.287829595338113	-1.57381382870139
0.287829595338113	0.280006567314725
0.287829595338113	1.33303916028291
0.287829595338113	-1.4261078320047
0.287829595338113	-0.405197571113465
0.287829595338113	-1.79118270524353
0.287829595338113	0.536629028757673
0.287829595338113	-0.275556138870154
0.287829595338113	-0.265569777529358
0.287829595338113	1.32851134194912
0.287829595338113	0.944633149388007
0.287829595338113	-1.26505438378464
0.287829595338113	0.651446069892518
0.287829595338113	0.576501863248247
0.287829595338113	-0.243629115417313
0.287829595338113	-0.773496777640187
0.287829595338113	-0.468682020770785
0.287829595338113	-1.06655365491989
0.287829595338113	-0.192517446169816
0.287829595338113	-0.325250191337407
0.287829595338113	0.518376479578528
0.287829595338113	-1.14126887100037
0.287829595338113	-0.605615105569989
0.287829595338113	0.48160131849567
0.287829595338113	0.427573559803722
0.287829595338113	-1.28025031390694
0.287829595338113	-0.760808934161631
0.287829595338113	-0.603841067277962
0.287829595338113	1.07440711928888
0.287829595338113	-1.01100020187396
0.287829595338113	-0.40996321596073
0.287829595338113	2.15740828249124
0.287829595338113	-0.6383019556249
0.287829595338113	-0.71561708604472
0.287829595338113	-0.528575639257603
0.287829595338113	-0.139613375660979
0.287829595338113	-0.526611128728973
0.287829595338113	-1.76382945847192
0.287829595338113	0.0699076213320424
0.287829595338113	0.22268075809458
0.287829595338113	-0.808636323293413
0.287829595338113	-2.87958562793517
0.287829595338113	-1.75102819425221
0.287829595338113	0.521996752945775
0.287829595338113	-0.516228638084161
0.287829595338113	-0.99424840643017
0.287829595338113	0.269001900532519
0.287829595338113	0.703957097267487
0.287829595338113	0.420974058812952
0.287829595338113	0.491529466225728
0.287829595338113	0.882451348039393
0.287829595338113	-0.303936085520942
0.287829595338113	0.215128813981238
0.287829595338113	-0.746814316123185
0.287829595338113	-0.115737981841249
0.287829595338113	-0.000321588094404746
0.287829595338113	1.51617815094461
0.287829595338113	0.135833595765725
0.287829595338113	-0.575823137214307
0.287829595338113	-0.105231339238916
0.287829595338113	-0.304230669690149
0.287829595338113	0.479419413295375
0.287829595338113	-1.08099245631523
0.287829595338113	1.72572954074471
0.287829595338113	-0.1272937197975
0.287829595338113	-0.467799774969382
0.287829595338113	-0.02828803830608
0.287829595338113	0.0269865964527334
0.287829595338113	-1.30030152598263
0.287829595338113	-0.201677330852572
0.287829595338113	-0.205423356575629
0.287829595338113	0.503711210982082
0.287829595338113	-0.902031294977611
0.287829595338113	-0.0825101969522848
0.287829595338113	0.207451618690669
0.287829595338113	-1.00176019909381
0.287829595338113	0.378774055437287
0.287829595338113	-0.860514926898215
0.287829595338113	0.903254073395111
0.287829595338113	1.08208227487992
0.287829595338113	0.630531953255382
0.287829595338113	-0.703796344460756
0.287829595338113	-1.88644002552853
0.287829595338113	0.982845543638678
0.287829595338113	-0.855015354273405
0.287829595338113	0.985576240070902
0.287829595338113	1.48329018095729
0.287829595338113	-0.664453520362496
0.287829595338113	-1.17240176561926
0.287829595338113	-0.997827171435695
0.287829595338113	-1.11697786222061
0.287829595338113	0.87485273106493
0.287829595338113	-0.23531269237289
0.287829595338113	-0.390614156676286
0.287829595338113	0.0111845829781103
0.287829595338113	0.577239960700105
0.287829595338113	1.15331522392085
0.287829595338113	0.297085389451826
0.287829595338113	-0.213609537330406
0.287829595338113	-0.201716915191795
0.287829595338113	1.33577200554542
0.287829595338113	-1.79976627667179
0.287829595338113	-0.0187784055224114
0.287829595338113	0.305844667871046
0.287829595338113	0.303571962769205
0.287829595338113	-0.139947355664546
0.287829595338113	-0.155794324399217
0.287829595338113	0.226255689581873
0.287829595338113	-0.76579296019705
0.287829595338113	-0.384037738191161
0.287829595338113	0.307457191738575
0.287829595338113	-0.254805817309308
0.287829595338113	-1.30365465691103
0.287829595338113	-0.694615450365202
0.287829595338113	-0.0655992780383201
0.287829595338113	0.783245574832698
0.287829595338113	0.298980575488713
0.287829595338113	0.324601755225405
0.287829595338113	0.317099368616098
0.287829595338113	-0.24697234349378
0.287829595338113	-0.431946707817772
0.287829595338113	0.682938562632529
0.287829595338113	-0.451640616080212
0.287829595338113	-0.240668025373342
0.287829595338113	-0.240753975243713
0.287829595338113	-1.71902622363235
0.287829595338113	-1.16918975313519
0.287829595338113	-0.0194638126671691
0.287829595338113	-0.691329483782887
0.287829595338113	-2.05885731478283
0.287829595338113	1.47819640043502
0.287829595338113	0.61733998534076
0.287829595338113	0.739998114706932
0.287829595338113	-1.07734127870355
0.287829595338113	-0.150459878874667
0.287829595338113	0.621996596722742
0.287829595338113	0.497380132014481
0.287829595338113	-1.61960834884656
0.287829595338113	0.74616586665174
0.287829595338113	1.01176876060818
0.287829595338113	0.571741559307274
0.287829595338113	-0.208387290014439
0.287829595338113	0.30422295449582
0.287829595338113	-0.40516698136285
0.287829595338113	-0.75102333807855
0.287829595338113	0.644978734291865
0.287829595338113	1.04899632640005
0.287829595338113	-0.618901110486775
0.287829595338113	0.863232802404305
0.287829595338113	0.344094334668117
0.287829595338113	0.0792816398998575
0.287829595338113	0.0867732363486766
0.287829595338113	-0.533268616287714
0.287829595338113	0.136731692118715
0.287829595338113	-0.201653735811291
0.287829595338113	-1.53607703268585
0.287829595338113	-0.174281983992717
0.287829595338113	1.52891459858629
0.287829595338113	0.783022193348341
0.287829595338113	-0.736645313464308
0.287829595338113	0.768959058155893
0.287829595338113	-0.496744826965987
0.287829595338113	-1.43743144820581
0.287829595338113	0.0444039177017146
0.287829595338113	-1.18272129944096
0.287829595338113	0.174814508871506
0.287829595338113	1.15280173556291
0.287829595338113	-1.26256108796187
0.287829595338113	0.611746757645466
0.287829595338113	0.759363323975968
0.287829595338113	-0.302593573379657
0.287829595338113	-0.409197757812063
0.287829595338113	0.135919287162647
0.287829595338113	-0.689635626845273
0.287829595338113	-0.103326023388657
0.287829595338113	0.810292937326064
0.287829595338113	-0.556001889540543
0.287829595338113	-0.925409730663883
0.287829595338113	0.712428427173151
0.287829595338113	-0.115008284224018
0.287829595338113	0.673802458012503
0.287829595338113	0.276060548818329
0.287829595338113	-0.517149766411134
0.287829595338113	-2.13110211687234
0.287829595338113	-0.0433481080937881
0.287829595338113	-1.96646849422457
0.287829595338113	-0.0374291367807125
0.287829595338113	0.845599487440609
0.287829595338113	-0.64254452675231
0.287829595338113	-0.671626748352629
0.287829595338113	1.05054473854411
0.287829595338113	-0.180191983927219
0.287829595338113	0.148615602579802
0.287829595338113	0.248069886735443
0.287829595338113	-0.0294099748983285
0.287829595338113	0.543697768264618
0.287829595338113	1.46556313139273
0.287829595338113	1.06211715788906
0.287829595338113	-0.352358449890342
0.287829595338113	0.279206643528696
0.287829595338113	-0.701483496181723
0.287829595338113	-0.231705040774671
0.287829595338113	0.641235691947099
0.287829595338113	0.434428781718829
0.287829595338113	0.894787394290407
0.287829595338113	-0.67802865308213
0.287829595338113	-1.10642489516717
0.287829595338113	-0.219187215843142
0.287829595338113	0.918244453943444
0.287829595338113	0.305570375502487
0.287829595338113	-1.4268427245415
0.287829595338113	0.970659148456349
0.287829595338113	0.310190893288596
0.287829595338113	-0.436738299254873
0.287829595338113	-0.648427757608516
0.287829595338113	-0.436404750316353
0.287829595338113	0.256725355333295
0.287829595338113	-0.14352042710583
0.287829595338113	-0.406491852270214
0.287829595338113	-0.763226330152541
0.287829595338113	1.46797066782847
0.287829595338113	0.401555320792877
0.287829595338113	1.21722365477782
0.287829595338113	0.107249326983261
0.287829595338113	1.21531803635009
0.287829595338113	-0.0455190546385182
0.287829595338113	0.827073351075295
0.287829595338113	1.56515785875364
0.287829595338113	-0.0498869126971293
0.287829595338113	1.35625715870196
0.287829595338113	0.106382036717786
0.287829595338113	-0.677129385076746
0.287829595338113	0.355689775271447
0.287829595338113	0.468099790558462
0.287829595338113	-0.0472265718581255
0.287829595338113	-0.0450498986094523
0.287829595338113	0.541962098059237
0.287829595338113	-0.383903860351214
0.287829595338113	0.000878550537308342
0.287829595338113	0.465764792096692
0.287829595338113	-0.00100865465764244
0.287829595338113	0.812562245360368
0.287829595338113	-0.711994147684184
0.287829595338113	-0.0787224260847665
0.287829595338113	0.305100879617328
0.287829595338113	-1.41252964667141
0.287829595338113	-0.358482180957427
0.287829595338113	-0.701544942617733
0.287829595338113	-0.417085122402188
0.287829595338113	0.645677290341265
0.287829595338113	-0.595049824929621
0.287829595338113	0.548273452926857
0.287829595338113	0.0886668258519236
0.287829595338113	0.434923890231865
0.287829595338113	-0.624153078761918
0.287829595338113	0.999124717211789
0.287829595338113	-0.505859671186098
0.287829595338113	-1.07375066278889
0.287829595338113	0.295157899263071
0.287829595338113	0.425221848673768
0.287829595338113	-0.0164444135674096
0.287829595338113	-1.056396009217
0.287829595338113	0.0685252964487049
0.287829595338113	0.507054770914703
0.287829595338113	-0.357716891080486
0.287829595338113	0.0624005122673381
0.287829595338113	0.86160754695365
0.287829595338113	-0.774343584993129
0.287829595338113	0.309067773474823
0.287829595338113	0.455295567976464
0.287829595338113	0.363853325471091
0.287829595338113	0.118816215382985
0.287829595338113	0.114001228089911
0.287829595338113	-0.225959609982255
0.287829595338113	-0.354104206425408
0.287829595338113	-0.582189909673151
0.287829595338113	-1.03321880284667
0.287829595338113	-0.0949069136313412
0.287829595338113	-0.586387807961671
0.287829595338113	-1.22168062972029
0.287829595338113	-0.745170868342992
0.287829595338113	-0.333037406296757
0.287829595338113	-1.59675510179319
0.287829595338113	-1.03662668144726
0.287829595338113	-0.143964149954961
0.287829595338113	0.446228391457584
0.287829595338113	1.68423026788774
0.287829595338113	0.729414901265251
0.287829595338113	-0.209652910484142
0.287829595338113	0.328841625337763
0.287829595338113	-1.18025756255255
0.287829595338113	0.840176073029898
0.287829595338113	-0.129008536150799
0.287829595338113	-0.178394879097123
0.287829595338113	-0.561395519665208
0.287829595338113	-0.186686767533153
0.287829595338113	0.676470865524333
0.287829595338113	0.556735545202091
0.287829595338113	-1.55729222377541
0.287829595338113	-0.113086493692574
0.287829595338113	0.500397678766245
0.287829595338113	-0.291622079166164
0.287829595338113	-1.41351115060297
0.287829595338113	0.356628616863151
0.287829595338113	-0.136762702763956
0.287829595338113	-0.425483893100782
0.287829595338113	0.377598397510411
0.287829595338113	-0.340375548942703
0.287829595338113	-0.764841421273101
0.287829595338113	-0.672549820231961
0.287829595338113	0.738564088174044
0.287829595338113	-0.0574912426272292
0.287829595338113	-0.426621607099204
0.287829595338113	0.529263937436028
0.287829595338113	0.94890725046324
0.287829595338113	-0.722798987576127
0.287829595338113	-0.27663837092533
0.287829595338113	-0.621472478727068
0.287829595338113	-0.17983108932313
0.287829595338113	-1.36543774845556
0.287829595338113	-1.33918610362841
0.287829595338113	0.0435322519512624
0.287829595338113	-1.18053265765145
0.287829595338113	0.366023355635459
0.287829595338113	1.37221743047454
0.287829595338113	-0.710638132961108
0.287829595338113	-0.341836576923225
0.287829595338113	-0.649658022634085
0.287829595338113	-0.361851917682255
0.287829595338113	-1.13508555492089
0.287829595338113	-0.27712678136114
0.287829595338113	0.672006606776378
0.287829595338113	0.215073732941573
0.287829595338113	0.0227627571590929
0.287829595338113	0.539796076127832
0.287829595338113	0.493509251139745
0.287829595338113	0.870627861512641
0.287829595338113	-0.16655859320543
0.287829595338113	-0.236403708235514
0.287829595338113	-0.530969047717377
0.287829595338113	-2.37935465835568
0.287829595338113	-0.182182442400329
0.287829595338113	0.360244914948002
0.287829595338113	-0.0927559494441326
0.287829595338113	-1.2327053027755
0.287829595338113	-2.30080453241736
0.287829595338113	0.193510521063352
0.287829595338113	-0.67880606634796
0.287829595338113	0.32338093647374
0.287829595338113	0.0977969553049896
0.287829595338113	-0.310016863989045
0.287829595338113	1.85760899496799
0.287829595338113	0.817626951289732
0.287829595338113	0.145310881550433
0.287829595338113	-0.961106163182027
0.287829595338113	1.04491012578195
0.287829595338113	-0.732002927255277
0.287829595338113	-0.505244212616823
0.287829595338113	-0.906643672606233
0.287829595338113	-0.282023416958424
0.287829595338113	0.545395807074975
0.287829595338113	0.588534634249839
0.287829595338113	-2.02071811884095
0.287829595338113	-0.427791711527703
0.287829595338113	0.874849599423413
0.287829595338113	-0.916946319449711
0.287829595338113	0.430825229461735
0.287829595338113	-0.40528924405552
0.287829595338113	-0.158973680731279
0.287829595338113	-1.51819444484203
0.287829595338113	0.568684878357491
0.287829595338113	-0.722040668733236
0.287829595338113	-0.479935318654743
0.287829595338113	-0.748865849909201
0.287829595338113	0.120721185709812
0.287829595338113	-0.606670023722881
0.287829595338113	-0.305442902359957
0.287829595338113	-0.183313343918734
0.287829595338113	-0.247686425492361
0.287829595338113	-0.270565346467571
0.287829595338113	-0.947380001252334
0.287829595338113	-0.568604156686973
0.287829595338113	-0.296183091166121
0.287829595338113	-0.848765958571956
0.287829595338113	0.618803641777014
0.287829595338113	-1.02906056579108
0.287829595338113	0.096095440661415
0.287829595338113	0.189342286521178
0.287829595338113	0.0995702547314608
0.287829595338113	0.136356668351524
0.287829595338113	-0.218251955839488
0.287829595338113	-0.503047532937423
0.287829595338113	-0.502181195428843
0.287829595338113	-0.0910582795868038
0.287829595338113	-0.615521347445288
0.287829595338113	-0.916004195322675
0.287829595338113	-0.538628047579039
0.287829595338113	-0.311745110958938
0.287829595338113	0.288513793925596
0.287829595338113	0.510679178855121
0.287829595338113	-0.741775477900013
0.287829595338113	0.56293451622691
0.287829595338113	-0.758615760289583
0.287829595338113	1.13503494291856
0.287829595338113	0.88986269411998
0.287829595338113	0.307483610712861
0.287829595338113	1.32035454526849
0.287829595338113	0.433856906197601
0.287829595338113	-0.628670919613704
0.287829595338113	2.00109433664073
0.287829595338113	-1.22548905109563
0.287829595338113	1.64595302789561
0.287829595338113	-0.427181911436225
0.287829595338113	0.640785713635861
0.287829595338113	-1.16496327163302
0.287829595338113	1.66307065349947
0.287829595338113	0.502860518176622
0.287829595338113	0.49628159815019
0.287829595338113	-0.138222683342899
0.287829595338113	-0.475130249536399
0.287829595338113	1.16937377424769
0.287829595338113	1.0874854928072
0.287829595338113	0.624451822577051
0.287829595338113	0.345432699069793
0.287829595338113	0.239386581855737
0.287829595338113	-0.353427557922483
0.287829595338113	-0.565043870061757
0.287829595338113	-1.02516819571342
0.287829595338113	0.396046936267926
0.287829595338113	0.799723688266301
0.287829595338113	0.207287209764889
0.287829595338113	-0.902503764641995
0.287829595338113	1.10093360146138
0.287829595338113	0.130292638310678
0.287829595338113	-0.779617600895712
0.287829595338113	-0.342097106818073
0.287829595338113	-0.472834454260379
0.287829595338113	-1.41266005694204
0.287829595338113	-0.863404025515578
0.287829595338113	-0.251125848422422
0.287829595338113	0.783513005672145
0.287829595338113	-0.508105241031132
0.287829595338113	-0.227406275107892
0.287829595338113	0.537396904442705
0.287829595338113	-1.53720198435662
0.287829595338113	-0.00154279494875098
0.287829595338113	-0.0256421735749477
0.287829595338113	0.217060382531162
0.287829595338113	-0.515697707401529
0.287829595338113	0.527752575576457
0.287829595338113	-0.00405325547213664
0.287829595338113	0.567912120563353
0.287829595338113	-0.929258712662438
0.287829595338113	-0.641172341844893
0.287829595338113	-0.607193134301383
0.287829595338113	-0.249086216473795
0.287829595338113	0.672377740779044
0.287829595338113	-0.213492040076446
0.287829595338113	-1.15209094158246
0.287829595338113	1.20326316820803
0.287829595338113	-0.0288391080758643
0.287829595338113	1.2039289819508
0.287829595338113	-0.297443138726084
0.287829595338113	0.111095292451907
0.287829595338113	0.00501751401386841
0.287829595338113	0.958258907442204
0.287829595338113	-0.708004783577664
0.287829595338113	1.14945888072816
0.287829595338113	0.954489483759694
0.287829595338113	0.867763161079118
0.287829595338113	-0.0568106740679113
0.287829595338113	-0.21998186261683
0.287829595338113	0.461787730771796
0.287829595338113	-0.707667910877678
0.287829595338113	-1.09121717600496
0.287829595338113	0.877000240966392
0.287829595338113	-0.22857792877835
0.287829595338113	0.176888248585673
0.287829595338113	-0.850774764935146
0.287829595338113	-0.423042015454019
0.287829595338113	0.277748112017413
0.287829595338113	-1.64222583818398
0.287829595338113	0.459430376911513
0.287829595338113	-0.21800107610753
0.287829595338113	-0.937746700946313
0.287829595338113	-0.360790707771187
0.287829595338113	-0.117505732990164
0.287829595338113	0.320756312208783
0.287829595338113	-2.49261425607693
0.287829595338113	0.0383237960019791
0.287829595338113	0.100617379218921
0.287829595338113	-1.41541733705219
0.287829595338113	-0.155922911194143
0.287829595338113	-0.461524290995222
0.287829595338113	-0.653594763232245
0.287829595338113	-0.565336802972542
0.287829595338113	-0.361753171157218
0.287829595338113	-1.21028754829485
0.287829595338113	-0.201992065186857
0.287829595338113	-0.941121602441605
0.287829595338113	-0.0256897830073974
0.287829595338113	1.65450777201609
0.287829595338113	-2.48292002947352
0.287829595338113	-0.375364162463832
0.287829595338113	-0.705474019928936
0.287829595338113	0.412367017075368
0.287829595338113	-1.07571020638493
0.287829595338113	-1.44510114293851
0.287829595338113	-0.309765894221794
0.287829595338113	-0.273436202652348
0.287829595338113	0.281349739832098
0.287829595338113	0.211352839123311
0.287829595338113	0.640670103969132
0.287829595338113	-1.02520357145913
0.287829595338113	0.55421127521516
0.287829595338113	0.427913134172776
0.287829595338113	-0.399248906962434
0.287829595338113	-0.250273012586092
0.287829595338113	-1.05786567154669
0.287829595338113	0.0936883245573306
0.287829595338113	0.169759755205824
0.287829595338113	0.153019243098889
0.287829595338113	-0.186210096649507
0.287829595338113	-2.17123374010834
0.287829595338113	-1.04053787260692
0.287829595338113	-0.384940882293478
0.287829595338113	0.306459136543964
0.287829595338113	0.235217992774384
0.287829595338113	-1.50909350149581
0.287829595338113	1.07773455132935
0.287829595338113	-0.61899457652493
0.287829595338113	-1.78567622670845
0.287829595338113	0.683080834401274
0.287829595338113	-0.83606205334506
0.287829595338113	-0.182342550261691
0.287829595338113	0.65614524640899
0.287829595338113	-0.272614979271751
0.287829595338113	-1.16210752235813
0.287829595338113	-1.9432210038065
0.287829595338113	1.12771407401394
0.287829595338113	-0.908459774450073
0.287829595338113	1.25138180306935
0.287829595338113	-1.1782091081763
0.287829595338113	-0.0416633603448346
0.287829595338113	1.14075522752153
0.287829595338113	0.280592961444164
0.287829595338113	-2.11083202126764
0.287829595338113	0.122057616063941
0.287829595338113	-1.69411212073534
0.287829595338113	-0.415368578523413
0.287829595338113	0.339280475833068
0.287829595338113	0.0233738022308358
0.287829595338113	-0.155626610378274
0.287829595338113	-0.388108929743215
0.287829595338113	0.119670031351831
0.287829595338113	0.753421063230867
0.287829595338113	1.17352670095416
0.287829595338113	-0.0708703162724049
0.287829595338113	-0.859140073096995
0.287829595338113	0.853902147063703
0.287829595338113	0.202199916111908
0.287829595338113	0.0675112586687199
0.287829595338113	-0.24279304691677
0.287829595338113	0.962381127938169
0.287829595338113	1.03947979259424
0.287829595338113	-0.00972203301145669
0.287829595338113	-0.255539651403694
0.287829595338113	-0.816355636519454
0.287829595338113	0.75602497188498
0.287829595338113	-1.90654899836267
0.287829595338113	-0.304207292913617
0.287829595338113	0.543199817068704
0.287829595338113	-0.499785028942572
0.287829595338113	0.27915968800626
0.287829595338113	0.62417631523661
0.287829595338113	-1.28463198439432
0.287829595338113	1.41726233822369
0.287829595338113	0.290339282409168
0.287829595338113	-0.393989564674168
0.287829595338113	-0.833910655507403
0.287829595338113	0.257472790007242
0.287829595338113	0.0955461972453833
0.287829595338113	-0.62574879313059
0.287829595338113	-0.166968266104249
0.287829595338113	0.712370271171146
0.287829595338113	0.346637633672181
0.287829595338113	-0.491078652439892
0.287829595338113	-0.699077270970211
0.287829595338113	0.0519050329658626
0.287829595338113	0.0280133858786797
0.287829595338113	-1.14117756529865
0.287829595338113	0.515304020294582
0.287829595338113	0.579824109872362
0.287829595338113	-1.30235204311376
0.287829595338113	-0.611898399376184
0.287829595338113	-0.0784375851597972
0.287829595338113	-0.701841052191604
0.287829595338113	-0.258992454291867
0.287829595338113	-1.32344224142411
0.287829595338113	-0.123549391680598
0.287829595338113	0.83605830194244
0.287829595338113	1.08355162610472
0.287829595338113	-1.03269221024877
0.287829595338113	0.514623122790109
0.287829595338113	-0.900959998661868
0.287829595338113	-0.901224779669867
0.287829595338113	0.24452620168902
0.287829595338113	-1.19639905571341
0.287829595338113	1.02303819377173
0.287829595338113	-0.215333443135044
0.287829595338113	0.535899437588846
0.287829595338113	0.212237506818212
0.287829595338113	-0.660984300350865
0.287829595338113	-0.288867281315273
0.287829595338113	-1.08869189512015
0.287829595338113	-0.968612177853796
0.287829595338113	0.0470269851140017
0.287829595338113	2.17638080125924
0.287829595338113	-0.393465247151532
0.287829595338113	0.944110567300616
0.287829595338113	2.06178206286699
0.287829595338113	0.823869050170938
0.287829595338113	-0.683476150980237
0.287829595338113	-0.586746818159156
0.287829595338113	-1.26737604455436
0.287829595338113	-1.17595258520806
0.287829595338113	-0.652472071086574
0.287829595338113	0.597417266012854
0.287829595338113	0.517703720752586
0.287829595338113	-0.676133172718593
0.287829595338113	0.124292646931742
0.287829595338113	1.0719799467031
0.287829595338113	-0.079220344459948
0.287829595338113	-0.636521142717843
0.287829595338113	-1.4487528966587
0.287829595338113	-1.18306517448555
0.287829595338113	0.44158648233547
0.287829595338113	-0.265189518023099
0.287829595338113	0.5473390310034
0.287829595338113	-1.34243320229784
0.287829595338113	1.22356860785128
0.287829595338113	-0.85395978595443
0.287829595338113	-1.43204548499228
0.287829595338113	-2.36365775901076
0.287829595338113	-0.517722572314703
0.287829595338113	1.13574199977802
0.287829595338113	0.246412968562105
0.287829595338113	0.299181339435208
0.287829595338113	-0.361289847764887
0.287829595338113	1.23024555887959
0.287829595338113	-0.266114964949484
0.287829595338113	-0.350570761733351
0.287829595338113	-1.1356709443471
0.287829595338113	0.248870823872601
0.287829595338113	-0.135494297547773
0.287829595338113	0.283932787119362
0.287829595338113	-0.886442515770639
0.287829595338113	0.691904478245988
0.287829595338113	1.54984919173631
0.287829595338113	1.14102201619945
0.287829595338113	-0.864376163464556
0.287829595338113	0.439141379984289
0.287829595338113	0.54314784839546
0.287829595338113	-0.707805778331842
0.287829595338113	0.504897946446931
0.287829595338113	0.977494882926312
0.287829595338113	1.05275584912219
0.287829595338113	0.179790216557649
0.287829595338113	-0.880571619494802
0.287829595338113	0.685850816558379
0.287829595338113	-0.966777319640418
0.287829595338113	1.12083691676594
0.287829595338113	-1.38593726773671
0.287829595338113	0.64061868625685
0.287829595338113	-0.259799821703105
0.287829595338113	0.958306375497635
0.287829595338113	-2.00120278249088
0.287829595338113	1.09943363227336
0.287829595338113	0.346171996043594
0.287829595338113	-0.946356066213305
0.287829595338113	-0.94086848505966
0.287829595338113	0.991108323162326
0.287829595338113	-0.205846449505984
0.287829595338113	0.17559590515884
0.287829595338113	0.72454523372744
0.287829595338113	-1.87610511345929
0.287829595338113	0.694935073452481
0.287829595338113	-1.90494771583215
0.287829595338113	-0.424019363601492
0.287829595338113	0.0657424595829461
0.287829595338113	-0.297368707511485
0.287829595338113	-0.559949328177844
0.287829595338113	-1.25715074742962
0.287829595338113	0.662889598214065
0.287829595338113	0.343211184636797
0.287829595338113	-0.0846066375914951
0.287829595338113	0.149155552399467
0.287829595338113	-0.243162398975979
0.287829595338113	-0.491993073499355
0.287829595338113	-1.46884818440511
0.287829595338113	-0.818006578828776
0.287829595338113	-1.00497926421824
0.287829595338113	-2.00393442830051
0.287829595338113	-0.662053098003611
0.287829595338113	0.125585290974243
0.287829595338113	0.767190386313285
0.287829595338113	-0.644986492601795
0.287829595338113	0.895205702370422
0.287829595338113	-0.492937383562737
0.287829595338113	-1.40874139104733
0.287829595338113	-1.00199039115429
0.287829595338113	1.14192338178366
0.287829595338113	0.301331960254174
0.287829595338113	-0.165751588096313
0.287829595338113	-1.18838404586272
0.287829595338113	-0.36430841889084
0.287829595338113	0.491998959871768
0.287829595338113	2.71120747181011
0.287829595338113	-1.56614995259132
0.287829595338113	0.385665550569168
0.287829595338113	-1.82637927044433
0.287829595338113	-2.66030518458975
0.287829595338113	1.46085652163242
0.287829595338113	0.470901897730357
0.287829595338113	-0.713698114902151
0.287829595338113	-1.22902682057651
0.287829595338113	-0.181079324631423
0.287829595338113	-0.010766324650838
0.287829595338113	-0.660639391429029
0.287829595338113	1.75404947342637
0.287829595338113	-0.523110950802476
0.287829595338113	-0.802984609197843
0.287829595338113	0.0336101543743865
0.287829595338113	-0.8895566379441
0.287829595338113	-0.30920914220944
0.287829595338113	-0.0199208006915264
0.287829595338113	0.0385200197033768
0.287829595338113	-0.823584553220112
0.287829595338113	-0.493008502933638
0.287829595338113	-0.11728866247595
0.287829595338113	0.715699152319257
0.287829595338113	0.153742775968368
0.287829595338113	-0.213531535135548
0.287829595338113	0.188145367904042
0.287829595338113	-0.341387204410445
0.287829595338113	-0.226695306708312
0.287829595338113	-0.0358842227898357
0.287829595338113	-0.640297017670093
0.287829595338113	-0.874426212595193
0.287829595338113	0.285797790252332
0.287829595338113	0.725340934405271
0.287829595338113	-1.17087110125165
0.287829595338113	-1.89675567651877
0.287829595338113	0.947416872992342
0.287829595338113	-1.11724670114656
0.287829595338113	-1.58942701247936
0.287829595338113	-0.540670449705704
0.287829595338113	-0.0520424394007364
0.287829595338113	-0.216310159780985
0.287829595338113	-0.798937477525698
0.287829595338113	0.321809992759107
0.287829595338113	-1.49615245441792
0.287829595338113	-0.0832286433345395
0.287829595338113	-0.383669952643388
0.287829595338113	-0.890612290220417
0.287829595338113	0.667905609031244
0.287829595338113	0.0253124398546767
0.287829595338113	-0.136199704607819
0.287829595338113	-0.814142030078305
0.287829595338113	0.672709578672318
0.287829595338113	0.224624047055705
0.287829595338113	-1.75462199237031
0.287829595338113	-0.358244756559561
0.287829595338113	-0.0677246825212947
0.287829595338113	-0.431841109152771
0.287829595338113	1.273258008031
0.287829595338113	-1.4582053909936
0.287829595338113	0.27212714726085
0.287829595338113	0.113463792196956
0.287829595338113	-1.34516490214581
0.287829595338113	-2.33791015533748
0.287829595338113	0.611133591011566
0.287829595338113	1.27696875049055
0.287829595338113	-0.151800822513771
0.287829595338113	-0.192324444626536
0.287829595338113	-1.75147118477642
0.287829595338113	-0.0741519016721739
0.287829595338113	0.655913203787403
0.287829595338113	-0.0832376047412851
0.287829595338113	1.05346839568912
0.287829595338113	0.438204158921089
0.287829595338113	2.62780121251823
0.287829595338113	0.44940196956518
0.287829595338113	-1.39264674087728
0.287829595338113	1.08452962981031
0.287829595338113	-0.863254299806353
0.287829595338113	0.581800681083909
0.287829595338113	0.0216588450827402
0.287829595338113	1.12266411817495
0.287829595338113	0.0337222831162265
0.287829595338113	0.632578872445354
0.287829595338113	0.44857683122402
0.287829595338113	-0.332621450941353
0.287829595338113	1.17370095798514
0.287829595338113	0.965749110575295
0.287829595338113	-1.31683003739538
0.287829595338113	-0.428520539395972
0.287829595338113	-0.735325503716744
0.287829595338113	0.183069330454643
0.287829595338113	-0.801228945391863
0.287829595338113	0.576843692925809
0.287829595338113	-0.612700798385305
0.287829595338113	-1.23701694967225
0.287829595338113	-0.260109551791405
0.287829595338113	0.0142621409053092
0.287829595338113	-0.368307883572616
0.287829595338113	-0.543222505537972
0.287829595338113	-0.541172744226195
0.287829595338113	-0.56060225611925
0.287829595338113	0.104658667751377
0.287829595338113	0.310413818376755
0.287829595338113	-1.2206926112583
0.287829595338113	-1.74794769249117
0.287829595338113	-0.737956421453269
0.287829595338113	-1.42996104367207
0.287829595338113	-0.301140684113097
0.287829595338113	0.197759842978108
0.287829595338113	0.752816300586726
0.287829595338113	0.0717413378040312
0.287829595338113	-0.0909073824327002
0.287829595338113	0.926764694704733
0.287829595338113	-0.163048655895992
0.287829595338113	-1.02320907095331
0.287829595338113	-0.33669862731184
0.287829595338113	-1.11658501132725
0.287829595338113	-0.261291296469757
0.287829595338113	0.479936750212364
0.287829595338113	0.200570059590422
0.287829595338113	-0.406899008170683
0.287829595338113	0.0677546730388734
0.287829595338113	-0.0538648574791516
0.287829595338113	-0.739003964726987
0.287829595338113	0.536324790593724
0.287829595338113	-0.697175612045243
0.287829595338113	-0.283560680087167
0.287829595338113	-0.11231534296229
0.287829595338113	-0.655551234453551
0.287829595338113	0.000784975747055938
0.287829595338113	-1.07914955494689
0.287829595338113	-1.48608089262896
0.287829595338113	0.0340583290192917
0.287829595338113	0.672871631252828
0.287829595338113	-1.26198226503543
0.287829595338113	-0.398879540852782
0.287829595338113	-0.459919251767577
0.287829595338113	-0.438082019394159
0.287829595338113	0.191653030816322
0.287829595338113	-1.05101007566106
0.287829595338113	-0.86596033375454
0.287829595338113	-0.210356765207617
0.287829595338113	0.193752830921905
0.287829595338113	0.590133651450127
0.287829595338113	-0.652405774774362
0.287829595338113	0.576449083379856
0.287829595338113	-0.827353554507816
0.287829595338113	-0.519078334589839
0.287829595338113	-0.732509881301539
0.287829595338113	-1.46231888277301
0.287829595338113	0.538009103211451
0.287829595338113	1.52515162484626
0.287829595338113	-0.720577933154846
0.287829595338113	1.7421237971226
0.287829595338113	-0.340176141635098
0.287829595338113	1.59817000521848
0.287829595338113	-0.380772725469832
0.287829595338113	-0.0501272122180154
0.287829595338113	-0.425887187827886
0.287829595338113	1.06708458644632
0.287829595338113	0.104975265636714
0.287829595338113	-0.482844296551299
0.287829595338113	0.214439734813215
0.287829595338113	-0.994418034092529
0.287829595338113	-0.514278738980718
0.287829595338113	0.123267705481069
0.287829595338113	0.338364477196293
0.287829595338113	0.942439155422274
0.287829595338113	0.292271642227888
0.287829595338113	0.233652239834921
0.287829595338113	0.852422398012191
0.287829595338113	-0.329176196489975
0.287829595338113	-0.299228364303161
0.287829595338113	-0.686083700497413
0.287829595338113	-0.983667997397177
0.287829595338113	-0.0934948329791929
0.287829595338113	-0.675964883622555
0.287829595338113	-1.09422450925097
0.287829595338113	-1.17443781772619
0.287829595338113	-0.328240671365549
0.287829595338113	1.15586209697869
0.287829595338113	-0.918076216605275
0.287829595338113	-0.425523579630195
0.287829595338113	0.0543325249670055
0.287829595338113	-0.360762859817356
0.287829595338113	0.327003085294521
0.287829595338113	0.753593328251931
0.287829595338113	-0.818382910054709
0.287829595338113	0.582303785119951
0.287829595338113	0.974321273948163
0.287829595338113	-0.148592497166923
0.287829595338113	-0.293947030292696
0.287829595338113	0.234898524666626
0.287829595338113	-1.00079639111818
0.287829595338113	-0.265400952138819
0.287829595338113	-1.57123047463568
0.287829595338113	0.920093191992741
0.287829595338113	-1.35597341013809
0.287829595338113	-0.455008330971499
0.287829595338113	-0.383647059959511
0.287829595338113	-0.926268527470935
0.287829595338113	0.64546649248469
0.287829595338113	-0.986469674523274
0.287829595338113	2.48728204013935
0.287829595338113	0.989079801529051
0.287829595338113	-0.00085263977522132
0.287829595338113	0.82211554333896
0.287829595338113	1.08723385125733
0.287829595338113	1.42842102239397
0.287829595338113	0.028326875195031
0.287829595338113	-0.859127632626233
0.287829595338113	1.11711523508509
0.287829595338113	-0.232568042704251
0.287829595338113	-1.22148784018639
0.287829595338113	-0.618719756404701
0.287829595338113	2.09420574323477
0.287829595338113	0.622317654245411
0.287829595338113	-0.0900201029304135
0.287829595338113	1.16038828997166
0.287829595338113	1.07800412884988
0.287829595338113	0.315201395419152
0.287829595338113	-0.097001736140399
0.287829595338113	1.36346368674308
0.287829595338113	0.621287834480157
0.287829595338113	-0.040929515560137
0.287829595338113	-0.385329257351273
0.287829595338113	-1.38337989041781
0.287829595338113	0.963075501990463
0.287829595338113	-1.18343226043783
0.287829595338113	-1.62122080954133
0.287829595338113	0.433055636722528
0.287829595338113	-1.49919448596383
0.287829595338113	0.497540037396202
0.287829595338113	1.66103773319981
0.287829595338113	1.61785464550071
0.287829595338113	0.70449411003607
0.287829595338113	-0.50142209408277
0.287829595338113	-0.28999051225507
0.287829595338113	-0.290810090487575
0.287829595338113	0.228205313099746
0.287829595338113	-0.0171571617176269
0.287829595338113	-0.882911969889953
0.287829595338113	-1.02316222443745
0.287829595338113	-0.750826509619888
0.287829595338113	-0.350650351200759
0.287829595338113	-0.25832743862545
0.287829595338113	-0.648781186561692
0.287829595338113	-0.0580704988401592
0.287829595338113	-1.8065161072506
0.287829595338113	0.10152109953777
0.287829595338113	-0.262702199645933
0.287829595338113	-0.760214847299579
0.287829595338113	0.279992901005997
0.287829595338113	-0.223453835781459
0.287829595338113	0.679717090221683
0.287829595338113	0.229371701978131
0.287829595338113	0.376768889184312
0.287829595338113	-0.17060388106572
0.287829595338113	-0.912737231793912
0.287829595338113	0.832366399426558
0.287829595338113	-0.498119548636272
0.287829595338113	-0.469966401376396
0.287829595338113	-0.512911671025428
0.287829595338113	-0.135848981663322
0.287829595338113	-0.447825469188516
0.287829595338113	0.334893787649374
0.287829595338113	-1.18943348247014
0.287829595338113	0.633260037342747
0.287829595338113	-1.17813138462397
0.287829595338113	-0.0614028005993532
0.287829595338113	0.116159669551362
0.287829595338113	-0.5328385223449
0.287829595338113	0.10318847555039
0.287829595338113	0.718164922910077
0.287829595338113	0.598732033368119
0.287829595338113	0.174412476707388
0.287829595338113	1.00057396839567
0.287829595338113	-0.356995130413875
0.287829595338113	0.495863298783888
0.287829595338113	0.534085719033239
0.287829595338113	-0.028316993975217
0.287829595338113	0.329008979938433
0.287829595338113	0.616249286808689
0.287829595338113	-0.273087869740706
0.287829595338113	0.286174049315086
0.287829595338113	-1.53524811472373
0.287829595338113	0.552745648366709
0.287829595338113	-0.177361694133399
0.287829595338113	0.0249300133961228
0.287829595338113	0.565590904783846
0.287829595338113	0.777860469048807
0.287829595338113	0.170015307254193
0.287829595338113	-0.423831516048295
0.287829595338113	0.477057826858417
0.287829595338113	-0.432897587737724
0.287829595338113	-0.507064654340947
0.287829595338113	0.715707934459527
0.287829595338113	0.619154834878675
0.287829595338113	-1.01434174928562
0.287829595338113	1.25327387216861
0.287829595338113	0.014524869450355
0.287829595338113	-0.961196937939004
0.287829595338113	-0.701716882760373
0.287829595338113	-0.944115851662897
0.287829595338113	0.394264063124155
0.287829595338113	-0.972224263056876
0.287829595338113	0.342155225457194
0.287829595338113	-0.417282884256615
0.287829595338113	-1.39260490737775
0.287829595338113	-0.298759713364955
0.287829595338113	-0.860674254178466
0.287829595338113	-0.91058896979003
0.287829595338113	-0.0229981749378432
0.287829595338113	0.584931713877456
0.287829595338113	0.153953373545853
0.287829595338113	-0.889558133274722
0.287829595338113	-1.39835332063207
0.287829595338113	-1.34129108746878
0.287829595338113	-0.260354445563962
0.287829595338113	-0.0547006903413951
0.287829595338113	0.181944265731747
0.287829595338113	-0.68767078070605
0.287829595338113	-1.10787400837205
0.287829595338113	0.596952586158306
0.287829595338113	-0.199460427333801
0.287829595338113	-1.13027530330818
0.287829595338113	-0.176723589855563
0.287829595338113	-0.762005658212477
0.287829595338113	-0.120774108365612
