V1	V2
-0.0232101781963987	0.488739585009768
-0.0232101781963987	0.0651189690681203
-0.0232101781963987	-0.475687879595985
-0.0232101781963987	0.351587249879601
-0.0232101781963987	-0.0869353614790072
-0.0232101781963987	-0.0657766120035324
-0.0232101781963987	-0.0636302678544405
-0.0232101781963987	0.651490774002008
-0.0232101781963987	-0.583642007620162
-0.0232101781963987	-0.101669101344205
-0.0232101781963987	-0.104673672054092
-0.0232101781963987	-0.297960628595163
-0.0232101781963987	0.122392321186188
-0.0232101781963987	0.264743299265097
-0.0232101781963987	-0.275674783099706
-0.0232101781963987	0.239269556774331
-0.0232101781963987	-0.300996933324804
-0.0232101781963987	0.89597002902983
-0.0232101781963987	0.10565771840721
-0.0232101781963987	0.152542252239961
-0.0232101781963987	0.593072052252585
-0.0232101781963987	-0.487882882796811
-0.0232101781963987	0.453924334797885
-0.0232101781963987	0.209005501823525
-0.0232101781963987	-0.609640643767113
-0.0232101781963987	0.406179401477914
-0.0232101781963987	-0.145999119632934
-0.0232101781963987	0.00755588326877746
-0.0232101781963987	-0.196511025776144
-0.0232101781963987	0.139660435867916
-0.0232101781963987	0.412448137531577
-0.0232101781963987	0.0170027291893216
-0.0232101781963987	0.206698855856611
-0.0232101781963987	0.564111293719242
-0.0232101781963987	-0.692936542347726
-0.0232101781963987	-0.0339691737522378
-0.0232101781963987	-0.392788955874727
-0.0232101781963987	0.52064523552972
-0.0232101781963987	-0.483495357427958
-0.0232101781963987	0.199471171280544
-0.0232101781963987	-0.363071139339293
-0.0232101781963987	0.488118152719703
-0.0232101781963987	0.476244346260832
-0.0232101781963987	0.47568321844323
-0.0232101781963987	0.377185066600317
-0.0232101781963987	0.406994341243122
-0.0232101781963987	-0.756501541778228
-0.0232101781963987	-0.398414333846278
-0.0232101781963987	-0.22664281017095
-0.0232101781963987	0.563619474817883
-0.0232101781963987	-0.441645178463206
-0.0232101781963987	1.2391851126239
-0.0232101781963987	0.337442976804407
-0.0232101781963987	-0.335080356316045
-0.0232101781963987	0.0333522883917467
-0.0232101781963987	0.178615119391119
-0.0232101781963987	0.331867499374656
-0.0232101781963987	0.167594247501493
-0.0232101781963987	0.65820360197294
-0.0232101781963987	-0.464832192355033
-0.0232101781963987	0.532567566965466
-0.0232101781963987	-0.0986882068878241
-0.0232101781963987	-0.722217121661791
-0.0232101781963987	-0.848659339439013
-0.0232101781963987	-0.0469964203269068
-0.0232101781963987	0.139171871954993
-0.0232101781963987	0.2566924309642
-0.0232101781963987	-0.278962191279615
-0.0232101781963987	0.0286323797209552
-0.0232101781963987	-0.683811766310736
-0.0232101781963987	-0.217917127070518
-0.0232101781963987	-0.0672751090289762
-0.0232101781963987	-0.480139525216021
-0.0232101781963987	-0.0893799328495775
-0.0232101781963987	-0.187425240826574
-0.0232101781963987	-0.101425394853138
-0.0232101781963987	-0.841493880910541
-0.0232101781963987	-0.213799504062875
-0.0232101781963987	0.479413206502942
-0.0232101781963987	0.327113031268014
-0.0232101781963987	1.22553607681257
-0.0232101781963987	0.213898782663212
-0.0232101781963987	-0.0586972161830106
-0.0232101781963987	-0.209000869313742
-0.0232101781963987	-0.518817995869197
-0.0232101781963987	-0.00843342803631966
-0.0232101781963987	-0.0107170829474992
-0.0232101781963987	-0.136009936938318
-0.0232101781963987	-0.0987656740857478
-0.0232101781963987	-0.123782683125024
-0.0232101781963987	-0.103112260517413
-0.0232101781963987	-0.634281618547253
-0.0232101781963987	-0.0937152652745194
-0.0232101781963987	-0.153807583038403
-0.0232101781963987	0.288710991694101
-0.0232101781963987	-0.00244117799740795
-0.0232101781963987	-0.269191237591378
-0.0232101781963987	0.188836996457947
-0.0232101781963987	0.112714422007938
-0.0232101781963987	0.159722054207803
-0.0232101781963987	0.19419225416499
-0.0232101781963987	-0.101247326725921
-0.0232101781963987	0.165918288259071
-0.0232101781963987	-0.0575032579504411
-0.0232101781963987	0.0236819286860346
-0.0232101781963987	0.488002338675095
-0.0232101781963987	-0.0645230603632601
-0.0232101781963987	-0.273400317163177
-0.0232101781963987	0.0829680922561208
-0.0232101781963987	-0.0384120580950508
-0.0232101781963987	0.311298994982934
-0.0232101781963987	-0.0572060647142979
-0.0232101781963987	0.142003197826609
-0.0232101781963987	0.00804459452930969
-0.0232101781963987	0.172349861330001
-0.0232101781963987	0.590124250049703
-0.0232101781963987	0.408824131269053
-0.0232101781963987	0.0417805643710836
-0.0232101781963987	-0.392753917791697
-0.0232101781963987	0.840401800380212
-0.0232101781963987	0.523451751868196
-0.0232101781963987	-0.19793090339648
-0.0232101781963987	-0.819029492565877
-0.0232101781963987	-0.404687117547612
-0.0232101781963987	-0.696994237427837
-0.0232101781963987	0.461091378438387
-0.0232101781963987	0.0598970277283416
-0.0232101781963987	-0.263550709918191
-0.0232101781963987	-0.268331238598446
-0.0232101781963987	0.260029645767989
-0.0232101781963987	0.258626214020462
-0.0232101781963987	0.489483399471741
-0.0232101781963987	0.0114865201748481
-0.0232101781963987	0.968817134799425
-0.0232101781963987	-0.209160576604972
-0.0232101781963987	-0.448889480888164
-0.0232101781963987	0.0345292068288627
-0.0232101781963987	0.44507701860307
-0.0232101781963987	-0.285326635212821
-0.0232101781963987	0.223521497214632
-0.0232101781963987	0.261974196944709
-0.0232101781963987	-0.00542192175442596
-0.0232101781963987	-0.876973310507224
-0.0232101781963987	0.825371768588304
-0.0232101781963987	-0.536643473854091
-0.0232101781963987	-0.415653049319396
-0.0232101781963987	-0.143223092303691
-0.0232101781963987	0.611350853004901
-0.0232101781963987	-0.909035796810783
-0.0232101781963987	-0.182096190462142
-0.0232101781963987	-0.327760908814019
-0.0232101781963987	-0.686010093857382
-0.0232101781963987	0.131040331592608
-0.0232101781963987	0.335943110597126
-0.0232101781963987	-0.0996883700114021
-0.0232101781963987	-0.215736341663951
-0.0232101781963987	-0.138518835553554
-0.0232101781963987	0.636479198132105
-0.0232101781963987	0.0133780434744696
-0.0232101781963987	-0.174416325322701
-0.0232101781963987	0.223631513444494
-0.0232101781963987	-0.0521314223720593
-0.0232101781963987	0.126797059554809
-0.0232101781963987	-0.842035318017473
-0.0232101781963987	-0.36874459706218
-0.0232101781963987	0.104546242180739
-0.0232101781963987	0.0444606270579546
-0.0232101781963987	-0.436677341708582
-0.0232101781963987	-0.187995557413441
-0.0232101781963987	-0.316957034198546
-0.0232101781963987	-0.0855891263077825
-0.0232101781963987	-0.0161049638514434
-0.0232101781963987	-0.157967106418909
-0.0232101781963987	-0.418643227512444
-0.0232101781963987	0.533703675318191
-0.0232101781963987	0.366069154152865
-0.0232101781963987	-0.45818381696165
-0.0232101781963987	0.788602473295478
-0.0232101781963987	-0.564108120925699
-0.0232101781963987	0.696582885795996
-0.0232101781963987	0.322995087873923
-0.0232101781963987	-0.169443560759407
-0.0232101781963987	0.365663483576543
-0.0232101781963987	-0.150380808438067
-0.0232101781963987	-0.102839039091858
-0.0232101781963987	-0.263805146606223
-0.0232101781963987	0.179245981959571
-0.0232101781963987	0.203787772931072
-0.0232101781963987	-0.509937409408638
-0.0232101781963987	0.208786048197485
-0.0232101781963987	0.170353162170289
-0.0232101781963987	-0.263748473023731
-0.0232101781963987	-0.487368888935016
-0.0232101781963987	0.392815072091599
-0.0232101781963987	0.53476194842603
-0.0232101781963987	0.520286636007048
-0.0232101781963987	0.0978086946275
-0.0232101781963987	0.127048557499473
-0.0232101781963987	-0.444274574566934
-0.0232101781963987	0.42974437517758
-0.0232101781963987	-0.203505491501363
-0.0232101781963987	-0.29941484235224
-0.0232101781963987	0.104372324991011
-0.0232101781963987	0.101951404988589
-0.0232101781963987	-0.103378680318814
-0.0232101781963987	-0.520654736117147
-0.0232101781963987	-0.350891431344573
-0.0232101781963987	0.65041789131331
-0.0232101781963987	0.196594830532517
-0.0232101781963987	0.347124902673347
-0.0232101781963987	-0.254732205867025
-0.0232101781963987	-1.13023693541505
-0.0232101781963987	0.42493084526518
-0.0232101781963987	0.124931765205446
-0.0232101781963987	-0.204628760737638
-0.0232101781963987	-0.0476793164189779
-0.0232101781963987	0.77300521191953
-0.0232101781963987	0.221731174773632
-0.0232101781963987	-0.139348821641911
-0.0232101781963987	0.228978220557966
-0.0232101781963987	0.573782483029244
-0.0232101781963987	-0.34309252082849
-0.0232101781963987	-0.163499485073096
-0.0232101781963987	0.153468859515229
-0.0232101781963987	0.509406930080617
-0.0232101781963987	-0.526720968162342
-0.0232101781963987	0.187165469517505
-0.0232101781963987	-0.252813634110521
-0.0232101781963987	0.00364289111668602
-0.0232101781963987	0.339103617434589
-0.0232101781963987	-0.0115431027312078
-0.0232101781963987	0.328201469922853
-0.0232101781963987	-0.103067488567633
-0.0232101781963987	0.296983394329087
-0.0232101781963987	0.00629342147216072
-0.0232101781963987	0.344769012347466
-0.0232101781963987	0.0832953474352833
-0.0232101781963987	0.153685700492628
-0.0232101781963987	0.222534357536012
-0.0232101781963987	0.372484191197128
-0.0232101781963987	0.209280080800007
-0.0232101781963987	-0.74781194053316
-0.0232101781963987	0.163691552451848
-0.0232101781963987	-0.0109574860314897
-0.0232101781963987	0.160280247446728
-0.0232101781963987	-0.0520264408514593
-0.0232101781963987	0.0105116237011088
-0.0232101781963987	0.422743124603747
-0.0232101781963987	0.0667809311112589
-0.0232101781963987	0.512058229384734
-0.0232101781963987	-0.248834166836491
-0.0232101781963987	0.118188972039822
-0.0232101781963987	-0.340407524544018
-0.0232101781963987	-0.337276604075284
-0.0232101781963987	0.128460570313019
-0.0232101781963987	0.335761131624
-0.0232101781963987	0.289351990830507
-0.0232101781963987	-0.172206512700969
-0.0232101781963987	-0.315837897374001
-0.0232101781963987	0.324268174273306
-0.0232101781963987	-0.399369508145632
-0.0232101781963987	-0.144277726173787
-0.0232101781963987	0.123324074630476
-0.0232101781963987	0.583248310977119
-0.0232101781963987	-0.730665164121881
-0.0232101781963987	-0.154203241854849
-0.0232101781963987	-0.0246887987549094
-0.0232101781963987	-0.400656304557647
-0.0232101781963987	-0.16095007059821
-0.0232101781963987	-0.687484577384455
-0.0232101781963987	-0.067535404110949
-0.0232101781963987	-0.0121409627508491
-0.0232101781963987	-0.295224797645146
-0.0232101781963987	-0.210270477754301
-0.0232101781963987	0.283302606379802
-0.0232101781963987	0.113975397913526
-0.0232101781963987	-0.0239770510605368
-0.0232101781963987	0.432693559122997
-0.0232101781963987	-0.0037187433678922
-0.0232101781963987	-0.412860879636754
-0.0232101781963987	-0.280630734351479
-0.0232101781963987	0.438752223724986
-0.0232101781963987	-0.0354884297465534
-0.0232101781963987	-0.140461839601806
-0.0232101781963987	0.0948977667520324
-0.0232101781963987	0.460100867474654
-0.0232101781963987	0.171621441915404
-0.0232101781963987	-0.484674897761201
-0.0232101781963987	-0.366255634082461
-0.0232101781963987	-0.525353695155714
-0.0232101781963987	-0.0112307543835474
-0.0232101781963987	-0.158489386572209
-0.0232101781963987	0.759136658891018
-0.0232101781963987	-0.388671384738724
-0.0232101781963987	0.240963566289606
-0.0232101781963987	-0.0720484342105257
-0.0232101781963987	-0.299024838270368
-0.0232101781963987	0.294993306947277
-0.0232101781963987	0.443340704700244
-0.0232101781963987	0.269826500935085
-0.0232101781963987	0.134087195074679
-0.0232101781963987	0.240227197417612
-0.0232101781963987	-0.593258793418577
-0.0232101781963987	-0.19841569757867
-0.0232101781963987	-0.27840480778956
-0.0232101781963987	0.084033666501837
-0.0232101781963987	-0.274906444223569
-0.0232101781963987	0.454431416886119
-0.0232101781963987	-0.194443603125967
-0.0232101781963987	-0.417740217173498
-0.0232101781963987	0.289209506731096
-0.0232101781963987	0.173311474247042
-0.0232101781963987	0.426660616795821
-0.0232101781963987	0.144086835200899
-0.0232101781963987	-0.145835923628026
-0.0232101781963987	-0.0149138348650661
-0.0232101781963987	0.937741500499292
-0.0232101781963987	-0.106549924882972
-0.0232101781963987	0.217608555735026
-0.0232101781963987	0.509421144943137
-0.0232101781963987	0.145616606195237
-0.0232101781963987	0.110167081639635
-0.0232101781963987	0.353034492815294
-0.0232101781963987	1.00024386796108
-0.0232101781963987	-0.135721821506225
-0.0232101781963987	0.2194121286603
-0.0232101781963987	0.71887746241953
-0.0232101781963987	-0.0318416189896403
-0.0232101781963987	0.247895904939789
-0.0232101781963987	0.172917866810931
-0.0232101781963987	-0.168122673223879
-0.0232101781963987	0.628090932929636
-0.0232101781963987	0.184263577399956
-0.0232101781963987	-0.0799465898567377
-0.0232101781963987	-0.231381165892326
-0.0232101781963987	-0.316760591464144
-0.0232101781963987	-0.196534895433542
-0.0232101781963987	-0.853052944266382
-0.0232101781963987	-0.124507247755152
-0.0232101781963987	0.0509443160832341
-0.0232101781963987	0.39015486524302
-0.0232101781963987	0.160508542522728
-0.0232101781963987	-0.312407484724185
-0.0232101781963987	-0.632262680881196
-0.0232101781963987	-0.0199336615264136
-0.0232101781963987	-0.29390985568254
-0.0232101781963987	-0.242504536635068
-0.0232101781963987	-0.194502613736091
-0.0232101781963987	-0.22409106577027
-0.0232101781963987	0.766577117117839
-0.0232101781963987	-0.0817089221781397
-0.0232101781963987	0.584063267182102
-0.0232101781963987	-0.193991802664643
-0.0232101781963987	-0.0512605388400405
-0.0232101781963987	0.149403981192209
-0.0232101781963987	-1.19845468739407
-0.0232101781963987	-0.212136000083132
-0.0232101781963987	0.407033773946496
-0.0232101781963987	-0.126938556906919
-0.0232101781963987	-0.605849139731398
-0.0232101781963987	0.634054256301389
-0.0232101781963987	0.926555576671895
-0.0232101781963987	-0.093971650040201
-0.0232101781963987	0.366967251888072
-0.0232101781963987	0.0381448330689088
-0.0232101781963987	-0.0192390086749713
-0.0232101781963987	0.308841954788842
-0.0232101781963987	-0.196507569307114
-0.0232101781963987	-0.0657509820810298
-0.0232101781963987	0.177255655819313
-0.0232101781963987	1.21989944344417
-0.0232101781963987	0.116540885971693
-0.0232101781963987	0.329287092369655
-0.0232101781963987	-1.49339085882434
-0.0232101781963987	0.621484023707884
-0.0232101781963987	0.518416887285187
-0.0232101781963987	-0.0869917856241651
-0.0232101781963987	0.546662201236876
-0.0232101781963987	0.142012492699822
-0.0232101781963987	-0.155673212077563
-0.0232101781963987	0.368587439179298
-0.0232101781963987	0.37092271477403
-0.0232101781963987	0.684657317048727
-0.0232101781963987	-0.637383992623427
-0.0232101781963987	0.554037289790793
-0.0232101781963987	0.194150572781554
-0.0232101781963987	0.320403562657934
-0.0232101781963987	0.154866615503985
-0.0232101781963987	0.585560247173962
-0.0232101781963987	0.224158890789543
-0.0232101781963987	-0.205508130651391
-0.0232101781963987	-0.0740734970855153
-0.0232101781963987	0.042018566223024
-0.0232101781963987	-0.247409367909813
-0.0232101781963987	-0.0633096941458415
-0.0232101781963987	0.753379083379536
-0.0232101781963987	0.084756031984855
-0.0232101781963987	-0.192551407992595
-0.0232101781963987	-0.24369574178932
-0.0232101781963987	0.80112623006862
-0.0232101781963987	-0.411709832649129
-0.0232101781963987	-0.475598544462939
-0.0232101781963987	-0.161430845742725
-0.0232101781963987	0.314942007050772
-0.0232101781963987	-0.20582201317169
-0.0232101781963987	-0.0528088384376692
-0.0232101781963987	0.290195938573271
-0.0232101781963987	0.313456526352791
-0.0232101781963987	-0.608963374030161
-0.0232101781963987	0.150501432287195
-0.0232101781963987	0.178843493349527
-0.0232101781963987	-0.117941460213056
-0.0232101781963987	0.239929986723147
-0.0232101781963987	-0.51173893098482
-0.0232101781963987	-0.0806820911233909
-0.0232101781963987	-0.130062975186887
-0.0232101781963987	0.0302398146914193
-0.0232101781963987	-0.365982967829145
-0.0232101781963987	0.138610218933333
-0.0232101781963987	-0.21120242005496
-0.0232101781963987	-0.338200742904073
-0.0232101781963987	-0.0517708575979832
-0.0232101781963987	0.402976509152989
-0.0232101781963987	-0.0289063411435418
-0.0232101781963987	0.0892231836894834
-0.0232101781963987	0.281682502323133
-0.0232101781963987	0.31387718214399
-0.0232101781963987	0.676979267316723
-0.0232101781963987	-0.21478986474292
-0.0232101781963987	0.241490972657928
-0.0232101781963987	-0.093542526684029
-0.0232101781963987	0.171149784128936
-0.0232101781963987	0.200550291742486
-0.0232101781963987	-0.103132361921948
-0.0232101781963987	-0.0375910977561918
-0.0232101781963987	-0.387593728511284
-0.0232101781963987	-0.776355021116343
-0.0232101781963987	-0.127658020822191
-0.0232101781963987	0.103162302533307
-0.0232101781963987	0.476353500279372
-0.0232101781963987	0.362395773241149
-0.0232101781963987	0.585009639389252
-0.0232101781963987	1.12838883069754
-0.0232101781963987	-0.320410198113554
-0.0232101781963987	0.344315625338291
-0.0232101781963987	0.539024090838405
-0.0232101781963987	0.0177231039552441
-0.0232101781963987	-0.783291443632185
-0.0232101781963987	0.0701502695002505
-0.0232101781963987	-0.428680408784341
-0.0232101781963987	0.628301506406615
-0.0232101781963987	0.810723683671855
-0.0232101781963987	-0.173288144488782
-0.0232101781963987	-0.271573655623125
-0.0232101781963987	-0.247718502857388
-0.0232101781963987	-0.763027002928903
-0.0232101781963987	-0.176376989476698
-0.0232101781963987	-0.518512390778424
-0.0232101781963987	0.12603815763787
-0.0232101781963987	-0.398778350693949
-0.0232101781963987	-0.0532243426714487
-0.0232101781963987	0.0721510687008468
-0.0232101781963987	0.632017500941449
-0.0232101781963987	0.334450226013053
-0.0232101781963987	-0.673155740596825
-0.0232101781963987	0.173813004055721
-0.0232101781963987	0.309301694860646
-0.0232101781963987	0.019107458039887
-0.0232101781963987	0.469629481813009
-0.0232101781963987	0.0303081165172483
-0.0232101781963987	-0.192569009749374
-0.0232101781963987	-0.136766295202192
-0.0232101781963987	-0.0731569324739445
-0.0232101781963987	-0.0573190102012899
-0.0232101781963987	-0.328541956919438
-0.0232101781963987	-0.0983960413378517
-0.0232101781963987	0.343627487632374
-0.0232101781963987	0.353442778146523
-0.0232101781963987	-0.26833514073977
-0.0232101781963987	0.304377806041199
-0.0232101781963987	-0.000563024248077977
-0.0232101781963987	0.53288166730229
-0.0232101781963987	-0.94667772007158
-0.0232101781963987	0.0952915981888372
-0.0232101781963987	0.0848564606412044
-0.0232101781963987	-0.475402804520283
-0.0232101781963987	-0.0801212285872472
-0.0232101781963987	0.126533490317109
-0.0232101781963987	0.109224586857026
-0.0232101781963987	0.59304544593697
-0.0232101781963987	0.510683420800918
-0.0232101781963987	-0.104317970975788
-0.0232101781963987	-0.111036808532262
-0.0232101781963987	0.101446031658978
-0.0232101781963987	0.19736297725521
-0.0232101781963987	-0.169516389379308
-0.0232101781963987	-0.189357844990275
-0.0232101781963987	-0.303498662473945
-0.0232101781963987	0.221427297540473
-0.0232101781963987	-0.00890060001680737
-0.0232101781963987	-0.525530896971045
-0.0232101781963987	0.176455100423502
-0.0232101781963987	-0.0972578580665024
-0.0232101781963987	0.248100670304582
-0.0232101781963987	0.416757550362864
-0.0232101781963987	0.240765807602475
-0.0232101781963987	0.0924733079067236
-0.0232101781963987	0.183899672333185
-0.0232101781963987	0.110474174701832
-0.0232101781963987	-0.115925461851127
-0.0232101781963987	-0.0638514097258288
-0.0232101781963987	-0.266050005657748
-0.0232101781963987	-0.222099724879925
-0.0232101781963987	0.198889606775452
-0.0232101781963987	0.0531839020177242
-0.0232101781963987	0.188942975803448
-0.0232101781963987	-0.119602150236016
-0.0232101781963987	0.54423816605105
-0.0232101781963987	-0.237195962524074
-0.0232101781963987	0.329572317136826
-0.0232101781963987	0.162624459134472
-0.0232101781963987	0.159545510310098
-0.0232101781963987	0.0870713654900408
-0.0232101781963987	-0.669791208574955
-0.0232101781963987	-0.176555615407194
-0.0232101781963987	0.107433333748374
-0.0232101781963987	-0.568039863661086
-0.0232101781963987	0.136000788021191
-0.0232101781963987	-0.10128339038444
-0.0232101781963987	0.451299503083793
-0.0232101781963987	-0.688114485572183
-0.0232101781963987	0.0913467830961242
-0.0232101781963987	0.360017055711966
-0.0232101781963987	-0.404945238996135
-0.0232101781963987	-0.826704142288411
-0.0232101781963987	-0.00543678337567539
-0.0232101781963987	0.908873521023254
-0.0232101781963987	1.24428988620732
-0.0232101781963987	0.12856870414825
-0.0232101781963987	0.0849763886868178
-0.0232101781963987	-0.149500685691178
-0.0232101781963987	-0.273004536595833
-0.0232101781963987	0.248468749464008
-0.0232101781963987	0.119544746666739
-0.0232101781963987	0.108881036782241
-0.0232101781963987	0.424739584757492
-0.0232101781963987	-0.334055052353189
-0.0232101781963987	-0.133962378507082
-0.0232101781963987	-0.0500813960549228
-0.0232101781963987	0.251369279236302
-0.0232101781963987	0.143646489344009
-0.0232101781963987	-0.354749203550409
-0.0232101781963987	0.0121737784949283
-0.0232101781963987	-0.238896067525617
-0.0232101781963987	-0.0276942767634572
-0.0232101781963987	0.495609210198206
-0.0232101781963987	-0.399822014715299
-0.0232101781963987	-0.478837810199609
-0.0232101781963987	-0.185135912596022
-0.0232101781963987	0.434471237152452
-0.0232101781963987	-0.209209296566369
-0.0232101781963987	-0.544009347566613
-0.0232101781963987	0.231327560902723
-0.0232101781963987	0.563214929220355
-0.0232101781963987	0.179682017749665
-0.0232101781963987	-0.481968244596952
-0.0232101781963987	-0.417002156328468
-0.0232101781963987	-0.167841028870164
-0.0232101781963987	0.29534850487336
-0.0232101781963987	-0.677212168845774
-0.0232101781963987	0.234631767302329
-0.0232101781963987	-0.366288309427433
-0.0232101781963987	0.34122654732059
-0.0232101781963987	-0.290963389497709
-0.0232101781963987	0.302601626289745
-0.0232101781963987	0.375029069809902
-0.0232101781963987	-0.145384368728537
-0.0232101781963987	0.174348122470144
-0.0232101781963987	0.0462705023494514
-0.0232101781963987	-0.226182439533269
-0.0232101781963987	0.128501003943564
-0.0232101781963987	-0.756742782990089
-0.0232101781963987	0.179122187975917
-0.0232101781963987	-0.495701080798712
-0.0232101781963987	0.259750230460184
-0.0232101781963987	-0.492595345021573
-0.0232101781963987	-0.134141788704389
-0.0232101781963987	-0.0394165911783813
-0.0232101781963987	-0.483781020880872
-0.0232101781963987	-0.414332746025586
-0.0232101781963987	-0.281245842240371
-0.0232101781963987	-0.235630310055341
-0.0232101781963987	0.412297042788434
-0.0232101781963987	0.611776295192805
-0.0232101781963987	-0.0219988936109984
-0.0232101781963987	-0.0353046262885773
-0.0232101781963987	-0.534092071088161
-0.0232101781963987	0.433422690321245
-0.0232101781963987	-0.415642134340111
-0.0232101781963987	-0.402460574455155
-0.0232101781963987	-0.453484346970516
-0.0232101781963987	0.353076584428947
-0.0232101781963987	-0.436414176224021
-0.0232101781963987	0.600718319654009
-0.0232101781963987	-0.12150915228131
-0.0232101781963987	0.504495261386974
-0.0232101781963987	-0.0478023321694997
-0.0232101781963987	-0.178531976161847
-0.0232101781963987	0.290770005008496
-0.0232101781963987	-0.0127381626549885
-0.0232101781963987	0.247079336942378
-0.0232101781963987	1.00794769997916
-0.0232101781963987	-0.187395601639012
-0.0232101781963987	0.415159682339584
-0.0232101781963987	0.0165445170595858
-0.0232101781963987	0.0715277552765119
-0.0232101781963987	-0.138682557887961
-0.0232101781963987	-0.196394040529831
-0.0232101781963987	-0.0130645812432608
-0.0232101781963987	-0.112049031405146
-0.0232101781963987	-0.270479318859208
-0.0232101781963987	0.0502278004275089
-0.0232101781963987	0.304475805100279
-0.0232101781963987	0.591801988577751
-0.0232101781963987	-0.102478259018765
-0.0232101781963987	-0.359973057896637
-0.0232101781963987	-0.000692596419795688
-0.0232101781963987	0.190426541349065
-0.0232101781963987	0.373245260659431
-0.0232101781963987	0.335607934579774
-0.0232101781963987	-0.0703671948707921
-0.0232101781963987	0.04407032919426
-0.0232101781963987	-0.625035479982607
-0.0232101781963987	-0.237220760754704
-0.0232101781963987	0.381381905538772
-0.0232101781963987	0.0751463730116335
-0.0232101781963987	0.435490950703793
-0.0232101781963987	-0.516412088696169
-0.0232101781963987	-0.567726702119804
-0.0232101781963987	-0.226982195712837
-0.0232101781963987	0.19068380885513
-0.0232101781963987	-0.0322332107283108
-0.0232101781963987	0.336239364258058
-0.0232101781963987	0.414672190755375
-0.0232101781963987	0.47449749144303
-0.0232101781963987	-0.0650477367788976
-0.0232101781963987	-0.164879861970673
-0.0232101781963987	-0.234951590010035
-0.0232101781963987	-0.215613122141548
-0.0232101781963987	0.178746868616018
-0.0232101781963987	0.664098017307255
-0.0232101781963987	0.140791015634614
-0.0232101781963987	-0.0167612558935014
-0.0232101781963987	0.0188791727696862
-0.0232101781963987	-0.101262103500453
-0.0232101781963987	-0.258562559869407
-0.0232101781963987	0.257739325293647
-0.0232101781963987	-0.625454233595007
-0.0232101781963987	-0.0610936088684221
-0.0232101781963987	-0.304632541776928
-0.0232101781963987	-0.266142434323947
-0.0232101781963987	0.398023335913721
-0.0232101781963987	0.0777263000301045
-0.0232101781963987	-0.416996058543905
-0.0232101781963987	0.268086067155604
-0.0232101781963987	-0.269331801719709
-0.0232101781963987	-0.329093803425625
-0.0232101781963987	-0.776506680995468
-0.0232101781963987	-0.105229291957623
-0.0232101781963987	-0.0327555034038515
-0.0232101781963987	-0.3327758132278
-0.0232101781963987	-0.636277316614207
-0.0232101781963987	0.125295338665462
-0.0232101781963987	0.264296108949872
-0.0232101781963987	0.432706303307016
-0.0232101781963987	0.0120593204707814
-0.0232101781963987	-0.229422724229133
-0.0232101781963987	-0.326936934285322
-0.0232101781963987	0.672054111501636
-0.0232101781963987	-0.0336961518674037
-0.0232101781963987	0.598187127220457
-0.0232101781963987	-0.533748075287139
-0.0232101781963987	0.430995161809497
-0.0232101781963987	-0.41853928430014
-0.0232101781963987	0.481467726790045
-0.0232101781963987	0.16852678078469
-0.0232101781963987	-0.0188740961545124
-0.0232101781963987	0.340624868803225
-0.0232101781963987	0.0889880472860773
-0.0232101781963987	0.0713903494242135
-0.0232101781963987	-0.0763574090627135
-0.0232101781963987	-0.24272980578187
-0.0232101781963987	0.297504832439081
-0.0232101781963987	0.132530467821627
-0.0232101781963987	-0.184726042029721
-0.0232101781963987	-0.266873990787158
-0.0232101781963987	0.338342474293947
-0.0232101781963987	-0.506429389657579
-0.0232101781963987	-0.136741263571723
-0.0232101781963987	-0.558139845485341
-0.0232101781963987	0.25308783497248
-0.0232101781963987	-0.630485350558919
-0.0232101781963987	0.427100350574582
-0.0232101781963987	-0.449728439860755
-0.0232101781963987	-0.275565420539989
-0.0232101781963987	0.132940569109757
-0.0232101781963987	-0.232045963802864
-0.0232101781963987	-0.122406576541376
-0.0232101781963987	0.248828568492411
-0.0232101781963987	-0.295325304656734
-0.0232101781963987	0.275885282635012
-0.0232101781963987	-0.20598563819674
-0.0232101781963987	-0.103734100172061
-0.0232101781963987	0.00582645932151864
-0.0232101781963987	-0.361067017366466
-0.0232101781963987	0.110137501408163
-0.0232101781963987	-0.716392492732496
-0.0232101781963987	0.752827708303181
-0.0232101781963987	-0.264435465749947
-0.0232101781963987	-0.0286822646261239
-0.0232101781963987	0.919665825488318
-0.0232101781963987	0.463058006561318
-0.0232101781963987	0.409090134260854
-0.0232101781963987	0.453433510829286
-0.0232101781963987	-0.69590064942029
-0.0232101781963987	0.454164753546482
-0.0232101781963987	-0.454128627482409
-0.0232101781963987	-0.682908966100289
-0.0232101781963987	-0.207213136653419
-0.0232101781963987	0.816459394177068
-0.0232101781963987	0.513558133980926
-0.0232101781963987	0.0465629916718702
-0.0232101781963987	-0.013180561669316
-0.0232101781963987	0.854106689802382
-0.0232101781963987	0.213664477336389
-0.0232101781963987	0.354116202033969
-0.0232101781963987	-0.212105094012411
-0.0232101781963987	0.186951849578438
-0.0232101781963987	0.658567661256384
-0.0232101781963987	0.331730017282684
-0.0232101781963987	0.0633810013839677
-0.0232101781963987	0.0122814609016748
-0.0232101781963987	0.377854250399411
-0.0232101781963987	0.38422030239941
-0.0232101781963987	0.445922797175474
-0.0232101781963987	0.456903336838463
-0.0232101781963987	0.196370962128109
-0.0232101781963987	-0.913412389673358
-0.0232101781963987	-0.176514041590201
-0.0232101781963987	0.0779589559482598
-0.0232101781963987	-0.00501486943751384
-0.0232101781963987	-0.183205354389382
-0.0232101781963987	0.0609915521028455
-0.0232101781963987	-0.386824322193282
-0.0232101781963987	0.251889893176438
-0.0232101781963987	0.0715643126332758
-0.0232101781963987	0.164716149041223
-0.0232101781963987	0.359307189228597
-0.0232101781963987	0.731861366010089
-0.0232101781963987	-0.250101168525395
-0.0232101781963987	-0.572195884034797
-0.0232101781963987	0.48845988794162
-0.0232101781963987	-0.10198001090949
-0.0232101781963987	-0.162083812119878
-0.0232101781963987	-0.421135419717087
-0.0232101781963987	0.16513168312661
-0.0232101781963987	-0.0111025581171041
-0.0232101781963987	0.515952351738124
-0.0232101781963987	-0.64129502473332
-0.0232101781963987	0.375500894788025
-0.0232101781963987	0.57225301268149
-0.0232101781963987	-0.338138952159245
-0.0232101781963987	-0.163195782409022
-0.0232101781963987	-0.450003282980617
-0.0232101781963987	0.0798408268082904
-0.0232101781963987	-0.0654328825238612
-0.0232101781963987	-0.244834607383176
-0.0232101781963987	0.427345644428474
-0.0232101781963987	0.233095754922325
-0.0232101781963987	0.091031847069526
-0.0232101781963987	0.444327624572229
-0.0232101781963987	-0.0468608935130309
-0.0232101781963987	0.475863459220244
-0.0232101781963987	0.207454332880516
-0.0232101781963987	0.0496806620090009
-0.0232101781963987	-0.626431934304568
-0.0232101781963987	0.0414600809275107
-0.0232101781963987	0.22771756821567
-0.0232101781963987	-0.320330229101352
-0.0232101781963987	-0.0575972788162386
-0.0232101781963987	-0.33422626571404
-0.0232101781963987	-0.251514641109407
-0.0232101781963987	-0.662131084256655
-0.0232101781963987	0.471464580659898
-0.0232101781963987	-0.0744481515673666
-0.0232101781963987	-0.498764810921429
-0.0232101781963987	-0.393289250535293
-0.0232101781963987	0.344447691558782
-0.0232101781963987	0.14331711300402
-0.0232101781963987	-0.163636060890269
-0.0232101781963987	-0.251585597668338
-0.0232101781963987	-0.673204041078357
-0.0232101781963987	0.00140484565418649
-0.0232101781963987	0.169272880019215
-0.0232101781963987	0.152902940021201
-0.0232101781963987	-0.525116440285076
-0.0232101781963987	0.451174523982075
-0.0232101781963987	0.934189081268509
-0.0232101781963987	0.0517910702583689
-0.0232101781963987	0.515128533316071
-0.0232101781963987	0.119645762232582
-0.0232101781963987	0.105846288553155
-0.0232101781963987	-0.139345851163737
-0.0232101781963987	0.138870025995005
-0.0232101781963987	0.368497939818385
-0.0232101781963987	0.221107465276269
-0.0232101781963987	0.199849250599079
-0.0232101781963987	0.406138606146198
-0.0232101781963987	-0.0189596444636542
-0.0232101781963987	0.113278958373166
-0.0232101781963987	0.0208821397140106
-0.0232101781963987	0.232966533574869
-0.0232101781963987	-0.011711071077011
-0.0232101781963987	-0.307935756210095
-0.0232101781963987	0.0513894634425722
-0.0232101781963987	-0.850511728124941
-0.0232101781963987	0.122513796895682
-0.0232101781963987	0.0323586200802562
-0.0232101781963987	-0.0274952753359595
-0.0232101781963987	-0.120300555080648
-0.0232101781963987	-0.529953324438114
-0.0232101781963987	0.395428045476139
-0.0232101781963987	-0.569216371205608
-0.0232101781963987	-0.526054030479314
-0.0232101781963987	0.646240206208892
-0.0232101781963987	0.442324243213554
-0.0232101781963987	-0.17316843077605
-0.0232101781963987	0.108657693302303
-0.0232101781963987	0.56354355175942
-0.0232101781963987	0.861004364337372
-0.0232101781963987	0.144287582806544
-0.0232101781963987	-0.101919241233218
-0.0232101781963987	-0.212607367365361
-0.0232101781963987	-0.302534082208703
-0.0232101781963987	-0.3590848763462
-0.0232101781963987	-0.127113985036359
-0.0232101781963987	0.221948870041878
-0.0232101781963987	-0.0728214043171645
-0.0232101781963987	-0.462841440610932
-0.0232101781963987	0.0766396283950851
-0.0232101781963987	-0.298834488165946
-0.0232101781963987	-0.0816833020934796
-0.0232101781963987	-0.573012215660895
-0.0232101781963987	0.20462836565551
-0.0232101781963987	0.133762060440225
-0.0232101781963987	0.709923708516037
-0.0232101781963987	-0.506186435740355
-0.0232101781963987	0.353325088112291
-0.0232101781963987	-0.0280038622745425
-0.0232101781963987	-0.319610217747081
-0.0232101781963987	-0.0543271993409946
-0.0232101781963987	0.331981806771237
-0.0232101781963987	0.0664268371650669
-0.0232101781963987	0.274973723775419
-0.0232101781963987	-0.271932435814623
-0.0232101781963987	-0.191757256650944
-0.0232101781963987	0.284420422589303
-0.0232101781963987	0.43353696385909
-0.0232101781963987	-0.0888153092802969
-0.0232101781963987	-0.406271019516758
-0.0232101781963987	0.322242276951044
-0.0232101781963987	0.30341197340592
-0.0232101781963987	-0.0615514981369367
-0.0232101781963987	0.0300993460170515
-0.0232101781963987	0.728091582499893
-0.0232101781963987	0.527970542030115
-0.0232101781963987	-0.0390111742826704
-0.0232101781963987	0.103710742048832
-0.0232101781963987	0.465169823761908
-0.0232101781963987	0.793793120344961
-0.0232101781963987	0.119331353456517
-0.0232101781963987	0.101967705149535
-0.0232101781963987	-0.333453779603631
-0.0232101781963987	-0.440008232097622
-0.0232101781963987	0.503016721747576
-0.0232101781963987	-0.408615194493457
-0.0232101781963987	-0.116108143441116
-0.0232101781963987	0.633354560478016
-0.0232101781963987	-0.462832970341008
-0.0232101781963987	-0.35863216526493
-0.0232101781963987	-0.389983180917252
-0.0232101781963987	0.355285982365238
-0.0232101781963987	0.0990338171134687
-0.0232101781963987	0.0646597725471198
-0.0232101781963987	0.0400652918254959
-0.0232101781963987	-0.0831331396075484
-0.0232101781963987	-0.142336807838173
-0.0232101781963987	0.600547350675595
-0.0232101781963987	-0.0719056278116892
-0.0232101781963987	-0.119261111071696
-0.0232101781963987	-0.524004186182443
-0.0232101781963987	-0.312341805459802
-0.0232101781963987	-0.43661137768611
-0.0232101781963987	-0.477867228370276
-0.0232101781963987	0.600176180402092
-0.0232101781963987	0.262536209477494
-0.0232101781963987	-0.265317652111708
-0.0232101781963987	0.860228422322273
-0.0232101781963987	0.291954570894133
-0.0232101781963987	-1.21086873753397
-0.0232101781963987	-0.450733309003123
-0.0232101781963987	-0.0557060693950808
-0.0232101781963987	-0.289375873371527
-0.0232101781963987	1.06890738445875
-0.0232101781963987	-0.255896761166965
-0.0232101781963987	-0.0935735268101548
-0.0232101781963987	0.243905081563059
-0.0232101781963987	-0.30342258316108
-0.0232101781963987	0.0713264080611546
-0.0232101781963987	0.431320727896735
-0.0232101781963987	0.106633146836969
-0.0232101781963987	0.187811143249477
-0.0232101781963987	-0.121978845226925
-0.0232101781963987	-0.12000575864701
-0.0232101781963987	-0.377791127820479
-0.0232101781963987	-0.0491553788776978
-0.0232101781963987	0.419817789246421
-0.0232101781963987	1.00064965752292
-0.0232101781963987	-0.025333783687168
-0.0232101781963987	-0.381107250979435
-0.0232101781963987	0.470596341584346
-0.0232101781963987	-0.264842034409001
-0.0232101781963987	0.272908678124513
-0.0232101781963987	0.0143205710101547
-0.0232101781963987	0.0873186152246867
-0.0232101781963987	0.422819683016984
-0.0232101781963987	-0.299455995730449
-0.0232101781963987	0.00864029429940633
-0.0232101781963987	0.332094545718503
-0.0232101781963987	-0.465579513222263
-0.0232101781963987	-0.470763374824701
-0.0232101781963987	-0.163361776199209
-0.0232101781963987	0.464763531739568
-0.0232101781963987	0.0193679419656487
-0.0232101781963987	-0.447725415826752
-0.0232101781963987	0.60732985870026
-0.0232101781963987	-0.110556429036268
-0.0232101781963987	-0.0531684181532031
-0.0232101781963987	0.617911125765116
-0.0232101781963987	0.669907859832381
-0.0232101781963987	-0.099685512772684
-0.0232101781963987	0.0937879207539611
-0.0232101781963987	0.145705915121503
-0.0232101781963987	-0.494760863522823
-0.0232101781963987	0.387327829657319
-0.0232101781963987	0.0851022611998476
-0.0232101781963987	-0.459352141279388
-0.0232101781963987	-0.508168702153852
-0.0232101781963987	-0.892773073112238
-0.0232101781963987	-0.63956767518268
-0.0232101781963987	-0.348508252104372
-0.0232101781963987	0.331006346101033
-0.0232101781963987	1.23123798282982
-0.0232101781963987	0.106166850198669
-0.0232101781963987	-0.503871454293178
-0.0232101781963987	0.227541568996292
-0.0232101781963987	0.356907218142989
-0.0232101781963987	0.0363935479854169
-0.0232101781963987	-0.615650944841212
-0.0232101781963987	-0.153927461741543
-0.0232101781963987	-0.432291048549264
-0.0232101781963987	-0.029154844844663
-0.0232101781963987	-0.0146399647857193
-0.0232101781963987	-0.0629026336409575
-0.0232101781963987	0.319593448226072
-0.0232101781963987	0.0372166387296393
-0.0232101781963987	0.0540189897466653
-0.0232101781963987	-0.36099707071425
-0.0232101781963987	-0.0897481472279933
-0.0232101781963987	-0.421785129708049
-0.0232101781963987	-0.2592750625872
-0.0232101781963987	-0.661193847876578
-0.0232101781963987	0.309456050084827
-0.0232101781963987	0.283437921804957
-0.0232101781963987	-0.16738824782292
-0.0232101781963987	-0.79424960370626
-0.0232101781963987	-0.402411145834831
-0.0232101781963987	-0.00775112981178713
-0.0232101781963987	-0.251677350098322
-0.0232101781963987	0.0935491901263253
-0.0232101781963987	-0.226644501000831
-0.0232101781963987	0.160810517747553
-0.0232101781963987	0.551123426200054
-0.0232101781963987	-0.037722419148634
-0.0232101781963987	-0.23456742706519
-0.0232101781963987	-0.555056470725302
-0.0232101781963987	0.403616424548095
-0.0232101781963987	0.64075739934525
-0.0232101781963987	-0.706701810028943
-0.0232101781963987	-0.541764102072722
-0.0232101781963987	0.826073037680419
-0.0232101781963987	-0.263781327508263
-0.0232101781963987	0.0486205470190632
-0.0232101781963987	0.214710593386002
-0.0232101781963987	-0.221630552478076
-0.0232101781963987	-0.263857078212229
-0.0232101781963987	-0.125501865535299
-0.0232101781963987	-0.206689865755311
-0.0232101781963987	1.05642654072156
-0.0232101781963987	0.0428199207484183
-0.0232101781963987	-0.275170666295259
-0.0232101781963987	0.0728548556284007
-0.0232101781963987	0.0604435566086829
-0.0232101781963987	-0.218000589762647
-0.0232101781963987	-0.133735876357286
-0.0232101781963987	-0.300471268089646
-0.0232101781963987	0.527804476638171
-0.0232101781963987	-0.129359971326948
-0.0232101781963987	-0.387876290410092
-0.0232101781963987	0.165969748455334
-0.0232101781963987	0.353786344655172
-0.0232101781963987	-0.115516150154063
-0.0232101781963987	0.0928268916714052
-0.0232101781963987	-0.58938174054439
-0.0232101781963987	0.273535880620971
-0.0232101781963987	0.407397285716935
-0.0232101781963987	-0.0168954396030006
-0.0232101781963987	0.0302796479388565
-0.0232101781963987	-0.403903424498122
-0.0232101781963987	0.226748579247927
-0.0232101781963987	-0.258278941115579
-0.0232101781963987	0.19013696953103
-0.0232101781963987	0.46776878169435
-0.0232101781963987	0.225398149624277
-0.0232101781963987	0.193858146163304
-0.0232101781963987	-0.407947378612789
-0.0232101781963987	0.0112898407023461
-0.0232101781963987	-0.62308181156219
-0.0232101781963987	0.2350791267897
-0.0232101781963987	0.690701730789227
-0.0232101781963987	-0.144147327772564
-0.0232101781963987	0.23863134486818
-0.0232101781963987	0.0592410441085648
-0.0232101781963987	0.374295474911393
-0.0232101781963987	-0.0468667410827985
-0.0232101781963987	0.655172075570888
-0.0232101781963987	-0.308872669909973
-0.0232101781963987	0.0787903062354322
-0.0232101781963987	0.102767061741781
-0.0232101781963987	-0.165530536418475
-0.0232101781963987	0.294354394342031
-0.0232101781963987	-0.356115173922034
-0.0232101781963987	0.505013333436826
-0.0232101781963987	0.0791645800559631
-0.0232101781963987	-0.0211835412671836
-0.0232101781963987	0.422621356028972
-0.0232101781963987	-0.284142715214794
-0.0232101781963987	-0.115793584177521
-0.0232101781963987	-0.433236504042993
-0.0232101781963987	-0.037810653773178
-0.0232101781963987	0.203590829721861
-0.0232101781963987	0.516643291294312
-0.0232101781963987	-0.121663893310033
-0.0232101781963987	0.205744271364183
-0.0232101781963987	0.102067619325733
-0.0232101781963987	-0.402831038464871
-0.0232101781963987	-0.338752389576357
-0.0232101781963987	0.319932401140857
-0.0232101781963987	0.345531274116031
-0.0232101781963987	0.687183320340224
-0.0232101781963987	0.294012989141072
-0.0232101781963987	0.324402971044922
-0.0232101781963987	0.0268982886240469
-0.0232101781963987	0.122601357386726
-0.0232101781963987	0.235431443440184
-0.0232101781963987	-0.203587864353774
-0.0232101781963987	0.239303730655638
-0.0232101781963987	-0.0511294896463206
-0.0232101781963987	-0.580999055037538
-0.0232101781963987	-0.538201960209798
-0.0232101781963987	-0.130564545347123
-0.0232101781963987	-0.29983358808134
-0.0232101781963987	0.487385864480189
-0.0232101781963987	0.0339604768167454
-0.0232101781963987	0.164605900645494
-0.0232101781963987	0.453891616056879
-0.0232101781963987	0.395331806270953
-0.0232101781963987	0.0128466349002075
-0.0232101781963987	0.0552677993396431
-0.0232101781963987	-0.0943838528246491
-0.0232101781963987	0.0550441784074934
-0.0232101781963987	0.457445617810774
-0.0232101781963987	-0.0912433533830495
-0.0232101781963987	-0.0639522091464677
-0.0232101781963987	0.101652514786855
-0.0232101781963987	-0.393236972679565
-0.0232101781963987	-0.036516927286962
-0.0232101781963987	-0.454458594387541
-0.0232101781963987	0.0960891167063322
-0.0232101781963987	0.000921780036619635
-0.0232101781963987	-0.769985523344285
-0.0232101781963987	0.57827688589676
-0.0232101781963987	0.545210690930737
-0.0232101781963987	0.112220531553747
-0.0232101781963987	0.319921500299678
-0.0232101781963987	0.511548457527549
-0.0232101781963987	0.0402299519320279
-0.0232101781963987	0.0892912883382241
-0.0232101781963987	-0.393092039888195
-0.0232101781963987	-0.00757969207238038
-0.0232101781963987	0.560852424891377
-0.0232101781963987	-0.170853860842686
-0.0232101781963987	-0.0336529221008033
-0.0232101781963987	0.527154842042659
-0.0232101781963987	0.121240272386379
-0.0232101781963987	-0.400472656775567
-0.0232101781963987	-0.128341603579735
-0.0232101781963987	0.0767773662016917
-0.0232101781963987	0.596997679500789
-0.0232101781963987	0.172634615782527
-0.0232101781963987	-0.220852677282403
-0.0232101781963987	0.0123301404022337
-0.0232101781963987	0.165797787033487
-0.0232101781963987	0.375882601655063
-0.0232101781963987	-0.137105274640051
-0.0232101781963987	-0.659996188331376
-0.0232101781963987	-0.122252069226774
-0.0232101781963987	-0.475209745637274
-0.0232101781963987	0.165065765899568
-0.0232101781963987	0.175116013298467
-0.0232101781963987	-0.269653799728103
-0.0232101781963987	0.382057547067327
-0.0232101781963987	0.0280827464640528
-0.0232101781963987	-0.213385707927077
-0.0232101781963987	0.45155626945138
-0.0232101781963987	0.334057482970061
-0.0232101781963987	-0.357796751530474
-0.0232101781963987	0.168772648281536
-0.0232101781963987	-0.0445009805116229
-0.0232101781963987	-0.409747529222454
-0.0232101781963987	-0.123962096913343
-0.0232101781963987	-0.395271580983933
-0.0232101781963987	0.484776052256019
-0.0232101781963987	-0.261719607561585
-0.0232101781963987	-0.151424166119276
-0.0232101781963987	0.33002288617552
-0.0232101781963987	0.567915716660761
-0.0232101781963987	-0.628703866744671
-0.0232101781963987	0.00235874417607618
-0.0232101781963987	-0.144572534551577
-0.0232101781963987	-0.00318856689867675
-0.0232101781963987	-0.0802430631209586
-0.0232101781963987	-0.26529331530785
-0.0232101781963987	0.366838561319781
-0.0232101781963987	-0.148125495082165
-0.0232101781963987	0.345838356399595
-0.0232101781963987	0.0530546361701216
-0.0232101781963987	-0.0104230799067507
-0.0232101781963987	0.530489830186332
-0.0232101781963987	-0.293745574601499
-0.0232101781963987	0.741974373795676
-0.0232101781963987	0.24489382967582
-0.0232101781963987	0.998634319748365
-0.0232101781963987	-0.135806008189772
-0.0232101781963987	-0.174568055793727
-0.0232101781963987	0.166860394150602
-0.0232101781963987	-0.182313025512339
-0.0232101781963987	-0.317647181963484
-0.0232101781963987	0.0142183770013261
-0.0232101781963987	0.142541905682202
-0.0232101781963987	-0.149189395790589
-0.0232101781963987	0.371445500488751
-0.0232101781963987	0.0634981715592193
-0.0232101781963987	-0.192705013407412
-0.0232101781963987	0.468505180809841
-0.0232101781963987	0.274002066212332
-0.0232101781963987	-0.508917833270212
-0.0232101781963987	-0.0279902226756371
-0.0232101781963987	0.430279246462704
-0.0232101781963987	0.575468206357434
-0.0232101781963987	0.915351342572987
-0.0232101781963987	-0.407397220634802
-0.0232101781963987	0.458278986005929
-0.0232101781963987	-0.265316015522216
-0.0232101781963987	-0.501431602489575
-0.0232101781963987	0.502515860959246
-0.0232101781963987	-0.194948327960458
-0.0232101781963987	-0.214613688224963
-0.0232101781963987	0.0576089627790515
-0.0232101781963987	-0.395232675785097
-0.0232101781963987	-0.157406622708241
-0.0232101781963987	0.59266883238261
-0.0232101781963987	0.250640049355771
-0.0232101781963987	0.653604123304093
-0.0232101781963987	-0.605745743604375
-0.0232101781963987	-0.257712587176655
-0.0232101781963987	-0.041270517228593
-0.0232101781963987	0.265174733565096
-0.0232101781963987	-0.727672028537021
-0.0232101781963987	-0.507696159800848
-0.0232101781963987	-0.215488917876392
-0.0232101781963987	-0.394505114324259
-0.0232101781963987	0.605214528526712
-0.0232101781963987	0.121495257094987
-0.0232101781963987	0.47667808456153
-0.0232101781963987	0.000281408874891434
-0.0232101781963987	-0.235560767409201
-0.0232101781963987	-0.364898511109752
-0.0232101781963987	0.110264794102885
-0.0232101781963987	-0.521361497393611
-0.0232101781963987	-0.0318543215199763
-0.0232101781963987	-0.107499820465715
-0.0232101781963987	0.566651232334171
-0.0232101781963987	-0.277865657906568
-0.0232101781963987	-0.193115896978059
-0.0232101781963987	-0.539324900032174
-0.0232101781963987	0.618978880752003
-0.0232101781963987	-0.472915638707459
-0.0232101781963987	0.0802765472901891
-0.0232101781963987	0.336337165615418
-0.0232101781963987	0.111897967211409
-0.0232101781963987	-0.0426087364118959
-0.0232101781963987	-0.111153289475432
-0.0232101781963987	-0.307913041502393
-0.0232101781963987	-0.20117296510529
-0.0232101781963987	-0.00612084070531738
-0.0232101781963987	0.127070496820777
-0.0232101781963987	-0.20674770024326
-0.0232101781963987	-0.486328225182737
-0.0232101781963987	-0.259245542318698
-0.0232101781963987	0.17995217723019
-0.0232101781963987	-0.757897882966648
-0.0232101781963987	-0.0782782540053282
-0.0232101781963987	-0.62297926893471
-0.0232101781963987	-0.416900015779785
-0.0232101781963987	-0.130931967781774
-0.0232101781963987	0.634237774049165
-0.0232101781963987	0.859792681787794
-0.0232101781963987	0.283115003292717
-0.0232101781963987	-0.0434551405408631
-0.0232101781963987	-0.0508804984132389
-0.0232101781963987	-0.10826658950437
-0.0232101781963987	0.405177551043803
-0.0232101781963987	-0.0789557251930069
-0.0232101781963987	-0.0845807986133309
-0.0232101781963987	0.554765861994043
-0.0232101781963987	0.534018807178968
-0.0232101781963987	-0.253530774239221
-0.0232101781963987	-0.42074132223291
-0.0232101781963987	-1.05017372622339
-0.0232101781963987	-0.103962332597393
-0.0232101781963987	-0.133393365348595
-0.0232101781963987	-0.250661502546311
-0.0232101781963987	0.313988359780844
-0.0232101781963987	-0.411468832904087
-0.0232101781963987	-0.799622571213343
-0.0232101781963987	-0.103595215218079
-0.0232101781963987	-0.395716068431296
-0.0232101781963987	0.0398495081980755
-0.0232101781963987	0.0501369266523776
-0.0232101781963987	0.141169264485365
-0.0232101781963987	-0.172327770136295
-0.0232101781963987	0.676325192512216
-0.0232101781963987	0.416964085439251
-0.0232101781963987	-0.149723537984111
-0.0232101781963987	-0.133367240292536
-0.0232101781963987	0.140641626776168
-0.0232101781963987	0.722923218098954
-0.0232101781963987	0.868112554314861
-0.0232101781963987	0.264067065198175
-0.0232101781963987	-0.182596258794676
-0.0232101781963987	-0.178139821174839
-0.0232101781963987	0.529093876507446
-0.0232101781963987	0.165580898326912
-0.0232101781963987	-0.0248673269479587
-0.0232101781963987	-0.14945814704985
-0.0232101781963987	-0.300973116760739
-0.0232101781963987	0.63009103244008
-0.0232101781963987	0.201865693544776
-0.0232101781963987	-0.167024150985043
-0.0232101781963987	0.32667067974217
-0.0232101781963987	-0.270262376207492
-0.0232101781963987	0.321063985394386
-0.0232101781963987	-0.449689767369129
-0.0232101781963987	-0.00260570757154782
-0.0232101781963987	-0.209506221546417
-0.0232101781963987	-0.100365304029772
-0.0232101781963987	-0.11487690698701
-0.0232101781963987	0.164722295037723
-0.0232101781963987	0.585937710164854
-0.0232101781963987	-0.0604056626982305
-0.0232101781963987	0.341508606919226
-0.0232101781963987	-0.0799730421576781
-0.0232101781963987	-0.115882429636594
-0.0232101781963987	-0.179108517094323
-0.0232101781963987	-0.102204136075321
-0.0232101781963987	-0.0767079389960184
-0.0232101781963987	-0.335265224410788
-0.0232101781963987	-1.03004960926747
-0.0232101781963987	0.2445915012618
-0.0232101781963987	0.041592120382559
-0.0232101781963987	-0.519352455585098
-0.0232101781963987	0.249562706241062
-0.0232101781963987	-0.419540282427836
-0.0232101781963987	0.363647408413405
-0.0232101781963987	-0.0132184684213012
-0.0232101781963987	0.101168363795948
-0.0232101781963987	0.656230723187596
-0.0232101781963987	1.01053599581197
-0.0232101781963987	-0.201805394779215
-0.0232101781963987	0.216430953217505
-0.0232101781963987	-0.36894528627417
-0.0232101781963987	0.282008723350274
-0.0232101781963987	0.358483148862702
-0.0232101781963987	0.524676521358245
-0.0232101781963987	-0.540786196642643
-0.0232101781963987	0.629718113720846
-0.0232101781963987	0.190227898280496
-0.0232101781963987	0.172954100453514
-0.0232101781963987	-0.0501338664955474
-0.0232101781963987	-0.130669729177907
-0.0232101781963987	-0.101251613058666
-0.0232101781963987	0.294757570117274
-0.0232101781963987	0.309405644649576
-0.0232101781963987	0.130779510021058
-0.0232101781963987	0.00480794984698927
-0.0232101781963987	-0.173246086607969
-0.0232101781963987	-0.196646467877329
-0.0232101781963987	0.0351513306854295
-0.0232101781963987	-0.489179696851139
-0.0232101781963987	-0.159064389415633
-0.0232101781963987	-0.814033790175582
-0.0232101781963987	0.162054968508112
-0.0232101781963987	-0.379510858260557
-0.0232101781963987	0.335571345726585
-0.0232101781963987	-0.00714604614867499
-0.0232101781963987	0.105918729618218
-0.0232101781963987	0.368837223489487
-0.0232101781963987	-0.216074469379685
-0.0232101781963987	0.023749947437662
-0.0232101781963987	0.19947512873686
-0.0232101781963987	0.515675386221327
-0.0232101781963987	0.0365879996241747
-0.0232101781963987	-0.164780799665853
-0.0232101781963987	-0.182960671919458
-0.0232101781963987	-0.253923082347277
-0.0232101781963987	-0.526166649824731
-0.0232101781963987	-0.441262095298907
-0.0232101781963987	-0.141651690030318
-0.0232101781963987	0.0478772412765181
-0.0232101781963987	0.295853218266791
-0.0232101781963987	-0.0369341020634108
-0.0232101781963987	-0.125555286144156
-0.0232101781963987	0.15602968204483
-0.0232101781963987	-0.388980974999707
-0.0232101781963987	-0.542199031361787
-0.0232101781963987	0.296931106267032
-0.0232101781963987	-0.184922021072976
-0.0232101781963987	-0.030909633832318
-0.0232101781963987	0.40408041573466
-0.0232101781963987	0.290170596232117
-0.0232101781963987	-0.0739885063628112
-0.0232101781963987	0.14112364735234
-0.0232101781963987	-0.16052149574905
-0.0232101781963987	1.06778615444775
-0.0232101781963987	-0.0557621209074678
-0.0232101781963987	0.181832767799641
-0.0232101781963987	-0.437832906749488
-0.0232101781963987	-0.245314842222651
-0.0232101781963987	-0.0359343485895331
-0.0232101781963987	0.199469381069091
-0.0232101781963987	-0.142219590846212
-0.0232101781963987	-1.09132257021281
-0.0232101781963987	0.414429281782014
-0.0232101781963987	0.0942145417350653
-0.0232101781963987	0.259223653369715
-0.0232101781963987	-0.00177150384318517
-0.0232101781963987	0.211791671191593
-0.0232101781963987	0.184669558208042
-0.0232101781963987	-0.0899366039013106
-0.0232101781963987	-0.159491781903281
-0.0232101781963987	0.173066760769381
-0.0232101781963987	0.175512503562278
-0.0232101781963987	0.325211477538112
-0.0232101781963987	0.316773308689661
-0.0232101781963987	0.150499288154705
-0.0232101781963987	-0.0134426855329855
-0.0232101781963987	0.377818742182441
-0.0232101781963987	0.00605524626710513
-0.0232101781963987	0.438245911498006
-0.0232101781963987	-0.75524165985435
-0.0232101781963987	0.131802831615744
-0.0232101781963987	-0.73282954206324
-0.0232101781963987	0.651202850192561
-0.0232101781963987	-0.357656157795045
-0.0232101781963987	-0.0774719150586234
-0.0232101781963987	-0.108303271543916
-0.0232101781963987	-0.325648748911768
-0.0232101781963987	0.309102487705029
-0.0232101781963987	0.163569089998416
-0.0232101781963987	0.306665006474295
-0.0232101781963987	0.13721265636594
-0.0232101781963987	0.454318906675715
-0.0232101781963987	-0.350753224850695
-0.0232101781963987	0.907781233166993
-0.0232101781963987	-0.3701240713003
-0.0232101781963987	-0.684067913761027
-0.0232101781963987	-0.279348642192873
-0.0232101781963987	0.308258068709103
-0.0232101781963987	0.124410897455637
-0.0232101781963987	0.329442865374579
-0.0232101781963987	0.397659699294845
-0.0232101781963987	0.371115682193965
-0.0232101781963987	0.223106658174923
-0.0232101781963987	0.249060157938632
-0.0232101781963987	-0.562569529911632
-0.0232101781963987	-0.241343772118213
-0.0232101781963987	-0.173840838182984
-0.0232101781963987	-0.331088027074752
-0.0232101781963987	-0.441664401846931
-0.0232101781963987	0.13441903870742
-0.0232101781963987	1.00020087855944
-0.0232101781963987	0.90771145843922
-0.0232101781963987	0.0950863182568198
-0.0232101781963987	0.0815878664752386
-0.0232101781963987	0.0528804079728528
-0.0232101781963987	0.371944096856429
-0.0232101781963987	-0.163983844419043
-0.0232101781963987	0.389701432764424
-0.0232101781963987	-0.216270284229552
-0.0232101781963987	-0.0804837139089926
-0.0232101781963987	0.276552149822236
-0.0232101781963987	0.427993989843164
-0.0232101781963987	0.492532306669114
-0.0232101781963987	-0.498590054298798
-0.0232101781963987	-0.200183253020838
-0.0232101781963987	0.0893755124050776
-0.0232101781963987	-0.454395799288546
-0.0232101781963987	-0.132385135807767
-0.0232101781963987	0.0791468085233358
-0.0232101781963987	-0.192470714128784
-0.0232101781963987	-0.296664076176589
-0.0232101781963987	-0.0448561127275944
-0.0232101781963987	0.127632344967856
-0.0232101781963987	0.529988052419219
-0.0232101781963987	-0.315938894258329
-0.0232101781963987	-0.141061599406016
-0.0232101781963987	0.040153776252321
-0.0232101781963987	-0.148111024174007
-0.0232101781963987	-0.0909527118833199
-0.0232101781963987	-0.198558657742423
-0.0232101781963987	0.23121624004251
-0.0232101781963987	0.0449207961445787
-0.0232101781963987	-0.442667858562955
-0.0232101781963987	0.510022621084351
-0.0232101781963987	0.559862709784746
-0.0232101781963987	-0.125499174941758
-0.0232101781963987	-0.27320566299738
-0.0232101781963987	0.354860043097815
-0.0232101781963987	-0.0674654736817615
-0.0232101781963987	-0.0926989557755282
-0.0232101781963987	-0.63668112250977
-0.0232101781963987	-0.175190166325067
-0.0232101781963987	0.338783788780008
-0.0232101781963987	0.462492251337375
-0.0232101781963987	0.147077416091641
-0.0232101781963987	-0.587428772948348
-0.0232101781963987	-0.0744275354175942
-0.0232101781963987	0.302990176183454
-0.0232101781963987	-0.0616549631224271
-0.0232101781963987	-0.33900811287272
-0.0232101781963987	-0.158380102790386
-0.0232101781963987	0.569282490195985
-0.0232101781963987	0.363730783719572
-0.0232101781963987	-0.142044366584424
-0.0232101781963987	0.042411578931288
-0.0232101781963987	-0.883869339345532
-0.0232101781963987	-0.228910573202775
-0.0232101781963987	-0.0247032088108742
-0.0232101781963987	0.253322067644955
-0.0232101781963987	0.160055436114173
-0.0232101781963987	0.156641403723075
-0.0232101781963987	0.0194458489656368
-0.0232101781963987	-0.363098663105431
-0.0232101781963987	-0.424713085240736
-0.0232101781963987	0.976007880642537
-0.0232101781963987	-0.187089255120906
-0.0232101781963987	-0.27266189842826
-0.0232101781963987	-0.0987189356647597
-0.0232101781963987	0.63731569603338
-0.0232101781963987	-0.7085716839773
-0.0232101781963987	-0.0545254724474773
-0.0232101781963987	-0.21306906212761
-0.0232101781963987	0.689909957222809
-0.0232101781963987	0.149426370111749
-0.0232101781963987	-0.475649273537356
-0.0232101781963987	-0.386078886788564
-0.0232101781963987	-0.503541066109786
-0.0232101781963987	-0.144245902646488
-0.0232101781963987	-0.8682213009763
-0.0232101781963987	-0.158972931009251
-0.0232101781963987	0.520393310422548
-0.0232101781963987	0.0834767911457513
-0.0232101781963987	-0.16823005351484
-0.0232101781963987	0.261982648469658
-0.0232101781963987	-0.60547663488796
-0.0232101781963987	0.156332607723181
-0.0232101781963987	0.069896065690165
-0.0232101781963987	0.662356568271446
-0.0232101781963987	0.114859819849367
-0.0232101781963987	0.193509692585917
-0.0232101781963987	-0.0872128848916625
-0.0232101781963987	0.0467965374223336
-0.0232101781963987	-0.549401798598409
-0.0232101781963987	0.0300919940143991
-0.0232101781963987	0.328252859461464
-0.0232101781963987	0.227386864380639
-0.0232101781963987	-0.161403338923825
-0.0232101781963987	0.402783858367438
-0.0232101781963987	-0.326979980299621
-0.0232101781963987	-0.491150903830312
-0.0232101781963987	-0.146976267256794
-0.0232101781963987	0.145932328910462
-0.0232101781963987	-0.0625697366598134
-0.0232101781963987	-0.0559327568283693
-0.0232101781963987	-0.407660510623432
-0.0232101781963987	-0.300540525633427
-0.0232101781963987	-0.359098191109243
-0.0232101781963987	0.480294237830918
-0.0232101781963987	0.0465306314940176
-0.0232101781963987	0.264832017295712
-0.0232101781963987	-0.117184198239557
-0.0232101781963987	-0.277365181920969
-0.0232101781963987	-0.221603006526978
-0.0232101781963987	0.560134262608536
-0.0232101781963987	0.0397517490202283
-0.0232101781963987	-0.0240261059868016
-0.0232101781963987	-0.040850546390121
-0.0232101781963987	0.0525192006880291
-0.0232101781963987	-0.0642929850171308
-0.0232101781963987	0.328187460170446
-0.0232101781963987	0.272814562256007
-0.0232101781963987	0.468783199165071
-0.0232101781963987	0.68662026832073
-0.0232101781963987	0.595772723184411
-0.0232101781963987	0.516261765980457
-0.0232101781963987	-0.0638092184448453
-0.0232101781963987	-0.567489056171286
-0.0232101781963987	0.768869659456778
-0.0232101781963987	0.104168885402326
-0.0232101781963987	-0.290314296633693
-0.0232101781963987	0.24082615267557
-0.0232101781963987	-0.438056232799881
-0.0232101781963987	0.436322282715623
-0.0232101781963987	0.289559835309823
-0.0232101781963987	-0.869158480303774
-0.0232101781963987	0.0946154999846672
-0.0232101781963987	0.0470959795254298
-0.0232101781963987	-0.0692942058271445
-0.0232101781963987	-0.238760626887376
-0.0232101781963987	0.556479112981618
-0.0232101781963987	0.585564135222063
-0.0232101781963987	0.371816628926369
-0.0232101781963987	0.0466797127848862
-0.0232101781963987	0.269440999568337
-0.0232101781963987	0.170248534112206
-0.0232101781963987	-0.987571124491635
-0.0232101781963987	-0.505690128319568
-0.0232101781963987	0.100941770600531
-0.0232101781963987	0.319098905929922
-0.0232101781963987	0.574600952040104
-0.0232101781963987	0.273647485230528
-0.0232101781963987	-0.0528323982921344
-0.0232101781963987	0.71414232142483
-0.0232101781963987	-0.0932010791938304
-0.0232101781963987	-0.0123744210326054
-0.0232101781963987	0.302468350509609
-0.0232101781963987	-0.0129173331971012
-0.0232101781963987	-0.565314724933585
-0.0232101781963987	0.378696689849726
-0.0232101781963987	0.969966177260534
-0.0232101781963987	-0.502518617420007
-0.0232101781963987	0.126640121289813
-0.0232101781963987	0.0211850142219165
-0.0232101781963987	-0.433195751121274
-0.0232101781963987	0.649618799393286
-0.0232101781963987	0.372978285942269
-0.0232101781963987	-0.471723248638195
-0.0232101781963987	-0.475242199080011
-0.0232101781963987	0.422805669031703
-0.0232101781963987	0.246779495472377
-0.0232101781963987	0.13920571011923
-0.0232101781963987	-0.486865997704062
-0.0232101781963987	0.54271756649404
-0.0232101781963987	-0.21853861085272
-0.0232101781963987	0.0948557586359978
-0.0232101781963987	-0.75213428894246
-0.0232101781963987	0.00911690458873919
-0.0232101781963987	0.25187205999882
-0.0232101781963987	-0.208711524187704
-0.0232101781963987	0.120876519944356
-0.0232101781963987	-0.618791980110119
-0.0232101781963987	0.393894809498092
-0.0232101781963987	0.467577451812123
-0.0232101781963987	0.284784765895176
-0.0232101781963987	0.185570360952285
-0.0232101781963987	0.30636164438318
-0.0232101781963987	0.497671677316903
-0.0232101781963987	0.610472952758048
-0.0232101781963987	-0.031473919150474
-0.0232101781963987	0.640968137732145
-0.0232101781963987	-0.105678093521911
-0.0232101781963987	-0.443226960915772
-0.0232101781963987	-0.427235055548405
-0.0232101781963987	0.158496994746883
-0.0232101781963987	-0.00756507860612206
-0.0232101781963987	-0.178759652809047
-0.0232101781963987	-0.125311710972519
-0.0232101781963987	-0.425807109344457
-0.0232101781963987	0.196283427029848
-0.0232101781963987	-0.111070583624321
-0.0232101781963987	0.462676827395863
-0.0232101781963987	0.312535102676493
-0.0232101781963987	0.538070512329388
-0.0232101781963987	0.552764276831627
-0.0232101781963987	0.0107523193986536
-0.0232101781963987	-0.402301060031956
-0.0232101781963987	0.353624280629314
-0.0232101781963987	0.169188680163664
-0.0232101781963987	0.0125468070289696
-0.0232101781963987	0.754509239532498
-0.0232101781963987	-0.553280837267411
-0.0232101781963987	-0.834293042715477
-0.0232101781963987	0.0215266599976971
-0.0232101781963987	0.792748339797819
-0.0232101781963987	0.426911426958084
-0.0232101781963987	0.197286750340609
-0.0232101781963987	0.288578372917986
-0.0232101781963987	-0.341866148884378
-0.0232101781963987	0.308572767667115
-0.0232101781963987	0.00376025485743109
-0.0232101781963987	-0.6798576448603
-0.0232101781963987	-0.223452791272299
-0.0232101781963987	0.271497329648191
-0.0232101781963987	0.0478214797103723
-0.0232101781963987	0.305052773543867
-0.0232101781963987	0.574932703285339
-0.0232101781963987	0.846956248375423
-0.0232101781963987	0.526075053663628
-0.0232101781963987	0.0251450306455351
-0.0232101781963987	-0.742639152580739
-0.0232101781963987	0.202004585378461
-0.0232101781963987	-0.665198072338903
-0.0232101781963987	-0.0841662711662499
-0.0232101781963987	-0.217618655800033
-0.0232101781963987	-0.67952335467218
-0.0232101781963987	-0.123423747597062
-0.0232101781963987	-0.368927805746601
-0.0232101781963987	0.302596117529836
-0.0232101781963987	0.317252661180992
-0.0232101781963987	0.0424802388284211
-0.0232101781963987	-0.0348418411857607
-0.0232101781963987	0.498665784081199
-0.0232101781963987	-0.628454065071979
-0.0232101781963987	0.385010188169175
-0.0232101781963987	-0.54347155650665
-0.0232101781963987	0.0976904877730527
-0.0232101781963987	0.50142995990546
-0.0232101781963987	-0.492039301882614
-0.0232101781963987	0.589898044496737
-0.0232101781963987	0.416922675468446
-0.0232101781963987	-0.567862984846042
-0.0232101781963987	-0.0795230214858979
-0.0232101781963987	-0.304634026571872
-0.0232101781963987	-0.50106245776176
-0.0232101781963987	0.55656758009749
-0.0232101781963987	0.326501916787662
-0.0232101781963987	0.23610831445212
-0.0232101781963987	0.0704824039949482
-0.0232101781963987	0.695589721059187
-0.0232101781963987	-0.268370218315253
-0.0232101781963987	0.331992766341088
-0.0232101781963987	0.414713905153
-0.0232101781963987	-0.43830240720931
-0.0232101781963987	0.200060940476015
-0.0232101781963987	-0.33401674432193
-0.0232101781963987	-0.381683864880605
-0.0232101781963987	-0.259071224371398
-0.0232101781963987	-0.143824706479758
-0.0232101781963987	0.0293046253070521
-0.0232101781963987	-0.139836222203224
-0.0232101781963987	-0.496528321493239
-0.0232101781963987	-0.0926486717599033
-0.0232101781963987	0.475316585081041
-0.0232101781963987	-0.0948842722618257
-0.0232101781963987	0.577750726592914
-0.0232101781963987	-0.306825915332876
-0.0232101781963987	0.539683209676708
-0.0232101781963987	0.530857257073468
-0.0232101781963987	0.567157051837452
-0.0232101781963987	-0.264702100442431
-0.0232101781963987	-0.7222977041311
-0.0232101781963987	0.614905870995791
-0.0232101781963987	0.348334444875533
-0.0232101781963987	0.000943451290501732
-0.0232101781963987	-0.474568326133714
-0.0232101781963987	-0.00805866981519342
-0.0232101781963987	-0.151097161219295
-0.0232101781963987	-0.349472538693035
-0.0232101781963987	-0.541922777991033
-0.0232101781963987	-0.200331271410379
-0.0232101781963987	0.72515513277773
-0.0232101781963987	-0.19919835163191
-0.0232101781963987	0.443549073863955
-0.0232101781963987	-0.576834458779059
-0.0232101781963987	-0.0653244222295679
-0.0232101781963987	-0.109937615636348
-0.0232101781963987	-0.429090446879311
-0.0232101781963987	-0.206853223798351
-0.0232101781963987	-0.0263508803229557
-0.0232101781963987	-0.309181631156612
-0.0232101781963987	0.536300944125561
-0.0232101781963987	0.100837416085704
-0.0232101781963987	0.488360779049165
-0.0232101781963987	-0.370842138461603
-0.0232101781963987	-0.399226545279587
-0.0232101781963987	-0.0141421742973647
-0.0232101781963987	0.540273024385248
-0.0232101781963987	0.362816565502384
-0.0232101781963987	-0.991685631820428
-0.0232101781963987	-0.0652348191321951
-0.0232101781963987	-0.477795051782684
-0.0232101781963987	-0.575765207460718
-0.0232101781963987	-0.579014434359695
-0.0232101781963987	0.146557150129426
-0.0232101781963987	0.497170630633915
-0.0232101781963987	-0.118280320094939
-0.0232101781963987	0.291823914957849
-0.0232101781963987	-0.174706098685901
-0.0232101781963987	-0.510729786348811
-0.0232101781963987	0.00969118887834092
-0.0232101781963987	1.29583363216769
-0.0232101781963987	0.113208034553262
-0.0232101781963987	-0.503540493588929
-0.0232101781963987	0.123390751476127
-0.0232101781963987	0.185023522792633
-0.0232101781963987	-0.366518140021845
-0.0232101781963987	0.0262076205779982
-0.0232101781963987	0.536200483486352
-0.0232101781963987	-0.328461680620164
-0.0232101781963987	-0.267031450096594
-0.0232101781963987	0.839390956056502
-0.0232101781963987	0.0869948501491219
-0.0232101781963987	0.341783059460824
-0.0232101781963987	-0.466835163587392
-0.0232101781963987	-0.0709538927533
-0.0232101781963987	0.381081541807986
-0.0232101781963987	0.215675626879689
-0.0232101781963987	-0.0994841252737989
-0.0232101781963987	-0.652775362646245
-0.0232101781963987	0.067822464043844
-0.0232101781963987	-0.176875752202359
-0.0232101781963987	-0.0681751205562939
-0.0232101781963987	0.396189076313563
-0.0232101781963987	-0.716259642886113
-0.0232101781963987	0.431656678489634
-0.0232101781963987	-0.299471509243707
-0.0232101781963987	-0.350652759069094
-0.0232101781963987	-0.104346009328874
-0.0232101781963987	-0.482712667801771
-0.0232101781963987	0.975872809700824
-0.0232101781963987	0.0137028989706435
-0.0232101781963987	0.208470504461477
-0.0232101781963987	-0.0149755968682944
-0.0232101781963987	-0.124799212855508
-0.0232101781963987	-0.381204430458913
-0.0232101781963987	-0.244336502806356
-0.0232101781963987	-0.729060647461918
-0.0232101781963987	0.264177255990905
-0.0232101781963987	-0.0320003234547374
-0.0232101781963987	-0.266202247152436
-0.0232101781963987	0.496174898765748
-0.0232101781963987	-0.398713557413047
-0.0232101781963987	0.132733814211474
-0.0232101781963987	0.564442610390878
-0.0232101781963987	-0.510268534253751
-0.0232101781963987	-0.629647262309261
-0.0232101781963987	-0.593087753874013
-0.0232101781963987	-0.732296009230296
-0.0232101781963987	-0.0451394636057655
-0.0232101781963987	0.662039062174654
-0.0232101781963987	0.104489135313823
-0.0232101781963987	-0.0547809258555355
-0.0232101781963987	-0.0249641227409797
-0.0232101781963987	0.195157556951521
-0.0232101781963987	0.433873432233662
-0.0232101781963987	-0.0667008126865488
-0.0232101781963987	-0.112129826146453
-0.0232101781963987	0.164557360473773
-0.0232101781963987	-0.210630281643681
-0.0232101781963987	-0.0819034797768813
-0.0232101781963987	-0.427978702992526
-0.0232101781963987	0.483444323515397
-0.0232101781963987	-0.154421968602775
-0.0232101781963987	0.0929901228921375
-0.0232101781963987	-0.404114708725322
-0.0232101781963987	-0.722800726558121
-0.0232101781963987	0.0955322305077239
-0.0232101781963987	0.677071477351168
-0.0232101781963987	0.36873401599483
-0.0232101781963987	0.0289367902919156
-0.0232101781963987	0.641620868569895
-0.0232101781963987	0.127138936863452
-0.0232101781963987	-0.508013741881568
-0.0232101781963987	0.850692364857308
-0.0232101781963987	-0.406086963951553
-0.0232101781963987	0.519152634870135
-0.0232101781963987	0.218152236341444
-0.0232101781963987	-0.529653364865978
-0.0232101781963987	-0.0371753353153175
-0.0232101781963987	0.0921777665175881
-0.0232101781963987	0.0656806086038668
-0.0232101781963987	-0.169844829529471
-0.0232101781963987	0.474948929819003
-0.0232101781963987	1.13618698021783
-0.0232101781963987	-0.0526025201337431
-0.0232101781963987	0.355544370962464
-0.0232101781963987	0.292455502392809
-0.0232101781963987	-0.0729316330777445
-0.0232101781963987	-1.16549071991777
-0.0232101781963987	0.0853111740077367
-0.0232101781963987	0.334816123958138
-0.0232101781963987	-0.0473537437259896
-0.0232101781963987	0.460903664247028
-0.0232101781963987	-0.453079355238656
-0.0232101781963987	-0.300208391348283
-0.0232101781963987	0.170065158251308
-0.0232101781963987	-0.25741459540591
-0.0232101781963987	0.312507840496786
-0.0232101781963987	0.0276334812020966
-0.0232101781963987	0.199397708207994
-0.0232101781963987	0.301723864470219
-0.0232101781963987	-0.268762631540444
-0.0232101781963987	0.164357835541051
-0.0232101781963987	-0.563140077570267
-0.0232101781963987	-0.451970735426685
-0.0232101781963987	0.659083584526714
-0.0232101781963987	0.286779938112268
-0.0232101781963987	0.0409608830279637
-0.0232101781963987	-0.177166047094627
-0.0232101781963987	-0.161001633372096
-0.0232101781963987	0.48127100434511
-0.0232101781963987	-0.637608607929143
-0.0232101781963987	0.225830952922352
-0.0232101781963987	-0.796823742270796
-0.0232101781963987	0.48429350825284
-0.0232101781963987	0.229781023089647
-0.0232101781963987	-0.319674486185481
-0.0232101781963987	-0.767953378383577
-0.0232101781963987	-0.298014026762046
-0.0232101781963987	0.731784259453351
-0.0232101781963987	-0.465980193170713
-0.0232101781963987	-0.1945808245517
-0.0232101781963987	-0.526671027356595
-0.0232101781963987	-0.0892842097344708
-0.0232101781963987	-0.0308621467344047
-0.0232101781963987	0.214263943306966
-0.0232101781963987	0.225749192057424
-0.0232101781963987	0.335769957859339
-0.0232101781963987	-0.0122234417656287
-0.0232101781963987	-0.364714046711437
-0.0232101781963987	-0.803282761118988
-0.0232101781963987	-0.308655221380577
-0.0232101781963987	0.0865438426736865
-0.0232101781963987	0.186395163748496
-0.0232101781963987	0.277130985693063
-0.0232101781963987	0.537705335147979
-0.0232101781963987	-0.392400922295686
-0.0232101781963987	0.111630225207796
-0.0232101781963987	-0.501094956380803
-0.0232101781963987	-0.555640089693253
-0.0232101781963987	-0.529908541081191
-0.0232101781963987	-0.387994922736925
-0.0232101781963987	-0.0216216716875274
-0.0232101781963987	-0.148081700312767
-0.0232101781963987	-0.112511402753349
-0.0232101781963987	0.587956622468232
-0.0232101781963987	0.575448596543328
-0.0232101781963987	-0.255671536939785
-0.0232101781963987	0.374897670133639
-0.0232101781963987	0.621769188819484
-0.0232101781963987	0.409410645230794
-0.0232101781963987	0.0554966447963631
-0.0232101781963987	1.03444102976085
-0.0232101781963987	-0.201155866522854
-0.0232101781963987	0.0671565063773139
-0.0232101781963987	0.21437479470146
-0.0232101781963987	-0.407119950305288
-0.0232101781963987	0.258023464879376
-0.0232101781963987	-0.0405689326429856
-0.0232101781963987	0.216691333916201
-0.0232101781963987	0.189283964161308
-0.0232101781963987	0.204142349756006
-0.0232101781963987	0.501692721751458
-0.0232101781963987	0.056788174593273
-0.0232101781963987	0.391758084963241
-0.0232101781963987	0.952200060568023
-0.0232101781963987	0.103886607320016
-0.0232101781963987	0.22615524985816
-0.0232101781963987	0.437101321224943
-0.0232101781963987	-0.118677513639212
-0.0232101781963987	0.668942948351997
-0.0232101781963987	-0.652793457154575
-0.0232101781963987	-0.419538137768321
-0.0232101781963987	-0.788044920608089
-0.0232101781963987	0.636994455427359
-0.0232101781963987	0.142000604780523
-0.0232101781963987	0.235331811518286
-0.0232101781963987	0.304508226928562
-0.0232101781963987	0.0305901720493617
-0.0232101781963987	-0.0637687976501198
-0.0232101781963987	0.706926680059427
-0.0232101781963987	0.36855002661438
-0.0232101781963987	-0.400826358133655
-0.0232101781963987	-0.590017824740768
-0.0232101781963987	0.462006451194195
-0.0232101781963987	0.240731109765206
-0.0232101781963987	0.332865860256323
-0.0232101781963987	-0.339113916424508
-0.0232101781963987	-0.236341661399587
-0.0232101781963987	0.0910714712260698
-0.0232101781963987	0.0326526600027566
-0.0232101781963987	-0.315234037928912
-0.0232101781963987	0.235085702137112
-0.0232101781963987	0.0175965825594611
-0.0232101781963987	-0.255805808703033
-0.0232101781963987	-0.558595088489023
-0.0232101781963987	-0.626128525599239
-0.0232101781963987	-0.306853618692953
-0.0232101781963987	-0.232868871118365
-0.0232101781963987	0.223552164580366
-0.0232101781963987	-0.376219038483192
-0.0232101781963987	0.165008644706247
-0.0232101781963987	0.340708698966823
-0.0232101781963987	-0.00233157892460894
-0.0232101781963987	0.267164421528502
-0.0232101781963987	0.530935463087527
-0.0232101781963987	0.152846709611768
-0.0232101781963987	-0.371426243377342
-0.0232101781963987	-0.152282698549112
-0.0232101781963987	0.412704758266842
-0.0232101781963987	0.144905137280091
-0.0232101781963987	-0.0949803389038826
-0.0232101781963987	0.768926790753155
-0.0232101781963987	-0.520606481921767
-0.0232101781963987	0.170287143894584
-0.0232101781963987	0.142900815654581
-0.0232101781963987	0.0559998495081355
-0.0232101781963987	-0.098135773866243
-0.0232101781963987	-0.235072303845129
-0.0232101781963987	-0.144588184905283
-0.0232101781963987	-0.096675094993532
-0.0232101781963987	-0.325471150065753
-0.0232101781963987	-0.365742631962236
-0.0232101781963987	-0.597793631431193
-0.0232101781963987	0.564279467838406
-0.0232101781963987	0.0395469797144753
-0.0232101781963987	0.434906456035962
-0.0232101781963987	0.434775669670071
-0.0232101781963987	-0.192433536139942
-0.0232101781963987	0.430801309363936
-0.0232101781963987	-0.302058218291606
-0.0232101781963987	0.390394526279746
-0.0232101781963987	0.47194974152078
-0.0232101781963987	-0.285978679665653
-0.0232101781963987	0.303873658532761
-0.0232101781963987	-0.967147899261568
-0.0232101781963987	-0.40849445796874
-0.0232101781963987	-0.771198029487236
-0.0232101781963987	-0.808248705069077
-0.0232101781963987	-0.493535188654031
-0.0232101781963987	0.291773313020384
-0.0232101781963987	0.729095368178962
-0.0232101781963987	-0.0460744670650799
-0.0232101781963987	-0.0422481452433662
-0.0232101781963987	0.140506711776658
-0.0232101781963987	-0.232088278617284
-0.0232101781963987	0.112107077425648
-0.0232101781963987	0.266779240382024
-0.0232101781963987	0.368179609962635
-0.0232101781963987	0.214739732579531
-0.0232101781963987	0.226928101000542
-0.0232101781963987	-0.321311062531498
-0.0232101781963987	-0.191694805657587
-0.0232101781963987	0.133663302883695
-0.0232101781963987	-0.00115377682361085
-0.0232101781963987	-0.315457023773781
-0.0232101781963987	0.456749283796021
-0.0232101781963987	0.113579092932255
-0.0232101781963987	0.753590334336286
