V1	V2
-0.176778979608378	-0.896786411724347
-0.176778979608378	0.430899660304487
-0.176778979608378	-0.747965805785835
-0.176778979608378	1.30611259005027
-0.176778979608378	0.68025883590813
-0.176778979608378	-0.711555261349718
-0.176778979608378	-0.55276957753228
-0.176778979608378	-1.34322470323558
-0.176778979608378	-0.508065605996569
-0.176778979608378	0.0485750048389366
-0.176778979608378	-0.90384033954303
-0.176778979608378	-0.427762517537345
-0.176778979608378	-1.01492838759196
-0.176778979608378	-0.876047992191335
-0.176778979608378	-0.0144602521017742
-0.176778979608378	-0.503745828818046
-0.176778979608378	-0.549179770246844
-0.176778979608378	0.94577685950933
-0.176778979608378	-0.0300068122807024
-0.176778979608378	0.428972554504654
-0.176778979608378	1.28893250092711
-0.176778979608378	0.0198593074903053
-0.176778979608378	-0.233929258505199
-0.176778979608378	-0.134482944088179
-0.176778979608378	0.677799004297058
-0.176778979608378	-1.15634728660318
-0.176778979608378	0.0210241087912428
-0.176778979608378	0.413016754046553
-0.176778979608378	0.0433937533935128
-0.176778979608378	1.1840010150118
-0.176778979608378	1.05133280186148
-0.176778979608378	0.513594340057105
-0.176778979608378	-0.17227762338588
-0.176778979608378	-0.876362723251758
-0.176778979608378	-0.770365679501699
-0.176778979608378	0.645109051207127
-0.176778979608378	0.036528852846242
-0.176778979608378	0.0549947698076542
-0.176778979608378	0.218392793883168
-0.176778979608378	-0.520287860922856
-0.176778979608378	-0.62760930781973
-0.176778979608378	0.984471673640947
-0.176778979608378	0.507698988453413
-0.176778979608378	-0.648779651948081
-0.176778979608378	-0.688606485092564
-0.176778979608378	-0.522300678072214
-0.176778979608378	0.20960903597883
-0.176778979608378	-0.860874619709393
-0.176778979608378	0.134897301677503
-0.176778979608378	0.784299222134258
-0.176778979608378	-0.726757809397018
-0.176778979608378	0.667901030011724
-0.176778979608378	-0.408521748903528
-0.176778979608378	-0.442214183984866
-0.176778979608378	-0.280138402093171
-0.176778979608378	-0.606633720242786
-0.176778979608378	1.04858664549482
-0.176778979608378	-0.353335929558744
-0.176778979608378	-0.302717010775866
-0.176778979608378	-0.662394725914181
-0.176778979608378	1.61934658325086
-0.176778979608378	-0.341991684439201
-0.176778979608378	-1.07477255992151
-0.176778979608378	-0.55796389093878
-0.176778979608378	0.371095509717303
-0.176778979608378	-0.21054944328107
-0.176778979608378	-0.337743402041983
-0.176778979608378	-0.595329450322887
-0.176778979608378	0.869161591325612
-0.176778979608378	0.288969092359606
-0.176778979608378	0.668185447918303
-0.176778979608378	-0.839895298067887
-0.176778979608378	-0.200390746202105
-0.176778979608378	-0.468533624698606
-0.176778979608378	0.363100874569177
-0.176778979608378	-0.625718790528825
-0.176778979608378	-0.653980089083112
-0.176778979608378	0.320959355155041
-0.176778979608378	-0.134342112133698
-0.176778979608378	0.465665435760537
-0.176778979608378	0.998646301239979
-0.176778979608378	-0.567189701827025
-0.176778979608378	-0.11668929549788
-0.176778979608378	0.533658916600577
-0.176778979608378	0.274904465821527
-0.176778979608378	-0.593394106121729
-0.176778979608378	0.453647501003873
-0.176778979608378	-0.593717775292343
-0.176778979608378	-0.162861345249116
-0.176778979608378	-0.364499869738953
-0.176778979608378	-0.163091829177931
-0.176778979608378	0.163198267322995
-0.176778979608378	-0.786596654814834
-0.176778979608378	-1.35006402652291
-0.176778979608378	-0.197953141964128
-0.176778979608378	1.01521769541776
-0.176778979608378	0.740149840439733
-0.176778979608378	1.27865260860838
-0.176778979608378	-1.01156487511327
-0.176778979608378	-0.5288545277519
-0.176778979608378	-1.95259910589834
-0.176778979608378	-0.207330831093022
-0.176778979608378	1.46194558658116
-0.176778979608378	0.928319298420481
-0.176778979608378	-0.406558900970997
-0.176778979608378	0.735252841763697
-0.176778979608378	0.953120811137646
-0.176778979608378	0.0831002418564164
-0.176778979608378	0.881699190950938
-0.176778979608378	-0.699798384534488
-0.176778979608378	0.856332055401934
-0.176778979608378	-0.792839792179355
-0.176778979608378	0.480566895962546
-0.176778979608378	-0.171434150140129
-0.176778979608378	0.895060190542775
-0.176778979608378	1.01343589300282
-0.176778979608378	1.19309817139043
-0.176778979608378	0.247981731155583
-0.176778979608378	0.864400549243467
-0.176778979608378	-0.749327983415527
-0.176778979608378	-0.508586151673674
-0.176778979608378	0.102691031126923
-0.176778979608378	-1.1817755431562
-0.176778979608378	-0.663326421581216
-0.176778979608378	0.019205371393656
-0.176778979608378	-0.750515797638622
-0.176778979608378	0.40682883001193
-0.176778979608378	-0.432198343985037
-0.176778979608378	0.218987411321982
-0.176778979608378	0.0692001749116697
-0.176778979608378	0.553840913203676
-0.176778979608378	-0.239562833069074
-0.176778979608378	0.153689295195296
-0.176778979608378	0.191687873415752
-0.176778979608378	0.238566906237403
-0.176778979608378	0.651082610525092
-0.176778979608378	0.194385297936117
-0.176778979608378	-0.290752150796924
-0.176778979608378	-0.194381701477263
-0.176778979608378	-0.39577974011507
-0.176778979608378	-0.00688758752272112
-0.176778979608378	-0.743090398250799
-0.176778979608378	-0.793921490597183
-0.176778979608378	0.933185889580872
-0.176778979608378	-0.0758499485247269
-0.176778979608378	-0.213403983964967
-0.176778979608378	0.668472921054857
-0.176778979608378	0.128613242537412
-0.176778979608378	-0.662340411199056
-0.176778979608378	-1.03077820853177
-0.176778979608378	-1.37239767520121
-0.176778979608378	-0.614828492051256
-0.176778979608378	-0.146147194624817
-0.176778979608378	-0.109533035400374
-0.176778979608378	-0.701072887309656
-0.176778979608378	-1.26440264262459
-0.176778979608378	-0.727367800228127
-0.176778979608378	-1.48012177225641
-0.176778979608378	-1.66613482815754
-0.176778979608378	-0.340206964106119
-0.176778979608378	-0.745092071750935
-0.176778979608378	0.357251149830522
-0.176778979608378	0.625536448557224
-0.176778979608378	-1.82166092074446
-0.176778979608378	0.14786756265904
-0.176778979608378	-1.11588228448724
-0.176778979608378	-0.402381868368413
-0.176778979608378	-0.208287904840606
-0.176778979608378	-0.436180041047946
-0.176778979608378	-0.290043943242147
-0.176778979608378	-0.0500958058126898
-0.176778979608378	-0.226433191721324
-0.176778979608378	-0.636584230460616
-0.176778979608378	-0.0235444557078539
-0.176778979608378	-0.837825269347456
-0.176778979608378	0.438836424727176
-0.176778979608378	-0.227346159274251
-0.176778979608378	-1.31039607207035
-0.176778979608378	-0.437147654236573
-0.176778979608378	-0.535777682632208
-0.176778979608378	0.883668902725415
-0.176778979608378	1.0312836226813
-0.176778979608378	0.136305747542972
-0.176778979608378	-0.317457160707042
-0.176778979608378	0.883764017501881
-0.176778979608378	0.908094276413848
-0.176778979608378	-0.462217372337981
-0.176778979608378	-0.157502815649003
-0.176778979608378	-0.580219254073644
-0.176778979608378	0.0885855865748546
-0.176778979608378	-0.777460842600681
-0.176778979608378	-0.806164155478827
-0.176778979608378	0.0784211497623053
-0.176778979608378	0.362879093298797
-0.176778979608378	0.620075320051494
-0.176778979608378	-0.150519417329338
-0.176778979608378	1.41751098941488
-0.176778979608378	0.201861606791087
-0.176778979608378	-0.261915332653562
-0.176778979608378	0.750391072407904
-0.176778979608378	0.00425136163718942
-0.176778979608378	1.10360768332132
-0.176778979608378	-0.643796575591318
-0.176778979608378	-0.540623038232576
-0.176778979608378	0.255860555228128
-0.176778979608378	-0.170297534504207
-0.176778979608378	-0.201119480378164
-0.176778979608378	0.10634702744979
-0.176778979608378	-1.26178940418748
-0.176778979608378	0.258849134657887
-0.176778979608378	-0.252567087508071
-0.176778979608378	-0.358155568074087
-0.176778979608378	0.571179840944842
-0.176778979608378	0.226994227224035
-0.176778979608378	-0.0405868854639229
-0.176778979608378	0.0294294366099872
-0.176778979608378	1.72662277567935
-0.176778979608378	0.577051885016561
-0.176778979608378	0.393088102753781
-0.176778979608378	-0.223969488530506
-0.176778979608378	1.42866034247814
-0.176778979608378	1.15871450918343
-0.176778979608378	0.59107116315392
-0.176778979608378	0.109967858280621
-0.176778979608378	1.47716922350839
-0.176778979608378	0.0838107979514405
-0.176778979608378	-0.209684977144776
-0.176778979608378	-1.33547075689151
-0.176778979608378	-0.402256728913752
-0.176778979608378	0.167589486829951
-0.176778979608378	-1.50638801459962
-0.176778979608378	-1.62059121852517
-0.176778979608378	0.401456121945282
-0.176778979608378	-0.463501052384795
-0.176778979608378	0.130240946899091
-0.176778979608378	0.00601282169155881
-0.176778979608378	0.75406193543124
-0.176778979608378	1.24427128065124
-0.176778979608378	-0.303541289808387
-0.176778979608378	0.404200709227911
-0.176778979608378	-0.271232436262118
-0.176778979608378	-1.01374654393231
-0.176778979608378	-0.860282070772427
-0.176778979608378	0.485382082587449
-0.176778979608378	-0.693630103601048
-0.176778979608378	0.642203573940872
-0.176778979608378	-0.641853896284349
-0.176778979608378	-0.0276857788020495
-0.176778979608378	0.508651924019412
-0.176778979608378	-0.0429685341193002
-0.176778979608378	0.180765590319133
-0.176778979608378	-0.0669786273530379
-0.176778979608378	-0.119100884261017
-0.176778979608378	-0.857659017077162
-0.176778979608378	1.74598492797003
-0.176778979608378	-0.729207998472909
-0.176778979608378	-0.700209169329047
-0.176778979608378	-0.651907757210257
-0.176778979608378	-0.272146608554488
-0.176778979608378	-0.490042048198818
-0.176778979608378	0.142912073056843
-0.176778979608378	-0.915778730284958
-0.176778979608378	0.742616722880717
-0.176778979608378	-0.899658651497866
-0.176778979608378	-1.80167394759297
-0.176778979608378	0.522265807387087
-0.176778979608378	0.487604179317918
-0.176778979608378	-1.14023586762603
-0.176778979608378	-0.265709391890947
-0.176778979608378	0.245274657316314
-0.176778979608378	0.0159093975383455
-0.176778979608378	0.143546994306982
-0.176778979608378	-0.0423947819078689
-0.176778979608378	-0.341262861732404
-0.176778979608378	0.252024214092878
-0.176778979608378	-0.5515738971557
-0.176778979608378	0.843811830549063
-0.176778979608378	-0.226519235762999
-0.176778979608378	-0.105549136496838
-0.176778979608378	-0.370661087164435
-0.176778979608378	-0.551659250528711
-0.176778979608378	0.788250453388923
-0.176778979608378	-0.480632693523144
-0.176778979608378	-0.0907477021819365
-0.176778979608378	-0.623181683205799
-0.176778979608378	-0.310030597915069
-0.176778979608378	0.422656447497508
-0.176778979608378	0.390308961274118
-0.176778979608378	0.181600000075371
-0.176778979608378	-0.207284160013153
-0.176778979608378	-0.460493823605085
-0.176778979608378	-0.0946250710391986
-0.176778979608378	-0.00993134395468454
-0.176778979608378	-0.46991997386492
-0.176778979608378	-1.52343301483746
-0.176778979608378	-0.0140670565946347
-0.176778979608378	-0.468981989412669
-0.176778979608378	-0.0523132170630514
-0.176778979608378	0.24787029224939
-0.176778979608378	0.325741897884845
-0.176778979608378	0.803932700184249
-0.176778979608378	0.912898835314971
-0.176778979608378	-0.00074131439274594
-0.176778979608378	-1.39087188991439
-0.176778979608378	0.408085632415654
-0.176778979608378	-0.54547252914033
-0.176778979608378	-0.321472083942265
-0.176778979608378	0.868925028390697
-0.176778979608378	0.824972241185484
-0.176778979608378	1.00334569616654
-0.176778979608378	0.133579934190005
-0.176778979608378	-0.412459131386968
-0.176778979608378	-0.203997575058638
-0.176778979608378	0.31815166781355
-0.176778979608378	0.746183383911922
-0.176778979608378	-0.811338855550771
-0.176778979608378	-0.665169681888337
-0.176778979608378	-1.56013645236557
-0.176778979608378	0.685960775106356
-0.176778979608378	-0.483542064397677
-0.176778979608378	-0.354416841018871
-0.176778979608378	0.0136919140161087
-0.176778979608378	0.592746213868885
-0.176778979608378	-0.411030230510942
-0.176778979608378	-0.569947408062
-0.176778979608378	-0.171989285374036
-0.176778979608378	-1.30224892311259
-0.176778979608378	0.409430521523115
-0.176778979608378	1.66380955164645
-0.176778979608378	-0.675474517761522
-0.176778979608378	-0.78214846552962
-0.176778979608378	0.0133637835861486
-0.176778979608378	-0.0870025003881844
-0.176778979608378	0.0283182348937712
-0.176778979608378	0.245489500819225
-0.176778979608378	0.323983592724
-0.176778979608378	-0.451761903106656
-0.176778979608378	0.556713311496116
-0.176778979608378	-0.299949114144715
-0.176778979608378	-0.202389328082528
-0.176778979608378	0.024618646364053
-0.176778979608378	-0.37083565281625
-0.176778979608378	0.303652153600096
-0.176778979608378	-0.146751275563082
-0.176778979608378	0.565475179517716
-0.176778979608378	0.305014461911502
-0.176778979608378	-0.132688406694657
-0.176778979608378	0.829067133263306
-0.176778979608378	-0.183296676234663
-0.176778979608378	0.982959866271022
-0.176778979608378	-0.003457152620159
-0.176778979608378	-0.830503292557375
-0.176778979608378	-0.207321797063625
-0.176778979608378	0.401469838941805
-0.176778979608378	0.379194747968134
-0.176778979608378	-0.449739089176233
-0.176778979608378	-0.725544409097669
-0.176778979608378	0.58632597286514
-0.176778979608378	0.409610633965196
-0.176778979608378	-0.287470145156371
-0.176778979608378	0.281683846778609
-0.176778979608378	-0.187367889964648
-0.176778979608378	0.30247708759903
-0.176778979608378	-0.215434701415042
-0.176778979608378	1.30250972719194
-0.176778979608378	-1.0637707287937
-0.176778979608378	-0.658329025123497
-0.176778979608378	-0.364991492994487
-0.176778979608378	-0.806247021211905
-0.176778979608378	0.894247959275492
-0.176778979608378	0.00616952557675576
-0.176778979608378	1.10112955063284
-0.176778979608378	-0.669747665690754
-0.176778979608378	-1.16159403096794
-0.176778979608378	1.22137379335243
-0.176778979608378	-0.0777024970936145
-0.176778979608378	0.813847219918386
-0.176778979608378	0.241590492292953
-0.176778979608378	-0.754758420187101
-0.176778979608378	-0.32492071630514
-0.176778979608378	-1.49340119539621
-0.176778979608378	-0.146413031787669
-0.176778979608378	0.927424373911356
-0.176778979608378	0.172536551994597
-0.176778979608378	0.398348503969414
-0.176778979608378	0.046465656585938
-0.176778979608378	0.494839973785651
-0.176778979608378	0.14062848979828
-0.176778979608378	1.08265357681285
-0.176778979608378	0.173868624133919
-0.176778979608378	0.71614346699918
-0.176778979608378	-0.57548081205614
-0.176778979608378	-1.02853645936965
-0.176778979608378	0.972630475540072
-0.176778979608378	0.89753798538779
-0.176778979608378	0.142820206601617
-0.176778979608378	-0.469598857813763
-0.176778979608378	0.381334430206258
-0.176778979608378	-0.292218363222648
-0.176778979608378	0.179342084773946
-0.176778979608378	-0.187713526198896
-0.176778979608378	0.0748998109128018
-0.176778979608378	0.791684312619281
-0.176778979608378	-0.412929388636316
-0.176778979608378	-1.22431213563509
-0.176778979608378	0.556452795831721
-0.176778979608378	-0.876610452945844
-0.176778979608378	-1.43770697284832
-0.176778979608378	-0.904060893485378
-0.176778979608378	1.26479954859962
-0.176778979608378	0.496888429925516
-0.176778979608378	-0.436740172250341
-0.176778979608378	0.0712925227284413
-0.176778979608378	-0.427426330327551
-0.176778979608378	0.426800779846854
-0.176778979608378	-0.269089151653988
-0.176778979608378	1.05696024322583
-0.176778979608378	-0.187333995184457
-0.176778979608378	-0.469151341884622
-0.176778979608378	-0.947200394667614
-0.176778979608378	-0.442241456534104
-0.176778979608378	-0.133338085863159
-0.176778979608378	0.518283111719903
-0.176778979608378	-1.21160358624478
-0.176778979608378	0.509386210017719
-0.176778979608378	-0.550037079930774
-0.176778979608378	0.841018737688644
-0.176778979608378	0.545053597620154
-0.176778979608378	0.747701530269674
-0.176778979608378	0.0585629928600047
-0.176778979608378	-0.553546636068093
-0.176778979608378	-0.385585897951882
-0.176778979608378	0.521177854308897
-0.176778979608378	-0.449921368023313
-0.176778979608378	0.0149501257808095
-0.176778979608378	0.205518613901769
-0.176778979608378	-0.879037028367677
-0.176778979608378	-0.447741020127807
-0.176778979608378	-0.16688380031026
-0.176778979608378	1.31676161371854
-0.176778979608378	0.691968176272046
-0.176778979608378	0.507408571805428
-0.176778979608378	-2.49964360130588
-0.176778979608378	0.675728128192075
-0.176778979608378	0.64993559086721
-0.176778979608378	1.09860230432804
-0.176778979608378	0.455344422910703
-0.176778979608378	-0.660411851630545
-0.176778979608378	-0.138474074336678
-0.176778979608378	0.0333921155123837
-0.176778979608378	-0.09511357691726
-0.176778979608378	1.0505182097167
-0.176778979608378	-0.867745421527022
-0.176778979608378	-0.244970130869862
-0.176778979608378	0.119955367825943
-0.176778979608378	-0.925965896147022
-0.176778979608378	0.304097529065994
-0.176778979608378	0.390256444803078
-0.176778979608378	-1.5444793615495
-0.176778979608378	0.431301780285029
-0.176778979608378	-0.0824110149575185
-0.176778979608378	-0.00955007442394551
-0.176778979608378	1.21988148204812
-0.176778979608378	0.622492728153081
-0.176778979608378	-0.802135942887295
-0.176778979608378	0.173407697231369
-0.176778979608378	-0.55114925217192
-0.176778979608378	-0.375918807843286
-0.176778979608378	-0.926607788225437
-0.176778979608378	-0.260552684402867
-0.176778979608378	-0.143190018063978
-0.176778979608378	-0.16330566049923
-0.176778979608378	0.150664302560584
-0.176778979608378	0.411512712059504
-0.176778979608378	-0.180736383544086
-0.176778979608378	-0.315769498221933
-0.176778979608378	0.661469181912051
-0.176778979608378	-0.688858610871578
-0.176778979608378	0.302424982135816
-0.176778979608378	0.115129012436578
-0.176778979608378	-0.217209575625084
-0.176778979608378	-1.09181618618888
-0.176778979608378	-0.610507318742303
-0.176778979608378	0.0640834297512403
-0.176778979608378	-0.715979135861105
-0.176778979608378	-0.0714672044394105
-0.176778979608378	-0.0615269715449307
-0.176778979608378	-1.04461126697014
-0.176778979608378	-0.722565081476257
-0.176778979608378	0.454648938013655
-0.176778979608378	0.335320483116567
-0.176778979608378	-0.365065765703668
-0.176778979608378	-1.18631739680598
-0.176778979608378	0.973046428253158
-0.176778979608378	-0.757189108628558
-0.176778979608378	-0.118112096823641
-0.176778979608378	0.303689685667459
-0.176778979608378	0.125835235444356
-0.176778979608378	0.419909364359001
-0.176778979608378	-0.896528591665441
-0.176778979608378	-0.25200562893299
-0.176778979608378	-1.22549371365194
-0.176778979608378	-0.359079277890946
-0.176778979608378	-0.307634049434832
-0.176778979608378	-0.324353580175211
-0.176778979608378	-0.866090190189628
-0.176778979608378	1.50800507000739
-0.176778979608378	0.782263351995398
-0.176778979608378	0.417407519916817
-0.176778979608378	0.389704115136679
-0.176778979608378	0.983770230751882
-0.176778979608378	0.745873639571601
-0.176778979608378	-1.14373940849592
-0.176778979608378	0.598380855297335
-0.176778979608378	-2.28102513502618
-0.176778979608378	0.0377382289607653
-0.176778979608378	-0.359127820735716
-0.176778979608378	0.0203609263647289
-0.176778979608378	0.0222420624456638
-0.176778979608378	0.412158096412944
-0.176778979608378	-0.238794678039744
-0.176778979608378	0.751088250696443
-0.176778979608378	0.317940015880642
-0.176778979608378	-0.0995476257616597
-0.176778979608378	0.317574701409661
-0.176778979608378	-1.13198592598445
-0.176778979608378	-0.690020878599284
-0.176778979608378	0.134201820610813
-0.176778979608378	0.707934566225711
-0.176778979608378	-0.745852988161734
-0.176778979608378	-0.385510872696503
-0.176778979608378	0.160752719713304
-0.176778979608378	0.434432886203541
-0.176778979608378	-0.711979622445104
-0.176778979608378	0.161179544433636
-0.176778979608378	-0.678251192321365
-0.176778979608378	1.22034984933643
-0.176778979608378	1.0076478845939
-0.176778979608378	0.322622635297662
-0.176778979608378	0.580831211674624
-0.176778979608378	-0.364228098058662
-0.176778979608378	-0.0552824082028567
-0.176778979608378	0.138823909789094
-0.176778979608378	0.699009913353554
-0.176778979608378	-0.178371817333151
-0.176778979608378	0.932427637936773
-0.176778979608378	0.297121861677262
-0.176778979608378	-0.913312531602603
-0.176778979608378	-0.0847042257663978
-0.176778979608378	-0.0227721803665687
-0.176778979608378	0.504543237652312
-0.176778979608378	-0.745572967218115
-0.176778979608378	0.990472273583166
-0.176778979608378	0.97056362725242
-0.176778979608378	-0.261592341422093
-0.176778979608378	0.625731130985585
-0.176778979608378	-0.468748077033689
-0.176778979608378	-0.401472477667742
-0.176778979608378	0.140224015266585
-0.176778979608378	-0.382464084714097
-0.176778979608378	0.894197487506799
-0.176778979608378	-0.255590347418002
-0.176778979608378	1.23604267106006
-0.176778979608378	-0.568304093447304
-0.176778979608378	-1.29609511662987
-0.176778979608378	-0.326119419568827
-0.176778979608378	-0.0499348290067255
-0.176778979608378	0.0464187062035297
-0.176778979608378	1.20501749137122
-0.176778979608378	0.128347726281085
-0.176778979608378	0.633457523396888
-0.176778979608378	-0.681447625790039
-0.176778979608378	-0.084102230658502
-0.176778979608378	0.243611724250389
-0.176778979608378	-0.227085672747019
-0.176778979608378	-0.892789770129353
-0.176778979608378	-0.420350300197283
-0.176778979608378	0.0599044125846926
-0.176778979608378	-0.789426789708843
-0.176778979608378	0.537623684017523
-0.176778979608378	-1.48668725697672
-0.176778979608378	0.375637861703228
-0.176778979608378	-0.428688556957796
-0.176778979608378	-0.382226264896564
-0.176778979608378	0.254107272928353
-0.176778979608378	-0.74011602611825
-0.176778979608378	-0.149816159492759
-0.176778979608378	0.762246676414444
-0.176778979608378	-0.929067710853313
-0.176778979608378	-0.44706906139122
-0.176778979608378	-2.13833331016756
-0.176778979608378	1.26385912732363
-0.176778979608378	-0.829073981841555
-0.176778979608378	-0.981725379844526
-0.176778979608378	-0.887886692410279
-0.176778979608378	0.202720104962737
-0.176778979608378	-0.67284016413475
-0.176778979608378	0.426852140608967
-0.176778979608378	-0.980214680241136
-0.176778979608378	-1.11580061867455
-0.176778979608378	-0.0354523740092758
-0.176778979608378	0.299501592967492
-0.176778979608378	-0.0510457505999398
-0.176778979608378	0.805818563442994
-0.176778979608378	-0.583523462633146
-0.176778979608378	-0.916476675907079
-0.176778979608378	-0.938925448305735
-0.176778979608378	-0.203599218425498
-0.176778979608378	-0.529551880180512
-0.176778979608378	-1.37904923736949
-0.176778979608378	-0.455371978398865
-0.176778979608378	0.0760203423603736
-0.176778979608378	-1.15488078263369
-0.176778979608378	0.704713948296288
-0.176778979608378	-0.628692225398815
-0.176778979608378	0.682052971102381
-0.176778979608378	-0.877568343636949
-0.176778979608378	0.458685456092136
-0.176778979608378	-0.502984834058194
-0.176778979608378	-0.927048996914194
-0.176778979608378	-0.114627658678795
-0.176778979608378	0.58993049619159
-0.176778979608378	0.217566928160475
-0.176778979608378	1.0475686775798
-0.176778979608378	-0.851309781683392
-0.176778979608378	-0.370731296474104
-0.176778979608378	-0.794990682870177
-0.176778979608378	-0.393494778378572
-0.176778979608378	0.381720213438992
-0.176778979608378	0.428470417082788
-0.176778979608378	0.796374296149594
-0.176778979608378	0.401234234377483
-0.176778979608378	0.596032002914355
-0.176778979608378	0.23357004169884
-0.176778979608378	-0.970216147311446
-0.176778979608378	-0.952847071047632
-0.176778979608378	0.150561559054366
-0.176778979608378	-0.0212551886619368
-0.176778979608378	-0.34736637373258
-0.176778979608378	-0.811160908365927
-0.176778979608378	0.949081234080517
-0.176778979608378	-0.686360150743191
-0.176778979608378	-1.09858573029656
-0.176778979608378	-0.261479329551092
-0.176778979608378	-0.48494382661492
-0.176778979608378	0.270508243319445
-0.176778979608378	-0.67410859053712
-0.176778979608378	0.295303114871396
-0.176778979608378	0.145540875318321
-0.176778979608378	0.358289998322285
-0.176778979608378	-0.867374327791995
-0.176778979608378	-1.15190349222808
-0.176778979608378	-1.38706371451252
-0.176778979608378	-0.0103927073312711
-0.176778979608378	-1.11338966113426
-0.176778979608378	0.781344673757083
-0.176778979608378	0.558079382129024
-0.176778979608378	0.2266215386757
-0.176778979608378	0.235323691534443
-0.176778979608378	2.12811710763402
-0.176778979608378	-0.00745584989483139
-0.176778979608378	0.322984482766729
-0.176778979608378	0.180616253300857
-0.176778979608378	-0.413538881721396
-0.176778979608378	-0.771157076199436
-0.176778979608378	-0.870751724661158
-0.176778979608378	-0.955239864398898
-0.176778979608378	-1.00417771024484
-0.176778979608378	-0.230096672586474
-0.176778979608378	-1.19132434978851
-0.176778979608378	0.123857593350775
-0.176778979608378	-1.43667968810384
-0.176778979608378	-0.474545732178631
-0.176778979608378	-1.30027518742278
-0.176778979608378	-0.361216374823167
-0.176778979608378	-0.877176135358396
-0.176778979608378	-0.175525471635283
-0.176778979608378	0.735202517363635
-0.176778979608378	-0.0893736499467488
-0.176778979608378	0.833100276738004
-0.176778979608378	-0.500857329106642
-0.176778979608378	-0.394616528524322
-0.176778979608378	-1.13527448085206
-0.176778979608378	-0.0803892400117261
-0.176778979608378	1.55874479318143
-0.176778979608378	-0.663581109860942
-0.176778979608378	1.0062372168928
-0.176778979608378	-0.475077523667023
-0.176778979608378	-0.72793647881732
-0.176778979608378	-0.176861368529709
-0.176778979608378	-0.118821943622356
-0.176778979608378	0.348711426748607
-0.176778979608378	0.0641605121814683
-0.176778979608378	0.226254118901858
-0.176778979608378	-0.588442025659962
-0.176778979608378	-0.0937126462651962
-0.176778979608378	0.291436278506377
-0.176778979608378	-1.26466160260479
-0.176778979608378	0.0729779926245527
-0.176778979608378	-0.0861689118918147
-0.176778979608378	0.414743538645707
-0.176778979608378	0.713991932233206
-0.176778979608378	-0.033852993111491
-0.176778979608378	-0.464702839441961
-0.176778979608378	-0.925321756399244
-0.176778979608378	-0.303227221239906
-0.176778979608378	0.858248704132172
-0.176778979608378	0.119338699327626
-0.176778979608378	-0.871386497282558
-0.176778979608378	-0.0936400675608525
-0.176778979608378	0.0500387716760597
-0.176778979608378	-0.336309031285542
-0.176778979608378	-2.43096131241633
-0.176778979608378	-0.351636204241937
-0.176778979608378	-0.27800429991979
-0.176778979608378	0.0485779548984722
-0.176778979608378	1.08799888829187
-0.176778979608378	-0.135735940863589
-0.176778979608378	1.37025250690236
-0.176778979608378	0.980985654362273
-0.176778979608378	-0.107883707635774
-0.176778979608378	0.398589333337566
-0.176778979608378	-0.87996360399884
-0.176778979608378	0.125751467995451
-0.176778979608378	-1.25247929250679
-0.176778979608378	-0.460633509962558
-0.176778979608378	-0.147257626592028
-0.176778979608378	-0.596619586310708
-0.176778979608378	0.596478465717724
-0.176778979608378	-0.695894905008157
-0.176778979608378	-0.425105853359704
-0.176778979608378	1.1956080312997
-0.176778979608378	0.755969802974718
-0.176778979608378	-0.238312811741678
-0.176778979608378	0.297192926234233
-0.176778979608378	0.290275977843291
-0.176778979608378	-0.234435928189406
-0.176778979608378	-0.0977955021829211
-0.176778979608378	1.73922244992482
-0.176778979608378	0.705239165273555
-0.176778979608378	0.0608818882289053
-0.176778979608378	-1.11186896095687
-0.176778979608378	-0.806712457135982
-0.176778979608378	1.40707818158566
-0.176778979608378	-0.242891631593407
-0.176778979608378	0.71747893410295
-0.176778979608378	0.161684783206631
-0.176778979608378	-0.835717600291465
-0.176778979608378	-0.35596497476272
-0.176778979608378	0.95034641899389
-0.176778979608378	-0.509866600235961
-0.176778979608378	-0.382881835494361
-0.176778979608378	-2.51072173701644
-0.176778979608378	-0.464471254321402
-0.176778979608378	-1.0623185245707
-0.176778979608378	-0.0454627488058621
-0.176778979608378	0.192533238353212
-0.176778979608378	-0.0546409677169422
-0.176778979608378	-0.539303290474773
-0.176778979608378	0.207186299828849
-0.176778979608378	-0.669660306944192
-0.176778979608378	1.79099350656191
-0.176778979608378	0.497280999967205
-0.176778979608378	-0.866364156144286
-0.176778979608378	-1.0087055583249
-0.176778979608378	0.869991799407412
-0.176778979608378	0.0993775873725994
-0.176778979608378	-1.06072014082065
-0.176778979608378	-0.432406286726157
-0.176778979608378	-0.177754779350112
-0.176778979608378	0.882177896127944
-0.176778979608378	-0.128859827000209
-0.176778979608378	-0.734131763705038
-0.176778979608378	-0.0974545201813855
-0.176778979608378	0.116338071954565
-0.176778979608378	-0.126768085641339
-0.176778979608378	0.825084865333254
-0.176778979608378	0.247435937422138
-0.176778979608378	0.50292726236766
-0.176778979608378	0.88322548706453
-0.176778979608378	-0.349166671387581
-0.176778979608378	0.107624715575898
-0.176778979608378	1.59311671296508
-0.176778979608378	-0.398756786619546
-0.176778979608378	0.395325480284037
-0.176778979608378	-0.108743220118607
-0.176778979608378	0.328660566724743
-0.176778979608378	0.759649767367551
-0.176778979608378	-1.07338341397772
-0.176778979608378	0.982393977049726
-0.176778979608378	-0.131462808259351
-0.176778979608378	0.120658883882892
-0.176778979608378	-0.805401345055798
-0.176778979608378	-0.297014637055482
-0.176778979608378	0.158985000175882
-0.176778979608378	0.51446647432114
-0.176778979608378	-0.326776075708155
-0.176778979608378	-0.323675704489237
-0.176778979608378	-0.703624780560512
-0.176778979608378	-0.444593221742715
-0.176778979608378	-0.0917287683051269
-0.176778979608378	-0.00194531071187343
-0.176778979608378	1.20841159091404
-0.176778979608378	1.56981778568958
-0.176778979608378	0.533142064251012
-0.176778979608378	-0.617114450475593
-0.176778979608378	-0.374979909164929
-0.176778979608378	1.22997591980504
-0.176778979608378	-0.562537488678934
-0.176778979608378	-1.23848251368324
-0.176778979608378	-0.238866019693897
-0.176778979608378	-0.707771371152616
-0.176778979608378	-0.181300579038481
-0.176778979608378	0.516298962414904
-0.176778979608378	0.179271393167444
-0.176778979608378	-8.83230783386146e-05
-0.176778979608378	0.837976411990982
-0.176778979608378	-0.0393153104431692
-0.176778979608378	0.63487211761027
-0.176778979608378	0.430883994999003
-0.176778979608378	-0.239905709948905
-0.176778979608378	0.449148970224152
-0.176778979608378	-0.0152831701281382
-0.176778979608378	-1.14525127971218
-0.176778979608378	0.679744282327863
-0.176778979608378	-0.414015808713371
-0.176778979608378	-0.226880580362412
-0.176778979608378	1.02412628089999
-0.176778979608378	-0.427219916445895
-0.176778979608378	0.707330840975488
-0.176778979608378	-0.427369901491543
-0.176778979608378	-0.0811372234855065
-0.176778979608378	-0.70528403680935
-0.176778979608378	-0.690599927640764
-0.176778979608378	0.530333071168472
-0.176778979608378	0.370208754463435
-0.176778979608378	0.0533158005764935
-0.176778979608378	-0.592377738018733
-0.176778979608378	0.242299485859523
-0.176778979608378	-0.554852195903191
-0.176778979608378	0.440223847120832
-0.176778979608378	-0.322189753426284
-0.176778979608378	0.747282350650222
-0.176778979608378	0.168778683770725
-0.176778979608378	-0.612084453119107
-0.176778979608378	-0.238833740958335
-0.176778979608378	-0.300321251353322
-0.176778979608378	-0.415390696220437
-0.176778979608378	0.431309235816013
-0.176778979608378	-1.14353710072141
-0.176778979608378	-0.913679063026927
-0.176778979608378	0.35440574034299
-0.176778979608378	-0.448448402937478
-0.176778979608378	-0.54590854277253
-0.176778979608378	-0.171837426537451
-0.176778979608378	-0.535700065730253
-0.176778979608378	0.335021739632017
-0.176778979608378	1.1239347913803
-0.176778979608378	-0.00196922267018707
-0.176778979608378	-0.286407941848605
-0.176778979608378	-1.18007463053119
-0.176778979608378	1.30021899126029
-0.176778979608378	0.25616443202166
-0.176778979608378	-0.01620026939988
-0.176778979608378	-0.316818671639257
-0.176778979608378	-0.387398716819586
-0.176778979608378	-0.748083884201234
-0.176778979608378	-0.220012421246273
-0.176778979608378	-0.309401673941334
-0.176778979608378	0.642906053756526
-0.176778979608378	-0.645297419699247
-0.176778979608378	1.07208557536405
-0.176778979608378	-0.938225305088986
-0.176778979608378	1.24261677350609
-0.176778979608378	-0.094294925519963
-0.176778979608378	1.65060336556597
-0.176778979608378	0.0111044398129642
-0.176778979608378	0.964144825146065
-0.176778979608378	-1.12750575373707
-0.176778979608378	-0.69028316266134
-0.176778979608378	0.761070275773158
-0.176778979608378	0.288118168286585
-0.176778979608378	-0.079158861547084
-0.176778979608378	-0.0572467485018275
-0.176778979608378	-0.0747490254922747
-0.176778979608378	-0.116595066548302
-0.176778979608378	-0.134055896190082
-0.176778979608378	-0.846288517846536
-0.176778979608378	-0.0147041267464707
-0.176778979608378	-0.889822447901833
-0.176778979608378	-0.370873884041178
-0.176778979608378	-0.899751889793861
-0.176778979608378	0.526007760224692
-0.176778979608378	-0.599324316215012
-0.176778979608378	-0.227759571046656
-0.176778979608378	-0.481944793969655
-0.176778979608378	0.476985616380138
-0.176778979608378	0.350673921135802
-0.176778979608378	-0.291632596623211
-0.176778979608378	-0.47821716793704
-0.176778979608378	-0.289249469694918
-0.176778979608378	-0.832724257499946
-0.176778979608378	-0.679168908498542
-0.176778979608378	0.315886001176007
-0.176778979608378	0.442619450912087
-0.176778979608378	0.504285985921481
-0.176778979608378	0.0124865391967177
-0.176778979608378	0.0304214672050808
-0.176778979608378	-0.230209536014181
-0.176778979608378	-0.246064486879143
-0.176778979608378	-0.0197686850991974
-0.176778979608378	-0.24939120314054
-0.176778979608378	-0.387036159711478
-0.176778979608378	-0.230172203063333
-0.176778979608378	-0.469912795099106
-0.176778979608378	-0.100156376352485
-0.176778979608378	0.169358441056575
-0.176778979608378	-0.475187433155267
-0.176778979608378	-0.596809136854546
-0.176778979608378	0.613951623480193
-0.176778979608378	-0.23106560303421
-0.176778979608378	0.636469676878761
-0.176778979608378	0.109981033507003
-0.176778979608378	0.683402096422574
-0.176778979608378	-0.631565443173665
-0.176778979608378	-1.23730224557894
-0.176778979608378	-0.716812156360003
-0.176778979608378	-0.1649777305951
-0.176778979608378	-0.786581378635063
-0.176778979608378	0.0769374390010716
-0.176778979608378	0.278818044851851
-0.176778979608378	-0.696785489210662
-0.176778979608378	1.04988918181599
-0.176778979608378	0.405200714368569
-0.176778979608378	0.243488006479285
-0.176778979608378	-0.62695899530311
-0.176778979608378	-0.264285897788997
-0.176778979608378	0.601002190291954
-0.176778979608378	-0.029193016458684
-0.176778979608378	0.505062158236947
-0.176778979608378	-0.776648275754012
-0.176778979608378	0.650552549540401
-0.176778979608378	-1.15012965190249
-0.176778979608378	0.639601737013844
-0.176778979608378	-0.156124705979563
-0.176778979608378	0.0970843423003542
-0.176778979608378	-0.626177775083727
-0.176778979608378	0.266040573256107
-0.176778979608378	-1.23615987082175
-0.176778979608378	-0.45245161726681
-0.176778979608378	-1.08702965096595
-0.176778979608378	0.391195109892213
-0.176778979608378	0.829074604666431
-0.176778979608378	-0.254382498883214
-0.176778979608378	-1.28603129581886
-0.176778979608378	0.54825899849886
-0.176778979608378	-0.408636341749047
-0.176778979608378	-0.701969511246925
-0.176778979608378	0.281603955594932
-0.176778979608378	-0.135147200413773
-0.176778979608378	-1.15245630460933
-0.176778979608378	0.74112546139767
-0.176778979608378	1.29612595420448
-0.176778979608378	-0.276700665638604
-0.176778979608378	0.354361726990394
-0.176778979608378	-0.169889205660141
-0.176778979608378	-0.68138766327505
-0.176778979608378	0.189418743124364
-0.176778979608378	-0.946141411884358
-0.176778979608378	0.450122581886289
-0.176778979608378	0.315480454501937
-0.176778979608378	0.416572187685078
-0.176778979608378	1.2780060463169
-0.176778979608378	-2.03587019133323
-0.176778979608378	0.595183782010477
-0.176778979608378	0.224754688833599
-0.176778979608378	0.369649686628763
-0.176778979608378	-0.912153268149169
-0.176778979608378	-0.352127397269369
-0.176778979608378	0.686151682906138
-0.176778979608378	0.352113494457836
-0.176778979608378	-0.755066278589855
-0.176778979608378	0.316187991132674
-0.176778979608378	0.271434746831343
-0.176778979608378	-0.955135925535755
-0.176778979608378	-0.128418245225726
-0.176778979608378	0.282740291884498
-0.176778979608378	-0.283401699603788
-0.176778979608378	-0.287485191908951
-0.176778979608378	-0.418560942242678
-0.176778979608378	-1.04480153617417
-0.176778979608378	0.843544111780616
-0.176778979608378	-1.25034200173554
-0.176778979608378	0.447308682116488
-0.176778979608378	0.562053545585364
-0.176778979608378	-0.553794456475138
-0.176778979608378	-1.61065109780596
-0.176778979608378	-0.00582341332954717
-0.176778979608378	0.474024778943705
-0.176778979608378	-0.219797545337606
-0.176778979608378	0.739382144157954
-0.176778979608378	-0.554260164637434
-0.176778979608378	0.749112014664854
-0.176778979608378	-0.821781593576558
-0.176778979608378	0.0303723980662449
-0.176778979608378	0.218190787551409
-0.176778979608378	0.0884058794589032
-0.176778979608378	0.391130408943915
-0.176778979608378	-0.125768475030217
-0.176778979608378	0.467010969115057
-0.176778979608378	1.03092513323497
-0.176778979608378	-1.03554191655806
-0.176778979608378	-0.615621244600981
-0.176778979608378	0.171154170247809
-0.176778979608378	1.31741734480425
-0.176778979608378	-0.306682814841994
-0.176778979608378	-0.913455740080301
-0.176778979608378	0.827813517492092
-0.176778979608378	0.576338639534405
-0.176778979608378	-0.651827464782035
-0.176778979608378	0.170979267289186
-0.176778979608378	0.118840528276802
-0.176778979608378	0.69446516062624
-0.176778979608378	0.180014275010551
-0.176778979608378	-0.585663926281054
-0.176778979608378	0.103614784761958
-0.176778979608378	-0.581353356983313
-0.176778979608378	-0.559376947922643
-0.176778979608378	-0.227469289531341
-0.176778979608378	-0.506376755282704
-0.176778979608378	0.722453354268335
-0.176778979608378	0.130889795179891
-0.176778979608378	-0.191795364482695
-0.176778979608378	0.342013389980657
-0.176778979608378	0.296530065747097
-0.176778979608378	-0.758844964490579
-0.176778979608378	-1.08995175574623
-0.176778979608378	0.403025362708744
-0.176778979608378	-0.778403608175586
-0.176778979608378	0.320137578070783
-0.176778979608378	-0.72976570788291
-0.176778979608378	-0.569547000121932
-0.176778979608378	0.12875311100225
-0.176778979608378	-0.216252562431886
-0.176778979608378	1.23477866658261
-0.176778979608378	0.455946838666072
-0.176778979608378	-0.72217412365659
-0.176778979608378	-1.65746437019698
-0.176778979608378	0.732386588785954
-0.176778979608378	0.376963843154827
-0.176778979608378	-0.00632083701953519
-0.176778979608378	-0.664060391448144
-0.176778979608378	-0.518705889548718
-0.176778979608378	-0.0992494970267787
-0.176778979608378	0.0845268037426036
-0.176778979608378	-0.321515816295451
-0.176778979608378	-0.0123017682907587
-0.176778979608378	-1.08392986973136
-0.176778979608378	0.378275209888989
-0.176778979608378	0.346267510857621
-0.176778979608378	-0.0823610751768765
-0.176778979608378	-1.00526758368892
-0.176778979608378	-0.968825856264808
-0.176778979608378	1.38159973416805
-0.176778979608378	0.0882808707302446
-0.176778979608378	1.7971161957255
-0.176778979608378	-0.605392512917537
-0.176778979608378	-0.201147817269657
-0.176778979608378	-0.653673461815664
-0.176778979608378	-0.0610856601277511
-0.176778979608378	-1.06309801549281
-0.176778979608378	0.0506640324817624
-0.176778979608378	-0.285040720351267
-0.176778979608378	0.824036266176631
-0.176778979608378	0.680472392717601
-0.176778979608378	0.0826536497168883
-0.176778979608378	-0.0791601089763516
-0.176778979608378	1.50473220469362
-0.176778979608378	-0.401248404644927
-0.176778979608378	-0.629038610525703
-0.176778979608378	-0.640064585669606
-0.176778979608378	0.36546370858651
-0.176778979608378	0.319411837668215
-0.176778979608378	-0.745083969305473
-0.176778979608378	2.20715094366372
-0.176778979608378	0.801953770765785
-0.176778979608378	0.0215070221748989
-0.176778979608378	-0.869603547201126
-0.176778979608378	-0.694883295752551
-0.176778979608378	-0.877488961717711
-0.176778979608378	-0.117543558994947
-0.176778979608378	-0.480078977319973
-0.176778979608378	-0.172534000413008
-0.176778979608378	-0.944488070460739
-0.176778979608378	-2.15378837725327
-0.176778979608378	-1.02489086235916
-0.176778979608378	1.15835828143222
-0.176778979608378	-0.223332561336766
-0.176778979608378	0.322270101624407
-0.176778979608378	0.164341208672237
-0.176778979608378	0.442710340690029
-0.176778979608378	0.925673706217755
-0.176778979608378	-0.344848416834171
-0.176778979608378	0.755710564367853
-0.176778979608378	-0.445627232246077
-0.176778979608378	-0.46414108939044
-0.176778979608378	-0.148699236181343
-0.176778979608378	0.177658497771694
-0.176778979608378	0.0106512614104972
-0.176778979608378	0.108954187304593
-0.176778979608378	-0.539373464267918
-0.176778979608378	-0.352911769094027
-0.176778979608378	0.492970333741421
-0.176778979608378	0.0327228955592704
-0.176778979608378	1.01376422510516
-0.176778979608378	-0.67226888392725
-0.176778979608378	1.11615719410734
-0.176778979608378	0.342673943315661
-0.176778979608378	0.616569835462445
-0.176778979608378	-0.660766634783612
-0.176778979608378	-0.107954609324858
-0.176778979608378	0.226775265683354
-0.176778979608378	0.215349405618632
-0.176778979608378	0.467666073637402
-0.176778979608378	-0.931334131684813
-0.176778979608378	0.166847257044503
-0.176778979608378	0.234631679287681
-0.176778979608378	-0.556951273726572
-0.176778979608378	0.825416626551749
-0.176778979608378	-0.353677418699271
-0.176778979608378	-0.113968198837411
-0.176778979608378	-0.210323750501752
-0.176778979608378	-0.394093380494633
-0.176778979608378	0.416759190899324
-0.176778979608378	0.18611999716958
-0.176778979608378	-0.817926129170614
-0.176778979608378	0.768741399610186
-0.176778979608378	0.744311711104787
-0.176778979608378	1.25130892675478
-0.176778979608378	0.498120348943645
-0.176778979608378	-0.911041487597859
-0.176778979608378	-0.522391877906529
-0.176778979608378	-1.14400329616067
-0.176778979608378	0.936509544796179
-0.176778979608378	1.37162723913575
-0.176778979608378	-0.061593686354398
-0.176778979608378	-0.111072595605235
-0.176778979608378	0.776323360458753
-0.176778979608378	0.420653892486613
-0.176778979608378	-0.308833481013712
-0.176778979608378	-0.496710311421551
-0.176778979608378	-1.44285187804729
-0.176778979608378	-0.8830629976597
-0.176778979608378	-1.32604182940026
-0.176778979608378	-0.819623339175187
-0.176778979608378	-0.285368802168091
-0.176778979608378	-0.496118065741189
-0.176778979608378	0.366007227085855
-0.176778979608378	-0.473234210766901
-0.176778979608378	-0.411850541462839
-0.176778979608378	-0.768498191247986
-0.176778979608378	-0.285419544697138
-0.176778979608378	0.703591150361534
-0.176778979608378	0.000614166451050613
-0.176778979608378	-0.969761838836234
-0.176778979608378	-0.174499120497915
-0.176778979608378	-0.199806823261966
-0.176778979608378	-1.15622380138675
-0.176778979608378	-0.041051656437868
-0.176778979608378	-0.0722759285200312
-0.176778979608378	-1.44843678337016
-0.176778979608378	0.620445510168644
-0.176778979608378	-0.324886191968847
-0.176778979608378	0.567400101478083
-0.176778979608378	-0.482949487511663
-0.176778979608378	-1.10577708474001
-0.176778979608378	0.209066620081618
-0.176778979608378	-0.3026362660991
-0.176778979608378	0.323392057256249
-0.176778979608378	-0.0332819721039999
-0.176778979608378	-0.820748386580197
-0.176778979608378	-0.368118304111883
-0.176778979608378	1.49549559056926
-0.176778979608378	-1.73167444934997
-0.176778979608378	-0.159614276139419
-0.176778979608378	0.408850052156761
-0.176778979608378	-0.420414424042903
-0.176778979608378	-0.628996777863655
-0.176778979608378	0.730754173804733
-0.176778979608378	-0.875839839110134
-0.176778979608378	0.582642923682079
-0.176778979608378	-0.897988026357262
-0.176778979608378	0.444856937098096
-0.176778979608378	-0.524965382205135
-0.176778979608378	-0.653059627657703
-0.176778979608378	-0.776129715752352
-0.176778979608378	0.35773887345998
-0.176778979608378	-1.50208067349543
-0.176778979608378	0.040746603726334
-0.176778979608378	0.224257771173959
-0.176778979608378	0.161971709958722
-0.176778979608378	-0.278561055033155
-0.176778979608378	0.36867983463695
-0.176778979608378	-0.504993738746432
-0.176778979608378	0.757637663014647
-0.176778979608378	-0.474647142739413
-0.176778979608378	-1.28397734665699
-0.176778979608378	0.340510785655616
-0.176778979608378	-1.10684720568998
-0.176778979608378	-0.772710433629519
-0.176778979608378	-1.03081108562151
-0.176778979608378	-0.206653778648484
-0.176778979608378	0.701005603394103
-0.176778979608378	-0.895718203746205
-0.176778979608378	0.63523934016563
-0.176778979608378	0.147558103172782
-0.176778979608378	-0.245479208754634
-0.176778979608378	0.504884444575536
-0.176778979608378	1.82146011332659
-0.176778979608378	0.213456737676832
-0.176778979608378	0.278373388643695
-0.176778979608378	0.097479834884208
-0.176778979608378	0.300077552849242
-0.176778979608378	0.817183026408494
-0.176778979608378	-1.49108665894517
-0.176778979608378	-0.29887545847134
-0.176778979608378	-0.447395427144923
-0.176778979608378	0.729622686932182
-0.176778979608378	0.229854968327988
-0.176778979608378	-0.317487343999823
-0.176778979608378	1.63617613485836
-0.176778979608378	-0.361630065772798
-0.176778979608378	-0.853642362825908
-0.176778979608378	0.0943604364404573
-0.176778979608378	-0.225514954301377
-0.176778979608378	-0.652064923102178
-0.176778979608378	-1.19609349898025
-0.176778979608378	0.749075998065208
-0.176778979608378	-0.432905032996021
-0.176778979608378	0.365966115266046
-0.176778979608378	-0.906720243220109
-0.176778979608378	0.969468769630226
-0.176778979608378	-0.15530308615476
-0.176778979608378	0.138258890204791
-0.176778979608378	0.533621000277232
-0.176778979608378	-0.273633266016993
-0.176778979608378	1.10484468395873
-0.176778979608378	-0.0977614903677498
-0.176778979608378	0.857190551245931
-0.176778979608378	-0.399288194973821
-0.176778979608378	0.135733244810841
-0.176778979608378	0.0828792311016244
-0.176778979608378	-0.173814333540618
-0.176778979608378	0.684852045453902
-0.176778979608378	0.434022129796776
-0.176778979608378	-0.0171657195576345
-0.176778979608378	-0.850125583426826
-0.176778979608378	-0.271061590509861
-0.176778979608378	0.0711122734848964
-0.176778979608378	-1.39563326247612
-0.176778979608378	0.683959241733246
-0.176778979608378	1.38200822199798
-0.176778979608378	-1.77375069899701
-0.176778979608378	0.074540709408111
-0.176778979608378	1.04401658604923
-0.176778979608378	-0.392495958751545
-0.176778979608378	-0.965947111762084
-0.176778979608378	1.07640386353724
-0.176778979608378	-0.64596069737954
-0.176778979608378	-0.123340121205273
-0.176778979608378	0.405214800307969
-0.176778979608378	0.234633433661328
-0.176778979608378	-0.742480905839209
-0.176778979608378	-0.463183626322537
-0.176778979608378	-0.681471220991474
-0.176778979608378	-0.104460176480017
-0.176778979608378	-1.551121929096
-0.176778979608378	-1.35324220562937
-0.176778979608378	-0.187815940067647
-0.176778979608378	-0.397242123360785
-0.176778979608378	-1.07944564551124
-0.176778979608378	-0.185792743483785
-0.176778979608378	1.06609603397851
-0.176778979608378	-0.299234437223349
-0.176778979608378	0.0301052324120306
-0.176778979608378	-0.0838278569667824
-0.176778979608378	0.561912063674631
-0.176778979608378	0.425811904852615
-0.176778979608378	1.25337971510947
-0.176778979608378	-1.62427861414415
-0.176778979608378	-0.273191071064453
-0.176778979608378	0.136898246148646
-0.176778979608378	0.241742679701485
-0.176778979608378	0.259614540931467
-0.176778979608378	0.489478803776462
-0.176778979608378	-1.27143546139097
-0.176778979608378	-0.814249899680943
-0.176778979608378	-0.290981218266194
-0.176778979608378	-0.49714330933271
-0.176778979608378	-0.793923464169357
-0.176778979608378	-0.20598537954648
-0.176778979608378	-0.171613862729643
-0.176778979608378	0.81522026649438
-0.176778979608378	-0.379889490602375
-0.176778979608378	-0.123130388660581
-0.176778979608378	-0.480484620642475
-0.176778979608378	0.251375370771915
-0.176778979608378	0.174885511160057
-0.176778979608378	-1.15986769444187
-0.176778979608378	-0.585688257231819
-0.176778979608378	-0.811415525145802
-0.176778979608378	-0.3219672327477
-0.176778979608378	0.28784789331416
-0.176778979608378	-0.524116592578976
-0.176778979608378	0.427935870071756
-0.176778979608378	0.23390242534885
-0.176778979608378	0.778151244390974
-0.176778979608378	-0.323237359584483
-0.176778979608378	0.670252843098714
-0.176778979608378	-0.870392361609917
-0.176778979608378	0.168872844954945
-0.176778979608378	-0.0522292803059043
-0.176778979608378	0.928914651994405
-0.176778979608378	0.871058135616751
-0.176778979608378	-0.417324641024259
-0.176778979608378	0.726449132920937
-0.176778979608378	1.21324451661952
-0.176778979608378	0.380710523174009
-0.176778979608378	1.16707763521632
-0.176778979608378	-0.389549786901556
-0.176778979608378	-0.281822160018362
-0.176778979608378	0.220035644381649
-0.176778979608378	0.199846561917224
-0.176778979608378	0.507804753611555
-0.176778979608378	-0.373170427596211
-0.176778979608378	-0.340218724379975
-0.176778979608378	0.00682038202569046
-0.176778979608378	-1.47494244363217
-0.176778979608378	0.488589696350312
-0.176778979608378	0.855106630341858
-0.176778979608378	-0.552170642214396
-0.176778979608378	-0.362630555459104
-0.176778979608378	0.107081900994435
-0.176778979608378	-0.34807021610068
-0.176778979608378	-0.595672561888574
-0.176778979608378	-1.02906537847567
-0.176778979608378	-0.902593975612266
-0.176778979608378	-0.00807385197698296
-0.176778979608378	-0.743546219705111
-0.176778979608378	0.143098013583813
-0.176778979608378	0.492886747142122
-0.176778979608378	0.471287257322486
-0.176778979608378	-0.156874319186318
-0.176778979608378	-0.740612820327229
-0.176778979608378	-0.444823289689703
-0.176778979608378	0.428440973740301
-0.176778979608378	0.673999215600211
-0.176778979608378	0.110885780300241
-0.176778979608378	-1.08065301919189
-0.176778979608378	0.73007903322173
-0.176778979608378	0.383927350245709
-0.176778979608378	-1.23736880027001
-0.176778979608378	0.268489072420588
-0.176778979608378	-0.0600439758072004
-0.176778979608378	-1.05480932883668
-0.176778979608378	-0.433248691696535
-0.176778979608378	0.0494136511134426
-0.176778979608378	-0.114312108290572
-0.176778979608378	0.154063249052025
-0.176778979608378	0.62611988679494
-0.176778979608378	0.238240758510074
-0.176778979608378	-0.520580070908165
-0.176778979608378	-0.421073506121186
-0.176778979608378	-0.774247391695314
-0.176778979608378	0.119474492271791
-0.176778979608378	-0.460057463626829
-0.176778979608378	0.37961317843774
-0.176778979608378	-0.980295000611834
-0.176778979608378	0.213504954422117
-0.176778979608378	-0.613781866039732
-0.176778979608378	-0.705028587349222
-0.176778979608378	1.13175300382073
-0.176778979608378	1.57850614236901
-0.176778979608378	1.46288850979725
-0.176778979608378	0.730622760722373
-0.176778979608378	-0.513800789915557
-0.176778979608378	0.0568335589428703
-0.176778979608378	0.634742260660944
-0.176778979608378	1.26006671712259
-0.176778979608378	0.521777807018574
-0.176778979608378	-0.434031805042722
-0.176778979608378	-0.334611584571648
-0.176778979608378	0.686518747380594
-0.176778979608378	-1.25934540627251
-0.176778979608378	-0.0415224407704724
-0.176778979608378	1.09839981194058
-0.176778979608378	0.372008686256809
-0.176778979608378	-0.256208831085613
-0.176778979608378	-0.478179381157416
-0.176778979608378	0.755441079332091
-0.176778979608378	1.85244343328882
-0.176778979608378	-0.572425465526284
-0.176778979608378	-1.11496969005719
-0.176778979608378	-0.816745541187284
-0.176778979608378	0.137134869341275
-0.176778979608378	0.919324304126378
-0.176778979608378	-1.1215550742023
-0.176778979608378	0.0821322752882061
-0.176778979608378	0.297273633409037
-0.176778979608378	-0.399389695819921
-0.176778979608378	-1.4357392656406
-0.176778979608378	-0.722308817749091
-0.176778979608378	0.171818474708327
-0.176778979608378	0.809820902436149
-0.176778979608378	-1.92303513233821
-0.176778979608378	-0.383346124652857
-0.176778979608378	-1.06249808156082
-0.176778979608378	-0.378942005867188
-0.176778979608378	0.0947594354394434
-0.176778979608378	0.364196968175743
-0.176778979608378	0.043337793615691
-0.176778979608378	-0.824980990174012
-0.176778979608378	2.18704457161092
-0.176778979608378	-0.447769693611612
-0.176778979608378	0.894375479218573
-0.176778979608378	-0.267809871358243
-0.176778979608378	-0.732148005208967
-0.176778979608378	-0.135957834725104
-0.176778979608378	-1.0418135109803
-0.176778979608378	-0.519413222539759
-0.176778979608378	0.362636739062573
-0.176778979608378	-0.0319538893651126
-0.176778979608378	-0.433909473556446
-0.176778979608378	1.18307117645882
-0.176778979608378	-0.319096173963077
-0.176778979608378	0.5910623018431
-0.176778979608378	1.57087689068835
-0.176778979608378	-0.524004649272376
-0.176778979608378	-0.291055739079047
-0.176778979608378	0.302535434061435
-0.176778979608378	0.431313857161814
-0.176778979608378	0.0929597281404757
-0.176778979608378	-0.836387447784744
-0.176778979608378	0.47570733622431
-0.176778979608378	-0.0511769823716153
-0.176778979608378	0.083111767335058
-0.176778979608378	-1.25758554600078
-0.176778979608378	-0.757235874176309
-0.176778979608378	-0.00688928884734885
-0.176778979608378	-0.932996262136268
-0.176778979608378	-0.220045877199687
-0.176778979608378	0.689047126354256
-0.176778979608378	0.577724099823199
-0.176778979608378	0.35966655070068
-0.176778979608378	1.07549509555545
-0.176778979608378	-0.309094018723008
-0.176778979608378	-0.907914440144743
-0.176778979608378	1.02530741301129
-0.176778979608378	-0.681694849962027
-0.176778979608378	-1.02269863266783
-0.176778979608378	-0.483481788951092
-0.176778979608378	0.747126444216936
-0.176778979608378	-0.0670052217388824
-0.176778979608378	0.369276513854864
-0.176778979608378	1.14011631888277
-0.176778979608378	-0.973386327724416
-0.176778979608378	0.705063901482883
-0.176778979608378	-1.89820701416929
-0.176778979608378	0.74334230924896
-0.176778979608378	-0.157122164463939
-0.176778979608378	-0.44380398723426
-0.176778979608378	-0.208580708915269
-0.176778979608378	1.77807699188343
-0.176778979608378	-0.810044200310094
-0.176778979608378	0.325877989443966
-0.176778979608378	0.651574461926378
-0.176778979608378	1.20698413532762
-0.176778979608378	0.353279788995216
-0.176778979608378	0.0826002260519474
-0.176778979608378	-0.0784173521696425
-0.176778979608378	0.497977391082748
-0.176778979608378	2.14651333893077
-0.176778979608378	-0.843851304049439
-0.176778979608378	-0.471258533305139
-0.176778979608378	0.014297964037247
-0.176778979608378	-0.466984365534266
-0.176778979608378	1.61847631232148
-0.176778979608378	0.00481065837644512
-0.176778979608378	0.154577700969925
-0.176778979608378	0.935108943126781
-0.176778979608378	-0.238412330425832
-0.176778979608378	-1.325826833211
-0.176778979608378	-1.19993742113198
-0.176778979608378	-0.647541565903449
-0.176778979608378	-0.717605333294722
-0.176778979608378	0.299995611435064
-0.176778979608378	-0.000810326179986554
-0.176778979608378	-0.923574082662296
-0.176778979608378	0.106446516336322
-0.176778979608378	0.0506206119309058
-0.176778979608378	-0.224590120548974
-0.176778979608378	0.733356990484809
-0.176778979608378	-0.388826207405992
-0.176778979608378	-0.658714802909117
-0.176778979608378	0.419072742200046
-0.176778979608378	0.0201618581140584
-0.176778979608378	0.149648438796019
-0.176778979608378	-0.282452435085153
-0.176778979608378	-0.726528675217579
-0.176778979608378	-0.142195084533435
-0.176778979608378	0.184611349329024
-0.176778979608378	0.241470220051091
-0.176778979608378	0.000228095035707643
-0.176778979608378	-0.868340321465681
-0.176778979608378	-0.903840903717139
-0.176778979608378	-0.440365761051178
-0.176778979608378	0.119793093633349
-0.176778979608378	-0.898003548798183
-0.176778979608378	-0.243078155031135
-0.176778979608378	-0.301709732922188
-0.176778979608378	-0.54456427402497
-0.176778979608378	-0.631880785024423
-0.176778979608378	-0.630508082818512
-0.176778979608378	-1.12407191582606
-0.176778979608378	-0.152451160311136
-0.176778979608378	-0.372663535978485
-0.176778979608378	-0.0805381952928182
-0.176778979608378	0.355304046157623
-0.176778979608378	0.574669856928506
-0.176778979608378	-0.0183471157216542
-0.176778979608378	0.555023519117986
-0.176778979608378	-1.93567404853309
-0.176778979608378	0.461355656145115
-0.176778979608378	-0.0477269552711407
-0.176778979608378	0.88716939177135
-0.176778979608378	-0.476466569892016
-0.176778979608378	-0.86238063874203
-0.176778979608378	0.273001360645156
-0.176778979608378	0.870970519390426
-0.176778979608378	-0.27716333813929
-0.176778979608378	-0.94743945270496
-0.176778979608378	-0.888683639192381
-0.176778979608378	-0.291935509749017
-0.176778979608378	1.07107720935098
-0.176778979608378	0.114632293773709
-0.176778979608378	-0.603907241834996
-0.176778979608378	1.02664359225335
-0.176778979608378	-0.514196257970034
-0.176778979608378	-1.63552063842966
-0.176778979608378	-1.22163452874091
-0.176778979608378	1.07400636901461
-0.176778979608378	0.124055017530347
-0.176778979608378	-1.20971906357352
-0.176778979608378	0.0842507405856961
-0.176778979608378	-0.356101825211041
-0.176778979608378	-0.440188839261552
-0.176778979608378	-0.556598801516077
-0.176778979608378	-1.7744706227677
-0.176778979608378	0.45702245609175
-0.176778979608378	-0.236990944337009
-0.176778979608378	-0.484389656211285
-0.176778979608378	0.102839571718099
-0.176778979608378	1.67246987898323
-0.176778979608378	-1.67851034733793
-0.176778979608378	-1.04621003451303
-0.176778979608378	-1.52819123825808
-0.176778979608378	0.211291214694044
-0.176778979608378	-0.662132570247972
-0.176778979608378	0.423995098383678
-0.176778979608378	0.947121813994332
-0.176778979608378	-0.0102949389191099
-0.176778979608378	0.650463135902403
-0.176778979608378	0.618959331983526
-0.176778979608378	0.434939999033121
-0.176778979608378	-0.303044433273413
-0.176778979608378	-1.08680122778099
-0.176778979608378	0.67414652822189
-0.176778979608378	-0.258449317159323
-0.176778979608378	-0.105730661144176
-0.176778979608378	-0.127746777076767
-0.176778979608378	-0.473111903652037
-0.176778979608378	-1.11926249348154
-0.176778979608378	0.0249166461711268
-0.176778979608378	-0.13857121906695
-0.176778979608378	1.03083181421252
-0.176778979608378	-0.354287231019673
-0.176778979608378	1.08433937769647
-0.176778979608378	-0.397892936719938
-0.176778979608378	1.01644483153531
-0.176778979608378	0.807634138411285
-0.176778979608378	0.249587470300314
-0.176778979608378	0.859946106925839
-0.176778979608378	-0.000811830481113329
-0.176778979608378	0.399243511553372
-0.176778979608378	0.0854731200831251
-0.176778979608378	0.376954401606987
-0.176778979608378	0.822932931488751
-0.176778979608378	0.0743469731310986
-0.176778979608378	0.242073713451619
-0.176778979608378	0.332112891824593
-0.176778979608378	0.617093378178664
-0.176778979608378	-0.321190469966251
-0.176778979608378	1.00499040307574
-0.176778979608378	-0.524702938304552
-0.176778979608378	-0.0466721231972295
-0.176778979608378	-0.174571250435995
-0.176778979608378	-0.167771595422365
-0.176778979608378	-1.66648187061183
-0.176778979608378	1.31684630801251
-0.176778979608378	0.666811396196474
-0.176778979608378	-0.815634198746603
-0.176778979608378	-0.949358422568853
-0.176778979608378	-0.208228117326683
-0.176778979608378	-0.0597129937908356
-0.176778979608378	0.479780057258852
-0.176778979608378	0.070670283921385
-0.176778979608378	0.552647843468499
-0.176778979608378	-1.13514838677226
-0.176778979608378	0.0570702210170533
-0.176778979608378	-0.00815739653016545
-0.176778979608378	-0.0263213355306378
-0.176778979608378	0.860664135449228
-0.176778979608378	-0.828023803058722
-0.176778979608378	0.451568996202975
-0.176778979608378	1.35363214067664
-0.176778979608378	0.558493661180288
-0.176778979608378	-0.220518989020387
-0.176778979608378	-0.2324963062474
-0.176778979608378	-0.453608544812466
-0.176778979608378	0.638862399768533
-0.176778979608378	0.123120140501095
-0.176778979608378	0.143285623195377
-0.176778979608378	-0.696537646143486
-0.176778979608378	-1.84370941928883
-0.176778979608378	-0.847813431236233
-0.176778979608378	1.46685801737861
-0.176778979608378	0.168137138370431
-0.176778979608378	-0.401179203824217
-0.176778979608378	0.868697055185237
-0.176778979608378	0.70617573159006
-0.176778979608378	-0.0774289343910946
-0.176778979608378	-0.863150737364462
-0.176778979608378	0.804088339934023
-0.176778979608378	-0.720996839084409
-0.176778979608378	1.0715356894881
-0.176778979608378	-1.18836162551971
-0.176778979608378	0.0276213054242219
-0.176778979608378	-0.635617532796123
-0.176778979608378	0.0172486619076329
-0.176778979608378	-0.580166999269208
-0.176778979608378	0.164436651302896
-0.176778979608378	-0.648570100660377
-0.176778979608378	0.40011586397521
-0.176778979608378	-0.985390252796443
-0.176778979608378	-0.691937094253293
-0.176778979608378	-0.28777625470552
-0.176778979608378	-1.04139064073381
-0.176778979608378	0.127812815924632
-0.176778979608378	-0.986887479501198
-0.176778979608378	-0.112051717750197
-0.176778979608378	-0.539328478496748
-0.176778979608378	-0.46095387641574
-0.176778979608378	-0.806137711578991
-0.176778979608378	0.941622659231113
-0.176778979608378	-0.592333349736628
-0.176778979608378	-0.557383403774032
-0.176778979608378	0.0253489508553868
-0.176778979608378	0.91055445204101
-0.176778979608378	-0.976671990556303
-0.176778979608378	-0.0811393751798217
-0.176778979608378	0.454810815561281
-0.176778979608378	-0.930726734020233
-0.176778979608378	-0.109760524366714
-0.176778979608378	-0.439844694889242
-0.176778979608378	-0.225753483667681
-0.176778979608378	-0.592804022119692
-0.176778979608378	0.903451163832163
-0.176778979608378	0.50048330132527
-0.176778979608378	1.29024051648628
-0.176778979608378	0.20522128334493
-0.176778979608378	-0.491170013150168
-0.176778979608378	0.571307783260674
-0.176778979608378	-0.317649445994186
-0.176778979608378	0.195266275393761
-0.176778979608378	0.941945615011955
-0.176778979608378	0.227968925087758
-0.176778979608378	-0.35540929819858
-0.176778979608378	-1.16985450287885
-0.176778979608378	-0.0773818354757159
-0.176778979608378	0.501105976371862
-0.176778979608378	0.10019530154952
-0.176778979608378	-0.978463372062494
-0.176778979608378	0.135063544915363
-0.176778979608378	0.764992860499021
-0.176778979608378	-0.239825834834808
-0.176778979608378	-0.386567045888167
-0.176778979608378	-0.742196616544543
-0.176778979608378	-0.685147076985803
-0.176778979608378	-0.29395652498292
-0.176778979608378	1.12937741646851
-0.176778979608378	-0.716847196370092
-0.176778979608378	-0.686566168904386
-0.176778979608378	0.0167071648496426
-0.176778979608378	0.104988285149336
-0.176778979608378	0.211428777079327
-0.176778979608378	-0.957532520289816
-0.176778979608378	-0.706612932954061
-0.176778979608378	-0.601615772274528
-0.176778979608378	-0.467536920783664
-0.176778979608378	0.192431589960859
-0.176778979608378	0.157405760017536
-0.176778979608378	-0.643708083681468
-0.176778979608378	0.107100399819399
-0.176778979608378	-0.511637788112644
-0.176778979608378	0.850532594188768
-0.176778979608378	1.57660554747649
-0.176778979608378	-0.493677102729564
-0.176778979608378	0.8893708277297
-0.176778979608378	-0.00703050775676639
-0.176778979608378	0.282690555762024
-0.176778979608378	-0.700150560670611
-0.176778979608378	1.19902950030893
-0.176778979608378	0.863925685838749
-0.176778979608378	1.04755180481814
-0.176778979608378	0.172370415609501
-0.176778979608378	0.426680797577309
-0.176778979608378	2.02940049985674
-0.176778979608378	0.12433583576776
-0.176778979608378	-0.938765126479752
-0.176778979608378	-0.289172842658641
-0.176778979608378	-0.673202483104189
-0.176778979608378	-0.0852450381224723
-0.176778979608378	-1.29704597572525
-0.176778979608378	-1.15132819438703
-0.176778979608378	0.298274674193106
-0.176778979608378	-0.898916687843748
-0.176778979608378	0.401312312328225
-0.176778979608378	0.73825808434473
-0.176778979608378	-0.482519363315407
-0.176778979608378	0.094675381046131
-0.176778979608378	-0.245646837128017
-0.176778979608378	-0.646581930353854
-0.176778979608378	-0.144366896280741
-0.176778979608378	-0.274068838577307
-0.176778979608378	1.24265670264176
-0.176778979608378	0.704539461961127
-0.176778979608378	-1.47348300380751
-0.176778979608378	0.291887252208419
-0.176778979608378	0.325500821988336
-0.176778979608378	-0.28454039042755
-0.176778979608378	-0.0298901128150234
-0.176778979608378	-0.863600621377187
-0.176778979608378	-0.371289458167481
-0.176778979608378	0.728088792190154
-0.176778979608378	0.466140083866773
-0.176778979608378	2.12174970566969
-0.176778979608378	-0.00666273009071439
-0.176778979608378	-0.444751913657385
-0.176778979608378	-0.664970933993502
-0.176778979608378	-0.621204315581585
-0.176778979608378	0.128300231743372
-0.176778979608378	0.4766812346811
-0.176778979608378	-0.0113077816281069
-0.176778979608378	0.319944146965103
-0.176778979608378	0.51278764970299
-0.176778979608378	0.306041466843438
-0.176778979608378	-0.510063726088063
-0.176778979608378	-0.58731093512907
-0.176778979608378	0.209556256613236
-0.176778979608378	0.0634476283914361
-0.176778979608378	-0.450978662136088
-0.176778979608378	-0.383409995329048
-0.176778979608378	0.046372193384395
-0.176778979608378	0.448857771809264
-0.176778979608378	0.509224996473956
-0.176778979608378	-0.00152124491330929
-0.176778979608378	0.823715557421434
-0.176778979608378	-0.680195420400234
-0.176778979608378	-1.1345108657438
-0.176778979608378	-0.589686052721036
-0.176778979608378	-0.174803978326996
-0.176778979608378	0.639082386631009
-0.176778979608378	0.158318088594321
-0.176778979608378	-0.96874951643748
-0.176778979608378	-0.206418955477883
-0.176778979608378	-0.0637076487208865
-0.176778979608378	-0.413532981287872
-0.176778979608378	-0.873175791934202
-0.176778979608378	-0.156826558363394
-0.176778979608378	-0.664061330980912
-0.176778979608378	0.0717311634757319
-0.176778979608378	-0.0860011674301073
-0.176778979608378	0.745320060687942
-0.176778979608378	-0.4705307322041
-0.176778979608378	0.0683875266402031
-0.176778979608378	-0.343194241488052
-0.176778979608378	0.846109639686887
-0.176778979608378	-1.37775533594865
-0.176778979608378	-0.426387421850151
-0.176778979608378	-0.205711577873719
-0.176778979608378	-0.525052648760698
-0.176778979608378	0.0570909603421685
-0.176778979608378	-0.950244553050917
-0.176778979608378	0.00513941895458148
-0.176778979608378	0.506446598433088
-0.176778979608378	-0.157328532238045
-0.176778979608378	-0.251305494337096
-0.176778979608378	0.0514450656922391
-0.176778979608378	-1.24812007927659
-0.176778979608378	0.651374943753426
-0.176778979608378	0.133136638486835
-0.176778979608378	0.501455320661044
-0.176778979608378	0.0651825923156473
-0.176778979608378	-0.917222479586776
-0.176778979608378	-2.10086094271192
-0.176778979608378	0.68833455012819
-0.176778979608378	0.411758192776473
-0.176778979608378	0.256192185812295
-0.176778979608378	-0.77317371232763
-0.176778979608378	-0.468239350717247
-0.176778979608378	1.90775943177717
-0.176778979608378	0.0531422060940118
-0.176778979608378	-0.238527349036873
-0.176778979608378	1.19728954973842
-0.176778979608378	0.742906611530148
-0.176778979608378	-0.209018774015571
-0.176778979608378	0.189283423759162
-0.176778979608378	0.226990998772178
-0.176778979608378	0.426202540957664
-0.176778979608378	-0.924039791341511
-0.176778979608378	-0.507408873002542
-0.176778979608378	-0.510438454703816
-0.176778979608378	0.061632815525444
-0.176778979608378	-0.803594168339817
-0.176778979608378	-0.691096805237018
-0.176778979608378	0.614146181270531
-0.176778979608378	-0.471853838434127
-0.176778979608378	-0.29224581363271
-0.176778979608378	0.973663053061423
-0.176778979608378	0.572784222573185
-0.176778979608378	-0.466239997675028
-0.176778979608378	-0.365271133905239
-0.176778979608378	-1.44956398412199
-0.176778979608378	-0.269554821722216
-0.176778979608378	-0.805501350805282
-0.176778979608378	-1.09211107468072
-0.176778979608378	0.528081602497805
-0.176778979608378	-0.605749354787536
-0.176778979608378	-0.055077138447576
-0.176778979608378	0.3031164352626
-0.176778979608378	-0.28843224585277
-0.176778979608378	-1.20221463844067
-0.176778979608378	0.509917061017815
-0.176778979608378	1.23968717869934
-0.176778979608378	-0.478061592344404
-0.176778979608378	-0.773267101553079
-0.176778979608378	-0.295619793214831
-0.176778979608378	0.103701673777221
-0.176778979608378	-0.159527034342517
-0.176778979608378	-1.21230635438668
-0.176778979608378	-1.62061654785463
-0.176778979608378	-0.136630368854199
-0.176778979608378	0.20822510311516
-0.176778979608378	-0.305024115206543
-0.176778979608378	0.407916947452887
-0.176778979608378	0.0156617082580293
-0.176778979608378	-1.39625046834699
-0.176778979608378	0.154410557876873
-0.176778979608378	1.07693538187358
-0.176778979608378	0.459195894361396
-0.176778979608378	0.59923998754532
-0.176778979608378	-0.034392028843885
-0.176778979608378	-0.434248652316222
-0.176778979608378	-0.418483609762373
-0.176778979608378	0.463871680508494
-0.176778979608378	0.565646633005369
-0.176778979608378	0.400134380496445
-0.176778979608378	0.437732900981654
-0.176778979608378	0.126826675951626
-0.176778979608378	-0.746231818696945
-0.176778979608378	0.0785831787185349
-0.176778979608378	-0.736095106971751
-0.176778979608378	-0.240883822601453
-0.176778979608378	-0.714660518556896
-0.176778979608378	0.676268973865221
-0.176778979608378	-0.342027647678962
-0.176778979608378	0.0763091995502184
-0.176778979608378	-0.477064890649944
-0.176778979608378	-0.144489501613074
-0.176778979608378	0.218755087698798
-0.176778979608378	-0.397996813674862
-0.176778979608378	1.10755115836068
-0.176778979608378	0.0135274398023075
-0.176778979608378	1.42472340704157
-0.176778979608378	0.200061819279035
-0.176778979608378	0.0504158109205571
-0.176778979608378	-0.0176536862190857
-0.176778979608378	0.316588237114667
-0.176778979608378	-0.814423008511414
-0.176778979608378	-0.546435911119628
-0.176778979608378	0.639790304896424
-0.176778979608378	-0.347451077672868
-0.176778979608378	0.4105726501679
-0.176778979608378	-1.14788797127414
-0.176778979608378	-0.171441159763258
-0.176778979608378	0.48099559077336
-0.176778979608378	0.531107406250291
-0.176778979608378	-0.757085716280548
-0.176778979608378	0.614933651885351
-0.176778979608378	-0.0525940867786898
-0.176778979608378	0.1740293144285
-0.176778979608378	1.73541538404646
-0.176778979608378	0.105556709400071
-0.176778979608378	-0.419072281042258
-0.176778979608378	-1.2711184338669
-0.176778979608378	1.41439031146885
-0.176778979608378	0.0098433401203144
-0.176778979608378	0.726043882673787
-0.176778979608378	-0.335124193861765
-0.176778979608378	0.434714891079075
-0.176778979608378	-0.301093795963313
-0.176778979608378	-0.207239911028997
-0.176778979608378	-0.0126652591197257
-0.176778979608378	-1.50293236847804
-0.176778979608378	-1.24664421714929
-0.176778979608378	0.700813940535975
-0.176778979608378	-0.287251848581577
-0.176778979608378	-0.493674314991054
-0.176778979608378	0.124890266789978
-0.176778979608378	-0.880847279244574
-0.176778979608378	0.606371687403759
-0.176778979608378	-0.21203713466312
-0.176778979608378	0.561137275653
-0.176778979608378	0.311107852605444
-0.176778979608378	0.209454731383488
-0.176778979608378	0.102182597122366
-0.176778979608378	-0.589334149229441
-0.176778979608378	0.289257444869007
-0.176778979608378	-0.161194324577172
-0.176778979608378	-0.502020962639006
-0.176778979608378	-1.05571469162459
-0.176778979608378	-0.184582990485106
-0.176778979608378	-0.42090714751217
-0.176778979608378	-0.648371613806461
-0.176778979608378	1.0674232087318
-0.176778979608378	-0.453669298853802
-0.176778979608378	0.772945371123409
-0.176778979608378	0.679334569375172
-0.176778979608378	-0.0387261250784069
-0.176778979608378	0.579795938013145
-0.176778979608378	0.0315033805343221
-0.176778979608378	0.131154750133018
-0.176778979608378	-1.24607205102337
-0.176778979608378	-0.0775085802906315
-0.176778979608378	0.0998880183560742
-0.176778979608378	-0.560754678003385
-0.176778979608378	-0.284135130806187
-0.176778979608378	0.0873050270152792
-0.176778979608378	0.695855663384406
-0.176778979608378	0.869290563455662
-0.176778979608378	0.45624962488889
-0.176778979608378	0.2674242665556
-0.176778979608378	1.11649628091195
-0.176778979608378	0.0641707289655189
-0.176778979608378	-0.00787591568769264
-0.176778979608378	0.121028937631659
-0.176778979608378	0.717004283773443
-0.176778979608378	-0.13777839011856
-0.176778979608378	-0.0869727512711229
-0.176778979608378	1.12644056952437
-0.176778979608378	0.101925014557694
-0.176778979608378	0.134485748485379
-0.176778979608378	-0.597919126713688
-0.176778979608378	1.3441188193855
-0.176778979608378	1.06640295474985
-0.176778979608378	-0.48502626469521
-0.176778979608378	-1.61410253788281
-0.176778979608378	0.0182058390705749
-0.176778979608378	-0.463081247189244
-0.176778979608378	-1.02115120789784
-0.176778979608378	-0.191586932715698
-0.176778979608378	0.888909832516273
-0.176778979608378	-1.48497192892455
-0.176778979608378	-0.40971017338917
-0.176778979608378	0.244258317746671
-0.176778979608378	0.601432913543817
-0.176778979608378	-1.20940908241979
-0.176778979608378	-0.270549082283676
-0.176778979608378	-0.32460790520555
-0.176778979608378	0.655886845579091
-0.176778979608378	0.0285326848437392
-0.176778979608378	-0.361155355526266
-0.176778979608378	0.153572161430413
-0.176778979608378	-0.215586673622896
-0.176778979608378	0.00387207641673104
-0.176778979608378	-0.769399600400681
-0.176778979608378	0.256891587653735
-0.176778979608378	2.37964355907071
-0.176778979608378	-0.119464684777199
-0.176778979608378	-0.370111202264341
