V1	V2
-0.125947223769644	-0.718550857496411
-0.125947223769644	-0.341551605066071
-0.125947223769644	-1.28194813455999
-0.125947223769644	0.185347297343569
-0.125947223769644	-0.369121695671557
-0.125947223769644	-0.969128671333384
-0.125947223769644	-0.814197958183531
-0.125947223769644	0.164603900121651
-0.125947223769644	-0.394627920667481
-0.125947223769644	-0.401194748148032
-0.125947223769644	-0.285993411193618
-0.125947223769644	-0.696451419299812
-0.125947223769644	0.310969304897326
-0.125947223769644	-1.60119953510022
-0.125947223769644	-0.785870843538062
-0.125947223769644	0.150891033330262
-0.125947223769644	-0.735752610921147
-0.125947223769644	0.784143619893795
-0.125947223769644	0.027846138719218
-0.125947223769644	-0.0463611986794111
-0.125947223769644	0.435789009487721
-0.125947223769644	-0.13720635796232
-0.125947223769644	0.236567370061389
-0.125947223769644	0.00367876483531665
-0.125947223769644	-1.11065724843403
-0.125947223769644	0.189975858200796
-0.125947223769644	-0.108815731906308
-0.125947223769644	0.579495000905013
-0.125947223769644	-0.768455170885636
-0.125947223769644	1.46367210494284
-0.125947223769644	1.03885502889159
-0.125947223769644	-0.452561037816569
-0.125947223769644	-0.958333020277047
-0.125947223769644	0.417424655598499
-0.125947223769644	-0.626222544794647
-0.125947223769644	0.514447188092844
-0.125947223769644	-1.05407211349561
-0.125947223769644	0.867358425329692
-0.125947223769644	-1.12587023209932
-0.125947223769644	0.508376539965564
-0.125947223769644	-0.740023445374475
-0.125947223769644	-0.107596715619648
-0.125947223769644	0.376347893048536
-0.125947223769644	0.952034521892953
-0.125947223769644	-0.424050729596525
-0.125947223769644	0.0304444480526781
-0.125947223769644	-0.980389041320469
-0.125947223769644	-0.700549414126109
-0.125947223769644	0.814286893254149
-0.125947223769644	1.25954048006926
-0.125947223769644	-0.514593555192729
-0.125947223769644	0.623230981552365
-0.125947223769644	0.104795786626767
-0.125947223769644	-0.927792655973559
-0.125947223769644	-0.0964282876072454
-0.125947223769644	-0.145507805088389
-0.125947223769644	0.178559587065189
-0.125947223769644	-0.357247723132169
-0.125947223769644	-0.998257429648537
-0.125947223769644	-0.750291899232021
-0.125947223769644	0.10128259224071
-0.125947223769644	-0.70582561192096
-0.125947223769644	-1.50203635491035
-0.125947223769644	-0.901824538132344
-0.125947223769644	0.214120870919308
-0.125947223769644	-0.168534442950104
-0.125947223769644	0.356080541124693
-0.125947223769644	0.123763068962329
-0.125947223769644	0.648533598417095
-0.125947223769644	-0.501450102836439
-0.125947223769644	-0.179099642191641
-0.125947223769644	-0.0974821745212991
-0.125947223769644	-0.962941153652155
-0.125947223769644	-0.718083253339539
-0.125947223769644	-1.14499850411298
-0.125947223769644	-0.153286239681461
-0.125947223769644	-1.22069905138461
-0.125947223769644	0.618506272487784
-0.125947223769644	-0.546941761261892
-0.125947223769644	0.174002514167707
-0.125947223769644	-0.268323055661253
-0.125947223769644	-0.0531559578802567
-0.125947223769644	0.307929802905487
-0.125947223769644	-0.517357158151743
-0.125947223769644	0.00311607118347201
-0.125947223769644	0.0363631130452721
-0.125947223769644	-0.284609393498906
-0.125947223769644	-0.233593514765384
-0.125947223769644	0.131399262431977
-0.125947223769644	-1.33344399050855
-0.125947223769644	-0.247603373372081
-0.125947223769644	-0.616929011663636
-0.125947223769644	-0.130291620865376
-0.125947223769644	-1.00716294927632
-0.125947223769644	-0.301101659060207
-0.125947223769644	-0.336929030467389
-0.125947223769644	-0.796239009169194
-0.125947223769644	-0.0927332792454972
-0.125947223769644	-0.902317666709294
-0.125947223769644	-0.846518384466994
-0.125947223769644	-1.26000410137654
-0.125947223769644	-0.694190522122286
-0.125947223769644	0.394674500584919
-0.125947223769644	0.117301952225068
-0.125947223769644	-0.781786397257022
-0.125947223769644	0.262505308070499
-0.125947223769644	-0.203763325177993
-0.125947223769644	0.0702473477825884
-0.125947223769644	0.879799671859722
-0.125947223769644	-0.016679263354162
-0.125947223769644	0.700916383603786
-0.125947223769644	0.128101840232348
-0.125947223769644	-0.440485376026575
-0.125947223769644	-1.22734980361197
-0.125947223769644	-0.268417300338871
-0.125947223769644	0.0797532045399501
-0.125947223769644	0.200931041597745
-0.125947223769644	-0.466850543164925
-0.125947223769644	-0.230324896372476
-0.125947223769644	0.764938458730705
-0.125947223769644	0.141125713354357
-0.125947223769644	0.297622430875029
-0.125947223769644	-1.31270368381725
-0.125947223769644	-0.693035870502199
-0.125947223769644	-0.345081956057155
-0.125947223769644	-0.316981266300118
-0.125947223769644	0.174681966103107
-0.125947223769644	-1.3334043099022
-0.125947223769644	-0.299724206991627
-0.125947223769644	0.219545561156265
-0.125947223769644	0.329170021965677
-0.125947223769644	0.793350304529911
-0.125947223769644	-0.723258336438908
-0.125947223769644	0.664208818203366
-0.125947223769644	0.231021962477656
-0.125947223769644	0.327940902173494
-0.125947223769644	-0.191363805660614
-0.125947223769644	-0.0635396383503594
-0.125947223769644	0.768387501987733
-0.125947223769644	0.836668521050184
-0.125947223769644	0.298338557846627
-0.125947223769644	-1.34924396701252
-0.125947223769644	-0.86761277598355
-0.125947223769644	0.0879271360222854
-0.125947223769644	-0.575653044874369
-0.125947223769644	0.0658620263698577
-0.125947223769644	0.544060026466797
-0.125947223769644	-0.495798090084292
-0.125947223769644	-0.780833791026438
-0.125947223769644	-1.20863403413291
-0.125947223769644	0.0874309266149184
-0.125947223769644	-1.21617367992167
-0.125947223769644	0.453426109443113
-0.125947223769644	-1.06203326987016
-0.125947223769644	-0.946539160605356
-0.125947223769644	-0.994906055336419
-0.125947223769644	-1.11770467761709
-0.125947223769644	-0.134799200798301
-0.125947223769644	-0.805903379960126
-0.125947223769644	-0.925628192423379
-0.125947223769644	0.558689012863749
-0.125947223769644	-0.567052973911124
-0.125947223769644	-0.0631591573506918
-0.125947223769644	-0.0915090147230526
-0.125947223769644	-0.497302477300784
-0.125947223769644	-0.227070140497429
-0.125947223769644	-0.690521486388446
-0.125947223769644	-1.64099735409216
-0.125947223769644	-0.880085111835992
-0.125947223769644	-1.10030940733105
-0.125947223769644	0.14077337136165
-0.125947223769644	-0.555698009135141
-0.125947223769644	-0.386408672438689
-0.125947223769644	-0.53059006726557
-0.125947223769644	-0.656671831427031
-0.125947223769644	1.47092844112137
-0.125947223769644	-0.276183066543115
-0.125947223769644	0.873966602916894
-0.125947223769644	-0.936206629653999
-0.125947223769644	-0.112177819027339
-0.125947223769644	-0.128116436065852
-0.125947223769644	-0.407675136103197
-0.125947223769644	-0.065709554923688
-0.125947223769644	-0.411158727355705
-0.125947223769644	0.180708086691281
-0.125947223769644	0.408459834692877
-0.125947223769644	1.08661016736551
-0.125947223769644	-0.225223046975182
-0.125947223769644	-0.659435407937938
-0.125947223769644	-1.3039471125867
-0.125947223769644	-1.45472267781298
-0.125947223769644	-1.39401234477851
-0.125947223769644	-1.2204182715358
-0.125947223769644	0.853234610869319
-0.125947223769644	0.42906995691903
-0.125947223769644	0.10499041709676
-0.125947223769644	0.0440636415264971
-0.125947223769644	0.398961322085305
-0.125947223769644	-0.353091431057615
-0.125947223769644	0.214070642379001
-0.125947223769644	-0.0411081084347745
-0.125947223769644	0.423241523314205
-0.125947223769644	-0.800647234405704
-0.125947223769644	-0.474361394895223
-0.125947223769644	0.435769782109325
-0.125947223769644	-0.441927301198857
-0.125947223769644	-0.371847868061749
-0.125947223769644	0.0135429102592642
-0.125947223769644	-1.57532773655451
-0.125947223769644	-0.292081632277273
-0.125947223769644	-0.211036315971602
-0.125947223769644	-0.842273766300497
-0.125947223769644	0.573148950301019
-0.125947223769644	-1.09773042279152
-0.125947223769644	-0.0145568804006422
-0.125947223769644	-0.402105822705936
-0.125947223769644	0.228722692659498
-0.125947223769644	0.0531613757499829
-0.125947223769644	-0.342387934612338
-0.125947223769644	0.481768983752038
-0.125947223769644	0.715438407152231
-0.125947223769644	-0.0794160509251177
-0.125947223769644	0.162921697270947
-0.125947223769644	0.19485821794349
-0.125947223769644	-0.0146758432891742
-0.125947223769644	-0.117318808659497
-0.125947223769644	0.121250384702197
-0.125947223769644	-0.395627328696122
-0.125947223769644	-0.500375738770779
-0.125947223769644	-0.14371710712131
-0.125947223769644	-1.05066008916936
-0.125947223769644	0.108756710783145
-0.125947223769644	0.510325978980703
-0.125947223769644	-0.0966295039096018
-0.125947223769644	-0.889213936601574
-0.125947223769644	0.301143193718366
-0.125947223769644	0.277343969940195
-0.125947223769644	0.0433068925965561
-0.125947223769644	0.0838417430809988
-0.125947223769644	0.356242688266933
-0.125947223769644	0.443825493216682
-0.125947223769644	-1.10777772618197
-0.125947223769644	-0.0579156649105452
-0.125947223769644	-0.0388026473352839
-0.125947223769644	-0.768018663083334
-0.125947223769644	0.382821468119221
-0.125947223769644	-1.49926161279316
-0.125947223769644	0.255625129634028
-0.125947223769644	-0.107682869049615
-0.125947223769644	0.935435512911149
-0.125947223769644	-0.969149659277733
-0.125947223769644	-0.98765397888783
-0.125947223769644	0.0570746500033311
-0.125947223769644	-0.0573089280788412
-0.125947223769644	-0.174777047493881
-0.125947223769644	-0.0768597960011569
-0.125947223769644	-0.932785034366649
-0.125947223769644	-0.266333588712503
-0.125947223769644	-1.10900985778098
-0.125947223769644	-0.963328398661994
-0.125947223769644	-1.46246991104942
-0.125947223769644	0.551266366792008
-0.125947223769644	-0.933756230759228
-0.125947223769644	0.561915184362782
-0.125947223769644	-0.693517307963102
-0.125947223769644	-0.0600099548405134
-0.125947223769644	-0.311657336263225
-0.125947223769644	-0.179706120888667
-0.125947223769644	0.280160924259879
-0.125947223769644	-0.236989793918443
-0.125947223769644	0.126738041814393
-0.125947223769644	0.192262124505843
-0.125947223769644	-0.454490707742253
-0.125947223769644	-0.455736540372467
-0.125947223769644	0.676024635439089
-0.125947223769644	-0.807249146325152
-0.125947223769644	0.209193857363216
-0.125947223769644	0.578974464964468
-0.125947223769644	-0.110807061398066
-0.125947223769644	0.180473306185043
-0.125947223769644	-0.942332501371798
-0.125947223769644	0.776221338529109
-0.125947223769644	-0.382162825124661
-0.125947223769644	-0.890686853020266
-0.125947223769644	-0.361150417713593
-0.125947223769644	-0.151142553713755
-0.125947223769644	-0.555818222252145
-0.125947223769644	0.44593941860181
-0.125947223769644	-0.198124391702951
-0.125947223769644	-0.35616517592761
-0.125947223769644	0.940871975317499
-0.125947223769644	-0.896759226590799
-0.125947223769644	0.752724208180257
-0.125947223769644	-0.752522544406739
-0.125947223769644	0.0133028627502577
-0.125947223769644	0.899107196901902
-0.125947223769644	0.0417031815050661
-0.125947223769644	0.0752700888218541
-0.125947223769644	0.466567896264877
-0.125947223769644	0.146563113654521
-0.125947223769644	-0.688300733277145
-0.125947223769644	0.631078210950567
-0.125947223769644	0.157306948879506
-0.125947223769644	-0.0307051064527678
-0.125947223769644	0.228947479125255
-0.125947223769644	-1.01534520801154
-0.125947223769644	0.258376759806438
-0.125947223769644	0.271485371332753
-0.125947223769644	0.54237171857975
-0.125947223769644	-0.139928102963532
-0.125947223769644	0.140804102759323
-0.125947223769644	0.0906848271703613
-0.125947223769644	-0.190380031066335
-0.125947223769644	-0.202634799132434
-0.125947223769644	0.453001633189888
-0.125947223769644	-1.07905798274696
-0.125947223769644	0.378359538721694
-0.125947223769644	-0.423635771811638
-0.125947223769644	-0.0688543477428321
-0.125947223769644	0.289942751518141
-0.125947223769644	0.507430064914987
-0.125947223769644	-0.902388510336384
-0.125947223769644	-0.141133440602591
-0.125947223769644	0.232848705556884
-0.125947223769644	0.785583727080096
-0.125947223769644	-1.06990675058896
-0.125947223769644	-0.275303517453271
-0.125947223769644	0.669229668093903
-0.125947223769644	0.232527578152453
-0.125947223769644	-0.19763391528757
-0.125947223769644	-0.895578177976825
-0.125947223769644	0.142415378224881
-0.125947223769644	0.394989071179366
-0.125947223769644	-0.828243113635079
-0.125947223769644	0.126597174592491
-0.125947223769644	-0.120834851083842
-0.125947223769644	-0.00340882250322186
-0.125947223769644	0.230332960812354
-0.125947223769644	-1.1566059139117
-0.125947223769644	0.0395368201020825
-0.125947223769644	-0.398302460695622
-0.125947223769644	-1.28344662491246
-0.125947223769644	0.405809507862354
-0.125947223769644	-0.828447987027714
-0.125947223769644	-0.317999079298481
-0.125947223769644	-0.00761452838197563
-0.125947223769644	-1.10176594652768
-0.125947223769644	-0.0464872778687574
-0.125947223769644	0.167578427696524
-0.125947223769644	0.99477635406551
-0.125947223769644	-1.21827552225911
-0.125947223769644	-1.28277759489121
-0.125947223769644	-1.46054773103656
-0.125947223769644	0.396026966803483
-0.125947223769644	-0.32812340041751
-0.125947223769644	-0.934137683407945
-0.125947223769644	0.0577357584098006
-0.125947223769644	-0.39973525215985
-0.125947223769644	-0.324142130175693
-0.125947223769644	-0.281527504111509
-0.125947223769644	0.0745807359556522
-0.125947223769644	-0.322478196499539
-0.125947223769644	0.304175207355552
-0.125947223769644	-0.167424000097584
-0.125947223769644	0.433852306559306
-0.125947223769644	-1.11104806523265
-0.125947223769644	-0.209501689970278
-0.125947223769644	0.260013298237625
-0.125947223769644	-0.452983504459744
-0.125947223769644	0.900618741514253
-0.125947223769644	-0.167500994987047
-0.125947223769644	0.651357224708022
-0.125947223769644	-0.680485013628411
-0.125947223769644	-1.8101070000938
-0.125947223769644	0.265624844260025
-0.125947223769644	0.0174634609266156
-0.125947223769644	0.072381429173658
-0.125947223769644	-0.555383652986899
-0.125947223769644	-1.11834235963346
-0.125947223769644	0.470750078799451
-0.125947223769644	0.0383184499117999
-0.125947223769644	-0.117282178150968
-0.125947223769644	-0.330914496244886
-0.125947223769644	-0.201275373279432
-0.125947223769644	-0.214293636890721
-0.125947223769644	-0.504245933977412
-0.125947223769644	0.0802377417826093
-0.125947223769644	0.258812951439278
-0.125947223769644	0.925735372468079
-0.125947223769644	0.682688245289705
-0.125947223769644	0.561683929033666
-0.125947223769644	-0.917252015798243
-0.125947223769644	-1.07103229097953
-0.125947223769644	-0.315187077039715
-0.125947223769644	0.364483729923937
-0.125947223769644	-0.417658682495319
-0.125947223769644	0.128040984852856
-0.125947223769644	-0.0897606027041922
-0.125947223769644	-0.595828061859008
-0.125947223769644	0.107137328430403
-0.125947223769644	0.155277724418759
-0.125947223769644	0.0513341599648242
-0.125947223769644	0.439393994196576
-0.125947223769644	-1.05523217379112
-0.125947223769644	-0.0724024925345162
-0.125947223769644	-0.177366215617297
-0.125947223769644	-0.781066431555405
-0.125947223769644	-0.964718916809235
-0.125947223769644	-0.254791206360103
-0.125947223769644	-0.0928419619731135
-0.125947223769644	-0.421988760549896
-0.125947223769644	-0.124460572881925
-0.125947223769644	-0.0789487994654583
-0.125947223769644	-2.29076233173035
-0.125947223769644	0.0555927707265823
-0.125947223769644	-0.809437629738816
-0.125947223769644	0.207000221648829
-0.125947223769644	0.271356885753679
-0.125947223769644	0.539043134333436
-0.125947223769644	-0.285227493415783
-0.125947223769644	-0.447342416460274
-0.125947223769644	-0.241519386143041
-0.125947223769644	0.0800118788514209
-0.125947223769644	-0.742582308512808
-0.125947223769644	0.258182315933075
-0.125947223769644	0.251379872266285
-0.125947223769644	-0.600277518163536
-0.125947223769644	0.348164947936836
-0.125947223769644	0.132148373071688
-0.125947223769644	-0.297167445968476
-0.125947223769644	-0.61308646926657
-0.125947223769644	-0.838682351802454
-0.125947223769644	0.405251440680623
-0.125947223769644	-0.782850557395441
-0.125947223769644	0.0766284526559259
-0.125947223769644	-0.667014147362252
-0.125947223769644	-1.27717079829775
-0.125947223769644	-0.115649986408057
-0.125947223769644	-0.30748870287538
-0.125947223769644	0.244684544266433
-0.125947223769644	-0.440492987526108
-0.125947223769644	-0.437738010802949
-0.125947223769644	0.672114387124934
-0.125947223769644	0.866683171168506
-0.125947223769644	0.131441692869411
-0.125947223769644	0.604520670058267
-0.125947223769644	0.389047331654115
-0.125947223769644	-1.15100362538783
-0.125947223769644	0.604610667490994
-0.125947223769644	-0.521330887803628
-0.125947223769644	-0.414224908916459
-0.125947223769644	-0.431499002044001
-0.125947223769644	-0.255388436783294
-0.125947223769644	-1.4797585628934
-0.125947223769644	-0.300723314988864
-0.125947223769644	-1.4826130845281
-0.125947223769644	-0.226973717308577
-0.125947223769644	-0.82584570346657
-0.125947223769644	-0.234292295122967
-0.125947223769644	-0.336423977841405
-0.125947223769644	-1.25891361901694
-0.125947223769644	-0.173336023518866
-0.125947223769644	0.544249863927381
-0.125947223769644	0.653675461451155
-0.125947223769644	-0.764368444475511
-0.125947223769644	0.216827393789402
-0.125947223769644	0.0858537377698046
-0.125947223769644	0.123835453357253
-0.125947223769644	-0.859663878096087
-0.125947223769644	-0.0253456535950104
-0.125947223769644	0.600758999186303
-0.125947223769644	-0.518589943744588
-0.125947223769644	-0.182875334688312
-0.125947223769644	-0.198529794852635
-0.125947223769644	-0.441789768267528
-0.125947223769644	-0.230577584304924
-0.125947223769644	0.133751352349404
-0.125947223769644	0.37458513623465
-0.125947223769644	-0.308469183723245
-0.125947223769644	0.274053759374635
-0.125947223769644	-0.157821337210977
-0.125947223769644	-0.187196099686195
-0.125947223769644	-0.398132819195144
-0.125947223769644	0.202137547430374
-0.125947223769644	0.0724255886111285
-0.125947223769644	0.245111233061872
-0.125947223769644	-0.210922725633261
-0.125947223769644	-0.559153075674713
-0.125947223769644	-0.00618812392239183
-0.125947223769644	0.145489963016022
-0.125947223769644	0.409876562878737
-0.125947223769644	-0.165245183933817
-0.125947223769644	-0.391494205253711
-0.125947223769644	-0.54871022580612
-0.125947223769644	-0.688285802248963
-0.125947223769644	-0.185128956812256
-0.125947223769644	0.076975297300336
-0.125947223769644	-0.417215652967105
-0.125947223769644	-0.447957169614988
-0.125947223769644	-0.125472113544023
-0.125947223769644	-0.850280677722021
-0.125947223769644	-0.336490377540094
-0.125947223769644	-0.78888613186133
-0.125947223769644	0.628561727826938
-0.125947223769644	-0.131701138278144
-0.125947223769644	-0.766068798529474
-0.125947223769644	0.032252602256665
-0.125947223769644	0.5472487048597
-0.125947223769644	-0.162445177189234
-0.125947223769644	0.263427806151337
-0.125947223769644	-0.356211542865856
-0.125947223769644	0.471418904226134
-0.125947223769644	-0.627536252384685
-0.125947223769644	-0.38629616210307
-0.125947223769644	-0.0378414240608542
-0.125947223769644	-0.913081209270591
-0.125947223769644	0.701289117693631
-0.125947223769644	0.136054203587589
-0.125947223769644	-0.191048072895096
-0.125947223769644	1.10575838763993
-0.125947223769644	0.191629623424582
-0.125947223769644	-0.992802858083266
-0.125947223769644	-0.326834746268648
-0.125947223769644	-1.53199250880007
-0.125947223769644	-0.33134993435145
-0.125947223769644	0.416197035274694
-0.125947223769644	-0.759259181408758
-0.125947223769644	0.538563496092487
-0.125947223769644	0.215145737681676
-0.125947223769644	1.17750675448906
-0.125947223769644	-0.358524206121116
-0.125947223769644	-0.205294737975497
-0.125947223769644	-0.10622028598064
-0.125947223769644	-1.63523886611219
-0.125947223769644	-1.04454651195138
-0.125947223769644	-1.08177651877706
-0.125947223769644	0.738435557582573
-0.125947223769644	0.621865287140792
-0.125947223769644	0.434976495361446
-0.125947223769644	0.831305147862337
-0.125947223769644	0.480058339355203
-0.125947223769644	-0.353823702560127
-0.125947223769644	-0.893265695771027
-0.125947223769644	0.256520139671178
-0.125947223769644	-0.537740893310156
-0.125947223769644	0.180289202275276
-0.125947223769644	-0.789232944396584
-0.125947223769644	-0.389206283153545
-0.125947223769644	-1.03743206489501
-0.125947223769644	0.071057507427445
-0.125947223769644	-0.478576097230308
-0.125947223769644	-0.774356491661273
-0.125947223769644	0.34171894387933
-0.125947223769644	0.871688525892423
-0.125947223769644	0.229850604938752
-0.125947223769644	0.834615866624848
-0.125947223769644	-0.486353242654119
-0.125947223769644	-0.950880641766563
-0.125947223769644	-0.327691356278433
-0.125947223769644	0.387141449249115
-0.125947223769644	-0.597448452520329
-0.125947223769644	-0.258426406927404
-0.125947223769644	0.0869303312809759
-0.125947223769644	0.672996768518766
-0.125947223769644	-1.13551077151827
-0.125947223769644	-0.356010573673407
-0.125947223769644	-0.276654696040645
-0.125947223769644	-0.26439398584519
-0.125947223769644	0.276302313999121
-0.125947223769644	-0.279941409642262
-0.125947223769644	0.377523581032003
-0.125947223769644	-0.692415952530821
-0.125947223769644	-1.23275992318817
-0.125947223769644	-0.0559509140536715
-0.125947223769644	-1.61496725304124
-0.125947223769644	-0.471568909313254
-0.125947223769644	-0.362265332710086
-0.125947223769644	0.222272921101471
-0.125947223769644	-0.623373861274701
-0.125947223769644	0.312684115893246
-0.125947223769644	0.576425074669606
-0.125947223769644	-0.210268041096704
-0.125947223769644	-0.411518951637706
-0.125947223769644	-0.371028084527764
-0.125947223769644	-0.33825394261878
-0.125947223769644	-1.19228041116646
-0.125947223769644	-0.0701850450579961
-0.125947223769644	0.0814081639766921
-0.125947223769644	-0.174092811819696
-0.125947223769644	-0.458279787077516
-0.125947223769644	-0.808700536806044
-0.125947223769644	-0.0472826497472568
-0.125947223769644	0.446081219235851
-0.125947223769644	0.102222930375286
-0.125947223769644	-0.478598524830642
-0.125947223769644	-0.187408826641073
-0.125947223769644	-1.35738286827968
-0.125947223769644	0.245713886119841
-0.125947223769644	0.239753339178933
-0.125947223769644	-1.13832452173102
-0.125947223769644	-0.161022769483414
-0.125947223769644	-0.0546327828846298
-0.125947223769644	-1.11953076196474
-0.125947223769644	0.926184568795676
-0.125947223769644	-0.721941530455714
-0.125947223769644	-0.415836187518531
-0.125947223769644	-0.801186850520489
-0.125947223769644	-0.824428316535244
-0.125947223769644	-0.32015699771496
-0.125947223769644	-1.02054380072391
-0.125947223769644	-0.274742887129039
-0.125947223769644	0.117417700278396
-0.125947223769644	-1.33277354688527
-0.125947223769644	-0.0864806152986612
-0.125947223769644	-0.0989070862882084
-0.125947223769644	0.718113390380137
-0.125947223769644	-1.2111336139469
-0.125947223769644	0.315846288829012
-0.125947223769644	0.0431411274327745
-0.125947223769644	0.188954850872373
-0.125947223769644	0.0962469307028857
-0.125947223769644	0.478091311853435
-0.125947223769644	0.41733515710754
-0.125947223769644	-0.11648619276686
-0.125947223769644	0.281124448005168
-0.125947223769644	-0.955844331257114
-0.125947223769644	-0.0884330896424972
-0.125947223769644	-0.30286039311198
-0.125947223769644	0.840407344559996
-0.125947223769644	-0.239517216018739
-0.125947223769644	-0.911329651460792
-0.125947223769644	-0.0717365739927606
-0.125947223769644	-0.435041640785918
-0.125947223769644	-1.36401031722371
-0.125947223769644	0.0673328636984514
-0.125947223769644	-2.28312805645391
-0.125947223769644	-0.270720572655237
-0.125947223769644	-1.15654464493986
-0.125947223769644	-0.710522551779478
-0.125947223769644	-1.17442363641894
-0.125947223769644	-0.482098290918201
-0.125947223769644	-0.758298367451645
-0.125947223769644	-0.23191705094926
-0.125947223769644	0.0575225385797611
-0.125947223769644	0.765937932596439
-0.125947223769644	-0.120261515419812
-0.125947223769644	0.0588501741980744
-0.125947223769644	-0.297169176468755
-0.125947223769644	0.169154305160646
-0.125947223769644	0.181914639458696
-0.125947223769644	-0.368556223698781
-0.125947223769644	-0.393058944872544
-0.125947223769644	-1.35667092051551
-0.125947223769644	-0.297409244851598
-0.125947223769644	0.0638517010258299
-0.125947223769644	-0.221855470068245
-0.125947223769644	0.576590856608508
-0.125947223769644	-0.567810765502115
-0.125947223769644	0.0158591934501867
-0.125947223769644	-0.157157063343454
-0.125947223769644	0.450962980624613
-0.125947223769644	-0.164177708238188
-0.125947223769644	0.890338292498945
-0.125947223769644	-0.765713624404186
-0.125947223769644	0.107854091486089
-0.125947223769644	-1.79331785771425
-0.125947223769644	0.552007364061224
-0.125947223769644	-1.74101465476215
-0.125947223769644	-0.688371840942474
-0.125947223769644	0.321529865141546
-0.125947223769644	0.144163974251213
-0.125947223769644	-1.05834905755758
-0.125947223769644	0.547400551471396
-0.125947223769644	-0.618490095305934
-0.125947223769644	0.224268537334753
-0.125947223769644	0.939151513022551
-0.125947223769644	-0.324530744639202
-0.125947223769644	-0.461084123888884
-0.125947223769644	1.07708404685432
-0.125947223769644	-0.456938804796262
-0.125947223769644	0.991186516413112
-0.125947223769644	0.59975103982666
-0.125947223769644	-0.573052999978007
-0.125947223769644	-0.367794713189608
-0.125947223769644	0.457656000694007
-0.125947223769644	-1.16046963918957
-0.125947223769644	0.500813785041929
-0.125947223769644	-0.281107637732226
-0.125947223769644	0.00884239732531671
-0.125947223769644	-0.153892983688973
-0.125947223769644	0.628637607516157
-0.125947223769644	-0.199985512264826
-0.125947223769644	-1.12316237732717
-0.125947223769644	0.169958808406759
-0.125947223769644	-0.861711061383995
-0.125947223769644	0.400889367268955
-0.125947223769644	-0.190785172025604
-0.125947223769644	-1.3766156954591
-0.125947223769644	-0.586647926433914
-0.125947223769644	-1.23077354506795
-0.125947223769644	0.0612605354103277
-0.125947223769644	-0.977381913021843
-0.125947223769644	-0.637162776965808
-0.125947223769644	-0.438409304065569
-0.125947223769644	-0.114981621350084
-0.125947223769644	-0.233301020954382
-0.125947223769644	0.238294066726893
-0.125947223769644	-0.404134589327163
-0.125947223769644	0.0049306306408745
-0.125947223769644	-0.159897391817468
-0.125947223769644	0.00353281260374982
-0.125947223769644	0.214579088656043
-0.125947223769644	-0.532643622869325
-0.125947223769644	-1.0497198806071
-0.125947223769644	-0.740766281609512
-0.125947223769644	0.705426757214505
-0.125947223769644	-0.490742376804306
-0.125947223769644	-0.782569147867363
-0.125947223769644	0.0102311887286708
-0.125947223769644	0.0207423799159717
-0.125947223769644	0.301659857471798
-0.125947223769644	0.739155709839882
-0.125947223769644	0.725696650234302
-0.125947223769644	0.458573565144741
-0.125947223769644	-1.31046606116533
-0.125947223769644	-0.734606566575071
-0.125947223769644	-0.111191580734613
-0.125947223769644	-0.610202127384462
-0.125947223769644	-0.81460991321741
-0.125947223769644	-0.159286852168533
-0.125947223769644	0.566157312246049
-0.125947223769644	-0.414244062706827
-0.125947223769644	0.787658080592428
-0.125947223769644	1.30253556494784
-0.125947223769644	0.26287561262112
-0.125947223769644	-0.112082731143513
-0.125947223769644	-1.09968532522157
-0.125947223769644	-0.599636955216597
-0.125947223769644	0.534503763586531
-0.125947223769644	0.97655616560847
-0.125947223769644	-0.450864057754228
-0.125947223769644	-0.592318799145616
-0.125947223769644	-0.940973207140651
-0.125947223769644	-0.173911127062858
-0.125947223769644	0.766376603776046
-0.125947223769644	-0.29924141359222
-0.125947223769644	-0.206278537384407
-0.125947223769644	-1.45253365452263
-0.125947223769644	-0.595821645203809
-0.125947223769644	0.26211797536694
-0.125947223769644	-1.00657494232323
-0.125947223769644	-0.189509934716124
-0.125947223769644	-0.0316527832750849
-0.125947223769644	-0.853095941019051
-0.125947223769644	-0.217060027513248
-0.125947223769644	-0.0497608992699812
-0.125947223769644	0.71193034496338
-0.125947223769644	1.06224263215546
-0.125947223769644	-0.399990704152297
-0.125947223769644	0.0921472229454123
-0.125947223769644	-0.0779485230101179
-0.125947223769644	-0.411545090411125
-0.125947223769644	0.225644185042341
-0.125947223769644	-0.683181222400456
-0.125947223769644	-0.0526391618326766
-0.125947223769644	0.730308437104135
-0.125947223769644	-0.0841096065828159
-0.125947223769644	-0.546290857429366
-0.125947223769644	-0.633614038723498
-0.125947223769644	-0.503568519000563
-0.125947223769644	0.894559578378859
-0.125947223769644	-0.97133519453239
-0.125947223769644	-0.167147237926849
-0.125947223769644	-0.780335113377896
-0.125947223769644	-0.499008228230567
-0.125947223769644	-0.0963602474364705
-0.125947223769644	-0.488232944678799
-0.125947223769644	-0.0586373970626316
-0.125947223769644	-0.072310019414128
-0.125947223769644	-0.819828573001965
-0.125947223769644	-0.699886363802488
-0.125947223769644	0.157381082767732
-0.125947223769644	1.42035035959398
-0.125947223769644	-0.339288804171405
-0.125947223769644	0.0620114645954872
-0.125947223769644	-0.845033990358302
-0.125947223769644	-0.036004311419227
-0.125947223769644	0.681037133866213
-0.125947223769644	0.286876428367776
-0.125947223769644	0.34083231909457
-0.125947223769644	-0.228543250753328
-0.125947223769644	0.161178455462219
-0.125947223769644	-0.435869699102632
-0.125947223769644	-0.249438797477288
-0.125947223769644	-0.177355784291417
-0.125947223769644	-0.675952136746684
-0.125947223769644	-0.442621147779675
-0.125947223769644	-0.148114707352422
-0.125947223769644	0.458511316550204
-0.125947223769644	-0.514774359761129
-0.125947223769644	-0.881262656419763
-0.125947223769644	-0.978232613139005
-0.125947223769644	-0.159125879513494
-0.125947223769644	0.466990001802243
-0.125947223769644	0.558999055303973
-0.125947223769644	-0.855664359139248
-0.125947223769644	-0.27585364370735
-0.125947223769644	0.422542548253116
-0.125947223769644	0.318479413748298
-0.125947223769644	-0.239692554851187
-0.125947223769644	-0.652756106262942
-0.125947223769644	-1.16036775230825
-0.125947223769644	-0.174745680759494
-0.125947223769644	0.367255575436849
-0.125947223769644	-1.17088551543245
-0.125947223769644	-0.72983844413826
-0.125947223769644	0.46406022766227
-0.125947223769644	-0.163157576342734
-0.125947223769644	-0.254951610429107
-0.125947223769644	0.377264353644196
-0.125947223769644	-0.189690732873765
-0.125947223769644	-0.468110309788107
-0.125947223769644	0.0511213446795169
-0.125947223769644	-1.46914570843571
-0.125947223769644	0.445897916265344
-0.125947223769644	-1.26648768426948
-0.125947223769644	0.354658297645588
-0.125947223769644	-0.317928792327402
-0.125947223769644	-0.634873084327742
-0.125947223769644	0.600051472723123
-0.125947223769644	0.169104032693374
-0.125947223769644	0.0521678580701708
-0.125947223769644	0.80134437023479
-0.125947223769644	-1.14814614223312
-0.125947223769644	0.598165533946995
-0.125947223769644	-0.0121671434776078
-0.125947223769644	-0.349432527046128
-0.125947223769644	1.03517793222883
-0.125947223769644	0.654791156810389
-0.125947223769644	0.458218499608742
-0.125947223769644	-0.37015800376769
-0.125947223769644	-0.481716155558558
-0.125947223769644	0.451457033906517
-0.125947223769644	0.152580274556816
-0.125947223769644	-0.866484758741895
-0.125947223769644	-1.07481519367925
-0.125947223769644	-0.828532538268891
-0.125947223769644	-0.325738768849481
-0.125947223769644	0.394409438146134
-0.125947223769644	-0.548746094192113
-0.125947223769644	-0.435653723802579
-0.125947223769644	0.0201552477305086
-0.125947223769644	-0.5242116388017
-0.125947223769644	-0.583893862624224
-0.125947223769644	0.718740146451988
-0.125947223769644	-0.457651631322156
-0.125947223769644	0.0162483853971745
-0.125947223769644	-0.055085890611632
-0.125947223769644	-1.44839659852285
-0.125947223769644	-1.00686662969241
-0.125947223769644	0.472854620533407
-0.125947223769644	1.07215805415555
-0.125947223769644	-0.194095922501077
-0.125947223769644	0.143389464981428
-0.125947223769644	-0.764431517252135
-0.125947223769644	-0.81834472770594
-0.125947223769644	-0.842769417936828
-0.125947223769644	-0.072245630485972
-0.125947223769644	-0.14882720684135
-0.125947223769644	0.10361239133813
-0.125947223769644	1.05084597666057
-0.125947223769644	0.073727891486192
-0.125947223769644	-0.416823997848546
-0.125947223769644	0.960877857227007
-0.125947223769644	0.00325242876024644
-0.125947223769644	0.365309848893413
-0.125947223769644	-0.33927274245534
-0.125947223769644	-0.242986571547275
-0.125947223769644	-0.185294052570257
-0.125947223769644	0.209073543300831
-0.125947223769644	0.0303382832180776
-0.125947223769644	-0.0469097026426504
-0.125947223769644	-0.625015399695513
-0.125947223769644	-0.69535775952372
-0.125947223769644	0.459099683811847
-0.125947223769644	-0.303256308316734
-0.125947223769644	0.34863618785306
-0.125947223769644	0.978780677988606
-0.125947223769644	0.154887059233733
-0.125947223769644	-0.671914489773348
-0.125947223769644	-0.428449056689759
-0.125947223769644	-0.92440097934122
-0.125947223769644	0.26209988915061
-0.125947223769644	-0.0172331246036815
-0.125947223769644	-1.23343240848593
-0.125947223769644	-0.418924833779588
-0.125947223769644	0.682622470752744
-0.125947223769644	-0.691392414966634
-0.125947223769644	-0.656824375222193
-0.125947223769644	-0.228006421080651
-0.125947223769644	-1.00889017955062
-0.125947223769644	-0.450628003672956
-0.125947223769644	-1.3585101865088
-0.125947223769644	-0.503512982733279
-0.125947223769644	-0.906520792466809
-0.125947223769644	0.0446293081345008
-0.125947223769644	-0.528077567516235
-0.125947223769644	0.463633898170356
-0.125947223769644	-0.384712966795493
-0.125947223769644	-0.81005620360583
-0.125947223769644	-0.103586052908573
-0.125947223769644	-0.585852886124683
-0.125947223769644	-0.183723753875554
-0.125947223769644	1.15765896315253
-0.125947223769644	-0.265409394451576
-0.125947223769644	-0.234877258454064
-0.125947223769644	0.196999625989811
-0.125947223769644	-0.478930489106911
-0.125947223769644	0.0253689440796325
-0.125947223769644	0.218637855751709
-0.125947223769644	-0.250869234225286
-0.125947223769644	-0.184222458178765
-0.125947223769644	-0.0767191836978153
-0.125947223769644	0.270761467248276
-0.125947223769644	-0.471965659445332
-0.125947223769644	-1.28660994295328
-0.125947223769644	-0.338966068364726
-0.125947223769644	0.220722938660368
-0.125947223769644	-2.06749984039549
-0.125947223769644	0.560992185859259
-0.125947223769644	0.894167644569863
-0.125947223769644	-0.938209501107162
-0.125947223769644	0.837948316237559
-0.125947223769644	-0.201057841030227
-0.125947223769644	-0.0465822681926572
-0.125947223769644	-0.26577436059253
-0.125947223769644	-0.105227589374405
-0.125947223769644	1.1898358921764
-0.125947223769644	0.0786821581717049
-0.125947223769644	-0.749047782361993
-0.125947223769644	-0.73474787622318
-0.125947223769644	0.143932497569672
-0.125947223769644	-0.353420995499834
-0.125947223769644	0.21906062063465
-0.125947223769644	0.130083124507381
-0.125947223769644	0.0827222370753016
-0.125947223769644	0.0773802509272145
-0.125947223769644	0.128816469968058
-0.125947223769644	0.506613054726327
-0.125947223769644	1.29574558073399
-0.125947223769644	-1.25425596144684
-0.125947223769644	-0.0374397320627639
-0.125947223769644	0.940358544494367
-0.125947223769644	-2.10957207204616
-0.125947223769644	0.00240620973555558
-0.125947223769644	0.784911453595139
-0.125947223769644	-0.30801447392211
-0.125947223769644	-1.22906413071586
-0.125947223769644	-0.634684958814781
-0.125947223769644	-0.214870413580736
-0.125947223769644	-0.548941913295639
-0.125947223769644	-0.132501925600536
-0.125947223769644	1.00896792199387
-0.125947223769644	-0.0319071339602906
-0.125947223769644	-0.504223206443931
-0.125947223769644	1.10530178964518
-0.125947223769644	-1.53416123395115
-0.125947223769644	-0.559271847526098
-0.125947223769644	-0.346515520384223
-0.125947223769644	-0.733617013329635
-0.125947223769644	-1.00323914628582
-0.125947223769644	0.174448255175554
-0.125947223769644	0.280850865316565
-0.125947223769644	0.150843777530584
-0.125947223769644	0.168295466701673
-0.125947223769644	-0.359821251051253
-0.125947223769644	-0.109590257814406
-0.125947223769644	-0.883731849338371
-0.125947223769644	0.306746844550821
-0.125947223769644	-0.822310896905846
-0.125947223769644	-0.634147775055695
-0.125947223769644	-1.10263156872419
-0.125947223769644	0.236576536268562
-0.125947223769644	-0.411659840599114
-0.125947223769644	-0.378268256237252
-0.125947223769644	-0.97800246710507
-0.125947223769644	0.130801073920766
-0.125947223769644	-0.793894026309605
-0.125947223769644	-0.519102506330107
-0.125947223769644	-0.730784513164939
-0.125947223769644	-1.12678698573331
-0.125947223769644	-0.319072695220853
-0.125947223769644	-0.0149238540890896
-0.125947223769644	0.272331229631082
-0.125947223769644	-0.247723747873358
-0.125947223769644	-0.739061720327572
-0.125947223769644	-1.11389980350086
-0.125947223769644	-1.03912895564508
-0.125947223769644	0.0295770822627618
-0.125947223769644	-0.94829757992226
-0.125947223769644	0.00664909219031418
-0.125947223769644	-0.704120033317993
-0.125947223769644	0.847912061087893
-0.125947223769644	-0.0249286624479231
-0.125947223769644	-0.496856265186219
-0.125947223769644	-0.26457842536873
-0.125947223769644	-0.595925682311905
-0.125947223769644	-0.331982398293644
-0.125947223769644	0.321840329478737
-0.125947223769644	0.298222334704532
-0.125947223769644	0.184754568992078
-0.125947223769644	-1.24522277170245
-0.125947223769644	-0.119012267403214
-0.125947223769644	0.00456052767873348
-0.125947223769644	-0.534566511166704
-0.125947223769644	-0.293760742143071
-0.125947223769644	0.197152116042773
-0.125947223769644	-0.0348727952368061
-0.125947223769644	-0.142800791159672
-0.125947223769644	-0.113852807449672
-0.125947223769644	1.15811405387494
-0.125947223769644	-0.210364734762961
-0.125947223769644	0.244408719688908
-0.125947223769644	0.0471661753975597
-0.125947223769644	0.410714820735412
-0.125947223769644	-0.511783544509159
-0.125947223769644	0.0371954807059456
-0.125947223769644	-0.237375188877189
-0.125947223769644	-0.480405146838063
-0.125947223769644	0.84592214293104
-0.125947223769644	0.0802271350294285
-0.125947223769644	-1.14571569341326
-0.125947223769644	0.0162201140986708
-0.125947223769644	-0.04350786554171
-0.125947223769644	0.318091416590624
-0.125947223769644	-0.575730419398264
-0.125947223769644	0.159157661475548
-0.125947223769644	-0.204740493935313
-0.125947223769644	-0.399812426119661
-0.125947223769644	-0.139097869301498
-0.125947223769644	-0.337840858445717
-0.125947223769644	-0.00591947853656227
-0.125947223769644	-1.38701090188807
-0.125947223769644	-0.318210515217698
-0.125947223769644	-0.0341691437583115
-0.125947223769644	0.431858234262044
-0.125947223769644	-0.321491864025697
-0.125947223769644	-0.415847075246631
-0.125947223769644	0.0603094959483788
-0.125947223769644	0.0195299334071545
-0.125947223769644	0.942454397420129
-0.125947223769644	-0.171043165105186
-0.125947223769644	-0.129278000973975
-0.125947223769644	-0.442013142501891
-0.125947223769644	-0.357461679027975
-0.125947223769644	0.260911206617899
-0.125947223769644	-0.984893007768481
-0.125947223769644	-0.201431397898844
-0.125947223769644	-0.396315266709614
-0.125947223769644	-0.8577003396254
-0.125947223769644	0.27049238243835
-0.125947223769644	-0.218999121878157
-0.125947223769644	-0.354277862310542
-0.125947223769644	0.918417347606992
-0.125947223769644	0.698084282535856
-0.125947223769644	0.497744927664328
-0.125947223769644	-0.156586124901477
-0.125947223769644	0.724506357198771
-0.125947223769644	-0.409127238187249
-0.125947223769644	-0.126019249332697
-0.125947223769644	-1.36342640667879
-0.125947223769644	1.16893146627305
-0.125947223769644	-0.752433109973027
-0.125947223769644	-0.0788461633785816
-0.125947223769644	0.507254053254968
-0.125947223769644	0.156989074124739
-0.125947223769644	-0.344003202981982
-0.125947223769644	-0.096548107933065
-0.125947223769644	-0.377239275657667
-0.125947223769644	-0.71666155902076
-0.125947223769644	-0.869049881630887
-0.125947223769644	-0.144222011149381
-0.125947223769644	0.861048403798746
-0.125947223769644	-1.06100056839715
-0.125947223769644	0.304571068023323
-0.125947223769644	-0.131359185967883
-0.125947223769644	-0.637581391108615
-0.125947223769644	-0.50326465875029
-0.125947223769644	0.00486690265092679
-0.125947223769644	-1.70708457118555
-0.125947223769644	-0.683373095876263
-0.125947223769644	-0.0789317078568233
-0.125947223769644	0.429541531751918
-0.125947223769644	-0.0575333498352883
-0.125947223769644	-0.865980797888048
-0.125947223769644	-0.872135476724486
-0.125947223769644	0.611661805711895
-0.125947223769644	-0.399712012533358
-0.125947223769644	0.248477570650026
-0.125947223769644	-0.625284811657154
-0.125947223769644	0.256453198814268
-0.125947223769644	0.449135200806749
-0.125947223769644	-0.290988776730891
-0.125947223769644	0.373348874216999
-0.125947223769644	0.966017757216584
-0.125947223769644	0.655215308120727
-0.125947223769644	-0.797782066879815
-0.125947223769644	1.42585822118482
-0.125947223769644	-0.907193233938499
-0.125947223769644	0.418741213683355
-0.125947223769644	-0.571493855352463
-0.125947223769644	-1.54620166789745
-0.125947223769644	0.0156634595147007
-0.125947223769644	-0.0220260233792505
-0.125947223769644	-0.0543052182633179
-0.125947223769644	-0.742135224645695
-0.125947223769644	0.65965952320878
-0.125947223769644	-0.78164036732359
-0.125947223769644	0.019276642964044
-0.125947223769644	0.102298301123682
-0.125947223769644	-0.69118352610727
-0.125947223769644	0.131523177167444
-0.125947223769644	0.220912066946937
-0.125947223769644	-0.303092111265826
-0.125947223769644	-0.844224754997421
-0.125947223769644	-0.649588937720295
-0.125947223769644	0.457028038723307
-0.125947223769644	-0.890926563522304
-0.125947223769644	0.0726084559746232
-0.125947223769644	-0.302139508501697
-0.125947223769644	-0.666449918329788
-0.125947223769644	-0.218570509607578
-0.125947223769644	-0.423036779486848
-0.125947223769644	0.00294615551878064
-0.125947223769644	0.274602616050035
-0.125947223769644	-0.117389532074201
-0.125947223769644	-0.430005535304396
-0.125947223769644	0.918826346880488
-0.125947223769644	-0.268271706156533
-0.125947223769644	-0.12034014683291
-0.125947223769644	-0.74126858625547
-0.125947223769644	-1.10620083746627
-0.125947223769644	-0.0740141335758713
-0.125947223769644	0.481186590255192
-0.125947223769644	-0.213544002792181
-0.125947223769644	0.157926700645717
-0.125947223769644	0.29531627961442
-0.125947223769644	-0.493721643860324
-0.125947223769644	-0.390839215827053
-0.125947223769644	-0.562264900231996
-0.125947223769644	-1.13120416651556
-0.125947223769644	-0.964733123638226
-0.125947223769644	-1.53835643910043
-0.125947223769644	-1.74441885068346
-0.125947223769644	-0.868429258634821
-0.125947223769644	-0.627697510742735
-0.125947223769644	-0.250582330765299
-0.125947223769644	0.360788680628956
-0.125947223769644	-0.667451963727371
-0.125947223769644	-0.194327400145424
-0.125947223769644	-0.00892168597527246
-0.125947223769644	0.0312344465243116
-0.125947223769644	0.162464689082833
-0.125947223769644	-0.228159558319096
-0.125947223769644	-1.38065749433144
-0.125947223769644	0.898960436525641
-0.125947223769644	-0.139357803464656
-0.125947223769644	-0.305600169472044
-0.125947223769644	-0.151052189897745
-0.125947223769644	-0.67795632641596
-0.125947223769644	-0.690092466024122
-0.125947223769644	0.536780874440751
-0.125947223769644	-0.739153801392545
-0.125947223769644	0.403251419080552
-0.125947223769644	-1.26171872383812
-0.125947223769644	0.15082903525695
-0.125947223769644	-0.229341228631565
-0.125947223769644	-0.0884390233694356
-0.125947223769644	0.320760414103651
-0.125947223769644	0.410525743854058
-0.125947223769644	0.51241717021854
-0.125947223769644	-0.242436406053315
-0.125947223769644	-0.427241914888554
-0.125947223769644	-1.04087422275885
-0.125947223769644	-0.35253833349679
-0.125947223769644	0.292613318970186
-0.125947223769644	0.356034290581642
-0.125947223769644	-0.881414373612213
-0.125947223769644	-0.555861280478541
-0.125947223769644	-0.275983186411847
-0.125947223769644	-0.499575003216521
-0.125947223769644	-0.902477059314509
-0.125947223769644	-0.0241093644963442
-0.125947223769644	0.733014475189912
-0.125947223769644	-0.33979774641367
-0.125947223769644	-1.53788198767119
-0.125947223769644	-0.240673880940605
-0.125947223769644	-0.133646978076403
-0.125947223769644	-0.257311056237776
-0.125947223769644	-0.691571917760143
-0.125947223769644	-0.684309584123999
-0.125947223769644	-0.845431313663173
-0.125947223769644	0.400479122271135
-0.125947223769644	0.23271313259187
-0.125947223769644	0.61066992091003
-0.125947223769644	-0.177917345965445
-0.125947223769644	0.211290395289093
-0.125947223769644	-0.580791773858717
-0.125947223769644	-0.334669580429647
-0.125947223769644	-0.170381426006773
-0.125947223769644	-0.258195398000897
-0.125947223769644	-0.448163331879098
-0.125947223769644	-0.84426067036744
-0.125947223769644	-1.14657897975611
-0.125947223769644	0.366792384796437
-0.125947223769644	-0.107880206015925
-0.125947223769644	0.480660694739829
-0.125947223769644	0.147125945307695
-0.125947223769644	0.0468091061638729
-0.125947223769644	-0.14946199476634
-0.125947223769644	-0.311144336316656
-0.125947223769644	0.648886284709069
-0.125947223769644	-0.338079792357962
-0.125947223769644	0.148503386697047
-0.125947223769644	-0.939615166311249
-0.125947223769644	-0.323394145785147
-0.125947223769644	0.0757101275416758
-0.125947223769644	-0.219319136744861
-0.125947223769644	-0.820577925689826
-0.125947223769644	-0.926617809400834
-0.125947223769644	0.675324206348396
-0.125947223769644	0.0535422957169355
-0.125947223769644	-0.399471978446476
-0.125947223769644	-0.885210650479052
-0.125947223769644	-0.844717338026592
-0.125947223769644	0.3451820899833
-0.125947223769644	0.551589086345326
-0.125947223769644	-0.497783735023634
-0.125947223769644	0.805916468633207
-0.125947223769644	-0.639350192846885
-0.125947223769644	-0.876188080440642
-0.125947223769644	0.558520205099313
-0.125947223769644	0.71370911766023
-0.125947223769644	-0.466711037492057
-0.125947223769644	-0.614489610439398
-0.125947223769644	-0.26731336120675
-0.125947223769644	0.457264004208724
-0.125947223769644	-0.465353196275054
-0.125947223769644	-0.666533787721357
-0.125947223769644	-1.0606438217889
-0.125947223769644	0.540304599260979
-0.125947223769644	0.688961830140519
-0.125947223769644	-0.237954809787961
-0.125947223769644	0.617313890697188
-0.125947223769644	-1.48320362771008
-0.125947223769644	-0.252589940035485
-0.125947223769644	0.396856757104772
-0.125947223769644	-0.437801885965782
-0.125947223769644	-0.0757530124045405
-0.125947223769644	-0.0472467034737429
-0.125947223769644	-0.730786952446736
-0.125947223769644	-0.246569290910234
-0.125947223769644	-0.488690349983152
-0.125947223769644	0.142063459767673
-0.125947223769644	0.511094474504246
-0.125947223769644	-0.00982280677468111
-0.125947223769644	0.918615600243929
-0.125947223769644	0.793450374968191
-0.125947223769644	0.314301357483165
-0.125947223769644	-0.175688735677897
-0.125947223769644	0.421615532147516
-0.125947223769644	-0.122227646168677
-0.125947223769644	-0.00219608619032109
-0.125947223769644	-0.969802880206743
-0.125947223769644	-0.610345696901064
-0.125947223769644	-1.11753989677849
-0.125947223769644	-1.68238674384351
-0.125947223769644	-0.166562829803576
-0.125947223769644	0.241390760322574
-0.125947223769644	-0.761506275674111
-0.125947223769644	0.169266415106813
-0.125947223769644	-0.703310755442304
-0.125947223769644	0.0624689510907827
-0.125947223769644	0.330278203926417
-0.125947223769644	-0.248583717833375
-0.125947223769644	0.297331587524727
-0.125947223769644	0.492532016291839
-0.125947223769644	0.477602934577457
-0.125947223769644	0.0933417080600953
-0.125947223769644	-0.500440986826343
-0.125947223769644	-0.190445980043329
-0.125947223769644	-0.355307211853092
-0.125947223769644	-0.133744840482085
-0.125947223769644	-0.0844548488332693
-0.125947223769644	-0.359648209912969
-0.125947223769644	-0.190599897187485
-0.125947223769644	0.0634818980712371
-0.125947223769644	-0.482134579049405
-0.125947223769644	-1.31961863044395
-0.125947223769644	0.377552191586814
-0.125947223769644	0.453389455990002
-0.125947223769644	-0.949147298679954
-0.125947223769644	-0.0285786488184277
-0.125947223769644	-0.289308510147578
-0.125947223769644	-0.348232817172069
-0.125947223769644	0.404724755620128
-0.125947223769644	-0.109039255888121
-0.125947223769644	-0.755963546408689
-0.125947223769644	0.204709756076288
-0.125947223769644	-0.718723724015861
-0.125947223769644	-0.591549726543412
-0.125947223769644	-0.443830582623654
-0.125947223769644	0.734014352984834
-0.125947223769644	0.456915079573003
-0.125947223769644	0.295697106708799
-0.125947223769644	-0.417749840941247
-0.125947223769644	0.741764046716752
-0.125947223769644	0.0803511588300291
-0.125947223769644	-0.462169270443789
-0.125947223769644	-0.142708386581357
-0.125947223769644	0.536458361093665
-0.125947223769644	0.23314366968361
-0.125947223769644	0.942779816774724
-0.125947223769644	0.0795306188002177
-0.125947223769644	-0.700915411330869
-0.125947223769644	-0.400346932329593
-0.125947223769644	-0.27937176827328
-0.125947223769644	0.218540299417153
-0.125947223769644	0.779773590556098
-0.125947223769644	0.519820672399466
-0.125947223769644	-0.28188792053521
-0.125947223769644	-0.119025853781073
-0.125947223769644	-0.0400908904158924
-0.125947223769644	-0.478445375984863
-0.125947223769644	0.454434108015164
-0.125947223769644	0.226872295711767
-0.125947223769644	0.953974184511588
-0.125947223769644	-0.404288905509762
-0.125947223769644	-0.662735608095925
-0.125947223769644	0.580909538671349
-0.125947223769644	0.483594494236332
-0.125947223769644	0.260736243455655
-0.125947223769644	-0.438787931526553
-0.125947223769644	0.794233511677043
-0.125947223769644	-1.04715156050368
-0.125947223769644	-1.00444653815023
-0.125947223769644	-0.065348798014794
-0.125947223769644	0.462190737135064
-0.125947223769644	-0.509254877447283
-0.125947223769644	-0.107124423518951
-0.125947223769644	0.421649009004247
-0.125947223769644	-0.0499068333034613
-0.125947223769644	0.599685294156103
-0.125947223769644	-0.4591396842818
-0.125947223769644	-0.885818357967324
-0.125947223769644	-1.24324136271225
-0.125947223769644	0.694029862140717
-0.125947223769644	-0.883152810993445
-0.125947223769644	-0.793321749515551
-0.125947223769644	0.226510200134643
-0.125947223769644	-0.0470057139105631
-0.125947223769644	0.00689489952212971
-0.125947223769644	-0.506501898772704
-0.125947223769644	-1.02033497743206
-0.125947223769644	0.26686361144745
-0.125947223769644	-0.312864242874812
-0.125947223769644	-1.2159316348303
-0.125947223769644	-0.276145155483745
-0.125947223769644	0.349429649359357
-0.125947223769644	-0.0533571174484762
-0.125947223769644	0.0184431176445948
-0.125947223769644	-0.027486548074646
-0.125947223769644	0.161806164780136
-0.125947223769644	-1.26891601256049
-0.125947223769644	-0.635252866703644
-0.125947223769644	0.725376669809154
-0.125947223769644	0.654001369145165
-0.125947223769644	0.523896923992808
-0.125947223769644	0.224382250766857
-0.125947223769644	-1.59965110406438
-0.125947223769644	-0.622951780612955
-0.125947223769644	-0.0769603486911238
-0.125947223769644	-0.0505076450749426
-0.125947223769644	0.98442266080927
-0.125947223769644	-0.147883811432716
-0.125947223769644	-0.566588038244109
-0.125947223769644	0.974581938794643
-0.125947223769644	0.509760168446672
-0.125947223769644	0.807257361294129
-0.125947223769644	-0.0842416417859326
-0.125947223769644	-0.722631928385469
-0.125947223769644	-0.496253976226399
-0.125947223769644	-0.768412902839107
-0.125947223769644	-0.306426049841235
-0.125947223769644	0.0057536747473903
-0.125947223769644	-0.105183579086321
-0.125947223769644	0.174020681628345
-0.125947223769644	-0.622542319315234
-0.125947223769644	-0.80331716046634
-0.125947223769644	0.382117018299956
-0.125947223769644	0.469313408410714
-0.125947223769644	0.609576901691654
-0.125947223769644	-0.184579755456957
-0.125947223769644	-0.367995399020967
-0.125947223769644	0.626534003888769
-0.125947223769644	-0.869052392490985
-0.125947223769644	-0.540540410440438
-0.125947223769644	0.187282000934739
-0.125947223769644	-0.282136377301667
-0.125947223769644	-0.0298451436096314
-0.125947223769644	0.154978324115562
-0.125947223769644	0.0693824360878471
-0.125947223769644	-0.266866047644502
-0.125947223769644	0.87548589316937
-0.125947223769644	-1.1465600628671
-0.125947223769644	-0.353259419799656
-0.125947223769644	-0.414003143618144
-0.125947223769644	-0.442504463854772
-0.125947223769644	-0.13806652517662
-0.125947223769644	-0.433763981893509
-0.125947223769644	-0.582966204124048
-0.125947223769644	0.469708603059983
-0.125947223769644	-0.156648963553679
-0.125947223769644	0.16705576989028
-0.125947223769644	0.96360868262414
-0.125947223769644	-0.40551297396146
-0.125947223769644	1.02662634268323
-0.125947223769644	-0.288477966698379
-0.125947223769644	0.544794344272255
-0.125947223769644	0.0194244177191585
-0.125947223769644	-0.240650152377892
-0.125947223769644	-0.5235048382901
-0.125947223769644	0.463031610792101
-0.125947223769644	1.14709376647754
-0.125947223769644	-0.440040472876061
-0.125947223769644	-0.789559641276391
-0.125947223769644	0.426066016217291
-0.125947223769644	-1.44778588091708
-0.125947223769644	-0.432170552898799
-0.125947223769644	-0.796078148630553
-0.125947223769644	0.0679835542227313
-0.125947223769644	-0.0851143521896202
-0.125947223769644	-0.752958730415016
-0.125947223769644	-0.254135250341577
-0.125947223769644	-0.589060580055835
-0.125947223769644	-0.0432294435266503
-0.125947223769644	-0.610256695885708
-0.125947223769644	-0.421553515774325
-0.125947223769644	-0.0642974111010474
-0.125947223769644	0.0936822838100706
-0.125947223769644	-0.0340334732238755
-0.125947223769644	-0.251463562526643
-0.125947223769644	0.461465582895228
-0.125947223769644	-0.648482341278836
-0.125947223769644	0.658563108522549
-0.125947223769644	0.108096217412268
-0.125947223769644	0.122080407799182
-0.125947223769644	-0.145461360145446
-0.125947223769644	1.18667526437704
-0.125947223769644	-0.348845465123838
-0.125947223769644	-0.773872744614631
-0.125947223769644	-0.055753414605428
-0.125947223769644	0.197879279823321
-0.125947223769644	-0.409231687524198
-0.125947223769644	0.217585917390457
-0.125947223769644	-0.938537590997364
-0.125947223769644	0.321376927518496
-0.125947223769644	-0.781238274212217
-0.125947223769644	0.13064333037233
-0.125947223769644	0.0588935672917143
-0.125947223769644	-0.459969202089961
-0.125947223769644	0.0963757681744373
-0.125947223769644	0.472357806407864
-0.125947223769644	-0.366628520487893
-0.125947223769644	-0.803057673110417
-0.125947223769644	0.725055029690392
-0.125947223769644	-0.753638518443505
-0.125947223769644	-0.932240045097011
-0.125947223769644	0.118996034250038
-0.125947223769644	0.35621829498774
-0.125947223769644	-0.525966298572917
-0.125947223769644	0.175059877691171
-0.125947223769644	-0.0235553553412242
-0.125947223769644	-0.0467115700842202
-0.125947223769644	-0.0930952381171222
-0.125947223769644	0.973854823676327
-0.125947223769644	0.082884400158622
-0.125947223769644	-0.687618679899929
-0.125947223769644	-0.404530364564491
-0.125947223769644	0.535626488401949
-0.125947223769644	-0.0878135371262995
-0.125947223769644	-1.11435090769
-0.125947223769644	-1.25668667322512
-0.125947223769644	0.105890544195323
-0.125947223769644	-1.22900151939268
-0.125947223769644	-0.431817059293176
-0.125947223769644	-0.562881820875256
-0.125947223769644	-1.02357055235695
-0.125947223769644	-0.744013620257636
-0.125947223769644	-1.58346355461948
-0.125947223769644	-0.713369201570033
-0.125947223769644	0.484393146889819
-0.125947223769644	0.204550591770476
-0.125947223769644	-0.74336431479002
-0.125947223769644	0.332928156208534
-0.125947223769644	-0.482096391362259
-0.125947223769644	-0.62811902213939
-0.125947223769644	-0.756885391377733
-0.125947223769644	0.253910343864928
-0.125947223769644	-0.914090431553726
-0.125947223769644	0.031062653033834
-0.125947223769644	-0.0500827143454849
-0.125947223769644	-1.36763261864219
-0.125947223769644	0.115976186575427
-0.125947223769644	0.11492614362131
-0.125947223769644	-0.544797204061007
-0.125947223769644	0.353145341971733
-0.125947223769644	-0.198961465568479
-0.125947223769644	-0.12958097705505
-0.125947223769644	-0.511099027070212
-0.125947223769644	-1.42334186627371
-0.125947223769644	-0.125678385261543
-0.125947223769644	-0.396755598038889
-0.125947223769644	-0.93635353771497
-0.125947223769644	0.413503206372578
-0.125947223769644	-1.11712520078861
-0.125947223769644	-0.565720325472489
-0.125947223769644	-0.108932373611824
-0.125947223769644	-0.0012970650620428
-0.125947223769644	-0.719572081128156
-0.125947223769644	-0.284893405246717
-0.125947223769644	-0.139379114606251
-0.125947223769644	-0.250493201143062
-0.125947223769644	-0.453183876424956
-0.125947223769644	0.509007120165057
-0.125947223769644	-0.271836332289426
-0.125947223769644	-0.644426438824443
-0.125947223769644	-0.69101345166331
-0.125947223769644	0.111111808474747
-0.125947223769644	-0.568272334778271
-0.125947223769644	-0.65467156327512
-0.125947223769644	-1.24936066355547
-0.125947223769644	0.342396192440901
-0.125947223769644	0.409464514924544
-0.125947223769644	-0.257590814923423
-0.125947223769644	-0.849558424025323
-0.125947223769644	-0.626727392623459
-0.125947223769644	-0.654400770951145
-0.125947223769644	0.557698299031046
-0.125947223769644	-0.432249070849658
-0.125947223769644	-0.0966451265795903
-0.125947223769644	-0.0247879952440946
-0.125947223769644	-0.522449495162452
-0.125947223769644	0.973973767746672
-0.125947223769644	0.448310133451848
-0.125947223769644	-0.397807439720949
-0.125947223769644	-0.572216977362949
-0.125947223769644	0.198853838585956
-0.125947223769644	-0.595011630036
-0.125947223769644	-0.431343165146067
-0.125947223769644	0.0541401034020767
-0.125947223769644	-0.168453495979786
-0.125947223769644	0.18379751861435
-0.125947223769644	-0.0376061817994434
-0.125947223769644	-0.344074206136083
-0.125947223769644	-0.595959750009012
-0.125947223769644	-0.852392867739714
-0.125947223769644	-0.270076920691186
-0.125947223769644	0.817127479690625
-0.125947223769644	-0.485679465933821
-0.125947223769644	0.570199433963542
-0.125947223769644	0.295312173203081
-0.125947223769644	-0.255804307539475
-0.125947223769644	-0.150935874866864
-0.125947223769644	-0.702394305432146
-0.125947223769644	-0.705055096336428
-0.125947223769644	0.429016782001348
-0.125947223769644	-1.04975574523708
-0.125947223769644	0.0800173849184579
-0.125947223769644	0.420307168061207
-0.125947223769644	0.35877075085028
-0.125947223769644	-0.55377995454011
-0.125947223769644	-0.250287028342244
-0.125947223769644	-0.366501584147417
-0.125947223769644	-0.683574943923119
-0.125947223769644	-0.464391025950282
-0.125947223769644	0.156751424772153
-0.125947223769644	-0.511182165941596
-0.125947223769644	-0.930538875998001
-0.125947223769644	0.121516666830328
-0.125947223769644	-0.709706589213889
-0.125947223769644	0.632502157747103
-0.125947223769644	-1.06264908854768
-0.125947223769644	0.0636142294634892
-0.125947223769644	-0.466740084886387
-0.125947223769644	-0.248512246321276
-0.125947223769644	-0.0505598232076592
-0.125947223769644	-0.58584371816703
-0.125947223769644	-0.832065036614545
-0.125947223769644	-0.109143815342329
-0.125947223769644	0.266991699267434
-0.125947223769644	-0.793055009983671
-0.125947223769644	0.444605059365109
-0.125947223769644	0.994400851146689
-0.125947223769644	-0.43335661243397
-0.125947223769644	-1.06210241703363
-0.125947223769644	-0.944221494073307
-0.125947223769644	0.097191173869144
-0.125947223769644	1.06045521747435
-0.125947223769644	0.485529081654568
-0.125947223769644	0.38383420751779
-0.125947223769644	-0.440885601721789
-0.125947223769644	-0.698452673712307
-0.125947223769644	-0.246171646541693
-0.125947223769644	0.583852878691757
-0.125947223769644	-0.36341832331162
-0.125947223769644	0.112601615947921
-0.125947223769644	0.516789284533806
-0.125947223769644	-0.0429396177083962
-0.125947223769644	-0.503390803387259
-0.125947223769644	-0.597811500090702
-0.125947223769644	-0.222112154537951
-0.125947223769644	0.281450634247592
-0.125947223769644	0.0452147600099618
-0.125947223769644	1.14928626992709
-0.125947223769644	-0.848340938554014
-0.125947223769644	-1.10633703273175
-0.125947223769644	0.370484626522603
-0.125947223769644	0.131615238091816
-0.125947223769644	0.0615639647292867
-0.125947223769644	0.0865414710863559
-0.125947223769644	-0.658888332446959
-0.125947223769644	-0.411526874288115
-0.125947223769644	0.116017137082611
-0.125947223769644	0.268121494357928
-0.125947223769644	0.240734139931029
-0.125947223769644	-0.268730078235616
-0.125947223769644	-0.405840493856096
-0.125947223769644	-0.323146966083808
-0.125947223769644	-0.347630061402014
-0.125947223769644	-0.193196784426004
-0.125947223769644	-0.433491103902605
-0.125947223769644	0.560068341582577
-0.125947223769644	-0.326263069699726
-0.125947223769644	0.0912159058693909
-0.125947223769644	-0.887071540669733
-0.125947223769644	0.179569968108179
-0.125947223769644	-0.427858556299668
-0.125947223769644	-1.16672111565345
-0.125947223769644	0.513870613596768
-0.125947223769644	-1.01772846889119
-0.125947223769644	-1.48106203529065
-0.125947223769644	-0.101000148226781
-0.125947223769644	-1.00562977482805
-0.125947223769644	-0.836224063261258
-0.125947223769644	-0.236439417376214
-0.125947223769644	-0.479974277603613
-0.125947223769644	-0.233913826762943
-0.125947223769644	0.576044264779007
-0.125947223769644	0.0419429569849988
-0.125947223769644	-0.609919012976571
-0.125947223769644	0.340296015712426
-0.125947223769644	-0.112740128636353
-0.125947223769644	0.204348969645601
-0.125947223769644	-0.954270026989212
-0.125947223769644	-0.781119162558369
-0.125947223769644	-0.349015554685519
-0.125947223769644	0.292937634984249
-0.125947223769644	-1.2491989460261
-0.125947223769644	-0.493178400249547
-0.125947223769644	0.249387207115705
-0.125947223769644	-0.550892215264337
-0.125947223769644	-0.131751951315668
-0.125947223769644	-0.481918539095486
-0.125947223769644	-1.23103099001647
-0.125947223769644	-0.490194605742723
-0.125947223769644	-0.223465464904396
-0.125947223769644	0.394809950194779
-0.125947223769644	0.804001278189282
-0.125947223769644	-0.713183171617001
-0.125947223769644	-1.28955450880099
-0.125947223769644	-0.23290604405535
-0.125947223769644	-0.433110688113766
-0.125947223769644	-0.212097379365643
-0.125947223769644	0.66700846120651
-0.125947223769644	-0.531428156181042
-0.125947223769644	-0.361569808672041
-0.125947223769644	-0.0430671892115332
-0.125947223769644	-0.541120025123736
-0.125947223769644	1.22382893798143
-0.125947223769644	0.0131169339658673
-0.125947223769644	-0.607062114514973
-0.125947223769644	-0.59277007699151
-0.125947223769644	0.899984769950377
-0.125947223769644	-0.537789468063802
-0.125947223769644	-0.0740687172324282
-0.125947223769644	-0.613282254513117
-0.125947223769644	-1.04450359767388
-0.125947223769644	-0.333657546801844
-0.125947223769644	-0.150456863479616
-0.125947223769644	-0.528121790688924
-0.125947223769644	-0.487784387895628
-0.125947223769644	0.21733368673998
-0.125947223769644	0.0312437844397879
-0.125947223769644	-0.0659889619592831
-0.125947223769644	-0.288836999252688
-0.125947223769644	-0.597774927708704
-0.125947223769644	-0.696053524474453
-0.125947223769644	-0.518397097324378
-0.125947223769644	-0.195448662943563
-0.125947223769644	-0.500588112561285
-0.125947223769644	0.0775231219540369
-0.125947223769644	-0.702252359551762
-0.125947223769644	0.942896101579482
-0.125947223769644	0.149900744934495
-0.125947223769644	0.230380774827844
-0.125947223769644	0.259666791528002
-0.125947223769644	0.120269286492034
-0.125947223769644	-0.585630935007435
-0.125947223769644	-0.649924822118888
-0.125947223769644	-0.553616272463666
-0.125947223769644	0.975438389164934
-0.125947223769644	-0.280021734205117
-0.125947223769644	0.4342531735325
-0.125947223769644	-0.90542950823301
-0.125947223769644	-0.942390158560139
-0.125947223769644	0.0049141041197463
-0.125947223769644	-0.366516283860967
-0.125947223769644	0.230954472120134
-0.125947223769644	-1.57461789545062
-0.125947223769644	-0.528036940470278
-0.125947223769644	-0.268737205228746
-0.125947223769644	-0.44209362884898
-0.125947223769644	-0.586636357838958
-0.125947223769644	-0.655195154495682
-0.125947223769644	-0.233459352453464
-0.125947223769644	0.381353553647903
-0.125947223769644	-0.011496775536246
-0.125947223769644	-0.642270704027573
-0.125947223769644	0.0112113487705053
-0.125947223769644	-0.823336366333396
-0.125947223769644	0.0556655322421022
-0.125947223769644	-0.673780120281085
-0.125947223769644	-1.19230240321464
-0.125947223769644	0.580885311560265
-0.125947223769644	-0.10780507365136
-0.125947223769644	-0.711571888845824
-0.125947223769644	-0.410901813647606
-0.125947223769644	-0.642893502541808
-0.125947223769644	0.121616612684249
-0.125947223769644	-0.440590755644165
-0.125947223769644	0.435367962303886
-0.125947223769644	-0.386046547156105
-0.125947223769644	0.102976999683319
-0.125947223769644	-0.173612327052104
-0.125947223769644	-0.208722813688005
-0.125947223769644	-0.699079493191018
-0.125947223769644	-0.650906888679979
-0.125947223769644	-0.66727650358515
-0.125947223769644	-0.720720225613411
-0.125947223769644	-0.283564919853422
-0.125947223769644	-0.939993175011243
-0.125947223769644	-0.629536333288728
-0.125947223769644	-0.429649827955469
-0.125947223769644	-0.662110102363181
-0.125947223769644	0.309891948517803
-0.125947223769644	-1.11431426833863
-0.125947223769644	0.204250135651313
-0.125947223769644	-0.57874292394683
-0.125947223769644	0.260572396123747
-0.125947223769644	0.434897098132445
-0.125947223769644	-0.694493146029181
-0.125947223769644	-0.971131498262837
-0.125947223769644	0.0399848834934475
-0.125947223769644	-0.258693846543955
-0.125947223769644	-0.251325041362413
-0.125947223769644	0.661205811368746
-0.125947223769644	-0.115788921333443
-0.125947223769644	-0.15816604783268
-0.125947223769644	0.0873793592289772
-0.125947223769644	-0.272507823950355
-0.125947223769644	-0.432804387742219
-0.125947223769644	-0.137558954453346
-0.125947223769644	0.0827621760400129
-0.125947223769644	0.430644838205412
-0.125947223769644	-0.642675764663822
-0.125947223769644	0.0663769201412139
-0.125947223769644	-0.923636502791632
-0.125947223769644	-0.160453867967074
-0.125947223769644	-0.155424361053826
-0.125947223769644	1.15301422635258
-0.125947223769644	-0.107311216189728
-0.125947223769644	-0.169530246337052
-0.125947223769644	-0.364724689054422
-0.125947223769644	0.209398274033956
-0.125947223769644	0.43626627806799
-0.125947223769644	0.807959552922666
-0.125947223769644	-1.28609010315385
-0.125947223769644	-0.405392422322915
-0.125947223769644	-0.332171388367851
-0.125947223769644	-0.944388476667115
-0.125947223769644	0.42595508399067
-0.125947223769644	-0.476189528910062
-0.125947223769644	-0.308817065081063
-0.125947223769644	0.306588543918863
-0.125947223769644	-0.559448794131261
-0.125947223769644	-0.174983623975811
-0.125947223769644	0.951463535023364
-0.125947223769644	0.421694284203352
-0.125947223769644	-0.325765611108703
-0.125947223769644	0.89662081879359
-0.125947223769644	-1.19704461399765
-0.125947223769644	0.0788512773511757
-0.125947223769644	-0.413776895306125
-0.125947223769644	0.0123655650600025
-0.125947223769644	0.591123142940369
-0.125947223769644	-0.184699500532992
-0.125947223769644	0.412889349244461
-0.125947223769644	-1.20974655821392
-0.125947223769644	-1.076341716848
-0.125947223769644	0.0272920208731904
-0.125947223769644	-0.112481927358717
-0.125947223769644	0.277050327916975
-0.125947223769644	0.434003102209851
-0.125947223769644	0.162672952332678
-0.125947223769644	-0.924647571664174
-0.125947223769644	-0.306333943932519
-0.125947223769644	-0.0518793639915709
-0.125947223769644	0.37296138230619
-0.125947223769644	-0.605442482098484
-0.125947223769644	0.159421605905166
-0.125947223769644	-0.153219285541231
-0.125947223769644	0.438404623922777
-0.125947223769644	0.107149453212472
-0.125947223769644	-0.703382537056742
-0.125947223769644	0.231322296366581
-0.125947223769644	-0.0382974943594715
-0.125947223769644	0.322146638549022
-0.125947223769644	0.406437853868397
-0.125947223769644	0.51399663462291
-0.125947223769644	0.933669750421817
-0.125947223769644	-0.777906316142072
-0.125947223769644	-0.0932211911080142
-0.125947223769644	-0.454473457968808
-0.125947223769644	-0.459846975605678
-0.125947223769644	-0.793869829060614
-0.125947223769644	-0.293533425433206
-0.125947223769644	-0.484055669372126
-0.125947223769644	-0.168713084687876
-0.125947223769644	-1.02451124594993
-0.125947223769644	-0.626979500474248
-0.125947223769644	-0.312709406682394
-0.125947223769644	-0.481868997621468
-0.125947223769644	1.51625655480215
-0.125947223769644	-0.69708693715968
-0.125947223769644	-0.511055099692497
-0.125947223769644	-0.760277143981456
-0.125947223769644	-0.327164101107117
-0.125947223769644	0.233139072945789
-0.125947223769644	-0.128898500214674
-0.125947223769644	0.495220807832646
-0.125947223769644	-0.402728427144256
-0.125947223769644	-0.0924393025757311
-0.125947223769644	-0.814707687898296
-0.125947223769644	-0.328307881291701
-0.125947223769644	0.136370963089605
-0.125947223769644	0.632709779764479
-0.125947223769644	-0.513487084761288
-0.125947223769644	0.272821873730478
-0.125947223769644	0.180687752071076
-0.125947223769644	0.319481535234027
-0.125947223769644	0.335150099598244
-0.125947223769644	0.191760754364806
-0.125947223769644	-0.127885284989952
-0.125947223769644	-0.102209673495989
-0.125947223769644	0.600105845267209
-0.125947223769644	0.260663890239112
-0.125947223769644	-0.0155650129091397
-0.125947223769644	-0.0765377345899908
-0.125947223769644	-0.966750645930897
-0.125947223769644	-0.670440631560897
-0.125947223769644	-0.881865591498734
-0.125947223769644	-0.850524366238213
-0.125947223769644	0.086476548998486
-0.125947223769644	-0.873119050685631
-0.125947223769644	-0.562674508393525
-0.125947223769644	-0.405765032685428
-0.125947223769644	0.475657061333331
-0.125947223769644	-0.48644090772566
-0.125947223769644	-0.380293230580811
-0.125947223769644	0.545151215053268
-0.125947223769644	0.198062079546353
-0.125947223769644	0.145446893015006
-0.125947223769644	0.822908832080956
-0.125947223769644	-1.22984131586801
-0.125947223769644	-0.0488547513245867
-0.125947223769644	-1.16249055015189
-0.125947223769644	-0.031161763113308
-0.125947223769644	0.0205038929768617
-0.125947223769644	-0.107539115858586
-0.125947223769644	0.643442480621785
-0.125947223769644	0.121041459096296
-0.125947223769644	-0.125616787331651
-0.125947223769644	-0.0327975912804732
-0.125947223769644	-0.0954216538940973
-0.125947223769644	-0.722728223906961
-0.125947223769644	1.12518393536936
-0.125947223769644	-0.00777578183939689
-0.125947223769644	-0.704508602219607
-0.125947223769644	-0.0799157659582427
-0.125947223769644	0.00713710671581011
-0.125947223769644	0.692199271552864
-0.125947223769644	-0.930801735452162
-0.125947223769644	-0.506782918854776
-0.125947223769644	-0.207589803615369
-0.125947223769644	0.482202529400906
-0.125947223769644	-0.392758705869425
-0.125947223769644	-0.402545705756812
-0.125947223769644	0.363620053294004
-0.125947223769644	-0.232246504487258
-0.125947223769644	-0.422540524971636
-0.125947223769644	0.224739132207267
-0.125947223769644	-0.361785953970126
-0.125947223769644	-0.98624488663352
-0.125947223769644	-0.612052450337081
-0.125947223769644	-0.547102734880624
-0.125947223769644	0.028882877356425
-0.125947223769644	-0.894967278935824
-0.125947223769644	-0.427626906272327
-0.125947223769644	-0.601146228297616
-0.125947223769644	0.334287538623754
-0.125947223769644	-0.0374286178815287
-0.125947223769644	-0.764282797386224
-0.125947223769644	-0.0538619381995333
-0.125947223769644	-1.09324558965831
-0.125947223769644	-0.069116946915046
-0.125947223769644	-0.249449684735942
-0.125947223769644	-0.933629352814485
-0.125947223769644	-0.469669414117229
-0.125947223769644	-1.02241481764783
-0.125947223769644	-0.561245780409128
-0.125947223769644	-0.298036289320562
-0.125947223769644	-0.00409469237168408
-0.125947223769644	-0.884086938060071
-0.125947223769644	0.259836217305143
-0.125947223769644	0.375263350715035
-0.125947223769644	0.19631666570759
-0.125947223769644	-0.085712654892567
-0.125947223769644	-0.945773942131065
-0.125947223769644	-0.130974468384441
-0.125947223769644	0.183952602891887
-0.125947223769644	-0.498625705048692
-0.125947223769644	-0.597112629669149
-0.125947223769644	-1.0820471782279
-0.125947223769644	-0.385250761063767
-0.125947223769644	-0.852525711486876
-0.125947223769644	-0.753536797385192
-0.125947223769644	1.34730789191717
-0.125947223769644	0.535425483427936
-0.125947223769644	-0.331256816641577
-0.125947223769644	0.0283598892940663
-0.125947223769644	0.394019124070303
-0.125947223769644	0.427524898523017
-0.125947223769644	-0.016899342177635
-0.125947223769644	-0.688218685732786
-0.125947223769644	-0.131573426958678
-0.125947223769644	-0.331736269588801
-0.125947223769644	-0.301133995102916
-0.125947223769644	0.266744577414258
-0.125947223769644	0.849112624195828
-0.125947223769644	0.21646630029084
-0.125947223769644	-0.233358905550468
-0.125947223769644	-0.457360939443671
-0.125947223769644	-0.35823862468831
-0.125947223769644	-1.00689859859455
-0.125947223769644	-0.412901663655105
-0.125947223769644	-0.868879390454062
-0.125947223769644	0.423899563120428
-0.125947223769644	-0.890818988102882
-0.125947223769644	-0.92900731414848
-0.125947223769644	-0.180761982252523
-0.125947223769644	0.870296348140067
-0.125947223769644	0.810997443802628
-0.125947223769644	-0.409821884367354
-0.125947223769644	-0.130593654304517
-0.125947223769644	-0.117770227165818
-0.125947223769644	-0.61969306444158
-0.125947223769644	-1.23038675213288
-0.125947223769644	0.0411647765040102
-0.125947223769644	0.403287195679825
-0.125947223769644	-0.73318137350513
-0.125947223769644	-0.977810729936009
-0.125947223769644	0.134182736227472
-0.125947223769644	-0.694773622313103
-0.125947223769644	-0.609608779186549
-0.125947223769644	-0.184913711050191
-0.125947223769644	0.476603374130601
-0.125947223769644	0.0926419794809762
-0.125947223769644	0.154131418990546
-0.125947223769644	-0.24038066685372
