V1	V2
-0.102041287095503	0.0184743837150165
-0.102041287095503	0.381186436252619
-0.102041287095503	-0.280238872142249
-0.102041287095503	-0.105063895350135
-0.102041287095503	-0.122597225754426
-0.102041287095503	0.102059982048438
-0.102041287095503	0.20522663812292
-0.102041287095503	0.172722730939565
-0.102041287095503	-0.652242287852072
-0.102041287095503	0.35357068453305
-0.102041287095503	-0.21685034843799
-0.102041287095503	-0.468844901025822
-0.102041287095503	0.400720857164391
-0.102041287095503	-0.400626149858965
-0.102041287095503	-0.0322472876011091
-0.102041287095503	-0.257556664833352
-0.102041287095503	-0.150859022050295
-0.102041287095503	0.350750590535483
-0.102041287095503	0.249398276550103
-0.102041287095503	0.192030813893759
-0.102041287095503	-0.237063280924833
-0.102041287095503	-0.513453242445888
-0.102041287095503	0.0862030082406626
-0.102041287095503	0.374815234209763
-0.102041287095503	-0.764100679287139
-0.102041287095503	0.177441961643996
-0.102041287095503	-0.122100797433735
-0.102041287095503	0.112936396637842
-0.102041287095503	-0.059844582959883
-0.102041287095503	0.265146703964252
-0.102041287095503	0.0398015656309987
-0.102041287095503	-0.234464496799458
-0.102041287095503	0.0977245360791663
-0.102041287095503	0.486257763743694
-0.102041287095503	-0.851246222941278
-0.102041287095503	-0.07271001955122
-0.102041287095503	-0.377673089508125
-0.102041287095503	0.123487492597846
-0.102041287095503	-0.681709024833214
-0.102041287095503	0.094032382920755
-0.102041287095503	-0.552161689711657
-0.102041287095503	0.172921411126346
-0.102041287095503	0.295671978155902
-0.102041287095503	0.385124790771091
-0.102041287095503	0.0463846198388538
-0.102041287095503	0.806596074009562
-0.102041287095503	-0.798364749046275
-0.102041287095503	-0.371451559913268
-0.102041287095503	0.0304767242921429
-0.102041287095503	0.0406704629192234
-0.102041287095503	-0.152705913082126
-0.102041287095503	0.614352522673602
-0.102041287095503	0.902262494776068
-0.102041287095503	-0.775429329644481
-0.102041287095503	-0.254757712966356
-0.102041287095503	0.0783470639581125
-0.102041287095503	-0.251593663805526
-0.102041287095503	-0.0119627505068642
-0.102041287095503	0.136614049829397
-0.102041287095503	0.0601739671188959
-0.102041287095503	0.223724333867761
-0.102041287095503	0.11643278769774
-0.102041287095503	-0.410846296879473
-0.102041287095503	-0.486294576556574
-0.102041287095503	0.0519481733281246
-0.102041287095503	0.463179459292501
-0.102041287095503	-0.231643923901881
-0.102041287095503	-0.505753781422843
-0.102041287095503	0.0983429690334177
-0.102041287095503	-0.490416846564528
-0.102041287095503	-0.176784858353329
-0.102041287095503	0.0413668211876121
-0.102041287095503	-0.272622863891172
-0.102041287095503	-0.238349179010321
-0.102041287095503	-0.0997880230801549
-0.102041287095503	-0.70256913202897
-0.102041287095503	-0.822115537007676
-0.102041287095503	-0.12082150516401
-0.102041287095503	0.0339700762841808
-0.102041287095503	0.0952865507957021
-0.102041287095503	0.947417496155371
-0.102041287095503	-0.308370214683222
-0.102041287095503	0.0880921677344197
-0.102041287095503	-0.162897620592673
-0.102041287095503	0.343366171106911
-0.102041287095503	-0.197441507970893
-0.102041287095503	0.187841896811932
-0.102041287095503	-0.105357148797125
-0.102041287095503	0.0336022706049874
-0.102041287095503	0.114694812851155
-0.102041287095503	0.122612902647383
-0.102041287095503	-0.597415404710997
-0.102041287095503	0.0749931248344069
-0.102041287095503	-0.350378728271277
-0.102041287095503	0.261011291933325
-0.102041287095503	-0.10523328289926
-0.102041287095503	-0.160764587357885
-0.102041287095503	-0.473734182366226
-0.102041287095503	-0.156248233940424
-0.102041287095503	0.030499862906165
-0.102041287095503	-0.0593905581412386
-0.102041287095503	-0.184140305587551
-0.102041287095503	-0.0189625890899769
-0.102041287095503	0.00236985305305382
-0.102041287095503	-0.31793363841636
-0.102041287095503	0.769567878317162
-0.102041287095503	-0.0572507746081925
-0.102041287095503	-0.800808321857946
-0.102041287095503	-0.283511766097689
-0.102041287095503	0.0298473210905179
-0.102041287095503	0.148784158125014
-0.102041287095503	-0.0982058819900011
-0.102041287095503	0.25773615805554
-0.102041287095503	-0.119571643625029
-0.102041287095503	0.0314576086385152
-0.102041287095503	0.394587602870391
-0.102041287095503	-0.00684148052685529
-0.102041287095503	0.076503469807264
-0.102041287095503	-0.40695289920966
-0.102041287095503	0.457293540711099
-0.102041287095503	0.121763410858037
-0.102041287095503	-0.157223651631906
-0.102041287095503	-0.779427668651433
-0.102041287095503	-0.213785306354975
-0.102041287095503	-0.688752248881457
-0.102041287095503	-0.245995924966103
-0.102041287095503	-0.155954651577257
-0.102041287095503	-0.0836525857650088
-0.102041287095503	-0.398365551679628
-0.102041287095503	0.0187545712119004
-0.102041287095503	0.137957974539397
-0.102041287095503	0.0140506917349157
-0.102041287095503	-0.271103389742088
-0.102041287095503	0.45742910981258
-0.102041287095503	-0.155439890656595
-0.102041287095503	-0.318443771999156
-0.102041287095503	0.0514405784568979
-0.102041287095503	0.504303569095271
-0.102041287095503	-0.240894664614558
-0.102041287095503	0.551102142722375
-0.102041287095503	-0.0297858664670692
-0.102041287095503	-0.248137505701763
-0.102041287095503	-0.53449585980006
-0.102041287095503	0.315651387271721
-0.102041287095503	-0.406301400064105
-0.102041287095503	-0.285019038736483
-0.102041287095503	-0.362541998990995
-0.102041287095503	0.271096556981771
-0.102041287095503	-0.468084488289371
-0.102041287095503	-0.143723117617956
-0.102041287095503	0.132461148673258
-0.102041287095503	-0.719182563312838
-0.102041287095503	0.631869905083622
-0.102041287095503	0.36564294048323
-0.102041287095503	0.0476100681149099
-0.102041287095503	-0.577368261486374
-0.102041287095503	0.014632111445227
-0.102041287095503	0.282546222691959
-0.102041287095503	-0.234750307655027
-0.102041287095503	0.0950815684461972
-0.102041287095503	0.0644168029843541
-0.102041287095503	0.0162330963638517
-0.102041287095503	-0.603092853278056
-0.102041287095503	-0.717141970739824
-0.102041287095503	-0.321273835404693
-0.102041287095503	-0.2340744281559
-0.102041287095503	-0.0291512578833881
-0.102041287095503	-0.503085940799078
-0.102041287095503	-0.125133224402795
-0.102041287095503	-0.38524969906317
-0.102041287095503	0.0855585861454706
-0.102041287095503	0.121980289538364
-0.102041287095503	-0.0565588035939584
-0.102041287095503	-0.515595728197873
-0.102041287095503	0.25295619478629
-0.102041287095503	0.175211059107593
-0.102041287095503	-0.324273989373705
-0.102041287095503	-0.0166752396473413
-0.102041287095503	-0.403755304739512
-0.102041287095503	-0.0437242902283401
-0.102041287095503	0.269342692610351
-0.102041287095503	-0.327738520614023
-0.102041287095503	0.545358693150821
-0.102041287095503	-0.367355710600972
-0.102041287095503	-0.566267697637564
-0.102041287095503	0.453262463629923
-0.102041287095503	0.308513309218736
-0.102041287095503	0.340499029373785
-0.102041287095503	0.12175547369635
-0.102041287095503	-0.0930567458284308
-0.102041287095503	-0.161340120227418
-0.102041287095503	-0.409621442739812
-0.102041287095503	-0.666883503825868
-0.102041287095503	-0.0797644560284354
-0.102041287095503	0.228538795634591
-0.102041287095503	-0.620608801835129
-0.102041287095503	0.434728676662903
-0.102041287095503	0.22028677107388
-0.102041287095503	-0.0182137399256774
-0.102041287095503	0.530836264300362
-0.102041287095503	0.116760665935114
-0.102041287095503	0.184671013720578
-0.102041287095503	-0.420434808458037
-0.102041287095503	0.0562786771759107
-0.102041287095503	0.0818242389969868
-0.102041287095503	-0.533831730414871
-0.102041287095503	0.417591562225443
-0.102041287095503	0.484874331927717
-0.102041287095503	-0.406732271769989
-0.102041287095503	0.126958580344514
-0.102041287095503	0.105257442335716
-0.102041287095503	-0.697206721400892
-0.102041287095503	-0.401348178759029
-0.102041287095503	-0.0896583233167334
-0.102041287095503	-0.481263848877191
-0.102041287095503	0.0725806009129037
-0.102041287095503	0.709971268193055
-0.102041287095503	-0.0977526178966102
-0.102041287095503	-0.175802502164579
-0.102041287095503	-0.15920810877828
-0.102041287095503	0.482467217166725
-0.102041287095503	-0.246098833199913
-0.102041287095503	0.349024173650673
-0.102041287095503	-0.106294706983086
-0.102041287095503	0.755113818267496
-0.102041287095503	-0.358460015324329
-0.102041287095503	-0.24981435311539
-0.102041287095503	0.0237602485259885
-0.102041287095503	-0.0339719154026454
-0.102041287095503	0.421180538805789
-0.102041287095503	-0.518407960514207
-0.102041287095503	0.121489574649754
-0.102041287095503	0.228053586587489
-0.102041287095503	0.259592921106002
-0.102041287095503	-0.320701574584021
-0.102041287095503	0.275256046485325
-0.102041287095503	0.373270155080622
-0.102041287095503	-0.130447808404611
-0.102041287095503	0.165549256559984
-0.102041287095503	-0.0767627109706197
-0.102041287095503	0.285571235989536
-0.102041287095503	-0.453578443491306
-0.102041287095503	0.33621520932914
-0.102041287095503	-0.352219750478195
-0.102041287095503	-0.0525925983347584
-0.102041287095503	0.159757569302656
-0.102041287095503	-0.128397841589081
-0.102041287095503	0.141015644735077
-0.102041287095503	0.292938667587443
-0.102041287095503	0.225032641968454
-0.102041287095503	-0.161402186645351
-0.102041287095503	0.57344006674381
-0.102041287095503	0.107328517735393
-0.102041287095503	-0.582930258632125
-0.102041287095503	0.122131055342731
-0.102041287095503	-0.149780792185261
-0.102041287095503	-0.25602864704793
-0.102041287095503	-0.302554821488574
-0.102041287095503	-0.529701902555303
-0.102041287095503	-0.0735504261143198
-0.102041287095503	-0.313755874837348
-0.102041287095503	-0.287237911573552
-0.102041287095503	-0.215562138577276
-0.102041287095503	-0.0245135302154864
-0.102041287095503	-0.282114286390652
-0.102041287095503	0.635413423887773
-0.102041287095503	0.135838468365488
-0.102041287095503	-0.274812626941451
-0.102041287095503	-0.121347539376963
-0.102041287095503	-0.140347401004281
-0.102041287095503	0.372715656737192
-0.102041287095503	-0.101338312000539
-0.102041287095503	-0.0290354589645432
-0.102041287095503	0.15709797509794
-0.102041287095503	-0.297465002420584
-0.102041287095503	-0.033671789181021
-0.102041287095503	0.368956598254652
-0.102041287095503	0.393630177337691
-0.102041287095503	-0.0212743891412437
-0.102041287095503	-0.592558084698272
-0.102041287095503	-0.418560912155357
-0.102041287095503	0.587773488039531
-0.102041287095503	-0.241076205448476
-0.102041287095503	-0.529930440304234
-0.102041287095503	-0.0805353589989437
-0.102041287095503	0.400361905786038
-0.102041287095503	0.543373534247177
-0.102041287095503	-0.43296123513969
-0.102041287095503	0.0305241563770835
-0.102041287095503	-0.699974634618613
-0.102041287095503	0.345311520612935
-0.102041287095503	-0.0469512545495832
-0.102041287095503	0.206271228484333
-0.102041287095503	-0.101581962647231
-0.102041287095503	-0.300086584348996
-0.102041287095503	0.183758688319475
-0.102041287095503	-0.327115662913759
-0.102041287095503	0.392377430257866
-0.102041287095503	0.618814884162465
-0.102041287095503	0.19620240748413
-0.102041287095503	0.256247202138798
-0.102041287095503	0.384877945137308
-0.102041287095503	-0.216344848960169
-0.102041287095503	-0.680208824796008
-0.102041287095503	-0.395686723995873
-0.102041287095503	0.407725481302826
-0.102041287095503	-0.0179645054409647
-0.102041287095503	0.0728340698424823
-0.102041287095503	0.0291405523153827
-0.102041287095503	-0.275993527500855
-0.102041287095503	0.0720992026639991
-0.102041287095503	0.249670261164059
-0.102041287095503	0.475191257549568
-0.102041287095503	-0.0549798554346168
-0.102041287095503	0.0659263558224872
-0.102041287095503	-0.258726339604571
-0.102041287095503	0.464752556565163
-0.102041287095503	-0.0847491746349363
-0.102041287095503	-0.110624271063774
-0.102041287095503	0.155453643976887
-0.102041287095503	-0.278787008596396
-0.102041287095503	-0.145105074888601
-0.102041287095503	0.288881868820077
-0.102041287095503	0.279193118745951
-0.102041287095503	-0.487400896752664
-0.102041287095503	0.164796072802563
-0.102041287095503	0.400669319961267
-0.102041287095503	-0.394561233078267
-0.102041287095503	0.00496574275731021
-0.102041287095503	-0.104672109909917
-0.102041287095503	-0.30775585000525
-0.102041287095503	0.497921505989989
-0.102041287095503	-0.0237385150347436
-0.102041287095503	-0.0599670019103939
-0.102041287095503	0.147981666337142
-0.102041287095503	-0.256694969806055
-0.102041287095503	0.00730012108581946
-0.102041287095503	-0.524526361804366
-0.102041287095503	-0.269021336620138
-0.102041287095503	-0.324088447964915
-0.102041287095503	0.49818485788634
-0.102041287095503	0.154743408042098
-0.102041287095503	0.251931664647142
-0.102041287095503	0.389232371195959
-0.102041287095503	0.126124178937754
-0.102041287095503	0.0555812068591379
-0.102041287095503	-0.463712900257615
-0.102041287095503	-0.143103656029606
-0.102041287095503	-0.149115394934832
-0.102041287095503	0.500229881812057
-0.102041287095503	0.145438443881247
-0.102041287095503	0.442051523860279
-0.102041287095503	-0.206440863510064
-0.102041287095503	-0.0934627629496845
-0.102041287095503	-0.0211071034667825
-0.102041287095503	-0.309357762266554
-0.102041287095503	-0.229100557539109
-0.102041287095503	0.214957132906605
-0.102041287095503	0.048961855841025
-0.102041287095503	-0.240631942173227
-0.102041287095503	0.11667019552144
-0.102041287095503	0.308406023078156
-0.102041287095503	-0.240906598550257
-0.102041287095503	0.321718937064816
-0.102041287095503	0.0899378991977002
-0.102041287095503	-0.131251692993356
-0.102041287095503	0.261880456965571
-0.102041287095503	-0.130640334356038
-0.102041287095503	0.055813278745422
-0.102041287095503	0.246822656655215
-0.102041287095503	0.623771831207005
-0.102041287095503	0.139668238937301
-0.102041287095503	0.178592722965565
-0.102041287095503	-0.96942244112363
-0.102041287095503	0.467720468586354
-0.102041287095503	0.431728808007637
-0.102041287095503	-0.445013341677505
-0.102041287095503	0.158143467514211
-0.102041287095503	-0.354376690425191
-0.102041287095503	-0.340224044431629
-0.102041287095503	-0.0971636542710321
-0.102041287095503	0.509025195589459
-0.102041287095503	0.138462998539659
-0.102041287095503	-0.240714791667223
-0.102041287095503	0.586363573930658
-0.102041287095503	-0.116861368753035
-0.102041287095503	-0.356493454294462
-0.102041287095503	0.1998964058367
-0.102041287095503	0.0649747836501433
-0.102041287095503	0.0607760420509678
-0.102041287095503	-0.254817628141492
-0.102041287095503	0.0626960945262773
-0.102041287095503	-0.101486092142096
-0.102041287095503	0.0754418922428179
-0.102041287095503	-0.0407270092117216
-0.102041287095503	0.405566614326219
-0.102041287095503	-0.282678352314058
-0.102041287095503	-0.270067237353835
-0.102041287095503	-0.0324286018131161
-0.102041287095503	0.674638393413346
-0.102041287095503	-0.103418203443884
-0.102041287095503	-0.535688066449008
-0.102041287095503	-0.377547808903667
-0.102041287095503	0.219803372695779
-0.102041287095503	-0.40343869847035
-0.102041287095503	-0.0410083653011775
-0.102041287095503	0.659456365005941
-0.102041287095503	0.309859451010897
-0.102041287095503	-1.11932544050588
-0.102041287095503	-0.187534217815593
-0.102041287095503	-0.255068853576173
-0.102041287095503	-0.431057301219386
-0.102041287095503	0.577551981821813
-0.102041287095503	-0.582388379933629
-0.102041287095503	0.316079138691851
-0.102041287095503	-0.366956246901783
-0.102041287095503	0.115842193625081
-0.102041287095503	-0.150050720067185
-0.102041287095503	-0.109372064790445
-0.102041287095503	-0.120262766753143
-0.102041287095503	-0.0256395715891919
-0.102041287095503	0.131786888597865
-0.102041287095503	0.0832901330486173
-0.102041287095503	-0.876602444745888
-0.102041287095503	0.112234502256996
-0.102041287095503	0.0804318298337883
-0.102041287095503	0.385345037573899
-0.102041287095503	0.556784607738585
-0.102041287095503	-0.0813790376995271
-0.102041287095503	0.00943685328756416
-0.102041287095503	-0.414910489710639
-0.102041287095503	0.0179575636575215
-0.102041287095503	0.57521109722072
-0.102041287095503	0.0720670648894846
-0.102041287095503	0.355394139986206
-0.102041287095503	-0.503811257975926
-0.102041287095503	-0.214680849034242
-0.102041287095503	-0.429040217011046
-0.102041287095503	0.0262831851478147
-0.102041287095503	-0.00571995920785895
-0.102041287095503	-0.0753649143531163
-0.102041287095503	-0.0174849809072697
-0.102041287095503	0.550099733715669
-0.102041287095503	-0.402617811148318
-0.102041287095503	0.369357511603503
-0.102041287095503	0.874499748646187
-0.102041287095503	-0.148228900123296
-0.102041287095503	-0.326443436938504
-0.102041287095503	0.304947114271201
-0.102041287095503	-0.188659485415752
-0.102041287095503	0.112350507344964
-0.102041287095503	0.719651837095608
-0.102041287095503	-0.169243376716114
-0.102041287095503	-0.33064882718153
-0.102041287095503	-0.149456212977711
-0.102041287095503	-0.746595567799261
-0.102041287095503	-0.0713517740762022
-0.102041287095503	-0.569578706309859
-0.102041287095503	-0.419556983450008
-0.102041287095503	0.140776088252071
-0.102041287095503	0.172335971745827
-0.102041287095503	-0.463154454108949
-0.102041287095503	0.595569120668699
-0.102041287095503	-0.330991777576209
-0.102041287095503	-0.207475198110604
-0.102041287095503	-0.122349370257702
-0.102041287095503	-0.15550691183023
-0.102041287095503	-0.194718883812435
-0.102041287095503	0.0695476280163874
-0.102041287095503	0.0030812787550758
-0.102041287095503	0.105217592842227
-0.102041287095503	-0.208114936608187
-0.102041287095503	0.211569103319313
-0.102041287095503	-0.158951454095572
-0.102041287095503	-0.176476918710645
-0.102041287095503	0.302269201935182
-0.102041287095503	0.262183833630651
-0.102041287095503	0.406409210831441
-0.102041287095503	-0.874292341587839
-0.102041287095503	0.231011196777118
-0.102041287095503	0.109777051321412
-0.102041287095503	0.0849391861231936
-0.102041287095503	-0.592148788908663
-0.102041287095503	0.0114738696945018
-0.102041287095503	-0.209787073808126
-0.102041287095503	-0.365286861097871
-0.102041287095503	-0.357796538659681
-0.102041287095503	-0.0330659733505421
-0.102041287095503	0.265549808274468
-0.102041287095503	0.144831859756373
-0.102041287095503	0.406667980247473
-0.102041287095503	-0.475310793243754
-0.102041287095503	-0.10155945743449
-0.102041287095503	0.079125415250008
-0.102041287095503	0.157148634778562
-0.102041287095503	-0.301914974755171
-0.102041287095503	-0.225989408773746
-0.102041287095503	-0.312519237342716
-0.102041287095503	0.205358424428564
-0.102041287095503	0.215297114297815
-0.102041287095503	-0.0426571454252027
-0.102041287095503	-0.623891928983241
-0.102041287095503	-1.01474120179665
-0.102041287095503	-0.113386015012498
-0.102041287095503	0.185198958938734
-0.102041287095503	0.127354701503371
-0.102041287095503	-0.423754425070886
-0.102041287095503	0.306509113762893
-0.102041287095503	-0.112815428670864
-0.102041287095503	0.0454961177151603
-0.102041287095503	-0.217202122353161
-0.102041287095503	0.20100908227661
-0.102041287095503	-0.469550894322285
-0.102041287095503	0.524773772650459
-0.102041287095503	0.0385514993770855
-0.102041287095503	0.236502232790329
-0.102041287095503	0.13581855250079
-0.102041287095503	0.169050247823826
-0.102041287095503	-0.533222594952321
-0.102041287095503	0.424233163573259
-0.102041287095503	-0.382431763135724
-0.102041287095503	0.227360957883768
-0.102041287095503	-0.182894924113878
-0.102041287095503	-0.777229191724345
-0.102041287095503	0.371813548377578
-0.102041287095503	0.130112374160852
-0.102041287095503	-0.431756738614716
-0.102041287095503	0.403003481639569
-0.102041287095503	-0.204786343447193
-0.102041287095503	0.317053974904628
-0.102041287095503	-0.54245082319947
-0.102041287095503	0.24243953651116
-0.102041287095503	0.226680914818768
-0.102041287095503	-0.369069569973952
-0.102041287095503	-0.554273234404103
-0.102041287095503	-0.344479887025393
-0.102041287095503	0.561183805449396
-0.102041287095503	1.13188151841983
-0.102041287095503	0.492276659275529
-0.102041287095503	-0.294609458231324
-0.102041287095503	-0.358091519856195
-0.102041287095503	-0.380956812993993
-0.102041287095503	-0.333639613098967
-0.102041287095503	0.0349722290918173
-0.102041287095503	-0.0487523115919046
-0.102041287095503	-0.111249421727216
-0.102041287095503	-0.313367260498559
-0.102041287095503	-0.462726316264749
-0.102041287095503	0.0818389335346019
-0.102041287095503	-0.164591433550896
-0.102041287095503	-0.245900606967613
-0.102041287095503	-0.208610661161735
-0.102041287095503	-0.256696003116456
-0.102041287095503	-0.133670341495208
-0.102041287095503	-0.321694790477029
-0.102041287095503	0.213453537050725
-0.102041287095503	-0.394551199401594
-0.102041287095503	-0.618103828477622
-0.102041287095503	0.221039490542072
-0.102041287095503	0.0582898764914006
-0.102041287095503	-0.00639111510723822
-0.102041287095503	0.348879826333185
-0.102041287095503	-0.281349428274165
-0.102041287095503	0.800362515565784
-0.102041287095503	-0.446045813616184
-0.102041287095503	-0.389733167096729
-0.102041287095503	-0.347866675724344
-0.102041287095503	0.131896985431968
-0.102041287095503	0.00501768113390355
-0.102041287095503	-0.252271256352479
-0.102041287095503	-0.314289020493405
-0.102041287095503	-0.479055874398608
-0.102041287095503	-0.0427426915772742
-0.102041287095503	-0.34921638464078
-0.102041287095503	0.270488953399507
-0.102041287095503	-0.0707715741889885
-0.102041287095503	0.083338496735557
-0.102041287095503	-0.120274182298548
-0.102041287095503	0.136017606257717
-0.102041287095503	-0.118527198103557
-0.102041287095503	-0.353687100640595
-0.102041287095503	-0.93081590225254
-0.102041287095503	-0.228146383457801
-0.102041287095503	0.22968653828266
-0.102041287095503	-0.117574719009895
-0.102041287095503	-0.867263337101821
-0.102041287095503	-0.43700310125449
-0.102041287095503	0.0986784255567663
-0.102041287095503	-0.229687836369688
-0.102041287095503	0.0927946090866456
-0.102041287095503	-0.28287342948618
-0.102041287095503	-0.200287409566798
-0.102041287095503	0.137888620272328
-0.102041287095503	0.0624763093102629
-0.102041287095503	-0.691871189193087
-0.102041287095503	0.186153946604676
-0.102041287095503	-0.188104391444586
-0.102041287095503	0.206843529018574
-0.102041287095503	0.241946417366464
-0.102041287095503	-0.242966217863735
-0.102041287095503	-0.251434887567335
-0.102041287095503	0.20091920357137
-0.102041287095503	-0.431065685057238
-0.102041287095503	0.431289513944193
-0.102041287095503	-0.510692427260818
-0.102041287095503	0.274359789087907
-0.102041287095503	-0.39471108332943
-0.102041287095503	-0.383104369585947
-0.102041287095503	0.198198211187627
-0.102041287095503	-0.0615993863821167
-0.102041287095503	0.0987067005962317
-0.102041287095503	1.05443298427783
-0.102041287095503	-0.0451529758554621
-0.102041287095503	0.239488870697318
-0.102041287095503	-0.129920340520385
-0.102041287095503	0.0112976643255571
-0.102041287095503	-0.241255547378692
-0.102041287095503	0.133257712588925
-0.102041287095503	-0.244768263200516
-0.102041287095503	-0.106741166987486
-0.102041287095503	-0.223401683780171
-0.102041287095503	0.411262721217067
-0.102041287095503	-0.277218126317862
-0.102041287095503	0.120330488245315
-0.102041287095503	-0.374839933775647
-0.102041287095503	0.0896325164588774
-0.102041287095503	0.229284327023212
-0.102041287095503	-0.049145898056647
-0.102041287095503	-0.0779130425936074
-0.102041287095503	-0.12283115274073
-0.102041287095503	0.12711991040295
-0.102041287095503	-0.0136490098649134
-0.102041287095503	-0.674905518254793
-0.102041287095503	-0.558366371675458
-0.102041287095503	-0.155850430302099
-0.102041287095503	-0.385016881499993
-0.102041287095503	0.232145784777043
-0.102041287095503	-0.669656097400065
-0.102041287095503	0.0727080133293434
-0.102041287095503	-0.476410060951142
-0.102041287095503	0.277436852856713
-0.102041287095503	-0.419433315634858
-0.102041287095503	-0.806670036480515
-0.102041287095503	0.20120753150109
-0.102041287095503	0.0890088733341656
-0.102041287095503	-0.0206992410546718
-0.102041287095503	-0.363365474618067
-0.102041287095503	0.0672495116649579
-0.102041287095503	0.158972173195167
-0.102041287095503	0.140670490335459
-0.102041287095503	0.509542120668854
-0.102041287095503	-0.118832279400205
-0.102041287095503	0.236068713067478
-0.102041287095503	-0.0254013149259933
-0.102041287095503	0.202890531277372
-0.102041287095503	-0.745531574464493
-0.102041287095503	0.058740835302082
-0.102041287095503	0.138421358141617
-0.102041287095503	-0.305095110696463
-0.102041287095503	-0.184686178084384
-0.102041287095503	0.0336178422954347
-0.102041287095503	0.0185204028706814
-0.102041287095503	0.438164534220519
-0.102041287095503	-0.0876626591660603
-0.102041287095503	0.0780172159425447
-0.102041287095503	0.00888420551543234
-0.102041287095503	-0.279687263171645
-0.102041287095503	-0.867738594061372
-0.102041287095503	-0.0732630850641804
-0.102041287095503	-0.54830770766727
-0.102041287095503	0.0203336837655037
-0.102041287095503	-0.47474354887898
-0.102041287095503	-0.114495381130421
-0.102041287095503	-0.0972310462295773
-0.102041287095503	0.480152208422844
-0.102041287095503	-0.266539250757809
-0.102041287095503	-0.635660395446394
-0.102041287095503	-0.302860007670358
-0.102041287095503	0.306394543820947
-0.102041287095503	-0.169140735042635
-0.102041287095503	0.495368393985828
-0.102041287095503	-0.29224461656235
-0.102041287095503	0.213456840996699
-0.102041287095503	-0.599600833706049
-0.102041287095503	0.312949244108971
-0.102041287095503	0.0281135608979532
-0.102041287095503	-0.133321771924546
-0.102041287095503	-0.0491045897061042
-0.102041287095503	-0.149012741757879
-0.102041287095503	0.332200349598374
-0.102041287095503	0.236649262501899
-0.102041287095503	0.333483067675843
-0.102041287095503	0.419326915429206
-0.102041287095503	-0.620143806755717
-0.102041287095503	0.125328541093772
-0.102041287095503	0.369822562105483
-0.102041287095503	0.241646059173412
-0.102041287095503	-0.110362036403881
-0.102041287095503	0.0709491304147605
-0.102041287095503	-0.345027634388003
-0.102041287095503	0.59912235499737
-0.102041287095503	-0.0740562971585952
-0.102041287095503	0.544476228760104
-0.102041287095503	-0.648586099105607
-0.102041287095503	-0.341850863719671
-0.102041287095503	0.32491139302584
-0.102041287095503	-0.0328451850527962
-0.102041287095503	0.013840588734098
-0.102041287095503	-0.194327663844934
-0.102041287095503	0.0254294682977658
-0.102041287095503	-0.04730951816342
-0.102041287095503	-0.0369835534428233
-0.102041287095503	-0.323385798906553
-0.102041287095503	-0.215057455183118
-0.102041287095503	0.0645376339181887
-0.102041287095503	0.185652982426355
-0.102041287095503	0.694903961074104
-0.102041287095503	0.213361595516787
-0.102041287095503	0.00476491672595003
-0.102041287095503	0.245644365777558
-0.102041287095503	0.537458542776118
-0.102041287095503	0.235487345983604
-0.102041287095503	0.0139429532516679
-0.102041287095503	0.437814781630276
-0.102041287095503	-0.697246540381034
-0.102041287095503	0.178802978620702
-0.102041287095503	0.0729486525384608
-0.102041287095503	-0.791561817467834
-0.102041287095503	0.310234977856314
-0.102041287095503	0.215843172899543
-0.102041287095503	-0.162504147936382
-0.102041287095503	0.0469275855513125
-0.102041287095503	-0.189863632348807
-0.102041287095503	0.313753707332417
-0.102041287095503	0.330647873334101
-0.102041287095503	0.542431186529374
-0.102041287095503	-0.21249799731871
-0.102041287095503	-0.0504249209884051
-0.102041287095503	0.673564965358484
-0.102041287095503	0.356241412828396
-0.102041287095503	-0.132293934905718
-0.102041287095503	-0.158012446066813
-0.102041287095503	-0.00837429259717482
-0.102041287095503	0.242561087707493
-0.102041287095503	0.128456711867351
-0.102041287095503	0.709993984920214
-0.102041287095503	-0.0395993653594964
-0.102041287095503	-0.541162536372791
-0.102041287095503	-0.241087084845685
-0.102041287095503	-0.00057343984304481
-0.102041287095503	-0.430415336281449
-0.102041287095503	0.233690875110909
-0.102041287095503	-0.0266645871140767
-0.102041287095503	-0.771207402545329
-0.102041287095503	-0.232382793024929
-0.102041287095503	-0.154920047974564
-0.102041287095503	0.119417428636282
-0.102041287095503	0.103099743040602
-0.102041287095503	0.326825821231594
-0.102041287095503	0.102539430986415
-0.102041287095503	0.609749799588819
-0.102041287095503	0.688084403972507
-0.102041287095503	0.0184508729441468
-0.102041287095503	0.299683668944024
-0.102041287095503	0.377789339572683
-0.102041287095503	0.0660254672711851
-0.102041287095503	0.132440859658949
-0.102041287095503	0.231841301949061
-0.102041287095503	-1.08357343245764
-0.102041287095503	-0.13564582677483
-0.102041287095503	0.580035262943213
-0.102041287095503	-0.341133588797213
-0.102041287095503	-0.484723963528076
-0.102041287095503	-0.833670014935375
-0.102041287095503	-0.153372759540545
-0.102041287095503	0.131741212657353
-0.102041287095503	-0.284334530227436
-0.102041287095503	-0.0217144196324845
-0.102041287095503	-0.010570322506755
-0.102041287095503	0.288434923219498
-0.102041287095503	0.135978747135162
-0.102041287095503	-0.0652544706060247
-0.102041287095503	0.528083666568289
-0.102041287095503	0.284729616795882
-0.102041287095503	-0.218900014418629
-0.102041287095503	-0.691818977733362
-0.102041287095503	0.425530582206374
-0.102041287095503	-0.117647034268103
-0.102041287095503	-0.164083536215795
-0.102041287095503	0.0163972936533732
-0.102041287095503	0.256030448031741
-0.102041287095503	0.118200927954668
-0.102041287095503	-0.412404649381774
-0.102041287095503	0.732575141518868
-0.102041287095503	-0.440969326745638
-0.102041287095503	-0.389534669548173
-0.102041287095503	-0.734176075197158
-0.102041287095503	0.492040787834075
-0.102041287095503	-0.471804486166551
-0.102041287095503	-0.281848118560852
-0.102041287095503	-1.08969763185903
-0.102041287095503	-0.779452444677908
-0.102041287095503	-0.130640284339361
-0.102041287095503	-0.232400419162339
-0.102041287095503	0.644680144477149
-0.102041287095503	-0.82456089304581
-0.102041287095503	0.744009796645067
-0.102041287095503	0.367232972528001
-0.102041287095503	-0.541786667676611
-0.102041287095503	0.198069735343633
-0.102041287095503	-0.010522621007798
-0.102041287095503	-0.298961225336864
-0.102041287095503	-0.363103705427324
-0.102041287095503	0.476861741766548
-0.102041287095503	0.181262958861559
-0.102041287095503	0.00933562317572267
-0.102041287095503	0.233174759612819
-0.102041287095503	-0.141416461324685
-0.102041287095503	-0.0174942327710284
-0.102041287095503	0.200692219518317
-0.102041287095503	0.0773619427253216
-0.102041287095503	0.592480223320532
-0.102041287095503	0.0533743066574495
-0.102041287095503	0.0707461837852037
-0.102041287095503	0.231679247353025
-0.102041287095503	-0.743058964610729
-0.102041287095503	-0.0872793537260463
-0.102041287095503	0.0234316821182858
-0.102041287095503	-0.265187502183267
-0.102041287095503	0.000317204003671634
-0.102041287095503	-0.132228325555026
-0.102041287095503	-0.313171391407099
-0.102041287095503	-0.395338161269919
-0.102041287095503	-0.39427337320426
-0.102041287095503	0.384719120452157
-0.102041287095503	0.455591808015413
-0.102041287095503	-0.125035916860288
-0.102041287095503	0.35807863816796
-0.102041287095503	0.398738251832018
-0.102041287095503	0.145182384702913
-0.102041287095503	-0.0227552397594728
-0.102041287095503	0.0586984679311762
-0.102041287095503	-0.248639328638117
-0.102041287095503	0.322563212060139
-0.102041287095503	-0.117268180539671
-0.102041287095503	-0.424024219252171
-0.102041287095503	0.256029195696222
-0.102041287095503	-0.231338961696412
-0.102041287095503	-0.203752964189089
-0.102041287095503	-0.146119714005451
-0.102041287095503	-0.364364061545942
-0.102041287095503	-0.490261466333049
-0.102041287095503	-0.375085153779875
-0.102041287095503	-0.424889172979114
-0.102041287095503	-0.0781423757980768
-0.102041287095503	-0.0979088426991481
-0.102041287095503	-0.169472567926384
-0.102041287095503	-0.341584746631824
-0.102041287095503	-0.133028656972368
-0.102041287095503	-0.514524512061588
-0.102041287095503	0.0293116023464002
-0.102041287095503	0.395212301809877
-0.102041287095503	-0.0791710895672466
-0.102041287095503	0.249724740288709
-0.102041287095503	-0.473844933383134
-0.102041287095503	-0.310754174732978
-0.102041287095503	0.0953488241144917
-0.102041287095503	0.00405714168093141
-0.102041287095503	-0.329879729433753
-0.102041287095503	-0.085711046229239
-0.102041287095503	-0.0609326746086261
-0.102041287095503	0.0916798004747932
-0.102041287095503	0.0575873783344321
-0.102041287095503	0.124597818666192
-0.102041287095503	0.0587893586879495
-0.102041287095503	0.0765130769884017
-0.102041287095503	0.0728533612991313
-0.102041287095503	0.287407009654526
-0.102041287095503	-0.467131246458283
-0.102041287095503	-0.190265285691055
-0.102041287095503	0.0542291589486901
-0.102041287095503	0.44003861949415
-0.102041287095503	-0.961155428404243
-0.102041287095503	-0.370391587670138
-0.102041287095503	0.470677048165754
-0.102041287095503	-0.587685576955916
-0.102041287095503	-0.0867683655728406
-0.102041287095503	0.0421370485172581
-0.102041287095503	-0.782402893266688
-0.102041287095503	-0.588885994839057
-0.102041287095503	-0.0990149551498867
-0.102041287095503	0.683830405944143
-0.102041287095503	-0.153194200115252
-0.102041287095503	0.3107812086553
-0.102041287095503	-0.00105783853997821
-0.102041287095503	-0.0772345318028123
-0.102041287095503	-0.0723345112308849
-0.102041287095503	0.479272862482329
-0.102041287095503	-0.147302337073246
-0.102041287095503	0.0628288447084202
-0.102041287095503	-0.169144747335736
-0.102041287095503	-0.299753935862711
-0.102041287095503	-0.88406487182764
-0.102041287095503	-0.382999779936473
-0.102041287095503	0.395414813449591
-0.102041287095503	0.00502486719805262
-0.102041287095503	-0.301931738044267
-0.102041287095503	0.480603410737373
-0.102041287095503	0.194688266993616
-0.102041287095503	-0.223285622190559
-0.102041287095503	-0.164185657803621
-0.102041287095503	-0.264606786242759
-0.102041287095503	-0.106246375552875
-0.102041287095503	0.92910959385588
-0.102041287095503	-0.302259964827535
-0.102041287095503	-0.149168103597837
-0.102041287095503	0.144161471998501
-0.102041287095503	-0.179354914978099
-0.102041287095503	0.195794384055862
-0.102041287095503	0.326041845398926
-0.102041287095503	-0.154035713438663
-0.102041287095503	0.195385086415946
-0.102041287095503	-0.385053718746189
-0.102041287095503	-0.153589242306801
-0.102041287095503	0.257331452272108
-0.102041287095503	-0.509466943330697
-0.102041287095503	0.301105360777221
-0.102041287095503	0.177522302851816
-0.102041287095503	-0.00384210373964677
-0.102041287095503	0.139885206851527
-0.102041287095503	0.228061156671505
-0.102041287095503	-0.703482720113602
-0.102041287095503	0.357947688646011
-0.102041287095503	0.100271447386813
-0.102041287095503	0.159516106144125
-0.102041287095503	-0.433852736595671
-0.102041287095503	-0.368901396396037
-0.102041287095503	0.305140173322098
-0.102041287095503	0.131591398846417
-0.102041287095503	-0.609466815871968
-0.102041287095503	-0.219294447198205
-0.102041287095503	-0.0117439605082446
-0.102041287095503	-0.182814782004922
-0.102041287095503	0.00668826535695999
-0.102041287095503	-0.351920309783139
-0.102041287095503	-0.0726532825217809
-0.102041287095503	-0.238696097391017
-0.102041287095503	0.0775420062799661
-0.102041287095503	0.380112529873525
-0.102041287095503	0.26180329572199
-0.102041287095503	-0.16619539472288
-0.102041287095503	0.23344371902084
-0.102041287095503	0.170427929852472
-0.102041287095503	-0.500488737270796
-0.102041287095503	-0.112657584769046
-0.102041287095503	-0.0539372674638727
-0.102041287095503	-0.37477882109183
-0.102041287095503	-0.420572333491386
-0.102041287095503	-0.60391068304553
-0.102041287095503	-0.788396126847694
-0.102041287095503	0.0353959393848626
-0.102041287095503	0.556508529126628
-0.102041287095503	0.865437863495444
-0.102041287095503	0.188610435851999
-0.102041287095503	-0.0195624025417587
-0.102041287095503	0.553045116921126
-0.102041287095503	-0.200713945803479
-0.102041287095503	0.279502690770975
-0.102041287095503	-0.499657896129513
-0.102041287095503	-0.272138444342019
-0.102041287095503	-0.238957321010222
-0.102041287095503	-0.0491725626713695
-0.102041287095503	-0.488691281268189
-0.102041287095503	-0.304916994168362
-0.102041287095503	0.590943869631939
-0.102041287095503	-0.343266257594291
-0.102041287095503	0.132031594652833
-0.102041287095503	-0.362068775638523
-0.102041287095503	-0.440226475386961
-0.102041287095503	-0.379841162904388
-0.102041287095503	-0.448338615696361
-0.102041287095503	-0.387146248381018
-0.102041287095503	-0.190472183961475
-0.102041287095503	0.504833794994877
-0.102041287095503	-0.524149423174954
-0.102041287095503	-0.530844211983617
-0.102041287095503	-0.199494418504127
-0.102041287095503	0.302257511256983
-0.102041287095503	-0.631793064665949
-0.102041287095503	-0.395775996875674
-0.102041287095503	-0.53399108608486
-0.102041287095503	0.158737349576839
-0.102041287095503	0.533001579439581
-0.102041287095503	0.000509149003224962
-0.102041287095503	-0.149411246403712
-0.102041287095503	-0.349700422583712
-0.102041287095503	0.215663788098016
-0.102041287095503	0.327004460366446
-0.102041287095503	-0.363439337482461
-0.102041287095503	-0.479588943189544
-0.102041287095503	0.357473196054439
-0.102041287095503	-0.459078894837123
-0.102041287095503	-0.0738875968692199
-0.102041287095503	-0.339551048904873
-0.102041287095503	-0.0999263985966437
-0.102041287095503	-0.448011841438518
-0.102041287095503	-0.272733882232366
-0.102041287095503	-0.012608469157108
-0.102041287095503	0.697876450627469
-0.102041287095503	0.227785865434868
-0.102041287095503	0.250658527502928
-0.102041287095503	0.00867913517897634
-0.102041287095503	0.267416623289776
-0.102041287095503	-0.193722132285263
-0.102041287095503	0.540824268091008
-0.102041287095503	-0.216595437825852
-0.102041287095503	0.0659589989894442
-0.102041287095503	-0.273296185482522
-0.102041287095503	0.305305085731764
-0.102041287095503	0.10794262636287
-0.102041287095503	-0.204548427674112
-0.102041287095503	0.0307415642507607
-0.102041287095503	0.476491417229802
-0.102041287095503	-0.0515756389963791
-0.102041287095503	-0.107056766901042
-0.102041287095503	0.0814930954380095
-0.102041287095503	0.239296495812255
-0.102041287095503	-0.069627406321441
-0.102041287095503	-0.143606668144546
-0.102041287095503	-0.185651492808923
-0.102041287095503	0.0370165268001266
-0.102041287095503	0.636840032471166
-0.102041287095503	-0.00859628379061661
-0.102041287095503	-0.338729052064988
-0.102041287095503	0.218119479742992
-0.102041287095503	-0.163983655494455
-0.102041287095503	-0.697909457127537
-0.102041287095503	-0.182591563344122
-0.102041287095503	-0.182551489909141
-0.102041287095503	-0.0853970363817815
-0.102041287095503	-0.0531055259469753
-0.102041287095503	-0.0589303711465021
-0.102041287095503	-0.580378542962212
-0.102041287095503	-0.0809077358069921
-0.102041287095503	-0.611806070666116
-0.102041287095503	0.0171363718301478
-0.102041287095503	-0.120171582908721
-0.102041287095503	0.123121452177248
-0.102041287095503	-0.0799411262129226
-0.102041287095503	-0.664790547839303
-0.102041287095503	0.953654768862322
-0.102041287095503	-0.481539891821409
-0.102041287095503	0.00524782457180351
-0.102041287095503	-0.255301729692167
-0.102041287095503	-0.325444690279049
-0.102041287095503	-0.00980932258012501
-0.102041287095503	-0.347047248997065
-0.102041287095503	0.199533278303196
-0.102041287095503	-0.214178332440817
-0.102041287095503	-0.0319460488830039
-0.102041287095503	0.23942873260674
-0.102041287095503	0.654838754096318
-0.102041287095503	-0.246228371446829
-0.102041287095503	0.0218879196375141
-0.102041287095503	-0.090881502458835
-0.102041287095503	-0.487524641973852
-0.102041287095503	0.111415737332301
-0.102041287095503	0.390134545340398
-0.102041287095503	-0.243729815970699
-0.102041287095503	0.0157862828798692
-0.102041287095503	-0.185814064790925
-0.102041287095503	0.450219590702932
-0.102041287095503	0.316084045831676
-0.102041287095503	0.596844332007482
-0.102041287095503	0.274848728910939
-0.102041287095503	0.266232264124465
-0.102041287095503	0.408846297550433
-0.102041287095503	0.0536623153683564
-0.102041287095503	-0.663183434285202
-0.102041287095503	-0.710450202196466
-0.102041287095503	0.101376476805644
-0.102041287095503	-0.129895695878488
-0.102041287095503	0.264153816797254
-0.102041287095503	-0.319943066971796
-0.102041287095503	-0.154641764219903
-0.102041287095503	0.0720744917173768
-0.102041287095503	0.0217051008285161
-0.102041287095503	-0.194241325562235
-0.102041287095503	-0.329981469525265
-0.102041287095503	-0.304838604010655
-0.102041287095503	-0.0617039748623434
-0.102041287095503	-0.0890623803932336
-0.102041287095503	0.104320681222777
-0.102041287095503	0.0910175737861572
-0.102041287095503	0.152801694473919
-0.102041287095503	-0.552966065140861
-0.102041287095503	0.24586085540879
-0.102041287095503	-0.370793316420396
-0.102041287095503	0.251493748154854
-0.102041287095503	-0.0951707006758156
-0.102041287095503	-0.166849305495994
-0.102041287095503	0.604575518721958
-0.102041287095503	0.0598783652376085
-0.102041287095503	-0.360509797403637
-0.102041287095503	-0.0421025541848437
-0.102041287095503	-0.145315174036977
-0.102041287095503	0.0747003716902874
-0.102041287095503	-0.0826064804604236
-0.102041287095503	-0.860393011991931
-0.102041287095503	0.264081124595201
-0.102041287095503	0.313820469748507
-0.102041287095503	-0.45418215729601
-0.102041287095503	-0.520131608509541
-0.102041287095503	0.0643929088813628
-0.102041287095503	0.119773690283189
-0.102041287095503	-0.343051973750178
-0.102041287095503	-0.0400558997545666
-0.102041287095503	-0.50224227553279
-0.102041287095503	0.384519481011683
-0.102041287095503	-0.118366336176155
-0.102041287095503	-0.200208705436793
-0.102041287095503	-0.0377240431460386
-0.102041287095503	0.00884266361305919
-0.102041287095503	0.103489080580456
-0.102041287095503	-0.186835386118002
-0.102041287095503	-0.577079842023302
-0.102041287095503	-0.00366327366502617
-0.102041287095503	0.0579062500264236
-0.102041287095503	0.252427365915239
-0.102041287095503	0.0914325774649214
-0.102041287095503	-0.795204605765626
-0.102041287095503	-0.0809748307427363
-0.102041287095503	-0.184757359823912
-0.102041287095503	0.0701056879792823
-0.102041287095503	0.0470720212342819
-0.102041287095503	-0.0930165768996787
-0.102041287095503	-0.239906609448418
-0.102041287095503	-0.0567885877816394
-0.102041287095503	-0.157007080084966
-0.102041287095503	-0.536736285508429
-0.102041287095503	-0.291325300149744
-0.102041287095503	-0.711588315595428
-0.102041287095503	0.0570206108173608
-0.102041287095503	-0.190140296501806
-0.102041287095503	-0.150643946656754
-0.102041287095503	-0.339667996757086
-0.102041287095503	0.637000900929205
-0.102041287095503	-0.0643002933726358
-0.102041287095503	-0.500784281061222
-0.102041287095503	-0.461614135077156
-0.102041287095503	-0.368299836552165
-0.102041287095503	-0.12622299775888
-0.102041287095503	-0.475703850411822
-0.102041287095503	-0.229197992832457
-0.102041287095503	-0.366086972986043
-0.102041287095503	-0.379830938373278
-0.102041287095503	-0.184269919016579
-0.102041287095503	-0.0663420605883793
-0.102041287095503	-0.10495616171055
-0.102041287095503	-0.651009238083738
-0.102041287095503	-0.0942503320365908
-0.102041287095503	-0.081368173565572
-0.102041287095503	0.737255009251452
-0.102041287095503	-0.365412570419284
-0.102041287095503	-0.124671604612821
-0.102041287095503	0.0890709720377849
-0.102041287095503	0.140681187016614
-0.102041287095503	-0.639961502753284
-0.102041287095503	-0.0701778128289554
-0.102041287095503	0.096791985119431
-0.102041287095503	-0.305011716613777
-0.102041287095503	0.349660843333169
-0.102041287095503	0.0784868149968325
-0.102041287095503	-0.213589794747385
-0.102041287095503	0.0273719381288444
-0.102041287095503	0.00178383896198397
-0.102041287095503	-0.898807616848632
-0.102041287095503	-0.0924543387303842
-0.102041287095503	0.169013105030078
-0.102041287095503	0.0787672529112768
-0.102041287095503	0.503168724498323
-0.102041287095503	-0.474913056248841
-0.102041287095503	0.573763651292051
-0.102041287095503	-0.711806859469501
-0.102041287095503	0.112309596267973
-0.102041287095503	0.320405607013118
-0.102041287095503	-0.376484127380749
-0.102041287095503	-0.106603289540566
-0.102041287095503	-0.104938100603597
-0.102041287095503	-0.343014606382678
-0.102041287095503	-0.330916577893277
-0.102041287095503	0.208188948319179
-0.102041287095503	0.477201413136303
-0.102041287095503	0.273109846771739
-0.102041287095503	-0.734232403739934
-0.102041287095503	-0.267213976502624
-0.102041287095503	0.328430407091801
-0.102041287095503	-0.363490751890208
-0.102041287095503	-0.554393138560307
-0.102041287095503	-0.477968986573465
-0.102041287095503	0.136160887805794
-0.102041287095503	-0.446724376921164
-0.102041287095503	0.289270524158574
-0.102041287095503	0.122042454792016
-0.102041287095503	0.422640102499198
-0.102041287095503	0.357765851842331
-0.102041287095503	-0.286085787311659
-0.102041287095503	-0.59595615267537
-0.102041287095503	-0.102137116939339
-0.102041287095503	-0.390119991344577
-0.102041287095503	-0.33464936629364
-0.102041287095503	0.121402739467058
-0.102041287095503	0.339893969605129
-0.102041287095503	-0.171599348075098
-0.102041287095503	0.0217489318070321
-0.102041287095503	-0.0542577853552189
-0.102041287095503	0.546120287077006
-0.102041287095503	-0.297919889216377
-0.102041287095503	0.189176935679157
-0.102041287095503	-0.0933094682710767
-0.102041287095503	0.617473773735259
-0.102041287095503	-0.232116432649335
-0.102041287095503	-0.249657297902971
-0.102041287095503	-0.410127832677652
-0.102041287095503	-0.354760697427754
-0.102041287095503	0.0713305709914387
-0.102041287095503	0.0344915841937805
-0.102041287095503	-0.634048489078666
-0.102041287095503	-0.494496324727233
-0.102041287095503	-0.278840482275925
-0.102041287095503	0.0835490692196146
-0.102041287095503	-0.275560173222793
-0.102041287095503	-0.558317059571468
-0.102041287095503	-0.18860796030831
-0.102041287095503	-0.374873540882099
-0.102041287095503	-0.354331029492748
-0.102041287095503	-0.15536196245646
-0.102041287095503	-0.0397212050065363
-0.102041287095503	0.056600231033638
-0.102041287095503	-0.168126980672536
-0.102041287095503	-0.335580706886997
-0.102041287095503	-0.205153526565603
-0.102041287095503	0.412734260632384
-0.102041287095503	-0.366023176641317
-0.102041287095503	0.0782320011198578
-0.102041287095503	0.396214523234434
-0.102041287095503	-0.0659710505239097
-0.102041287095503	-0.171048199918733
-0.102041287095503	0.242635704489466
-0.102041287095503	-0.638671947242635
-0.102041287095503	0.0481714125215866
-0.102041287095503	-0.627757136810736
-0.102041287095503	0.306939870564662
-0.102041287095503	-0.0768405621574892
-0.102041287095503	0.0534509062830324
-0.102041287095503	-0.0610522975957828
-0.102041287095503	-0.312161471123364
-0.102041287095503	-0.270829700489255
-0.102041287095503	-0.233428635319697
-0.102041287095503	0.0162347944224521
-0.102041287095503	-0.420591569964181
-0.102041287095503	-0.433003288605349
-0.102041287095503	0.00837748283200668
-0.102041287095503	0.0350145185423791
-0.102041287095503	-0.0718135308282264
-0.102041287095503	-0.241804186389576
-0.102041287095503	0.375596792888306
-0.102041287095503	1.02040282092022
-0.102041287095503	0.126087305662537
-0.102041287095503	0.406844296176306
-0.102041287095503	0.232376155571245
-0.102041287095503	-0.314791514605755
-0.102041287095503	-0.408903905375993
-0.102041287095503	0.25457881978074
-0.102041287095503	-0.199853186236965
-0.102041287095503	-0.279001249698474
-0.102041287095503	-0.513952975525431
-0.102041287095503	0.259301789712026
-0.102041287095503	0.0899345824652826
-0.102041287095503	-0.501922203739838
-0.102041287095503	0.0380870161495572
-0.102041287095503	-0.0664734108431446
-0.102041287095503	-0.0249107119179506
-0.102041287095503	-0.520072782135223
-0.102041287095503	-0.196011098224268
-0.102041287095503	-0.152245891440263
-0.102041287095503	-0.262018561569221
-0.102041287095503	-0.0384551393285371
-0.102041287095503	0.102218091700724
-0.102041287095503	0.315564464102476
-0.102041287095503	-0.0710040677919643
-0.102041287095503	-0.013727630277149
-0.102041287095503	0.0631872927264361
-0.102041287095503	-0.380069885618948
-0.102041287095503	-0.45762324330768
-0.102041287095503	-0.279431670743779
-0.102041287095503	-0.402290809499036
-0.102041287095503	0.148091781664764
-0.102041287095503	-0.649367863255449
-0.102041287095503	-0.0335845059861661
-0.102041287095503	-0.0545699960817565
-0.102041287095503	-0.0786068849435395
-0.102041287095503	0.257666748534344
-0.102041287095503	-0.123190529273216
-0.102041287095503	0.129422909508769
-0.102041287095503	0.275917011498922
-0.102041287095503	0.0587272179276965
-0.102041287095503	0.492428650439106
-0.102041287095503	0.339392898203251
-0.102041287095503	-0.058153713000614
-0.102041287095503	-0.092548725306731
-0.102041287095503	-0.0667265870186284
-0.102041287095503	-0.0289954306061553
-0.102041287095503	0.492899703934249
-0.102041287095503	0.384561920870038
-0.102041287095503	-0.841599080211932
-0.102041287095503	0.479828797054733
-0.102041287095503	-0.168055281117297
-0.102041287095503	0.0625708391716486
-0.102041287095503	0.0406339529737423
-0.102041287095503	0.116461258395894
-0.102041287095503	-0.396868540426397
-0.102041287095503	-0.0686283706291917
-0.102041287095503	0.440715890993822
-0.102041287095503	0.129330148607362
-0.102041287095503	-0.160769591741083
-0.102041287095503	-0.167824306705892
-0.102041287095503	0.0184926904448162
-0.102041287095503	-0.15171288261886
-0.102041287095503	-0.0525377501524282
-0.102041287095503	-0.151496869817425
-0.102041287095503	-0.239807667600878
-0.102041287095503	0.247591832499126
-0.102041287095503	-0.529612141831294
-0.102041287095503	0.00826386072983709
-0.102041287095503	-0.38306558702137
-0.102041287095503	0.126124663555814
-0.102041287095503	-0.079703323940862
-0.102041287095503	-0.122260899003706
-0.102041287095503	-0.0388899057624386
-0.102041287095503	-0.28299758291876
-0.102041287095503	0.190718872155667
-0.102041287095503	0.208596083445912
-0.102041287095503	-0.360441651669117
-0.102041287095503	0.230043536123485
-0.102041287095503	-0.103543301593227
-0.102041287095503	-0.728019545706729
-0.102041287095503	-0.217209235976107
-0.102041287095503	-0.345172218545212
-0.102041287095503	-0.245384271986115
-0.102041287095503	0.385575519595978
-0.102041287095503	-0.142792289962028
-0.102041287095503	-0.117620995304268
-0.102041287095503	-0.5743334286189
-0.102041287095503	-0.463075878933999
-0.102041287095503	-0.479181625942871
-0.102041287095503	0.528964105786216
-0.102041287095503	-0.654494011383367
-0.102041287095503	0.0335256159456243
-0.102041287095503	0.155379407667226
-0.102041287095503	0.175097885690302
-0.102041287095503	-0.469962544109034
-0.102041287095503	0.235944630103887
-0.102041287095503	-0.142327959572512
-0.102041287095503	0.0684822517503534
-0.102041287095503	-0.0492951996445861
-0.102041287095503	-0.02135022125535
-0.102041287095503	-0.426381320210005
-0.102041287095503	-0.0971135146204425
-0.102041287095503	0.0680784068259932
-0.102041287095503	0.30035792199654
-0.102041287095503	-0.0412266998184414
-0.102041287095503	-0.584014043136101
-0.102041287095503	-0.0770179507059723
-0.102041287095503	0.280449506654431
-0.102041287095503	-0.270011693294904
-0.102041287095503	-0.110545554516676
-0.102041287095503	-0.21029253498547
-0.102041287095503	0.0411867127396874
-0.102041287095503	-0.111179512453489
-0.102041287095503	-0.257912321982435
-0.102041287095503	-0.0970519843859279
-0.102041287095503	-0.10800951861582
-0.102041287095503	-0.141789453506245
-0.102041287095503	-0.105064112051352
-0.102041287095503	0.0508165075272728
-0.102041287095503	-0.172369552276052
-0.102041287095503	0.0135471570661778
-0.102041287095503	0.5711355235456
-0.102041287095503	-0.0462513979696269
-0.102041287095503	-0.536828405669539
-0.102041287095503	0.183669179474823
-0.102041287095503	-0.164719585196988
-0.102041287095503	0.168320549577338
-0.102041287095503	-0.264220761994622
-0.102041287095503	-0.110304970807011
-0.102041287095503	0.559686173231931
-0.102041287095503	-0.21132591519428
-0.102041287095503	-0.0901638713217352
-0.102041287095503	0.167162773833475
-0.102041287095503	0.172612230050518
-0.102041287095503	-0.288245435646921
-0.102041287095503	-0.0346828877700247
-0.102041287095503	-0.247569885761617
-0.102041287095503	0.251411377915829
-0.102041287095503	-0.0185656169754758
-0.102041287095503	-0.637946115410106
-0.102041287095503	-0.0170305174860097
-0.102041287095503	0.216855301966714
-0.102041287095503	0.0339962525311321
-0.102041287095503	-0.173337866550341
-0.102041287095503	0.0129633756483578
-0.102041287095503	-0.158634918528325
-0.102041287095503	0.436974690255447
-0.102041287095503	-0.642514229146734
-0.102041287095503	-0.15681690488972
-0.102041287095503	-0.77997715195491
-0.102041287095503	-0.399110708564582
-0.102041287095503	-0.0403280023498525
-0.102041287095503	-0.183906073370363
-0.102041287095503	0.0362773113359296
-0.102041287095503	0.0642594422569829
-0.102041287095503	0.353820366928279
-0.102041287095503	-0.399282189963984
-0.102041287095503	0.0610244580282426
-0.102041287095503	-0.0833380968463189
-0.102041287095503	0.239860781273968
-0.102041287095503	-0.0837108811503313
-0.102041287095503	0.620851784811748
-0.102041287095503	0.250790686284045
-0.102041287095503	-0.207806828613883
-0.102041287095503	0.189764386084708
-0.102041287095503	0.458077320992693
-0.102041287095503	0.493936936611767
-0.102041287095503	-0.560501803681017
-0.102041287095503	-0.380023421067026
-0.102041287095503	-0.426204550981719
-0.102041287095503	-0.568731904953747
-0.102041287095503	-0.449673256281784
-0.102041287095503	-0.332248578007917
-0.102041287095503	0.125782175194619
-0.102041287095503	-0.440339382927217
-0.102041287095503	-0.293575483912011
-0.102041287095503	-0.214180253786576
-0.102041287095503	0.00373751989501159
-0.102041287095503	-0.312524030133044
-0.102041287095503	-0.480548809619236
-0.102041287095503	-0.544587877042275
-0.102041287095503	-0.32561264900832
-0.102041287095503	-0.288119850547336
-0.102041287095503	-0.0875906167007656
-0.102041287095503	-0.0686558936112682
-0.102041287095503	-0.16002576735351
-0.102041287095503	0.0171236107442851
-0.102041287095503	0.331391492020757
-0.102041287095503	-0.0925896408944986
-0.102041287095503	-0.00793871391744005
-0.102041287095503	0.112757155603717
-0.102041287095503	0.14272484806553
-0.102041287095503	0.122645126340199
-0.102041287095503	-0.48794124940606
-0.102041287095503	-0.262868572570028
-0.102041287095503	-0.0862575026718737
-0.102041287095503	0.146571148203183
-0.102041287095503	0.288153133401067
-0.102041287095503	-0.0772753063489162
-0.102041287095503	-0.302695527559585
-0.102041287095503	-0.468326655023532
-0.102041287095503	-0.0836587579316692
-0.102041287095503	0.0398185840018357
-0.102041287095503	-0.478731286069767
-0.102041287095503	0.0797918910640476
-0.102041287095503	-0.146292104548717
-0.102041287095503	-0.140770390862205
-0.102041287095503	-0.293614978498677
-0.102041287095503	0.0593700917979589
-0.102041287095503	-0.519936860441522
-0.102041287095503	-0.0971558378575459
-0.102041287095503	-0.337081094382039
-0.102041287095503	0.537408286926748
-0.102041287095503	0.616262531361258
-0.102041287095503	-0.0887905519432834
-0.102041287095503	-0.560875174115541
-0.102041287095503	-0.248271660618197
-0.102041287095503	-0.259926708478186
-0.102041287095503	0.427284917343503
-0.102041287095503	-0.304013823707745
-0.102041287095503	-0.168308280412663
-0.102041287095503	-0.729130837172292
-0.102041287095503	0.327791521244517
-0.102041287095503	-0.238756812546075
-0.102041287095503	-0.473341861868999
-0.102041287095503	0.052050755451873
-0.102041287095503	-0.0801667738538789
-0.102041287095503	-0.476181000722921
-0.102041287095503	0.0382517786800314
-0.102041287095503	-0.650219776157716
-0.102041287095503	-0.679118084184019
-0.102041287095503	-0.260596578428249
-0.102041287095503	-0.360048938465301
-0.102041287095503	0.491995231450247
-0.102041287095503	-0.0154817042678381
-0.102041287095503	-0.470380951635498
-0.102041287095503	-0.274066700232268
-0.102041287095503	0.298589061192438
-0.102041287095503	-0.641494273583064
-0.102041287095503	-0.000162126030431864
-0.102041287095503	0.0668595705572166
-0.102041287095503	0.141815101726106
-0.102041287095503	-0.0775361958510139
-0.102041287095503	0.306671162355581
-0.102041287095503	0.544408938124299
-0.102041287095503	-0.406552476775147
-0.102041287095503	-0.402567808545044
-0.102041287095503	0.0740536947421369
-0.102041287095503	0.0121196481862249
-0.102041287095503	0.568846775325529
-0.102041287095503	-0.215697547875873
-0.102041287095503	0.182188670991792
-0.102041287095503	-0.288531166063244
-0.102041287095503	-0.38065076802884
-0.102041287095503	0.00036277844581889
-0.102041287095503	-0.292215948446014
-0.102041287095503	-0.411600563861523
-0.102041287095503	0.0871338481547639
-0.102041287095503	0.098489224214461
-0.102041287095503	-0.360066513620726
-0.102041287095503	-0.404089397879044
-0.102041287095503	0.195157983076903
-0.102041287095503	0.226201167512329
-0.102041287095503	-0.0197179842447355
-0.102041287095503	-0.180300713445863
-0.102041287095503	-0.436048840960478
-0.102041287095503	-0.519068430495278
-0.102041287095503	0.173287226560902
-0.102041287095503	-0.186763049432699
-0.102041287095503	0.109236381477931
-0.102041287095503	-0.258301266411475
-0.102041287095503	0.659066270458506
-0.102041287095503	-0.0490609592692834
-0.102041287095503	0.130749342918651
-0.102041287095503	0.00527613370807956
-0.102041287095503	0.308164353081509
-0.102041287095503	0.307693460857976
-0.102041287095503	0.877666265366251
-0.102041287095503	0.0445000322872957
-0.102041287095503	0.0581504562374882
-0.102041287095503	-0.657315053678399
-0.102041287095503	0.161540751184649
-0.102041287095503	-0.307663136700164
-0.102041287095503	-0.206210124481373
-0.102041287095503	0.252288272645089
-0.102041287095503	-0.0659701537084949
-0.102041287095503	0.311933914958079
-0.102041287095503	0.290997957257758
-0.102041287095503	-0.533815243078887
-0.102041287095503	0.184076562187862
-0.102041287095503	0.0209176064484495
-0.102041287095503	0.000439161561711643
-0.102041287095503	-0.110895454294536
-0.102041287095503	-0.193176572706484
-0.102041287095503	-0.00780112400943977
-0.102041287095503	0.335467434528386
-0.102041287095503	0.00802812387372853
-0.102041287095503	0.305947461098501
-0.102041287095503	-0.212870149012961
-0.102041287095503	-0.635894918370521
-0.102041287095503	-0.826691017121114
-0.102041287095503	-0.0730120186885905
-0.102041287095503	0.282409044750636
-0.102041287095503	0.337755919321911
-0.102041287095503	-0.0111221907279919
-0.102041287095503	-0.468459117878862
-0.102041287095503	1.06212446062332
-0.102041287095503	-0.200516519930286
-0.102041287095503	-0.124797285082607
-0.102041287095503	-0.0921921946047171
-0.102041287095503	-0.423614715359449
-0.102041287095503	-0.0455696823148699
-0.102041287095503	0.174095995538938
-0.102041287095503	0.532985867711041
-0.102041287095503	-0.315795894861271
-0.102041287095503	0.0880965434073033
-0.102041287095503	0.350349747078823
-0.102041287095503	-0.724038127629111
-0.102041287095503	0.210244629810038
-0.102041287095503	0.265310140868081
-0.102041287095503	-0.209078513954886
-0.102041287095503	-0.547169695109417
-0.102041287095503	0.11202560042468
-0.102041287095503	0.0193946922952648
-0.102041287095503	-0.0492000981147562
-0.102041287095503	-0.467415192490481
-0.102041287095503	0.291316247722829
-0.102041287095503	-0.200022356242574
-0.102041287095503	-0.323831309063138
-0.102041287095503	-0.864296761840393
-0.102041287095503	-0.211358140085469
-0.102041287095503	0.127130882372899
-0.102041287095503	-0.401828770339442
-0.102041287095503	0.0433524650468335
-0.102041287095503	0.0341835850163434
-0.102041287095503	0.298100960931983
-0.102041287095503	0.398253224657005
-0.102041287095503	-0.266020368808217
-0.102041287095503	-0.39860936568039
-0.102041287095503	-0.00719201053285445
-0.102041287095503	-0.0410884838202108
-0.102041287095503	0.438725799062293
-0.102041287095503	-0.0900733166123757
-0.102041287095503	0.323028878666022
-0.102041287095503	-0.197007404136315
-0.102041287095503	-0.0687572122146705
-0.102041287095503	-0.326741845232171
-0.102041287095503	0.399793093099667
-0.102041287095503	-0.274801419736956
-0.102041287095503	-0.323203105362239
-0.102041287095503	-0.0455424990881106
-0.102041287095503	-0.0118826003245722
-0.102041287095503	-0.0432596089829254
-0.102041287095503	0.0530344898817852
-0.102041287095503	0.0431736382075627
-0.102041287095503	-0.200004251375933
-0.102041287095503	0.0247715067938934
-0.102041287095503	0.351656551793845
-0.102041287095503	-0.216653663404127
-0.102041287095503	-0.00161420854699657
-0.102041287095503	-0.181398619088355
-0.102041287095503	-0.108348550983461
-0.102041287095503	-0.288576635803278
-0.102041287095503	-0.0644128569672802
-0.102041287095503	-0.690092296088238
-0.102041287095503	0.300325127662465
-0.102041287095503	0.429194726376974
-0.102041287095503	0.643572781446771
-0.102041287095503	0.0313350206386573
-0.102041287095503	0.00404123083497865
-0.102041287095503	0.296723548897067
-0.102041287095503	-0.0514428754943346
-0.102041287095503	0.22329320453758
-0.102041287095503	-0.164476617532532
-0.102041287095503	-0.489249130381161
-0.102041287095503	-0.118562090320928
-0.102041287095503	0.0180763195928613
-0.102041287095503	0.101645518058895
-0.102041287095503	0.224901827382329
-0.102041287095503	0.353940009027632
-0.102041287095503	0.780355951433638
-0.102041287095503	-0.155466914840535
-0.102041287095503	-0.110780540358235
-0.102041287095503	-0.907696323518358
-0.102041287095503	-0.231829858902131
-0.102041287095503	-0.137258973266825
-0.102041287095503	-0.379437679919111
-0.102041287095503	-0.162123955201054
-0.102041287095503	-0.42960737337819
-0.102041287095503	-0.158731117693733
-0.102041287095503	-0.354615565151899
-0.102041287095503	0.0380618958646366
-0.102041287095503	-0.0678271999856008
-0.102041287095503	0.142975818581156
-0.102041287095503	-0.391378297949888
-0.102041287095503	-0.092053250969542
-0.102041287095503	-0.592487851647249
-0.102041287095503	0.601176338429905
-0.102041287095503	-0.162835619114048
-0.102041287095503	-0.284205739574666
-0.102041287095503	-0.166057619221377
-0.102041287095503	-0.614178468467372
-0.102041287095503	0.15681420973257
-0.102041287095503	0.292282617252845
-0.102041287095503	-0.908589651172178
-0.102041287095503	-0.266505831386972
-0.102041287095503	-0.512088503768386
-0.102041287095503	-0.540477949449205
-0.102041287095503	0.388688653923168
-0.102041287095503	0.00532778806487144
-0.102041287095503	0.187034588010842
-0.102041287095503	-0.067293574825964
-0.102041287095503	0.34477659093919
-0.102041287095503	-0.199483873136018
-0.102041287095503	0.18736986581396
-0.102041287095503	0.0930625149844175
-0.102041287095503	-0.182793769936705
-0.102041287095503	0.177376962080327
-0.102041287095503	-0.518736390895334
-0.102041287095503	0.14093522105188
-0.102041287095503	-0.258606335554909
-0.102041287095503	-0.0905072567587517
-0.102041287095503	0.185859131715603
-0.102041287095503	-0.0491722789799205
-0.102041287095503	-0.539517344381057
-0.102041287095503	-0.201310486591218
-0.102041287095503	0.322191420808945
-0.102041287095503	0.0370282439475993
-0.102041287095503	0.253873428296185
-0.102041287095503	-0.0810799072900288
-0.102041287095503	-0.315847587412971
-0.102041287095503	0.180451329111357
-0.102041287095503	0.473377630929413
-0.102041287095503	0.161753285397609
-0.102041287095503	-0.750588148997775
-0.102041287095503	0.766494302041099
-0.102041287095503	-0.0547457826885704
-0.102041287095503	-0.219381142521737
-0.102041287095503	-0.0672238029308367
-0.102041287095503	0.37467369898496
-0.102041287095503	-0.564325240903393
-0.102041287095503	-0.20610398521163
-0.102041287095503	-0.389232392429054
-0.102041287095503	-0.244134796804239
-0.102041287095503	0.636297206281192
-0.102041287095503	-0.189437627792529
-0.102041287095503	1.10153060344228
-0.102041287095503	-0.524460531340644
-0.102041287095503	-0.204799697250333
-0.102041287095503	0.22006615486098
-0.102041287095503	-0.33110503517787
-0.102041287095503	0.110998047174032
-0.102041287095503	-0.0609980745663172
-0.102041287095503	-0.283659051265026
-0.102041287095503	0.240270439704627
-0.102041287095503	-0.0644433766690931
-0.102041287095503	-0.366724856214994
-0.102041287095503	-0.332567566474005
-0.102041287095503	-0.43992503547658
-0.102041287095503	-0.103046117493854
-0.102041287095503	-0.172132501938862
-0.102041287095503	-0.174671984259508
-0.102041287095503	-0.891424306208521
-0.102041287095503	-0.179322830371358
-0.102041287095503	-0.0500465542083788
-0.102041287095503	-0.629514070338033
-0.102041287095503	-0.549737824035848
-0.102041287095503	0.181016130619177
-0.102041287095503	0.315591484087946
-0.102041287095503	0.0971845825602422
-0.102041287095503	0.304012871972809
-0.102041287095503	-0.268183794413183
-0.102041287095503	-0.356338790215563
-0.102041287095503	-0.208592277820781
-0.102041287095503	0.611627406995478
-0.102041287095503	0.0773144649448874
-0.102041287095503	-0.214783304696475
-0.102041287095503	-0.381293959628437
-0.102041287095503	0.114242446598251
-0.102041287095503	-0.36931441991781
-0.102041287095503	0.203151315165094
-0.102041287095503	0.262790895152513
-0.102041287095503	-0.302852965522863
-0.102041287095503	0.0650315008444409
-0.102041287095503	0.352456008584859
-0.102041287095503	0.375992509945792
-0.102041287095503	0.146720852594651
-0.102041287095503	-0.23073698317377
-0.102041287095503	-0.432088792432136
-0.102041287095503	0.0185289970026545
-0.102041287095503	0.302970705736538
-0.102041287095503	-0.741562349712627
-0.102041287095503	-0.452827361497128
-0.102041287095503	0.45813237158308
-0.102041287095503	-0.299063971298303
-0.102041287095503	-0.167135879479559
-0.102041287095503	0.313909972247686
-0.102041287095503	-0.175290859043191
-0.102041287095503	-0.0427750082661369
-0.102041287095503	-0.664924338068396
-0.102041287095503	-0.247662366403929
-0.102041287095503	-0.126557545634022
-0.102041287095503	0.0109324552085113
-0.102041287095503	-0.319990371272148
-0.102041287095503	-0.121138434342413
-0.102041287095503	0.360229904346262
-0.102041287095503	0.0180945962995729
-0.102041287095503	-0.118097482177419
-0.102041287095503	-0.338477631868439
-0.102041287095503	0.195789741068751
-0.102041287095503	-0.752097495399653
-0.102041287095503	-0.16920989862188
-0.102041287095503	-0.509302928339714
-0.102041287095503	-0.0271772482044881
-0.102041287095503	0.343390420771659
-0.102041287095503	0.0442841517829002
-0.102041287095503	0.175192641742722
-0.102041287095503	0.333549713268194
-0.102041287095503	-0.0355676105410261
-0.102041287095503	-0.274958687907063
-0.102041287095503	-0.371956803657209
-0.102041287095503	-0.0378818135910137
-0.102041287095503	-0.259671929191846
-0.102041287095503	0.310851565607166
-0.102041287095503	0.153139824752113
-0.102041287095503	-0.655280509842012
-0.102041287095503	-0.21351619964145
-0.102041287095503	-0.131166626078031
-0.102041287095503	0.229465916627593
-0.102041287095503	0.334662960879957
-0.102041287095503	0.317941720420432
-0.102041287095503	0.120907209550037
-0.102041287095503	0.0254275793635657
-0.102041287095503	-0.303091491811266
-0.102041287095503	-0.4168322263357
-0.102041287095503	0.296943170266406
-0.102041287095503	-0.325247122677499
-0.102041287095503	-0.0946040563588149
-0.102041287095503	-0.299685224566616
-0.102041287095503	-0.490480486739564
-0.102041287095503	0.289496536549084
-0.102041287095503	0.203059609321947
-0.102041287095503	-0.118681746997854
-0.102041287095503	-0.344107146445065
-0.102041287095503	0.0954820376591137
-0.102041287095503	-0.131400131545107
-0.102041287095503	-0.557813832342397
-0.102041287095503	0.380104351487528
-0.102041287095503	0.0111522676436024
-0.102041287095503	0.596629270332276
-0.102041287095503	-0.215026363521147
-0.102041287095503	-0.552862710061326
-0.102041287095503	-0.100863575802318
-0.102041287095503	-0.284194383821177
-0.102041287095503	0.0769887661651438
-0.102041287095503	0.0508199473061346
-0.102041287095503	0.657721663906532
-0.102041287095503	1.00036879209976
-0.102041287095503	-0.290528630377985
-0.102041287095503	0.349701306988642
-0.102041287095503	0.0772425701829178
-0.102041287095503	-0.0142387842182607
-0.102041287095503	-0.177329340970417
-0.102041287095503	0.36401619839075
-0.102041287095503	0.16219636647196
-0.102041287095503	0.165538193008597
-0.102041287095503	-0.0354608374869265
-0.102041287095503	-0.0978188403942433
-0.102041287095503	-0.414061283253968
-0.102041287095503	-0.0657247109298993
-0.102041287095503	-0.234671770731897
-0.102041287095503	-0.171353704384554
-0.102041287095503	-0.0114851985975761
-0.102041287095503	-0.364382538014283
-0.102041287095503	0.0334522585860846
-0.102041287095503	-0.895023388635849
-0.102041287095503	0.322568023504939
-0.102041287095503	-0.092455051388896
-0.102041287095503	-0.223516974247897
-0.102041287095503	0.218636082377827
-0.102041287095503	0.142397430850988
-0.102041287095503	0.0248611176843916
-0.102041287095503	-0.151157824182278
-0.102041287095503	0.09059102512715
-0.102041287095503	0.324965531089866
-0.102041287095503	0.209303165912097
-0.102041287095503	0.703903562781708
-0.102041287095503	-0.847233081077484
-0.102041287095503	-0.465170010337584
-0.102041287095503	0.271287011236698
-0.102041287095503	-0.641055250757322
-0.102041287095503	-0.767539435562316
-0.102041287095503	-0.295475383881303
-0.102041287095503	-0.125757293595687
-0.102041287095503	-0.176918795177002
-0.102041287095503	0.0283018998867703
-0.102041287095503	-0.268371811121398
-0.102041287095503	-0.0979666582050349
-0.102041287095503	-0.365451949255817
-0.102041287095503	-0.0798854089580345
-0.102041287095503	0.174323880149341
-0.102041287095503	0.397700459447908
-0.102041287095503	-0.216535013602851
-0.102041287095503	-0.175023833237546
-0.102041287095503	-0.196457786555897
-0.102041287095503	0.171159916201006
-0.102041287095503	0.147621082244068
-0.102041287095503	0.213596128353867
-0.102041287095503	0.51406559177228
-0.102041287095503	0.142983793133819
-0.102041287095503	0.183076550604611
-0.102041287095503	0.453847215758458
-0.102041287095503	-0.556534402139981
-0.102041287095503	-0.71665087738549
-0.102041287095503	-0.493755126657877
-0.102041287095503	0.0150445942121102
-0.102041287095503	-0.273590112994473
-0.102041287095503	-0.0391952540476055
-0.102041287095503	-0.147824272967245
-0.102041287095503	0.0505283208236094
-0.102041287095503	-0.307983705809228
-0.102041287095503	-0.362104075436239
-0.102041287095503	-0.124539852669251
-0.102041287095503	0.38773428557835
-0.102041287095503	0.217712350485627
-0.102041287095503	0.807776614719799
-0.102041287095503	0.467481227280473
-0.102041287095503	-0.650890310657928
-0.102041287095503	-0.224888204197203
-0.102041287095503	-0.116167531223457
-0.102041287095503	-0.292008467177762
-0.102041287095503	0.230052574765136
-0.102041287095503	-0.0844743039229527
-0.102041287095503	0.0616126989041526
-0.102041287095503	0.255109885319008
-0.102041287095503	-0.327041905595756
-0.102041287095503	0.0539065576400795
-0.102041287095503	0.581872452014622
-0.102041287095503	0.471053814273411
-0.102041287095503	0.397736492774889
-0.102041287095503	-0.183147937538457
-0.102041287095503	-0.0486938342431529
-0.102041287095503	-0.422929533419008
-0.102041287095503	0.264831461547047
-0.102041287095503	-0.0460766218586421
-0.102041287095503	-0.95793108112165
-0.102041287095503	-0.00841044676105085
-0.102041287095503	-0.494106766267898
-0.102041287095503	0.451643137692258
-0.102041287095503	-0.334221188872725
-0.102041287095503	0.172600041696906
-0.102041287095503	0.677309737830758
-0.102041287095503	-0.404867603151288
-0.102041287095503	-0.0690476063794812
-0.102041287095503	0.0502288844793881
-0.102041287095503	0.0287613617693019
-0.102041287095503	-0.554928140021531
-0.102041287095503	-0.776520405720252
-0.102041287095503	0.100078830744152
-0.102041287095503	-0.121998762505434
-0.102041287095503	-0.0266629706057806
-0.102041287095503	-0.521978249991815
-0.102041287095503	-0.310041503087309
-0.102041287095503	-0.0288872205144877
-0.102041287095503	0.0379352645436981
-0.102041287095503	0.148419239802365
-0.102041287095503	0.214667885172375
-0.102041287095503	-0.576814328275841
-0.102041287095503	0.0227098692696543
-0.102041287095503	-0.155768059893525
-0.102041287095503	-0.343740050024465
-0.102041287095503	0.236675309030971
-0.102041287095503	0.00937475150900724
-0.102041287095503	-0.570872345329363
-0.102041287095503	-0.405211000212496
-0.102041287095503	-0.205514935620567
-0.102041287095503	0.171922855050273
-0.102041287095503	-0.212822902483403
-0.102041287095503	-0.147114824732995
-0.102041287095503	0.366229518643884
-0.102041287095503	0.0311585537341088
-0.102041287095503	0.221008120529689
-0.102041287095503	0.355634309602799
-0.102041287095503	0.276080369728191
-0.102041287095503	0.110719807950328
-0.102041287095503	-0.368556952879395
-0.102041287095503	0.422488104104119
-0.102041287095503	-0.729497061807191
-0.102041287095503	0.0930995655199638
-0.102041287095503	-0.0750245788718189
-0.102041287095503	0.137213557279022
-0.102041287095503	0.369086927868771
-0.102041287095503	-0.0312238511215561
-0.102041287095503	-0.308342673250728
-0.102041287095503	-0.112413510390592
-0.102041287095503	-0.195627104020097
-0.102041287095503	-0.14849799185491
-0.102041287095503	-0.196115445387932
-0.102041287095503	0.00557491802961252
-0.102041287095503	0.137865997724031
-0.102041287095503	0.0448045145968905
-0.102041287095503	0.377651280062079
-0.102041287095503	-0.287787466315713
-0.102041287095503	0.150757376177847
-0.102041287095503	-0.188403056280432
-0.102041287095503	0.100743037499058
-0.102041287095503	0.54210166253802
-0.102041287095503	-0.295061526934528
-0.102041287095503	0.0379509583923863
-0.102041287095503	-0.574241785595234
-0.102041287095503	-0.308939026242474
-0.102041287095503	-0.697092809958825
-0.102041287095503	-0.331945583950198
-0.102041287095503	-0.122617464734017
-0.102041287095503	0.384189203263944
-0.102041287095503	0.441273276679418
-0.102041287095503	-0.508457138654684
-0.102041287095503	-0.397461519278586
-0.102041287095503	0.118685986863369
-0.102041287095503	-0.018194455802913
-0.102041287095503	-0.295932412718084
-0.102041287095503	-0.0902856450049256
-0.102041287095503	0.298743849219267
-0.102041287095503	0.0204248432865271
-0.102041287095503	-0.0114590682739681
-0.102041287095503	-0.403340918294823
-0.102041287095503	-0.754707366369473
-0.102041287095503	0.461416942836987
-0.102041287095503	-0.255971158771803
-0.102041287095503	0.00837200358273194
-0.102041287095503	0.110390026311279
-0.102041287095503	-0.194090250656096
-0.102041287095503	0.649815404064707
