V1	V2
-0.173885816287527	-0.901663457968814
-0.173885816287527	0.436671729197547
-0.173885816287527	-0.709662331448172
-0.173885816287527	1.24534755470696
-0.173885816287527	0.668701838347701
-0.173885816287527	-0.723396232658066
-0.173885816287527	-0.589635303381543
-0.173885816287527	-1.3482318214715
-0.173885816287527	-0.447002153629792
-0.173885816287527	-0.0135721440595568
-0.173885816287527	-0.983753943064848
-0.173885816287527	-0.412112697864922
-0.173885816287527	-1.01806953655783
-0.173885816287527	-0.892967372286934
-0.173885816287527	-0.00592959392414227
-0.173885816287527	-0.502484713633929
-0.173885816287527	-0.535985017025126
-0.173885816287527	0.987169250182896
-0.173885816287527	-0.0783548383989073
-0.173885816287527	0.442550371130915
-0.173885816287527	1.33832338857773
-0.173885816287527	0.047578933032681
-0.173885816287527	-0.229507867343183
-0.173885816287527	-0.152241303426181
-0.173885816287527	0.708010880309911
-0.173885816287527	-1.13940066651446
-0.173885816287527	0.0169221154845939
-0.173885816287527	0.407045519105167
-0.173885816287527	0.0299115275548992
-0.173885816287527	1.12168933875544
-0.173885816287527	1.041981833756
-0.173885816287527	0.545180954372896
-0.173885816287527	-0.130301608284922
-0.173885816287527	-0.910903304642499
-0.173885816287527	-0.759196765647997
-0.173885816287527	0.731751925202959
-0.173885816287527	0.0884461393204221
-0.173885816287527	0.0693758772147185
-0.173885816287527	0.245742815623804
-0.173885816287527	-0.560844467141367
-0.173885816287527	-0.594522602078503
-0.173885816287527	0.979216476206094
-0.173885816287527	0.513804927908487
-0.173885816287527	-0.66307638220253
-0.173885816287527	-0.692686082974304
-0.173885816287527	-0.600692691723248
-0.173885816287527	0.202293096762475
-0.173885816287527	-0.849168495444582
-0.173885816287527	0.129072283035562
-0.173885816287527	0.77398651193496
-0.173885816287527	-0.714425258541604
-0.173885816287527	0.706257277382507
-0.173885816287527	-0.422535447641388
-0.173885816287527	-0.437627062811282
-0.173885816287527	-0.284604725337755
-0.173885816287527	-0.633543300598086
-0.173885816287527	1.04622699060123
-0.173885816287527	-0.366629507191089
-0.173885816287527	-0.32074400075974
-0.173885816287527	-0.741982562309191
-0.173885816287527	1.66088381138023
-0.173885816287527	-0.337157528753588
-0.173885816287527	-1.07427621966054
-0.173885816287527	-0.616382381926415
-0.173885816287527	0.386389734132127
-0.173885816287527	-0.170898814845216
-0.173885816287527	-0.312595943897093
-0.173885816287527	-0.569001776873266
-0.173885816287527	0.858244778930401
-0.173885816287527	0.299991230600646
-0.173885816287527	0.663603714090917
-0.173885816287527	-0.863172279154935
-0.173885816287527	-0.218302788841419
-0.173885816287527	-0.439269584387604
-0.173885816287527	0.377640667110133
-0.173885816287527	-0.622332980746237
-0.173885816287527	-0.679735998605037
-0.173885816287527	0.315106351734696
-0.173885816287527	-0.114366062199774
-0.173885816287527	0.443171221027418
-0.173885816287527	1.00371787938489
-0.173885816287527	-0.587040184890409
-0.173885816287527	-0.0773901564312336
-0.173885816287527	0.582366309433915
-0.173885816287527	0.237278381483101
-0.173885816287527	-0.599511017897292
-0.173885816287527	0.490424290415461
-0.173885816287527	-0.592274167208448
-0.173885816287527	-0.207825118264573
-0.173885816287527	-0.406463328758393
-0.173885816287527	-0.138173103632304
-0.173885816287527	0.164434229332115
-0.173885816287527	-0.766578389399027
-0.173885816287527	-1.34843385302099
-0.173885816287527	-0.185668365524811
-0.173885816287527	1.03006551625917
-0.173885816287527	0.7380388417265
-0.173885816287527	1.31296810809122
-0.173885816287527	-0.99698176726861
-0.173885816287527	-0.515290556216676
-0.173885816287527	-1.95431126218963
-0.173885816287527	-0.21825154931094
-0.173885816287527	1.51258608738978
-0.173885816287527	0.884585444506558
-0.173885816287527	-0.411804568752654
-0.173885816287527	0.731972802986112
-0.173885816287527	0.865076722090778
-0.173885816287527	0.103230421777352
-0.173885816287527	0.993745133362405
-0.173885816287527	-0.703481908715682
-0.173885816287527	0.879477598163511
-0.173885816287527	-0.754902240049326
-0.173885816287527	0.524645886842207
-0.173885816287527	-0.184045369072697
-0.173885816287527	0.965393191696637
-0.173885816287527	1.10547826002079
-0.173885816287527	1.18336864868961
-0.173885816287527	0.248640581666019
-0.173885816287527	0.831727466748839
-0.173885816287527	-0.758829437708899
-0.173885816287527	-0.57230925396222
-0.173885816287527	0.153288477697763
-0.173885816287527	-1.13688003035188
-0.173885816287527	-0.593169325933172
-0.173885816287527	0.038375170118631
-0.173885816287527	-0.796416322610559
-0.173885816287527	0.419017753375653
-0.173885816287527	-0.396350907664488
-0.173885816287527	0.221240573605442
-0.173885816287527	0.0516476150427651
-0.173885816287527	0.56339971522747
-0.173885816287527	-0.257832108062794
-0.173885816287527	0.176557479456381
-0.173885816287527	0.176539282759699
-0.173885816287527	0.231925905888368
-0.173885816287527	0.706726137575223
-0.173885816287527	0.168047425164214
-0.173885816287527	-0.333626198885652
-0.173885816287527	-0.172435259724225
-0.173885816287527	-0.397053071593558
-0.173885816287527	-0.028631597048081
-0.173885816287527	-0.735195661564384
-0.173885816287527	-0.774723188043876
-0.173885816287527	0.918869918550656
-0.173885816287527	-0.0523803436297401
-0.173885816287527	-0.188209977146181
-0.173885816287527	0.664273753729855
-0.173885816287527	0.135462997143289
-0.173885816287527	-0.64104889013494
-0.173885816287527	-1.008417988648
-0.173885816287527	-1.36974894739248
-0.173885816287527	-0.651760948714744
-0.173885816287527	-0.198496919052666
-0.173885816287527	-0.173556471320158
-0.173885816287527	-0.819542619866355
-0.173885816287527	-1.26446331520654
-0.173885816287527	-0.738129355168988
-0.173885816287527	-1.51038224813318
-0.173885816287527	-1.66342178311078
-0.173885816287527	-0.374075921079497
-0.173885816287527	-0.722393862477878
-0.173885816287527	0.394268856990415
-0.173885816287527	0.588720369025373
-0.173885816287527	-1.85216719592175
-0.173885816287527	0.171006049589636
-0.173885816287527	-1.14955706362274
-0.173885816287527	-0.369970576763354
-0.173885816287527	-0.183265607223741
-0.173885816287527	-0.472953477225096
-0.173885816287527	-0.291107406643517
-0.173885816287527	-0.0555441538424998
-0.173885816287527	-0.22444109779607
-0.173885816287527	-0.633919540110866
-0.173885816287527	-0.0259534713018468
-0.173885816287527	-0.840240043568566
-0.173885816287527	0.444263715509081
-0.173885816287527	-0.20760348664004
-0.173885816287527	-1.34385216159736
-0.173885816287527	-0.434933348746329
-0.173885816287527	-0.526843296996832
-0.173885816287527	0.816534476490909
-0.173885816287527	1.31794389221625
-0.173885816287527	0.137502876939626
-0.173885816287527	-0.318150478976338
-0.173885816287527	1.02937417555315
-0.173885816287527	0.884305584674441
-0.173885816287527	-0.483757545113541
-0.173885816287527	-0.155549899060343
-0.173885816287527	-0.55641662097087
-0.173885816287527	0.101060140967681
-0.173885816287527	-0.824741813297318
-0.173885816287527	-0.785753863485125
-0.173885816287527	0.10726810058694
-0.173885816287527	0.360273033863942
-0.173885816287527	0.594450362393714
-0.173885816287527	-0.179940011813076
-0.173885816287527	1.37317756890854
-0.173885816287527	0.188931832431529
-0.173885816287527	-0.26978549748342
-0.173885816287527	0.784536100524319
-0.173885816287527	0.0743840295751123
-0.173885816287527	1.09352454866344
-0.173885816287527	-0.621275423857691
-0.173885816287527	-0.564952092483324
-0.173885816287527	0.249381140936285
-0.173885816287527	-0.145979965926828
-0.173885816287527	-0.164335476261511
-0.173885816287527	0.0424908440955545
-0.173885816287527	-1.271827184283
-0.173885816287527	0.231192216964264
-0.173885816287527	-0.243903603502626
-0.173885816287527	-0.358011743270762
-0.173885816287527	0.57623804853271
-0.173885816287527	0.216152996941811
-0.173885816287527	-0.0427090562399244
-0.173885816287527	0.0294191143224498
-0.173885816287527	1.67205572493579
-0.173885816287527	0.55549628555813
-0.173885816287527	0.394367293794224
-0.173885816287527	-0.2409671034483
-0.173885816287527	1.3863691096436
-0.173885816287527	1.15849407767602
-0.173885816287527	0.595859319917795
-0.173885816287527	0.0843179213300475
-0.173885816287527	1.38389018912429
-0.173885816287527	0.064938020129696
-0.173885816287527	-0.248294855280265
-0.173885816287527	-1.29789771918344
-0.173885816287527	-0.410642348114782
-0.173885816287527	0.183416914824982
-0.173885816287527	-1.51960455850812
-0.173885816287527	-1.63129393847998
-0.173885816287527	0.413363574196522
-0.173885816287527	-0.474772583851493
-0.173885816287527	0.120433987901883
-0.173885816287527	-0.0626656998658603
-0.173885816287527	0.778330547283825
-0.173885816287527	1.14427981211753
-0.173885816287527	-0.353913069893466
-0.173885816287527	0.421383144823328
-0.173885816287527	-0.254490890413771
-0.173885816287527	-1.00448518378511
-0.173885816287527	-0.889727815863589
-0.173885816287527	0.569737517812784
-0.173885816287527	-0.775435590761453
-0.173885816287527	0.708014964754314
-0.173885816287527	-0.658316972653637
-0.173885816287527	-0.0603377547165604
-0.173885816287527	0.469966957350951
-0.173885816287527	-0.048630023420868
-0.173885816287527	0.168780764294257
-0.173885816287527	-0.0832563762824927
-0.173885816287527	-0.00764991947928217
-0.173885816287527	-0.860709049171406
-0.173885816287527	1.63214724488429
-0.173885816287527	-0.832469756097763
-0.173885816287527	-0.706710565439701
-0.173885816287527	-0.673742673742046
-0.173885816287527	-0.276114145860871
-0.173885816287527	-0.488732664248474
-0.173885816287527	0.102961246081262
-0.173885816287527	-0.919706103756684
-0.173885816287527	0.834006506222038
-0.173885816287527	-0.925162932769122
-0.173885816287527	-1.78626976306427
-0.173885816287527	0.501661802502214
-0.173885816287527	0.495592167500103
-0.173885816287527	-1.1518466737395
-0.173885816287527	-0.290743535181362
-0.173885816287527	0.288849713478387
-0.173885816287527	0.0165374634708443
-0.173885816287527	0.186069478225054
-0.173885816287527	-0.0242726422169224
-0.173885816287527	-0.371096009159121
-0.173885816287527	0.218279868477359
-0.173885816287527	-0.590519921920415
-0.173885816287527	0.881396511421991
-0.173885816287527	-0.277149283293234
-0.173885816287527	-0.0967787128670746
-0.173885816287527	-0.388208103807308
-0.173885816287527	-0.521140436285177
-0.173885816287527	0.786747481848978
-0.173885816287527	-0.448754456902807
-0.173885816287527	-0.0735668168307715
-0.173885816287527	-0.628121342065975
-0.173885816287527	-0.26381411194283
-0.173885816287527	0.411483076044582
-0.173885816287527	0.523392418508497
-0.173885816287527	0.244323448610004
-0.173885816287527	-0.204180518063425
-0.173885816287527	-0.469358010197253
-0.173885816287527	-0.103553195647933
-0.173885816287527	-0.0748096555865437
-0.173885816287527	-0.394639977028352
-0.173885816287527	-1.62216872068209
-0.173885816287527	-0.0303970952176399
-0.173885816287527	-0.492135457797074
-0.173885816287527	-0.0473003601322452
-0.173885816287527	0.214228198231442
-0.173885816287527	0.300105871370232
-0.173885816287527	0.838231471260731
-0.173885816287527	0.835732092662819
-0.173885816287527	0.0193075058871757
-0.173885816287527	-1.4579024866705
-0.173885816287527	0.426642751537987
-0.173885816287527	-0.554939444912418
-0.173885816287527	-0.360896653831658
-0.173885816287527	0.886907229194586
-0.173885816287527	0.850176097776948
-0.173885816287527	1.09731988518049
-0.173885816287527	0.0810696746017358
-0.173885816287527	-0.436198711165931
-0.173885816287527	-0.198484420240044
-0.173885816287527	0.306230216281744
-0.173885816287527	0.801396047322002
-0.173885816287527	-0.80253847272375
-0.173885816287527	-0.727039534600749
-0.173885816287527	-1.57718469434801
-0.173885816287527	0.679638261154554
-0.173885816287527	-0.465389126690627
-0.173885816287527	-0.340879817330051
-0.173885816287527	-0.0527028539408512
-0.173885816287527	0.605180442978677
-0.173885816287527	-0.391318932410703
-0.173885816287527	-0.595747244208066
-0.173885816287527	-0.1717663401878
-0.173885816287527	-1.31411977458983
-0.173885816287527	0.443657628373032
-0.173885816287527	1.61862632685981
-0.173885816287527	-0.656595915637431
-0.173885816287527	-0.768301322715687
-0.173885816287527	-0.0056097749806816
-0.173885816287527	-0.119727816447123
-0.173885816287527	0.0342794507395128
-0.173885816287527	0.261441970189348
-0.173885816287527	0.359573747409981
-0.173885816287527	-0.474380480280294
-0.173885816287527	0.586747276866595
-0.173885816287527	-0.259294080970502
-0.173885816287527	-0.242331303496317
-0.173885816287527	0.00890632412381698
-0.173885816287527	-0.371976712498607
-0.173885816287527	0.305545390227882
-0.173885816287527	-0.134384546820237
-0.173885816287527	0.522160519486244
-0.173885816287527	0.295462521551171
-0.173885816287527	-0.119867243644834
-0.173885816287527	0.86256339034633
-0.173885816287527	-0.179841830043245
-0.173885816287527	0.906551470295453
-0.173885816287527	0.0856942323947429
-0.173885816287527	-0.863667229198115
-0.173885816287527	-0.203776242614567
-0.173885816287527	0.439440714379882
-0.173885816287527	0.379530089559665
-0.173885816287527	-0.414198726015412
-0.173885816287527	-0.643796423297723
-0.173885816287527	0.580698413501684
-0.173885816287527	0.406503219429803
-0.173885816287527	-0.277352190357745
-0.173885816287527	0.263856000274495
-0.173885816287527	-0.163934499812527
-0.173885816287527	0.309524361438333
-0.173885816287527	-0.20912921777775
-0.173885816287527	1.31239613414739
-0.173885816287527	-1.09294439860406
-0.173885816287527	-0.637996500426779
-0.173885816287527	-0.370450404529643
-0.173885816287527	-0.789725984615296
-0.173885816287527	0.928070393699183
-0.173885816287527	-0.0178744982325754
-0.173885816287527	1.08873912234447
-0.173885816287527	-0.673096035480631
-0.173885816287527	-1.12882469738848
-0.173885816287527	1.14695297969152
-0.173885816287527	-0.103853175695905
-0.173885816287527	0.848585659239529
-0.173885816287527	0.18758923734821
-0.173885816287527	-0.739572584058749
-0.173885816287527	-0.323402400789147
-0.173885816287527	-1.5114372829503
-0.173885816287527	-0.142771619268245
-0.173885816287527	0.88559679447647
-0.173885816287527	0.194648537854514
-0.173885816287527	0.377995690774335
-0.173885816287527	0.0545542850455111
-0.173885816287527	0.560082080057984
-0.173885816287527	0.175025544187552
-0.173885816287527	1.09632578050816
-0.173885816287527	0.207976627515976
-0.173885816287527	0.722741045362079
-0.173885816287527	-0.519408790208884
-0.173885816287527	-1.04494064885593
-0.173885816287527	1.00736668980979
-0.173885816287527	0.871904555693293
-0.173885816287527	0.169034934004194
-0.173885816287527	-0.516958090850683
-0.173885816287527	0.369295399166777
-0.173885816287527	-0.345547088371567
-0.173885816287527	0.162237528304991
-0.173885816287527	-0.0938116566055938
-0.173885816287527	0.123087568682254
-0.173885816287527	0.729863312341525
-0.173885816287527	-0.441228801131285
-0.173885816287527	-1.28678397954796
-0.173885816287527	0.556285710502564
-0.173885816287527	-0.87593600695244
-0.173885816287527	-1.481238908334
-0.173885816287527	-0.909056431621623
-0.173885816287527	1.15422843498472
-0.173885816287527	0.528220411450479
-0.173885816287527	-0.446443956364109
-0.173885816287527	0.0204249091936919
-0.173885816287527	-0.416348523610919
-0.173885816287527	0.346041644492008
-0.173885816287527	-0.300341136394198
-0.173885816287527	1.01907115342993
-0.173885816287527	-0.23837293468622
-0.173885816287527	-0.476747299898997
-0.173885816287527	-0.990520811843125
-0.173885816287527	-0.461386237980531
-0.173885816287527	-0.13274165602525
-0.173885816287527	0.517982065730274
-0.173885816287527	-1.23138743727239
-0.173885816287527	0.517170004108126
-0.173885816287527	-0.579859411046591
-0.173885816287527	0.866417414432153
-0.173885816287527	0.517892112894754
-0.173885816287527	0.690957044226058
-0.173885816287527	0.0777230206827753
-0.173885816287527	-0.587591759085637
-0.173885816287527	-0.363482286206116
-0.173885816287527	0.502283763962354
-0.173885816287527	-0.498207063038451
-0.173885816287527	-0.00100741349102751
-0.173885816287527	0.278731370590168
-0.173885816287527	-0.926126573529007
-0.173885816287527	-0.442038365732876
-0.173885816287527	-0.129704071640104
-0.173885816287527	1.3220260356908
-0.173885816287527	0.71817160351503
-0.173885816287527	0.543887978303761
-0.173885816287527	-2.53116822810505
-0.173885816287527	0.696687952365102
-0.173885816287527	0.594731313510182
-0.173885816287527	1.06471623024314
-0.173885816287527	0.4805488406895
-0.173885816287527	-0.673067196067933
-0.173885816287527	-0.204925472327439
-0.173885816287527	0.00323804120916904
-0.173885816287527	-0.0584305214651485
-0.173885816287527	1.02227058302578
-0.173885816287527	-0.874168026001683
-0.173885816287527	-0.218333854327396
-0.173885816287527	0.153164252772131
-0.173885816287527	-0.929090223180596
-0.173885816287527	0.334082289939378
-0.173885816287527	0.446221988798174
-0.173885816287527	-1.62872242452594
-0.173885816287527	0.438788091903952
-0.173885816287527	-0.0650036123873203
-0.173885816287527	-0.0238847269804644
-0.173885816287527	1.20927861241175
-0.173885816287527	0.602974605234709
-0.173885816287527	-0.852519774490888
-0.173885816287527	0.191889447749366
-0.173885816287527	-0.57784232782237
-0.173885816287527	-0.334496147351292
-0.173885816287527	-0.943293917751478
-0.173885816287527	-0.262160344352947
-0.173885816287527	-0.136591622172359
-0.173885816287527	-0.169805037651077
-0.173885816287527	0.17576942160318
-0.173885816287527	0.425975363674827
-0.173885816287527	-0.162310252643284
-0.173885816287527	-0.30183863600617
-0.173885816287527	0.66616412523077
-0.173885816287527	-0.719369288926586
-0.173885816287527	0.354314595601013
-0.173885816287527	0.140604039434301
-0.173885816287527	-0.215408887334988
-0.173885816287527	-1.11537280651211
-0.173885816287527	-0.608564825903512
-0.173885816287527	0.0736377437424224
-0.173885816287527	-0.742710600913866
-0.173885816287527	-0.0922028433445365
-0.173885816287527	-0.0558037985328863
-0.173885816287527	-1.04523638241945
-0.173885816287527	-0.781331888255949
-0.173885816287527	0.457287399108761
-0.173885816287527	0.324635183166612
-0.173885816287527	-0.40119198837594
-0.173885816287527	-1.21820045064997
-0.173885816287527	0.987456960567403
-0.173885816287527	-0.839391343648262
-0.173885816287527	-0.121173924151828
-0.173885816287527	0.269431923428892
-0.173885816287527	0.0979771716285349
-0.173885816287527	0.395617755125194
-0.173885816287527	-0.923004064002193
-0.173885816287527	-0.227007868442822
-0.173885816287527	-1.22376836270888
-0.173885816287527	-0.305233580210938
-0.173885816287527	-0.319041355771795
-0.173885816287527	-0.33063363783927
-0.173885816287527	-0.879848981348499
-0.173885816287527	1.54618792526637
-0.173885816287527	0.689642732119173
-0.173885816287527	0.409539402064035
-0.173885816287527	0.395384389321818
-0.173885816287527	1.02177816609518
-0.173885816287527	0.746845533067133
-0.173885816287527	-1.1618675085439
-0.173885816287527	0.622508390216339
-0.173885816287527	-2.25598213946409
-0.173885816287527	0.0697998093129315
-0.173885816287527	-0.362536237754619
-0.173885816287527	0.0111186059238129
-0.173885816287527	0.0142662918179423
-0.173885816287527	0.42465895074845
-0.173885816287527	-0.253440846207022
-0.173885816287527	0.759058479759268
-0.173885816287527	0.374253565204073
-0.173885816287527	-0.0991512776335242
-0.173885816287527	0.319336839742676
-0.173885816287527	-1.13620918804175
-0.173885816287527	-0.676148105111698
-0.173885816287527	0.0597468918458433
-0.173885816287527	0.691408189560412
-0.173885816287527	-0.764058425712387
-0.173885816287527	-0.375098345604461
-0.173885816287527	0.149678625003587
-0.173885816287527	0.435678906862136
-0.173885816287527	-0.702350509653895
-0.173885816287527	0.189984855148179
-0.173885816287527	-0.669004695374671
-0.173885816287527	1.11712104807542
-0.173885816287527	0.960905976793548
-0.173885816287527	0.316058848473048
-0.173885816287527	0.567867426808394
-0.173885816287527	-0.357240217731965
-0.173885816287527	-0.0147403272722824
-0.173885816287527	0.12108694230515
-0.173885816287527	0.682184128385008
-0.173885816287527	-0.192629373095435
-0.173885816287527	0.866922990477188
-0.173885816287527	0.311024118656173
-0.173885816287527	-0.9327345560478
-0.173885816287527	-0.0879091327630811
-0.173885816287527	-0.0273514316466009
-0.173885816287527	0.468882915235938
-0.173885816287527	-0.732445748417375
-0.173885816287527	0.990475665792226
-0.173885816287527	0.925935187448397
-0.173885816287527	-0.27692121203472
-0.173885816287527	0.617131318850807
-0.173885816287527	-0.429104381530027
-0.173885816287527	-0.451997892336839
-0.173885816287527	0.108880259614059
-0.173885816287527	-0.426285693641627
-0.173885816287527	0.918275933601046
-0.173885816287527	-0.245349286957577
-0.173885816287527	1.15742124601807
-0.173885816287527	-0.582465614870854
-0.173885816287527	-1.32658999674107
-0.173885816287527	-0.272267326154323
-0.173885816287527	-0.0718920992893669
-0.173885816287527	0.0602642805295468
-0.173885816287527	1.31950893935332
-0.173885816287527	0.156543869201823
-0.173885816287527	0.637945544467026
-0.173885816287527	-0.707052990989328
-0.173885816287527	-0.0758316566991035
-0.173885816287527	0.339801270603412
-0.173885816287527	-0.251673717753497
-0.173885816287527	-0.918450336112547
-0.173885816287527	-0.410693060658531
-0.173885816287527	0.0717086487317926
-0.173885816287527	-0.800096317890591
-0.173885816287527	0.529188938847169
-0.173885816287527	-1.49247902860519
-0.173885816287527	0.416731463704439
-0.173885816287527	-0.51199246033694
-0.173885816287527	-0.377019636432417
-0.173885816287527	0.206479289414062
-0.173885816287527	-0.710121371818522
-0.173885816287527	-0.139266909400617
-0.173885816287527	0.747489717165696
-0.173885816287527	-0.97472568193287
-0.173885816287527	-0.437062292024072
-0.173885816287527	-2.13559533289202
-0.173885816287527	1.29274568016205
-0.173885816287527	-0.863008924939764
-0.173885816287527	-0.99804741799379
-0.173885816287527	-0.977396021187434
-0.173885816287527	0.192599733269489
-0.173885816287527	-0.699946184646792
-0.173885816287527	0.440954067709341
-0.173885816287527	-0.984815171450472
-0.173885816287527	-1.13832452173102
-0.173885816287527	0.02592496783211
-0.173885816287527	0.323478017054706
-0.173885816287527	-0.0334143071633795
-0.173885816287527	0.858450823510209
-0.173885816287527	-0.567818609998338
-0.173885816287527	-0.928822201346219
-0.173885816287527	-0.913066299997571
-0.173885816287527	-0.183771238260504
-0.173885816287527	-0.533110157981065
-0.173885816287527	-1.37378549825859
-0.173885816287527	-0.460271056271481
-0.173885816287527	0.0568906660161784
-0.173885816287527	-1.19173354822756
-0.173885816287527	0.700836074290686
-0.173885816287527	-0.630396144403726
-0.173885816287527	0.725946367890474
-0.173885816287527	-0.87654098412908
-0.173885816287527	0.511398854521787
-0.173885816287527	-0.493492158794807
-0.173885816287527	-0.964437113619727
-0.173885816287527	-0.0937958546536717
-0.173885816287527	0.565529794124009
-0.173885816287527	0.228563397452459
-0.173885816287527	1.16149985329433
-0.173885816287527	-0.826171327133767
-0.173885816287527	-0.357859468102999
-0.173885816287527	-0.816903131932407
-0.173885816287527	-0.384258231033707
-0.173885816287527	0.385709325963885
-0.173885816287527	0.465520176518844
-0.173885816287527	0.813477387860656
-0.173885816287527	0.37722714557054
-0.173885816287527	0.613742360098801
-0.173885816287527	0.220482844841605
-0.173885816287527	-1.00090580219759
-0.173885816287527	-0.958145235019965
-0.173885816287527	0.116051248893373
-0.173885816287527	0.0819989613937642
-0.173885816287527	-0.295879950521173
-0.173885816287527	-0.794451115370094
-0.173885816287527	0.947419018745808
-0.173885816287527	-0.710185786228049
-0.173885816287527	-1.07719857105216
-0.173885816287527	-0.264741258616007
-0.173885816287527	-0.492989654279249
-0.173885816287527	0.30452881379819
-0.173885816287527	-0.666447345469436
-0.173885816287527	0.332110872906066
-0.173885816287527	0.125617246281589
-0.173885816287527	0.317691881535699
-0.173885816287527	-0.903191730850434
-0.173885816287527	-1.13786718300927
-0.173885816287527	-1.44467317720932
-0.173885816287527	-0.0307782959922633
-0.173885816287527	-1.12582649133445
-0.173885816287527	0.818791459138644
-0.173885816287527	0.533923771705102
-0.173885816287527	0.242789177374479
-0.173885816287527	0.206693903622166
-0.173885816287527	2.10627223122315
-0.173885816287527	-0.0260810400572562
-0.173885816287527	0.322822268340078
-0.173885816287527	0.169218672008145
-0.173885816287527	-0.46720659412471
-0.173885816287527	-0.791964381236109
-0.173885816287527	-0.88336948089519
-0.173885816287527	-0.969572380151287
-0.173885816287527	-0.990529397585852
-0.173885816287527	-0.184805361396003
-0.173885816287527	-1.18147186582922
-0.173885816287527	0.125318862547183
-0.173885816287527	-1.40823798334433
-0.173885816287527	-0.489718942605586
-0.173885816287527	-1.36009649942727
-0.173885816287527	-0.361417825574869
-0.173885816287527	-0.88750023875284
-0.173885816287527	-0.233408673649938
-0.173885816287527	0.779402956866929
-0.173885816287527	-0.10614012281308
-0.173885816287527	0.801864593125842
-0.173885816287527	-0.566992876814344
-0.173885816287527	-0.416950131725302
-0.173885816287527	-1.12827775281713
-0.173885816287527	-0.0335222462320779
-0.173885816287527	1.60295585430239
-0.173885816287527	-0.647625157165974
-0.173885816287527	1.05873809984034
-0.173885816287527	-0.485949425444749
-0.173885816287527	-0.721691685669166
-0.173885816287527	-0.203994443843866
-0.173885816287527	-0.119151855074672
-0.173885816287527	0.361699806356031
-0.173885816287527	0.0415989234995342
-0.173885816287527	0.242435146503319
-0.173885816287527	-0.587615984418935
-0.173885816287527	-0.0600943945725359
-0.173885816287527	0.245290716611152
-0.173885816287527	-1.26406406119655
-0.173885816287527	0.122764859357467
-0.173885816287527	-0.0910426698049238
-0.173885816287527	0.455683025021213
-0.173885816287527	0.744897826846456
-0.173885816287527	-0.013306940713773
-0.173885816287527	-0.480357784206705
-0.173885816287527	-0.922970413165668
-0.173885816287527	-0.302862571417949
-0.173885816287527	0.923243159458196
-0.173885816287527	0.157887989827938
-0.173885816287527	-0.8618837736988
-0.173885816287527	-0.0979094461839137
-0.173885816287527	0.0683871100451732
-0.173885816287527	-0.313150815620382
-0.173885816287527	-2.45724167349633
-0.173885816287527	-0.368403443612734
-0.173885816287527	-0.293138695376987
-0.173885816287527	-0.0374375961923851
-0.173885816287527	1.1042288055868
-0.173885816287527	-0.121193343381938
-0.173885816287527	1.33331854031108
-0.173885816287527	1.01452402651644
-0.173885816287527	-0.152419553246169
-0.173885816287527	0.37550662340396
-0.173885816287527	-0.930182334206829
-0.173885816287527	0.112039324714856
-0.173885816287527	-1.28109739617249
-0.173885816287527	-0.508058104775486
-0.173885816287527	-0.149794484417084
-0.173885816287527	-0.587147566386504
-0.173885816287527	0.602059229442305
-0.173885816287527	-0.681030922327667
-0.173885816287527	-0.434820766066387
-0.173885816287527	1.23250606638998
-0.173885816287527	0.791799283878558
-0.173885816287527	-0.292464808845312
-0.173885816287527	0.318058691203205
-0.173885816287527	0.378924515945165
-0.173885816287527	-0.215498303407005
-0.173885816287527	-0.0588558258492141
-0.173885816287527	1.62285575397514
-0.173885816287527	0.693371479821865
-0.173885816287527	0.0832026316443079
-0.173885816287527	-1.12619870352576
-0.173885816287527	-0.839044617824259
-0.173885816287527	1.41951717754483
-0.173885816287527	-0.279417327903562
-0.173885816287527	0.740827971843307
-0.173885816287527	0.16870389651889
-0.173885816287527	-0.834452417661564
-0.173885816287527	-0.340962018258146
-0.173885816287527	0.89822820066284
-0.173885816287527	-0.490176125107084
-0.173885816287527	-0.389134804038435
-0.173885816287527	-2.50269283979672
-0.173885816287527	-0.477527818596034
-0.173885816287527	-1.10064192667625
-0.173885816287527	-0.0658903052163485
-0.173885816287527	0.160943387089534
-0.173885816287527	-0.0596793451176973
-0.173885816287527	-0.540969291468402
-0.173885816287527	0.157197204645258
-0.173885816287527	-0.646844692377422
-0.173885816287527	1.80138997102441
-0.173885816287527	0.62338079006763
-0.173885816287527	-0.867266599457685
-0.173885816287527	-1.03953216838075
-0.173885816287527	0.904046968185055
-0.173885816287527	0.0989296073552748
-0.173885816287527	-1.08495556270932
-0.173885816287527	-0.372319825375203
-0.173885816287527	-0.143519700557388
-0.173885816287527	0.883652850426328
-0.173885816287527	-0.144382779295393
-0.173885816287527	-0.758194932016258
-0.173885816287527	-0.111331932469115
-0.173885816287527	0.135793303311284
-0.173885816287527	-0.18442485726221
-0.173885816287527	0.847907644471681
-0.173885816287527	0.23415905065554
-0.173885816287527	0.499888092794462
-0.173885816287527	0.944238316755727
-0.173885816287527	-0.352888460266268
-0.173885816287527	0.104997180334313
-0.173885816287527	1.56715637248155
-0.173885816287527	-0.408602410984696
-0.173885816287527	0.397869671751887
-0.173885816287527	-0.035659291281227
-0.173885816287527	0.422183896929257
-0.173885816287527	0.72928101892493
-0.173885816287527	-1.07446320316027
-0.173885816287527	0.976461058883796
-0.173885816287527	-0.136358357318049
-0.173885816287527	0.155097048678603
-0.173885816287527	-0.797450920118622
-0.173885816287527	-0.240515817611139
-0.173885816287527	0.163504076848474
-0.173885816287527	0.478604431555048
-0.173885816287527	-0.32055459234727
-0.173885816287527	-0.324495579325926
-0.173885816287527	-0.747213610298534
-0.173885816287527	-0.477726062683406
-0.173885816287527	-0.127744196750126
-0.173885816287527	-0.0708231746406207
-0.173885816287527	1.21311956567698
-0.173885816287527	1.54995242160774
-0.173885816287527	0.556252035185926
-0.173885816287527	-0.599188346074094
-0.173885816287527	-0.370406173459485
-0.173885816287527	1.25520707827115
-0.173885816287527	-0.579163267844818
-0.173885816287527	-1.25733802603009
-0.173885816287527	-0.246047522478472
-0.173885816287527	-0.697270619350139
-0.173885816287527	-0.150393504891872
-0.173885816287527	0.510468969858514
-0.173885816287527	0.110601604829486
-0.173885816287527	0.0406779643420001
-0.173885816287527	0.801800316227402
-0.173885816287527	-0.0428482748981952
-0.173885816287527	0.6644152294097
-0.173885816287527	0.417743098109762
-0.173885816287527	-0.234346307421603
-0.173885816287527	0.470799534000774
-0.173885816287527	-0.0283805628398841
-0.173885816287527	-1.22407435036917
-0.173885816287527	0.733019495452487
-0.173885816287527	-0.395284796594852
-0.173885816287527	-0.318903373447946
-0.173885816287527	1.0285451078702
-0.173885816287527	-0.370997544047605
-0.173885816287527	0.704355592017671
-0.173885816287527	-0.440677697890124
-0.173885816287527	-0.0835821701020564
-0.173885816287527	-0.688364657939836
-0.173885816287527	-0.727069059155369
-0.173885816287527	0.516516113458774
-0.173885816287527	0.330747811015677
-0.173885816287527	0.0751133987497558
-0.173885816287527	-0.629412308982385
-0.173885816287527	0.236302196392515
-0.173885816287527	-0.549442850862488
-0.173885816287527	0.44824867554967
-0.173885816287527	-0.314390679055395
-0.173885816287527	0.777207097190257
-0.173885816287527	0.148989633731608
-0.173885816287527	-0.596875367556229
-0.173885816287527	-0.202135456311697
-0.173885816287527	-0.284253626479327
-0.173885816287527	-0.465066634985835
-0.173885816287527	0.564824675025843
-0.173885816287527	-1.14823033940476
-0.173885816287527	-0.909892436451218
-0.173885816287527	0.346910040087632
-0.173885816287527	-0.439072356163726
-0.173885816287527	-0.525986365360171
-0.173885816287527	-0.215635803590485
-0.173885816287527	-0.538486861156765
-0.173885816287527	0.311035849783989
-0.173885816287527	1.09256823182767
-0.173885816287527	-0.0010123947294487
-0.173885816287527	-0.260942228954038
-0.173885816287527	-1.2093953894104
-0.173885816287527	1.29419225368463
-0.173885816287527	0.235452923927523
-0.173885816287527	0.0248528474150692
-0.173885816287527	-0.294316771497377
-0.173885816287527	-0.416265426960078
-0.173885816287527	-0.738000638946089
-0.173885816287527	-0.226797210896077
-0.173885816287527	-0.328514798874928
-0.173885816287527	0.636558752514654
-0.173885816287527	-0.642659874859492
-0.173885816287527	1.046728684844
-0.173885816287527	-1.00573195105216
-0.173885816287527	1.21202325273905
-0.173885816287527	-0.0668186218932277
-0.173885816287527	1.76680636106135
-0.173885816287527	0.0410389906918402
-0.173885816287527	0.908945760966238
-0.173885816287527	-1.13877636739366
-0.173885816287527	-0.721263569748829
-0.173885816287527	0.951651048191151
-0.173885816287527	0.294769482586924
-0.173885816287527	-0.0601085203516045
-0.173885816287527	-0.0265770126746587
-0.173885816287527	-0.0421907349241993
-0.173885816287527	-0.0606550188393628
-0.173885816287527	-0.182883767589579
-0.173885816287527	-0.935006220787049
-0.173885816287527	-0.00854819060342082
-0.173885816287527	-0.878654912151938
-0.173885816287527	-0.39577914236599
-0.173885816287527	-0.92654906190545
-0.173885816287527	0.532921230974781
-0.173885816287527	-0.649729955854599
-0.173885816287527	-0.216761133626192
-0.173885816287527	-0.481554392677136
-0.173885816287527	0.512379186752426
-0.173885816287527	0.319218392102515
-0.173885816287527	-0.281327166604802
-0.173885816287527	-0.467207359260273
-0.173885816287527	-0.290112573550086
-0.173885816287527	-0.833482721724917
-0.173885816287527	-0.676169001678057
-0.173885816287527	0.337316649014254
-0.173885816287527	0.365235720010046
-0.173885816287527	0.465118303780474
-0.173885816287527	0.0199714389740646
-0.173885816287527	0.0276335355368467
-0.173885816287527	-0.251331132653067
-0.173885816287527	-0.21119728053999
-0.173885816287527	-0.0117782621619058
-0.173885816287527	-0.239787299044836
-0.173885816287527	-0.392353519431146
-0.173885816287527	-0.313873303075383
-0.173885816287527	-0.445052101594868
-0.173885816287527	-0.109756145437104
-0.173885816287527	0.143713665805663
-0.173885816287527	-0.478930489106911
-0.173885816287527	-0.594366853085057
-0.173885816287527	0.60575116094493
-0.173885816287527	-0.232483110560188
-0.173885816287527	0.5667450923227
-0.173885816287527	0.117753045790121
-0.173885816287527	0.706584429778877
-0.173885816287527	-0.626958085843385
-0.173885816287527	-1.25823962180202
-0.173885816287527	-0.714791736795279
-0.173885816287527	-0.11843899940813
-0.173885816287527	-0.828512515302349
-0.173885816287527	0.0875308769174376
-0.173885816287527	0.291521525780345
-0.173885816287527	-0.705793927698145
-0.173885816287527	1.07694174638182
-0.173885816287527	0.378540540189406
-0.173885816287527	0.267132984705676
-0.173885816287527	-0.619136557642103
-0.173885816287527	-0.22989618838867
-0.173885816287527	0.603012447237014
-0.173885816287527	0.00345121651244917
-0.173885816287527	0.503173013575496
-0.173885816287527	-0.785013847890378
-0.173885816287527	0.693191085766652
-0.173885816287527	-1.13890139912518
-0.173885816287527	0.64640593908672
-0.173885816287527	-0.148659480211222
-0.173885816287527	0.0447383045387881
-0.173885816287527	-0.665458862161072
-0.173885816287527	0.236550074098264
-0.173885816287527	-1.23306400501505
-0.173885816287527	-0.500738173821318
-0.173885816287527	-1.07079914187791
-0.173885816287527	0.367558797108966
-0.173885816287527	0.972778683203143
-0.173885816287527	-0.209515991782788
-0.173885816287527	-1.30632868943331
-0.173885816287527	0.505329090320992
-0.173885816287527	-0.462460244026087
-0.173885816287527	-0.714203075076382
-0.173885816287527	0.338938879596027
-0.173885816287527	-0.121225077230834
-0.173885816287527	-1.13905192686482
-0.173885816287527	0.725604242132343
-0.173885816287527	1.04149803818816
-0.173885816287527	-0.294120240812737
-0.173885816287527	0.385329527924986
-0.173885816287527	-0.154620103597812
-0.173885816287527	-0.688235574380302
-0.173885816287527	0.170615798467575
-0.173885816287527	-0.935048414649937
-0.173885816287527	0.478691264993721
-0.173885816287527	0.305982277211558
-0.173885816287527	0.50372039810721
-0.173885816287527	1.23501906194842
-0.173885816287527	-2.04081606699484
-0.173885816287527	0.574164092755003
-0.173885816287527	0.231863357851431
-0.173885816287527	0.338574768640387
-0.173885816287527	-0.914045809507644
-0.173885816287527	-0.355448411013977
-0.173885816287527	0.742629696957461
-0.173885816287527	0.417843015727935
-0.173885816287527	-0.775320788482569
-0.173885816287527	0.325400614521503
-0.173885816287527	0.255262542421749
-0.173885816287527	-0.973965770270896
-0.173885816287527	-0.09980024876889
-0.173885816287527	0.284597732500362
-0.173885816287527	-0.298616499224118
-0.173885816287527	-0.304200974909066
-0.173885816287527	-0.428108593437469
-0.173885816287527	-1.03908858548899
-0.173885816287527	0.837809018668261
-0.173885816287527	-1.23295115321084
-0.173885816287527	0.476046744753249
-0.173885816287527	0.574115634647945
-0.173885816287527	-0.563878425040898
-0.173885816287527	-1.6651357145138
-0.173885816287527	-0.0115060336822825
-0.173885816287527	0.477913682313668
-0.173885816287527	-0.176456381431312
-0.173885816287527	0.650361728037761
-0.173885816287527	-0.562648606135122
-0.173885816287527	0.878478460965163
-0.173885816287527	-0.819503232008566
-0.173885816287527	0.0063645843205351
-0.173885816287527	0.211063559043005
-0.173885816287527	0.0711564581843186
-0.173885816287527	0.439890134348144
-0.173885816287527	-0.14526181946385
-0.173885816287527	0.514440838144734
-0.173885816287527	1.09456039220291
-0.173885816287527	-1.11941091083024
-0.173885816287527	-0.663694612081648
-0.173885816287527	0.218121976642917
-0.173885816287527	1.37654882657578
-0.173885816287527	-0.3198192473873
-0.173885816287527	-0.905984338160594
-0.173885816287527	0.83396548576076
-0.173885816287527	0.63908855934466
-0.173885816287527	-0.615538107030233
-0.173885816287527	0.166045806208887
-0.173885816287527	0.0765610065056501
-0.173885816287527	0.697973612112693
-0.173885816287527	0.2543255575459
-0.173885816287527	-0.605891681061102
-0.173885816287527	0.0574094134316937
-0.173885816287527	-0.586094804750807
-0.173885816287527	-0.630010502983825
-0.173885816287527	-0.191771623584315
-0.173885816287527	-0.51921821611981
-0.173885816287527	0.65251328693464
-0.173885816287527	0.101649782265133
-0.173885816287527	-0.205041424110039
-0.173885816287527	0.28546419257755
-0.173885816287527	0.364237194926289
-0.173885816287527	-0.729259950022957
-0.173885816287527	-1.10967609647618
-0.173885816287527	0.479135437577841
-0.173885816287527	-0.872491252650163
-0.173885816287527	0.291246040519125
-0.173885816287527	-0.716483275389552
-0.173885816287527	-0.56887745237116
-0.173885816287527	0.0673677905989971
-0.173885816287527	-0.227292235667225
-0.173885816287527	1.209695826587
-0.173885816287527	0.492470414246718
-0.173885816287527	-0.726690024005768
-0.173885816287527	-1.76296244650513
-0.173885816287527	0.69018637296569
-0.173885816287527	0.441970320691527
-0.173885816287527	-0.0517587706911079
-0.173885816287527	-0.6583748003918
-0.173885816287527	-0.58628952439968
-0.173885816287527	-0.0968800360758524
-0.173885816287527	0.10002594014396
-0.173885816287527	-0.287222150489309
-0.173885816287527	0.0208009968732581
-0.173885816287527	-1.19407818810324
-0.173885816287527	0.387897389917011
-0.173885816287527	0.361692934626881
-0.173885816287527	-0.0897989536184379
-0.173885816287527	-0.984032225882643
-0.173885816287527	-0.97777936627696
-0.173885816287527	1.38238107599785
-0.173885816287527	0.0721517559814091
-0.173885816287527	1.65177740078207
-0.173885816287527	-0.568883744282767
-0.173885816287527	-0.227996400860881
-0.173885816287527	-0.652121336465623
-0.173885816287527	-0.0834420783499395
-0.173885816287527	-1.04893633568383
-0.173885816287527	0.0566658505224568
-0.173885816287527	-0.288856107593798
-0.173885816287527	0.814684780268341
-0.173885816287527	0.674945559319098
-0.173885816287527	0.101990287077653
-0.173885816287527	-0.103260378019221
-0.173885816287527	1.39422652020651
-0.173885816287527	-0.393790745615501
-0.173885816287527	-0.660037789647401
-0.173885816287527	-0.665610565694307
-0.173885816287527	0.373688401427229
-0.173885816287527	0.321180715270559
-0.173885816287527	-0.826527420912177
-0.173885816287527	1.94462389151833
-0.173885816287527	0.773998160144412
-0.173885816287527	0.0211215850702791
-0.173885816287527	-0.871214871835583
-0.173885816287527	-0.689355269167938
-0.173885816287527	-0.889917850493006
-0.173885816287527	-0.108087987965036
-0.173885816287527	-0.520952938933041
-0.173885816287527	-0.186834225964375
-0.173885816287527	-0.87577590264352
-0.173885816287527	-2.16357153831437
-0.173885816287527	-1.02202831254411
-0.173885816287527	1.18146001124887
-0.173885816287527	-0.207163723217029
-0.173885816287527	0.287603534574736
-0.173885816287527	0.0932918117293511
-0.173885816287527	0.509570000821367
-0.173885816287527	0.77859520959098
-0.173885816287527	-0.419441853410946
-0.173885816287527	0.835941279753623
-0.173885816287527	-0.519124748741536
-0.173885816287527	-0.47260979194737
-0.173885816287527	-0.161248170892077
-0.173885816287527	0.206572351187306
-0.173885816287527	-0.0690554209787471
-0.173885816287527	0.0866801247947742
-0.173885816287527	-0.577749407963743
-0.173885816287527	-0.364300133782008
-0.173885816287527	0.540701638010266
-0.173885816287527	-0.00365695983134706
-0.173885816287527	1.08634977887867
-0.173885816287527	-0.695712435739429
-0.173885816287527	1.14523942443029
-0.173885816287527	0.405206973898732
-0.173885816287527	0.713046063485286
-0.173885816287527	-0.684084327873026
-0.173885816287527	-0.0886307753282652
-0.173885816287527	0.226384486775317
-0.173885816287527	0.250613017568366
-0.173885816287527	0.456657993337171
-0.173885816287527	-1.00954381181944
-0.173885816287527	0.18561898393526
-0.173885816287527	0.208262808534188
-0.173885816287527	-0.549970934085323
-0.173885816287527	0.864974827903113
-0.173885816287527	-0.337966780306845
-0.173885816287527	-0.112877600255005
-0.173885816287527	-0.209525120802301
-0.173885816287527	-0.393316218232403
-0.173885816287527	0.452996246585648
-0.173885816287527	0.21327090517341
-0.173885816287527	-0.802977409906688
-0.173885816287527	0.725637182343013
-0.173885816287527	0.824873882676087
-0.173885816287527	1.28969748907486
-0.173885816287527	0.548123462875616
-0.173885816287527	-0.899723539595509
-0.173885816287527	-0.493080629763276
-0.173885816287527	-1.12817698414151
-0.173885816287527	0.934090531916907
-0.173885816287527	1.46365676454847
-0.173885816287527	-0.0218940702131916
-0.173885816287527	-0.133889670506502
-0.173885816287527	0.792896052998704
-0.173885816287527	0.505265851322884
-0.173885816287527	-0.285992997894622
-0.173885816287527	-0.524985755678488
-0.173885816287527	-1.42549174085392
-0.173885816287527	-0.902889552981175
-0.173885816287527	-1.32817002075357
-0.173885816287527	-0.855565045926576
-0.173885816287527	-0.290485309096197
-0.173885816287527	-0.563375274404691
-0.173885816287527	0.37143248654993
-0.173885816287527	-0.52700165278337
-0.173885816287527	-0.411679221831593
-0.173885816287527	-0.740630621780881
-0.173885816287527	-0.298740701428629
-0.173885816287527	0.704885883335838
-0.173885816287527	-0.0137243691612482
-0.173885816287527	-1.00992200935711
-0.173885816287527	-0.17226256497315
-0.173885816287527	-0.16530020548818
-0.173885816287527	-1.12993503464011
-0.173885816287527	-0.0289533416968709
-0.173885816287527	-0.0877593380441758
-0.173885816287527	-1.52055434787032
-0.173885816287527	0.624200078621711
-0.173885816287527	-0.304271366260404
-0.173885816287527	0.546903652465976
-0.173885816287527	-0.485641941020653
-0.173885816287527	-1.08186530651853
-0.173885816287527	0.325071956574799
-0.173885816287527	-0.337874446155803
-0.173885816287527	0.344831053696357
-0.173885816287527	-0.0042916658932588
-0.173885816287527	-0.891551443116102
-0.173885816287527	-0.363808354667039
-0.173885816287527	1.45894781924307
-0.173885816287527	-1.72038414122497
-0.173885816287527	-0.189338691746049
-0.173885816287527	0.437546769745882
-0.173885816287527	-0.44546304802037
-0.173885816287527	-0.619116205069822
-0.173885816287527	0.759532062047017
-0.173885816287527	-0.91038586271256
-0.173885816287527	0.577733249134514
-0.173885816287527	-0.927835679546946
-0.173885816287527	0.459701500684893
-0.173885816287527	-0.538331142541744
-0.173885816287527	-0.692091304106326
-0.173885816287527	-0.770586724098821
-0.173885816287527	0.395420614226313
-0.173885816287527	-1.49824882480187
-0.173885816287527	0.0452931594449797
-0.173885816287527	0.198574931830609
-0.173885816287527	0.128905388102046
-0.173885816287527	-0.263741142041567
-0.173885816287527	0.38358760897574
-0.173885816287527	-0.507833743159237
-0.173885816287527	0.752525820204577
-0.173885816287527	-0.488455870046904
-0.173885816287527	-1.3010445581338
-0.173885816287527	0.369772166563601
-0.173885816287527	-1.11635997511342
-0.173885816287527	-0.716212430935452
-0.173885816287527	-1.02275744741047
-0.173885816287527	-0.23566359356783
-0.173885816287527	0.715817612851767
-0.173885816287527	-0.984134052799578
-0.173885816287527	0.638083983432152
-0.173885816287527	0.200302679558318
-0.173885816287527	-0.264951285856143
-0.173885816287527	0.520763589757616
-0.173885816287527	1.81639342034884
-0.173885816287527	0.201905204913251
-0.173885816287527	0.312095349257243
-0.173885816287527	0.0974646470131734
-0.173885816287527	0.305387290892
-0.173885816287527	0.846857670628614
-0.173885816287527	-1.58707091963071
-0.173885816287527	-0.316592883988365
-0.173885816287527	-0.468767536716107
-0.173885816287527	0.754503390547425
-0.173885816287527	0.245838402321972
-0.173885816287527	-0.346628553086637
-0.173885816287527	1.5529042725046
-0.173885816287527	-0.382057274263892
-0.173885816287527	-0.870752072159395
-0.173885816287527	0.116160525793357
-0.173885816287527	-0.216328115710292
-0.173885816287527	-0.638794468269886
-0.173885816287527	-1.20546107015608
-0.173885816287527	0.751319672045171
-0.173885816287527	-0.460537545435366
-0.173885816287527	0.345724193406659
-0.173885816287527	-0.898976411516241
-0.173885816287527	0.964233633802026
-0.173885816287527	-0.238131019039038
-0.173885816287527	0.143059766673719
-0.173885816287527	0.56616066820304
-0.173885816287527	-0.272483194321576
-0.173885816287527	1.09207837355918
-0.173885816287527	-0.119827860739289
-0.173885816287527	0.818999788544791
-0.173885816287527	-0.397610445718387
-0.173885816287527	0.157332710754101
-0.173885816287527	0.135545016605012
-0.173885816287527	-0.143326402783088
-0.173885816287527	0.715603319507905
-0.173885816287527	0.485952865765544
-0.173885816287527	-0.00201981645767024
-0.173885816287527	-0.854238803903043
-0.173885816287527	-0.233231599088863
-0.173885816287527	0.078871388469875
-0.173885816287527	-1.42456194557593
-0.173885816287527	0.682373311650755
-0.173885816287527	1.33336267086034
-0.173885816287527	-1.82134133589781
-0.173885816287527	0.118451932635531
-0.173885816287527	1.00665089944307
-0.173885816287527	0.402084346665598
-0.173885816287527	-0.97712308564833
-0.173885816287527	1.13008810873036
-0.173885816287527	-0.616955610157837
-0.173885816287527	-0.139622217899118
-0.173885816287527	0.47479778466321
-0.173885816287527	0.27089499267662
-0.173885816287527	-0.76071837660716
-0.173885816287527	-0.458804715257662
-0.173885816287527	-0.670286880236011
-0.173885816287527	-0.0528770255384983
-0.173885816287527	-1.58368389832025
-0.173885816287527	-1.3461972108072
-0.173885816287527	-0.123238187524502
-0.173885816287527	-0.415637259816114
-0.173885816287527	-1.1267633692878
-0.173885816287527	-0.153270885598443
-0.173885816287527	1.01031297139165
-0.173885816287527	-0.298550143493723
-0.173885816287527	0.0455836160387464
-0.173885816287527	-0.13840937798103
-0.173885816287527	0.514517945748018
-0.173885816287527	0.449296295650066
-0.173885816287527	1.48031700442226
-0.173885816287527	-1.66436413301319
-0.173885816287527	-0.277432592717661
-0.173885816287527	0.168121360313694
-0.173885816287527	0.22742100145807
-0.173885816287527	0.257435626309133
-0.173885816287527	0.54765984966858
-0.173885816287527	-1.29461328780356
-0.173885816287527	-0.820008533393954
-0.173885816287527	-0.28144250867822
-0.173885816287527	-0.487191377194465
-0.173885816287527	-0.80135996442459
-0.173885816287527	-0.305864857607981
-0.173885816287527	-0.168509834694863
-0.173885816287527	0.872011090829047
-0.173885816287527	-0.353740588799802
-0.173885816287527	-0.168036000451766
-0.173885816287527	-0.522618984061994
-0.173885816287527	0.290796444817058
-0.173885816287527	0.147808018044313
-0.173885816287527	-1.15857183705895
-0.173885816287527	-0.618454006976827
-0.173885816287527	-0.816299288443251
-0.173885816287527	-0.323577338596424
-0.173885816287527	0.18200996272185
-0.173885816287527	-0.535999212133318
-0.173885816287527	0.4515410522151
-0.173885816287527	0.280533016059126
-0.173885816287527	0.75540246079506
-0.173885816287527	-0.276366143976515
-0.173885816287527	0.656555560533587
-0.173885816287527	-0.881831537540928
-0.173885816287527	0.176588051365477
-0.173885816287527	-0.0891849240753364
-0.173885816287527	0.972146130539504
-0.173885816287527	0.829621761272217
-0.173885816287527	-0.431348858371621
-0.173885816287527	0.703322189949628
-0.173885816287527	1.21893113958203
-0.173885816287527	0.410572484367967
-0.173885816287527	1.15617279959971
-0.173885816287527	-0.376407596136091
-0.173885816287527	-0.324050339027094
-0.173885816287527	0.252328487870189
-0.173885816287527	0.177517398535139
-0.173885816287527	0.496688957056489
-0.173885816287527	-0.432735802229188
-0.173885816287527	-0.326828345122174
-0.173885816287527	0.0167435770742894
-0.173885816287527	-1.48334006473882
-0.173885816287527	0.51505163857877
-0.173885816287527	0.833744144412101
-0.173885816287527	-0.536556512514784
-0.173885816287527	-0.4230342371769
-0.173885816287527	0.141303687114718
-0.173885816287527	-0.338840239042199
-0.173885816287527	-0.612918083437676
-0.173885816287527	-1.02225199123931
-0.173885816287527	-0.962698808685595
-0.173885816287527	-0.014568442741934
-0.173885816287527	-0.724076062748551
-0.173885816287527	0.162574652971976
-0.173885816287527	0.510770514248382
-0.173885816287527	0.581419787913012
-0.173885816287527	-0.155800412640324
-0.173885816287527	-0.769187986080631
-0.173885816287527	-0.479068437764239
-0.173885816287527	0.459322904751708
-0.173885816287527	0.65940349993896
-0.173885816287527	0.133522163748333
-0.173885816287527	-1.10649802387114
-0.173885816287527	0.738238710427229
-0.173885816287527	0.37198487450298
-0.173885816287527	-1.25782230090867
-0.173885816287527	0.28569240962359
-0.173885816287527	-0.0546553494120123
-0.173885816287527	-1.02165831467206
-0.173885816287527	-0.379246546838541
-0.173885816287527	0.0239821936455271
-0.173885816287527	-0.0973143076257452
-0.173885816287527	0.16221741969887
-0.173885816287527	0.688422613607974
-0.173885816287527	0.261701085715918
-0.173885816287527	-0.522985145584233
-0.173885816287527	-0.426511540949603
-0.173885816287527	-0.829128534381171
-0.173885816287527	0.164429438100911
-0.173885816287527	-0.464588639452169
-0.173885816287527	0.406953468644802
-0.173885816287527	-0.984918179862825
-0.173885816287527	0.208560720044562
-0.173885816287527	-0.605096860822094
-0.173885816287527	-0.703398111526044
-0.173885816287527	1.18372576951711
-0.173885816287527	1.56362984124312
-0.173885816287527	1.44826455639843
-0.173885816287527	0.681241747466725
-0.173885816287527	-0.505591510406073
-0.173885816287527	0.0515374390863812
-0.173885816287527	0.667662233420245
-0.173885816287527	1.26463095231984
-0.173885816287527	0.485224313229435
-0.173885816287527	-0.483871229010453
-0.173885816287527	-0.334783454185044
-0.173885816287527	0.638406030567126
-0.173885816287527	-1.2650222152462
-0.173885816287527	-0.0220326289915559
-0.173885816287527	1.04410413468402
-0.173885816287527	0.423814818125738
-0.173885816287527	-0.25020857863872
-0.173885816287527	-0.475622890458077
-0.173885816287527	0.748042326421767
-0.173885816287527	1.81166660349435
-0.173885816287527	-0.590760972881369
-0.173885816287527	-1.1586117291725
-0.173885816287527	-0.826311135562012
-0.173885816287527	0.102226465309304
-0.173885816287527	0.960267542611068
-0.173885816287527	-1.12206255387679
-0.173885816287527	0.120787448097116
-0.173885816287527	0.310820781851059
-0.173885816287527	-0.387844934212147
-0.173885816287527	-1.55314735838206
-0.173885816287527	-0.756538651193724
-0.173885816287527	0.145957502478664
-0.173885816287527	0.757992702174753
-0.173885816287527	-1.90582430050738
-0.173885816287527	-0.326518615849935
-0.173885816287527	-1.06685918961504
-0.173885816287527	-0.416998499172691
-0.173885816287527	0.119789176536251
-0.173885816287527	0.507017572602818
-0.173885816287527	-0.0569636616691122
-0.173885816287527	-0.961992947160312
-0.173885816287527	2.23347599936629
-0.173885816287527	-0.425582282507005
-0.173885816287527	0.993109527761216
-0.173885816287527	-0.281866260119584
-0.173885816287527	-0.761741531828055
-0.173885816287527	-0.157470760831226
-0.173885816287527	-1.05732204303427
-0.173885816287527	-0.518475158267985
-0.173885816287527	0.391175247730159
-0.173885816287527	-0.0578080722143426
-0.173885816287527	-0.494612758939736
-0.173885816287527	1.16510419345835
-0.173885816287527	-0.313545033640064
-0.173885816287527	0.624033606277186
-0.173885816287527	1.46418932032254
-0.173885816287527	-0.520392001524418
-0.173885816287527	-0.218884075077114
-0.173885816287527	0.365957208340477
-0.173885816287527	0.492523203149421
-0.173885816287527	0.108642696435165
-0.173885816287527	-0.851848651296285
-0.173885816287527	0.475500292040384
-0.173885816287527	-0.087162965789999
-0.173885816287527	0.0987490751443231
-0.173885816287527	-1.26199382724474
-0.173885816287527	-0.78101993192027
-0.173885816287527	0.00451081319802804
-0.173885816287527	-0.955662510221133
-0.173885816287527	-0.207056492159448
-0.173885816287527	0.65715246189723
-0.173885816287527	0.651808443463894
-0.173885816287527	0.412050578838565
-0.173885816287527	1.04668777955133
-0.173885816287527	-0.340177100051695
-0.173885816287527	-0.883561062216752
-0.173885816287527	0.994090828434918
-0.173885816287527	-0.725845970066448
-0.173885816287527	-1.03064509475521
-0.173885816287527	-0.452051992259116
-0.173885816287527	0.701182752156689
-0.173885816287527	-0.11540456656195
-0.173885816287527	0.400806028231367
-0.173885816287527	1.10421988416693
-0.173885816287527	-0.99817014580119
-0.173885816287527	0.720286045735846
-0.173885816287527	-1.8953773181474
-0.173885816287527	0.789250546464454
-0.173885816287527	-0.112334182791952
-0.173885816287527	-0.420061470018951
-0.173885816287527	-0.177659505249429
-0.173885816287527	1.67870827014626
-0.173885816287527	-0.79668697152695
-0.173885816287527	0.362445782822198
-0.173885816287527	0.641664810810403
-0.173885816287527	1.13841968881944
-0.173885816287527	0.343012436570107
-0.173885816287527	0.0667364669265267
-0.173885816287527	-0.00250091136880727
-0.173885816287527	0.494013371956361
-0.173885816287527	2.12163571828641
-0.173885816287527	-0.865597944993095
-0.173885816287527	-0.473009349828801
-0.173885816287527	0.0374259267843142
-0.173885816287527	-0.475840788896485
-0.173885816287527	1.60512026149904
-0.173885816287527	-0.00393251957671614
-0.173885816287527	0.153920409138739
-0.173885816287527	0.902261105045104
-0.173885816287527	-0.228928343272571
-0.173885816287527	-1.32059418150264
-0.173885816287527	-1.2537921709684
-0.173885816287527	-0.645170314103402
-0.173885816287527	-0.720920073982861
-0.173885816287527	0.346928966735914
-0.173885816287527	-0.0196392598340684
-0.173885816287527	-0.923140754842091
-0.173885816287527	0.108741533453675
-0.173885816287527	0.0708968939471428
-0.173885816287527	-0.246348439514022
-0.173885816287527	0.754229777430884
-0.173885816287527	-0.34701223158401
-0.173885816287527	-0.663341835941648
-0.173885816287527	0.417655106708519
-0.173885816287527	0.0515222437131104
-0.173885816287527	0.186328378280937
-0.173885816287527	-0.312543591407977
-0.173885816287527	-0.756484747257335
-0.173885816287527	-0.0672830774022072
-0.173885816287527	0.187673746032292
-0.173885816287527	0.251638221027049
-0.173885816287527	-0.0123989113357716
-0.173885816287527	-0.908436801465021
-0.173885816287527	-0.911942314795736
-0.173885816287527	-0.449021294025362
-0.173885816287527	0.12176977217013
-0.173885816287527	-0.857213405103886
-0.173885816287527	-0.243572564013646
-0.173885816287527	-0.343470493822546
-0.173885816287527	-0.518219909352078
-0.173885816287527	-0.628835579923897
-0.173885816287527	-0.626551789960541
-0.173885816287527	-1.14575855461876
-0.173885816287527	-0.137573712736017
-0.173885816287527	-0.345222820132037
-0.173885816287527	-0.07437099027654
-0.173885816287527	0.361257433883465
-0.173885816287527	0.566912017741707
-0.173885816287527	0.000928813133507678
-0.173885816287527	0.603104035389691
-0.173885816287527	-2.0137677235222
-0.173885816287527	0.466184331941408
-0.173885816287527	-0.025798186050229
-0.173885816287527	0.804787936381961
-0.173885816287527	-0.528239966400101
-0.173885816287527	-0.849954007217829
-0.173885816287527	0.214603165641482
-0.173885816287527	0.855622467260238
-0.173885816287527	-0.306823564997666
-0.173885816287527	-0.946915101669638
-0.173885816287527	-0.889186033165036
-0.173885816287527	-0.290665402488381
-0.173885816287527	1.05844056075123
-0.173885816287527	0.0686280738024272
-0.173885816287527	-0.596931155864495
-0.173885816287527	1.03544717864008
-0.173885816287527	-0.469079663775664
-0.173885816287527	-1.62725437404854
-0.173885816287527	-1.32549226601849
-0.173885816287527	1.14465155602501
-0.173885816287527	0.132338713412661
-0.173885816287527	-1.20622023156284
-0.173885816287527	0.0800629213741277
-0.173885816287527	-0.336431785586177
-0.173885816287527	-0.396386634942414
-0.173885816287527	-0.517402963979734
-0.173885816287527	-1.74568403087128
-0.173885816287527	0.500517799652007
-0.173885816287527	-0.220805897384037
-0.173885816287527	-0.514750642880137
-0.173885816287527	0.0781670620931814
-0.173885816287527	1.66848252343289
-0.173885816287527	-1.72889408109928
-0.173885816287527	-1.04518060446196
-0.173885816287527	-1.53563718524209
-0.173885816287527	0.232749995736329
-0.173885816287527	-0.65986119021671
-0.173885816287527	0.406762067778086
-0.173885816287527	0.929554789230401
-0.173885816287527	0.0183613681979342
-0.173885816287527	0.656491644425878
-0.173885816287527	0.649613657910848
-0.173885816287527	0.402375194745788
-0.173885816287527	-0.25040675002888
-0.173885816287527	-1.09889121599635
-0.173885816287527	0.654784719919143
-0.173885816287527	-0.256290573455163
-0.173885816287527	-0.0991651209034917
-0.173885816287527	-0.140217077720321
-0.173885816287527	-0.516328610535889
-0.173885816287527	-1.12486229338536
-0.173885816287527	0.0387600432583954
-0.173885816287527	-0.163039518003712
-0.173885816287527	1.06322809448525
-0.173885816287527	-0.345448514740438
-0.173885816287527	1.03879203997273
-0.173885816287527	-0.437197392581352
-0.173885816287527	1.06503662486742
-0.173885816287527	0.810084509325529
-0.173885816287527	0.194840021035379
-0.173885816287527	0.852869161840127
-0.173885816287527	-0.000375420367387136
-0.173885816287527	0.390515721171702
-0.173885816287527	0.0924916553188364
-0.173885816287527	0.362572584455299
-0.173885816287527	0.800817963527667
-0.173885816287527	0.043024395831849
-0.173885816287527	0.26860672748545
-0.173885816287527	0.377461247909486
-0.173885816287527	0.594603344885674
-0.173885816287527	-0.297423876306539
-0.173885816287527	1.22393741410002
-0.173885816287527	-0.567046706297767
-0.173885816287527	-0.0297362154870716
-0.173885816287527	-0.161790638758869
-0.173885816287527	-0.177405360117282
-0.173885816287527	-1.70557513057288
-0.173885816287527	1.32889472803411
-0.173885816287527	0.68287132047612
-0.173885816287527	-0.826390183902994
-0.173885816287527	-0.949419915518539
-0.173885816287527	-0.195078023570083
-0.173885816287527	-0.070480883907416
-0.173885816287527	0.484291182937935
-0.173885816287527	0.0272997451021211
-0.173885816287527	0.558669914973693
-0.173885816287527	-1.13117292834
-0.173885816287527	0.0511147628340526
-0.173885816287527	-0.0201341351814022
-0.173885816287527	-0.111218787440631
-0.173885816287527	0.873937238502158
-0.173885816287527	-0.841942453374391
-0.173885816287527	0.415208913716758
-0.173885816287527	1.4336837703701
-0.173885816287527	0.60486496559893
-0.173885816287527	-0.215349405075
-0.173885816287527	-0.23476611895213
-0.173885816287527	-0.496865193726733
-0.173885816287527	0.634214325901473
-0.173885816287527	0.144001071814523
-0.173885816287527	0.164168870743588
-0.173885816287527	-0.681409011773643
-0.173885816287527	-1.86465465287239
-0.173885816287527	-0.898791409005369
-0.173885816287527	1.31703369420815
-0.173885816287527	0.11834337746642
-0.173885816287527	-0.42413383231846
-0.173885816287527	0.960279899032224
-0.173885816287527	0.682610709986786
-0.173885816287527	-0.0728399840730753
-0.173885816287527	-0.823569082525567
-0.173885816287527	0.856692746203796
-0.173885816287527	-0.749254899535235
-0.173885816287527	1.06100450964543
-0.173885816287527	-1.22826768515977
-0.173885816287527	0.00456709700261837
-0.173885816287527	-0.688001662344756
-0.173885816287527	-0.00667124932251961
-0.173885816287527	-0.613501843902929
-0.173885816287527	0.236307532078579
-0.173885816287527	-0.658317057944346
-0.173885816287527	0.398819951351037
-0.173885816287527	-0.976005818787367
-0.173885816287527	-0.695481974772147
-0.173885816287527	-0.244690724747828
-0.173885816287527	-1.00271950986307
-0.173885816287527	0.167702111883652
-0.173885816287527	-0.96812839839565
-0.173885816287527	-0.0930860059895025
-0.173885816287527	-0.532951053201783
-0.173885816287527	-0.453111900639291
-0.173885816287527	-0.791807428899722
-0.173885816287527	1.01307880302922
-0.173885816287527	-0.626034189216682
-0.173885816287527	-0.53319034951173
-0.173885816287527	0.0392423458474818
-0.173885816287527	0.92196551548746
-0.173885816287527	-1.00838963849004
-0.173885816287527	-0.0486372349656086
-0.173885816287527	0.499895061296425
-0.173885816287527	-0.973396942098849
-0.173885816287527	-0.131724879566788
-0.173885816287527	-0.427184975606242
-0.173885816287527	-0.220765904000462
-0.173885816287527	-0.586379371563953
-0.173885816287527	1.01349347252798
-0.173885816287527	0.533885577630841
-0.173885816287527	1.2815743380418
-0.173885816287527	0.187795020079059
-0.173885816287527	-0.504910302215118
-0.173885816287527	0.544210109358209
-0.173885816287527	-0.373977914766779
-0.173885816287527	0.187004770419627
-0.173885816287527	0.955389482943026
-0.173885816287527	0.229952314492562
-0.173885816287527	-0.363147065941331
-0.173885816287527	-1.13491504874569
-0.173885816287527	-0.0670859569987143
-0.173885816287527	0.486297179712866
-0.173885816287527	0.135091728435742
-0.173885816287527	-0.971177776171556
-0.173885816287527	0.176666163237179
-0.173885816287527	0.760061962783521
-0.173885816287527	-0.263613102534485
-0.173885816287527	-0.397616595007959
-0.173885816287527	-0.841661531382569
-0.173885816287527	-0.714467387167458
-0.173885816287527	-0.342126871068087
-0.173885816287527	1.09592097524081
-0.173885816287527	-0.68242048284585
-0.173885816287527	-0.676940515293503
-0.173885816287527	-0.0161882126702232
-0.173885816287527	0.16293106143705
-0.173885816287527	0.214041983080068
-0.173885816287527	-0.980814531291427
-0.173885816287527	-0.733416170353513
-0.173885816287527	-0.627289626662223
-0.173885816287527	-0.453005895294696
-0.173885816287527	0.146066863916569
-0.173885816287527	0.143869977165595
-0.173885816287527	-0.65541980155626
-0.173885816287527	0.113926098207149
-0.173885816287527	-0.55343466577915
-0.173885816287527	0.900893326998026
-0.173885816287527	1.56297119933879
-0.173885816287527	-0.511649349194685
-0.173885816287527	0.798652198053294
-0.173885816287527	-0.0299268664213276
-0.173885816287527	0.263182327619834
-0.173885816287527	-0.688328294898998
-0.173885816287527	1.19392551457593
-0.173885816287527	0.870234440899888
-0.173885816287527	1.04798798085801
-0.173885816287527	0.203269731385832
-0.173885816287527	0.44305118489172
-0.173885816287527	1.82560432509837
-0.173885816287527	0.150106260665858
-0.173885816287527	-0.941328188926377
-0.173885816287527	-0.219176685286784
-0.173885816287527	-0.728523282065474
-0.173885816287527	-0.0978933914942408
-0.173885816287527	-1.293321180135
-0.173885816287527	-1.15898864043636
-0.173885816287527	0.30467999526805
-0.173885816287527	-0.914586799549114
-0.173885816287527	0.435709636385659
-0.173885816287527	0.708537605224719
-0.173885816287527	-0.479024341086631
-0.173885816287527	0.0939882916119912
-0.173885816287527	-0.225947174137105
-0.173885816287527	-0.642614752823617
-0.173885816287527	-0.163218381378081
-0.173885816287527	-0.229354300938666
-0.173885816287527	1.24908801182361
-0.173885816287527	0.682481907180507
-0.173885816287527	-1.47019404941523
-0.173885816287527	0.333318038644894
-0.173885816287527	0.345753770186167
-0.173885816287527	-0.268291016264142
-0.173885816287527	0.016069730095991
-0.173885816287527	-0.932161930284681
-0.173885816287527	-0.402083029294722
-0.173885816287527	0.800954713162821
-0.173885816287527	0.454982369226219
-0.173885816287527	2.19121595104098
-0.173885816287527	-0.0301882921798555
-0.173885816287527	-0.570050556327247
-0.173885816287527	-0.705252506210904
-0.173885816287527	-0.617352053614913
-0.173885816287527	0.140215565259541
-0.173885816287527	0.537093854179611
-0.173885816287527	-0.0071683983529357
-0.173885816287527	0.244245380368278
-0.173885816287527	0.515310423620323
-0.173885816287527	0.301882325785037
-0.173885816287527	-0.487409209006245
-0.173885816287527	-0.553939323742605
-0.173885816287527	0.222399480027605
-0.173885816287527	0.047914025558904
-0.173885816287527	-0.476535879242139
-0.173885816287527	-0.399204627023725
-0.173885816287527	0.0444866657119951
-0.173885816287527	0.47050682674094
-0.173885816287527	0.54517198252102
-0.173885816287527	-0.0349185014362101
-0.173885816287527	0.807228443843988
-0.173885816287527	-0.671907174802243
-0.173885816287527	-1.14189949434764
-0.173885816287527	-0.604658631806534
-0.173885816287527	-0.180637323048199
-0.173885816287527	0.628078445130102
-0.173885816287527	0.125632292980393
-0.173885816287527	-0.929714331652453
-0.173885816287527	-0.241559686071524
-0.173885816287527	-0.112861121634056
-0.173885816287527	-0.39491889865749
-0.173885816287527	-0.85669028369336
-0.173885816287527	-0.162922150908302
-0.173885816287527	-0.670316714459814
-0.173885816287527	0.0558206807085087
-0.173885816287527	-0.0838521417674742
-0.173885816287527	0.738613456481271
-0.173885816287527	-0.53977632515518
-0.173885816287527	0.104828856031629
-0.173885816287527	-0.337821645494232
-0.173885816287527	0.776521432157357
-0.173885816287527	-1.40103506522966
-0.173885816287527	-0.407192956058259
-0.173885816287527	-0.240255082261372
-0.173885816287527	-0.530471943918441
-0.173885816287527	0.099375332950753
-0.173885816287527	-0.976520436525595
-0.173885816287527	-0.0326563505348998
-0.173885816287527	0.567653195688791
-0.173885816287527	-0.169214869960235
-0.173885816287527	-0.264825741351173
-0.173885816287527	0.0485686319447454
-0.173885816287527	-1.26285082435594
-0.173885816287527	0.623135860139568
-0.173885816287527	0.104003021684566
-0.173885816287527	0.495613038429469
-0.173885816287527	0.042595949232506
-0.173885816287527	-0.94349995599479
-0.173885816287527	-2.10020299838592
-0.173885816287527	0.703764457878179
-0.173885816287527	0.443716818946425
-0.173885816287527	0.244743899631784
-0.173885816287527	-0.775410436686521
-0.173885816287527	-0.457646047614801
-0.173885816287527	1.93466250721516
-0.173885816287527	0.0301954511828415
-0.173885816287527	-0.259957481174622
-0.173885816287527	1.19778219886215
-0.173885816287527	0.717479751752184
-0.173885816287527	-0.215942295747586
-0.173885816287527	0.169406953572371
-0.173885816287527	0.325783445042951
-0.173885816287527	0.428871891187594
-0.173885816287527	-0.962283433683476
-0.173885816287527	-0.5146983935813
-0.173885816287527	-0.609508938600981
-0.173885816287527	0.0674129301497917
-0.173885816287527	-0.81831629111385
-0.173885816287527	-0.708879404343659
-0.173885816287527	0.625864639293508
-0.173885816287527	-0.443776463337842
-0.173885816287527	-0.318043742188095
-0.173885816287527	0.954406868305701
-0.173885816287527	0.623826146430735
-0.173885816287527	-0.484246056251783
-0.173885816287527	-0.396341048549321
-0.173885816287527	-1.47386893573298
-0.173885816287527	-0.250669928640026
-0.173885816287527	-0.795964164941408
-0.173885816287527	-1.09302582219039
-0.173885816287527	0.526962252749221
-0.173885816287527	-0.625935180447787
-0.173885816287527	-0.0885736982310588
-0.173885816287527	0.370395987342109
-0.173885816287527	-0.281865095999674
-0.173885816287527	-1.21548196922189
-0.173885816287527	0.55232648439373
-0.173885816287527	1.20128391076657
-0.173885816287527	-0.448197672245085
-0.173885816287527	-0.785295425220036
-0.173885816287527	-0.31550378747365
-0.173885816287527	0.111430301274781
-0.173885816287527	-0.178700614793812
-0.173885816287527	-1.20770374414424
-0.173885816287527	-1.62093695129774
-0.173885816287527	-0.130418104481222
-0.173885816287527	0.258269471851645
-0.173885816287527	-0.270090554589737
-0.173885816287527	0.401896161332675
-0.173885816287527	0.0307401502295455
-0.173885816287527	-1.39345783193067
-0.173885816287527	0.13774625426828
-0.173885816287527	1.07057081730232
-0.173885816287527	0.425238824204117
-0.173885816287527	0.614277229816954
-0.173885816287527	-0.0213109088813397
-0.173885816287527	-0.440658058025051
-0.173885816287527	-0.458032648907548
-0.173885816287527	0.456913629089463
-0.173885816287527	0.464754783387711
-0.173885816287527	0.411538604659886
-0.173885816287527	0.443342182215557
-0.173885816287527	0.1178691093184
-0.173885816287527	-0.744369399351207
-0.173885816287527	0.112273409996237
-0.173885816287527	-0.725529353929409
-0.173885816287527	-0.174632734746132
-0.173885816287527	-0.708372605598743
-0.173885816287527	0.673781361757571
-0.173885816287527	-0.313179648671301
-0.173885816287527	0.105944359951065
-0.173885816287527	-0.548126616698171
-0.173885816287527	-0.114747401810158
-0.173885816287527	0.156932489909224
-0.173885816287527	-0.404534965278702
-0.173885816287527	1.09802796101177
-0.173885816287527	0.00116044788365954
-0.173885816287527	1.19914695253699
-0.173885816287527	0.177242987831115
-0.173885816287527	0.0644185160709011
-0.173885816287527	-0.0474473657065764
-0.173885816287527	0.394383963096842
-0.173885816287527	-0.805625213683918
-0.173885816287527	-0.573813627487405
-0.173885816287527	0.655385795753384
-0.173885816287527	-0.335021768769516
-0.173885816287527	0.443845450764885
-0.173885816287527	-1.17243295096703
-0.173885816287527	-0.164792697492588
-0.173885816287527	0.449428465735214
-0.173885816287527	0.538770904703482
-0.173885816287527	-0.749274873683902
-0.173885816287527	0.591513276616352
-0.173885816287527	-0.0400183400282006
-0.173885816287527	0.215267185333993
-0.173885816287527	1.72843198711925
-0.173885816287527	0.103783023770835
-0.173885816287527	-0.416076406320867
-0.173885816287527	-1.30161845130264
-0.173885816287527	1.39687021968814
-0.173885816287527	-0.00169865766965227
-0.173885816287527	0.756776445620249
-0.173885816287527	-0.36375478694981
-0.173885816287527	0.474127651137076
-0.173885816287527	-0.307414158740735
-0.173885816287527	-0.286932727633819
-0.173885816287527	-0.0261750339747117
-0.173885816287527	-1.51669550286123
-0.173885816287527	-1.23147618389711
-0.173885816287527	0.71909073146334
-0.173885816287527	-0.279940205916915
-0.173885816287527	-0.532254920243043
-0.173885816287527	0.161756122944117
-0.173885816287527	-0.90769556988568
-0.173885816287527	0.691398683020171
-0.173885816287527	-0.208602792292205
-0.173885816287527	0.607609223916033
-0.173885816287527	0.289038470139693
-0.173885816287527	0.185235676291835
-0.173885816287527	0.103579330880956
-0.173885816287527	-0.6118338322095
-0.173885816287527	0.21915126766922
-0.173885816287527	-0.165376776238242
-0.173885816287527	-0.490408119498525
-0.173885816287527	-1.06101731797088
-0.173885816287527	-0.154974519345571
-0.173885816287527	-0.444216030357253
-0.173885816287527	-0.677691370963227
-0.173885816287527	1.0466212668001
-0.173885816287527	-0.450571366776185
-0.173885816287527	0.718276968825114
-0.173885816287527	0.693387492814863
-0.173885816287527	-0.0311570724481903
-0.173885816287527	0.658281805218327
-0.173885816287527	0.0220378654644136
-0.173885816287527	0.145061152712708
-0.173885816287527	-1.23419264539702
-0.173885816287527	-0.0431476250778402
-0.173885816287527	0.168694627546836
-0.173885816287527	-0.591504261106458
-0.173885816287527	-0.272909783263862
-0.173885816287527	0.0794003044288154
-0.173885816287527	0.744066020084193
-0.173885816287527	0.869645273128532
-0.173885816287527	0.522862664864182
-0.173885816287527	0.249286136596417
-0.173885816287527	1.11283923149029
-0.173885816287527	0.102731851760135
-0.173885816287527	0.0321199571742263
-0.173885816287527	0.129739275131786
-0.173885816287527	0.723141765208034
-0.173885816287527	-0.104920787608295
-0.173885816287527	-0.0592277391988978
-0.173885816287527	1.1810141335943
-0.173885816287527	0.11350628148155
-0.173885816287527	0.111854251511136
-0.173885816287527	-0.597161074267811
-0.173885816287527	1.31353346250809
-0.173885816287527	1.13849343836581
-0.173885816287527	-0.523521200628501
-0.173885816287527	-1.66404383311141
-0.173885816287527	0.0254850581289647
-0.173885816287527	-0.423668947266913
-0.173885816287527	-1.01437386424287
-0.173885816287527	-0.158416000266535
-0.173885816287527	0.895365518294451
-0.173885816287527	-1.58308742054782
-0.173885816287527	-0.374268533166341
-0.173885816287527	0.378737348577948
-0.173885816287527	0.624862933313928
-0.173885816287527	-1.20389617783825
-0.173885816287527	-0.24853725926354
-0.173885816287527	-0.341657604928333
-0.173885816287527	0.669736055558197
-0.173885816287527	0.0410379349923078
-0.173885816287527	-0.354873822218984
-0.173885816287527	0.158995529166555
-0.173885816287527	-0.230332719872254
-0.173885816287527	-0.0336508966562966
-0.173885816287527	-0.795128892334479
-0.173885816287527	0.308250864938654
-0.173885816287527	2.36975420164991
-0.173885816287527	-0.152419006514129
-0.173885816287527	-0.388523137875233
