V1	V2
-0.189880863528092	0.914865942682388
-0.189880863528092	-0.184965355210553
-0.189880863528092	-0.579350571750718
-0.189880863528092	0.466925738103247
-0.189880863528092	-0.0149037723235717
-0.189880863528092	-0.430779671832617
-0.189880863528092	-0.424737702150669
-0.189880863528092	0.606108201120781
-0.189880863528092	-0.714276234200551
-0.189880863528092	-0.448529965774341
-0.189880863528092	-0.281292920463603
-0.189880863528092	-0.558952231918988
-0.189880863528092	-0.226044907027798
-0.189880863528092	0.42752643774356
-0.189880863528092	-0.65194919963818
-0.189880863528092	0.239583987518253
-0.189880863528092	-0.96445921176075
-0.189880863528092	0.867169280516318
-0.189880863528092	0.161357808636818
-0.189880863528092	0.146463875402053
-0.189880863528092	0.646740910951456
-0.189880863528092	-0.41709702722071
-0.189880863528092	0.405137731794682
-0.189880863528092	0.323976862835093
-0.189880863528092	-0.550547263200667
-0.189880863528092	0.528517515323866
-0.189880863528092	-0.26450307899993
-0.189880863528092	-0.026854487483062
-0.189880863528092	-0.521731507604023
-0.189880863528092	0.0219490638138814
-0.189880863528092	0.481690370788114
-0.189880863528092	0.00933250831148176
-0.189880863528092	0.0861570149946628
-0.189880863528092	0.507719646354947
-0.189880863528092	-0.820846417919497
-0.189880863528092	-0.13409865132189
-0.189880863528092	-0.75100870667796
-0.189880863528092	0.656148784395644
-0.189880863528092	-0.85294975676769
-0.189880863528092	0.123084715878387
-0.189880863528092	-0.338113767927434
-0.189880863528092	0.523521643292132
-0.189880863528092	0.717366981935514
-0.189880863528092	0.677911083656329
-0.189880863528092	0.744141359571464
-0.189880863528092	0.405657761460827
-0.189880863528092	-0.99214349664571
-0.189880863528092	-0.399379247380561
-0.189880863528092	-0.295440985835039
-0.189880863528092	0.664851662816655
-0.189880863528092	-0.648835902225696
-0.189880863528092	1.58475303118678
-0.189880863528092	0.207597330843268
-0.189880863528092	-0.543176363942671
-0.189880863528092	-0.0148767251076902
-0.189880863528092	0.541256747977138
-0.189880863528092	0.541905448989829
-0.189880863528092	-0.282157947872407
-0.189880863528092	0.255998901100941
-0.189880863528092	-0.644305097991352
-0.189880863528092	0.764073527758569
-0.189880863528092	-0.377635480791732
-0.189880863528092	-1.32433994750923
-0.189880863528092	-1.37955920930743
-0.189880863528092	0.077494048551602
-0.189880863528092	-0.0520516342713707
-0.189880863528092	0.411973220108774
-0.189880863528092	-0.260085089381225
-0.189880863528092	-0.22746917299164
-0.189880863528092	-0.884051020965016
-0.189880863528092	-0.324595260964531
-0.189880863528092	-0.246712501665311
-0.189880863528092	-0.749137268486919
-0.189880863528092	-0.470081534350954
-0.189880863528092	-0.174953370634682
-0.189880863528092	-0.299497094430066
-0.189880863528092	-0.894947346994381
-0.189880863528092	-0.115362412048333
-0.189880863528092	0.447977576307259
-0.189880863528092	0.328476342675221
-0.189880863528092	1.17570803798223
-0.189880863528092	0.124301413949014
-0.189880863528092	-0.209737164640783
-0.189880863528092	-0.252734432995452
-0.189880863528092	-1.00324726766187
-0.189880863528092	-0.0915296157303206
-0.189880863528092	-0.0394534974435286
-0.189880863528092	-0.0952679607903039
-0.189880863528092	-0.40199596729926
-0.189880863528092	-0.298839551918851
-0.189880863528092	-0.40243003514823
-0.189880863528092	-0.860978069354292
-0.189880863528092	0.0130702587527846
-0.189880863528092	-0.571944921274302
-0.189880863528092	0.106214296589701
-0.189880863528092	-0.2362465182774
-0.189880863528092	-0.151417213715504
-0.189880863528092	0.305911945547163
-0.189880863528092	0.248054265239717
-0.189880863528092	0.0171261085024729
-0.189880863528092	0.120592583408907
-0.189880863528092	-0.147064028193689
-0.189880863528092	-0.0425406850787946
-0.189880863528092	-0.0684699204280363
-0.189880863528092	0.232098963536275
-0.189880863528092	0.379816842257154
-0.189880863528092	-0.27084698913944
-0.189880863528092	-0.27068482462592
-0.189880863528092	-0.286127828925397
-0.189880863528092	-0.265121857463974
-0.189880863528092	0.100004773295566
-0.189880863528092	-0.0877356603222142
-0.189880863528092	-0.0711556889101473
-0.189880863528092	-0.195106397136161
-0.189880863528092	0.100707632048027
-0.189880863528092	0.479844508462361
-0.189880863528092	0.54107945696657
-0.189880863528092	0.132281956707126
-0.189880863528092	-0.525636361840487
-0.189880863528092	1.05220283302044
-0.189880863528092	0.555500690096609
-0.189880863528092	-0.403797794521424
-0.189880863528092	-1.05858654324047
-0.189880863528092	-0.647149607978882
-0.189880863528092	-0.902711762087056
-0.189880863528092	0.284170761719484
-0.189880863528092	0.0736836664732028
-0.189880863528092	-0.580747165571706
-0.189880863528092	-0.386507121239151
-0.189880863528092	0.233345195898778
-0.189880863528092	0.198475070205837
-0.189880863528092	0.514986487664655
-0.189880863528092	0.00781053469703597
-0.189880863528092	1.43428029326871
-0.189880863528092	-0.38872765017771
-0.189880863528092	-0.416715125572261
-0.189880863528092	0.0080245559486023
-0.189880863528092	0.255251039714541
-0.189880863528092	-0.563676902521029
-0.189880863528092	-0.106669775184055
-0.189880863528092	0.251697295282994
-0.189880863528092	0.126923907565089
-0.189880863528092	-1.0689781416452
-0.189880863528092	0.915636358379176
-0.189880863528092	-0.908772468111737
-0.189880863528092	-0.984482155891696
-0.189880863528092	-0.175795401464127
-0.189880863528092	0.66647792457902
-0.189880863528092	-1.04568642700918
-0.189880863528092	-0.254533147895453
-0.189880863528092	-0.658894867149357
-0.189880863528092	-0.902031362684703
-0.189880863528092	0.272718374778868
-0.189880863528092	0.143405078432494
-0.189880863528092	-0.275085911754426
-0.189880863528092	-0.327294846471705
-0.189880863528092	-0.266204911412712
-0.189880863528092	0.6890356037505
-0.189880863528092	0.135988424126258
-0.189880863528092	-0.499729169783627
-0.189880863528092	-0.10706133183944
-0.189880863528092	-0.0254822032072943
-0.189880863528092	0.189045497558772
-0.189880863528092	-0.975668969829249
-0.189880863528092	-0.924128134367348
-0.189880863528092	0.00702820754138248
-0.189880863528092	-0.0415810502283733
-0.189880863528092	-0.892731379657628
-0.189880863528092	-0.377238625375065
-0.189880863528092	-0.191448529205862
-0.189880863528092	-0.578384195278059
-0.189880863528092	0.320525845940062
-0.189880863528092	-0.625558999086478
-0.189880863528092	-0.646149810090683
-0.189880863528092	0.801252754196678
-0.189880863528092	0.620516222363627
-0.189880863528092	-0.74161215728872
-0.189880863528092	0.922125146156827
-0.189880863528092	-0.749911923448343
-0.189880863528092	1.00025509536408
-0.189880863528092	0.0944853227801561
-0.189880863528092	-0.127819827417581
-0.189880863528092	0.134287410044239
-0.189880863528092	-0.122693907710638
-0.189880863528092	-0.0886281638090026
-0.189880863528092	-0.715295916204093
-0.189880863528092	-0.2611916391429
-0.189880863528092	0.162691848265507
-0.189880863528092	-1.0712405949819
-0.189880863528092	0.0164562972355179
-0.189880863528092	0.0807788446559047
-0.189880863528092	-0.219981030505097
-0.189880863528092	-0.368820364667311
-0.189880863528092	0.570217225632139
-0.189880863528092	0.396301878280362
-0.189880863528092	0.594858853568947
-0.189880863528092	0.102130501045608
-0.189880863528092	0.216048496455989
-0.189880863528092	-0.750746655327783
-0.189880863528092	0.675514866496336
-0.189880863528092	-0.805319048747536
-0.189880863528092	-0.42392560220553
-0.189880863528092	0.0693078335790659
-0.189880863528092	0.401964628290041
-0.189880863528092	-0.211686950386313
-0.189880863528092	-0.713453162887939
-0.189880863528092	-0.725428494232489
-0.189880863528092	0.442953001190887
-0.189880863528092	0.470269392224391
-0.189880863528092	0.473534111265827
-0.189880863528092	-0.266925489317729
-0.189880863528092	-1.59344702182583
-0.189880863528092	0.854592209348564
-0.189880863528092	0.033141335461252
-0.189880863528092	-0.383325722776214
-0.189880863528092	-0.294434346873639
-0.189880863528092	0.944315559098941
-0.189880863528092	0.218100120191674
-0.189880863528092	-0.424299222681458
-0.189880863528092	0.467583125797577
-0.189880863528092	0.424147210760471
-0.189880863528092	-0.4087208008246
-0.189880863528092	-0.320375801065746
-0.189880863528092	0.13596890635687
-0.189880863528092	0.654110790346255
-0.189880863528092	-1.07603034817758
-0.189880863528092	0.555193087923882
-0.189880863528092	-0.441851782420468
-0.189880863528092	0.127560140863826
-0.189880863528092	0.385985304143091
-0.189880863528092	0.046953672262349
-0.189880863528092	0.566219618145277
-0.189880863528092	-0.272145825834158
-0.189880863528092	0.123705142218742
-0.189880863528092	0.0260233790462987
-0.189880863528092	0.227178176547429
-0.189880863528092	-0.386241580126147
-0.189880863528092	0.144366633579219
-0.189880863528092	0.234700874983511
-0.189880863528092	0.213682580679702
-0.189880863528092	0.0154518175790873
-0.189880863528092	-1.00361414156535
-0.189880863528092	0.033073421561477
-0.189880863528092	-0.231069598368606
-0.189880863528092	0.288067062448622
-0.189880863528092	-0.171797418928519
-0.189880863528092	-0.220809492512109
-0.189880863528092	0.804862062275636
-0.189880863528092	0.225359724440057
-0.189880863528092	0.457822366672074
-0.189880863528092	-0.145260955127768
-0.189880863528092	-0.606071089304524
-0.189880863528092	-0.332702449916379
-0.189880863528092	-0.465666618604747
-0.189880863528092	0.0762410464336174
-0.189880863528092	0.444629611386417
-0.189880863528092	0.314741602330123
-0.189880863528092	-0.348342387911142
-0.189880863528092	-0.437495529826636
-0.189880863528092	0.467898234216667
-0.189880863528092	-0.673899419881059
-0.189880863528092	-0.354710380914595
-0.189880863528092	-0.0715889444040541
-0.189880863528092	0.640572402067803
-0.189880863528092	-0.792045177555935
-0.189880863528092	-0.340014700863332
-0.189880863528092	-0.121045322548094
-0.189880863528092	-0.624952832253368
-0.189880863528092	-0.0841690515648806
-0.189880863528092	-0.73943612292411
-0.189880863528092	-0.263298776016204
-0.189880863528092	-0.15244837633823
-0.189880863528092	-0.791521711684401
-0.189880863528092	-0.365417629791293
-0.189880863528092	0.313499018794643
-0.189880863528092	-0.0694615645484815
-0.189880863528092	-0.0397068446606548
-0.189880863528092	0.360233551198131
-0.189880863528092	-0.145106648574308
-0.189880863528092	-0.665791754151452
-0.189880863528092	-0.465526918372984
-0.189880863528092	0.305606044441276
-0.189880863528092	0.343052899071999
-0.189880863528092	-0.111639556736647
-0.189880863528092	0.243806955232259
-0.189880863528092	0.492443428907873
-0.189880863528092	0.272243158382437
-0.189880863528092	-0.6164118018722
-0.189880863528092	-0.599509168280172
-0.189880863528092	-0.674373248381245
-0.189880863528092	-0.298109569034822
-0.189880863528092	-0.26368846710067
-0.189880863528092	0.815825826087385
-0.189880863528092	-1.0037944175899
-0.189880863528092	0.441467038053732
-0.189880863528092	-0.261000895215528
-0.189880863528092	-0.513292648942071
-0.189880863528092	-0.0155173784651148
-0.189880863528092	0.406196677778045
-0.189880863528092	0.589472012219891
-0.189880863528092	-0.161615260640722
-0.189880863528092	0.127995324642407
-0.189880863528092	-0.909848613461551
-0.189880863528092	-0.185350254033395
-0.189880863528092	-0.798006247909521
-0.189880863528092	-0.228109298462368
-0.189880863528092	-0.321224206740294
-0.189880863528092	0.535858953014588
-0.189880863528092	-0.274219186882884
-0.189880863528092	-0.34148394687425
-0.189880863528092	0.0287824419080175
-0.189880863528092	0.111784350725503
-0.189880863528092	0.730230913463456
-0.189880863528092	-0.0898286505057106
-0.189880863528092	-0.453585682450171
-0.189880863528092	0.0124747114802903
-0.189880863528092	1.26382930760391
-0.189880863528092	-0.244895531742914
-0.189880863528092	0.402143766146068
-0.189880863528092	0.987327412873415
-0.189880863528092	0.0968524413632225
-0.189880863528092	0.116861376170774
-0.189880863528092	0.357245701214826
-0.189880863528092	1.1473404511873
-0.189880863528092	-0.0824963053533471
-0.189880863528092	0.536729106864503
-0.189880863528092	0.571132818104857
-0.189880863528092	0.0586349521376492
-0.189880863528092	0.281603131373134
-0.189880863528092	0.171085185677607
-0.189880863528092	-0.275329644833643
-0.189880863528092	1.27898231637487
-0.189880863528092	0.0721882134035434
-0.189880863528092	0.0363841589745997
-0.189880863528092	-0.290814924912768
-0.189880863528092	-0.439691046953394
-0.189880863528092	0.00515550783199814
-0.189880863528092	-1.28414544220286
-0.189880863528092	-0.0417153825421114
-0.189880863528092	0.195424115636154
-0.189880863528092	-0.0840289284385323
-0.189880863528092	0.0565531640937271
-0.189880863528092	-0.85505888059695
-0.189880863528092	-1.13063046082885
-0.189880863528092	-0.0561060754129255
-0.189880863528092	-0.899415532972168
-0.189880863528092	-0.229411826596803
-0.189880863528092	-0.171469539669623
-0.189880863528092	-0.134592209992563
-0.189880863528092	0.890961963659597
-0.189880863528092	0.43488308447918
-0.189880863528092	0.577204699345869
-0.189880863528092	-0.200979473647979
-0.189880863528092	-0.208384327238658
-0.189880863528092	0.102158953683786
-0.189880863528092	-2.33847812532681
-0.189880863528092	-0.799014506464558
-0.189880863528092	0.552623196897697
-0.189880863528092	0.0116407474162208
-0.189880863528092	-0.896971795535247
-0.189880863528092	1.15434059640801
-0.189880863528092	1.14257368462889
-0.189880863528092	-0.163474961706483
-0.189880863528092	0.464923271967347
-0.189880863528092	-0.20237457388896
-0.189880863528092	-0.283184207976008
-0.189880863528092	0.212648751384235
-0.189880863528092	-0.530527121153529
-0.189880863528092	-0.350065421948259
-0.189880863528092	0.0404699851124187
-0.189880863528092	1.60560310201352
-0.189880863528092	-0.0100875699624163
-0.189880863528092	0.368325773316705
-0.189880863528092	-1.74094981741211
-0.189880863528092	0.695186083302177
-0.189880863528092	0.562489598254685
-0.189880863528092	0.25680454946784
-0.189880863528092	0.582152226107028
-0.189880863528092	0.409482447620564
-0.189880863528092	-0.683088346442358
-0.189880863528092	0.493425653658896
-0.189880863528092	0.37866351814044
-0.189880863528092	0.7002949769913
-0.189880863528092	-0.9386024451258
-0.189880863528092	0.452162935138709
-0.189880863528092	0.334234384297135
-0.189880863528092	0.279623151258654
-0.189880863528092	0.0703120565902206
-0.189880863528092	0.738799789548294
-0.189880863528092	0.00684782370279941
-0.189880863528092	-0.180571856440637
-0.189880863528092	-0.00392855906702655
-0.189880863528092	-0.118895822702812
-0.189880863528092	-0.342941706479591
-0.189880863528092	-0.31147694216107
-0.189880863528092	0.991676785815876
-0.189880863528092	0.0927709799265966
-0.189880863528092	-0.211345013022468
-0.189880863528092	-0.654008144312975
-0.189880863528092	0.468019589060815
-0.189880863528092	-0.856861108327564
-0.189880863528092	-0.531472069432413
-0.189880863528092	-0.103701813015676
-0.189880863528092	0.223974773871325
-0.189880863528092	-0.476596197751088
-0.189880863528092	0.0314040149407187
-0.189880863528092	0.596238469432207
-0.189880863528092	0.0786778080136316
-0.189880863528092	-0.664691015884686
-0.189880863528092	0.141650270509409
-0.189880863528092	0.0253288931096938
-0.189880863528092	-0.143897315476089
-0.189880863528092	-0.320734323788742
-0.189880863528092	-0.712738482635583
-0.189880863528092	-0.650156862078703
-0.189880863528092	-0.203392125206639
-0.189880863528092	0.223606952244012
-0.189880863528092	-0.600572943060651
-0.189880863528092	0.022305292412209
-0.189880863528092	-0.257218861643404
-0.189880863528092	-0.597892833327403
-0.189880863528092	-0.206146839870259
-0.189880863528092	0.534846699047592
-0.189880863528092	-0.0168397187428541
-0.189880863528092	0.0404665765237461
-0.189880863528092	0.224615768521664
-0.189880863528092	0.172874793360403
-0.189880863528092	0.838216521434799
-0.189880863528092	-0.323326149955512
-0.189880863528092	0.243652649513829
-0.189880863528092	-0.157346906025058
-0.189880863528092	0.0721019839210861
-0.189880863528092	-0.0196191957008793
-0.189880863528092	-0.531006966319446
-0.189880863528092	0.0863138277863556
-0.189880863528092	-0.479539473128013
-0.189880863528092	-1.05323720510298
-0.189880863528092	-0.0722802620299515
-0.189880863528092	0.0470859131411434
-0.189880863528092	0.90475644127189
-0.189880863528092	0.371268556957881
-0.189880863528092	0.72858937220141
-0.189880863528092	1.1670677054417
-0.189880863528092	-0.472326286890422
-0.189880863528092	0.635954039803461
-0.189880863528092	0.136930951318965
-0.189880863528092	-0.118145540585185
-0.189880863528092	-1.11966629380145
-0.189880863528092	-0.00358806610694221
-0.189880863528092	-0.494216673110886
-0.189880863528092	1.01731427185323
-0.189880863528092	0.85495623528412
-0.189880863528092	-0.168880912921977
-0.189880863528092	-0.59552756152335
-0.189880863528092	-0.601597108421623
-0.189880863528092	-0.984857507154972
-0.189880863528092	-0.375119463711191
-0.189880863528092	-0.0155906991534549
-0.189880863528092	0.101404757894188
-0.189880863528092	-1.01458839093855
-0.189880863528092	-0.969921644639128
-0.189880863528092	0.17820831487332
-0.189880863528092	0.674672092545628
-0.189880863528092	0.700948462172191
-0.189880863528092	-1.0354624545985
-0.189880863528092	0.113750913446587
-0.189880863528092	0.39038048643836
-0.189880863528092	0.586049618565928
-0.189880863528092	0.304546235938557
-0.189880863528092	0.083243044143014
-0.189880863528092	-0.270231329724798
-0.189880863528092	-0.278119488436994
-0.189880863528092	-0.173175232278801
-0.189880863528092	-0.388740244804245
-0.189880863528092	-0.557378175300254
-0.189880863528092	-0.0409806434966535
-0.189880863528092	0.566372754516701
-0.189880863528092	0.297419542981824
-0.189880863528092	0.0735654296748898
-0.189880863528092	0.238431289486463
-0.189880863528092	-0.135993507379833
-0.189880863528092	0.603138987358732
-0.189880863528092	-1.31833385566875
-0.189880863528092	0.240760863359981
-0.189880863528092	0.0786603499727067
-0.189880863528092	-0.753629167213684
-0.189880863528092	-0.28700122194207
-0.189880863528092	-0.143581821643507
-0.189880863528092	-0.0309926506273525
-0.189880863528092	0.746715283711713
-0.189880863528092	0.735080506935516
-0.189880863528092	-0.0220961846904726
-0.189880863528092	-0.232762625683246
-0.189880863528092	0.452127326751203
-0.189880863528092	0.219916953577852
-0.189880863528092	-0.265764445976268
-0.189880863528092	-0.197149618329112
-0.189880863528092	-0.438061016197415
-0.189880863528092	0.391777267701474
-0.189880863528092	-0.511296151405834
-0.189880863528092	-0.928948568696543
-0.189880863528092	0.510704992887502
-0.189880863528092	0.102156081638628
-0.189880863528092	0.085371508727929
-0.189880863528092	0.545445771387998
-0.189880863528092	0.336221465813723
-0.189880863528092	0.143579115909864
-0.189880863528092	0.423776746066454
-0.189880863528092	0.255527213707581
-0.189880863528092	-0.365157974234653
-0.189880863528092	-0.0386355335552186
-0.189880863528092	-0.531447433184338
-0.189880863528092	-0.151422889015438
-0.189880863528092	0.0270200307206199
-0.189880863528092	-0.0757697579598503
-0.189880863528092	-0.0552697010064868
-0.189880863528092	-0.391171573226636
-0.189880863528092	0.643910243241877
-0.189880863528092	-0.320127732507344
-0.189880863528092	0.351780493451681
-0.189880863528092	0.159075769055228
-0.189880863528092	0.376374103758598
-0.189880863528092	0.314498577597488
-0.189880863528092	-0.80015257227216
-0.189880863528092	-0.407894436793201
-0.189880863528092	-0.415358638572718
-0.189880863528092	-0.799345692262995
-0.189880863528092	0.250218204769291
-0.189880863528092	-0.427473209911343
-0.189880863528092	0.71953917951369
-0.189880863528092	-1.11843160497229
-0.189880863528092	-0.339315468437174
-0.189880863528092	0.392046300859104
-0.189880863528092	-0.607679003738277
-0.189880863528092	-1.20436549764319
-0.189880863528092	-0.272372036896721
-0.189880863528092	1.06044931171761
-0.189880863528092	1.29820845573795
-0.189880863528092	-0.314627034025323
-0.189880863528092	0.130063126982468
-0.189880863528092	-0.342868014254307
-0.189880863528092	-0.596826621041259
-0.189880863528092	0.630747181275354
-0.189880863528092	0.00796534688829626
-0.189880863528092	0.21377716802884
-0.189880863528092	0.40615308725759
-0.189880863528092	-0.00627049607798608
-0.189880863528092	-0.100111085749823
-0.189880863528092	-0.291013082611718
-0.189880863528092	0.396573126552906
-0.189880863528092	0.333791485383449
-0.189880863528092	-0.518825624479548
-0.189880863528092	0.0210565704943163
-0.189880863528092	-0.239084405806245
-0.189880863528092	-0.0900939104973162
-0.189880863528092	0.425973983211665
-0.189880863528092	-0.518211022760466
-0.189880863528092	-0.539243652296872
-0.189880863528092	-0.557569664710581
-0.189880863528092	0.427374527833947
-0.189880863528092	-0.602220994265877
-0.189880863528092	-1.2585775864425
-0.189880863528092	0.204863459946699
-0.189880863528092	0.0471071039684055
-0.189880863528092	0.129387118698119
-0.189880863528092	-0.352011261827601
-0.189880863528092	-0.560425675527754
-0.189880863528092	-0.572341828330375
-0.189880863528092	0.658435922989599
-0.189880863528092	-1.12954982850121
-0.189880863528092	0.241853648361114
-0.189880863528092	0.0242569250005317
-0.189880863528092	0.659055145401937
-0.189880863528092	-0.208762808887275
-0.189880863528092	-0.0632850747909236
-0.189880863528092	0.567562119475493
-0.189880863528092	0.0517772945787586
-0.189880863528092	0.0725603168778227
-0.189880863528092	-0.606314624381111
-0.189880863528092	-0.0310108496600993
-0.189880863528092	-0.00994326544867649
-0.189880863528092	-0.941347386585808
-0.189880863528092	0.179281982784697
-0.189880863528092	-1.00787033075853
-0.189880863528092	0.307286223511848
-0.189880863528092	-0.67556624760951
-0.189880863528092	-0.301055883419848
-0.189880863528092	-0.030499442090296
-0.189880863528092	-0.617728958862352
-0.189880863528092	-0.627560034984615
-0.189880863528092	-0.478650610380276
-0.189880863528092	-0.3246888951881
-0.189880863528092	0.570630909036415
-0.189880863528092	0.669054365351648
-0.189880863528092	0.252773043815054
-0.189880863528092	-0.125553398477445
-0.189880863528092	-0.757313044226776
-0.189880863528092	0.562219276542184
-0.189880863528092	-0.761118277284025
-0.189880863528092	-0.889183838184409
-0.189880863528092	-0.767400198442057
-0.189880863528092	0.384185872973086
-0.189880863528092	-0.53855168897673
-0.189880863528092	0.562135560588138
-0.189880863528092	-0.0745195791645167
-0.189880863528092	0.0588797858163607
-0.189880863528092	-0.150055840491727
-0.189880863528092	-0.28711053109761
-0.189880863528092	0.433497755648791
-0.189880863528092	-0.321942669009353
-0.189880863528092	0.178204445827008
-0.189880863528092	1.32092317358001
-0.189880863528092	-0.585412472471609
-0.189880863528092	0.527958606858616
-0.189880863528092	-0.0699087622329462
-0.189880863528092	0.0190850616973327
-0.189880863528092	-0.647817792667189
-0.189880863528092	-0.780857244415697
-0.189880863528092	0.0991018754193505
-0.189880863528092	-0.162872172327267
-0.189880863528092	-0.908577369314759
-0.189880863528092	-0.388087776310394
-0.189880863528092	0.473977366570436
-0.189880863528092	0.710648673205717
-0.189880863528092	0.0582343480956615
-0.189880863528092	-0.708563693518245
-0.189880863528092	-0.315041823808678
-0.189880863528092	0.152744376592618
-0.189880863528092	0.523701764476567
-0.189880863528092	0.0397130405677773
-0.189880863528092	-0.1323794190399
-0.189880863528092	0.0286574601381992
-0.189880863528092	-0.758418202310792
-0.189880863528092	-0.429401247939501
-0.189880863528092	0.617828710888241
-0.189880863528092	0.0720334856295571
-0.189880863528092	0.170534615516032
-0.189880863528092	-0.386037032031419
-0.189880863528092	-0.899586330117843
-0.189880863528092	-0.1725304385529
-0.189880863528092	-0.0183707547679568
-0.189880863528092	-0.153611486716393
-0.189880863528092	0.505927859982015
-0.189880863528092	0.362476135996378
-0.189880863528092	0.764514340197868
-0.189880863528092	-0.119670192156478
-0.189880863528092	-0.297798952245261
-0.189880863528092	-0.286103768180021
-0.189880863528092	-0.764481553070692
-0.189880863528092	0.0220024041049258
-0.189880863528092	0.798126113004467
-0.189880863528092	0.0438067954121451
-0.189880863528092	-1.00094619119248
-0.189880863528092	-0.289887576543599
-0.189880863528092	0.0861311253366267
-0.189880863528092	-0.290743295451493
-0.189880863528092	0.0148461795554325
-0.189880863528092	-1.19370556665609
-0.189880863528092	-0.0633460126939394
-0.189880863528092	-0.300641656164204
-0.189880863528092	-0.534863016893242
-0.189880863528092	0.360847697242029
-0.189880863528092	-0.0938723176308407
-0.189880863528092	-0.833059950296334
-0.189880863528092	0.303556565735878
-0.189880863528092	-0.832522300948898
-0.189880863528092	-0.723585247202534
-0.189880863528092	-0.959290877656652
-0.189880863528092	0.0186597641967021
-0.189880863528092	-0.0800717435965212
-0.189880863528092	-0.91888930557772
-0.189880863528092	-1.02841122234363
-0.189880863528092	0.199052961060297
-0.189880863528092	0.154092436960068
-0.189880863528092	0.110481467214057
-0.189880863528092	-0.298544350007974
-0.189880863528092	-0.0417268456237654
-0.189880863528092	-0.397972737582974
-0.189880863528092	0.900701769661673
-0.189880863528092	-0.57499232555675
-0.189880863528092	1.0237698250337
-0.189880863528092	-0.749300176769561
-0.189880863528092	0.542471244882118
-0.189880863528092	-0.499842971652506
-0.189880863528092	0.525090233293339
-0.189880863528092	0.163184551652016
-0.189880863528092	-0.133912961486579
-0.189880863528092	0.427891108099278
-0.189880863528092	0.0720773890906088
-0.189880863528092	-0.0732744537536664
-0.189880863528092	-0.349364611527517
-0.189880863528092	-0.535050913797884
-0.189880863528092	0.457449709858049
-0.189880863528092	0.0802108271172841
-0.189880863528092	-0.375224565204627
-0.189880863528092	-0.582150153097627
-0.189880863528092	0.0915083644500619
-0.189880863528092	-0.730427832228923
-0.189880863528092	-0.592812074276646
-0.189880863528092	-0.612399228737804
-0.189880863528092	0.137759283001309
-0.189880863528092	-0.82588540242375
-0.189880863528092	0.451835352674764
-0.189880863528092	-0.637817665968366
-0.189880863528092	-0.421249775962406
-0.189880863528092	-0.0338017029222653
-0.189880863528092	-0.425446942371245
-0.189880863528092	-0.180849536694469
-0.189880863528092	0.352237303086054
-0.189880863528092	-0.479582609621207
-0.189880863528092	-0.134407634832216
-0.189880863528092	-0.483872557369362
-0.189880863528092	-0.286519234320151
-0.189880863528092	-0.124454007853333
-0.189880863528092	-1.03385095227492
-0.189880863528092	-0.0381449897449033
-0.189880863528092	-1.25181585645658
-0.189880863528092	0.895972726598851
-0.189880863528092	-0.559644766760321
-0.189880863528092	-0.181275420784713
-0.189880863528092	0.996154722687484
-0.189880863528092	0.554525460976502
-0.189880863528092	0.29700854243664
-0.189880863528092	0.23366597709892
-0.189880863528092	-1.34226567962391
-0.189880863528092	0.576984176350432
-0.189880863528092	-0.78498520025126
-0.189880863528092	-0.940009182636917
-0.189880863528092	-0.671370149543409
-0.189880863528092	1.23200691390494
-0.189880863528092	0.520378918886908
-0.189880863528092	-0.0877646431247592
-0.189880863528092	0.0594805812467397
-0.189880863528092	0.775200677470099
-0.189880863528092	-0.222972793514795
-0.189880863528092	0.226158186849858
-0.189880863528092	-0.242773183131792
-0.189880863528092	0.222162681455915
-0.189880863528092	0.836689065034002
-0.189880863528092	0.135665734783282
-0.189880863528092	-0.135942345703203
-0.189880863528092	-0.103492735373192
-0.189880863528092	0.596550276580361
-0.189880863528092	0.564011766937838
-0.189880863528092	0.586379126231023
-0.189880863528092	0.13196514824455
-0.189880863528092	0.281104769764826
-0.189880863528092	-1.52375415944885
-0.189880863528092	-0.312248113320964
-0.189880863528092	-0.0175789091566707
-0.189880863528092	-0.000761617049253538
-0.189880863528092	0.0490690259385945
-0.189880863528092	0.428343266096163
-0.189880863528092	-0.177758402946688
-0.189880863528092	0.181605209406421
-0.189880863528092	0.120106207592635
-0.189880863528092	0.321917770172483
-0.189880863528092	0.585677116444183
-0.189880863528092	1.02274298538813
-0.189880863528092	-0.501262646590709
-0.189880863528092	-1.14110220253193
-0.189880863528092	0.684573356229972
-0.189880863528092	-0.426166599554828
-0.189880863528092	-0.618315583952632
-0.189880863528092	-0.506255391742087
-0.189880863528092	0.243586568462558
-0.189880863528092	-0.10655058406738
-0.189880863528092	0.516968095548314
-0.189880863528092	-0.507826022165763
-0.189880863528092	0.322646139221561
-0.189880863528092	0.470025931556702
-0.189880863528092	-0.309227278404523
-0.189880863528092	-0.208274389470084
-0.189880863528092	-0.68424383894891
-0.189880863528092	0.104812212773502
-0.189880863528092	-0.159861090586871
-0.189880863528092	-0.124760025979634
-0.189880863528092	0.397880207934157
-0.189880863528092	0.202046131698972
-0.189880863528092	-0.116421830051171
-0.189880863528092	0.440736123647675
-0.189880863528092	-0.457983466386407
-0.189880863528092	0.657411547621109
-0.189880863528092	-0.175534735064455
-0.189880863528092	0.0864788893390388
-0.189880863528092	-0.80691073671763
-0.189880863528092	-0.243619091097406
-0.189880863528092	0.414279228666921
-0.189880863528092	-0.765981573916326
-0.189880863528092	-0.0908329040242888
-0.189880863528092	-0.593023007331815
-0.189880863528092	-0.327310786156124
-0.189880863528092	-0.963976237546202
-0.189880863528092	0.482651662306986
-0.189880863528092	-0.326247554620435
-0.189880863528092	-0.565760504852744
-0.189880863528092	-0.354108159367254
-0.189880863528092	0.303312316962938
-0.189880863528092	0.364536556941597
-0.189880863528092	-0.105113836895414
-0.189880863528092	-0.143174121926792
-0.189880863528092	-0.960501490912988
-0.189880863528092	-0.116728017419276
-0.189880863528092	-0.32890828862939
-0.189880863528092	-0.244301002659992
-0.189880863528092	-0.406698969215569
-0.189880863528092	0.452489148649329
-0.189880863528092	1.20683530078554
-0.189880863528092	0.148229789915495
-0.189880863528092	0.837225629707442
-0.189880863528092	0.148405226742791
-0.189880863528092	0.101551292119177
-0.189880863528092	-0.16182511938195
-0.189880863528092	0.128059808084091
-0.189880863528092	0.22056690851273
-0.189880863528092	0.402570716278155
-0.189880863528092	0.15077072774145
-0.189880863528092	0.346999805829078
-0.189880863528092	-0.216742665964187
-0.189880863528092	-0.00313962571312501
-0.189880863528092	-0.122940919174869
-0.189880863528092	-0.0793213196123207
-0.189880863528092	-0.326665973562271
-0.189880863528092	-0.585852386748122
-0.189880863528092	-0.181900137938566
-0.189880863528092	-1.15220864894317
-0.189880863528092	-0.127558116437225
-0.189880863528092	-0.0819576696503904
-0.189880863528092	-0.0202064781207594
-0.189880863528092	-0.387527783448348
-0.189880863528092	-0.906799338306658
-0.189880863528092	0.359737639499498
-0.189880863528092	-0.794050413770518
-0.189880863528092	-0.790036918474238
-0.189880863528092	0.690206667306279
-0.189880863528092	0.389215555590448
-0.189880863528092	-0.490576279151068
-0.189880863528092	-0.593716673557728
-0.189880863528092	0.425005646774317
-0.189880863528092	0.923248677496754
-0.189880863528092	0.113380137627358
-0.189880863528092	-0.374684453397099
-0.189880863528092	-0.291610448135075
-0.189880863528092	-0.495536059403899
-0.189880863528092	-0.828282796827379
-0.189880863528092	-0.0288731673790134
-0.189880863528092	0.259865738164986
-0.189880863528092	-0.0595535156271715
-0.189880863528092	-0.583235003839089
-0.189880863528092	0.00334457225321616
-0.189880863528092	-0.364550472023711
-0.189880863528092	-0.0570255966556891
-0.189880863528092	-0.801130193153206
-0.189880863528092	0.170588746020238
-0.189880863528092	-0.429624781780556
-0.189880863528092	1.22697889328174
-0.189880863528092	-0.801940215260176
-0.189880863528092	0.28939704169901
-0.189880863528092	-0.0764374846020642
-0.189880863528092	-0.379006936827768
-0.189880863528092	-0.152527664699389
-0.189880863528092	0.307489709082934
-0.189880863528092	-0.0889968054932537
-0.189880863528092	-0.0676755990504165
-0.189880863528092	-0.276341417896976
-0.189880863528092	-0.247059369669672
-0.189880863528092	0.29984978342343
-0.189880863528092	0.725891361844529
-0.189880863528092	-0.143125919688419
-0.189880863528092	-0.763501619037311
-0.189880863528092	0.347601648668044
-0.189880863528092	0.401657046841203
-0.189880863528092	-0.197773946522472
-0.189880863528092	0.0294932028173909
-0.189880863528092	0.863463330939086
-0.189880863528092	0.370412326834773
-0.189880863528092	-0.220402817932217
-0.189880863528092	0.192816246957075
-0.189880863528092	0.64344731102199
-0.189880863528092	1.09125512754141
-0.189880863528092	0.299183688155173
-0.189880863528092	-0.249898763532943
-0.189880863528092	-0.061971146732866
-0.189880863528092	-0.560128931913714
-0.189880863528092	0.370480666506416
-0.189880863528092	-0.458175149221058
-0.189880863528092	-0.402504330050265
-0.189880863528092	0.926843450605157
-0.189880863528092	-0.491384505073686
-0.189880863528092	-0.315488928278815
-0.189880863528092	-0.928197852137077
-0.189880863528092	-0.129457637146436
-0.189880863528092	0.304880099516219
-0.189880863528092	0.0164058381037443
-0.189880863528092	-0.300456131232553
-0.189880863528092	-0.272843886291992
-0.189880863528092	-0.284838866479018
-0.189880863528092	0.513886919817517
-0.189880863528092	-0.308279416280667
-0.189880863528092	-0.522654508465151
-0.189880863528092	-0.930709360041381
-0.189880863528092	-0.740227848274976
-0.189880863528092	-0.438235266718334
-0.189880863528092	-0.707931169015605
-0.189880863528092	0.328737602691776
-0.189880863528092	0.400795974163194
-0.189880863528092	-0.40310771470042
-0.189880863528092	1.36302106456846
-0.189880863528092	-0.188143580967876
-0.189880863528092	-1.70581113053865
-0.189880863528092	-0.666571863590524
-0.189880863528092	-0.418533971523993
-0.189880863528092	-0.749675919226733
-0.189880863528092	1.59890062285014
-0.189880863528092	-0.31952393894351
-0.189880863528092	-0.176254829268772
-0.189880863528092	0.229250105336627
-0.189880863528092	-0.444979776470842
-0.189880863528092	-0.0709042609005053
-0.189880863528092	0.26844830234149
-0.189880863528092	0.105045386784998
-0.189880863528092	0.0125481039089465
-0.189880863528092	-0.233882099309654
-0.189880863528092	-0.459047262018743
-0.189880863528092	-0.530287080007949
-0.189880863528092	-0.104427522792651
-0.189880863528092	0.46984868638896
-0.189880863528092	1.3370415556845
-0.189880863528092	-0.220175415490198
-0.189880863528092	-0.441280430029702
-0.189880863528092	0.258174599254141
-0.189880863528092	-0.376823771440144
-0.189880863528092	0.250359920600034
-0.189880863528092	-0.205252514411527
-0.189880863528092	-0.0886737748716216
-0.189880863528092	0.663431809974019
-0.189880863528092	-0.736298776942547
-0.189880863528092	-0.310202316780024
-0.189880863528092	0.223080398539383
-0.189880863528092	-0.822308647511764
-0.189880863528092	-0.789300499535974
-0.189880863528092	-0.346051768412115
-0.189880863528092	0.568857436528643
-0.189880863528092	0.0508317383440181
-0.189880863528092	-0.259900275547652
-0.189880863528092	0.90472201506448
-0.189880863528092	-0.0619550688753797
-0.189880863528092	-0.254612388896159
-0.189880863528092	0.222507259227018
-0.189880863528092	0.910678204910831
-0.189880863528092	0.182347804152718
-0.189880863528092	0.143410157589217
-0.189880863528092	-0.0417269458962874
-0.189880863528092	-0.748001146109487
-0.189880863528092	0.625676463455518
-0.189880863528092	0.0490760952415248
-0.189880863528092	-0.804486001042115
-0.189880863528092	-0.784702856573373
-0.189880863528092	-1.11501703656767
-0.189880863528092	-0.843085062823681
-0.189880863528092	-0.497289910506609
-0.189880863528092	0.30836779833973
-0.189880863528092	1.48240221169293
-0.189880863528092	0.0620193873285994
-0.189880863528092	-0.92324576755315
-0.189880863528092	0.207099657970147
-0.189880863528092	0.6445999337098
-0.189880863528092	-0.347478961427727
-0.189880863528092	-0.864969152996368
-0.189880863528092	-0.0697952476905113
-0.189880863528092	-0.732683279862603
-0.189880863528092	0.0584592352176188
-0.189880863528092	-0.175268711516882
-0.189880863528092	-0.0834005247595582
-0.189880863528092	0.407697903265207
-0.189880863528092	0.138884111463041
-0.189880863528092	0.00801122656375054
-0.189880863528092	-0.519868586083128
-0.189880863528092	-0.397799470967534
-0.189880863528092	-0.393042724474517
-0.189880863528092	-0.37980805147289
-0.189880863528092	-1.01423317498599
-0.189880863528092	0.390024787017881
-0.189880863528092	-0.0311282231538334
-0.189880863528092	-0.111495088386974
-0.189880863528092	-1.06256362124592
-0.189880863528092	-0.717762044774939
-0.189880863528092	-0.236587669857663
-0.189880863528092	-0.6836923617992
-0.189880863528092	-0.013445566548903
-0.189880863528092	-0.116255762975498
-0.189880863528092	0.294229988638729
-0.189880863528092	0.35348753147935
-0.189880863528092	-0.175630282711352
-0.189880863528092	-0.326456865024443
-0.189880863528092	-0.926592541743666
-0.189880863528092	0.370749549140144
-0.189880863528092	0.681991108481379
-0.189880863528092	-0.788732700797426
-0.189880863528092	-0.878241340253776
-0.189880863528092	0.912973354043916
-0.189880863528092	-0.47720622473031
-0.189880863528092	0.0685426366960965
-0.189880863528092	0.251535694758044
-0.189880863528092	-0.303620856810975
-0.189880863528092	-0.196881639793604
-0.189880863528092	-0.0425642511249666
-0.189880863528092	-0.645123311311417
-0.189880863528092	1.25051057839625
-0.189880863528092	-0.177722906289141
-0.189880863528092	-0.422314941695829
-0.189880863528092	0.0338115225705446
-0.189880863528092	-0.110413738920042
-0.189880863528092	-0.580096041961396
-0.189880863528092	-0.38913275927695
-0.189880863528092	-0.707562165782601
-0.189880863528092	0.389482810436069
-0.189880863528092	-0.194080107533453
-0.189880863528092	-0.593113650388228
-0.189880863528092	-0.0696452612900509
-0.189880863528092	0.495210130548836
-0.189880863528092	-0.26341000972905
-0.189880863528092	-0.0768367683664851
-0.189880863528092	-0.806085081753007
-0.189880863528092	0.458290170185762
-0.189880863528092	0.163675991544416
-0.189880863528092	-0.189220920406732
-0.189880863528092	-0.133389600492598
-0.189880863528092	-0.688136199311658
-0.189880863528092	-0.0149446435258651
-0.189880863528092	-0.854966536369149
-0.189880863528092	-0.455761718082054
-0.189880863528092	0.276016773426044
-0.189880863528092	0.309803271541625
-0.189880863528092	-0.125532907354993
-0.189880863528092	-1.51363875764791
-0.189880863528092	-0.0889644420666262
-0.189880863528092	-0.755567214780984
-0.189880863528092	0.375458885202434
-0.189880863528092	0.793964004311307
-0.189880863528092	-0.407553250102521
-0.189880863528092	0.0584064055463617
-0.189880863528092	0.429948961097458
-0.189880863528092	0.547804892819549
-0.189880863528092	0.041381581428964
-0.189880863528092	0.78752598448687
-0.189880863528092	-0.39185738923061
-0.189880863528092	0.122175863497928
-0.189880863528092	-0.103587698315174
-0.189880863528092	-0.244066243696822
-0.189880863528092	-0.0778774272679671
-0.189880863528092	-0.587725985053569
-0.189880863528092	0.616829142479606
-0.189880863528092	-0.131157871557457
-0.189880863528092	-0.0885998798271202
-0.189880863528092	0.37208765925454
-0.189880863528092	-0.714330927571877
-0.189880863528092	-0.597383987548529
-0.189880863528092	-0.747977932155062
-0.189880863528092	-0.184991649040638
-0.189880863528092	0.139778615078743
-0.189880863528092	0.477365151357048
-0.189880863528092	-0.164546684755235
-0.189880863528092	0.0194910307750593
-0.189880863528092	0.0892154832610797
-0.189880863528092	-0.611157883030131
-0.189880863528092	-0.4492424051477
-0.189880863528092	0.25818090171322
-0.189880863528092	0.434457093118153
-0.189880863528092	0.738929726608336
-0.189880863528092	0.214748792566636
-0.189880863528092	0.426451700534953
-0.189880863528092	-0.172361829907563
-0.189880863528092	-0.280714142585048
-0.189880863528092	-0.205420042410633
-0.189880863528092	-0.390638206837111
-0.189880863528092	-0.0277068790314315
-0.189880863528092	0.200398478313712
-0.189880863528092	-0.589898393869038
-0.189880863528092	-0.350242710020133
-0.189880863528092	-0.180323355381131
-0.189880863528092	-0.692828677788562
-0.189880863528092	0.680487012235415
-0.189880863528092	0.0068083151299817
-0.189880863528092	0.306897397242337
-0.189880863528092	0.690600611472753
-0.189880863528092	0.282466388080437
-0.189880863528092	0.0284260037749116
-0.189880863528092	0.0788067314528075
-0.189880863528092	-0.08411664769727
-0.189880863528092	0.562138093519888
-0.189880863528092	0.502482779404948
-0.189880863528092	-0.306138565761133
-0.189880863528092	-0.243024775234731
-0.189880863528092	-0.191791014829444
-0.189880863528092	-0.663679188649812
-0.189880863528092	-0.350262068827665
-0.189880863528092	-0.399316583671111
-0.189880863528092	0.0223638534095525
-0.189880863528092	0.225175739683741
-0.189880863528092	-1.09612273231617
-0.189880863528092	0.51729256580124
-0.189880863528092	0.55099512504918
-0.189880863528092	0.334147498108368
-0.189880863528092	0.322149465057985
-0.189880863528092	0.59715911964895
-0.189880863528092	0.0405673121729503
-0.189880863528092	-0.0685082191426895
-0.189880863528092	-0.275658974523176
-0.189880863528092	-0.526204238500278
-0.189880863528092	0.543495172159199
-0.189880863528092	-0.429585861769536
-0.189880863528092	-0.0448140016824953
-0.189880863528092	0.664225433129636
-0.189880863528092	0.128966133581403
-0.189880863528092	-0.596610627564541
-0.189880863528092	-0.385218769659718
-0.189880863528092	0.395249586817958
-0.189880863528092	0.685091143559742
-0.189880863528092	0.0638515118339579
-0.189880863528092	-0.324351580003381
-0.189880863528092	-0.314556463124024
-0.189880863528092	-0.144614255467939
-0.189880863528092	0.492315752428533
-0.189880863528092	-0.34617605525046
-0.189880863528092	-0.772994127762032
-0.189880863528092	-0.197426409177336
-0.189880863528092	-0.786900423500264
-0.189880863528092	0.0975456555935887
-0.189880863528092	0.308118826032231
-0.189880863528092	-0.022635297936182
-0.189880863528092	0.14833647555508
-0.189880863528092	0.181304037143911
-0.189880863528092	-0.556489568041563
-0.189880863528092	0.396580482244942
-0.189880863528092	0.365826424145327
-0.189880863528092	-0.283178786817164
-0.189880863528092	0.315946831682509
-0.189880863528092	0.0171635094533262
-0.189880863528092	-0.438421172701131
-0.189880863528092	-0.183457826046439
-0.189880863528092	-0.318065677513962
-0.189880863528092	0.465018518469251
-0.189880863528092	-0.416710772707656
-0.189880863528092	-0.132012053789612
-0.189880863528092	0.34899502781504
-0.189880863528092	0.414449936913681
-0.189880863528092	-1.09101246944399
-0.189880863528092	0.0901039464514882
-0.189880863528092	-0.187212270328122
-0.189880863528092	-0.0671268115023151
-0.189880863528092	-0.219760025632342
-0.189880863528092	-0.636036782593966
-0.189880863528092	0.420750684456156
-0.189880863528092	-0.174521998268029
-0.189880863528092	0.569778406411735
-0.189880863528092	0.111937867162547
-0.189880863528092	-0.147401571829531
-0.189880863528092	0.580801885758295
-0.189880863528092	-0.44870933379392
-0.189880863528092	0.954556513191969
-0.189880863528092	0.345599388938129
-0.189880863528092	1.19031726523073
-0.189880863528092	-0.213880050570308
-0.189880863528092	-0.150619672014454
-0.189880863528092	0.235782169507583
-0.189880863528092	-0.498871626415077
-0.189880863528092	-0.306407264470269
-0.189880863528092	0.0449978662491761
-0.189880863528092	-0.38256171484973
-0.189880863528092	-0.106420272781924
-0.189880863528092	0.238784709075761
-0.189880863528092	0.0223287910557829
-0.189880863528092	-0.208678087959522
-0.189880863528092	0.551625970055294
-0.189880863528092	0.607917942104363
-0.189880863528092	-0.52778090103987
-0.189880863528092	-0.0770173285335397
-0.189880863528092	0.45179890339866
-0.189880863528092	0.513196463076011
-0.189880863528092	0.921447329298731
-0.189880863528092	-0.430743283803768
-0.189880863528092	0.378302973352502
-0.189880863528092	-0.367605005404701
-0.189880863528092	-0.77610800439498
-0.189880863528092	0.590254206733756
-0.189880863528092	-0.627804090458406
-0.189880863528092	-0.215434973506832
-0.189880863528092	0.0203071216848445
-0.189880863528092	-0.426555665665767
-0.189880863528092	-0.471930848098731
-0.189880863528092	0.347094610844781
-0.189880863528092	0.0774273562213273
-0.189880863528092	0.781425581352566
-0.189880863528092	-0.654379815016082
-0.189880863528092	-0.649175481839733
-0.189880863528092	-0.669104418351797
-0.189880863528092	0.263962766091192
-0.189880863528092	-0.846755094734606
-0.189880863528092	-0.722134851636991
-0.189880863528092	-0.411555031103669
-0.189880863528092	-0.355418702565259
-0.189880863528092	0.723227541561551
-0.189880863528092	0.0478711966251344
-0.189880863528092	0.379418373933292
-0.189880863528092	-0.301824261699022
-0.189880863528092	-0.732632543641679
-0.189880863528092	-0.507581128313545
-0.189880863528092	0.00930811044779375
-0.189880863528092	-0.611797584176013
-0.189880863528092	0.0369974072318584
-0.189880863528092	-0.576348729954938
-0.189880863528092	0.869123770151963
-0.189880863528092	-0.49908909757283
-0.189880863528092	-0.028231958581865
-0.189880863528092	-1.11416307163374
-0.189880863528092	0.65887116183593
-0.189880863528092	-0.901116322752242
-0.189880863528092	0.14116361961081
-0.189880863528092	0.511661836643207
-0.189880863528092	-0.144015609901939
-0.189880863528092	0.133858661043084
-0.189880863528092	-0.144781031021563
-0.189880863528092	-0.417255533766775
-0.189880863528092	-0.308701079636011
-0.189880863528092	0.0397538399892473
-0.189880863528092	0.16485081396458
-0.189880863528092	0.0692422473327998
-0.189880863528092	-0.659988473135331
-0.189880863528092	-0.0621377793503024
-0.189880863528092	0.239973314894359
-0.189880863528092	-1.20670749536932
-0.189880863528092	0.245258323727433
-0.189880863528092	-0.973703748848266
-0.189880863528092	-0.544636281956922
-0.189880863528092	-0.149347138956919
-0.189880863528092	0.669415556942926
-0.189880863528092	1.18199728351556
-0.189880863528092	0.325242072539306
-0.189880863528092	-0.0239629884673948
-0.189880863528092	-0.119717419794764
-0.189880863528092	-0.277946401767375
-0.189880863528092	0.455223642188563
-0.189880863528092	-0.00760301103045885
-0.189880863528092	-0.170058636473889
-0.189880863528092	0.686205447965346
-0.189880863528092	0.68728948383214
-0.189880863528092	-0.473295441560794
-0.189880863528092	-0.944388867093043
-0.189880863528092	-1.46677492118047
-0.189880863528092	-0.334750045996821
-0.189880863528092	-0.208094131698277
-0.189880863528092	-0.385093288289717
-0.189880863528092	0.257696186555157
-0.189880863528092	-0.687478555018705
-0.189880863528092	-1.4410708972124
-0.189880863528092	-0.0553488070799937
-0.189880863528092	-0.599778104154691
-0.189880863528092	-0.128750611165128
-0.189880863528092	-0.24931837647086
-0.189880863528092	-0.097230016888574
-0.189880863528092	-0.118388595943579
-0.189880863528092	1.0390041633434
-0.189880863528092	0.533572718867267
-0.189880863528092	-0.365964980900774
-0.189880863528092	-0.216616502967118
-0.189880863528092	0.00115197178308121
-0.189880863528092	0.532510043171629
-0.189880863528092	1.10322905229424
-0.189880863528092	-0.194854869368348
-0.189880863528092	-0.744370918597409
-0.189880863528092	-0.485168419672384
-0.189880863528092	0.698334599034742
-0.189880863528092	0.246297018966882
-0.189880863528092	-0.0408066018573058
-0.189880863528092	-0.395573658098194
-0.189880863528092	-0.430321095487101
-0.189880863528092	0.78799487419054
-0.189880863528092	0.0131117940902876
-0.189880863528092	-0.586111833735314
-0.189880863528092	0.67827391772402
-0.189880863528092	-0.444244742655163
-0.189880863528092	0.343479987101238
-0.189880863528092	-0.553589687776656
-0.189880863528092	-0.139772173347502
-0.189880863528092	-0.294021145214139
-0.189880863528092	-0.0821325219862623
-0.189880863528092	-0.172455192479936
-0.189880863528092	0.081375073612304
-0.189880863528092	0.564925432058348
-0.189880863528092	-0.228416395435546
-0.189880863528092	0.531119912182332
-0.189880863528092	-0.378032172411384
-0.189880863528092	-0.0143885712965506
-0.189880863528092	0.0510934139241657
-0.189880863528092	-0.462265218844219
-0.189880863528092	-0.234727453456377
-0.189880863528092	-0.759520416423423
-0.189880863528092	-1.27539722188529
-0.189880863528092	0.237499154406224
-0.189880863528092	-0.15052186549641
-0.189880863528092	-0.673757635484541
-0.189880863528092	0.35087668288803
-0.189880863528092	-0.783942795437256
-0.189880863528092	0.690038745724035
-0.189880863528092	-0.0846718172308411
-0.189880863528092	0.0913346511436588
-0.189880863528092	0.730625839586579
-0.189880863528092	1.0583176262236
-0.189880863528092	-0.362883295561038
-0.189880863528092	0.136100878381706
-0.189880863528092	-0.83501626699539
-0.189880863528092	0.249343577843318
-0.189880863528092	0.288666242047537
-0.189880863528092	0.612012383470126
-0.189880863528092	-0.570056789284847
-0.189880863528092	0.512937475951649
-0.189880863528092	0.369766442622493
-0.189880863528092	0.0681511814689589
-0.189880863528092	-0.249380089550526
-0.189880863528092	-0.102981457487818
-0.189880863528092	-0.236423726657066
-0.189880863528092	0.211449291784066
-0.189880863528092	0.22097689737861
-0.189880863528092	-0.548475378602072
-0.189880863528092	-0.233223212768333
-0.189880863528092	-0.372331634820497
-0.189880863528092	-0.65537143981171
-0.189880863528092	-0.0423077809813451
-0.189880863528092	-0.683032065077979
-0.189880863528092	-0.305531523047234
-0.189880863528092	-1.06857030778028
-0.189880863528092	0.072774769123462
-0.189880863528092	-0.402832171070241
-0.189880863528092	0.357922547007591
-0.189880863528092	-0.00533044311844653
-0.189880863528092	-0.442433647617943
-0.189880863528092	0.390217886624655
-0.189880863528092	-0.129522498516964
-0.189880863528092	-0.0596578667831499
-0.189880863528092	0.138190866653275
-0.189880863528092	0.497855943835223
-0.189880863528092	-0.348747195012146
-0.189880863528092	-0.359995554749466
-0.189880863528092	-0.615144132743865
-0.189880863528092	-0.106791959828188
-0.189880863528092	-0.876371215834697
-0.189880863528092	-0.64022701821756
-0.189880863528092	-0.366097647616757
-0.189880863528092	0.259028659929534
-0.189880863528092	0.0749391616756634
-0.189880863528092	-0.0342176658348475
-0.189880863528092	-0.475273824265364
-0.189880863528092	0.363597760616908
-0.189880863528092	-0.523499729178311
-0.189880863528092	-0.895353978840814
-0.189880863528092	-0.265942542830322
-0.189880863528092	-0.22826277452744
-0.189880863528092	-0.13037296642354
-0.189880863528092	-0.0100531240585633
-0.189880863528092	-0.381938803977268
-0.189880863528092	-0.455036015787402
-0.189880863528092	0.019521253239652
-0.189880863528092	-0.206187349765782
-0.189880863528092	1.24632605364253
-0.189880863528092	-0.204973470093933
-0.189880863528092	0.118576708100308
-0.189880863528092	-0.408418031027439
-0.189880863528092	-0.387673903279949
-0.189880863528092	-0.087675237031697
-0.189880863528092	-0.0871942577606166
-0.189880863528092	-0.147273019924622
-0.189880863528092	-1.15177379283409
-0.189880863528092	0.39069673964501
-0.189880863528092	-0.0353216616644896
-0.189880863528092	0.244219670620144
-0.189880863528092	-0.269420125757345
-0.189880863528092	0.278793759984707
-0.189880863528092	0.164010096798061
-0.189880863528092	-0.0894891581197066
-0.189880863528092	-0.0422245756183059
-0.189880863528092	0.0998788216265128
-0.189880863528092	0.0394536148795976
-0.189880863528092	0.521688046453262
-0.189880863528092	0.46858744896861
-0.189880863528092	-0.126988096817535
-0.189880863528092	-0.182101317781844
-0.189880863528092	0.289690006340258
-0.189880863528092	-0.556818941297266
-0.189880863528092	0.564916661834541
-0.189880863528092	-0.788498099568939
-0.189880863528092	-0.0241134934598075
-0.189880863528092	-1.0198390595222
-0.189880863528092	0.751015609915917
-0.189880863528092	-0.577975279559174
-0.189880863528092	-0.097425833365323
-0.189880863528092	-0.826180453639263
-0.189880863528092	-0.595501200293918
-0.189880863528092	0.488259412815252
-0.189880863528092	0.142425281188969
-0.189880863528092	0.0406615512946292
-0.189880863528092	0.168083267474792
-0.189880863528092	0.411567430899385
-0.189880863528092	-0.37304059015152
-0.189880863528092	1.21994788263086
-0.189880863528092	-0.558754023128991
-0.189880863528092	-0.83088957539272
-0.189880863528092	-0.537261150175488
-0.189880863528092	0.408331284243734
-0.189880863528092	0.0973437815368817
-0.189880863528092	0.367499071059312
-0.189880863528092	0.270664102734351
-0.189880863528092	0.333790223599132
-0.189880863528092	-0.102831960389979
-0.189880863528092	0.234322931215259
-0.189880863528092	-0.957807339601615
-0.189880863528092	-0.155532913945891
-0.189880863528092	-0.148245062677798
-0.189880863528092	-0.47641476121245
-0.189880863528092	-0.53077554755281
-0.189880863528092	-0.00758589939560411
-0.189880863528092	1.21931473700474
-0.189880863528092	1.28368806881721
-0.189880863528092	0.0336673723224055
-0.189880863528092	-0.189881471544124
-0.189880863528092	0.0150430556789283
-0.189880863528092	0.451777863955811
-0.189880863528092	-0.483923550511159
-0.189880863528092	0.304264986833251
-0.189880863528092	-0.373694724549262
-0.189880863528092	-0.0320296167892471
-0.189880863528092	0.401758323699049
-0.189880863528092	0.281573881052961
-0.189880863528092	0.25640146285333
-0.189880863528092	-0.738925093916613
-0.189880863528092	0.1821416614623
-0.189880863528092	0.201769273261276
-0.189880863528092	-0.537865122917225
-0.189880863528092	-0.145158643840686
-0.189880863528092	0.261256918506837
-0.189880863528092	-0.299665639211696
-0.189880863528092	-0.341243931689893
-0.189880863528092	0.0187495208198664
-0.189880863528092	0.304775825440623
-0.189880863528092	0.540723775223933
-0.189880863528092	-0.307223963799655
-0.189880863528092	-0.161600538531593
-0.189880863528092	0.142820269882513
-0.189880863528092	0.0168165754213823
-0.189880863528092	-0.227854346693096
-0.189880863528092	-0.62291901201371
-0.189880863528092	0.176740660425279
-0.189880863528092	-0.0147764404250782
-0.189880863528092	-1.04189816273376
-0.189880863528092	0.173522655798144
-0.189880863528092	0.630645814139578
-0.189880863528092	-0.0251802457997805
-0.189880863528092	-0.677322564707024
-0.189880863528092	0.109516835725965
-0.189880863528092	-0.0707432271952028
-0.189880863528092	0.19028733501712
-0.189880863528092	-0.857243552591616
-0.189880863528092	-0.364362804125422
-0.189880863528092	0.336258789837242
-0.189880863528092	0.516297139345631
-0.189880863528092	0.0176253473513993
-0.189880863528092	-0.728213900094661
-0.189880863528092	-0.165577365379257
-0.189880863528092	0.32988763292716
-0.189880863528092	0.00574534491442596
-0.189880863528092	-0.455614791822762
-0.189880863528092	-0.294055611967566
-0.189880863528092	1.06065042443662
-0.189880863528092	0.81108068051034
-0.189880863528092	-0.147054967870698
-0.189880863528092	-0.0588220752027903
-0.189880863528092	-1.42303935618046
-0.189880863528092	-0.852626421353505
-0.189880863528092	-0.226554978035088
-0.189880863528092	0.322291757769732
-0.189880863528092	-0.343515191431912
-0.189880863528092	0.699190808854588
-0.189880863528092	0.0320833464734632
-0.189880863528092	-0.703709310593193
-0.189880863528092	-0.60675703222289
-0.189880863528092	1.17531174439106
-0.189880863528092	-0.0488796564492979
-0.189880863528092	-0.684100743054479
-0.189880863528092	-0.292147265428015
-0.189880863528092	0.700824813252712
-0.189880863528092	-1.15998993092405
-0.189880863528092	-0.172736215920711
-0.189880863528092	-1.31459717467285
-0.189880863528092	0.685079265530503
-0.189880863528092	0.166211803216594
-0.189880863528092	-0.728461655747319
-0.189880863528092	-0.644072420607972
-0.189880863528092	-0.666037992023686
-0.189880863528092	-0.10222601520522
-0.189880863528092	-1.21600639825659
-0.189880863528092	-0.383816364336619
-0.189880863528092	0.673221529955125
-0.189880863528092	0.0558885732096574
-0.189880863528092	-0.547358808232138
-0.189880863528092	-0.0475711977938411
-0.189880863528092	-0.464014452147456
-0.189880863528092	0.417625085583758
-0.189880863528092	-0.213051871493589
-0.189880863528092	0.893038290683825
-0.189880863528092	-0.0399610618242483
-0.189880863528092	0.0912759040755246
-0.189880863528092	-0.618078401692057
-0.189880863528092	0.0227460865676949
-0.189880863528092	-0.883667034690341
-0.189880863528092	-0.565642221727542
-0.189880863528092	0.615071276412684
-0.189880863528092	0.0224729265906875
-0.189880863528092	-0.125534600110102
-0.189880863528092	0.5421257531968
-0.189880863528092	-0.544395775888858
-0.189880863528092	-0.968616859036877
-0.189880863528092	-0.195527086630859
-0.189880863528092	0.345264702866959
-0.189880863528092	0.0707679523943776
-0.189880863528092	-0.2736090795785
-0.189880863528092	-0.55627259102251
-0.189880863528092	-0.409421362296214
-0.189880863528092	-0.571027003889557
-0.189880863528092	0.724288819356575
-0.189880863528092	-0.0702526194280071
-0.189880863528092	0.400676991370376
-0.189880863528092	-0.282912457389248
-0.189880863528092	-0.000419712159484276
-0.189880863528092	-0.0426678161834946
-0.189880863528092	0.894398930007851
-0.189880863528092	0.0255347268541686
-0.189880863528092	-0.401979957345411
-0.189880863528092	-0.205974541148506
-0.189880863528092	-0.296564738306435
-0.189880863528092	-0.453699291369385
-0.189880863528092	0.493975333747263
-0.189880863528092	0.720057257088205
-0.189880863528092	0.729186469378013
-0.189880863528092	0.646633760828973
-0.189880863528092	0.324300190253203
-0.189880863528092	0.834143907919808
-0.189880863528092	-0.378032280261266
-0.189880863528092	-0.7012576868636
-0.189880863528092	0.867474710543864
-0.189880863528092	0.221335982098679
-0.189880863528092	-0.221275935274635
-0.189880863528092	0.310876677837492
-0.189880863528092	-0.70116832457172
-0.189880863528092	0.447681340936573
-0.189880863528092	0.0897951901858481
-0.189880863528092	-1.09464003291867
-0.189880863528092	-0.337190800664061
-0.189880863528092	0.217160834552175
-0.189880863528092	-0.0118713131332303
-0.189880863528092	-0.363229564335835
-0.189880863528092	0.788519157395349
-0.189880863528092	0.818534619214262
-0.189880863528092	0.449561974169139
-0.189880863528092	0.0977989119540964
-0.189880863528092	-0.227266750205817
-0.189880863528092	0.236967413919421
-0.189880863528092	-1.27874377117636
-0.189880863528092	-0.943764584267778
-0.189880863528092	0.190841546410934
-0.189880863528092	0.316925625205971
-0.189880863528092	0.497118933855841
-0.189880863528092	0.175755247301677
-0.189880863528092	-0.209544460270993
-0.189880863528092	0.729932528523937
-0.189880863528092	-0.112584313319417
-0.189880863528092	-0.175443496927439
-0.189880863528092	0.454706471594174
-0.189880863528092	-0.0764932449547982
-0.189880863528092	-1.09147846492818
-0.189880863528092	0.206859443102952
-0.189880863528092	1.03716686706872
-0.189880863528092	-0.9431940264645
-0.189880863528092	0.0456041532271972
-0.189880863528092	0.011127686172873
-0.189880863528092	-0.429227975966866
-0.189880863528092	0.700234107945554
-0.189880863528092	0.233387753848426
-0.189880863528092	-0.848390500059731
-0.189880863528092	-0.440880081663567
-0.189880863528092	0.56041107169864
-0.189880863528092	0.252098336315576
-0.189880863528092	0.112347261443047
-0.189880863528092	-1.22178119050852
-0.189880863528092	0.729665004451341
-0.189880863528092	-0.53968832249954
-0.189880863528092	0.411067561448743
-0.189880863528092	-0.867688701736517
-0.189880863528092	0.165353137989997
-0.189880863528092	-0.14644789448174
-0.189880863528092	-0.456861258336547
-0.189880863528092	-0.202872673409057
-0.189880863528092	-0.802869934306045
-0.189880863528092	0.44622232472983
-0.189880863528092	0.473911034418266
-0.189880863528092	0.545428242744434
-0.189880863528092	0.405181739143753
-0.189880863528092	0.542313019407568
-0.189880863528092	0.593466472971267
-0.189880863528092	0.523342184078314
-0.189880863528092	-0.125800882666175
-0.189880863528092	0.824951878313996
-0.189880863528092	-0.264606956257702
-0.189880863528092	-0.684883804351011
-0.189880863528092	-0.484090947799432
-0.189880863528092	0.0447785330746935
-0.189880863528092	-0.0535669453544879
-0.189880863528092	-0.161652428721661
-0.189880863528092	-0.410400599938776
-0.189880863528092	-0.803245394859393
-0.189880863528092	-0.059744325098165
-0.189880863528092	-0.246231930413757
-0.189880863528092	0.553076702526051
-0.189880863528092	0.273169723887976
-0.189880863528092	0.657641592182581
-0.189880863528092	0.661601182449288
-0.189880863528092	-0.0828342805982094
-0.189880863528092	-0.973344743317493
-0.189880863528092	0.48817712340754
-0.189880863528092	0.350009877275186
-0.189880863528092	0.14091474272494
-0.189880863528092	0.888248776681899
-0.189880863528092	-1.12572008649198
-0.189880863528092	-1.60079774548829
-0.189880863528092	-0.302217199088305
-0.189880863528092	0.879986662315768
-0.189880863528092	0.527559550031539
-0.189880863528092	0.156880455282501
-0.189880863528092	0.281290081859028
-0.189880863528092	-0.640581958202155
-0.189880863528092	0.26005578260273
-0.189880863528092	-3.62412556295377e-05
-0.189880863528092	-0.658934937879777
-0.189880863528092	-0.395346027764887
-0.189880863528092	0.100407747439453
-0.189880863528092	0.263853807039466
-0.189880863528092	0.143703325432334
-0.189880863528092	0.604705781156557
-0.189880863528092	0.97301351818888
-0.189880863528092	0.510659115065117
-0.189880863528092	-0.136065806782608
-0.189880863528092	-0.713941257985171
-0.189880863528092	0.224931506040975
-0.189880863528092	-1.17879885859102
-0.189880863528092	-0.121853132464709
-0.189880863528092	-0.493146657048275
-0.189880863528092	-0.936227633075809
-0.189880863528092	-0.208553244808789
-0.189880863528092	-0.626600539739566
-0.189880863528092	0.112880097968164
-0.189880863528092	0.693976703927538
-0.189880863528092	-0.267499043070384
-0.189880863528092	-0.33048475466145
-0.189880863528092	0.629761923874804
-0.189880863528092	-0.89846479629615
-0.189880863528092	0.0764907092053486
-0.189880863528092	-0.970609682670802
-0.189880863528092	0.00728949567476944
-0.189880863528092	0.650194457786986
-0.189880863528092	-0.504441103975108
-0.189880863528092	0.819453049927135
-0.189880863528092	0.337905676754392
-0.189880863528092	-0.356738538803435
-0.189880863528092	-0.276845019457656
-0.189880863528092	-0.404528618971017
-0.189880863528092	-0.879789270058806
-0.189880863528092	0.443682467485113
-0.189880863528092	0.343104135034084
-0.189880863528092	0.467063377360283
-0.189880863528092	0.100826762030811
-0.189880863528092	0.595834051436694
-0.189880863528092	-0.334565889984074
-0.189880863528092	0.846429594234165
-0.189880863528092	0.479161163127599
-0.189880863528092	-0.923605478100483
-0.189880863528092	0.111047345450333
-0.189880863528092	-0.513475981406631
-0.189880863528092	-0.583648774958219
-0.189880863528092	-0.223813460426882
-0.189880863528092	-0.544290562754778
-0.189880863528092	-0.479593644849927
-0.189880863528092	-0.585620690802795
-0.189880863528092	-0.847611183491792
-0.189880863528092	-0.335365796065427
-0.189880863528092	0.452748052488353
-0.189880863528092	-0.399790697271795
-0.189880863528092	0.774806345050378
-0.189880863528092	-0.55766920078326
-0.189880863528092	0.843895041502814
-0.189880863528092	0.678203631360839
-0.189880863528092	0.81173863758163
-0.189880863528092	-0.290455535265474
-0.189880863528092	-0.920781746650956
-0.189880863528092	0.162419478701274
-0.189880863528092	0.346551226883831
-0.189880863528092	-0.00197982913108866
-0.189880863528092	-0.91750842898021
-0.189880863528092	-0.310803965246486
-0.189880863528092	-0.0262088166305475
-0.189880863528092	-0.574128513931453
-0.189880863528092	-0.944606842212838
-0.189880863528092	-0.404591329977206
-0.189880863528092	0.915131144207893
-0.189880863528092	-0.407697950236443
-0.189880863528092	0.292354223927963
-0.189880863528092	-0.977449796124176
-0.189880863528092	-0.112584579242844
-0.189880863528092	-0.364206037637848
-0.189880863528092	-0.353454613892949
-0.189880863528092	-0.347958668220223
-0.189880863528092	-0.229386323896977
-0.189880863528092	-0.654326184236747
-0.189880863528092	0.690987839774396
-0.189880863528092	0.0446158945573017
-0.189880863528092	0.876741572673348
-0.189880863528092	-0.414938294058448
-0.189880863528092	-0.400318882757017
-0.189880863528092	-0.054730444059385
-0.189880863528092	0.740020827034812
-0.189880863528092	0.434846531914103
-0.189880863528092	-1.25185510785357
-0.189880863528092	-0.0478530049828198
-0.189880863528092	-0.806101329126454
-0.189880863528092	-0.873884418366487
-0.189880863528092	-0.668064970745153
-0.189880863528092	-0.162202302254449
-0.189880863528092	0.456211837966696
-0.189880863528092	-0.62429163338858
-0.189880863528092	0.262192464577765
-0.189880863528092	-0.347556221452119
-0.189880863528092	-0.693103269321381
-0.189880863528092	-0.0955827680035584
-0.189880863528092	1.70108725526238
-0.189880863528092	0.00204389241522862
-0.189880863528092	-0.904075942526549
-0.189880863528092	0.0499423777853563
-0.189880863528092	0.047038754800347
-0.189880863528092	-0.522817598213514
-0.189880863528092	-0.0762839629890402
-0.189880863528092	0.571179463789991
-0.189880863528092	-0.591558162455543
-0.189880863528092	-0.66720603636876
-0.189880863528092	0.995211325562925
-0.189880863528092	-0.286458792888733
-0.189880863528092	0.459019637753001
-0.189880863528092	-0.546880034148959
-0.189880863528092	0.417989394819551
-0.189880863528092	0.311504134549844
-0.189880863528092	0.202869090125296
-0.189880863528092	-0.0644847274995485
-0.189880863528092	-0.894169620769708
-0.189880863528092	-0.446428556948452
-0.189880863528092	-0.247441398093471
-0.189880863528092	-0.48124589940388
-0.189880863528092	0.176077248139323
-0.189880863528092	-0.897420461934177
-0.189880863528092	0.892119896753285
-0.189880863528092	-0.298606695335349
-0.189880863528092	-0.748540385597044
-0.189880863528092	-0.352816308305822
-0.189880863528092	-1.18361220280176
-0.189880863528092	1.2706656547258
-0.189880863528092	0.0438047663710099
-0.189880863528092	0.322885889385106
-0.189880863528092	-0.144435820837034
-0.189880863528092	-0.308407645749171
-0.189880863528092	-0.360627345589741
-0.189880863528092	-0.51713631368607
-0.189880863528092	-0.694546720561362
-0.189880863528092	0.0924105811972927
-0.189880863528092	-0.107827758129087
-0.189880863528092	-0.632935201722113
-0.189880863528092	0.840538909359314
-0.189880863528092	-0.951692758314483
-0.189880863528092	0.11899545963696
-0.189880863528092	0.650832193044482
-0.189880863528092	-0.764814442220494
-0.189880863528092	-1.04115453202474
-0.189880863528092	-0.748067615352145
-0.189880863528092	-1.23986961958673
-0.189880863528092	-0.205680733506611
-0.189880863528092	0.524950918583319
-0.189880863528092	0.0473854144897571
-0.189880863528092	-0.0553652120256908
-0.189880863528092	-0.0068303038458038
-0.189880863528092	0.373126034794327
-0.189880863528092	0.41778933616088
-0.189880863528092	-0.615093425656552
-0.189880863528092	-1.45850851821979
-0.189880863528092	0.0447961360103577
-0.189880863528092	-0.412295778230422
-0.189880863528092	-0.199350188550868
-0.189880863528092	-0.460214347553142
-0.189880863528092	0.575843631201922
-0.189880863528092	-0.186401382831585
-0.189880863528092	-0.0687603200128294
-0.189880863528092	-0.695903068030809
-0.189880863528092	-1.0285241109431
-0.189880863528092	-0.100899577758954
-0.189880863528092	0.894019978888883
-0.189880863528092	0.159116427263234
-0.189880863528092	0.280642892031698
-0.189880863528092	0.865189073799807
-0.189880863528092	0.142833141844801
-0.189880863528092	-0.740813904851534
-0.189880863528092	0.808038063688137
-0.189880863528092	-0.933420087018964
-0.189880863528092	0.38184411256984
-0.189880863528092	0.440636122151295
-0.189880863528092	-0.474378325916243
-0.189880863528092	-0.188943548097907
-0.189880863528092	0.199902288901791
-0.189880863528092	-0.311883117490806
-0.189880863528092	-0.30888863506224
-0.189880863528092	0.374292397669103
-0.189880863528092	1.35970212953068
-0.189880863528092	-0.255248608892428
-0.189880863528092	0.383967677751693
-0.189880863528092	0.274342709860445
-0.189880863528092	-0.103934056771908
-0.189880863528092	-1.56329723782645
-0.189880863528092	-0.230459418024435
-0.189880863528092	0.246822134249415
-0.189880863528092	-0.422750216383149
-0.189880863528092	0.621055849782597
-0.189880863528092	-0.636869619216965
-0.189880863528092	-0.391095219576093
-0.189880863528092	0.269001588486878
-0.189880863528092	-0.696051041238048
-0.189880863528092	0.456129618341265
-0.189880863528092	0.291371143909202
-0.189880863528092	0.235458416226396
-0.189880863528092	0.28131615572106
-0.189880863528092	-0.294081359237016
-0.189880863528092	0.154946993619732
-0.189880863528092	-1.08975405954871
-0.189880863528092	-0.427268314141315
-0.189880863528092	0.755618448205567
-0.189880863528092	0.332280096641181
-0.189880863528092	-0.493373174293543
-0.189880863528092	-0.601695935055401
-0.189880863528092	-0.477191109259764
-0.189880863528092	0.589660245965503
-0.189880863528092	-0.88788225431934
-0.189880863528092	0.0101169299531948
-0.189880863528092	-1.16044500796321
-0.189880863528092	0.634643489195396
-0.189880863528092	0.139459718056268
-0.189880863528092	-0.213727993919323
-0.189880863528092	-0.847557267900672
-0.189880863528092	-0.429446115352724
-0.189880863528092	0.828162775276107
-0.189880863528092	-0.283939441252864
-0.189880863528092	-0.371654698265772
-0.189880863528092	-0.577614710065513
-0.189880863528092	-0.338613916451051
-0.189880863528092	0.0526419722848813
-0.189880863528092	0.272099142222572
-0.189880863528092	-0.00616472187844962
-0.189880863528092	0.367763023296123
-0.189880863528092	-0.100132709054103
-0.189880863528092	-0.512820696849596
-0.189880863528092	-1.07435218561493
-0.189880863528092	-0.935419928512819
-0.189880863528092	0.0964934252949632
-0.189880863528092	-0.0833646515080978
-0.189880863528092	0.0979160846193213
-0.189880863528092	0.694336661357684
-0.189880863528092	-0.889975478885788
-0.189880863528092	-0.286765590077224
-0.189880863528092	-0.762455824910756
-0.189880863528092	-0.729956845729267
-0.189880863528092	-0.685927219057906
-0.189880863528092	-0.54426959688202
-0.189880863528092	-0.0247514762559603
-0.189880863528092	-0.24595063587446
-0.189880863528092	-0.204797058087556
-0.189880863528092	0.701517373904591
-0.189880863528092	0.792456216368249
-0.189880863528092	-0.274112558494083
-0.189880863528092	0.562216403935894
-0.189880863528092	0.677633555895726
-0.189880863528092	0.0984372021806624
-0.189880863528092	-0.269751345206443
-0.189880863528092	1.13304605269573
-0.189880863528092	-0.271144950638708
-0.189880863528092	0.0729929235868582
-0.189880863528092	0.183535518836827
-0.189880863528092	-0.884283560098715
-0.189880863528092	0.175572252507733
-0.189880863528092	0.21677905213725
-0.189880863528092	0.27309890681574
-0.189880863528092	0.051466309879894
-0.189880863528092	0.426617287619071
-0.189880863528092	0.416201398098548
-0.189880863528092	-0.120460838292476
-0.189880863528092	0.136230868771093
-0.189880863528092	1.09472356177289
-0.189880863528092	0.358722168267285
-0.189880863528092	0.246025338295217
-0.189880863528092	0.871735146514904
-0.189880863528092	-0.408839635187758
-0.189880863528092	1.15421943044861
-0.189880863528092	-0.722633967518644
-0.189880863528092	-0.669851103196234
-0.189880863528092	-1.42289372909509
-0.189880863528092	0.721761900428145
-0.189880863528092	0.210850018139456
-0.189880863528092	0.109145045186691
-0.189880863528092	0.401554809156198
-0.189880863528092	-0.166170982283264
-0.189880863528092	-0.474738661104663
-0.189880863528092	0.660318320652055
-0.189880863528092	0.359166501455698
-0.189880863528092	-0.826682137972739
-0.189880863528092	-0.673908138030027
-0.189880863528092	0.378772029564057
-0.189880863528092	0.209843050874794
-0.189880863528092	0.393604369419504
-0.189880863528092	-0.74521619594622
-0.189880863528092	-0.59199950493714
-0.189880863528092	0.303635394055689
-0.189880863528092	0.057118999703104
-0.189880863528092	-0.705003784814532
-0.189880863528092	0.0979174601548252
-0.189880863528092	0.408301485052739
-0.189880863528092	-0.699644814452645
-0.189880863528092	-0.867481571249921
-0.189880863528092	-0.953797798771037
-0.189880863528092	-0.705485977775234
-0.189880863528092	-0.686686723725748
-0.189880863528092	0.332022541616929
-0.189880863528092	-0.535837768623365
-0.189880863528092	0.000159606700776277
-0.189880863528092	0.319328467825917
-0.189880863528092	-0.191490857663161
-0.189880863528092	0.475562773316102
-0.189880863528092	0.597115102483736
-0.189880863528092	0.188760940866084
-0.189880863528092	-0.673797789072771
-0.189880863528092	-0.220323681385556
-0.189880863528092	0.499760875407973
-0.189880863528092	0.103784070450826
-0.189880863528092	-0.124488287230087
-0.189880863528092	1.08904977287033
-0.189880863528092	-0.672980250519701
-0.189880863528092	0.191826260181822
-0.189880863528092	0.0324815289940966
-0.189880863528092	-0.318092203857216
-0.189880863528092	-0.0743801004128379
-0.189880863528092	-0.684994144667065
-0.189880863528092	-0.253188141285158
-0.189880863528092	-0.203035797691306
-0.189880863528092	-0.395329552376213
-0.189880863528092	-0.376763268835545
-0.189880863528092	-0.610521850898028
-0.189880863528092	0.653583648640658
-0.189880863528092	-0.117770557908204
-0.189880863528092	0.507715370899976
-0.189880863528092	0.495225721361517
-0.189880863528092	-0.298929809796068
-0.189880863528092	0.552541453281276
-0.189880863528092	-0.605874055249974
-0.189880863528092	-0.0616929948772835
-0.189880863528092	0.808438150313604
-0.189880863528092	-0.203065260229648
-0.189880863528092	0.146532146463105
-0.189880863528092	-1.02514107030549
-0.189880863528092	-0.499340666619003
-0.189880863528092	-0.77953440806062
-0.189880863528092	-1.34140789546657
-0.189880863528092	-0.657415001240288
-0.189880863528092	0.506720023255929
-0.189880863528092	0.630515014448119
-0.189880863528092	-0.292371212651758
-0.189880863528092	-0.214825876002249
-0.189880863528092	0.120875987986829
-0.189880863528092	-0.530646230867659
-0.189880863528092	0.219239354230759
-0.189880863528092	0.551721842306218
-0.189880863528092	0.422907097893726
-0.189880863528092	0.24866573821369
-0.189880863528092	0.252449405979908
-0.189880863528092	-0.369030730308799
-0.189880863528092	-0.155197128476844
-0.189880863528092	-0.0785340044854978
-0.189880863528092	-0.00717838294354889
-0.189880863528092	-0.998223576267825
-0.189880863528092	0.500072599667222
-0.189880863528092	0.166390922316714
-0.189880863528092	0.786676219736551
