V1	V2
-0.179258291176888	0.157611320507625
-0.179258291176888	0.00141432682232631
-0.179258291176888	-0.518874931419072
-0.179258291176888	0.203310259865119
-0.179258291176888	-0.257521369317628
-0.179258291176888	-0.799251316875569
-0.179258291176888	-0.0630337493594549
-0.179258291176888	0.635267817999577
-0.179258291176888	-0.573240778453807
-0.179258291176888	0.0333527577889577
-0.179258291176888	-0.21338260564179
-0.179258291176888	-0.481000560558244
-0.179258291176888	0.121134240346181
-0.179258291176888	-0.171697450248858
-0.179258291176888	-0.617616802723732
-0.179258291176888	0.12742949661812
-0.179258291176888	-0.299300797195185
-0.179258291176888	0.417072830695435
-0.179258291176888	0.051531736332466
-0.179258291176888	0.135892666940119
-0.179258291176888	0.54180727898728
-0.179258291176888	-0.475827192136576
-0.179258291176888	0.441639250252245
-0.179258291176888	-0.0799224327996533
-0.179258291176888	-0.63924058335586
-0.179258291176888	0.37521650330631
-0.179258291176888	-0.242370705197325
-0.179258291176888	0.0100071585873804
-0.179258291176888	-0.320355294943788
-0.179258291176888	0.133965973692782
-0.179258291176888	0.399756495601131
-0.179258291176888	-0.605151072491959
-0.179258291176888	0.0927732436286237
-0.179258291176888	0.416140402941065
-0.179258291176888	-0.710995738589992
-0.179258291176888	0.00260491311277233
-0.179258291176888	-0.339842844603862
-0.179258291176888	0.385367413440404
-0.179258291176888	-0.499523768802454
-0.179258291176888	0.269575880872805
-0.179258291176888	-0.38346972874564
-0.179258291176888	0.314946669881667
-0.179258291176888	0.587220612770768
-0.179258291176888	0.586026405297094
-0.179258291176888	0.263129166552516
-0.179258291176888	-0.0809183668360647
-0.179258291176888	-0.807891403139375
-0.179258291176888	-0.333876902620343
-0.179258291176888	-0.248315360700669
-0.179258291176888	0.489729772091734
-0.179258291176888	-0.417167899425398
-0.179258291176888	1.26104364472228
-0.179258291176888	0.215236850231631
-0.179258291176888	-0.5718508341482
-0.179258291176888	-0.482475493183278
-0.179258291176888	-0.14189097118933
-0.179258291176888	0.256698681004879
-0.179258291176888	0.100362257923828
-0.179258291176888	0.326961761945857
-0.179258291176888	-0.690073583619159
-0.179258291176888	0.555663004523662
-0.179258291176888	-0.0337554686236314
-0.179258291176888	-0.709981246805356
-0.179258291176888	-0.824253579295446
-0.179258291176888	-0.47611529360328
-0.179258291176888	0.168451973580209
-0.179258291176888	0.273027995418513
-0.179258291176888	-0.302629598170268
-0.179258291176888	-0.326073620630269
-0.179258291176888	-0.643270435428506
-0.179258291176888	-0.196679136152698
-0.179258291176888	-0.194086934608181
-0.179258291176888	-0.459698371412645
-0.179258291176888	-0.0171286729664811
-0.179258291176888	-0.200237265354222
-0.179258291176888	-0.13264634999032
-0.179258291176888	-0.724714197556351
-0.179258291176888	-0.266003762320483
-0.179258291176888	0.0807659375244436
-0.179258291176888	0.134624605523366
-0.179258291176888	1.18356865414743
-0.179258291176888	0.0993329974154784
-0.179258291176888	0.00278132615117994
-0.179258291176888	-0.25279728482582
-0.179258291176888	-0.53923356103371
-0.179258291176888	-0.0636037247532656
-0.179258291176888	0.0552092136893078
-0.179258291176888	-0.109872453260306
-0.179258291176888	-0.0506678419234028
-0.179258291176888	-0.0697303848712215
-0.179258291176888	0.357721359984633
-0.179258291176888	-0.627812229058577
-0.179258291176888	-0.155322787980576
-0.179258291176888	-0.198200632625318
-0.179258291176888	0.246446556773369
-0.179258291176888	-0.515571008166267
-0.179258291176888	-0.707578837687489
-0.179258291176888	0.145637281005076
-0.179258291176888	-0.173075574397039
-0.179258291176888	0.024332939381398
-0.179258291176888	0.134535896489139
-0.179258291176888	-0.123438450183667
-0.179258291176888	0.303761379820027
-0.179258291176888	-0.152235479772581
-0.179258291176888	0.0245631168503513
-0.179258291176888	0.418030866394677
-0.179258291176888	0.245630146010659
-0.179258291176888	-0.316795738275881
-0.179258291176888	0.0376170319269394
-0.179258291176888	0.201001750789678
-0.179258291176888	0.25659635113579
-0.179258291176888	-0.0856809662187864
-0.179258291176888	0.187739829348784
-0.179258291176888	-0.642305037491666
-0.179258291176888	0.061995717783837
-0.179258291176888	0.307175445736575
-0.179258291176888	0.417455308656838
-0.179258291176888	-0.100167839706101
-0.179258291176888	-0.557460600011441
-0.179258291176888	0.516482024383093
-0.179258291176888	0.406952521435236
-0.179258291176888	-0.222743470136527
-0.179258291176888	-0.857400736700272
-0.179258291176888	-0.353934324776582
-0.179258291176888	-0.749317118127465
-0.179258291176888	-0.130215088463096
-0.179258291176888	0.0131089779526152
-0.179258291176888	-0.14748126973274
-0.179258291176888	-0.531970338815307
-0.179258291176888	-0.059790925704509
-0.179258291176888	0.168746625196761
-0.179258291176888	0.478258013255199
-0.179258291176888	-0.0664715414510058
-0.179258291176888	0.908696654122676
-0.179258291176888	-0.214247789434107
-0.179258291176888	-0.42387674638776
-0.179258291176888	-0.0436843457428934
-0.179258291176888	-0.146303264340326
-0.179258291176888	-0.11013251925566
-0.179258291176888	0.275163321005315
-0.179258291176888	0.205651314874891
-0.179258291176888	0.0284252709415159
-0.179258291176888	-0.992895630084976
-0.179258291176888	0.725388814951875
-0.179258291176888	-0.532986076357801
-0.179258291176888	-0.199407748378764
-0.179258291176888	-0.177588585788656
-0.179258291176888	0.513661416161023
-0.179258291176888	-0.977722489692906
-0.179258291176888	-0.163583440215277
-0.179258291176888	-0.34985013434997
-0.179258291176888	-0.729651260390712
-0.179258291176888	-0.092475201997226
-0.179258291176888	0.325483877079922
-0.179258291176888	-0.21110976733864
-0.179258291176888	-0.338486416140532
-0.179258291176888	-0.12642355960017
-0.179258291176888	0.270299275780901
-0.179258291176888	-0.0395922931238122
-0.179258291176888	-0.211232391655232
-0.179258291176888	-0.418461846635903
-0.179258291176888	-0.0358218857334096
-0.179258291176888	0.00737950424638921
-0.179258291176888	-1.03497895456415
-0.179258291176888	-0.386005717666606
-0.179258291176888	0.0151480069364573
-0.179258291176888	-0.106110575518725
-0.179258291176888	-0.516143822328836
-0.179258291176888	-0.266321776842655
-0.179258291176888	-0.34879607681512
-0.179258291176888	0.135550830736295
-0.179258291176888	0.0220248120868682
-0.179258291176888	-0.081687290152202
-0.179258291176888	-0.453103213893505
-0.179258291176888	0.108135415773753
-0.179258291176888	0.148652876805882
-0.179258291176888	-0.374405224281911
-0.179258291176888	0.671935630386849
-0.179258291176888	-0.658388690879417
-0.179258291176888	0.246455601204573
-0.179258291176888	0.257486174748299
-0.179258291176888	-0.16650408261656
-0.179258291176888	0.455451150974616
-0.179258291176888	-0.393888503337111
-0.179258291176888	-0.0652256316538313
-0.179258291176888	0.0436921351554889
-0.179258291176888	0.178737655365393
-0.179258291176888	-0.479571211137549
-0.179258291176888	-0.520730729125904
-0.179258291176888	0.146578360068358
-0.179258291176888	0.114622658341062
-0.179258291176888	-0.276851797050787
-0.179258291176888	-0.566124475945468
-0.179258291176888	0.305515971116444
-0.179258291176888	0.452864215856318
-0.179258291176888	0.233812607754679
-0.179258291176888	0.127306254412623
-0.179258291176888	-0.00566309803476109
-0.179258291176888	-0.472657093495098
-0.179258291176888	0.421730541899412
-0.179258291176888	0.447293478433651
-0.179258291176888	-0.276043501777227
-0.179258291176888	0.0268000673935955
-0.179258291176888	0.0363296537262802
-0.179258291176888	-0.088697551298923
-0.179258291176888	-0.471137957217986
-0.179258291176888	-0.312422892093491
-0.179258291176888	0.570293839578416
-0.179258291176888	0.105071643256134
-0.179258291176888	0.346997339462194
-0.179258291176888	-0.0675822430130335
-0.179258291176888	-1.13899829712639
-0.179258291176888	0.428646674153256
-0.179258291176888	-0.291759200944427
-0.179258291176888	-0.140868005486971
-0.179258291176888	-0.0324006533131513
-0.179258291176888	0.292276224028617
-0.179258291176888	0.138881614090527
-0.179258291176888	-0.48855851008935
-0.179258291176888	0.120615910126503
-0.179258291176888	0.396904484470541
-0.179258291176888	-0.497466392548535
-0.179258291176888	-0.0989386484086979
-0.179258291176888	-0.10091689496116
-0.179258291176888	0.566275979643889
-0.179258291176888	-0.890220514546147
-0.179258291176888	0.308022418687046
-0.179258291176888	-0.232133199340521
-0.179258291176888	-0.117987750091411
-0.179258291176888	0.286482629017762
-0.179258291176888	-0.165770754352165
-0.179258291176888	0.531603000928679
-0.179258291176888	-0.159206299839374
-0.179258291176888	-0.112729839402286
-0.179258291176888	-0.389410072093708
-0.179258291176888	0.303514484954938
-0.179258291176888	0.0936064053514434
-0.179258291176888	0.051789325936546
-0.179258291176888	0.204449533851518
-0.179258291176888	0.319244536560284
-0.179258291176888	0.271647118117621
-0.179258291176888	-1.03350159726376
-0.179258291176888	0.197746129806585
-0.179258291176888	-0.0571621481245973
-0.179258291176888	0.0880463442692451
-0.179258291176888	-0.112376621992507
-0.179258291176888	-0.605153512072886
-0.179258291176888	0.250562394256968
-0.179258291176888	0.157688356582478
-0.179258291176888	0.533287003402798
-0.179258291176888	-1.23714623391926
-0.179258291176888	-0.0751686691413834
-0.179258291176888	-0.456867861758516
-0.179258291176888	-0.480376272987924
-0.179258291176888	0.145035762219926
-0.179258291176888	0.0407051712985724
-0.179258291176888	0.128433852342182
-0.179258291176888	-0.17358879772463
-0.179258291176888	-0.468388767149989
-0.179258291176888	0.279750107006273
-0.179258291176888	-0.446237441631155
-0.179258291176888	-0.287849524047327
-0.179258291176888	0.101437071436353
-0.179258291176888	0.567008108417345
-0.179258291176888	-0.720290938530189
-0.179258291176888	-0.232112691374786
-0.179258291176888	-0.0191165376745556
-0.179258291176888	-0.341457519273817
-0.179258291176888	-0.176362135411202
-0.179258291176888	-0.613604920774263
-0.179258291176888	-0.392531528426617
-0.179258291176888	-0.210797493336619
-0.179258291176888	-0.468501982282637
-0.179258291176888	-0.151176370800292
-0.179258291176888	0.302305711877089
-0.179258291176888	-0.274268425857653
-0.179258291176888	0.0814840952879707
-0.179258291176888	0.298900101217029
-0.179258291176888	0.0127746754635671
-0.179258291176888	-0.564767672071756
-0.179258291176888	-0.296402611838868
-0.179258291176888	0.0469512664850186
-0.179258291176888	-0.28181433476384
-0.179258291176888	-0.422644770860888
-0.179258291176888	-0.885788035954532
-0.179258291176888	0.393466470227549
-0.179258291176888	0.120403094593993
-0.179258291176888	-0.54268195819898
-0.179258291176888	-0.264676629324976
-0.179258291176888	-0.515810255043789
-0.179258291176888	-0.0333629729688277
-0.179258291176888	-0.0637624139252405
-0.179258291176888	0.592010915680738
-0.179258291176888	-0.345096631029686
-0.179258291176888	0.179136683233379
-0.179258291176888	-0.0809878075676187
-0.179258291176888	-0.815851977214888
-0.179258291176888	0.0280490296490723
-0.179258291176888	0.479000444470754
-0.179258291176888	0.333872474171929
-0.179258291176888	0.117945502705479
-0.179258291176888	0.0989560676317221
-0.179258291176888	-0.612237771656933
-0.179258291176888	-0.322161088812022
-0.179258291176888	-0.32634958001172
-0.179258291176888	-0.670321768533314
-0.179258291176888	-0.320984682291933
-0.179258291176888	0.40674209521518
-0.179258291176888	-0.208519971949518
-0.179258291176888	-0.514449174286869
-0.179258291176888	0.222814719507472
-0.179258291176888	0.0354919604471882
-0.179258291176888	0.261742721509612
-0.179258291176888	-0.191079237324165
-0.179258291176888	-0.0819632516293917
-0.179258291176888	0.0265192530033404
-0.179258291176888	0.501251465953685
-0.179258291176888	-0.118109241593556
-0.179258291176888	-0.18934218736438
-0.179258291176888	0.646447300477133
-0.179258291176888	-0.349193783712724
-0.179258291176888	-0.0428457143371602
-0.179258291176888	0.304083422127297
-0.179258291176888	0.963406890778642
-0.179258291176888	-0.194723493087966
-0.179258291176888	0.263851268981683
-0.179258291176888	0.626631996468966
-0.179258291176888	-0.112933250433311
-0.179258291176888	0.36178105211203
-0.179258291176888	0.1848366828519
-0.179258291176888	-0.12624398259601
-0.179258291176888	0.273855619402377
-0.179258291176888	0.121931233298947
-0.179258291176888	-0.244790771002315
-0.179258291176888	-0.245377361270249
-0.179258291176888	-0.342289707959106
-0.179258291176888	-0.461632760253669
-0.179258291176888	-0.707478040329348
-0.179258291176888	-0.126542349331927
-0.179258291176888	0.044895016405419
-0.179258291176888	0.416967380843119
-0.179258291176888	0.129379493849183
-0.179258291176888	-0.299216360970392
-0.179258291176888	-0.704291366360392
-0.179258291176888	-0.325693583752671
-0.179258291176888	-0.347022821923352
-0.179258291176888	-1.14376063737426
-0.179258291176888	-0.205807172297012
-0.179258291176888	-0.403292564357709
-0.179258291176888	0.76232065928813
-0.179258291176888	-0.343302276788146
-0.179258291176888	0.419897994797484
-0.179258291176888	-0.198574087350828
-0.179258291176888	0.0306143377339783
-0.179258291176888	0.0754487436607143
-0.179258291176888	-1.17941971872793
-0.179258291176888	-0.373466604228536
-0.179258291176888	0.273805403353348
-0.179258291176888	-0.138668347883586
-0.179258291176888	-0.601077137907794
-0.179258291176888	0.616554196234571
-0.179258291176888	0.941304859561481
-0.179258291176888	-0.0740759550509837
-0.179258291176888	0.0664512113511193
-0.179258291176888	0.00341919956628223
-0.179258291176888	-0.335394359200915
-0.179258291176888	-0.292115218849893
-0.179258291176888	-0.25932248128866
-0.179258291176888	-0.446235941191712
-0.179258291176888	0.203163955813032
-0.179258291176888	0.924257050889518
-0.179258291176888	0.183751586394379
-0.179258291176888	0.276291532528177
-0.179258291176888	-1.47308910047724
-0.179258291176888	0.615737817069735
-0.179258291176888	0.538284379504115
-0.179258291176888	-0.0722547130605092
-0.179258291176888	0.190226507520855
-0.179258291176888	0.0747135673761844
-0.179258291176888	-0.120697687636942
-0.179258291176888	0.659855258941668
-0.179258291176888	-0.138920589636122
-0.179258291176888	0.609557856145779
-0.179258291176888	-0.679127625346806
-0.179258291176888	0.589290220840874
-0.179258291176888	-0.0157834799311764
-0.179258291176888	-0.657809045949017
-0.179258291176888	0.158580656258198
-0.179258291176888	0.4208116744184
-0.179258291176888	-0.226145111807169
-0.179258291176888	-0.199238740008204
-0.179258291176888	-0.343492953590216
-0.179258291176888	-0.480626676885222
-0.179258291176888	-0.428085601039163
-0.179258291176888	-0.0444434546790555
-0.179258291176888	0.548693791742902
-0.179258291176888	0.186653137026923
-0.179258291176888	-0.253495791427449
-0.179258291176888	-0.273608877446956
-0.179258291176888	0.703344283190823
-0.179258291176888	-0.308317602212408
-0.179258291176888	-0.741672567138265
-0.179258291176888	-0.269974897188669
-0.179258291176888	0.26878267434421
-0.179258291176888	-0.742354649288636
-0.179258291176888	-0.0700091034706873
-0.179258291176888	0.354181899797482
-0.179258291176888	0.401482173282363
-0.179258291176888	-0.51749993492163
-0.179258291176888	0.148802519314853
-0.179258291176888	0.143822047668881
-0.179258291176888	-0.290133621349477
-0.179258291176888	0.278637795611914
-0.179258291176888	-0.630838699235988
-0.179258291176888	-0.127474835033504
-0.179258291176888	-0.143197116943846
-0.179258291176888	0.0977944062828719
-0.179258291176888	-0.366379939229673
-0.179258291176888	0.230894865762005
-0.179258291176888	-0.22136496334953
-0.179258291176888	-0.251072880928053
-0.179258291176888	-0.412955617280487
-0.179258291176888	0.235408945477524
-0.179258291176888	-0.204734555148497
-0.179258291176888	-0.0669315040437089
-0.179258291176888	0.315945351546412
-0.179258291176888	0.276372395653428
-0.179258291176888	0.609248861078662
-0.179258291176888	-0.278244722411828
-0.179258291176888	0.295392924238935
-0.179258291176888	0.0277215797758902
-0.179258291176888	0.170095215799336
-0.179258291176888	0.149880104636479
-0.179258291176888	0.254509935828978
-0.179258291176888	-0.392641134265457
-0.179258291176888	-0.634643121858718
-0.179258291176888	-0.387849857177474
-0.179258291176888	-0.21407847801173
-0.179258291176888	0.0893182822152919
-0.179258291176888	0.150337767214136
-0.179258291176888	0.118249515195754
-0.179258291176888	0.098477678993967
-0.179258291176888	1.11843184789564
-0.179258291176888	-0.370252342023265
-0.179258291176888	-0.158571591177511
-0.179258291176888	0.206307285423691
-0.179258291176888	-0.0305054501104675
-0.179258291176888	-0.671484919831176
-0.179258291176888	0.345353519249572
-0.179258291176888	-0.508485770089057
-0.179258291176888	0.543028068252139
-0.179258291176888	0.735199080474778
-0.179258291176888	-0.21212901841441
-0.179258291176888	-0.436889130817724
-0.179258291176888	-0.350845763791864
-0.179258291176888	-0.757721257614368
-0.179258291176888	-0.25274149098928
-0.179258291176888	-0.587045839781154
-0.179258291176888	-0.0770650058603115
-0.179258291176888	-0.563753901180087
-0.179258291176888	-0.22055264673195
-0.179258291176888	0.0075033029419969
-0.179258291176888	0.576846544867096
-0.179258291176888	0.0965820681792048
-0.179258291176888	-0.692706014971802
-0.179258291176888	0.0162379413358081
-0.179258291176888	0.140696052942108
-0.179258291176888	-0.0202512564589813
-0.179258291176888	-0.0914314266939967
-0.179258291176888	-0.204344191297825
-0.179258291176888	-0.181470357068144
-0.179258291176888	-0.138870934739116
-0.179258291176888	-0.14152068997177
-0.179258291176888	-0.237142693794019
-0.179258291176888	-0.29177979662089
-0.179258291176888	-0.25655561759382
-0.179258291176888	0.0616325406997634
-0.179258291176888	0.366576914454263
-0.179258291176888	-0.356982557525106
-0.179258291176888	0.289706712479089
-0.179258291176888	-0.163321950589927
-0.179258291176888	0.468012198792625
-0.179258291176888	-0.777036775159627
-0.179258291176888	-0.134389038346267
-0.179258291176888	-0.00639173068230314
-0.179258291176888	-0.466831986863728
-0.179258291176888	-0.698573140637269
-0.179258291176888	0.0859965191273622
-0.179258291176888	0.213165057753697
-0.179258291176888	0.758645955596601
-0.179258291176888	0.168150347250435
-0.179258291176888	-0.142872592326316
-0.179258291176888	-0.144267436200125
-0.179258291176888	0.112812468632671
-0.179258291176888	0.176502534252644
-0.179258291176888	-0.289581181395902
-0.179258291176888	-0.501550335914343
-0.179258291176888	-0.200655501942368
-0.179258291176888	0.122083041046191
-0.179258291176888	-0.465505766439583
-0.179258291176888	-0.528594636064886
-0.179258291176888	0.173758833700296
-0.179258291176888	-0.136655702812136
-0.179258291176888	-0.0963937184465962
-0.179258291176888	0.0363637969912872
-0.179258291176888	0.232542598403503
-0.179258291176888	0.00141422125891483
-0.179258291176888	-0.299197546833281
-0.179258291176888	0.166137905850902
-0.179258291176888	-0.0151490509180103
-0.179258291176888	-0.167916910136381
-0.179258291176888	-0.235866076574626
-0.179258291176888	-0.160483627293899
-0.179258291176888	-0.451505012020542
-0.179258291176888	-0.0353551995688168
-0.179258291176888	0.0800730344644545
-0.179258291176888	-0.153691677755698
-0.179258291176888	0.491584898436486
-0.179258291176888	-0.31991666834262
-0.179258291176888	0.384292969006362
-0.179258291176888	0.183909468542672
-0.179258291176888	-0.317658333409169
-0.179258291176888	0.2037342484777
-0.179258291176888	-0.682738756941708
-0.179258291176888	-0.344847212016845
-0.179258291176888	0.0322485418208556
-0.179258291176888	-0.641651749933304
-0.179258291176888	-0.0335525808701416
-0.179258291176888	-0.254282121535614
-0.179258291176888	0.130402545258735
-0.179258291176888	-0.749741778143823
-0.179258291176888	-0.0620611686692825
-0.179258291176888	0.294766892272453
-0.179258291176888	-0.269832008699646
-0.179258291176888	-0.89318752108442
-0.179258291176888	-0.0195264690382005
-0.179258291176888	0.968077151258375
-0.179258291176888	0.750598562172673
-0.179258291176888	0.121176128650352
-0.179258291176888	0.0939540664696439
-0.179258291176888	-0.317021729777925
-0.179258291176888	-0.30711319880593
-0.179258291176888	-0.513271349976083
-0.179258291176888	-0.00405518540519423
-0.179258291176888	-0.10177501390547
-0.179258291176888	0.356228464979086
-0.179258291176888	-0.358245270616861
-0.179258291176888	-0.348582574768796
-0.179258291176888	-0.0192119380530496
-0.179258291176888	0.165084082006666
-0.179258291176888	-0.154166510282453
-0.179258291176888	-0.414963049963509
-0.179258291176888	-0.104722820739007
-0.179258291176888	-0.102578497435109
-0.179258291176888	0.0603843902716243
-0.179258291176888	0.236207223095319
-0.179258291176888	-0.349191039414824
-0.179258291176888	-0.48663963773769
-0.179258291176888	-0.185993287582474
-0.179258291176888	0.473054697172273
-0.179258291176888	-0.168756285661539
-0.179258291176888	-0.589736334448951
-0.179258291176888	-0.0197653947145283
-0.179258291176888	0.566652067834633
-0.179258291176888	0.0957203503003557
-0.179258291176888	-0.481632228229429
-0.179258291176888	-0.929246447418602
-0.179258291176888	-0.112969304870625
-0.179258291176888	0.279246582230029
-0.179258291176888	-0.704054234129927
-0.179258291176888	0.0567074796392213
-0.179258291176888	-0.392817356472951
-0.179258291176888	0.38290415505013
-0.179258291176888	-0.288794249191826
-0.179258291176888	0.375339759743702
-0.179258291176888	0.375934125294231
-0.179258291176888	-0.338021439596907
-0.179258291176888	-0.105384999034749
-0.179258291176888	0.171381408403147
-0.179258291176888	-0.216381241130494
-0.179258291176888	-0.0684508697503671
-0.179258291176888	-0.807502903287439
-0.179258291176888	0.151219504267672
-0.179258291176888	-0.028012714764538
-0.179258291176888	-0.0378990479252371
-0.179258291176888	-0.59310919517044
-0.179258291176888	-0.452209771207649
-0.179258291176888	-0.0836544494493362
-0.179258291176888	-0.538344204311324
-0.179258291176888	-0.281825674051624
-0.179258291176888	-1.14712352854089
-0.179258291176888	0.124738758744483
-0.179258291176888	-0.317183090215928
-0.179258291176888	0.312873838351814
-0.179258291176888	-0.50027607166233
-0.179258291176888	-0.0910255858896911
-0.179258291176888	-0.562577914185158
-0.179258291176888	0.467878322870863
-0.179258291176888	-0.411207699227274
-0.179258291176888	-0.438330220199372
-0.179258291176888	-0.389700008139978
-0.179258291176888	0.186730515715216
-0.179258291176888	-0.457764651237809
-0.179258291176888	0.488606475356621
-0.179258291176888	-0.115153614982023
-0.179258291176888	0.35738239773379
-0.179258291176888	-0.307618418895432
-0.179258291176888	-0.346616670537352
-0.179258291176888	0.325657630839779
-0.179258291176888	-0.0176713541399143
-0.179258291176888	0.132243742508797
-0.179258291176888	0.36555736300499
-0.179258291176888	-0.139759334066711
-0.179258291176888	0.397350224282847
-0.179258291176888	0.0675464032869252
-0.179258291176888	0.176839778866326
-0.179258291176888	-0.174297245043646
-0.179258291176888	-0.189845666068019
-0.179258291176888	-0.0403149532859187
-0.179258291176888	-0.187347196814081
-0.179258291176888	-0.392488329286895
-0.179258291176888	0.142926611030776
-0.179258291176888	0.133343887214229
-0.179258291176888	0.111332278772515
-0.179258291176888	-0.174790640077797
-0.179258291176888	-0.241210983721691
-0.179258291176888	0.08257902873745
-0.179258291176888	0.176762199347345
-0.179258291176888	0.349400921107321
-0.179258291176888	0.319366236145334
-0.179258291176888	-0.181122764332454
-0.179258291176888	0.113810667334407
-0.179258291176888	-0.657453199893883
-0.179258291176888	-0.266976618550438
-0.179258291176888	0.29112932215301
-0.179258291176888	0.0647000476832191
-0.179258291176888	0.354263840414963
-0.179258291176888	-0.515856500545958
-0.179258291176888	-0.584974936101442
-0.179258291176888	-0.245233881101904
-0.179258291176888	0.24519489043963
-0.179258291176888	-0.0724478015189936
-0.179258291176888	0.29314591885304
-0.179258291176888	0.303559052095188
-0.179258291176888	0.53882224252924
-0.179258291176888	-0.0718346773739083
-0.179258291176888	-0.102492899849095
-0.179258291176888	-0.0389163498962971
-0.179258291176888	-0.229798315376515
-0.179258291176888	0.0770400747867317
-0.179258291176888	0.331111528081877
-0.179258291176888	0.0381078386347368
-0.179258291176888	-0.438010244379147
-0.179258291176888	-0.364439161050931
-0.179258291176888	0.0160519722673751
-0.179258291176888	-0.469303926095196
-0.179258291176888	-0.0154161982922756
-0.179258291176888	-0.619750094308393
-0.179258291176888	0.0237210529252538
-0.179258291176888	-0.321458407161457
-0.179258291176888	-0.139219375674756
-0.179258291176888	0.35958220072044
-0.179258291176888	-0.147961909435013
-0.179258291176888	-0.11587466286402
-0.179258291176888	0.129226368628695
-0.179258291176888	-0.258595098975971
-0.179258291176888	-0.31369497354891
-0.179258291176888	-0.868751089097979
-0.179258291176888	-0.0518051093108427
-0.179258291176888	0.00669263741501505
-0.179258291176888	-0.247975440330032
-0.179258291176888	-0.518882445100251
-0.179258291176888	0.135477184443213
-0.179258291176888	0.130622659511045
-0.179258291176888	0.404925539784614
-0.179258291176888	-0.00548566106748152
-0.179258291176888	-0.296348017350484
-0.179258291176888	-0.452459692123959
-0.179258291176888	0.476890284091534
-0.179258291176888	0.127769300278953
-0.179258291176888	0.677942629131155
-0.179258291176888	-0.428814496107565
-0.179258291176888	0.548424266096323
-0.179258291176888	-0.432111037355499
-0.179258291176888	0.46638500120893
-0.179258291176888	0.180197115193271
-0.179258291176888	-0.128909444267383
-0.179258291176888	0.378335020699659
-0.179258291176888	0.0788076084756216
-0.179258291176888	0.116249785748067
-0.179258291176888	-0.145639859952458
-0.179258291176888	-0.249189956972453
-0.179258291176888	-0.0524013204487943
-0.179258291176888	0.0880495881747741
-0.179258291176888	-0.471067102009688
-0.179258291176888	-0.24137126404998
-0.179258291176888	-0.268937750156488
-0.179258291176888	-0.56061652015107
-0.179258291176888	-0.782386001923102
-0.179258291176888	-0.381051145489985
-0.179258291176888	-0.274531713256123
-0.179258291176888	-0.764470617966147
-0.179258291176888	0.474961058691564
-0.179258291176888	-0.460641182172436
-0.179258291176888	-0.373889420202954
-0.179258291176888	0.118987095633083
-0.179258291176888	-0.306201486336784
-0.179258291176888	-0.20558373415
-0.179258291176888	0.21518095421703
-0.179258291176888	-0.283914154247947
-0.179258291176888	0.307234221250833
-0.179258291176888	-0.198325039541368
-0.179258291176888	-0.34638814592257
-0.179258291176888	-0.0139156732736897
-0.179258291176888	-0.359351300910763
-0.179258291176888	0.0699330974747878
-0.179258291176888	-0.648775289485084
-0.179258291176888	-0.0995701813031895
-0.179258291176888	-0.283242530508406
-0.179258291176888	-0.0550598486738794
-0.179258291176888	0.787913644328708
-0.179258291176888	0.425235887947356
-0.179258291176888	0.421089914334057
-0.179258291176888	0.544482457105008
-0.179258291176888	-0.812169220234833
-0.179258291176888	0.257790417159172
-0.179258291176888	-0.460522672442134
-0.179258291176888	-0.715742951408931
-0.179258291176888	-0.915577595824817
-0.179258291176888	0.841840035512366
-0.179258291176888	0.0296183364860443
-0.179258291176888	-0.584090276554252
-0.179258291176888	-0.348488210066966
-0.179258291176888	0.461283502285401
-0.179258291176888	0.232790821532134
-0.179258291176888	0.202846295760154
-0.179258291176888	-0.405551956004854
-0.179258291176888	0.0262927953017383
-0.179258291176888	0.465060960838997
-0.179258291176888	0.286029880183221
-0.179258291176888	-0.332966398675031
-0.179258291176888	-0.0285877843973754
-0.179258291176888	0.267952495563179
-0.179258291176888	0.284555047163923
-0.179258291176888	0.359197034710589
-0.179258291176888	0.558220146833282
-0.179258291176888	-0.100940094344405
-0.179258291176888	-0.909876903199445
-0.179258291176888	-0.450561534672998
-0.179258291176888	0.0724166923176114
-0.179258291176888	-0.125342732387802
-0.179258291176888	-0.310922540319032
-0.179258291176888	0.119337335870747
-0.179258291176888	-0.850062167865436
-0.179258291176888	0.191338733917436
-0.179258291176888	0.11932244001697
-0.179258291176888	-0.219810830520593
-0.179258291176888	0.305865381149402
-0.179258291176888	0.545480862047986
-0.179258291176888	-0.328441568261272
-0.179258291176888	-0.376101979770252
-0.179258291176888	-0.182835275631775
-0.179258291176888	-0.122103916681171
-0.179258291176888	-0.149380957963931
-0.179258291176888	-0.394946071591386
-0.179258291176888	0.190674392564989
-0.179258291176888	-0.0528564462824663
-0.179258291176888	-0.115308346655164
-0.179258291176888	-0.727659908511574
-0.179258291176888	0.311738911615298
-0.179258291176888	0.650668873975328
-0.179258291176888	-0.848700994717448
-0.179258291176888	-0.252771603762249
-0.179258291176888	0.0156650989685185
-0.179258291176888	-0.10402391176904
-0.179258291176888	-0.115634714820416
-0.179258291176888	-0.0429892459808601
-0.179258291176888	0.450623502538538
-0.179258291176888	0.154446927247201
-0.179258291176888	0.0578275327687202
-0.179258291176888	0.531601204992491
-0.179258291176888	-0.0952325450637681
-0.179258291176888	0.196331381681141
-0.179258291176888	0.232033291073226
-0.179258291176888	-0.224925876629728
-0.179258291176888	-0.539214720550027
-0.179258291176888	-0.192600863290342
-0.179258291176888	0.155211577241378
-0.179258291176888	-0.405631754436286
-0.179258291176888	-0.0185450542826404
-0.179258291176888	0.30070256700057
-0.179258291176888	-0.498686758962627
-0.179258291176888	-0.615967989291725
-0.179258291176888	0.389431364729903
-0.179258291176888	-0.603342917953027
-0.179258291176888	-0.463413952535026
-0.179258291176888	-0.407771116432909
-0.179258291176888	0.384839633814216
-0.179258291176888	-0.0868286313303384
-0.179258291176888	-0.156816312564971
-0.179258291176888	-0.754104979753728
-0.179258291176888	-0.650922595669476
-0.179258291176888	-0.0423949951947052
-0.179258291176888	0.13395182230644
-0.179258291176888	-0.297354462854373
-0.179258291176888	-0.479341497229402
-0.179258291176888	0.453009324350453
-0.179258291176888	0.451661765748194
-0.179258291176888	0.0423536875324498
-0.179258291176888	-0.27902897835758
-0.179258291176888	0.132030912064846
-0.179258291176888	0.0537732736460786
-0.179258291176888	-0.257760246895262
-0.179258291176888	0.0982750561177379
-0.179258291176888	0.340876357172411
-0.179258291176888	0.310639209031246
-0.179258291176888	0.302531553055097
-0.179258291176888	0.3731932144561
-0.179258291176888	-0.115736433735101
-0.179258291176888	0.0706039492296538
-0.179258291176888	-0.0830806416410193
-0.179258291176888	0.207161292461165
-0.179258291176888	-0.166827815687898
-0.179258291176888	-0.270707570860945
-0.179258291176888	0.0784126528812323
-0.179258291176888	-0.749697889427443
-0.179258291176888	0.321477103339019
-0.179258291176888	-0.417601311792868
-0.179258291176888	-0.299361571742469
-0.179258291176888	-0.135661427699203
-0.179258291176888	-0.431887855946405
-0.179258291176888	0.143983230530602
-0.179258291176888	-0.610865064604438
-0.179258291176888	-0.587357627926331
-0.179258291176888	0.549669209282088
-0.179258291176888	0.368165538534179
-0.179258291176888	-0.272631999902571
-0.179258291176888	0.194426424654123
-0.179258291176888	0.0323714442201707
-0.179258291176888	0.79106098909497
-0.179258291176888	0.175521205953206
-0.179258291176888	-0.126122553728346
-0.179258291176888	-0.18527960521353
-0.179258291176888	-0.385095045594309
-0.179258291176888	-0.423448974834513
-0.179258291176888	-0.173035195820966
-0.179258291176888	0.288428995233722
-0.179258291176888	0.111984584392335
-0.179258291176888	-0.447092360582287
-0.179258291176888	-0.00991055698038722
-0.179258291176888	-0.261021919593125
-0.179258291176888	-0.348033129188364
-0.179258291176888	-0.594994261346569
-0.179258291176888	-0.219966822114879
-0.179258291176888	0.191132789416802
-0.179258291176888	0.695113354362485
-0.179258291176888	-0.429169017010722
-0.179258291176888	0.356933652400879
-0.179258291176888	-0.02872834200053
-0.179258291176888	-0.259494662143651
-0.179258291176888	-0.0798956632570926
-0.179258291176888	0.314668855335685
-0.179258291176888	-0.0114036995821069
-0.179258291176888	0.386047916690528
-0.179258291176888	-0.6077449361834
-0.179258291176888	-0.268109870321441
-0.179258291176888	-0.0148330103318228
-0.179258291176888	-0.101871813325324
-0.179258291176888	-0.253067739688503
-0.179258291176888	-0.370678793608024
-0.179258291176888	0.254031216128342
-0.179258291176888	0.0446712192270912
-0.179258291176888	-0.037811316978154
-0.179258291176888	-0.149852698904896
-0.179258291176888	0.498757571251897
-0.179258291176888	0.153407386688456
-0.179258291176888	-0.0407249950334105
-0.179258291176888	0.0602015394922483
-0.179258291176888	0.240984155025543
-0.179258291176888	0.498625199843086
-0.179258291176888	0.0592696697509245
-0.179258291176888	0.204701121392329
-0.179258291176888	-0.503070586639677
-0.179258291176888	-0.552227625712232
-0.179258291176888	0.351993216749409
-0.179258291176888	-0.531342267276124
-0.179258291176888	-0.0219481823174346
-0.179258291176888	0.374337601443698
-0.179258291176888	-0.509505839527185
-0.179258291176888	-0.548357898497047
-0.179258291176888	-0.49985040468034
-0.179258291176888	0.180363908297132
-0.179258291176888	-0.280285062586968
-0.179258291176888	0.117070739359115
-0.179258291176888	-0.0862870596302122
-0.179258291176888	-0.119356911970441
-0.179258291176888	-0.0516739480828877
-0.179258291176888	0.248359821289278
-0.179258291176888	-0.0813032533220706
-0.179258291176888	0.00648420587154461
-0.179258291176888	-0.856170769275738
-0.179258291176888	-0.35401061327505
-0.179258291176888	-0.463190891682161
-0.179258291176888	-0.481750207150909
-0.179258291176888	0.176386411377273
-0.179258291176888	0.0903225951494445
-0.179258291176888	-0.484515645629627
-0.179258291176888	0.865331649313919
-0.179258291176888	0.164958260589871
-0.179258291176888	-1.15749341921837
-0.179258291176888	-0.508885031707613
-0.179258291176888	-0.124053597727112
-0.179258291176888	-0.288147885789111
-0.179258291176888	0.909720069032052
-0.179258291176888	-0.275617542477397
-0.179258291176888	-0.209656041485687
-0.179258291176888	0.181798214025249
-0.179258291176888	0.0646284927689073
-0.179258291176888	0.0292680838091881
-0.179258291176888	0.376029110104127
-0.179258291176888	0.00218386424170562
-0.179258291176888	0.00190128463638473
-0.179258291176888	-0.121112051070225
-0.179258291176888	-0.132132629083828
-0.179258291176888	-0.322254729525535
-0.179258291176888	-0.368553985281012
-0.179258291176888	0.178991905925041
-0.179258291176888	0.254985528631099
-0.179258291176888	-0.0158797055507895
-0.179258291176888	-0.444191384138899
-0.179258291176888	0.364592117762578
-0.179258291176888	0.227152559728797
-0.179258291176888	0.344516747962382
-0.179258291176888	0.00664917205735088
-0.179258291176888	0.110181918370824
-0.179258291176888	0.353479814527813
-0.179258291176888	-0.741454332033128
-0.179258291176888	0.0194636960534701
-0.179258291176888	0.227788952114799
-0.179258291176888	-0.505144216529385
-0.179258291176888	-0.502386819011765
-0.179258291176888	-0.15819080551637
-0.179258291176888	-0.433849896944204
-0.179258291176888	-0.0202603417346894
-0.179258291176888	-0.566676211945497
-0.179258291176888	0.583582044535961
-0.179258291176888	-0.0344178120265649
-0.179258291176888	-0.336525960322595
-0.179258291176888	0.531661322262335
-0.179258291176888	0.618618310868097
-0.179258291176888	-0.058142349222768
-0.179258291176888	0.0933375837047013
-0.179258291176888	0.207262805146124
-0.179258291176888	-0.608272899919339
-0.179258291176888	0.313883885562965
-0.179258291176888	-0.174914634086105
-0.179258291176888	-0.504783120910033
-0.179258291176888	-0.533280253477929
-0.179258291176888	-0.93138892205839
-0.179258291176888	-0.893911371738606
-0.179258291176888	-0.568322258053939
-0.179258291176888	0.215230577715401
-0.179258291176888	1.30299648678686
-0.179258291176888	0.0179471501590783
-0.179258291176888	-0.736778694652156
-0.179258291176888	0.239204803782206
-0.179258291176888	-0.000299240760832348
-0.179258291176888	-0.313078864769235
-0.179258291176888	-0.617846585931752
-0.179258291176888	-0.227643448689001
-0.179258291176888	-0.438416236665401
-0.179258291176888	-0.279417336352405
-0.179258291176888	-0.12836525289149
-0.179258291176888	-0.0603206413060554
-0.179258291176888	0.329302456680861
-0.179258291176888	-0.486165595871519
-0.179258291176888	-0.185491137992971
-0.179258291176888	-0.329138749960026
-0.179258291176888	-0.524041378914737
-0.179258291176888	-0.785165466907239
-0.179258291176888	-0.471146354531606
-0.179258291176888	-0.632065573858698
-0.179258291176888	0.488778206808913
-0.179258291176888	0.28100177137446
-0.179258291176888	-0.169877049067378
-0.179258291176888	-0.609149305400281
-0.179258291176888	-0.500994955951305
-0.179258291176888	-0.224654830197367
-0.179258291176888	-0.290377804332029
-0.179258291176888	0.103976667205136
-0.179258291176888	-0.166645892741059
-0.179258291176888	0.220727535661672
-0.179258291176888	0.534593794302477
-0.179258291176888	-0.478038881739189
-0.179258291176888	-0.663630159266887
-0.179258291176888	-0.908346393323015
-0.179258291176888	0.260350986294313
-0.179258291176888	0.623309041968982
-0.179258291176888	-0.801373325520497
-0.179258291176888	-0.485181625617661
-0.179258291176888	0.793020907961593
-0.179258291176888	-0.989289480590579
-0.179258291176888	0.00129547148083504
-0.179258291176888	0.0520626904722287
-0.179258291176888	-0.763113433959262
-0.179258291176888	-0.210427808994453
-0.179258291176888	-0.15324242813517
-0.179258291176888	0.216473237607066
-0.179258291176888	0.981878847963467
-0.179258291176888	0.0811882750813153
-0.179258291176888	-0.562108665429416
-0.179258291176888	0.112177272461754
-0.179258291176888	-0.461693746993836
-0.179258291176888	-0.26808715220282
-0.179258291176888	-0.183178835844857
-0.179258291176888	-0.328633656757153
-0.179258291176888	-0.0131527768495264
-0.179258291176888	-0.10030457150852
-0.179258291176888	-0.330310374611
-0.179258291176888	0.108606298488783
-0.179258291176888	0.316684126631003
-0.179258291176888	-0.184039372983823
-0.179258291176888	0.113342277969949
-0.179258291176888	-0.666066938276882
-0.179258291176888	0.202999991556425
-0.179258291176888	0.302595179799183
-0.179258291176888	-0.0448878433319267
-0.179258291176888	-0.242144512185629
-0.179258291176888	-0.452680627061105
-0.179258291176888	0.198411259617238
-0.179258291176888	-0.345996896184807
-0.179258291176888	0.154056097358249
-0.179258291176888	-0.0631560601455182
-0.179258291176888	0.171629819387563
-0.179258291176888	0.00210501925097013
-0.179258291176888	-0.391155600195209
-0.179258291176888	-0.315296011995397
-0.179258291176888	-0.649111183969641
-0.179258291176888	0.29589224468458
-0.179258291176888	0.720885202478018
-0.179258291176888	-0.826403912914349
-0.179258291176888	0.111373437971483
-0.179258291176888	-0.256164062494812
-0.179258291176888	0.273610048603713
-0.179258291176888	0.0860389257229366
-0.179258291176888	0.672499981012636
-0.179258291176888	-0.291546225638458
-0.179258291176888	-0.00962484993558532
-0.179258291176888	-0.603769589913365
-0.179258291176888	-0.0290836323347554
-0.179258291176888	0.398035678391405
-0.179258291176888	-1.06909634623952
-0.179258291176888	0.0217447821674633
-0.179258291176888	0.0346314064208575
-0.179258291176888	-0.046226980229171
-0.179258291176888	-0.023269164025814
-0.179258291176888	-0.381027338264002
-0.179258291176888	-0.0713393094468886
-0.179258291176888	-0.351326255090644
-0.179258291176888	-0.0729086240702627
-0.179258291176888	0.264795711827481
-0.179258291176888	0.447885967096124
-0.179258291176888	-0.0974482387062993
-0.179258291176888	0.129752781407541
-0.179258291176888	0.0929985780728808
-0.179258291176888	-0.429424172475656
-0.179258291176888	-0.371434384016572
-0.179258291176888	0.336414881097124
-0.179258291176888	0.147116665258951
-0.179258291176888	0.651228464605567
-0.179258291176888	0.257689654973873
-0.179258291176888	0.429472636136131
-0.179258291176888	0.0178641805013454
-0.179258291176888	-0.274408658751961
-0.179258291176888	0.188429155036935
-0.179258291176888	-0.339284411340218
-0.179258291176888	0.213039099022816
-0.179258291176888	-0.0710662466430513
-0.179258291176888	-0.739468011492779
-0.179258291176888	-0.586182991718241
-0.179258291176888	-0.114046958591003
-0.179258291176888	-0.69810133990731
-0.179258291176888	0.463669442318312
-0.179258291176888	-0.0117384675924644
-0.179258291176888	0.20175064353507
-0.179258291176888	0.00602048441801552
-0.179258291176888	0.413883174618706
-0.179258291176888	-0.0804883745530728
-0.179258291176888	0.0726274160325533
-0.179258291176888	-0.139504328232222
-0.179258291176888	0.0114449386933516
-0.179258291176888	0.190686636476778
-0.179258291176888	-0.176114068406501
-0.179258291176888	0.105385963124542
-0.179258291176888	0.0545045326572394
-0.179258291176888	-0.375905875118094
-0.179258291176888	0.066784833665727
-0.179258291176888	-0.575390849382692
-0.179258291176888	-0.000844939941887758
-0.179258291176888	-0.232460126275986
-0.179258291176888	-0.726321626952423
-0.179258291176888	0.509181448404868
-0.179258291176888	0.504865567425032
-0.179258291176888	0.0225446294892577
-0.179258291176888	0.222755489194781
-0.179258291176888	0.119218968416048
-0.179258291176888	0.0018012259404647
-0.179258291176888	0.058014190436364
-0.179258291176888	-0.37793001822457
-0.179258291176888	-0.0350670116749774
-0.179258291176888	0.605897140987501
-0.179258291176888	-0.49230192706369
-0.179258291176888	-0.0503708487774183
-0.179258291176888	0.440391619066102
-0.179258291176888	-0.202918249921801
-0.179258291176888	-0.439329502447255
-0.179258291176888	-0.0793275334481005
-0.179258291176888	0.129715601704209
-0.179258291176888	0.586516035631568
-0.179258291176888	0.0257679695513354
-0.179258291176888	-0.16883454071067
-0.179258291176888	-0.0501023881477321
-0.179258291176888	0.111424545187602
-0.179258291176888	0.178620097006754
-0.179258291176888	-0.0959493678308965
-0.179258291176888	-0.670297875625583
-0.179258291176888	-0.145163411136535
-0.179258291176888	-0.412919399029105
-0.179258291176888	-0.0191935164661752
-0.179258291176888	-0.0098389228220748
-0.179258291176888	-0.379258185442812
-0.179258291176888	0.759022872523055
-0.179258291176888	-0.00346288387611747
-0.179258291176888	0.2533903799689
-0.179258291176888	0.383235243952972
-0.179258291176888	0.293115847507425
-0.179258291176888	-0.316991519219356
-0.179258291176888	-0.0669668323381012
-0.179258291176888	-0.303461254804159
-0.179258291176888	-0.403546229303356
-0.179258291176888	-0.186765827793994
-0.179258291176888	-0.362731685689106
-0.179258291176888	-0.195465946683256
-0.179258291176888	-0.32102079793332
-0.179258291176888	-0.111600509633304
-0.179258291176888	-0.455073218327878
-0.179258291176888	0.579906949940835
-0.179258291176888	-0.509745571013189
-0.179258291176888	-0.233052373067815
-0.179258291176888	-0.204931035850904
-0.179258291176888	-0.121256418682552
-0.179258291176888	-0.219653809075234
-0.179258291176888	-0.322349005603979
-0.179258291176888	0.26688818614871
-0.179258291176888	-0.201303259709531
-0.179258291176888	0.280440717849416
-0.179258291176888	0.00411679340939393
-0.179258291176888	-0.0251085080187197
-0.179258291176888	-0.465006865052137
-0.179258291176888	-0.432623553865626
-0.179258291176888	0.774825062252199
-0.179258291176888	0.00265093600554346
-0.179258291176888	0.776722005077829
-0.179258291176888	0.611784061583705
-0.179258291176888	-0.692828023149594
-0.179258291176888	0.0926449098400958
-0.179258291176888	-0.200262577268544
-0.179258291176888	-0.331121677414511
-0.179258291176888	-0.193567371013079
-0.179258291176888	0.126083217605323
-0.179258291176888	-0.167721475026989
-0.179258291176888	0.487642977866721
-0.179258291176888	0.0286080840604631
-0.179258291176888	-0.41717957038752
-0.179258291176888	0.401929070268761
-0.179258291176888	0.168320942674048
-0.179258291176888	-0.864885592517063
-0.179258291176888	0.0626564657656856
-0.179258291176888	0.154784705529413
-0.179258291176888	0.492784834541103
-0.179258291176888	0.591425194073434
-0.179258291176888	-0.353989156398449
-0.179258291176888	0.416877159710612
-0.179258291176888	-0.329152257076623
-0.179258291176888	-0.39030257481424
-0.179258291176888	0.420612464764769
-0.179258291176888	-0.492468298560934
-0.179258291176888	-0.432259249394016
-0.179258291176888	-0.503008646535616
-0.179258291176888	-0.372497582253433
-0.179258291176888	-0.439927039620096
-0.179258291176888	0.598142376918266
-0.179258291176888	0.00936409266655933
-0.179258291176888	0.54337225125551
-0.179258291176888	-0.68721672869952
-0.179258291176888	-0.651159516939396
-0.179258291176888	-0.226174087131515
-0.179258291176888	0.00268947421075357
-0.179258291176888	-0.73025034055674
-0.179258291176888	-0.672053048714743
-0.179258291176888	-0.380333666325009
-0.179258291176888	-0.430459765585043
-0.179258291176888	0.331780602849874
-0.179258291176888	-0.104964484188042
-0.179258291176888	0.455384885481908
-0.179258291176888	-0.486749079139049
-0.179258291176888	-0.140386234174152
-0.179258291176888	-0.657429415842604
-0.179258291176888	0.119366152926307
-0.179258291176888	-0.522241885045772
-0.179258291176888	-0.369047479786808
-0.179258291176888	-0.161625194845151
-0.179258291176888	0.336891910818072
-0.179258291176888	-0.217542181164523
-0.179258291176888	-0.238893444443128
-0.179258291176888	-0.507365966187577
-0.179258291176888	0.299624464766717
-0.179258291176888	-0.738035608748488
-0.179258291176888	0.0476831098675655
-0.179258291176888	0.0813713654879384
-0.179258291176888	-0.0556784317727182
-0.179258291176888	-0.00259172876874254
-0.179258291176888	-0.366493561931614
-0.179258291176888	-0.328505077986903
-0.179258291176888	-0.589445712227691
-0.179258291176888	-0.224263855103893
-0.179258291176888	0.113345254761772
-0.179258291176888	-0.193661510896925
-0.179258291176888	-0.410373363985011
-0.179258291176888	-0.348575550431311
-0.179258291176888	0.199599539065109
-0.179258291176888	-0.558304279332563
-0.179258291176888	-0.45655694999489
-0.179258291176888	-0.690659380102635
-0.179258291176888	-0.430796101064868
-0.179258291176888	-0.117284469024779
-0.179258291176888	0.244749103446011
-0.179258291176888	0.677439435157425
-0.179258291176888	0.233462154060551
-0.179258291176888	-0.00855715764493111
-0.179258291176888	-0.0830095501408836
-0.179258291176888	-0.131056398675961
-0.179258291176888	0.312212676564108
-0.179258291176888	-0.0448518253899173
-0.179258291176888	-0.215434151403337
-0.179258291176888	0.513065321194596
-0.179258291176888	0.460567303503217
-0.179258291176888	-0.377090148438441
-0.179258291176888	-0.295622359634719
-0.179258291176888	-0.978263817065619
-0.179258291176888	-0.101441545929131
-0.179258291176888	-0.313924122234955
-0.179258291176888	-0.0364119963796502
-0.179258291176888	-0.00476298870253887
-0.179258291176888	-0.384498020040207
-0.179258291176888	-0.763794640018645
-0.179258291176888	-0.214638114808511
-0.179258291176888	-0.468722031632008
-0.179258291176888	0.0678965532754593
-0.179258291176888	-0.200262581949562
-0.179258291176888	0.0618914424206323
-0.179258291176888	-0.264395088023236
-0.179258291176888	-0.265787106249495
-0.179258291176888	0.383118625554919
-0.179258291176888	-0.0379528976724053
-0.179258291176888	-0.0370083841796921
-0.179258291176888	0.0587901504652785
-0.179258291176888	0.69206836716664
-0.179258291176888	0.801479374177725
-0.179258291176888	0.196115381087758
-0.179258291176888	-0.148944677147725
-0.179258291176888	-0.0189794307790978
-0.179258291176888	0.307702724787404
-0.179258291176888	0.0964846544767855
-0.179258291176888	0.00368801384099238
-0.179258291176888	-0.173616411596425
-0.179258291176888	-0.329762442385005
-0.179258291176888	0.664860444934874
-0.179258291176888	0.152624238493661
-0.179258291176888	-0.230175682324433
-0.179258291176888	0.0456801145249255
-0.179258291176888	-0.210214449843123
-0.179258291176888	-0.190631524354779
-0.179258291176888	-0.181580782763359
-0.179258291176888	-0.0420558379589645
-0.179258291176888	-0.0244213818957884
-0.179258291176888	-0.557338742818724
-0.179258291176888	-0.127209706430936
-0.179258291176888	0.148559182746513
-0.179258291176888	0.535177047707287
-0.179258291176888	-0.728100478461589
-0.179258291176888	0.0182097060341427
-0.179258291176888	-0.864434411452152
-0.179258291176888	-0.202129269166362
-0.179258291176888	-0.226304484468247
-0.179258291176888	-0.105123269826092
-0.179258291176888	-0.109192923959494
-0.179258291176888	-0.414878223421838
-0.179258291176888	-0.921883052036643
-0.179258291176888	0.28149635490939
-0.179258291176888	-0.0700388553635848
-0.179258291176888	-0.56854086316068
-0.179258291176888	0.0274729135410533
-0.179258291176888	-0.296985443786168
-0.179258291176888	-0.241218040439976
-0.179258291176888	0.00787359810786372
-0.179258291176888	0.122699389809912
-0.179258291176888	0.0884847358796366
-0.179258291176888	0.625034542236991
-0.179258291176888	-0.293261129396977
-0.179258291176888	-0.502224268064322
-0.179258291176888	-0.277488962430833
-0.179258291176888	0.187202761741853
-0.179258291176888	0.0701581974711176
-0.179258291176888	0.585981377180385
-0.179258291176888	-0.542369694394991
-0.179258291176888	0.59822642120234
-0.179258291176888	0.144075909888438
-0.179258291176888	0.185581487635247
-0.179258291176888	-0.0530290714953466
-0.179258291176888	-0.210784363034765
-0.179258291176888	-0.328327123533589
-0.179258291176888	0.0832152172712416
-0.179258291176888	-0.00487949935957524
-0.179258291176888	0.0605908171074876
-0.179258291176888	-0.482489869874132
-0.179258291176888	-0.212632215830542
-0.179258291176888	-0.345171079360754
-0.179258291176888	0.0510826782573638
-0.179258291176888	-0.44024878617017
-0.179258291176888	-0.175877204106121
-0.179258291176888	-0.750534765958164
-0.179258291176888	0.585466478595121
-0.179258291176888	-0.311535283972773
-0.179258291176888	0.100458515742522
-0.179258291176888	-0.0464337986092025
-0.179258291176888	0.214180267511285
-0.179258291176888	0.303259073379138
-0.179258291176888	-0.191536614739526
-0.179258291176888	-0.0443904619618245
-0.179258291176888	0.0956805342817641
-0.179258291176888	0.481729885840955
-0.179258291176888	-0.0373452879499558
-0.179258291176888	-0.30497360462666
-0.179258291176888	-0.231579549994839
-0.179258291176888	-0.292476892612879
-0.179258291176888	-0.602983827015587
-0.179258291176888	-0.449898651154242
-0.179258291176888	-0.295334382080176
-0.179258291176888	-0.268947167926706
-0.179258291176888	0.178240396324716
-0.179258291176888	-0.109114689001227
-0.179258291176888	-0.136322907128112
-0.179258291176888	0.0210547932594783
-0.179258291176888	-0.403401825221821
-0.179258291176888	-1.03511142322605
-0.179258291176888	0.275493150665242
-0.179258291176888	-0.297643015604361
-0.179258291176888	-0.122504709560896
-0.179258291176888	0.114425823304938
-0.179258291176888	0.981541451358937
-0.179258291176888	-0.153592253431857
-0.179258291176888	0.0215764587933778
-0.179258291176888	-0.231162335405082
-0.179258291176888	0.55197434994404
-0.179258291176888	-0.224334937519571
-0.179258291176888	0.182761058371375
-0.179258291176888	-0.543653820742336
-0.179258291176888	-0.490518448231199
-0.179258291176888	-0.0860523008580507
-0.179258291176888	0.604633516482369
-0.179258291176888	-0.0666850179723489
-0.179258291176888	-1.03234456714672
-0.179258291176888	0.275859900494989
-0.179258291176888	-0.125138607287585
-0.179258291176888	0.237244522635468
-0.179258291176888	0.0347113881395184
-0.179258291176888	0.122646398060531
-0.179258291176888	0.128172829143837
-0.179258291176888	-0.158159255007197
-0.179258291176888	-0.196826669578908
-0.179258291176888	0.201238494744732
-0.179258291176888	0.132466540160865
-0.179258291176888	0.201275858917389
-0.179258291176888	0.120008933380041
-0.179258291176888	0.126969646567386
-0.179258291176888	-0.0549100153443347
-0.179258291176888	0.39877714377654
-0.179258291176888	0.0954110966607013
-0.179258291176888	-0.0692255767853364
-0.179258291176888	-0.876257841969905
-0.179258291176888	0.184527958452517
-0.179258291176888	-0.706862877742862
-0.179258291176888	0.225984671883829
-0.179258291176888	-0.569170053123089
-0.179258291176888	-0.188371725328295
-0.179258291176888	-0.473871584002982
-0.179258291176888	-0.439728932403118
-0.179258291176888	0.215314623353484
-0.179258291176888	0.130390995307823
-0.179258291176888	0.277758383466081
-0.179258291176888	0.0874327645236031
-0.179258291176888	0.0837066711179375
-0.179258291176888	-0.42065813032156
-0.179258291176888	0.680764050706467
-0.179258291176888	-0.999323193656613
-0.179258291176888	-0.710778559165792
-0.179258291176888	-0.279829035046037
-0.179258291176888	0.00761145616717909
-0.179258291176888	0.22353275149482
-0.179258291176888	0.259903700268354
-0.179258291176888	-0.195159525972145
-0.179258291176888	0.375122590505131
-0.179258291176888	0.242504084212732
-0.179258291176888	0.168691192362604
-0.179258291176888	-0.713077501885364
-0.179258291176888	-0.0999287334070992
-0.179258291176888	-0.0387600923741914
-0.179258291176888	-0.48829353111197
-0.179258291176888	-0.629821160802242
-0.179258291176888	0.0904872017047831
-0.179258291176888	0.614540643464753
-0.179258291176888	0.5127956449257
-0.179258291176888	0.287289604761303
-0.179258291176888	0.252340407306492
-0.179258291176888	-0.0291631986505758
-0.179258291176888	0.864531453607154
-0.179258291176888	0.269171696522359
-0.179258291176888	0.181339140452593
-0.179258291176888	-0.17465128148016
-0.179258291176888	-0.130716513815993
-0.179258291176888	0.305481844132007
-0.179258291176888	0.453027718655631
-0.179258291176888	0.559030849346444
-0.179258291176888	-0.363930549830276
-0.179258291176888	-0.22926299100437
-0.179258291176888	0.0169588505463216
-0.179258291176888	-0.492465307497925
-0.179258291176888	-0.181894882143667
-0.179258291176888	-0.363502918336253
-0.179258291176888	-0.189223523802621
-0.179258291176888	-0.400410651923804
-0.179258291176888	0.0884400248484715
-0.179258291176888	0.0445810588239318
-0.179258291176888	0.457233793029657
-0.179258291176888	-0.299343472291423
-0.179258291176888	-0.543845868206223
-0.179258291176888	-0.341345101753922
-0.179258291176888	0.126539429448048
-0.179258291176888	-0.545250613993268
-0.179258291176888	-0.156903806402754
-0.179258291176888	-0.189363993574682
-0.179258291176888	0.0820922431760543
-0.179258291176888	-0.45609379460352
-0.179258291176888	0.471163509683037
-0.179258291176888	0.430976107662766
-0.179258291176888	-0.239118071486412
-0.179258291176888	-0.314566942052519
-0.179258291176888	0.302594852200288
-0.179258291176888	-0.247059180507644
-0.179258291176888	-0.365331522160374
-0.179258291176888	-0.646452934719548
-0.179258291176888	-0.229764199432994
-0.179258291176888	0.210931307117691
-0.179258291176888	0.549996018520804
-0.179258291176888	0.0861368909179309
-0.179258291176888	-0.51295709783356
-0.179258291176888	-0.368970056438977
-0.179258291176888	0.116335131809257
-0.179258291176888	0.0842566404083062
-0.179258291176888	-0.44870752026566
-0.179258291176888	-0.360326123616801
-0.179258291176888	0.616248065558765
-0.179258291176888	0.0506991413452527
-0.179258291176888	-0.126264150995266
-0.179258291176888	-0.0237201525924168
-0.179258291176888	-1.01353048964201
-0.179258291176888	-0.237520624283693
-0.179258291176888	-0.397762178063897
-0.179258291176888	0.253811386613843
-0.179258291176888	-0.205280812705643
-0.179258291176888	0.208803949980827
-0.179258291176888	-0.200748445445678
-0.179258291176888	-0.597829330442204
-0.179258291176888	-0.528567359816742
-0.179258291176888	1.025528861964
-0.179258291176888	-0.272825836522783
-0.179258291176888	0.317142171608543
-0.179258291176888	-0.337922423639517
-0.179258291176888	0.330403824437889
-0.179258291176888	-0.693958393598835
-0.179258291176888	0.040643436713365
-0.179258291176888	-0.223118903984021
-0.179258291176888	0.558795532844566
-0.179258291176888	-0.137569292378557
-0.179258291176888	-0.524469463518073
-0.179258291176888	-0.532073179188087
-0.179258291176888	-0.531667182880498
-0.179258291176888	-0.267819965821496
-0.179258291176888	-0.870458277822199
-0.179258291176888	-0.187220795307566
-0.179258291176888	0.522872165789027
-0.179258291176888	0.146995172139977
-0.179258291176888	-0.249686460415437
-0.179258291176888	-0.0696890625236847
-0.179258291176888	-0.791782657729045
-0.179258291176888	-0.168991938221594
-0.179258291176888	0.0288623687754478
-0.179258291176888	0.20582316977528
-0.179258291176888	-0.160148741334463
-0.179258291176888	0.248351556805849
-0.179258291176888	-0.111661365129894
-0.179258291176888	-0.17506980566322
-0.179258291176888	-0.548521138953257
-0.179258291176888	0.0878945379200709
-0.179258291176888	0.301257066598345
-0.179258291176888	0.210711824025554
-0.179258291176888	-0.25532668256026
-0.179258291176888	0.409786983101828
-0.179258291176888	-0.407708821536555
-0.179258291176888	-0.436357824582316
-0.179258291176888	-0.223527172958432
-0.179258291176888	0.0717801222205321
-0.179258291176888	-0.307207487321701
-0.179258291176888	-0.157531236625605
-0.179258291176888	-0.409707334665528
-0.179258291176888	-0.295758350243351
-0.179258291176888	-0.366521116770369
-0.179258291176888	-0.237222374032707
-0.179258291176888	-0.911008660502686
-0.179258291176888	-0.313111078382108
-0.179258291176888	-0.111098824919766
-0.179258291176888	-0.2942978756182
-0.179258291176888	-0.334759465879608
-0.179258291176888	0.531595194514298
-0.179258291176888	-0.0142856981032944
-0.179258291176888	-0.562662029935867
-0.179258291176888	-0.784188562623126
-0.179258291176888	-0.105648582464475
-0.179258291176888	-0.0720257279272081
-0.179258291176888	0.262887570914399
-0.179258291176888	-0.201387713980563
-0.179258291176888	0.482610841095478
-0.179258291176888	0.297552421046588
-0.179258291176888	0.419203330368371
-0.179258291176888	0.428211413457632
-0.179258291176888	0.0504569836844909
-0.179258291176888	-0.875088579606416
-0.179258291176888	0.660085232246366
-0.179258291176888	0.101581999628362
-0.179258291176888	-0.41638774559155
-0.179258291176888	0.14848022479609
-0.179258291176888	-0.399711458295337
-0.179258291176888	0.312061225592993
-0.179258291176888	0.330220586331669
-0.179258291176888	-0.858675606901247
-0.179258291176888	0.00226478940097845
-0.179258291176888	0.0076314032075688
-0.179258291176888	-0.0408269092545527
-0.179258291176888	-0.171577905779638
-0.179258291176888	0.484722240962869
-0.179258291176888	0.524380777295624
-0.179258291176888	0.286587089775238
-0.179258291176888	0.03787460007325
-0.179258291176888	0.037810320555639
-0.179258291176888	0.142998388915718
-0.179258291176888	-1.13223237773716
-0.179258291176888	-0.504233462088143
-0.179258291176888	0.0676106304400074
-0.179258291176888	-0.143329209708284
-0.179258291176888	0.610139938229167
-0.179258291176888	0.115916269374048
-0.179258291176888	-0.142583864942636
-0.179258291176888	0.484947373107889
-0.179258291176888	-0.170263088839966
-0.179258291176888	-0.133473730477048
-0.179258291176888	0.230108671405767
-0.179258291176888	-0.72383617133403
-0.179258291176888	-0.426808593490232
-0.179258291176888	0.421176130065824
-0.179258291176888	0.567795029213404
-0.179258291176888	-0.444314014583719
-0.179258291176888	0.151094612183905
-0.179258291176888	0.0288321301149366
-0.179258291176888	-0.710246148926945
-0.179258291176888	0.579018986627439
-0.179258291176888	0.383200438258016
-0.179258291176888	-1.43253616810969
-0.179258291176888	-0.431675645348662
-0.179258291176888	0.254931273123155
-0.179258291176888	0.215060749540851
-0.179258291176888	-0.109242212120846
-0.179258291176888	-1.09875904996606
-0.179258291176888	0.406211098710891
-0.179258291176888	-0.210104457127255
-0.179258291176888	0.162625940567401
-0.179258291176888	-1.10092340235047
-0.179258291176888	0.0346359904428082
-0.179258291176888	0.197108585498885
-0.179258291176888	-0.219802587383285
-0.179258291176888	0.18855888768942
-0.179258291176888	-0.580374536774555
-0.179258291176888	0.375039889529754
-0.179258291176888	0.461449070901242
-0.179258291176888	0.145794314331687
-0.179258291176888	0.0394964948583156
-0.179258291176888	0.289315107485473
-0.179258291176888	0.446814527979999
-0.179258291176888	0.604519192744826
-0.179258291176888	0.0371248843418179
-0.179258291176888	0.416891519763955
-0.179258291176888	-0.234641591094148
-0.179258291176888	-0.383336426924817
-0.179258291176888	-0.61240309265342
-0.179258291176888	0.609249444612576
-0.179258291176888	-0.283796451615707
-0.179258291176888	-0.272474442260437
-0.179258291176888	-0.126102821727389
-0.179258291176888	-0.28043775309429
-0.179258291176888	-0.449327848168388
-0.179258291176888	-0.159168191930025
-0.179258291176888	0.42737410911907
-0.179258291176888	0.278377759263858
-0.179258291176888	0.543482854719946
-0.179258291176888	0.281240310025791
-0.179258291176888	-0.41955128265931
-0.179258291176888	-0.387452131430901
-0.179258291176888	0.300409060967603
-0.179258291176888	-0.00915233272063942
-0.179258291176888	0.564243723214474
-0.179258291176888	0.521007189366604
-0.179258291176888	-0.675179791364116
-0.179258291176888	-0.777963322301847
-0.179258291176888	0.0129996647822589
-0.179258291176888	0.659722237108037
-0.179258291176888	0.277166712188443
-0.179258291176888	0.106005258779314
-0.179258291176888	0.211550241672331
-0.179258291176888	-0.344669665386167
-0.179258291176888	-0.34831275849302
-0.179258291176888	-0.385030298536391
-0.179258291176888	-0.791593175397427
-0.179258291176888	-0.190382636616137
-0.179258291176888	0.25247436518038
-0.179258291176888	0.00638669403714312
-0.179258291176888	0.0844944092551671
-0.179258291176888	0.429157335598124
-0.179258291176888	0.789713228566438
-0.179258291176888	0.270095839614055
-0.179258291176888	0.110691759758846
-0.179258291176888	-0.815121721080609
-0.179258291176888	0.161343354929213
-0.179258291176888	-0.630269480940978
-0.179258291176888	-0.120823783022039
-0.179258291176888	-0.207378953424074
-0.179258291176888	-0.114985921304951
-0.179258291176888	-1.02370652234223
-0.179258291176888	-0.462806171690832
-0.179258291176888	0.23347778987269
-0.179258291176888	0.379437552095146
-0.179258291176888	-0.0345566889829316
-0.179258291176888	0.308736207917935
-0.179258291176888	-0.183385710854152
-0.179258291176888	-0.692621633851864
-0.179258291176888	0.177404290477256
-0.179258291176888	-0.574065614565526
-0.179258291176888	0.126597455060337
-0.179258291176888	0.412331675061451
-0.179258291176888	-0.244078798792095
-0.179258291176888	0.594218121307211
-0.179258291176888	0.153035927647288
-0.179258291176888	-0.463346834479073
-0.179258291176888	-0.157269503485476
-0.179258291176888	-0.739556120891664
-0.179258291176888	-0.708989329464689
-0.179258291176888	0.556158617142449
-0.179258291176888	0.202089056592469
-0.179258291176888	0.334742678409884
-0.179258291176888	-0.242128825100101
-0.179258291176888	0.660978858552373
-0.179258291176888	-0.578311580230176
-0.179258291176888	0.324592936954575
-0.179258291176888	0.329697712822029
-0.179258291176888	-0.880953864546459
-0.179258291176888	0.262429254972717
-0.179258291176888	-0.498452827319509
-0.179258291176888	-0.30154077247613
-0.179258291176888	-0.30099757347956
-0.179258291176888	-0.250707380741809
-0.179258291176888	0.069483054722044
-0.179258291176888	-0.0992750442339767
-0.179258291176888	-0.932774889334348
-0.179258291176888	-0.203386868083429
-0.179258291176888	0.352889314961815
-0.179258291176888	-0.132970900999621
-0.179258291176888	0.632929793897872
-0.179258291176888	-0.324124310243972
-0.179258291176888	0.492154973192489
-0.179258291176888	0.574356486708058
-0.179258291176888	0.551668464904591
-0.179258291176888	-0.324799632400715
-0.179258291176888	-0.529176410554187
-0.179258291176888	0.367945354766416
-0.179258291176888	0.349337573477411
-0.179258291176888	-0.0659626214639513
-0.179258291176888	-0.445848470467092
-0.179258291176888	-0.176566597897299
-0.179258291176888	-0.172331144127368
-0.179258291176888	-0.357437058960818
-0.179258291176888	-0.0243413871156211
-0.179258291176888	-0.240462990588506
-0.179258291176888	0.434844437066027
-0.179258291176888	-0.247579893244281
-0.179258291176888	0.230034343577553
-0.179258291176888	-0.528903644488466
-0.179258291176888	0.0610725964720407
-0.179258291176888	-0.118209364474858
-0.179258291176888	-0.473833083536513
-0.179258291176888	-0.623195166252413
-0.179258291176888	-0.0653282480804653
-0.179258291176888	-0.389619862641102
-0.179258291176888	0.249851518647645
-0.179258291176888	0.0611049927578159
-0.179258291176888	0.343445520588483
-0.179258291176888	-0.445620187022298
-0.179258291176888	-0.349626446993712
-0.179258291176888	0.0101378918727317
-0.179258291176888	0.454790233876546
-0.179258291176888	0.332998016658103
-0.179258291176888	-1.09088853339771
-0.179258291176888	-0.424730991956635
-0.179258291176888	-0.447085693107253
-0.179258291176888	-0.573704035537361
-0.179258291176888	-0.565350917007456
-0.179258291176888	0.0635464869152846
-0.179258291176888	0.487135557747859
-0.179258291176888	-0.103666916005486
-0.179258291176888	0.234170211783641
-0.179258291176888	-0.254023693115731
-0.179258291176888	-0.558934037117219
-0.179258291176888	-0.535037368081336
-0.179258291176888	0.576961465863935
-0.179258291176888	0.379392359960243
-0.179258291176888	-0.547238407649344
-0.179258291176888	0.133269131954241
-0.179258291176888	-0.0695461014193941
-0.179258291176888	-0.433997181254645
-0.179258291176888	-0.223137559202561
-0.179258291176888	0.546396450743873
-0.179258291176888	-0.627536980378306
-0.179258291176888	-0.219054844006418
-0.179258291176888	0.0112560737379337
-0.179258291176888	0.141392262894472
-0.179258291176888	0.299654122192184
-0.179258291176888	-0.402547074397079
-0.179258291176888	-0.0664923387474964
-0.179258291176888	0.0385818578930185
-0.179258291176888	0.170131786341177
-0.179258291176888	-0.078403098278937
-0.179258291176888	-0.617638760436356
-0.179258291176888	-0.495234647031464
-0.179258291176888	-0.199705174681596
-0.179258291176888	-0.054342116903897
-0.179258291176888	0.146355299976106
-0.179258291176888	-0.622384426044887
-0.179258291176888	0.423395716094371
-0.179258291176888	-0.364869624951159
-0.179258291176888	-0.243012265315535
-0.179258291176888	-0.175796615497799
-0.179258291176888	-0.499066425643074
-0.179258291176888	0.725145766078976
-0.179258291176888	-0.16469232234652
-0.179258291176888	0.258051888797651
-0.179258291176888	0.205910589129582
-0.179258291176888	-0.258805000405545
-0.179258291176888	-0.616834518417991
-0.179258291176888	-0.157694857930008
-0.179258291176888	-0.582735102955631
-0.179258291176888	0.165361848253484
-0.179258291176888	-0.130190924015816
-0.179258291176888	-0.514087268000959
-0.179258291176888	0.518188773853453
-0.179258291176888	-0.449668758183419
-0.179258291176888	0.165758419252315
-0.179258291176888	0.58224395691966
-0.179258291176888	-0.507183567587371
-0.179258291176888	-0.598994160559909
-0.179258291176888	-0.755037018465536
-0.179258291176888	-0.701043446462701
-0.179258291176888	-0.0450508385082642
-0.179258291176888	0.643292824669408
-0.179258291176888	-0.0702110530937423
-0.179258291176888	-0.346661763452585
-0.179258291176888	-0.185541335236574
-0.179258291176888	-0.0644396812356225
-0.179258291176888	0.379064361687086
-0.179258291176888	0.0165309600681145
-0.179258291176888	-0.141365581953533
-0.179258291176888	0.209507947335899
-0.179258291176888	-0.131056279236968
-0.179258291176888	-0.108550619419824
-0.179258291176888	-0.426866444950839
-0.179258291176888	0.495467576231957
-0.179258291176888	-0.229797752752466
-0.179258291176888	-0.0870991501681771
-0.179258291176888	-0.358149191306283
-0.179258291176888	-0.801706693169876
-0.179258291176888	-0.124752594654655
-0.179258291176888	0.696517208171301
-0.179258291176888	-0.0203619203758887
-0.179258291176888	0.0303738034891119
-0.179258291176888	0.63199789023131
-0.179258291176888	0.035040740808355
-0.179258291176888	-0.361961450702031
-0.179258291176888	0.773604797154042
-0.179258291176888	0.131602808820154
-0.179258291176888	0.518819440785715
-0.179258291176888	0.21233672883891
-0.179258291176888	-0.437078532964998
-0.179258291176888	-0.505960599772737
-0.179258291176888	0.0389005750751108
-0.179258291176888	0.063980785530905
-0.179258291176888	-0.146032181642773
-0.179258291176888	0.482684754508936
-0.179258291176888	1.11867874368105
-0.179258291176888	-0.031800116290917
-0.179258291176888	0.242522203713007
-0.179258291176888	0.306663350407743
-0.179258291176888	-0.217263246163975
-0.179258291176888	-1.14227723337298
-0.179258291176888	0.0795555242737187
-0.179258291176888	0.300067204518924
-0.179258291176888	-0.107761844543587
-0.179258291176888	0.379386751657823
-0.179258291176888	-0.473917876736129
-0.179258291176888	-0.315689232752185
-0.179258291176888	0.109288258549206
-0.179258291176888	-0.22986164093122
-0.179258291176888	0.305882496770306
-0.179258291176888	0.105841333275728
-0.179258291176888	-0.0154032201318624
-0.179258291176888	0.235399656507357
-0.179258291176888	-0.457076181668022
-0.179258291176888	0.135661454470117
-0.179258291176888	-0.562914679314737
-0.179258291176888	-0.506567073348734
-0.179258291176888	0.436375871207675
-0.179258291176888	0.300897351922715
-0.179258291176888	0.55185777763925
-0.179258291176888	-0.887940712184831
-0.179258291176888	-0.0933145499709253
-0.179258291176888	0.329553700098643
-0.179258291176888	-0.534881116682589
-0.179258291176888	0.107986646941925
-0.179258291176888	-0.89411396368008
-0.179258291176888	-0.662214905339579
-0.179258291176888	0.19354391701636
-0.179258291176888	-0.23275656653761
-0.179258291176888	-0.758501338251653
-0.179258291176888	-0.451909071131344
-0.179258291176888	0.688663891905891
-0.179258291176888	-0.502442007775274
-0.179258291176888	0.215240002114613
-0.179258291176888	-0.484814937972223
-0.179258291176888	-0.427746038939858
-0.179258291176888	0.114065877986551
-0.179258291176888	0.185532024117794
-0.179258291176888	0.168053879861118
-0.179258291176888	0.416952229335594
-0.179258291176888	-0.0769870245773534
-0.179258291176888	0.0499808376874658
-0.179258291176888	-0.762322194897292
-0.179258291176888	-0.208737325844229
-0.179258291176888	0.429981298137818
-0.179258291176888	-0.139971997669531
-0.179258291176888	0.0841525894511207
-0.179258291176888	0.546154949663278
-0.179258291176888	-1.02342709794078
-0.179258291176888	0.12334695590282
-0.179258291176888	-0.583830003364989
-0.179258291176888	-0.550741328991021
-0.179258291176888	-0.720593211732822
-0.179258291176888	-0.420809482386829
-0.179258291176888	-0.0793832009767928
-0.179258291176888	-0.228174462686147
-0.179258291176888	-0.198222584602
-0.179258291176888	0.385488354668425
-0.179258291176888	0.531160131473807
-0.179258291176888	-0.229580605058962
-0.179258291176888	0.269015143929692
-0.179258291176888	0.678571942594453
-0.179258291176888	0.0553273972597668
-0.179258291176888	0.129597442825216
-0.179258291176888	0.992486644853074
-0.179258291176888	-0.312162633522266
-0.179258291176888	0.0691166606447459
-0.179258291176888	0.17170269519211
-0.179258291176888	-0.318255737748167
-0.179258291176888	0.231776402286725
-0.179258291176888	-0.153989976654627
-0.179258291176888	0.14559168300887
-0.179258291176888	0.185677627241063
-0.179258291176888	0.308450948641385
-0.179258291176888	0.450211885326582
-0.179258291176888	-0.147156733318707
-0.179258291176888	0.174997949492411
-0.179258291176888	0.759929149776235
-0.179258291176888	0.109661169512016
-0.179258291176888	0.140352599438918
-0.179258291176888	0.404066695486099
-0.179258291176888	-0.191611225545375
-0.179258291176888	0.571644778401086
-0.179258291176888	-1.09096451663573
-0.179258291176888	-0.305342503610762
-0.179258291176888	-0.659029483839573
-0.179258291176888	0.745388944219966
-0.179258291176888	-0.105185930472549
-0.179258291176888	0.0200645186933872
-0.179258291176888	0.0242957163823786
-0.179258291176888	-0.0171637544433495
-0.179258291176888	-0.17210437922268
-0.179258291176888	0.562598224412024
-0.179258291176888	0.334779489677381
-0.179258291176888	-0.387344652395011
-0.179258291176888	-0.585645575869001
-0.179258291176888	0.29563389293638
-0.179258291176888	0.112644322454986
-0.179258291176888	-0.0443279027584638
-0.179258291176888	-0.536226079336589
-0.179258291176888	-0.2713941682574
-0.179258291176888	0.170006298207653
-0.179258291176888	0.0798903224903009
-0.179258291176888	-0.387185194509396
-0.179258291176888	0.175082383192952
-0.179258291176888	-0.284968969030008
-0.179258291176888	-0.214610463708433
-0.179258291176888	-0.401566544098238
-0.179258291176888	-1.09748539978721
-0.179258291176888	-0.30713873912026
-0.179258291176888	-0.214384561880272
-0.179258291176888	0.126008689522072
-0.179258291176888	-0.218034175866973
-0.179258291176888	0.181374617348209
-0.179258291176888	-0.457526367878198
-0.179258291176888	-0.17147375969161
-0.179258291176888	0.210771759561345
-0.179258291176888	0.473952993063503
-0.179258291176888	-0.0404463453348671
-0.179258291176888	-0.321962399850541
-0.179258291176888	-0.506268115632929
-0.179258291176888	0.498228987992152
-0.179258291176888	0.184945387622956
-0.179258291176888	-0.178244336987338
-0.179258291176888	0.62538332702112
-0.179258291176888	-0.700803049746061
-0.179258291176888	0.14015443905871
-0.179258291176888	0.070843864623384
-0.179258291176888	0.081452676950839
-0.179258291176888	-0.0969608277413374
-0.179258291176888	-0.164230617537726
-0.179258291176888	-0.205008679154431
-0.179258291176888	0.0782777037862383
-0.179258291176888	-0.273409472544235
-0.179258291176888	-0.498341500152578
-0.179258291176888	-0.5458691564933
-0.179258291176888	-0.575409940568642
-0.179258291176888	-0.251133140566241
-0.179258291176888	0.416365717589659
-0.179258291176888	0.356418477528087
-0.179258291176888	-0.212550015264294
-0.179258291176888	0.204118047536595
-0.179258291176888	-0.288512597231694
-0.179258291176888	0.413218767401654
-0.179258291176888	0.537274736029381
-0.179258291176888	-0.283636713142562
-0.179258291176888	0.250735099012433
-0.179258291176888	-0.976178162934736
-0.179258291176888	-0.411382312484958
-0.179258291176888	-0.737815763022544
-0.179258291176888	-0.374484609195626
-0.179258291176888	-0.395700560860513
-0.179258291176888	0.0501464890312675
-0.179258291176888	0.643322205307496
-0.179258291176888	-0.0590146821068694
-0.179258291176888	-0.00186530676009812
-0.179258291176888	0.210312264513812
-0.179258291176888	-0.26939934490322
-0.179258291176888	-0.285800070090688
-0.179258291176888	0.234398671303027
-0.179258291176888	0.418949393441648
-0.179258291176888	0.035319110565779
-0.179258291176888	-0.238298895714728
-0.179258291176888	-0.606550952090762
-0.179258291176888	-0.284198984235986
-0.179258291176888	-0.57825515227583
-0.179258291176888	-0.170861119148494
-0.179258291176888	-0.323163516748049
-0.179258291176888	0.440762728462235
-0.179258291176888	0.337045567432962
-0.179258291176888	0.62938222155696
