V1	V2
-0.04910706078903	0.668564278572347
-0.04910706078903	-0.880367870951059
-0.04910706078903	-1.06605766648469
-0.04910706078903	-1.27438060358522
-0.04910706078903	0.380848670936299
-0.04910706078903	-0.382788260299709
-0.04910706078903	0.999853098397416
-0.04910706078903	0.221067589951641
-0.04910706078903	0.699319420074701
-0.04910706078903	-0.404082016442491
-0.04910706078903	-0.743276899691821
-0.04910706078903	-1.07827361726324
-0.04910706078903	0.968009694715484
-0.04910706078903	0.232200593774625
-0.04910706078903	-0.735765385388092
-0.04910706078903	0.200880920704755
-0.04910706078903	-1.59280800858165
-0.04910706078903	2.12088173103986
-0.04910706078903	-0.446799363113126
-0.04910706078903	1.02787241031807
-0.04910706078903	-0.171843174578012
-0.04910706078903	-0.270262669320481
-0.04910706078903	0.314084853232725
-0.04910706078903	1.00275504487059
-0.04910706078903	-1.3438376833906
-0.04910706078903	0.60041154300518
-0.04910706078903	-0.202252846104489
-0.04910706078903	-1.07353767339444
-0.04910706078903	0.0306387262513006
-0.04910706078903	0.365893005096112
-0.04910706078903	-0.205588453342234
-0.04910706078903	-0.122286613551342
-0.04910706078903	0.294321579286052
-0.04910706078903	0.582155221663356
-0.04910706078903	-0.060904956079419
-0.04910706078903	-0.492632743764201
-0.04910706078903	-0.783672144354934
-0.04910706078903	-0.356023560712643
-0.04910706078903	-1.33400378420434
-0.04910706078903	-0.992422571514709
-0.04910706078903	-1.1506564299611
-0.04910706078903	-0.761049541395881
-0.04910706078903	-1.00005428632679
-0.04910706078903	0.535633807091621
-0.04910706078903	0.323540673473161
-0.04910706078903	-0.347863215088527
-0.04910706078903	-0.124213500497159
-0.04910706078903	-0.406669810089195
-0.04910706078903	-1.44861580417085
-0.04910706078903	0.357877923228759
-0.04910706078903	-0.0481681474105145
-0.04910706078903	0.400635564895342
-0.04910706078903	-0.362137071841065
-0.04910706078903	-0.441989267395702
-0.04910706078903	-0.224565537116533
-0.04910706078903	-1.01019006828484
-0.04910706078903	1.78389614578571
-0.04910706078903	-0.433257950766698
-0.04910706078903	1.9887073863842
-0.04910706078903	-0.65501286355714
-0.04910706078903	0.44567558242154
-0.04910706078903	-0.353000405409617
-0.04910706078903	0.019734529485973
-0.04910706078903	-0.524700750502728
-0.04910706078903	0.0541030236241298
-0.04910706078903	0.968309755584084
-0.04910706078903	-1.13893432396645
-0.04910706078903	-0.0466880343155687
-0.04910706078903	1.32077522050577
-0.04910706078903	0.400084793099271
-0.04910706078903	0.519336136489034
-0.04910706078903	-0.509414071302349
-0.04910706078903	-1.55825283162545
-0.04910706078903	-0.153530719792645
-0.04910706078903	-0.599267653006439
-0.04910706078903	0.0436606559906032
-0.04910706078903	-0.0968804187893326
-0.04910706078903	-0.850010125678075
-0.04910706078903	0.363340580714869
-0.04910706078903	0.53197452832185
-0.04910706078903	0.344699494705491
-0.04910706078903	-1.02898261660295
-0.04910706078903	0.628775491940601
-0.04910706078903	0.482010054903643
-0.04910706078903	-0.664200519813381
-0.04910706078903	1.21545535879282
-0.04910706078903	-0.458544098231254
-0.04910706078903	-0.184885171503147
-0.04910706078903	-0.2871042983178
-0.04910706078903	0.233090608390093
-0.04910706078903	-0.248034185296071
-0.04910706078903	-0.390548011403961
-0.04910706078903	0.648594672532443
-0.04910706078903	0.879928993917282
-0.04910706078903	0.197779392964204
-0.04910706078903	0.365764825294821
-0.04910706078903	0.66572365433208
-0.04910706078903	-1.26131895774281
-0.04910706078903	1.4282922002507
-0.04910706078903	0.00657574272304373
-0.04910706078903	1.1346839327787
-0.04910706078903	-1.0517987269447
-0.04910706078903	0.354779872236488
-0.04910706078903	0.425574890545665
-0.04910706078903	0.332132868242972
-0.04910706078903	0.271341820007159
-0.04910706078903	-1.35431256007579
-0.04910706078903	0.319757627796655
-0.04910706078903	0.0443376311197561
-0.04910706078903	-1.00860712152232
-0.04910706078903	0.22630048838198
-0.04910706078903	-0.70285359669229
-0.04910706078903	0.292101539136549
-0.04910706078903	0.939860600572324
-0.04910706078903	1.05754561494012
-0.04910706078903	0.861674767492563
-0.04910706078903	1.07332422728952
-0.04910706078903	-0.858339550404398
-0.04910706078903	0.110869987935157
-0.04910706078903	0.441230959633341
-0.04910706078903	0.187452104145365
-0.04910706078903	-0.64671225594455
-0.04910706078903	-0.822543784158441
-0.04910706078903	-0.690101123763512
-0.04910706078903	-0.576409831258218
-0.04910706078903	0.667914087703508
-0.04910706078903	-0.216826608921508
-0.04910706078903	1.26185418251491
-0.04910706078903	-0.539898658748783
-0.04910706078903	-0.0650970673280185
-0.04910706078903	0.5205817258718
-0.04910706078903	-0.368479807764199
-0.04910706078903	1.38559556532014
-0.04910706078903	1.27702717330539
-0.04910706078903	0.426218691512144
-0.04910706078903	0.106548118918212
-0.04910706078903	0.633346553706243
-0.04910706078903	0.15467703023355
-0.04910706078903	0.281935158743227
-0.04910706078903	-0.501200864991379
-0.04910706078903	0.563161752737948
-0.04910706078903	-1.5232155793345
-0.04910706078903	-0.804029718713824
-0.04910706078903	0.871287429261645
-0.04910706078903	0.124434982071083
-0.04910706078903	-0.768464976689877
-0.04910706078903	0.63844593144816
-0.04910706078903	1.30999470635737
-0.04910706078903	-0.0739485948116148
-0.04910706078903	-0.0219011419941957
-0.04910706078903	0.592039684700904
-0.04910706078903	-0.905488655657713
-0.04910706078903	-1.0567042540458
-0.04910706078903	0.256365022742312
-0.04910706078903	0.687972536435947
-0.04910706078903	-0.211881441017056
-0.04910706078903	0.542604899591549
-0.04910706078903	1.88624527329362
-0.04910706078903	0.588353312195885
-0.04910706078903	-0.117820415612979
-0.04910706078903	-0.943810134235289
-0.04910706078903	0.337333735167068
-0.04910706078903	-0.346652317907868
-0.04910706078903	-0.141541425232568
-0.04910706078903	-1.33950627600354
-0.04910706078903	0.8961700771492
-0.04910706078903	0.539018471321175
-0.04910706078903	0.532118014945393
-0.04910706078903	0.550677891854818
-0.04910706078903	-0.223938634104208
-0.04910706078903	-1.31905889318074
-0.04910706078903	-1.30780332205483
-0.04910706078903	-0.385781786906335
-0.04910706078903	-1.31100474948652
-0.04910706078903	-0.327879539414162
-0.04910706078903	-0.494700535965929
-0.04910706078903	-0.157491868487231
-0.04910706078903	0.359385809958681
-0.04910706078903	-0.573376504706925
-0.04910706078903	0.169776706669591
-0.04910706078903	-0.191857641608539
-0.04910706078903	0.758424856629549
-0.04910706078903	0.113562446992621
-0.04910706078903	-0.545560063728189
-0.04910706078903	0.600847958833
-0.04910706078903	0.547564339848879
-0.04910706078903	-0.28883869201497
-0.04910706078903	0.551566851861573
-0.04910706078903	-1.08163686344082
-0.04910706078903	0.321998543491347
-0.04910706078903	1.50194929999614
-0.04910706078903	-0.890843565557613
-0.04910706078903	-0.580602579009433
-0.04910706078903	-1.07915490395424
-0.04910706078903	-0.594010781294489
-0.04910706078903	0.446065934353392
-0.04910706078903	0.39077625235803
-0.04910706078903	-1.40245674198295
-0.04910706078903	-0.241989743163497
-0.04910706078903	0.759217407204211
-0.04910706078903	-0.565724662519912
-0.04910706078903	0.110219755169805
-0.04910706078903	0.363882114715086
-0.04910706078903	0.793352731631909
-0.04910706078903	0.0797032023048168
-0.04910706078903	-0.840867294314734
-0.04910706078903	-0.655868047264388
-0.04910706078903	-0.640674122769951
-0.04910706078903	0.309124475001568
-0.04910706078903	-0.00289337994318473
-0.04910706078903	-0.369035840296622
-0.04910706078903	-1.55964597000236
-0.04910706078903	0.320182018812616
-0.04910706078903	1.38406723561866
-0.04910706078903	0.181623786229874
-0.04910706078903	0.667345576977372
-0.04910706078903	-0.238786473599056
-0.04910706078903	-1.09114492332002
-0.04910706078903	0.26656430440887
-0.04910706078903	-1.36552188824508
-0.04910706078903	1.05864735599139
-0.04910706078903	-0.517789678336435
-0.04910706078903	0.483801018627641
-0.04910706078903	-1.04459000921991
-0.04910706078903	0.326483879937676
-0.04910706078903	-1.14255884973008
-0.04910706078903	-0.361987471669586
-0.04910706078903	-1.10244444914239
-0.04910706078903	-0.126153539610915
-0.04910706078903	0.589800254366551
-0.04910706078903	0.966265276212763
-0.04910706078903	-0.716194260458831
-0.04910706078903	-0.597199185626948
-0.04910706078903	-1.16437437867511
-0.04910706078903	-0.444317122403884
-0.04910706078903	0.0358768648137939
-0.04910706078903	-0.104808000506434
-0.04910706078903	-0.245918597677925
-0.04910706078903	-0.176123211401968
-0.04910706078903	0.216513163465773
-0.04910706078903	-0.8595356670413
-0.04910706078903	-1.46920764236026
-0.04910706078903	-0.175415933212022
-0.04910706078903	0.422416480169623
-0.04910706078903	1.21912946882624
-0.04910706078903	-0.0554015362203053
-0.04910706078903	-0.0579246843050747
-0.04910706078903	-0.805350530088671
-0.04910706078903	-0.417878117533519
-0.04910706078903	0.320162968885636
-0.04910706078903	-1.66236796264922
-0.04910706078903	0.447201101578774
-0.04910706078903	-1.40672830518637
-0.04910706078903	0.342657328540856
-0.04910706078903	0.525100973305694
-0.04910706078903	-1.01755911993777
-0.04910706078903	2.05342186524045
-0.04910706078903	-0.0417533186963794
-0.04910706078903	-0.272900597551612
-0.04910706078903	1.666046508179
-0.04910706078903	-1.5061536904963
-0.04910706078903	-0.251456500319286
-0.04910706078903	-0.131620074845632
-0.04910706078903	0.382347906336463
-0.04910706078903	-0.307866355383926
-0.04910706078903	0.422022421719106
-0.04910706078903	-0.85020042173057
-0.04910706078903	-0.574360460694521
-0.04910706078903	0.95507907150877
-0.04910706078903	-0.907066323559608
-0.04910706078903	0.471535139432781
-0.04910706078903	-0.413882971833932
-0.04910706078903	-0.432905061744439
-0.04910706078903	-0.0600793480396185
-0.04910706078903	0.609497407880145
-0.04910706078903	-0.859013371788162
-0.04910706078903	-0.546912559081335
-0.04910706078903	0.0593516047059417
-0.04910706078903	-0.250472723393635
-0.04910706078903	-1.27185607465799
-0.04910706078903	-0.653075749349338
-0.04910706078903	-0.39016935220172
-0.04910706078903	-1.72944663244401
-0.04910706078903	-0.0680828428206475
-0.04910706078903	0.239871720872657
-0.04910706078903	0.312832258254382
-0.04910706078903	0.311656920145964
-0.04910706078903	-1.69602970594244
-0.04910706078903	0.588953472674948
-0.04910706078903	-0.165106520494163
-0.04910706078903	-0.307308700952564
-0.04910706078903	-0.385448522064809
-0.04910706078903	1.51851752064784
-0.04910706078903	-1.54108163239037
-0.04910706078903	-1.21985427316712
-0.04910706078903	0.339918225071198
-0.04910706078903	-1.05399265166441
-0.04910706078903	-0.131814710040995
-0.04910706078903	0.9824133857921
-0.04910706078903	-0.54294410098785
-0.04910706078903	-0.172061942232798
-0.04910706078903	-0.469288938580842
-0.04910706078903	-0.454174171837508
-0.04910706078903	0.223823590473554
-0.04910706078903	-1.14730531477465
-0.04910706078903	0.383633140474281
-0.04910706078903	-0.179827171194052
-0.04910706078903	-0.847170225325517
-0.04910706078903	-0.206355295696635
-0.04910706078903	-1.23201079508259
-0.04910706078903	0.330469566711709
-0.04910706078903	0.380856343680893
-0.04910706078903	0.40670056282633
-0.04910706078903	-0.476518936697722
-0.04910706078903	0.108158233467339
-0.04910706078903	0.342633980764457
-0.04910706078903	-0.811055290684777
-0.04910706078903	0.33443354852157
-0.04910706078903	0.751297500956369
-0.04910706078903	-0.383904069449112
-0.04910706078903	0.480032899338088
-0.04910706078903	0.503873509534824
-0.04910706078903	0.380773612751259
-0.04910706078903	0.98214375955865
-0.04910706078903	0.0302122755787195
-0.04910706078903	0.911092920658302
-0.04910706078903	0.38435993706381
-0.04910706078903	-0.031670421767469
-0.04910706078903	0.173070286092877
-0.04910706078903	0.900412881122456
-0.04910706078903	0.188789775629751
-0.04910706078903	-0.276948400735787
-0.04910706078903	0.856591408903185
-0.04910706078903	-1.10672734726822
-0.04910706078903	-0.389411223096616
-0.04910706078903	0.478822744138402
-0.04910706078903	-0.470534565074182
-0.04910706078903	-1.00210444305286
-0.04910706078903	-0.749568220121045
-0.04910706078903	-0.128623599227712
-0.04910706078903	-0.366832357857163
-0.04910706078903	0.873018916775209
-0.04910706078903	-0.282700771561966
-0.04910706078903	0.680486225482689
-0.04910706078903	-0.140435163949014
-0.04910706078903	-0.931274716542696
-0.04910706078903	-0.489357257042457
-0.04910706078903	-1.22611599107831
-0.04910706078903	-1.12962585890934
-0.04910706078903	0.305496571764756
-0.04910706078903	-0.913553307324118
-0.04910706078903	-0.444467576571931
-0.04910706078903	-0.563259879808822
-0.04910706078903	-1.04418997462024
-0.04910706078903	1.44045584524082
-0.04910706078903	-3.29988833634897
-0.04910706078903	-1.49937780428062
-0.04910706078903	0.15396853753116
-0.04910706078903	-1.01213559543831
-0.04910706078903	-0.289770117460222
-0.04910706078903	1.07253513945183
-0.04910706078903	1.85064960495771
-0.04910706078903	-0.988768356959479
-0.04910706078903	-0.463620282436469
-0.04910706078903	-0.257237064157948
-0.04910706078903	0.62506184731221
-0.04910706078903	0.911226803130329
-0.04910706078903	0.555881944752528
-0.04910706078903	0.102573220057881
-0.04910706078903	-1.62620687463026
-0.04910706078903	1.2724974985015
-0.04910706078903	-0.0485278286904212
-0.04910706078903	0.656408617595048
-0.04910706078903	-0.916328085687304
-0.04910706078903	1.75486389834589
-0.04910706078903	1.09402326228027
-0.04910706078903	-0.533951885134901
-0.04910706078903	0.384121492421869
-0.04910706078903	-1.18248846493586
-0.04910706078903	0.32516427875937
-0.04910706078903	0.451084683649938
-0.04910706078903	-0.817282763860476
-0.04910706078903	1.07597495630902
-0.04910706078903	-1.49676431153385
-0.04910706078903	-0.225382058967639
-0.04910706078903	1.1295657577586
-0.04910706078903	0.837982608138539
-0.04910706078903	-0.0347223390752305
-0.04910706078903	0.939132231406237
-0.04910706078903	-0.105090114281811
-0.04910706078903	-0.337768558231765
-0.04910706078903	-0.214249100894062
-0.04910706078903	-0.775360687292189
-0.04910706078903	-0.341944089709077
-0.04910706078903	-0.102560340689354
-0.04910706078903	-0.510721095715141
-0.04910706078903	-0.706947229417885
-0.04910706078903	0.00977882080333714
-0.04910706078903	1.21322446656529
-0.04910706078903	1.33042206868326
-0.04910706078903	-0.121990714738473
-0.04910706078903	0.525237724903018
-0.04910706078903	-0.318369421350098
-0.04910706078903	-0.593522515140517
-0.04910706078903	-1.32866822025378
-0.04910706078903	-0.0610592153333229
-0.04910706078903	-0.262248069181375
-0.04910706078903	1.15099358535872
-0.04910706078903	-1.64812642034617
-0.04910706078903	-0.425765453302432
-0.04910706078903	-0.610635780149135
-0.04910706078903	-0.802538763652581
-0.04910706078903	-0.0233018719288438
-0.04910706078903	-0.771631760507812
-0.04910706078903	-1.21906282629939
-0.04910706078903	-1.25305476029729
-0.04910706078903	0.159539389943362
-0.04910706078903	-0.0267341698436319
-0.04910706078903	-0.196515824016252
-0.04910706078903	0.14380210309243
-0.04910706078903	0.906613567279944
-0.04910706078903	0.126569932276162
-0.04910706078903	1.07974343886396
-0.04910706078903	-1.2558513853516
-0.04910706078903	0.260939494275281
-0.04910706078903	-0.601130878986261
-0.04910706078903	1.4071868788142
-0.04910706078903	0.787837475802064
-0.04910706078903	0.604778355626326
-0.04910706078903	-0.323181842252424
-0.04910706078903	0.053890713574738
-0.04910706078903	0.549122481400769
-0.04910706078903	0.556952761496934
-0.04910706078903	-0.320381886992326
-0.04910706078903	-1.2603291946972
-0.04910706078903	-0.565710052861068
-0.04910706078903	-1.08443275570045
-0.04910706078903	-0.101157511179483
-0.04910706078903	0.590748324086437
-0.04910706078903	0.170962157714673
-0.04910706078903	1.00910055614857
-0.04910706078903	-1.06531590401942
-0.04910706078903	0.611615560317158
-0.04910706078903	-0.749535649452184
-0.04910706078903	0.114305428149358
-0.04910706078903	-0.495244063770155
-0.04910706078903	-1.05056937176484
-0.04910706078903	-0.0273996319218774
-0.04910706078903	-1.41100511673014
-0.04910706078903	0.51447223475914
-0.04910706078903	-0.984983348711168
-0.04910706078903	0.769561562453291
-0.04910706078903	0.0935608961254566
-0.04910706078903	-0.299505390344532
-0.04910706078903	-0.371017008548904
-0.04910706078903	-0.434202081271362
-0.04910706078903	0.413928466349791
-0.04910706078903	-1.5791214238053
-0.04910706078903	1.14340479680361
-0.04910706078903	-1.51268752376894
-0.04910706078903	0.0932774407676931
-0.04910706078903	-0.540205857661128
-0.04910706078903	0.764701291094905
-0.04910706078903	-0.520495114656683
-0.04910706078903	0.831375469805479
-0.04910706078903	0.568354664683554
-0.04910706078903	-0.865103652677437
-0.04910706078903	-0.83967323041534
-0.04910706078903	1.42188619962295
-0.04910706078903	0.347091341113458
-0.04910706078903	-0.25807156466124
-0.04910706078903	0.212087091889529
-0.04910706078903	-1.12463024854222
-0.04910706078903	0.323182717421133
-0.04910706078903	-0.166403478553541
-0.04910706078903	0.0243893575863368
-0.04910706078903	-0.730515614022675
-0.04910706078903	0.913555361608445
-0.04910706078903	-0.604583033217477
-0.04910706078903	0.172902178349904
-0.04910706078903	-0.058616924031508
-0.04910706078903	-0.32945824390525
-0.04910706078903	-1.48122814695049
-0.04910706078903	-0.724318010612368
-0.04910706078903	-0.566686894587285
-0.04910706078903	-0.162334857108902
-0.04910706078903	0.504378340635569
-0.04910706078903	-0.372023363225452
-0.04910706078903	1.14934839337095
-0.04910706078903	0.0925423554830047
-0.04910706078903	1.05384357091088
-0.04910706078903	-0.406500403730696
-0.04910706078903	1.34784867659556
-0.04910706078903	-0.522770480972778
-0.04910706078903	0.702980475169525
-0.04910706078903	0.112610500723754
-0.04910706078903	-0.26463387282611
-0.04910706078903	0.386358338014141
-0.04910706078903	0.171755756909153
-0.04910706078903	0.435799386604504
-0.04910706078903	1.52610455405089
-0.04910706078903	-0.750284844969066
-0.04910706078903	-2.17273335491495
-0.04910706078903	0.72880660900918
-0.04910706078903	-1.00750519859266
-0.04910706078903	1.02396481705684
-0.04910706078903	0.647016585336338
-0.04910706078903	0.138066209773417
-0.04910706078903	-0.842362590131852
-0.04910706078903	-0.573361523166469
-0.04910706078903	0.564499105744321
-0.04910706078903	-0.242404749198393
-0.04910706078903	-0.420155442919864
-0.04910706078903	0.0343318110904036
-0.04910706078903	0.0391784670569493
-0.04910706078903	0.203962658937414
-0.04910706078903	-0.873608444421265
-0.04910706078903	0.181782412217263
-0.04910706078903	-0.559956810048742
-0.04910706078903	0.346249251776204
-0.04910706078903	-0.90328288657933
-0.04910706078903	-0.190207695379467
-0.04910706078903	-0.610425730177759
-0.04910706078903	-0.937547879861636
-0.04910706078903	0.468901024068131
-0.04910706078903	0.397400297262465
-0.04910706078903	-1.03473727951418
-0.04910706078903	-0.678538007911289
-0.04910706078903	0.875446099585055
-0.04910706078903	-1.2794776248824
-0.04910706078903	-0.639548416720864
-0.04910706078903	-0.685304927561148
-0.04910706078903	0.603171004745281
-0.04910706078903	-1.02932020481675
-0.04910706078903	-0.82801110626502
-0.04910706078903	-0.437805858290471
-0.04910706078903	1.33295139316951
-0.04910706078903	1.66888150215835
-0.04910706078903	-0.0779498166963819
-0.04910706078903	0.375711908509604
-0.04910706078903	0.291788409392893
-0.04910706078903	-1.03846371287512
-0.04910706078903	-0.236808112923057
-0.04910706078903	-0.276604535464088
-0.04910706078903	-0.369785142879181
-0.04910706078903	1.50933819960218
-0.04910706078903	-1.68659172880521
-0.04910706078903	0.405372367789546
-0.04910706078903	0.685211458460088
-0.04910706078903	-0.795416926334422
-0.04910706078903	0.604776854291849
-0.04910706078903	-0.717434967247865
-0.04910706078903	0.0997189093424353
-0.04910706078903	-0.644761553219755
-0.04910706078903	0.185821977275442
-0.04910706078903	1.6588177265861
-0.04910706078903	-1.14769519171131
-0.04910706078903	-1.06699018702254
-0.04910706078903	-0.357771239142043
-0.04910706078903	0.609177967595677
-0.04910706078903	0.0669861853618627
-0.04910706078903	-0.91619805468482
-0.04910706078903	0.652563690537274
-0.04910706078903	0.106409928606478
-0.04910706078903	-0.356007756935913
-0.04910706078903	-0.683536322852518
-0.04910706078903	-0.297712156030556
-0.04910706078903	-0.205153153656614
-0.04910706078903	0.863804011934999
-0.04910706078903	0.318786882101662
-0.04910706078903	0.755580864758738
-0.04910706078903	-1.79950333409758
-0.04910706078903	0.462921961316699
-0.04910706078903	0.094302701552369
-0.04910706078903	0.392145704574187
-0.04910706078903	0.435816412635432
-0.04910706078903	0.0168110366196998
-0.04910706078903	-0.280845724247431
-0.04910706078903	1.04372886050491
-0.04910706078903	-1.13346127852086
-0.04910706078903	0.496333410627592
-0.04910706078903	-0.312368097541412
-0.04910706078903	0.254190681363632
-0.04910706078903	-1.1681175297231
-0.04910706078903	-0.91632856503648
-0.04910706078903	0.122732355852715
-0.04910706078903	-0.485668317843412
-0.04910706078903	-0.241971299282877
-0.04910706078903	-0.226957701942226
-0.04910706078903	-0.835592348418242
-0.04910706078903	-0.128779359834564
-0.04910706078903	-1.65359933852162
-0.04910706078903	0.883947961752071
-0.04910706078903	1.61134142470589
-0.04910706078903	-1.28814447011063
-0.04910706078903	-0.442910270824438
-0.04910706078903	-0.0367890124599697
-0.04910706078903	-0.0711195348678153
-0.04910706078903	0.0682257962345645
-0.04910706078903	-1.24956780252103
-0.04910706078903	0.867664901452812
-0.04910706078903	0.241703812938237
-0.04910706078903	0.903586065248472
-0.04910706078903	0.337812262167841
-0.04910706078903	-1.4928598008667
-0.04910706078903	1.07875213102322
-0.04910706078903	1.08761671830268
-0.04910706078903	0.841611581808653
-0.04910706078903	-0.605824033377051
-0.04910706078903	-0.140558400775198
-0.04910706078903	0.384204126339736
-0.04910706078903	0.433938168452212
-0.04910706078903	-0.0550856986850761
-0.04910706078903	0.498758262256207
-0.04910706078903	-0.646537425423144
-0.04910706078903	1.60596756692085
-0.04910706078903	0.378637113060609
-0.04910706078903	-0.632258040000867
-0.04910706078903	-0.765893071864625
-0.04910706078903	-0.900913144367937
-0.04910706078903	0.0645643130882476
-0.04910706078903	-2.00436340947839
-0.04910706078903	0.752979413872417
-0.04910706078903	0.49865415876581
-0.04910706078903	-0.875321333687626
-0.04910706078903	-1.38723004710057
-0.04910706078903	0.0684013305569202
-0.04910706078903	-0.124760769853413
-0.04910706078903	-0.0709133370074611
-0.04910706078903	-0.871360454284666
-0.04910706078903	-0.77027636568404
-0.04910706078903	-0.0876811520915375
-0.04910706078903	0.39141587842855
-0.04910706078903	-0.123468428708602
-0.04910706078903	0.454029581234504
-0.04910706078903	-0.705676904082793
-0.04910706078903	0.289029132623327
-0.04910706078903	-0.528866420327411
-0.04910706078903	0.559178938193401
-0.04910706078903	0.253119915378843
-0.04910706078903	-0.387438910964494
-0.04910706078903	-0.504489446443397
-0.04910706078903	0.198987222806235
-0.04910706078903	0.80194164274959
-0.04910706078903	-0.434687531218113
-0.04910706078903	-1.51137457255936
-0.04910706078903	-0.0818155405131336
-0.04910706078903	-1.86498254774303
-0.04910706078903	-0.21266806097384
-0.04910706078903	-0.413430631152515
-0.04910706078903	0.37394927332987
-0.04910706078903	0.524542025709387
-0.04910706078903	-0.828507272540829
-0.04910706078903	0.206727552522516
-0.04910706078903	-1.52551546782085
-0.04910706078903	0.00538540407671917
-0.04910706078903	0.733656818235069
-0.04910706078903	0.327055671475918
-0.04910706078903	0.256589840247532
-0.04910706078903	-1.40839322045478
-0.04910706078903	-1.02426695985222
-0.04910706078903	-0.00951151113459758
-0.04910706078903	-0.0982943080254444
-0.04910706078903	-1.6266950928214
-0.04910706078903	0.883601644779301
-0.04910706078903	-0.831291372974793
-0.04910706078903	-0.108468933256123
-0.04910706078903	-1.53706642798108
-0.04910706078903	0.222229936142924
-0.04910706078903	0.692577755800251
-0.04910706078903	-0.0756298285520494
-0.04910706078903	0.232666117380123
-0.04910706078903	0.248728618276523
-0.04910706078903	-0.263475815644444
-0.04910706078903	1.45054719036272
-0.04910706078903	-0.00843358188542354
-0.04910706078903	-0.436165125142256
-0.04910706078903	0.842965948756198
-0.04910706078903	1.16381729574677
-0.04910706078903	-0.806952841997884
-0.04910706078903	0.412700164886445
-0.04910706078903	-0.432966844931958
-0.04910706078903	0.307462932638948
-0.04910706078903	0.912111149066678
-0.04910706078903	0.246428705411933
-0.04910706078903	-1.00804799706991
-0.04910706078903	0.629431175518722
-0.04910706078903	0.19526696872737
-0.04910706078903	-0.752395913677216
-0.04910706078903	-0.61253795856009
-0.04910706078903	-0.806471189872596
-0.04910706078903	-0.916160323718636
-0.04910706078903	0.0745199638815564
-0.04910706078903	2.2848214623877
-0.04910706078903	-0.0768113484417086
-0.04910706078903	-0.554725653337933
-0.04910706078903	-0.742936260406108
-0.04910706078903	-0.813492843558866
-0.04910706078903	0.257989167343538
-0.04910706078903	-2.7999543270235
-0.04910706078903	0.0347301730868068
-0.04910706078903	-0.175803212763896
-0.04910706078903	0.558093536055562
-0.04910706078903	-0.163739158510623
-0.04910706078903	0.646124680567379
-0.04910706078903	0.707856065090567
-0.04910706078903	-0.871687069584688
-0.04910706078903	-0.452499234790196
-0.04910706078903	0.952622076032096
-0.04910706078903	-0.848443688657461
-0.04910706078903	-0.910251306118337
-0.04910706078903	0.240403842424406
-0.04910706078903	0.671960610925382
-0.04910706078903	-0.0236396150621623
-0.04910706078903	-0.341949613304102
-0.04910706078903	-0.37075320839585
-0.04910706078903	0.51371572443659
-0.04910706078903	0.837575041050997
-0.04910706078903	-0.277106679745756
-0.04910706078903	0.385405320514849
-0.04910706078903	0.0881857682145437
-0.04910706078903	0.5552463354474
-0.04910706078903	0.023721684425734
-0.04910706078903	0.194824575934636
-0.04910706078903	0.419989166760512
-0.04910706078903	-0.473497860689502
-0.04910706078903	-0.780925416162322
-0.04910706078903	-0.0757684740242652
-0.04910706078903	2.06818801416033
-0.04910706078903	-0.834570129013848
-0.04910706078903	1.02067355090434
-0.04910706078903	0.219431555548365
-0.04910706078903	0.582404631240852
-0.04910706078903	1.68425414691606
-0.04910706078903	0.28035346288457
-0.04910706078903	-0.0977209360310596
-0.04910706078903	0.313863773459442
-0.04910706078903	0.834003591727143
-0.04910706078903	1.41269221500084
-0.04910706078903	0.0599318285998294
-0.04910706078903	0.138291409807501
-0.04910706078903	0.955107574087737
-0.04910706078903	-0.172449154977791
-0.04910706078903	-0.411550222642504
-0.04910706078903	-0.898409154411375
-0.04910706078903	0.483436816777651
-0.04910706078903	-0.0431013306258308
-0.04910706078903	-0.597090546958313
-0.04910706078903	1.07651793277795
-0.04910706078903	0.909992837304536
-0.04910706078903	0.720016247640437
-0.04910706078903	-0.388557016642206
-0.04910706078903	-1.05904322589285
-0.04910706078903	-0.468733075063952
-0.04910706078903	1.18847555024378
-0.04910706078903	-0.120047839840922
-0.04910706078903	0.491727960712758
-0.04910706078903	-0.641474949954851
-0.04910706078903	-0.4993546545081
-0.04910706078903	-1.16446874310837
-0.04910706078903	-0.327775617024102
-0.04910706078903	-1.04390185239229
-0.04910706078903	-0.736036714124975
-0.04910706078903	0.407614924077304
-0.04910706078903	-0.534830938568167
-0.04910706078903	0.240557873169283
-0.04910706078903	0.0835670724972424
-0.04910706078903	1.03748045434059
-0.04910706078903	-0.575912735756024
-0.04910706078903	0.646914821041172
-0.04910706078903	0.443533879963873
-0.04910706078903	-0.175249423337391
-0.04910706078903	0.708280000755149
-0.04910706078903	-1.48566774213946
-0.04910706078903	0.98379006828533
-0.04910706078903	1.35843716979589
-0.04910706078903	-1.31652225854413
-0.04910706078903	1.74139696618797
-0.04910706078903	0.0307863254881653
-0.04910706078903	-0.0197636910649166
-0.04910706078903	0.1746962283481
-0.04910706078903	0.48301300447363
-0.04910706078903	-0.272406442332787
-0.04910706078903	0.103168821938691
-0.04910706078903	-1.40971612169582
-0.04910706078903	-0.708248672499586
-0.04910706078903	0.106812496218652
-0.04910706078903	-1.09606462905978
-0.04910706078903	0.658852151059495
-0.04910706078903	0.175337925843149
-0.04910706078903	-0.72900694137536
-0.04910706078903	-0.304370024977565
-0.04910706078903	-0.877858128376012
-0.04910706078903	0.270453450069979
-0.04910706078903	0.446898130842033
-0.04910706078903	-1.20615673901793
-0.04910706078903	1.25318815835314
-0.04910706078903	0.297482271284096
-0.04910706078903	0.526906071480152
-0.04910706078903	-0.808964613183502
-0.04910706078903	-1.25769441085321
-0.04910706078903	0.375316524255663
-0.04910706078903	-0.138855940411776
-0.04910706078903	0.640866097797666
-0.04910706078903	-0.163952006844337
-0.04910706078903	-0.140907185758657
-0.04910706078903	-0.121945710171619
-0.04910706078903	0.955444741500507
-0.04910706078903	-0.381542871164747
-0.04910706078903	-0.898349270475158
-0.04910706078903	-0.637808502414153
-0.04910706078903	0.475092003541857
-0.04910706078903	-0.0714553208797177
-0.04910706078903	0.256900068119016
-0.04910706078903	0.886333929147337
-0.04910706078903	0.268399866426538
-0.04910706078903	-0.483094775975093
-0.04910706078903	-0.14022058483134
-0.04910706078903	0.890903191099476
-0.04910706078903	0.697696731057455
-0.04910706078903	0.699051693165931
-0.04910706078903	0.0570579848614479
-0.04910706078903	-0.422252342581679
-0.04910706078903	-0.493714590725709
-0.04910706078903	-0.109769925749436
-0.04910706078903	-0.482001134367088
-0.04910706078903	0.0988620806729692
-0.04910706078903	0.213458861353264
-0.04910706078903	0.218912971960272
-0.04910706078903	-1.48310967914457
-0.04910706078903	-0.877090136576658
-0.04910706078903	0.674168751410871
-0.04910706078903	-0.805773038817961
-0.04910706078903	0.128593802369274
-0.04910706078903	1.38119227676735
-0.04910706078903	0.311382911483527
-0.04910706078903	0.154834947117024
-0.04910706078903	-0.67338781965131
-0.04910706078903	0.587581000241062
-0.04910706078903	1.62990344785462
-0.04910706078903	1.31122733753906
-0.04910706078903	0.617158411689704
-0.04910706078903	-2.01217149750844
-0.04910706078903	0.161814618983598
-0.04910706078903	0.827207692005302
-0.04910706078903	-0.170253067979566
-0.04910706078903	-1.12465097788008
-0.04910706078903	0.360500709419039
-0.04910706078903	-0.506392572816509
-0.04910706078903	-0.209001858812183
-0.04910706078903	0.404562811387404
-0.04910706078903	0.555937449942228
-0.04910706078903	-0.602191181763796
-0.04910706078903	2.10146877898334
-0.04910706078903	0.650815940135562
-0.04910706078903	-0.0787949654813005
-0.04910706078903	0.0936704060798945
-0.04910706078903	-0.157969150603375
-0.04910706078903	-0.868673248436263
-0.04910706078903	-1.05279666839764
-0.04910706078903	0.980518829241042
-0.04910706078903	0.0599188710027043
-0.04910706078903	-0.113650362903201
-0.04910706078903	0.712483255316933
-0.04910706078903	0.255464186934962
-0.04910706078903	-0.184177258544885
-0.04910706078903	0.1569249717028
-0.04910706078903	-0.43865842603439
-0.04910706078903	0.391382011808169
-0.04910706078903	-0.922474409382676
-0.04910706078903	0.119482741967065
-0.04910706078903	-0.372595027206184
-0.04910706078903	0.699758844844435
-0.04910706078903	0.385125955161826
-0.04910706078903	1.99922974483804
-0.04910706078903	0.213493022639735
-0.04910706078903	-0.0301466515441362
-0.04910706078903	-0.262519108155029
-0.04910706078903	0.814832959010136
-0.04910706078903	0.394114437068282
-0.04910706078903	-0.123435475755986
-0.04910706078903	-0.713525208878846
-0.04910706078903	-1.31984588958368
-0.04910706078903	0.148117146022031
-0.04910706078903	0.712282985084311
-0.04910706078903	0.0912273423444034
-0.04910706078903	0.227977560951356
-0.04910706078903	0.168410280258325
-0.04910706078903	-0.199374809345528
-0.04910706078903	-0.521617132912077
-0.04910706078903	-0.240592015111897
-0.04910706078903	0.601931061324997
-0.04910706078903	-0.27667535384559
-0.04910706078903	0.792568617256812
-0.04910706078903	-0.727054442309708
-0.04910706078903	-0.252882836350814
-0.04910706078903	-0.776680339571506
-0.04910706078903	1.47188360347487
-0.04910706078903	-1.40336276048897
-0.04910706078903	-0.473168883998202
-0.04910706078903	-0.708861933604005
-0.04910706078903	0.536386938089144
-0.04910706078903	-1.27694025090683
-0.04910706078903	1.18671754640608
-0.04910706078903	0.510518115295849
-0.04910706078903	-0.648148136596735
-0.04910706078903	-0.700449488598686
-0.04910706078903	0.46278136876554
-0.04910706078903	0.2284558148503
-0.04910706078903	-0.680733218199606
-0.04910706078903	-0.619585411288572
-0.04910706078903	0.231037563505559
-0.04910706078903	-0.751562532460326
-0.04910706078903	-1.19540194829396
-0.04910706078903	0.020348851272697
-0.04910706078903	0.388599580496734
-0.04910706078903	-0.363294591790115
-0.04910706078903	0.0703103998134011
-0.04910706078903	0.28814561398816
-0.04910706078903	0.18975397081833
-0.04910706078903	-0.427892079683954
-0.04910706078903	-0.964463580160313
-0.04910706078903	0.642469170941123
-0.04910706078903	-0.2910777660435
-0.04910706078903	-0.16433204455674
-0.04910706078903	1.376897734312
-0.04910706078903	0.138187271898794
-0.04910706078903	0.603783475896385
-0.04910706078903	-1.32156572515333
-0.04910706078903	-0.32768603772697
-0.04910706078903	-0.216206879384565
-0.04910706078903	-0.334537490242841
-0.04910706078903	0.940388965439965
-0.04910706078903	-0.982760680010035
-0.04910706078903	-0.167281286427873
-0.04910706078903	1.02173030517111
-0.04910706078903	-0.444282677361919
-0.04910706078903	0.197460010703125
-0.04910706078903	0.821423173324387
-0.04910706078903	0.315435943984998
-0.04910706078903	-0.588538459989408
-0.04910706078903	0.0860432519935053
-0.04910706078903	0.205334968641559
-0.04910706078903	0.0142051501035034
-0.04910706078903	-0.876943410431419
-0.04910706078903	-1.11196858236535
-0.04910706078903	-0.789139212496803
-0.04910706078903	-1.01311634862081
-0.04910706078903	-0.147102629660182
-0.04910706078903	-0.0293916387602806
-0.04910706078903	-0.43448280637941
-0.04910706078903	-0.312540744238355
-0.04910706078903	-0.647783069364952
-0.04910706078903	-1.30544843882337
-0.04910706078903	-0.156634887732558
-0.04910706078903	0.577356468583101
-0.04910706078903	-1.08693976243842
-0.04910706078903	-1.48886814611066
-0.04910706078903	-1.11739659885117
-0.04910706078903	0.3462500935596
-0.04910706078903	-0.858839714274254
-0.04910706078903	0.909266744684324
-0.04910706078903	0.187645990131809
-0.04910706078903	0.61565899606537
-0.04910706078903	-0.210472499335836
-0.04910706078903	0.75895335722743
-0.04910706078903	0.0535836758791461
-0.04910706078903	-0.844811489031649
-0.04910706078903	-0.47340094317353
-0.04910706078903	-0.275982537983108
-0.04910706078903	-1.86746987187265
-0.04910706078903	0.206106596569345
-0.04910706078903	-0.899180470039141
-0.04910706078903	0.593050755402103
-0.04910706078903	-1.61291927906435
-0.04910706078903	-0.526084413910418
-0.04910706078903	0.577383233161818
-0.04910706078903	-0.517827447582921
-0.04910706078903	-0.742670658443295
-0.04910706078903	-1.1419618630156
-0.04910706078903	0.0918944603104777
-0.04910706078903	1.32551626125112
-0.04910706078903	-1.05876904132021
-0.04910706078903	-0.900338062464495
-0.04910706078903	0.523350525505833
-0.04910706078903	-1.30538991758464
-0.04910706078903	0.458787770037169
-0.04910706078903	0.356120666781983
-0.04910706078903	-0.70558091315273
-0.04910706078903	-0.817169123841847
-0.04910706078903	-1.2188076153781
-0.04910706078903	-0.620083504096591
-0.04910706078903	0.731253849065791
-0.04910706078903	-0.389174903448037
-0.04910706078903	-1.48518542377332
-0.04910706078903	-1.25949408219126
-0.04910706078903	0.953052943152112
-0.04910706078903	-1.04821633506348
-0.04910706078903	-0.0260604957240176
-0.04910706078903	0.0195251779230041
-0.04910706078903	0.873267022224791
-0.04910706078903	0.864987618346092
-0.04910706078903	0.0916170782802475
-0.04910706078903	-0.0420611997460654
-0.04910706078903	-0.962112151503053
-0.04910706078903	-0.763003793458619
-0.04910706078903	-0.334193037758602
-0.04910706078903	-0.451732878745631
-0.04910706078903	1.5793863097345
-0.04910706078903	0.250573606436589
-0.04910706078903	-0.393561441560518
-0.04910706078903	0.0917950803108454
-0.04910706078903	0.227016005493361
-0.04910706078903	-1.77800725482757
-0.04910706078903	-0.0038783246533427
-0.04910706078903	-1.18218397660054
-0.04910706078903	0.40444512856957
-0.04910706078903	-0.937163332329899
-0.04910706078903	-0.776916153247448
-0.04910706078903	-0.515712874011914
-0.04910706078903	0.265450456011617
-0.04910706078903	-0.32745481218814
-0.04910706078903	-0.601321939800538
-0.04910706078903	-0.949741477328061
-0.04910706078903	0.837279493429271
-0.04910706078903	-0.0920998113761549
-0.04910706078903	-0.510558454745233
-0.04910706078903	0.0717046074388357
-0.04910706078903	-1.18498049728148
-0.04910706078903	0.270602908480292
-0.04910706078903	-1.41514738597221
-0.04910706078903	1.23884034989242
-0.04910706078903	0.870797549927818
-0.04910706078903	1.5600013531901
-0.04910706078903	-0.215905518671367
-0.04910706078903	-1.28007762006725
-0.04910706078903	1.95043138656749
-0.04910706078903	-0.263212344559591
-0.04910706078903	0.208665327502608
-0.04910706078903	2.00896075752059
-0.04910706078903	0.1778585394188
-0.04910706078903	-1.18144175135524
-0.04910706078903	0.0244370974745927
-0.04910706078903	-1.14239005231028
-0.04910706078903	0.607130962355249
-0.04910706078903	-0.833735787040368
-0.04910706078903	-1.16329525863368
-0.04910706078903	0.205630321907737
-0.04910706078903	1.49682979021516
-0.04910706078903	0.929423943358486
-0.04910706078903	0.296490968143139
-0.04910706078903	1.05265650035508
-0.04910706078903	-0.124566311191227
-0.04910706078903	0.346703958602681
-0.04910706078903	-0.900094049431164
-0.04910706078903	-0.0913188636194917
-0.04910706078903	-0.396808377814668
-0.04910706078903	-0.0303414587361353
-0.04910706078903	-0.268072103542814
-0.04910706078903	0.815827999684508
-0.04910706078903	-0.103546220151944
-0.04910706078903	-0.871151992562694
-0.04910706078903	-1.14082815063898
-0.04910706078903	-0.347542984896979
-0.04910706078903	0.383050320496736
-0.04910706078903	-1.21642033505626
-0.04910706078903	-1.04483245741196
-0.04910706078903	-0.458238073627165
-0.04910706078903	0.968278737807584
-0.04910706078903	-0.233868767517183
-0.04910706078903	1.16833802783698
-0.04910706078903	0.430379245166549
-0.04910706078903	0.248695447224822
-0.04910706078903	-0.497185440092863
-0.04910706078903	-0.0230360347506746
-0.04910706078903	-0.707618462267448
-0.04910706078903	-0.727515515063864
-0.04910706078903	-0.723302636853706
-0.04910706078903	-2.09607809556943
-0.04910706078903	-1.76939703972893
-0.04910706078903	-0.560126902900716
-0.04910706078903	-0.649963632937165
-0.04910706078903	-2.56568253171296
-0.04910706078903	0.749366192475385
-0.04910706078903	0.0595929082126396
-0.04910706078903	0.822972655465996
-0.04910706078903	-1.16175827382521
-0.04910706078903	-0.0894598539696148
-0.04910706078903	1.56186266828079
-0.04910706078903	0.0982937334511469
-0.04910706078903	-0.387262723763154
-0.04910706078903	1.59308561594834
-0.04910706078903	1.17819157994743
-0.04910706078903	0.52950375674434
-0.04910706078903	-1.11426730654237
-0.04910706078903	-0.0590950339387888
-0.04910706078903	-0.106342722380077
-0.04910706078903	-0.624846488888213
-0.04910706078903	-0.2478093614999
-0.04910706078903	0.195192151665761
-0.04910706078903	-0.223462065815681
-0.04910706078903	0.854450904940403
-0.04910706078903	0.146031557489607
-0.04910706078903	1.09259352936376
-0.04910706078903	0.866896037523446
-0.04910706078903	1.2655626262732
-0.04910706078903	0.449939219451046
-0.04910706078903	-0.433063578269014
-0.04910706078903	-1.62841857373082
-0.04910706078903	0.386564936893443
-0.04910706078903	1.34578425141012
-0.04910706078903	0.0421410779594673
-0.04910706078903	0.269520864663395
-0.04910706078903	-0.259473909201564
-0.04910706078903	0.245747024159819
-0.04910706078903	-0.843059852572388
-0.04910706078903	-0.339449931023459
-0.04910706078903	0.0878719611924481
-0.04910706078903	1.52996810400191
-0.04910706078903	0.35032305515087
-0.04910706078903	-0.374649476695513
-0.04910706078903	-0.598599588645843
-0.04910706078903	0.556684858932105
-0.04910706078903	0.568256897389627
-0.04910706078903	0.281559625153225
-0.04910706078903	-0.071400434979811
-0.04910706078903	-1.39892543624088
-0.04910706078903	0.312786438157996
-0.04910706078903	0.50499935484865
-0.04910706078903	-0.384174152392397
-0.04910706078903	-1.24900973827888
-0.04910706078903	-0.015363044602335
-0.04910706078903	0.212732619315265
-0.04910706078903	0.0139929584114213
-0.04910706078903	-0.536568710613523
-0.04910706078903	-0.0042117677423299
-0.04910706078903	-0.285884380210053
-0.04910706078903	0.745093327309576
-0.04910706078903	0.461374990151352
-0.04910706078903	-0.511155551749688
-0.04910706078903	1.32581120042911
-0.04910706078903	0.255615433301642
-0.04910706078903	0.67048199119014
-0.04910706078903	0.312800765760358
-0.04910706078903	0.00823308291183622
-0.04910706078903	0.444463323523422
-0.04910706078903	0.364693067506
-0.04910706078903	-0.784928337499107
-0.04910706078903	0.0598035338420821
-0.04910706078903	1.02904522805188
-0.04910706078903	0.760602692246415
-0.04910706078903	1.04425853796551
-0.04910706078903	-0.678563388483294
-0.04910706078903	1.25313450381651
-0.04910706078903	0.882268487255558
-0.04910706078903	0.583738231755966
-0.04910706078903	0.245507615244776
-0.04910706078903	0.3662610634684
-0.04910706078903	-0.140236164795315
-0.04910706078903	-0.5636471510166
-0.04910706078903	-0.544940357118485
-0.04910706078903	0.307973864575082
-0.04910706078903	0.15730160678746
-0.04910706078903	-1.53608293520164
-0.04910706078903	0.277142911898874
-0.04910706078903	-0.463026788011966
-0.04910706078903	-0.864508423694897
-0.04910706078903	-1.30482795159805
-0.04910706078903	-1.00426950987634
-0.04910706078903	-0.479984192846569
-0.04910706078903	-0.214043489326357
-0.04910706078903	-0.429565713743575
-0.04910706078903	-1.20577809601546
-0.04910706078903	0.764697089592072
-0.04910706078903	0.621404219828218
-0.04910706078903	0.813995856686031
-0.04910706078903	-0.418687227795129
-0.04910706078903	0.483244328840488
-0.04910706078903	-0.0689865531481182
-0.04910706078903	0.968334263144108
-0.04910706078903	1.12601079929662
-0.04910706078903	0.356864732645974
-0.04910706078903	1.16420479320037
-0.04910706078903	0.526143372883247
-0.04910706078903	-1.29917329458802
-0.04910706078903	-0.368929779303691
-0.04910706078903	-0.102738823662833
-0.04910706078903	-0.589220993002279
-0.04910706078903	0.0561584284155536
-0.04910706078903	-0.350457457258152
-0.04910706078903	-0.66719548354914
-0.04910706078903	-0.353617867511208
-0.04910706078903	0.119372194319521
-0.04910706078903	-0.879789303932998
-0.04910706078903	-0.481648197912175
-0.04910706078903	-0.199968662234781
-0.04910706078903	0.455918478743211
-0.04910706078903	-0.266659419331514
-0.04910706078903	-1.49108198593099
-0.04910706078903	-0.600773885228087
-0.04910706078903	-0.293959227787539
-0.04910706078903	-0.171543260319467
-0.04910706078903	0.0373674575268268
-0.04910706078903	-0.4815793363877
-0.04910706078903	0.267673794330623
-0.04910706078903	0.155387097432005
-0.04910706078903	-0.157390006722398
-0.04910706078903	-1.08350548055448
-0.04910706078903	1.32656108299404
-0.04910706078903	-1.14262185178983
-0.04910706078903	-0.509827296764811
-0.04910706078903	-0.0714627729604516
-0.04910706078903	0.247332175530492
-0.04910706078903	-0.232799786942092
-0.04910706078903	-0.837554532742814
-0.04910706078903	0.160849800158658
-0.04910706078903	1.14742410481406
-0.04910706078903	-0.596565712225264
-0.04910706078903	-0.46659882153806
-0.04910706078903	0.0898319525418607
-0.04910706078903	-0.918635465815385
-0.04910706078903	-0.271415959181798
-0.04910706078903	0.665185133776884
-0.04910706078903	0.659493497393456
-0.04910706078903	0.17280480234626
-0.04910706078903	0.217079531715459
-0.04910706078903	-0.9401219212358
-0.04910706078903	0.398406045817669
-0.04910706078903	-1.14932163603464
-0.04910706078903	-1.52309943754286
-0.04910706078903	0.400645254863885
-0.04910706078903	-0.802323515410734
-0.04910706078903	0.690343572800323
-0.04910706078903	-0.292242960272613
-0.04910706078903	-0.404300904964614
-0.04910706078903	-1.23778030495765
-0.04910706078903	0.752732379648393
-0.04910706078903	-0.571328159684583
-0.04910706078903	1.1953281922078
-0.04910706078903	0.491321577193503
-0.04910706078903	0.174506369817323
-0.04910706078903	0.587640742418714
-0.04910706078903	0.988808023238462
-0.04910706078903	0.199634975730127
-0.04910706078903	0.787067428942329
-0.04910706078903	0.00349135486461449
-0.04910706078903	0.423722983761387
-0.04910706078903	-0.0850419123080073
-0.04910706078903	0.0477363661281522
-0.04910706078903	0.0126937560476961
-0.04910706078903	-0.315991993281195
-0.04910706078903	-0.767989254183952
-0.04910706078903	0.0305231189147115
-0.04910706078903	-0.330449186716642
-0.04910706078903	-0.398969978203247
-0.04910706078903	-1.121363038127
-0.04910706078903	0.669147786936684
-0.04910706078903	0.42438074491066
-0.04910706078903	0.779384029723033
-0.04910706078903	0.320494279206372
-0.04910706078903	0.542473143954961
-0.04910706078903	-0.53151600656031
-0.04910706078903	-0.456999959706202
-0.04910706078903	1.55295880863761
-0.04910706078903	-0.677369356355467
-0.04910706078903	-0.250065263361012
-0.04910706078903	-0.110245527617572
-0.04910706078903	1.17266558544117
-0.04910706078903	0.394563686817545
-0.04910706078903	-0.324672859778097
-0.04910706078903	-1.0094975972211
-0.04910706078903	-0.409912217074201
-0.04910706078903	1.34359382881566
-0.04910706078903	-0.604731439274172
-0.04910706078903	0.300740694005295
-0.04910706078903	-0.325527396745187
-0.04910706078903	0.0840487660474665
-0.04910706078903	0.853538633571514
-0.04910706078903	-0.745970158277565
-0.04910706078903	-0.0337507092189817
-0.04910706078903	-0.166536211336755
-0.04910706078903	-0.346676893024203
-0.04910706078903	-0.878703383394019
-0.04910706078903	-0.5512083718329
-0.04910706078903	-0.0921005252041311
-0.04910706078903	-0.369689239483712
-0.04910706078903	-1.05316711556239
-0.04910706078903	-0.512680218531958
-0.04910706078903	1.30799593098959
-0.04910706078903	0.0387330926759084
-0.04910706078903	-0.431291454047564
-0.04910706078903	-0.629547761232942
-0.04910706078903	-0.25782915968075
-0.04910706078903	0.422617234108237
-0.04910706078903	-0.677007144851274
-0.04910706078903	-0.294515555970328
-0.04910706078903	0.860762888863949
-0.04910706078903	-1.86817531897109
-0.04910706078903	-2.48503595265268
-0.04910706078903	-0.164149868873547
-0.04910706078903	-0.887099894288532
-0.04910706078903	-0.0255106451739096
-0.04910706078903	-0.0127104996105274
-0.04910706078903	-0.83675037845612
-0.04910706078903	1.0623912132167
-0.04910706078903	0.462724422072267
-0.04910706078903	-0.107935656092
-0.04910706078903	-0.371309762500154
-0.04910706078903	1.94784442545263
-0.04910706078903	-0.670890885021571
-0.04910706078903	1.37145322579738
-0.04910706078903	0.666243973115112
-0.04910706078903	0.692205964719356
-0.04910706078903	-0.456478335780833
-0.04910706078903	0.12962325185644
-0.04910706078903	-0.50864417658358
-0.04910706078903	0.714303020572615
-0.04910706078903	0.138810379904559
-0.04910706078903	-0.659983086914629
-0.04910706078903	0.0334037920541626
-0.04910706078903	-1.48327462264209
-0.04910706078903	-0.0655409319088562
-0.04910706078903	0.280958709480966
-0.04910706078903	0.418956229366533
-0.04910706078903	-0.311015002652052
-0.04910706078903	-0.895960645359043
-0.04910706078903	-1.22568861375908
-0.04910706078903	-0.704883251586359
-0.04910706078903	0.346421431755054
-0.04910706078903	-1.29609732189802
-0.04910706078903	-0.346702134177171
-0.04910706078903	-0.484944709695604
-0.04910706078903	0.0700192384571743
-0.04910706078903	-1.25574413973566
-0.04910706078903	-0.591770812209379
-0.04910706078903	0.341063322338247
-0.04910706078903	-0.274367584479965
-0.04910706078903	0.993410885570761
-0.04910706078903	-0.871640133236781
-0.04910706078903	0.739936046553744
-0.04910706078903	0.19804934146655
-0.04910706078903	1.24211970828027
-0.04910706078903	-0.427935844306333
-0.04910706078903	-0.555955064115278
-0.04910706078903	-0.337799796223543
-0.04910706078903	-1.32640238972482
-0.04910706078903	-0.719641772606579
-0.04910706078903	-1.21839360674002
-0.04910706078903	0.355638766900221
-0.04910706078903	-0.76724490445897
-0.04910706078903	0.76949279808019
-0.04910706078903	0.31097333528086
-0.04910706078903	-0.155312044717625
-0.04910706078903	-1.17180613438007
-0.04910706078903	-0.209952592020336
-0.04910706078903	-0.288031708412916
-0.04910706078903	0.773731147011173
-0.04910706078903	0.237647787761443
-0.04910706078903	0.394077507861233
-0.04910706078903	1.06139322785811
-0.04910706078903	-0.149409864483033
-0.04910706078903	0.470804379282214
-0.04910706078903	1.23930929261518
-0.04910706078903	-0.450545373042921
-0.04910706078903	1.89541102757409
-0.04910706078903	-0.355935065143075
-0.04910706078903	0.781093121551596
-0.04910706078903	-1.09410097368694
-0.04910706078903	1.25503605205011
-0.04910706078903	-0.155567498997087
-0.04910706078903	0.187642381311083
-0.04910706078903	0.0856334093107911
-0.04910706078903	-1.73078827496355
-0.04910706078903	0.728138520758879
-0.04910706078903	0.0248682420305677
-0.04910706078903	1.07934964573219
-0.04910706078903	0.612833000258554
-0.04910706078903	0.60526219976067
-0.04910706078903	0.754008096654996
-0.04910706078903	0.217665129138751
-0.04910706078903	-0.573560432289909
-0.04910706078903	0.163786121666249
-0.04910706078903	0.694889343990845
-0.04910706078903	-0.535407716154836
-0.04910706078903	-0.253796522235756
-0.04910706078903	0.463157358593637
-0.04910706078903	-0.413220746898762
-0.04910706078903	0.160528003270727
-0.04910706078903	-1.15605409025033
-0.04910706078903	0.96514619822646
-0.04910706078903	0.101005208070767
-0.04910706078903	-1.06948915579168
-0.04910706078903	-0.808784574512959
-0.04910706078903	0.697554094026966
-0.04910706078903	-0.944222543912144
-0.04910706078903	-0.236722932748897
-0.04910706078903	-0.148798051939323
-0.04910706078903	-1.31674472045801
-0.04910706078903	-0.535042360772572
-0.04910706078903	0.923866929175379
-0.04910706078903	-0.124835233164717
-0.04910706078903	0.482258640115884
-0.04910706078903	1.38146050716922
-0.04910706078903	-0.0415264603682495
-0.04910706078903	0.298965923468266
-0.04910706078903	-0.941943046237224
-0.04910706078903	-0.81607330402527
-0.04910706078903	-0.935752147663365
-0.04910706078903	0.407938716575227
-0.04910706078903	0.680120966604402
-0.04910706078903	-0.453230250599674
-0.04910706078903	-1.72209004725728
-0.04910706078903	0.544998368181041
-0.04910706078903	-0.45576489355954
-0.04910706078903	1.35041640205753
-0.04910706078903	-0.373637710339178
-0.04910706078903	-0.663544707246601
-0.04910706078903	-0.026922885498557
-0.04910706078903	0.613251133401562
-0.04910706078903	-0.53215675721443
-0.04910706078903	0.575397534322025
-0.04910706078903	0.585506889278072
-0.04910706078903	0.469079131595304
-0.04910706078903	-0.241182598223009
-0.04910706078903	-0.087433397868903
-0.04910706078903	0.510127398962254
-0.04910706078903	-0.676367806721775
-0.04910706078903	-1.93339966312412
-0.04910706078903	0.552761078887382
-0.04910706078903	-0.582469539606137
-0.04910706078903	-0.662777782735564
-0.04910706078903	-0.00361451189146322
-0.04910706078903	0.141445172683206
-0.04910706078903	1.23132045046463
-0.04910706078903	-0.807418253712811
-0.04910706078903	0.170541725696811
-0.04910706078903	-1.00496793253156
-0.04910706078903	-0.943885990615815
-0.04910706078903	-0.514552258028232
-0.04910706078903	-0.51433335064112
-0.04910706078903	-1.28193903970181
-0.04910706078903	-1.29104854031983
-0.04910706078903	0.140832469533585
-0.04910706078903	0.629411276289293
-0.04910706078903	0.0772172098064665
-0.04910706078903	-0.704310520695042
-0.04910706078903	0.619918665860169
-0.04910706078903	-0.204905352999205
-0.04910706078903	-1.56347721472735
-0.04910706078903	-0.161867964234496
-0.04910706078903	-0.340399954293655
-0.04910706078903	-0.430826657829186
-0.04910706078903	-0.231146223769596
-0.04910706078903	0.102800589944589
-0.04910706078903	0.801148299184064
-0.04910706078903	1.22401121106791
-0.04910706078903	0.0612851848995994
-0.04910706078903	-1.05610579908185
-0.04910706078903	0.598327492894317
-0.04910706078903	-0.742457068697995
-0.04910706078903	-0.083290229284632
-0.04910706078903	0.300522952850478
-0.04910706078903	-0.291732462823166
-0.04910706078903	0.896677097216646
-0.04910706078903	-0.179498509069351
-0.04910706078903	-0.214069637397543
-0.04910706078903	-0.721584127341981
-0.04910706078903	1.04261245566535
-0.04910706078903	0.772612163799522
-0.04910706078903	0.29378860213485
-0.04910706078903	-1.20753087461483
-0.04910706078903	-0.747286957291873
-0.04910706078903	0.399816159163247
-0.04910706078903	-0.342219446701854
-0.04910706078903	0.425789618892171
-0.04910706078903	-0.961321518453818
-0.04910706078903	-1.13362183293717
-0.04910706078903	-1.15035139524782
-0.04910706078903	0.310812132235625
-0.04910706078903	1.24041291736517
-0.04910706078903	-0.446826741316539
-0.04910706078903	-0.27706507243364
-0.04910706078903	0.561595857592156
-0.04910706078903	-0.686290119044742
-0.04910706078903	-1.60293556758832
-0.04910706078903	0.431289328307574
-0.04910706078903	-0.763794043609302
-0.04910706078903	-0.35494716674879
-0.04910706078903	-0.097961355871611
-0.04910706078903	-0.284290155691057
-0.04910706078903	-0.978828335605975
-0.04910706078903	-1.41621018665646
-0.04910706078903	0.317875316074613
-0.04910706078903	1.53787496854405
-0.04910706078903	1.28259339037558
-0.04910706078903	-0.425838420965988
-0.04910706078903	-0.604149746789137
-0.04910706078903	0.499274722094803
-0.04910706078903	-0.366581336348023
-0.04910706078903	-2.1456676512079
-0.04910706078903	0.430298904733657
-0.04910706078903	0.164147068225859
-0.04910706078903	-0.718818052195406
-0.04910706078903	-0.0342322490852247
-0.04910706078903	-0.421476748835246
-0.04910706078903	-0.303414086319442
-0.04910706078903	-0.255887114754504
-0.04910706078903	0.841409590383627
-0.04910706078903	0.0508020262172657
-0.04910706078903	1.40795028121303
-0.04910706078903	0.000902967421065881
-0.04910706078903	1.18483600741662
-0.04910706078903	0.597167276385264
-0.04910706078903	0.119810811909549
-0.04910706078903	-0.235459652632436
-0.04910706078903	-0.345452887604043
-0.04910706078903	0.332478862748982
-0.04910706078903	1.4638680447697
-0.04910706078903	-1.02533317442407
-0.04910706078903	-0.672569655673236
-0.04910706078903	-0.967454985784808
-0.04910706078903	0.508506338600665
-0.04910706078903	-0.860308297522128
-0.04910706078903	0.483345954529021
-0.04910706078903	-0.0541030459161576
-0.04910706078903	-0.786442369597737
-0.04910706078903	-0.201268700507928
-0.04910706078903	0.232582490254373
-0.04910706078903	-1.58230445385737
-0.04910706078903	0.726128817505451
-0.04910706078903	-0.248266749871604
-0.04910706078903	-0.303362028966411
-0.04910706078903	-1.19228125443098
-0.04910706078903	1.63957591734125
-0.04910706078903	0.971481723778318
-0.04910706078903	-0.270583766169896
-0.04910706078903	-1.14757449269779
-0.04910706078903	0.53874778512774
-0.04910706078903	-0.732696152633228
-0.04910706078903	-0.148438455529714
-0.04910706078903	-0.581283766188079
-0.04910706078903	0.346778526226696
-0.04910706078903	1.39433682134338
-0.04910706078903	-1.27746723502017
-0.04910706078903	0.629752238818124
-0.04910706078903	0.257415850836448
-0.04910706078903	-0.909014359704546
-0.04910706078903	-1.0675315372858
-0.04910706078903	1.11293419637504
-0.04910706078903	-1.29810650094026
-0.04910706078903	-0.590827381504813
-0.04910706078903	-0.312142169253598
-0.04910706078903	-0.339256423920933
-0.04910706078903	0.0532782410051702
-0.04910706078903	0.27742716276315
-0.04910706078903	-0.994713310270903
-0.04910706078903	-0.111282054300226
-0.04910706078903	-0.37207480728102
-0.04910706078903	0.290279627443013
-0.04910706078903	0.277813431750719
-0.04910706078903	0.225068163423384
-0.04910706078903	0.552162178641403
-0.04910706078903	1.67308267452805
-0.04910706078903	0.361579403087109
-0.04910706078903	1.31024913040179
-0.04910706078903	-0.9374818008231
-0.04910706078903	-0.909832176862597
-0.04910706078903	0.221515281789884
-0.04910706078903	0.394367674183059
-0.04910706078903	-0.519356863554378
-0.04910706078903	1.17526155476689
-0.04910706078903	0.852978615360733
-0.04910706078903	0.273700333430167
-0.04910706078903	1.32707499828536
-0.04910706078903	1.33980719237177
-0.04910706078903	1.27933335089346
-0.04910706078903	1.38774849888944
-0.04910706078903	-1.67157215896516
-0.04910706078903	-1.70162882999388
-0.04910706078903	-1.18991287957148
-0.04910706078903	0.30985820571567
-0.04910706078903	0.399842022918541
-0.04910706078903	-0.620311952190018
-0.04910706078903	-0.637172211024943
-0.04910706078903	1.65148407585559
-0.04910706078903	-0.594565568916909
-0.04910706078903	-0.11818753653899
-0.04910706078903	-1.50293455653884
-0.04910706078903	-1.13918459021759
-0.04910706078903	0.190766697403312
-0.04910706078903	-0.822351443096785
-0.04910706078903	0.178977180872199
-0.04910706078903	-1.40629917832867
-0.04910706078903	1.19145250087516
-0.04910706078903	-0.631719154030414
-0.04910706078903	-1.50435907768585
-0.04910706078903	0.102135010563924
-0.04910706078903	-1.20129222904968
-0.04910706078903	1.23051666921527
-0.04910706078903	0.608651633006211
-0.04910706078903	-0.420693467445236
-0.04910706078903	-1.03665730267805
-0.04910706078903	0.918207245584686
-0.04910706078903	-0.65536856839498
-0.04910706078903	0.0622285936613416
-0.04910706078903	0.282450326759932
-0.04910706078903	-0.226922797356639
-0.04910706078903	-0.0614182051755421
-0.04910706078903	0.499433547923118
-0.04910706078903	-1.67744644918428
-0.04910706078903	1.09777785792882
-0.04910706078903	1.1539454469672
-0.04910706078903	0.512268197635692
-0.04910706078903	-0.740921694850424
-0.04910706078903	-0.263750209676481
-0.04910706078903	-0.047626670387384
-0.04910706078903	-1.57097502954587
-0.04910706078903	0.326825728773812
-0.04910706078903	0.141724109171701
-0.04910706078903	1.42363385058825
-0.04910706078903	-0.204000783703254
-0.04910706078903	1.36762797471846
-0.04910706078903	0.955227490915878
-0.04910706078903	0.320856709518889
-0.04910706078903	0.819051771218636
-0.04910706078903	-1.33706109257686
-0.04910706078903	0.177781502009481
-0.04910706078903	0.0698897112683845
-0.04910706078903	0.470245503483429
-0.04910706078903	-2.30823423635156
-0.04910706078903	1.03321741481272
-0.04910706078903	-0.35599028914179
-0.04910706078903	-1.16905436195865
-0.04910706078903	0.757022422407317
-0.04910706078903	2.16439054430173
-0.04910706078903	0.173958008438284
-0.04910706078903	1.34191702473644
-0.04910706078903	-0.171263968130415
-0.04910706078903	-1.42502624219189
-0.04910706078903	1.24766772988012
-0.04910706078903	-2.07698408637536
-0.04910706078903	-0.265464778180696
-0.04910706078903	-0.271836735274992
-0.04910706078903	0.330445101666299
-0.04910706078903	0.635598220095964
-0.04910706078903	0.288705966830051
-0.04910706078903	0.536831026589983
-0.04910706078903	0.144302931111767
-0.04910706078903	0.117691955740991
-0.04910706078903	-0.148351624109001
-0.04910706078903	0.293115278368738
-0.04910706078903	-0.0581375803858606
-0.04910706078903	-0.334141904704122
-0.04910706078903	-0.635263107320526
-0.04910706078903	-1.13891295785995
-0.04910706078903	-1.03070586421391
-0.04910706078903	-1.18800963028995
-0.04910706078903	0.0704560320316432
-0.04910706078903	0.779440911929832
-0.04910706078903	0.363881950096673
-0.04910706078903	0.298724988408331
-0.04910706078903	-0.95682659826446
-0.04910706078903	-0.0101626195626601
-0.04910706078903	-1.49621589437273
-0.04910706078903	0.178836314731452
-0.04910706078903	0.0648327024041855
-0.04910706078903	0.430820216906792
-0.04910706078903	-0.447899887197114
-0.04910706078903	-0.342371385428375
-0.04910706078903	-0.0700226845540968
-0.04910706078903	1.80723029143264
-0.04910706078903	-0.819447681140524
-0.04910706078903	-0.355528125895272
-0.04910706078903	-1.32862224002431
-0.04910706078903	-1.71430690493498
-0.04910706078903	1.20910579990214
-0.04910706078903	0.227815533617417
-0.04910706078903	-1.33881962593335
-0.04910706078903	-0.649664021578111
-0.04910706078903	-0.115348190121775
-0.04910706078903	-0.405670683510085
-0.04910706078903	-0.351434786679189
-0.04910706078903	0.911131748841388
-0.04910706078903	0.0707975222221933
-0.04910706078903	-1.23664427305012
-0.04910706078903	1.12971539741502
-0.04910706078903	-1.69278036075243
-0.04910706078903	-1.09259926504931
-0.04910706078903	-0.56844717840281
-0.04910706078903	0.595602615768541
-0.04910706078903	-0.917559669724902
-0.04910706078903	-0.885370508632267
-0.04910706078903	0.360262141484146
-0.04910706078903	0.32750980181391
-0.04910706078903	0.174589283311374
-0.04910706078903	-0.328068230019948
-0.04910706078903	0.308205158277861
-0.04910706078903	-0.700576314792212
-0.04910706078903	0.18045713745552
-0.04910706078903	-0.0370364638646343
-0.04910706078903	0.221021389667392
-0.04910706078903	-0.622685277815005
-0.04910706078903	1.52186192306108
-0.04910706078903	1.57137008124068
-0.04910706078903	0.0729922011148467
-0.04910706078903	-0.726091814231172
-0.04910706078903	0.63547757217604
-0.04910706078903	-1.0800565782163
-0.04910706078903	-0.327480085375367
-0.04910706078903	-1.26057993376481
-0.04910706078903	-0.272425295622138
-0.04910706078903	1.52020302469813
-0.04910706078903	-0.161000477285246
-0.04910706078903	-0.114554069794899
-0.04910706078903	-0.300863958059225
-0.04910706078903	-0.442173824152061
-0.04910706078903	-0.90858112565039
-0.04910706078903	-0.324111902790008
-0.04910706078903	0.873225397301177
-0.04910706078903	-0.674134318668383
-0.04910706078903	-0.614908632061322
-0.04910706078903	0.119837105062388
-0.04910706078903	0.0549946156703633
-0.04910706078903	1.13297802459928
-0.04910706078903	-1.91993627679976
-0.04910706078903	-0.0406700615724276
-0.04910706078903	-0.817396438792233
-0.04910706078903	-0.229158249289949
-0.04910706078903	1.17970279549276
-0.04910706078903	-1.51777660326
-0.04910706078903	-0.0931281603244187
-0.04910706078903	0.530317978646536
-0.04910706078903	-1.44707147863128
-0.04910706078903	-0.89287031458646
-0.04910706078903	1.77299386844511
-0.04910706078903	0.638189127215586
-0.04910706078903	0.426138983310466
-0.04910706078903	0.60379574687434
-0.04910706078903	-1.02427796370252
-0.04910706078903	-0.178935374543659
-0.04910706078903	0.240703535772717
-0.04910706078903	1.57583496281157
-0.04910706078903	0.566820451095918
-0.04910706078903	0.0202159864227447
-0.04910706078903	2.05910139387463
-0.04910706078903	-0.251935044883908
-0.04910706078903	-1.15084765803148
-0.04910706078903	0.335788085128502
-0.04910706078903	1.14132499255814
-0.04910706078903	0.526030392958493
-0.04910706078903	0.219155132573043
-0.04910706078903	0.44758231617821
-0.04910706078903	-0.41188788703122
-0.04910706078903	0.112096463148408
-0.04910706078903	-0.357194906410577
-0.04910706078903	-0.0821784917276673
-0.04910706078903	1.11560877672771
-0.04910706078903	1.1239900385122
-0.04910706078903	-0.643116924860806
-0.04910706078903	-1.05205719187298
-0.04910706078903	0.488687180707863
-0.04910706078903	-0.511083233818415
-0.04910706078903	-0.345455486112133
-0.04910706078903	0.192132368016349
-0.04910706078903	-0.428698482086332
-0.04910706078903	-1.00690644578135
-0.04910706078903	-0.660915224113246
-0.04910706078903	1.06285480114763
-0.04910706078903	-0.843154061558625
-0.04910706078903	-1.25150230930992
-0.04910706078903	-0.746742070452967
-0.04910706078903	0.131292057372679
-0.04910706078903	-0.308265591427357
-0.04910706078903	0.0033179409591213
-0.04910706078903	-0.817777501005231
-0.04910706078903	-2.39693226657219
-0.04910706078903	-1.13207790770073
-0.04910706078903	-0.999127528987049
-0.04910706078903	0.0336941484086388
-0.04910706078903	0.191782159002869
-0.04910706078903	-0.187013767338058
-0.04910706078903	-0.244094416588204
-0.04910706078903	-0.914842318703865
-0.04910706078903	1.10453118183477
-0.04910706078903	-0.539585663693387
-0.04910706078903	-0.245986714568499
-0.04910706078903	0.178660538850526
-0.04910706078903	0.177092465665666
-0.04910706078903	-0.634994151284321
-0.04910706078903	-0.269823295081249
-0.04910706078903	0.694414455042363
-0.04910706078903	-0.551158857382124
-0.04910706078903	-0.127508254439746
-0.04910706078903	0.654471610557703
-0.04910706078903	-0.273566106149442
-0.04910706078903	0.582878136313756
-0.04910706078903	-0.682985428000411
-0.04910706078903	0.374604027710838
-0.04910706078903	0.28624882405305
-0.04910706078903	-1.36256459235162
-0.04910706078903	-0.047953748587453
-0.04910706078903	0.260902845135934
-0.04910706078903	-1.8761931851335
-0.04910706078903	0.450061662100001
-0.04910706078903	0.706913679042717
-0.04910706078903	-2.21943611284618
-0.04910706078903	-0.0834660503221976
-0.04910706078903	-0.809450939503851
-0.04910706078903	0.618645653997227
-0.04910706078903	-0.466182559563556
-0.04910706078903	-1.32140599910399
-0.04910706078903	0.0171840230246367
-0.04910706078903	-0.557490551283671
-0.04910706078903	1.27116125433025
-0.04910706078903	0.404542109179808
-0.04910706078903	-0.308311460393931
-0.04910706078903	0.642414687492096
-0.04910706078903	-0.187533384469063
-0.04910706078903	-1.29174075826701
-0.04910706078903	-0.251488704399179
-0.04910706078903	1.28687784308908
-0.04910706078903	0.663384199215987
-0.04910706078903	0.566132187993215
-0.04910706078903	-1.11799727687687
-0.04910706078903	1.29906367067778
-0.04910706078903	-0.545131042472434
-0.04910706078903	1.39217545626493
-0.04910706078903	0.201819876719011
-0.04910706078903	-0.42612001800898
-0.04910706078903	-0.263129616168513
-0.04910706078903	0.418577760554236
-0.04910706078903	-0.480642953666077
-0.04910706078903	-0.0595273960914859
-0.04910706078903	1.29365105721001
-0.04910706078903	0.00676865879546895
-0.04910706078903	0.0880957340009552
-0.04910706078903	0.180563808284436
-0.04910706078903	-0.260544364005607
-0.04910706078903	0.6440052053233
-0.04910706078903	-0.159227758878593
-0.04910706078903	-0.420269038063271
-0.04910706078903	0.276312836706325
-0.04910706078903	0.607295855740166
-0.04910706078903	0.508055039595735
-0.04910706078903	-0.8718126102079
-0.04910706078903	0.241663603374722
-0.04910706078903	0.101613505694598
-0.04910706078903	0.670832734506753
-0.04910706078903	0.892524411799723
-0.04910706078903	-0.948464073930705
-0.04910706078903	0.00323279132598131
-0.04910706078903	1.02147833839931
-0.04910706078903	-0.386976535441505
-0.04910706078903	-0.826332295989097
-0.04910706078903	-0.172137550125981
-0.04910706078903	2.24262931773117
-0.04910706078903	1.07121107851962
-0.04910706078903	0.122637260698458
-0.04910706078903	-0.987675626957653
-0.04910706078903	0.189493117530564
-0.04910706078903	0.316342959021366
-0.04910706078903	-0.134811308038266
-0.04910706078903	-0.183059430101558
-0.04910706078903	-0.593377055069361
-0.04910706078903	-0.713738179769734
-0.04910706078903	-0.752865729926839
-0.04910706078903	-0.783899826498587
-0.04910706078903	0.767430631566409
-0.04910706078903	-0.000931136837309054
-0.04910706078903	-0.0334196899267702
-0.04910706078903	-0.661408267353597
-0.04910706078903	-0.738411735973827
-0.04910706078903	0.366815669603316
-0.04910706078903	0.667705126159646
-0.04910706078903	1.66032137525838
-0.04910706078903	0.197695860399655
-0.04910706078903	1.2576730204524
-0.04910706078903	0.108822142057321
-0.04910706078903	0.858208644023239
-0.04910706078903	0.521834461771157
-0.04910706078903	-0.0766902523241342
-0.04910706078903	-0.733568826843783
-0.04910706078903	0.589033520854006
-0.04910706078903	-0.315621175593296
-0.04910706078903	0.0759573967282634
-0.04910706078903	-0.0735043217647053
-0.04910706078903	2.1384018146732
-0.04910706078903	1.50434812569926
-0.04910706078903	-0.455703398014389
-0.04910706078903	0.358559979713025
-0.04910706078903	0.485297476528117
-0.04910706078903	-0.241772807098531
-0.04910706078903	-0.568628748778298
-0.04910706078903	1.34671130140262
-0.04910706078903	0.252015077087883
-0.04910706078903	-0.556037385117595
-0.04910706078903	-0.31129327677856
-0.04910706078903	-1.27234743593084
-0.04910706078903	0.687538321262622
-0.04910706078903	-1.77563577794493
-0.04910706078903	0.765552780953865
-0.04910706078903	0.228339293271709
-0.04910706078903	-1.3557419836648
-0.04910706078903	-0.282278208802552
-0.04910706078903	1.69006644756663
-0.04910706078903	1.41405480726199
-0.04910706078903	0.591354578786703
-0.04910706078903	-1.11337828022857
-0.04910706078903	-0.492029622758846
-0.04910706078903	-0.392317999343895
-0.04910706078903	0.04245204249208
-0.04910706078903	-0.385699623596729
-0.04910706078903	-1.28706463907846
-0.04910706078903	-0.464545010955977
-0.04910706078903	-1.12901025013215
-0.04910706078903	-0.152558282441696
-0.04910706078903	-0.00018917016410569
-0.04910706078903	-0.066811925371379
-0.04910706078903	-0.48822361622959
-0.04910706078903	0.667355960336522
-0.04910706078903	-0.222942153674751
-0.04910706078903	0.729513856247639
-0.04910706078903	-0.169504684651361
-0.04910706078903	0.0138811279635398
-0.04910706078903	-0.915185466716128
-0.04910706078903	0.154217786091358
-0.04910706078903	0.681299994374839
-0.04910706078903	-0.277267168324034
-0.04910706078903	0.096609181829951
-0.04910706078903	-1.87544543670934
-0.04910706078903	0.57187912669367
-0.04910706078903	0.355290045622002
-0.04910706078903	-0.027559958205277
-0.04910706078903	-1.11968120887603
-0.04910706078903	0.124463843090634
-0.04910706078903	-1.26711892904201
-0.04910706078903	-0.383416872803554
-0.04910706078903	-1.14181403664352
-0.04910706078903	0.486384419048427
-0.04910706078903	1.09763899122214
-0.04910706078903	-0.303832936127439
-0.04910706078903	0.0182957346732948
-0.04910706078903	-0.576355497034307
-0.04910706078903	-0.010383778642467
-0.04910706078903	0.0853873697323948
-0.04910706078903	0.122671516939704
-0.04910706078903	0.741734954873195
-0.04910706078903	0.815217383176261
-0.04910706078903	-0.11914216145782
-0.04910706078903	0.494447015561512
-0.04910706078903	0.0217113560265894
-0.04910706078903	0.463616159421758
-0.04910706078903	0.0804764325278882
-0.04910706078903	0.411877179259587
-0.04910706078903	-0.391641207236322
-0.04910706078903	-0.57534569419408
-0.04910706078903	0.467759679405475
-0.04910706078903	0.0306565087764881
-0.04910706078903	0.010068375289638
-0.04910706078903	-0.730832721956556
-0.04910706078903	0.0176694992960265
-0.04910706078903	0.496254560881102
-0.04910706078903	-0.485340819539537
-0.04910706078903	-0.889852428842232
-0.04910706078903	-0.347715196819525
-0.04910706078903	-0.537865735153257
-0.04910706078903	-1.18217208977408
-0.04910706078903	0.982837198908783
-0.04910706078903	0.665044680063883
-0.04910706078903	-1.1031660339218
-0.04910706078903	1.23936298038594
-0.04910706078903	-0.565258846382275
-0.04910706078903	-0.960551371095907
-0.04910706078903	-0.492036513006035
-0.04910706078903	-1.04508262773239
-0.04910706078903	1.02159566297814
-0.04910706078903	1.04926756240422
-0.04910706078903	-0.383539348848213
-0.04910706078903	0.484587983203351
-0.04910706078903	-1.3184098188026
-0.04910706078903	-0.735054391316243
-0.04910706078903	-0.48702649583765
-0.04910706078903	-0.680651897678985
-0.04910706078903	-0.282958002816653
-0.04910706078903	1.00681583291685
-0.04910706078903	-0.0707468174636432
-0.04910706078903	-0.60622184501679
-0.04910706078903	1.38071062415884
-0.04910706078903	-1.06582566474133
-0.04910706078903	0.205208571663615
-0.04910706078903	-0.538601023358854
-0.04910706078903	-0.158304445021447
-0.04910706078903	-1.58531450956535
-0.04910706078903	0.59059559432966
-0.04910706078903	0.0309694008085408
-0.04910706078903	-0.221066889978175
-0.04910706078903	-1.96054941196148
-0.04910706078903	-0.0272095495640414
-0.04910706078903	0.515150333652933
-0.04910706078903	0.174318547718432
