estimate std lowerCI upperCI
-0.480926649119017 0.270161445765604 -1.0104430828196 0.0485897845815675
-0.547225407793105 0.568865691926071 -1.6622021639682 0.567751348381994
-0.609250706642158 0.469537556811161 -1.52954431799203 0.311042904707717
-1.28678195078813 0.314797882515349 -1.90378580051822 -0.66977810105805
-1.12669231611697 0.331777524926647 -1.7769762649732 -0.476408367260746
0.00736785351795 0.600510694720623 -1.16963310813447 1.18436881517037
0.14309446587731 0.711044252776297 -1.25055226956423 1.53674120131885
-1.03636720194592 0.21903928655217 -1.46568420358818 -0.60705020030367
-0.571505262390915 0.325540051784777 -1.20956376388908 0.0665532391072481
-0.692225322367134 0.310036491057222 -1.29989684483929 -0.0845537998949785
-0.0330604591447425 0.34233205198022 -0.704031281025973 0.637910362736488
-0.412150287775739 0.402342824088684 -1.20074222298956 0.376441647438082
2.69742800875317 1.88915349225785 -1.00531283607222 6.40016885357857
1.63218344827557 1.18100701482879 -0.682590300788859 3.94695719734001
0.121052113543231 0.616325595145627 -1.0869460529422 1.32905028002866
-0.127697316843892 0.324128432939898 -0.762989045406092 0.507594411718307
-0.336381756666033 0.523172445451575 -1.36179974975112 0.689036236419053
0.54798284690893 0.788775340641529 -0.998016820748467 2.09398251456633
-1.12626292832169 0.276915847712524 -1.66901798983824 -0.583507866805147
-1.34792870387493 0.233279532110806 -1.80515658681211 -0.890700820937753
0.465602914311947 1.05944925486062 -1.61091762521486 2.54212345383876
-1.08323263505701 0.296398281281467 -1.66417326636868 -0.502292003745333
-0.571788301723389 0.25937962841073 -1.08017237340842 -0.0634042300383574
-1.28258680141969 0.28521407179761 -1.84160638214301 -0.723567220696376
0.508989282413346 0.87240638583608 -1.20092723382537 2.21890579865206
-1.07972119855815 0.289608509196484 -1.64735387658326 -0.51208852053304
-0.37849955222881 0.538068411926061 -1.43311363960389 0.676114535146269
-0.367750502185941 0.346477490140517 -1.04684638286136 0.311345378489473
0.222086149606352 0.850042661950697 -1.44399746781701 1.88816976702972
-1.39273262639982 0.372535370400581 -2.12290195238496 -0.662563300414685
-1.30381129419003 0.258188849033514 -1.80986143829572 -0.797761150084343
-0.687584143237738 0.364203742378402 -1.40142347829941 0.0262551918239307
0.229369130258866 0.454093801624439 -0.660654720925034 1.11939298144277
-0.364962612686573 0.388511774289902 -1.12644569029478 0.396520464921635
-0.622594945870298 0.293318769937557 -1.19749973494791 -0.0476901567926857
0.0291292783782837 1.02718923509842 -1.98416162241462 2.04242017917119
-0.564968176972004 0.317031231069665 -1.18634938986855 0.0564130359245401
-0.80411571374676 0.343065122035266 -1.47652335293588 -0.13170807455764
0.736695853876345 0.459949100041669 -0.164804382205326 1.63819608995802
-0.787119326568192 0.620712440777171 -2.00371571049145 0.429477057355063
1.47272451416379 0.794268822621219 -0.0840423781738022 3.02949140650138
-0.354305222329348 0.379390868182508 -1.09791132396706 0.389300879308368
-0.503436377848334 0.383941339499426 -1.25596140326721 0.249088647570541
0.257717200479303 0.375457256104401 -0.478179021485322 0.993613422443929
0.103777324002443 0.691581780317029 -1.25172296541893 1.45927761342382
0.519328592668577 0.745221243006042 -0.941305043623266 1.97996222896042
1.06684327984912 0.589528580774437 -0.088632738468774 2.22231929816702
1.18568723868754 0.650043774671071 -0.0883985596677603 2.45977303704284
0.0982484766777305 0.590388843125076 -1.05891365584742 1.25541060920288
1.60888833435371 1.14539590314456 -0.636087635809635 3.85386430451705
-0.644720000137645 0.509867097091315 -1.64405951043662 0.354619510161333
-1.17235483744386 0.379175050697507 -1.91553793681097 -0.429171738076743
0.10885243499034 0.558102674435749 -0.985028806903729 1.20273367688441
-1.18794676601058 0.296482390844674 -1.76905225206614 -0.606841279955022
-0.223049375592589 0.473799720491066 -1.15169682775508 0.7055980765699
0.876095945778438 0.888971088503083 -0.866287387687605 2.61847927924448
-0.808308590721018 0.359755787768054 -1.5134299347464 -0.103187246695632
-0.816119656283194 0.314105667813846 -1.43176676519833 -0.200472547368056
1.49331275012322 1.09293714350721 -0.648844051150906 3.63546955139734
-0.391320586471237 0.330948422412842 -1.03997949440041 0.257338321457933
0.132878789523379 0.526370074292576 -0.89880655609007 1.16456413513683
-0.447020718389477 0.507165058695983 -1.4410642334336 0.547022796654649
0.315008352703361 0.728524639292688 -1.11289994031031 1.74291664571703
-0.623986423652843 0.267453398850859 -1.14819508540053 -0.0997777619051594
-0.565225437687244 0.484463526496531 -1.51477394962044 0.384323074245956
-0.465246172985994 0.451627665131334 -1.35043639664341 0.41994405067142
-0.367848308015835 0.326234060393287 -1.00726706638668 0.271570450355007
0.763156085899879 0.822720707467444 -0.849376500736312 2.37568867253607
0.307860860317253 0.455781345149612 -0.585470576175987 1.20119229681049
-0.126205911378753 0.349024251363457 -0.810293444051129 0.557881621293622
-0.988918502312471 0.238921468591624 -1.45720458075205 -0.520632423872888
-1.06746021867466 0.391777053288567 -1.83534324312025 -0.299577194229065
-0.335560322531312 0.544036654274904 -1.40187216491012 0.730751519847499
-1.16610496373553 0.254411789193329 -1.66475207055445 -0.667457856916601
0.253809388338043 0.717326370808395 -1.15215029844641 1.6597690751225
-1.62999815069742 0.368259582184022 -2.3517869317781 -0.908209369616736
-0.903607468284939 0.402003962503969 -1.69153523479272 -0.11567970177716
-0.51626394340561 0.250945178298263 -1.00811649287021 -0.0244113939410149
-0.704254534089953 0.305928193799742 -1.30387379393745 -0.10463527424246
-0.436049918562428 0.28908379954428 -1.00265416566922 0.13055432854436
0.84606730254704 0.729705230189126 -0.584154948623646 2.27628955371773
-0.802511158683677 0.52208122999965 -1.82579036948299 0.220768052115636
3.12784536471979 1.47446628289839 0.237891450238943 6.01779927920064
-0.15340770053598 0.475696893307189 -1.08577361141807 0.778958210346111
-0.576866351707241 0.34104003030525 -1.24530481110553 0.0915721076910488
-0.656146547505092 0.216579113379477 -1.08064160972887 -0.231651485281317
-0.0201466505036771 0.537545483973012 -1.07373579909078 1.03344249808343
-0.0765486072460169 0.601519186309717 -1.25552621241306 1.10242899792103
-0.516194000159014 0.2957662200487 -1.09589579145447 0.0635077911364377
-0.975006672506637 0.231758247755236 -1.4292528381069 -0.520760506906375
2.08506608746402 1.00661589174101 0.112098939651632 4.0580332352764
-0.728351462474854 0.641190679653908 -1.98508519459651 0.528382269646806
0.0588610909240259 0.721584861240937 -1.35544523710821 1.47316741895626
-0.296899185956557 0.306848313576867 -0.898321880567217 0.304523508654104
1.06472256380042 1.02663134482894 -0.94747487206431 3.07691999966515
0.0179421967425548 0.440851937997207 -0.846127601731971 0.882011995217081
-0.422613826729813 0.565588502953345 -1.53116729251837 0.685939639058742
-0.620013504092692 0.278243509169562 -1.16537078206503 -0.0746562261203509
-0.447344566359304 0.599053752550352 -1.62148992135799 0.726800788639387
-0.485553961019676 0.354501198065771 -1.18037630922859 0.209268387189235
0.0600457342618381 0.608233872117152 -1.13209265508778 1.25218412361146
-0.560381089012274 0.589564032010885 -1.71592659175361 0.595164413729061
-0.721243157774001 0.298026774676252 -1.30537563613946 -0.137110679408546
-0.726757379136516 0.432871703184522 -1.57518591737818 0.121671159105148
-0.309359865798472 0.441180418155775 -1.17407348538379 0.555353753786847
-0.899601094918622 0.229353837434389 -1.34913461629002 -0.45006757354722
0.785389660246145 0.693939874095984 -0.574732492981984 2.14551181347427
-0.616477393313068 0.432839405722101 -1.46484262852839 0.231887841902251
1.84074758442807 1.59119915728324 -1.27800276384708 4.95949793270322
-0.273272146252297 0.331525123099607 -0.923061387527527 0.376517095022932
-0.849384142040398 0.244043122873475 -1.32770866287241 -0.371059621208387
-0.0291311061610422 0.625914476848976 -1.25592348078504 1.19766126846295
-0.699972984359499 0.194687140494049 -1.08155977972783 -0.318386188991164
-0.654016990986659 0.337940341178389 -1.3163800596963 0.00834607772298257
-0.482970561865332 0.252038070835652 -0.976965180703211 0.011024056972546
-0.24119986499828 0.411775963822404 -1.04828075409019 0.565881024093632
-0.682597728512317 0.478287382178288 -1.62004099758176 0.254845540557127
0.131574407171822 0.987988196762254 -1.8048824584822 2.06803127282584
0.372308304420984 1.0515055397351 -1.68864255345981 2.43325916230178
-1.12891175492268 0.23577728211314 -1.59103522786443 -0.666788281980921
0.0282952295989074 0.754138303225899 -1.44981584472385 1.50640630392167
0.583109829884711 0.857270249320835 -1.09713985878412 2.26335951855355
-0.577954726698955 0.311219805900505 -1.18794554626394 0.0320360928660339
-0.483053465361857 0.290342357114244 -1.05212448530578 0.0860175545820614
0.233475738553787 0.990794515984451 -1.70848151277574 2.17543298988331
-0.921284803478559 0.366112662138532 -1.63886562127008 -0.203703985687035
-0.352634563497884 0.528647145158679 -1.3887829680089 0.683513841013127
-0.667862093341158 0.638388467778833 -1.91910349018767 0.583379303505355
-0.466841281654126 0.31010102626866 -1.0746392931407 0.140956729832448
1.60235547289219 0.827664461825607 -0.0198668722860005 3.22457781807038
1.80534349728123 0.915413909245467 0.0111322351601193 3.59955475940235
-0.355383215392794 0.361729124389867 -1.06437229919693 0.353605868411344
-0.794261297600208 0.50446478441413 -1.7830122750519 0.194489679851488
-1.00749388175085 0.271760481553423 -1.54014442559555 -0.474843337906136
-0.121421818537403 0.573707066470475 -1.24588766881953 1.00304403174473
0.135614971631671 0.448790978730901 -0.744015346680896 1.01524528994424
-0.707865536912616 0.465008252514457 -1.61928171184095 0.20355063801572
-0.412171580948339 0.406856888786389 -1.20961108296966 0.385267921072984
0.382338701157138 0.568061257266779 -0.73106136308575 1.49573876540003
-0.718121134742389 0.511481748797749 -1.72062536238598 0.284383092901199
-0.849606781688544 0.253411520337544 -1.34629336155013 -0.352920201826958
-1.22258180253699 0.187548132910514 -1.5901761430416 -0.854987462032379
-0.686498132552644 0.342079848604869 -1.35697463581819 -0.0160216292871012
3.58732185792475 1.97072909772908 -0.275307173624242 7.44995088947374
-0.694174733626783 0.244717579618897 -1.17382118967982 -0.214528277573745
-1.09749150847935 0.253068942227916 -1.59350663524606 -0.601476381712632
-0.0121672230130452 0.359597164409475 -0.716977665255617 0.692643219229527
0.286132787974794 0.615345145613247 -0.91994369742717 1.49220927337676
0.381938882565163 0.844220877158275 -1.27273403666506 2.03661180179538
-0.899478152982171 0.366553625406043 -1.61792325877802 -0.181033047186326
-0.283787954589247 0.319715864082628 -0.910431048191199 0.342855139012705
-0.256002599974074 0.605707403512996 -1.44318911085955 0.931183910911397
1.39345280166878 1.19191471585385 -0.942700041404769 3.72960564474233
-0.141014238776585 0.499741934661559 -1.12050843071324 0.838479953160071
-0.449537167058008 0.401707658052496 -1.2368841768409 0.337809842724885
2.89044537617181 1.80809203670056 -0.653415015761283 6.43430576810491
-0.88334716436709 0.508906369544773 -1.88080364867484 0.114109319940665
1.07715591567169 0.835508159439773 -0.560440076830263 2.71475190817365
-0.857925253573923 0.264306535623898 -1.37596606339676 -0.339884443751083
0.46949207231076 0.980204219694448 -1.45170819829036 2.39069234291188
-0.704924974635825 0.349325176932358 -1.38960232142325 -0.0202476278484042
-0.832156034456561 0.433654957427479 -1.68211975101442 0.0178076821012989
-1.17124285505054 0.307473713795339 -1.77389133408941 -0.568594376011676
-0.46921353119577 0.383767626949754 -1.22139808001729 0.282971017625747
-0.886552405337532 0.222038167057166 -1.32174721276958 -0.451357597905487
0.843187008419029 0.667555497173101 -0.46522176604025 2.15159578287831
-0.277249660687985 0.672568816196225 -1.59548454043259 1.04098521905662
-0.551586370471535 0.529873619557798 -1.59013866480482 0.486965923861749
-0.229155305612026 0.404745946108153 -1.02245735998401 0.564146748759954
-0.519591821735938 0.236156621491652 -0.982458799859576 -0.0567248436123006
-0.613556961419932 0.664316554284991 -1.91561740781851 0.688503484978651
-0.538596105463701 0.282050323427225 -1.09141473938106 0.0142225284536612
-0.147792515492361 0.402896816427465 -0.937470275690193 0.641885244705471
-0.863429517300597 0.204350895263923 -1.26395727201789 -0.462901762583307
-0.104488853483895 0.6371952570356 -1.35339155727367 1.14441385030588
0.371109320564867 0.678125181756447 -0.958016035677769 1.7002346768075
-0.343127261404564 0.485042180634987 -1.29380993544914 0.607555412640011
-1.00644334276407 0.287567088669869 -1.57007483655701 -0.442811848971122
-1.24653994349961 0.228134738069901 -1.69368403011662 -0.799395856882608
-0.116077686804034 0.279442914009607 -0.663785798262864 0.431630424654796
-0.99216613347197 0.316372596730526 -1.6122564230638 -0.37207584388014
1.35382169837382 1.25701401357273 -1.10992576822872 3.81756916497637
-1.0629684968912 0.356230325487313 -1.76117993484633 -0.364757058936066
-0.857769653314303 0.247937963001994 -1.34372806079821 -0.371811245830396
1.71763664649158 1.06047289196878 -0.360890221767239 3.79616351475039
-0.944894732595284 0.373666078736641 -1.6772802469191 -0.212509218271467
1.35510242625247 0.949666099142473 -0.506243128066773 3.21644798057172
-0.576125916397783 0.384792545035222 -1.33031930466682 0.178067471871251
0.493508212013656 0.719843389114955 -0.917384830651657 1.90440125467897
-1.2777277633758 0.331675589930418 -1.92781191963942 -0.627643607112184
-0.854127356485185 0.370474726236803 -1.58025781990932 -0.127996893061051
0.399870729941535 0.702398244564573 -0.976829829405028 1.7765712892881
-0.343806136315125 0.592999773902888 -1.50608569316478 0.818473420534535
-0.193940913060941 0.425767603770978 -1.02844541645206 0.640563590330176
-0.797243599535963 0.552444659420602 -1.88003513200034 0.285547932928416
0.188040102924996 0.597805048053336 -0.983657791259544 1.35973799710954
-0.556448047747482 0.46061678208842 -1.45925694064078 0.346360845145821
-1.03618200080651 0.418456013322009 -1.85635578691765 -0.216008214695376
-0.941208932386751 0.250326347324198 -1.43184857314218 -0.450569291631324
-0.144393646795389 0.824418698407497 -1.76025429567408 1.4714670020833
0.663501653799385 1.13519053056796 -1.56147178611382 2.88847509371259
1.88060667627498 1.58455845736527 -1.22512790016095 4.9863412527109
0.908105986391136 1.1471310747662 -1.34027092015061 3.15648289293289
-0.507763598819813 0.276065828987267 -1.04885262363486 0.0333254259952304
-1.00056505220337 0.221186393008742 -1.43409038250051 -0.567039721906241
-0.509560228672846 0.371290408207582 -1.23728942875971 0.218168971414015
-0.885979122934838 0.266727619333148 -1.40876525682781 -0.363192989041867
-0.216164986059442 0.331528415611068 -0.865960680657134 0.43363070853825
1.37358219026474 0.82196883815141 -0.237476732512028 2.9846411130415
-0.110279810154676 0.885373909373753 -1.84561267252723 1.62505305221788
-0.538507535876958 0.334502885277004 -1.19413319101989 0.117118119265971
-0.743536569452124 0.254813104574805 -1.24297025441874 -0.244102884485506
1.59216218924677 1.19204701603623 -0.744249962184246 3.92857434067778
-0.826975887259615 0.265383860951124 -1.34712825472382 -0.306823519795411
-0.711885949010659 0.408120129292292 -1.51180140242355 0.0880295044022323
-0.128578080707487 0.323128963773629 -0.7619108497038 0.504754688288825
-0.401940178475845 0.674102508745402 -1.72318109561683 0.919300738665144
-1.02772618725392 0.274889172851332 -1.56650896604253 -0.488943408465313
-0.355849074037981 0.537870300521526 -1.41007486306017 0.698376714984209
0.294440202228112 0.709986131514815 -1.09713261554092 1.68601301999715
-1.17797245201033 0.302796523347737 -1.77145363777189 -0.584491266248763
-0.525747114366594 0.695453516025749 -1.88883600577706 0.837341777043874
-0.362289209201291 0.457385301831358 -1.25876440079075 0.534185982388169
-0.178294551373958 0.504061157270115 -1.16625441962338 0.809665316875466
-0.450604141702646 0.545322136156011 -1.51943552856843 0.618227245163135
-0.685995961991811 0.524509702292662 -1.71403497848543 0.342043054501806
-0.0779872159717039 0.407072184689745 -0.875848697963604 0.719874266020196
2.35857453756978 1.537955144481 -0.655817545612979 5.37296662075253
-0.600833089523614 0.32869706352323 -1.24507933402914 0.0434131549819162
-1.38687848634453 0.297868066466006 -1.97069989661791 -0.803057076071163
-0.220032155468789 0.4210527531449 -1.04529555163279 0.605231240695215
0.135618502936473 0.30515545165425 -0.462486182305857 0.733723188178803
1.34062051075424 1.40081242740672 -1.40497184696292 4.0862128684714
-1.02107969974985 0.30710141796072 -1.62299847895286 -0.419160920546841
0.405385225450579 0.426575769000757 -0.430703281790905 1.24147373269206
-0.918196487835194 0.387679589987307 -1.67804848421032 -0.158344491460071
-0.369805166727635 0.672422479415138 -1.68775322638131 0.948142892926036
-0.792604558653099 0.314876580765161 -1.40976265695281 -0.175446460353383
0.00574043191755136 0.459107603455624 -0.894110470855473 0.905591334690575
-1.462227910067 0.259021109041694 -1.96990928378872 -0.954546536345282
-0.652409484769709 0.285830741617875 -1.21263773834074 -0.0921812311986733
-0.293492683717132 0.400511852908322 -1.07849591541744 0.491510547983179
-0.303824313247827 0.484710876670318 -1.25385763152165 0.646209005025995
-0.612086232600931 0.492898395412636 -1.5781670876097 0.353994622407835
-0.0291453524607355 0.571601097001581 -1.14948350258383 1.09119279766236
0.081666337173433 0.583933298024782 -1.06284292695514 1.22617560130201
-0.19326215766352 0.465313102729016 -1.10527583901239 0.718751523685351
-1.09054801644017 0.44550230453023 -1.96373253331942 -0.217363499560917
0.367128355571476 0.746637918568748 -1.09628196482327 1.83053867596622
-1.09814300477662 0.28893237906759 -1.6644504677491 -0.531835541804147
-1.21288088798234 0.196718907385048 -1.59844994645704 -0.827311829507648
-0.0180093195435114 0.710457756434312 -1.41050652215476 1.37448788306774
-0.737731950465435 0.239208617938082 -1.20658084162408 -0.268883059306794
-0.5140600938869 0.434877438242586 -1.36641987284237 0.338299685068569
-0.743365260846707 0.469553600061857 -1.66369031696795 0.176959795274533
0.0904340820878629 0.856141099848292 -1.58760247361479 1.76847063779052
-0.462280013006807 0.41248087996543 -1.27074253773905 0.346182511725436
-0.529072859185132 0.346028498514843 -1.20728871627422 0.149142997903961
0.412975702341668 0.499180209613402 -0.565417508500599 1.39136891318394
-0.515079470704024 0.296135039349074 -1.09550414782821 0.0653452064201612
-0.0371968993494174 0.699428671783626 -1.40807709604532 1.33368329734649
-0.826989886625988 0.235320759466432 -1.2882185751802 -0.365761198071781
-1.04056383625019 0.257569801885364 -1.5454006479455 -0.535727024554874
-0.160487847391058 0.513172495097144 -1.16630593778146 0.845330242999344
0.117592929755463 0.757831669018041 -1.3677571415199 1.60294300103082
0.736334454848989 0.98660375373884 -1.19740890247914 2.67007781217712
0.49801770723964 0.313548369674102 -0.116537097321599 1.11257251180088
-0.236825858257565 0.324230393071172 -0.872317428677062 0.398665712161931
0.0986913097442104 0.484669216382444 -0.851260354365381 1.0486429738538
-0.859585737820408 0.354886488008642 -1.55516325431735 -0.164008221323471
-0.38015151498433 0.432501414969196 -1.22785428832395 0.467551258355295
0.033466868992071 0.526684344477995 -0.998834446184798 1.06576818416894
-0.301479346622059 0.388749280190606 -1.06342793579565 0.460469242551529
-0.542008138567197 0.483778307250752 -1.49021362077867 0.406197343644277
-0.696646226697331 0.218389304593342 -1.12468926370028 -0.26860318969438
-0.633482660515282 0.366551957540381 -1.35192449729443 0.0849591762638644
-0.474461629542838 0.483379316872116 -1.42188509061218 0.472961831526509
-0.183275462114264 0.320478980431376 -0.811414263759761 0.444863339531233
-0.593844403285209 0.328931257706816 -1.23854966839057 0.0508608618201509
-0.875942869347201 0.401770272824805 -1.66341260408382 -0.088473134610582
-1.29124998121151 0.211477142222484 -1.70574517996758 -0.876754782455444
-0.429088928621695 0.296836641591974 -1.01088874614196 0.152710888898574
-0.819887891394448 0.284979815606909 -1.37844832998399 -0.261327452804907
-1.04519463791589 0.340263722446842 -1.71211153391171 -0.378277741920083
-0.0601743045391823 0.3827491893624 -0.810362715689486 0.690014106611121
-1.24077461695633 0.389273934643565 -2.00375152885771 -0.47779770505494
-0.685693171578748 0.570074805983374 -1.80303979130616 0.431653448148665
0.448695982994287 0.621882672145233 -0.770194054410368 1.66758602039894
-0.24938855590014 0.832520663584103 -1.88112905652498 1.3823519447247
-0.227323208100986 0.568993915001549 -1.34255128150402 0.887904865302049
0.326817158857672 0.453761441511263 -0.562555266504403 1.21618958421975
-0.406823207540566 0.344905151620822 -1.08283730471738 0.269190889636246
-0.44153433425615 0.386901391695932 -1.19986106198018 0.316792393467877
-0.237615530712745 0.438182657252721 -1.09645353892808 0.621222477502589
1.05338449381536 1.22594483882255 -1.34946739027683 3.45623637790755
0.0496200367429864 0.82518555795232 -1.56774365684356 1.66698373032953
-1.25613619065213 0.246262655308549 -1.73881099505689 -0.773461386247373
-0.254580631738088 0.41482328344461 -1.06763426728952 0.558473003813347
-0.434196638033017 0.372497134413039 -1.16429102148257 0.295897745416539
-0.575601114841157 0.434457027812802 -1.42713688935425 0.275934659671935
-1.17555896049676 0.403317021067296 -1.96606032178866 -0.38505759920486
-0.636597260127786 0.331552848574751 -1.2864408433343 0.013246323078726
0.0320911089431548 0.504519209685986 -0.956766542041378 1.02094875992769
-1.07867829213603 0.3026445758712 -1.67186166084358 -0.485494923428481
0.990905162471931 1.32561480189488 -1.60729984924203 3.58911017418589
-0.60794435758057 0.238632308606799 -1.0756636824499 -0.140225032711243
0.260059009990823 0.95250375673636 -1.60684835321244 2.12696637319409
2.37098947788604 1.65472581268543 -0.872273114977408 5.61425207074948
-1.14234682897808 0.206720662576334 -1.5475193276277 -0.737174330328468
-0.69744433105961 0.291641272214799 -1.26906122460062 -0.125827437518604
-1.21288391607822 0.250017348413321 -1.70291791896833 -0.722849913188115
0.527776777648222 0.713791453208952 -0.871254470641323 1.92680802593777
0.683016827039121 1.01701812926173 -1.31033870631386 2.67637236039211
0.613092818008913 0.742520826168866 -0.842248001282065 2.06843363729989
-0.471635277269141 0.358101594360275 -1.17351440221528 0.230243847676997
-0.438141367613619 0.265995515434521 -0.95949257786528 0.083209842638041
-0.0586944324524707 0.945462739411479 -1.91180140169897 1.79441253679403
-0.836224617151355 0.308228674219807 -1.44035281862218 -0.232096415680532
-1.00833213018731 0.476618588832158 -1.94250456429834 -0.0741596960762778
-0.67520499261678 0.421271289545931 -1.50089672012681 0.150486734893245
-0.641303982094298 0.520291163433565 -1.66107466242408 0.378466698235489
1.02596562118905 1.10525135740256 -1.14032703931997 3.19225828169808
1.01834144557508 0.543394576364499 -0.0467119240993372 2.0833948152495
-1.0771674325536 0.35619585083558 -1.77531130019134 -0.379023564915866
0.71708536597764 0.772379228830968 -0.796777922531057 2.23094865448634
-0.643462768343989 0.524297754079886 -1.67108636634056 0.384160829652586
-0.0918875576287284 0.711945202249176 -1.48730015403711 1.30352503877966
-0.637483466610839 0.361092025731934 -1.34522383704543 0.0702569038237513
-0.0128508261932567 0.687053353818998 -1.35947539967849 1.33377374729198
-0.414975382257486 0.63384320076824 -1.65730805576324 0.827357291248264
-1.21251528108878 0.300222256468965 -1.80095090376795 -0.624079658409609
-0.90582379245071 0.255006570083026 -1.40563666981344 -0.406010915087979
-0.454160072889442 0.379979794582758 -1.19892047027165 0.290600324492763
0.179232423379634 0.726636913973024 -1.24497592800749 1.60344077476676
-0.564948029703116 0.302492351159103 -1.15783303797496 0.0279369785687253
0.160202501957841 0.888055160398425 -1.58038561242307 1.90079061633876
-0.711981793009525 0.384373053843982 -1.46535297854373 0.0413893925246798
-0.0927623333582352 0.702227485862293 -1.46912820564833 1.28360353893186
0.116245203359049 0.522645834739238 -0.908140632729856 1.14063103944796
-0.383256302925001 0.373416014176927 -1.11515169071178 0.348639084861775
0.205621015783656 0.616106992984315 -1.0019486904656 1.41319072203291
-0.147465967894416 0.651446223853535 -1.42430056664734 1.12936863085851
0.217906019570294 0.66794393184955 -1.09126408685482 1.52707612599541
0.194899809744707 0.479830498775316 -0.745567967854913 1.13536758734433
-0.853428145950484 0.234744333139895 -1.31352703890468 -0.393329252996289
-0.0538402011080952 0.957399855335702 -1.93034391756607 1.82266351534988
-0.745995695222994 0.295574871156613 -1.32532244268996 -0.166668947756032
-0.328901782122907 0.300475786936587 -0.917834324518617 0.260030760272804
-0.202941936255367 0.333677423556965 -0.856949686427018 0.451065813916285
-0.641005575791923 0.38421641782602 -1.39406975473092 0.112058603147075
-0.396367897699789 0.462222381540442 -1.30232376551906 0.509587970119477
3.1898853108011 1.02483667617267 1.18120542550268 5.19856519609953
0.659739958428413 1.15280455943524 -1.59975697806466 2.91923689492148
1.0688654518174 1.44948820357251 -1.77213142718471 3.90986233081951
0.768942694152602 0.907510506997831 -1.00977789956315 2.54766328786835
-0.651669668375343 0.472891019193755 -1.5785360659951 0.275196729244417
0.652615814906235 0.7346347366603 -0.787268268947953 2.09249989876042
-1.33179935582459 0.282008560747815 -1.88453613489031 -0.779062576758876
0.182489447919228 0.463050224929416 -0.725088992942427 1.09006788878088
-0.543297545640433 0.339456352445092 -1.20863199643281 0.122036905151947
-0.828447915841567 0.286487550987587 -1.38996351577724 -0.266932315905897
-0.676087118840249 0.410283305252105 -1.48024239713438 0.128068159453878
-0.514738110991579 0.318957796862897 -1.13989539284286 0.110419170859698
0.472024927756939 0.556744348582973 -0.619193995465687 1.56324385097957
1.03956110478874 1.10824563757319 -1.13260034485472 3.21172255443219
1.40813057596208 0.942179152654765 -0.438540563241257 3.25480171516542
0.412035080468973 0.569723627087654 -0.70462322862283 1.52869338956078
0.404578433091353 0.583054980773477 -0.738209329224662 1.54736619540737
-0.978643106279785 0.247096238765877 -1.4629517342609 -0.494334478298666
-0.825931438914186 0.377899665431288 -1.56661478315951 -0.085248094668862
-0.181994061977114 0.601282105588284 -1.36050698893015 0.996518864975922
-0.776737984884983 0.232899293037929 -1.23322059923932 -0.320255370530643
-0.991854314346959 0.626917993307134 -2.22061358122894 0.236904952535023
-1.53447925179532 0.319308952433844 -2.16032479856566 -0.90863370502499
-0.891210685307352 0.259647882924025 -1.40012053583844 -0.382300834776262
-0.129885742327268 0.504770525300795 -1.11923597191683 0.859464487262289
-0.0184106413017808 0.732254194994642 -1.45362886349128 1.41680758088772
-0.736051086444936 0.500339855115471 -1.71671720247126 0.244615029581387
-0.610067082448403 0.352635901691539 -1.30123344976382 0.0810992848670138
-0.685139634511008 0.225533902569049 -1.12718608354634 -0.243093185475672
-0.0446592368366785 0.610479565649394 -1.24119918550949 1.15188071183613
-0.473982743634399 0.726224942178061 -1.8973836303034 0.949418143034601
-1.59262325445166 0.193987284598604 -1.97283833226492 -1.2124081766384
-0.572718885827202 0.335962304332735 -1.23120500231936 0.0857672306649588
2.61355777578588 1.94946668800902 -1.20739693271179 6.43451248428356
-1.38878292510715 0.232710634464842 -1.84489576865824 -0.93267008155606
-1.09773258234664 0.207855175526741 -1.50512872637906 -0.690336438314231
-0.334742716726259 0.48070731303349 -1.2769290502719 0.607443616819381
-0.569255226047361 0.336493913948905 -1.22878329738722 0.0902728452924936
-1.41858514593928 0.219322070285716 -1.84845640369928 -0.988713888179277
-0.0808122888789584 0.321710036223693 -0.711363959877396 0.549739382119479
-0.432960446653298 0.27959366044106 -0.980964021117775 0.11504312781118
0.162563925195907 0.468115695683933 -0.754942838344601 1.08007068873642
-1.02295673851104 0.22994404987203 -1.47364707626022 -0.572266400761865
1.14202358357075 0.828877422390511 -0.482576164314648 2.76662333145615
-1.03629778060583 0.285572738978774 -1.59602034900423 -0.476575212207437
-0.186282582693977 0.496914930985911 -1.16023584742636 0.787670682038408
-0.0175529354162518 0.397367710520331 -0.7963936480361 0.761287777203596
-0.665869455767843 0.360347461371534 -1.37215048005605 0.040411568520363
-0.993412403687837 0.311274926332903 -1.60351125930033 -0.383313548075348
-0.673562162605528 0.301545110355403 -1.26459057890212 -0.0825337463089374
-0.764199964454153 0.305873450143781 -1.36371192673596 -0.164688002172341
0.00169637578385906 0.61840652495951 -1.21038041313678 1.2137731647045
-0.974732742373241 0.247856466928474 -1.46053141755305 -0.488934067193432
-0.505680874217396 0.386443053086035 -1.26310925826602 0.251747509831233
-0.826336678831546 0.249907096737112 -1.31615458843629 -0.336518769226806
0.641381129090188 0.716310104279949 -0.762586675298512 2.04534893347889
-0.115669901267522 0.417418332079609 -0.933809832143556 0.702470029608511
-0.313916353281738 0.727134972675606 -1.73910089972593 1.11126819316245
1.13133008090474 1.34672267895712 -1.50824636985121 3.77090653166069
-0.898306426527294 0.308867733733137 -1.50368718464424 -0.292925668410346
-0.990493797627802 0.314380083726753 -1.60667876173224 -0.374308833523366
-1.09843190695765 0.232607903986356 -1.55434339877091 -0.642520415144391
-0.325673255518221 0.405767490171352 -1.12097753625407 0.469631025217629
0.41393227950308 0.817088771230518 -1.18756171210873 2.01542627111489
-1.03583430175814 0.46786128171026 -1.95284241391025 -0.118826189606031
-0.731849947110776 0.515408229980205 -1.74205007787198 0.278350183650426
-0.10658126252177 0.486529042282874 -1.0601781853962 0.847015660352663
2.02978235064418 1.40216549271021 -0.71846201506783 4.77802671635619
-1.35740232430746 0.253232020527932 -1.85373708454221 -0.861067564072717
-1.04889430796519 0.266414720283062 -1.57106715971999 -0.526721456210391
0.120316372840168 0.820328061101191 -1.48752662691817 1.7281593725985
-0.0770357237495847 0.586529176110121 -1.22663290892542 1.07256146142625
-0.0569658264822102 0.755461184749577 -1.53766974859138 1.42373809562696
-0.831272166467155 0.339552229894787 -1.49679453706094 -0.165749795873373
-0.436329583484195 0.250548791567227 -0.92740521495596 0.0547460479875694
0.293126595584965 0.694982041477536 -1.06903820571101 1.65529139688094
-0.417221439139448 0.352141547554148 -1.10741887234558 0.272975994066681
0.242518434434793 0.741860797113689 -1.21152872790804 1.69656559677762
-0.789742065547503 0.317804412063301 -1.41263871319157 -0.166845417903434
-0.296844508122102 0.360552451058917 -1.00352731219758 0.409838295953375
-0.271256123419687 0.651688654739002 -1.54856588670813 1.00605363986876
1.27934191084991 1.53103651589506 -1.7214896603044 4.28017348200423
-0.538513375746154 0.281646353137 -1.09054022789468 0.0135134764023668
-0.682117855811964 0.531549318535422 -1.72395452014139 0.359718808517463
-0.546440782420234 0.442876471242174 -1.41447866605489 0.321597101214426
-0.704510655570546 0.321470428463017 -1.33459269535806 -0.0744286157830337
-0.178918497601265 0.495430859327666 -1.14996298188349 0.79212598668096
-1.4407908833148 0.26748806464159 -1.96506749001232 -0.916514276617282
0.366202818109623 0.701847817001976 -1.00941890321425 1.7418245394335
-0.51289374857023 0.379763425513549 -1.25723006257679 0.231442565436327
-0.728739567318689 0.414488809540997 -1.54113763401904 0.0836584993816649
-0.70940380996288 0.337770151322165 -1.37143330655432 -0.0473743133714369
-0.175950648465355 0.299548913343256 -0.763066518618137 0.411165221687427
0.182154861887686 0.51974010531138 -0.836535744522619 1.20084546829799
-0.0958316734658102 0.464112885751388 -1.00549292953853 0.813829582606911
0.0477850985605293 0.589277009270065 -1.1071978396088 1.20276803672986
-0.743612654601488 0.322160844362249 -1.3750479095515 -0.11217739965148
0.24700464088498 0.54341456926187 -0.818087914868285 1.31209719663825
-0.944289848355903 0.269473224923201 -1.47245736920538 -0.416122327506428
-0.1408168236357 0.567474065575627 -1.25306599216393 0.971432344892528
-0.0273310920481658 0.71961893642206 -1.4377842074354 1.38312202333907
-1.15817220241286 0.249316209208048 -1.64683197246063 -0.669512432365085
-0.362860011652072 0.707762602376182 -1.75007471230939 1.02435468900524
-0.687601496448272 0.382596853945959 -1.43749133018235 0.0622883372858082
1.13806379628615 1.30338306529526 -1.41656701169256 3.69269460426486
-1.02999511671278 0.251270813684649 -1.52248591153469 -0.537504321890869
-0.116409116002805 0.457084074290224 -1.01229390161164 0.779475669606033
-0.364913639808045 0.351873018024539 -1.05458475513614 0.324757475520051
-0.458658351651251 0.24813804494334 -0.945008919740197 0.027692216437696
-0.472816438116781 0.238634682149808 -0.940540415130406 -0.00509246110315642
-0.311466169384875 0.586702825750009 -1.46140370785489 0.838471369085142
0.460852018517442 0.900980940593719 -1.30507062504625 2.22677466208113
0.845020850633241 0.805658494872024 -0.734069799315926 2.42411150058241
-0.855652083319304 0.423723715291281 -1.68615056529022 -0.0251536013483935
0.229163158997892 0.584691253214758 -0.916831697303034 1.37515801529882
-0.748919053640619 0.364110916689121 -1.4625764503513 -0.0352616569299425
-0.135884864375392 0.547629152254794 -1.20923800279479 0.937468274044004
-0.325651386383667 0.317344046478405 -0.947645717481341 0.296342944714006
-1.18190892635126 0.218991096157408 -1.61113147481978 -0.752686377882738
-1.07807271885974 0.400181087926166 -1.86242765119503 -0.293717786524457
-0.480838292275418 0.598069401071728 -1.653054318376 0.691377733825168
-0.606422119270877 0.355554216750992 -1.30330838410282 0.0904641455610683
-0.533258982602231 0.255219141429449 -1.03348849980395 -0.0330294654005099
-0.896896947488269 0.411241917114272 -1.70293110503224 -0.0908627899442956
-0.672936936689371 0.386620069600503 -1.43071227310636 0.0848383997276154
0.475168672714001 0.645772311044001 -0.790545056932242 1.74088240236024
-0.750319612848489 0.298492523717706 -1.33536495933519 -0.165274266361784
-1.03848607691291 0.326134395727829 -1.67770949253945 -0.399262661286364
0.304335194992997 0.718242652618089 -1.10342040413846 1.71209079412445
0.00403745662406285 0.496599400774018 -0.969297368893012 0.977372282141138
-0.614195045893538 0.328669625388495 -1.25838751165499 0.0299974198679125
-1.15897847182195 0.187618040857787 -1.52670983190322 -0.791247111740692
0.747118432948214 0.750019582262888 -0.722919948287046 2.21715681418347
0.0982893204475039 0.385621020795837 -0.657527880312337 0.854106521207345
-0.0413376930197575 0.674457643749915 -1.36327467476959 1.28059928873008
1.6500818838349 0.993313694862711 -0.296812958096011 3.59697672576581
0.341141973855143 0.543435967262684 -0.723992521979718 1.40627646969
-0.727875607750543 0.357976917299557 -1.42951036565767 -0.0262408498434107
-0.572161580430949 0.447339941853616 -1.44894786646404 0.304624705602139
0.215990607603743 0.42455901133643 -0.61614505461566 1.04812626982315
-1.00103176344673 0.199033914966482 -1.39113823678104 -0.61092529011243
-0.152205632412335 0.548416282998958 -1.22710154709029 0.922690282265622
-1.39513343877168 0.229226281512004 -1.84441695053521 -0.945849927008154
-0.981548308602325 0.267769147770245 -1.50637583823201 -0.456720778972644
-0.0398675578087011 0.705150254279583 -1.42196205619668 1.34222694057928
-0.915220756245754 0.368997947162243 -1.63845673268375 -0.191984779807758
-0.233928587482946 0.452327385002181 -1.12049026208722 0.652633087121328
-1.12919190231595 0.219492061201615 -1.55939634227111 -0.698987462360783
0.674933049814302 0.752587165821302 -0.80013779519545 2.15000389482405
