estimate std lowerCI upperCI
0.235459732603965 0.504475906269332 -0.753313043683926 1.22423250889186
-0.00630628512260789 0.325048576302476 -0.643401494675461 0.630788924430246
-0.139477547399361 0.353569552965239 -0.83247387121123 0.553518776412507
-0.253419268278668 0.46281838006795 -1.16054329321185 0.653704756654513
-0.57829259757187 0.300308062076386 -1.16689639924159 0.0103112040978455
-1.04522662131543 0.396647525719631 -1.8226557717259 -0.267797470904949
0.0900439295209721 0.292930483976305 -0.484099819072585 0.664187678114529
-0.786225829123277 0.236105882985991 -1.24899335977582 -0.323458298470735
-0.482446200056992 0.311210197328478 -1.09241818682081 0.127525786706825
0.211161928070616 0.311711350725973 -0.399792319352292 0.822116175493524
0.1160747759386 0.516331636181555 -0.895935230977247 1.12808478285445
0.369927707286494 0.273040262610877 -0.165231207430826 0.905086622003813
-0.126330102072087 0.466682989139841 -1.04102876078618 0.788368556642002
0.364932813792837 0.479111223437117 -0.574125184143912 1.30399081172959
-0.529728930830393 0.239982451153991 -1.00009453509222 -0.0593633265685712
1.29655738856169 0.579791656684293 0.160165741460479 2.43294903566291
1.5150927531323 0.509022683512273 0.517408293448245 2.51277721281635
-0.00802270860587129 0.353715933660502 -0.701305938580456 0.685260521368713
-0.343078788173041 0.20174898588921 -0.738506800515892 0.0523492241698098
-0.0255049080026331 0.452104752425292 -0.911630222756204 0.860620406750938
-0.995357292215437 0.39613542676989 -1.77178272868442 -0.218931855746453
1.6344351075691 1.09525454853145 -0.512263807552543 3.78113402269075
-0.485205454791932 0.289732362724579 -1.05308088573211 0.0826699761482425
-0.890326691434586 0.34164760682359 -1.55995600080882 -0.22069738206035
-0.23465113692941 0.271928006497043 -0.767630029663614 0.298327755804794
0.450384768710277 0.333070979766327 -0.202434351631724 1.10320388905228
0.162947683222885 0.636986236481313 -1.08554534028049 1.41144070672626
-0.105131180166189 0.266716599499037 -0.627895715184301 0.417633354851924
0.932174822543294 0.969773728587087 -0.968581685487396 2.83293133057398
-0.0718815017473671 0.612356471269091 -1.27210018543479 1.12833718194005
-0.440638141954275 0.251564373800782 -0.933704314603807 0.052428030695257
0.491406245115969 0.502467608781967 -0.493430268096687 1.47624275832862
-0.212078042059667 0.273168368596647 -0.747488044509095 0.323331960389761
0.181235616881173 0.396260437515584 -0.595434840649372 0.957906074411718
-0.0837725041469704 0.274015059137425 -0.620842020056323 0.453297011762383
0.0358922464736073 0.388886792171034 -0.726325866181619 0.798110359128833
0.209656747093052 0.483016000364629 -0.73705461362162 1.15636810780772
-0.210116027865942 0.294237701219732 -0.786821922256617 0.366589866524734
-0.519234009446702 0.25810966468219 -1.0251289522238 -0.0133390666696088
0.0792743900065634 0.306182314391512 -0.5208429462008 0.679391726213927
-0.379252958751766 0.246892649900595 -0.863162552556934 0.104656635053401
1.91092001513776 1.06862980075735 -0.183594394346646 4.00543442462217
0.556465329785688 0.320466290749169 -0.0716486000826828 1.18457925965406
-0.715238299124852 0.344490839297987 -1.39044034414891 -0.0400362541007967
0.239759785625107 0.514418810861686 -0.768501083663797 1.24802065491401
-0.324696456635662 0.286050921800905 -0.885356263365435 0.235963350094111
0.599206940020459 0.710946591850983 -0.794248380007467 1.99266226004838
-0.632989211308533 0.364591845776137 -1.34758922902976 0.081610806412695
-0.317749827805268 0.300427990614692 -0.906588689410065 0.271089033799529
-0.599285438994668 0.183676526317685 -0.959291430577331 -0.239279447412006
-0.610088822872987 0.304801485648861 -1.20749973474475 -0.0126779110012193
0.0646285602840286 0.617312156525814 -1.14530326650657 1.27456038707462
0.528138098068909 0.830029151089323 -1.09871903806616 2.15499523420398
-0.0747065702222374 0.252695270034802 -0.56998929949045 0.420576159045975
0.359389007034885 0.73525196476241 -1.08170484389944 1.80048285796921
-0.6179097465437 0.277340054930233 -1.16149625420696 -0.0743232388804436
0.163047574097963 0.382536927478044 -0.586724803759004 0.912819951954929
-0.771077440016191 0.349528966742227 -1.45615421483096 -0.0860006652014261
-0.448502278066581 0.226227479664542 -0.891908138209082 -0.00509641792407922
-0.676969383555936 0.237980176803592 -1.14341053009098 -0.210528237020896
-0.121359471958173 0.40125762882638 -0.907824424457878 0.665105480541532
-0.756077823794042 0.197918168318714 -1.14399743369872 -0.368158213889362
0.334645250939748 0.467593935138044 -0.581838861930818 1.25112936381031
-0.0229130996967427 0.238820816780552 -0.491001900586625 0.44517570119314
0.0368070798106372 0.236470685008778 -0.426675462806567 0.500289622427841
0.72880752512647 0.750606034005289 -0.742380301523897 2.19999535177684
-0.528070898729415 0.239321301065588 -0.997140648817968 -0.0590011486408611
1.23013657033349 0.591561948611034 0.0706751510558679 2.38959798961112
-0.339568835916708 0.216201227386931 -0.763323241595092 0.0841855697616758
-0.367662497853946 0.434748415069389 -1.21976939138995 0.484444395682056
0.234884662882613 0.438930174281384 -0.625418478708899 1.09518780447413
0.369195138326829 0.343288128081245 -0.303649592712411 1.04203986936607
1.26356340100577 0.547806245708741 0.189863159416641 2.33726364259491
1.53506794788853 1.14553429777569 -0.710179275751825 3.78031517152887
-0.433406737342463 0.28612165002794 -0.994205171397226 0.127391696712299
-0.637760357638824 0.44809332860734 -1.51602328170921 0.240502566431561
0.350467511278145 0.60752255355252 -0.840276693684794 1.54121171624108
-0.781570071440857 0.202930404244165 -1.17931366375942 -0.383826479122294
0.172224553812004 0.364866541097211 -0.54291386673853 0.887362974362538
0.311145416330195 0.455981255148812 -0.582577843761476 1.20486867642187
0.258232190810107 0.32591618614715 -0.380563534038308 0.897027915658522
-0.661677534145553 0.194569918327018 -1.04303457406651 -0.280320494224597
-0.854008529458457 0.221113775415989 -1.2873915292738 -0.420625529643117
-0.792733563979461 0.218788307767837 -1.22155864720442 -0.363908480754501
0.054553214081124 0.403053613611769 -0.735431868597943 0.844538296760191
0.523867038275303 0.877508728655082 -1.19605006988866 2.24378414643926
0.0516131835166671 0.578232547718551 -1.08172261001169 1.18494897704503
-0.0355583341797163 0.393277947144343 -0.806383110582628 0.735266442223195
-0.195565858942117 0.439651378130482 -1.05728256007786 0.666150842193628
0.247479016603989 0.468733965017013 -0.671239554829357 1.16619758803733
-0.629145846649262 0.271989423797359 -1.16224511729209 -0.0960465760064376
0.801878560100104 0.265833794204837 0.280844323458623 1.32291279674158
0.143390018891288 0.502415738219656 -0.841344828019238 1.12812486580181
-0.507157010201092 0.276189820091361 -1.04848905758016 0.034175037177976
-0.967253029135916 0.316999559953412 -1.5885721666446 -0.345933891627229
0.0696726757671702 0.650713403323408 -1.20572559474671 1.34507094628105
-0.097196623389781 0.401078901237825 -0.883311269815919 0.688918023036357
-0.40385319479056 0.288515885248465 -0.969344329877551 0.161637940296431
-0.146327170379972 0.238897589220136 -0.614566445251439 0.321912104491494
0.843439354339489 0.656099846695548 -0.442516345183785 2.12939505386276
-0.426915570857424 0.28287384549308 -0.98134830802386 0.127517166309012
0.317352210124882 0.388835915806069 -0.444766184855013 1.07947060510478
-0.290166051639332 0.451952556116574 -1.17599306162782 0.595660958349153
-0.253537497607481 0.238912147802344 -0.721805307300074 0.214730312085113
0.1404959233046 0.405566957679808 -0.654415313747824 0.935407160357025
-0.754553155917362 0.340807451897905 -1.42253576163725 -0.0865705501974685
-0.618548566202499 0.293728364313615 -1.19425616025718 -0.0428409721478142
0.0857078140093389 0.470486333633989 -0.83644539991328 1.00786102793196
-0.144518803595135 0.357731986838737 -0.84567349779906 0.55663589060879
0.396202600872839 0.492013620969374 -0.568144096227135 1.36054929797281
0.703506838487263 0.561120988858664 -0.396290299675719 1.80330397665025
0.332257106327821 0.576120662324904 -0.796939391828992 1.46145360448463
-0.292138776039676 0.320183892491368 -0.919699205322758 0.335421653243406
0.678897213986654 0.350650844166606 -0.00837844057989379 1.3661728685532
-0.358551156949742 0.342647821685688 -1.03014088745369 0.313038573554207
-0.659466329739579 0.303443955217665 -1.2542164819662 -0.0647161775129568
-0.0777744354852343 0.530805174143471 -1.11815257680644 0.96260370583597
-1.02605352368686 0.203843956689798 -1.42558767879886 -0.626519368574855
-0.570793374200277 0.283856847696334 -1.12715279568509 -0.0144339527154618
0.492199110216804 0.330769218005138 -0.156108557073266 1.14050677750687
0.258705803921868 0.369254454458697 -0.465032926817179 0.982444534660915
-0.585408151935392 0.269705884911939 -1.11403168636279 -0.0567846175079912
0.368010409383121 0.578727381593258 -0.766295258539665 1.50231607730591
-0.0197419845765027 0.414192151944365 -0.831558602387458 0.792074633234452
0.20486557774159 0.61516192193875 -1.00085178925836 1.41058294474154
-3.67674776400595e-05 0.438184860315563 -0.858879093696144 0.858805558740864
-0.169795192343453 0.287942705540059 -0.734162895201968 0.394572510515062
-0.18067610083648 0.358878315618485 -0.88407759944871 0.52272539777575
-0.813720070998139 0.329374173347301 -1.45929345075885 -0.168146691237428
-0.908543845387342 0.255932970619196 -1.41017246780097 -0.406915222973717
0.0701996578753721 0.330836655567708 -0.578240187037336 0.71863950278808
0.12061439562999 0.434272212400128 -0.730559140674261 0.971787931934241
-0.4970929126385 0.39883979980964 -1.2788189202654 0.284633094988395
0.353995625742303 0.770009294445982 -1.15522259137182 1.86321384285643
-0.581126482977901 0.275914252248713 -1.12191841738538 -0.040334548570424
0.527914927813573 0.61090564786235 -0.669460141996634 1.72528999762378
-0.179708007788624 0.378841989562394 -0.922238307330916 0.562822291753668
-0.56491276413991 0.207992056829547 -0.972577195525824 -0.157248332753997
-0.326358602862708 0.202610282388126 -0.723474756343435 0.0707575506180182
-0.484508705654188 0.267836073691962 -1.00946741009043 0.0404499987820567
-0.21900728406418 0.394396730420774 -0.992024875688897 0.554010307560538
-0.56806079472851 0.303919852938768 -1.1637437064885 0.0276221170314752
0.304234687638461 0.540721547411344 -0.755579545287773 1.3640489205647
0.114453434546282 0.394167646593668 -0.658115152777306 0.887022021869871
0.348789173570328 0.586551578936165 -0.800851921144556 1.49843026828521
1.71122303234434 1.0469947972607 -0.340886770286633 3.76333283497531
-0.196082202309624 0.30110375730744 -0.786245566632207 0.394081162012959
-0.40930071190241 0.270092300755481 -0.938681621383152 0.120080197578332
0.703366895940614 0.569519272085364 -0.4128908773467 1.81962466922793
0.156713493451564 0.441954840512776 -0.709517993953477 1.02294498085661
-0.161182744992587 0.330867093643418 -0.809682248533686 0.487316758548512
0.735890830210739 0.811435137970388 -0.854522040211222 2.3263037006327
0.652039493379394 0.820959716862891 -0.957041551671872 2.26112053843066
-0.0615585694546787 0.399803162742459 -0.845172768429899 0.722055629520541
-0.121016061769296 0.374091373411966 -0.85423515365675 0.612203030118157
0.887061040667797 0.431483747641703 0.0413528952900595 1.73276918604553
-0.302407909935732 0.352295462986703 -0.992907017389669 0.388091197518206
-0.702811987082353 0.215014282402148 -1.12423998059056 -0.281383993574143
0.680852116617621 0.739404960806658 -0.76838160656343 2.13008583979867
-0.547922554961309 0.339681359800305 -1.21369802016991 0.117852910247289
0.24199478144342 0.267797925089295 -0.282889151731599 0.766878714618439
0.386967027564454 0.53350641980003 -0.658705555243606 1.43263961037251
-0.704411344728525 0.303683127674792 -1.29963027497112 -0.109192414485933
0.015250254011803 0.660284015996218 -1.27890641734078 1.30940692536439
0.417508849512166 0.419774076026433 -0.405248339499643 1.24026603852398
0.159468417184982 0.349241361164612 -0.525044650697657 0.843981485067621
-0.0733761871208283 0.29446575875179 -0.650529074274336 0.50377670003268
-0.534266792381927 0.337582124431118 -1.19592775626692 0.127394171503064
0.769791482865293 0.92990503505265 -1.0528223858379 2.59240535156849
-0.220150342081303 0.266109697594751 -0.741725349367014 0.301424665204408
2.97797701462097 1.73078333794572 -0.414358327752651 6.37031235699458
0.669898222963612 0.748430342103893 -0.797025247560018 2.13682169348724
-0.434506359590034 0.219902089954795 -0.865514455901431 -0.00349826327863623
2.7617323921832 1.54604883367107 -0.268523321812097 5.7919881061785
-0.532520582849842 0.2327096581984 -0.988631512918706 -0.0764096527809776
-0.368413976022788 0.325620123045228 -1.00662941719143 0.269801465145859
-0.239118539450258 0.380478466505674 -0.98485633380138 0.506619254900863
-0.367120471771308 0.282192318762209 -0.920217416545237 0.185976473002621
-0.339458365619978 0.295173615449667 -0.917998651901326 0.23908192066137
-0.517650119838017 0.216739734647322 -0.942459999746768 -0.0928402399292659
-0.260275332676084 0.206868158781806 -0.665736923888424 0.145186258536256
-0.0635964114490435 0.475756126868767 -0.996078420111826 0.868885597213739
0.375889568358432 0.442108481993251 -0.49064305634834 1.2424221930652
0.335883886589766 0.496753195994588 -0.637752377559626 1.30952015073916
0.0536788829764349 0.515336856659633 -0.956381356076445 1.06373912202931
-0.280262255480572 0.4511835310583 -1.16458197635484 0.604057465393695
-0.331419383694 0.426569034693389 -1.16749469169304 0.504655924305042
-0.259905150404041 0.284156693789642 -0.81685227023174 0.297041969423658
-0.66556992115425 0.304632755892066 -1.2626501227027 -0.0684897196058011
1.03095196830602 0.717168151328979 -0.374697608298779 2.43660154491082
-0.723505833632322 0.389959487175988 -1.48782642849726 0.0408147612326148
1.25899625032582 0.847119228711714 -0.401357437949141 2.91934993860078
0.949546293102639 0.554859397163732 -0.137978125338275 2.03707071154355
0.0260281320954937 0.26719157743351 -0.497667359674186 0.549723623865173
-0.337344894238056 0.342292391189666 -1.0082379809698 0.333548192493689
0.63176268169183 0.773837154265964 -0.884958140669459 2.14848350405312
0.0757546223560398 0.657287354929641 -1.21252859330606 1.36403783801814
-0.305472260775743 0.375451081186544 -1.04135637990137 0.430411858349884
0.455561204060318 0.464285954781812 -0.454439267312035 1.36556167543267
-0.29225433735618 0.213116546858052 -0.709962769197962 0.125454094485602
0.194208031313161 0.401218166093995 -0.59217957423107 0.980595636857392
-0.171287987243851 0.274797049355879 -0.709890203981374 0.367314229493673
-0.380925426958145 0.312726227951838 -0.993868833743749 0.232017979827458
-0.203738083343237 0.367278262221794 -0.923603477297953 0.516127310611479
-0.543034371417901 0.212776430627918 -0.96007617544862 -0.125992567387181
-0.378484440025961 0.238228691277741 -0.845412674930333 0.0884437948784117
-0.320541901997735 0.291892696228728 -0.892651586606041 0.251567782610571
-0.606232964195687 0.251144645579984 -1.09847646953246 -0.113989458858919
-0.41158101222853 0.460107667512716 -1.31339204055345 0.490230016096394
-0.499130141851189 0.222176064359934 -0.934595227996659 -0.0636650557057192
0.231168951997532 0.550296842837843 -0.84741285996464 1.3097507639597
0.39024785520649 0.598406633654123 -0.782629146755591 1.56312485716857
-0.260583607195383 0.264226809263734 -0.778468153352301 0.257300938961535
0.261620206307227 0.55553284154558 -0.827224163122109 1.35046457573656
0.873009346827356 0.600360536493935 -0.303697304700757 2.04971599835547
3.91797242469975 2.35107957540483 -0.690143543093724 8.52608839249323
0.11109192332575 0.602205072752881 -1.0692300192699 1.2914138659214
0.0206056218593459 0.440848969937691 -0.843458359218529 0.884669602937221
0.895293166794654 0.603309092885656 -0.287192655261232 2.07777898885054
-0.129027333129328 0.462335423324361 -1.03520476284508 0.777150096586419
0.397069381868198 0.696099896631141 -0.967286415528838 1.76142517926524
-0.0156957760452321 0.263825830951697 -0.532794404710558 0.501402852620093
-0.0905665877519836 0.350680352643006 -0.777900078932275 0.596766903428308
-0.340505966640567 0.276066557270741 -0.88159641889122 0.200584485610085
1.97710364236637 0.807153638035148 0.395082511817476 3.55912477291526
-0.837392605755072 0.286703388301822 -1.39933124682664 -0.275453964683501
-0.0575847184328997 0.358444805752833 -0.760136537708453 0.644967100842654
-0.220966474403301 0.581418932581041 -1.36054758226214 0.91861463345554
-0.0269795524465871 0.41663251091573 -0.843579273841418 0.789620168948244
-0.230297049756314 0.225732989966182 -0.672733710090031 0.212139610577404
-0.324113266364141 0.261547071501426 -0.836745526506936 0.188518993778655
0.637915708279237 0.814158374830335 -0.957834706388219 2.23366612294669
0.344664782728453 0.419801278869214 -0.478145723855207 1.16747528931211
0.461837036229018 0.449328435792549 -0.418846697924379 1.34252077038241
-0.332701915764486 0.343510042461555 -1.00598159898913 0.340577767460161
0.28719111500782 0.47882507066976 -0.651306023504911 1.22568825352055
0.123908766236484 0.35444137762573 -0.570796333909946 0.818613866382915
-0.326020551287173 0.31142520994978 -0.936413962788742 0.284372860214397
-0.016915245785404 0.288059736554339 -0.581512329431908 0.5476818378611
-0.570593163871165 0.392262672216913 -1.33942800141631 0.198241673673985
-0.243209880935456 0.43302576829772 -1.09194038679899 0.605520624928075
0.120826693742975 0.302202459205818 -0.471490126300428 0.713143513786378
-0.0176233907979148 0.493069792484223 -0.984040184066991 0.948793402471162
0.0884378316280201 0.28044149666867 -0.461227501842574 0.638103165098614
-0.543801673081996 0.252534594082862 -1.03876947748441 -0.0488338686795862
-0.232461687833878 0.36122937977476 -0.940471272192408 0.475547896524651
1.59209529933122 1.31568968137141 -0.986656476156742 4.17084707481918
-1.00740819485574 0.236645882514137 -1.47123412458345 -0.543582265128034
0.277111891192881 0.522250422230842 -0.74649893637957 1.30072271876533
-0.22302381002655 0.219447112238803 -0.653140150014604 0.207092529961504
1.05610260433363 0.80048387578508 -0.512845792205125 2.62505100087239
-0.250189133675289 0.215382505257959 -0.672338843980889 0.17196057663031
-0.419892010794152 0.274782256482102 -0.958465233499072 0.118681211910768
-0.027926063415146 0.317857036705029 -0.650925855357003 0.595073728526711
0.701327078937307 0.39692552814193 -0.0766469562208761 1.47930111409549
0.302071327261451 0.408824302040737 -0.499224304738393 1.1033669592613
0.0415729325015166 0.464474945382427 -0.86879796044804 0.951943825451073
1.67331558072067 0.918115198953287 -0.126190209227774 3.47282137066911
0.693732845501485 0.718250162481308 -0.714037472961878 2.10150316396485
0.57886803978873 0.494560919795512 -0.390471363010473 1.54820744258793
-0.509685949723502 0.239367903813877 -0.978847041198701 -0.0405248582483033
-0.807324170550178 0.22451253261021 -1.24736873446619 -0.367279606634168
0.43944509849691 0.451642084742075 -0.445773387597556 1.32466358459138
-0.194221456043319 0.266487333581402 -0.716536629862866 0.328093717776229
0.186610451855682 0.366051610936031 -0.530850705578939 0.904071609290304
-0.944827749752576 0.276103540876067 -1.48599068986967 -0.403664809635485
-0.110824900603343 0.259254026264578 -0.618962792081916 0.39731299087523
-0.0365035200514363 0.355704285255581 -0.733683919152375 0.660676879049503
0.474291777049396 0.392464857266276 -0.294939343192504 1.2435228972913
0.475453578073391 0.365332374714988 -0.240597876367985 1.19150503251477
-0.730381259095531 0.213843644132202 -1.14951480159465 -0.311247716596414
-0.317072689456818 0.330266032620457 -0.964394113392914 0.330248734479279
-0.426052195904265 0.256793309517214 -0.929367082558004 0.0772626907494736
-0.196844671849032 0.398387958905727 -0.977685071304257 0.583995727606193
-0.0101732266591005 0.424337624895261 -0.841874971453812 0.821528518135611
0.0135915399017955 0.423555102016013 -0.816576460049591 0.843759539853182
0.470607409671381 0.39838782688537 -0.310232731023943 1.25144755036671
-0.760446403771734 0.238984299457769 -1.22885563070896 -0.292037176834506
-1.01955986120493 0.271158172741183 -1.55102987977765 -0.488089842632215
-0.240699975810899 0.301874606952633 -0.832374205438059 0.350974253816262
0.468741127902779 0.549521711105956 -0.608321425864894 1.54580368167045
-0.34116703330082 0.281266707902067 -0.892449780788872 0.210115714187233
2.91497883805069 1.50024169738055 -0.0254948888151931 5.85545256491658
-0.864544168544001 0.313992411661046 -1.47996929539965 -0.24911904168835
-0.732384390540571 0.289391217837074 -1.29959117750124 -0.165177603579905
0.513539185195651 0.429334232698505 -0.327955910893419 1.35503428128472
0.146888760306142 0.262397681684437 -0.367410695795355 0.661188216407638
0.504620764453099 0.532634985001467 -0.539343806149777 1.54858533505597
-0.240964252593471 0.295284231688409 -0.819721346702753 0.33779284151581
-0.129969585371613 0.401100439689134 -0.916126447162315 0.656187276419089
-0.101601901608837 0.415806779275067 -0.916583188987969 0.713379385770294
-0.372101573099877 0.209087541803712 -0.781913155035153 0.0377100088353989
0.102699713845477 0.27900353820992 -0.444147221045966 0.64954664873692
0.920701036200283 0.921228176997062 -0.884906190713959 2.72630826311452
-0.453880712652948 0.296894558496403 -1.0357940473059 0.128032622000002
-0.475947807380866 0.220444925542521 -0.908019861444208 -0.0438757533175243
-0.426186044520925 0.28900642198614 -0.992638631613759 0.140266542571909
-0.0232729634902012 0.303876724519539 -0.618871343548497 0.572325416568095
0.061321891530655 0.369841987441225 -0.663568403854145 0.786212186915455
-0.635946502810214 0.226439512530948 -1.07976794737087 -0.192125058249556
0.735376838947434 0.674811671542277 -0.587254037275429 2.0580077151703
-0.299517334025254 0.228111518491459 -0.746615910268514 0.147581242218005
-0.229094965824469 0.252744279838111 -0.724473754307167 0.26628382265823
0.572915822119348 0.965655990132716 -1.31976991854078 2.46560156277947
-0.375945712322667 0.263092029573457 -0.891606090286642 0.139714665641309
-0.7824674788559 0.225185084914579 -1.22383024528847 -0.341104712423325
-0.0393722384724997 0.646980204618657 -1.30745343952507 1.22870896258007
-0.930583092096316 0.349494642906314 -1.61559259219269 -0.245573591999942
-0.499756132884565 0.286135412048567 -1.06058154049976 0.0610692747306256
0.883496477961583 0.867335518671509 -0.816481138634574 2.58347409455774
-0.434245203901609 0.259619496226827 -0.943099416506191 0.0746090087029722
-0.486895833947796 0.207746904562139 -0.894079766889587 -0.0797119010060044
-1.04528936029066 0.19217637252863 -1.42195505044677 -0.668623670134542
-0.625817957561956 0.275064655056043 -1.1649446814718 -0.086691233652112
-0.0303611625921583 0.38491483274923 -0.784794234780648 0.724071909596332
1.39296512286553 0.719223754712622 -0.016713436371214 2.80264368210226
-0.0428144477735271 0.305524640558827 -0.641642743268829 0.556013847721774
-0.0476127792589665 0.273022056912444 -0.582736010807356 0.487510452289423
-0.536487339853936 0.248951181090776 -1.02443165479186 -0.0485430249160148
-0.518616133440617 0.280226400540731 -1.06785987850045 0.0306276116192161
0.0706947207679881 0.40074930983639 -0.714773926511337 0.856163368047313
0.509698526630558 0.540850415178786 -0.550368287119863 1.56976534038098
0.00310768699904185 0.485289691705583 -0.9480601087439 0.954275482741984
1.16198785326978 1.01624242855141 -0.829847306690998 3.15382301323055
0.286185755315801 0.764844813162619 -1.21291007848293 1.78528158911454
-0.83985200524439 0.222754254961661 -1.27645034496924 -0.403253665519535
0.267566565400625 0.472022662733139 -0.657597853556328 1.19273098435758
0.596498908701815 0.451293854873387 -0.288037046850023 1.48103486425365
-0.373546331835506 0.323607047717729 -1.00781614536226 0.260723481691243
-0.115467470521038 0.255843332916036 -0.616920403036469 0.385985461994393
0.0880611398502325 0.437436087517998 -0.769313591685043 0.945435871385508
-0.782649291056504 0.25936914729272 -1.29101281975024 -0.274285762362772
0.371075988523103 0.481810461203169 -0.573272515435108 1.31542449248131
2.95408707535135 1.97657238020821 -0.919994789856735 6.82816894055943
-0.119812226297912 0.298528544912722 -0.704928174326847 0.465303721731023
1.08019361309802 0.688834173860756 -0.269921367669057 2.43030859386511
-0.623227752622956 0.361906842828865 -1.33256516456753 0.0861096593216202
-0.21592082571965 0.286552388913946 -0.777563507990985 0.345721856551685
0.00309402933109765 0.65195491399955 -1.27473760210802 1.28092566077022
-0.344505430759575 0.32550793953683 -0.982500992251761 0.293490130732611
0.446647398857583 0.66131704618406 -0.849534011663174 1.74282880937834
-0.193445242463209 0.289254556241137 -0.760384172695837 0.373493687769418
-0.293699970679492 0.41355694008145 -1.10427157323913 0.516871631880151
-0.619286098980509 0.274757330162572 -1.15781046609915 -0.0807617318618679
0.487687725617091 0.3920134083205 -0.28065855469109 1.25603400592527
-0.519626374689838 0.355286901995191 -1.21598870260041 0.176735953220737
0.92599147280047 0.602641274503985 -0.255185425227341 2.10716837082828
-0.250280149602867 0.240480102129305 -0.721621149776305 0.221060850570572
-0.46056921882558 0.226670464649894 -0.904843329539371 -0.0162951081117888
-0.610112316762498 0.235514220526863 -1.07172018899515 -0.148504444529846
1.56839799428237 1.09303975385142 -0.573959923266425 3.71075591183116
-0.059255596749947 0.391166292871737 -0.825941530778551 0.707430337278657
0.34978529216288 0.620476184204814 -0.866348028878556 1.56591861320432
0.783290882568427 0.943356155604181 -1.06568718241577 2.63226894755262
-0.29173954821898 0.223124844770586 -0.729064243969329 0.145585147531368
-0.940538063398121 0.22620774025849 -1.38390523430476 -0.49717089249148
0.108024236666222 0.361008519678376 -0.599552461903394 0.815600935235838
0.293808626332276 0.537632952525545 -0.759951960617792 1.34756921328234
-0.818859492118604 0.214657736466908 -1.23958865559374 -0.398130328643465
-0.223622874239084 0.272476052461436 -0.757675937063499 0.310430188585332
0.011055241781718 0.371898037114476 -0.717864910962655 0.739975394526091
0.944342974476232 0.834954224954999 -0.692167306435566 2.58085325538803
-0.334541390270261 0.274877124463297 -0.873300554218324 0.204217773677801
-0.0271369237627345 0.482715389771835 -0.973259087715531 0.918985240190062
-0.376994241060781 0.295681070748345 -0.956529139727536 0.202540657605975
0.378802920008102 0.590167344410233 -0.777925075035954 1.53553091505216
-0.333386471967766 0.522375482687572 -1.35724241803541 0.690469474099874
0.167409008605027 0.460696521916191 -0.735556174350708 1.07037419156076
0.425002783084051 0.554661599457923 -0.662133951853478 1.51213951802158
-0.102464063718148 0.303151508851673 -0.696641021067427 0.491712893631131
-0.0660512575416575 0.389132731512353 -0.828751411305869 0.696648896222554
0.0531517045190624 0.365969454592425 -0.66414842648209 0.770451835520214
0.112377351323338 0.344856287917826 -0.563540972995601 0.788295675642276
-0.13664852261994 0.324912396723802 -0.773476820198591 0.500179774958711
-0.0251247352649001 0.21163700726282 -0.439933269500028 0.389683798970227
-0.0977880381048069 0.34596822769854 -0.775885764393946 0.580309688184332
0.940721558068678 0.520544252047342 -0.0795451759441118 1.96098829208147
-0.247143361360432 0.398716751161368 -1.02862819363671 0.534341470915849
0.204572993609111 0.320376153668699 -0.423364267581539 0.832510254799762
-0.636547206016527 0.245511075089163 -1.11774891319129 -0.155345498841768
-0.251836963219573 0.386230841871612 -1.00884941328793 0.505175486848787
-0.350907894601586 0.266627182599758 -0.873497172497112 0.17168138329394
0.675776236904661 0.841180285110783 -0.972937121912473 2.3244895957218
0.946817774522923 0.414857644660378 0.133696790988582 1.75993875805726
-0.119877435459024 0.452493322287227 -1.00676434714199 0.767009476223941
-0.317673916941218 0.323228618204943 -0.951202008622907 0.315854174740471
-0.436099843796467 0.276503195468791 -0.978046106915298 0.105846419322364
0.289810101193413 0.281039781516214 -0.261027870578366 0.840648072965192
0.363010001913666 0.69755523240599 -1.00419825360207 1.73021825742941
-0.217682774530773 0.301146496445608 -0.807929907564165 0.37256435850262
0.233379010172228 0.37434335281492 -0.500333961345016 0.967091981689471
0.417524200620033 0.339250346659415 -0.247406478832421 1.08245488007249
-0.169944856789529 0.357735794664925 -0.871107014332781 0.531217300753724
-0.481148960043547 0.513027163641797 -1.48668220078147 0.524384280694375
0.304165116934675 0.683467202717174 -1.03543060039099 1.64376083426034
-0.346103703431015 0.237340875413567 -0.811291819241607 0.119084412379578
1.35293313488124 1.30520507832086 -1.20526881862765 3.91113508839013
-0.317234800390383 0.43940337928314 -1.17846542378534 0.543995823004571
3.14011647034075 1.93935605492612 -0.66102139731444 6.94125433799593
0.0276860686123034 0.275362802447205 -0.512025024184218 0.567397161408825
-0.68842181328402 0.342492778423422 -1.35970765899393 -0.0171359675741125
0.451644731519273 0.522924576498542 -0.57328743841787 1.47657690145642
-0.147256513461473 0.341644143569215 -0.816879034857135 0.522366007934188
0.265242946542768 0.470277144673162 -0.656500257016629 1.18698615010217
3.01743034001659 1.2254901646346 0.615469617332783 5.4193910627004
2.02110363468629 1.78198787801459 -1.4715926062223 5.51379987559488
-0.166895943327784 0.245517251267419 -0.648109755811925 0.314317869156357
-0.209618841603119 0.288818382564532 -0.775702871429601 0.356465188223363
-0.713956621977836 0.234216865538387 -1.17302167843308 -0.254891565522597
-0.564609429433378 0.212021950422481 -0.98017245226144 -0.149046406605316
-0.0323880003282007 0.327048877808954 -0.67340380083375 0.608627800177349
-0.685908208639357 0.239696747764034 -1.15571383425686 -0.216102583021851
2.96445584134673 1.74196207250227 -0.449789820757724 6.37870150345119
-0.23532689560543 0.211658797844974 -0.650178139381578 0.179524348170719
0.283414176352784 0.310134736723175 -0.324449907624638 0.891278260330206
-0.433688645282235 0.526593059830532 -1.46581104255008 0.598433751985608
0.0106960399116545 0.437291643663829 -0.846395581669451 0.867787661492759
-0.0733146818310814 0.394597870958365 -0.846726508909477 0.700097145247315
0.0628509371108723 0.4627711759952 -0.844180567839719 0.969882442061464
-0.288880804446137 0.205172698534497 -0.69101929357375 0.113257684681477
-0.177977077035818 0.309571692372541 -0.784737594085998 0.428783440014361
-1.24274097695189 0.263466206852124 -1.75913474238205 -0.726347211521729
-0.644823089387368 0.202635776345643 -1.04198921102483 -0.247656967749909
-0.305244893819601 0.408432238666952 -1.10577208160683 0.495282293967624
3.20794957846718 1.53372806282294 0.201842575334213 6.21405658160014
-0.602670208059317 0.301510533425578 -1.19363085357345 -0.011709562545184
-0.0915603752657494 0.343982597032718 -0.765766265449876 0.582645514918377
0.0639158916337325 0.389586779770166 -0.699674196715793 0.827505979983258
-0.662458223072902 0.207587884352525 -1.06933047640385 -0.255585969741953
-0.170792198988662 0.314648637817451 -0.787503529110867 0.445919131133543
1.09471701572278 0.646794049514457 -0.172999321325558 2.36243335277111
0.228845853805939 0.307745750973904 -0.374335818102914 0.832027525714791
0.0677182127958167 0.568912855390298 -1.04735098376917 1.1827874093608
0.136914214328928 0.552927166972193 -0.94682303293657 1.22065146159443
-0.598023919798993 0.285115251121699 -1.15684981199752 -0.0391980276004631
-0.304856239138663 0.236452020497409 -0.768302199313584 0.158589721036258
0.482901223627541 0.45420547609535 -0.407341509519344 1.37314395677443
-0.79803362809252 0.232551030349613 -1.25383364757776 -0.342233608607278
-0.199736290306297 0.379705488733082 -0.943959048223138 0.544486467610545
-0.363314110348263 0.25649629714672 -0.866046852755835 0.139418632059309
-0.293459353238427 0.242681595272967 -0.769115279973443 0.18219657349659
-0.402054802550964 0.252918655030103 -0.897775366409966 0.0936657613080382
-0.0866364269581156 0.575917044574955 -1.21543383432503 1.0421609804088
-0.356520559214445 0.407930737246543 -1.15606480421767 0.443023685788779
0.130212796918093 0.607507126011589 -1.06050117006462 1.32092676390081
0.482492594525705 0.620679953204769 -0.734040113755642 1.69902530280705
0.0566619268212366 0.276516286877875 -0.485309995459398 0.598633849101872
-0.0169973433243154 0.370410260540749 -0.743001453984183 0.709006767335553
-0.215984949613161 0.398038085914019 -0.996139598004638 0.564169698778317
0.562187907614947 0.526714379834379 -0.470172276860436 1.59454809209033
1.52729932984099 1.15476067569046 -0.736031594512304 3.79063025419429
-0.302103879974465 0.243622301834462 -0.779603591570009 0.17539583162108
-0.633362219954355 0.351007364032253 -1.32133665345757 0.05461221354886
0.436379217662988 0.48655698545857 -0.517272473835809 1.39003090916178
0.137578460610907 0.417572486423889 -0.680863612779915 0.956020534001728
1.33862244541069 0.683101301881043 -0.000256106276153245 2.67750099709754
0.0392746379495784 0.664890016074895 -1.26390979355722 1.34245906945637
0.210564540520423 0.457860673435915 -0.68684237941397 1.10797146045482
0.0327528594924082 0.516816753498041 -0.980207977363752 1.04571369634857
0.241193739347634 0.485409896121921 -0.710209657051331 1.1925971357466
1.13670343004611 0.951022670071771 -0.727301003294561 3.00070786338678
-0.139504496887134 0.308486216849728 -0.744137481912601 0.465128488138333
-0.560258201484526 0.24022855110586 -1.03110616165201 -0.0894102413170393
-0.364397810431635 0.275348018320576 -0.904079926339964 0.175284305476693
0.317030216370264 0.385760739801002 -0.4390608336397 1.07312126638023
1.12609892935737 0.825371914340494 -0.491630022750004 2.74382788146473
-0.244660193050518 0.435992124100953 -1.09920475628839 0.60988437018735
0.325076660897993 0.518904973403979 -0.691977086973806 1.34213040876979
-0.315538191854334 0.346034364221743 -0.993765545728951 0.362689162020282
0.341214231341542 0.481883574961764 -0.603277575583514 1.2857060382666
-0.119058965701794 0.323551828959741 -0.753220550462886 0.515102619059298
0.0936672660828954 0.301549278886386 -0.497369320534421 0.684703852700212
-0.23801415091917 0.359596953502529 -0.942824179784127 0.466795877945788
0.570070576466247 0.564917346634412 -0.537167422937201 1.67730857586969
-0.0349167224251218 0.333546721713315 -0.68866829698322 0.618834852132977
-0.738737482138612 0.225922245892826 -1.18154508408855 -0.295929880188673
0.134882696976979 0.234795513057539 -0.325316508615798 0.595081902569756
-0.450512309265861 0.232057980760694 -0.905345951556821 0.00432133302509857
-0.0615266780469113 0.470092121947351 -0.982907237063719 0.859853880969896
-0.600926755752957 0.244749377083579 -1.08063553483677 -0.121217976669143
0.261051157935644 0.307668247114528 -0.341978606408831 0.864080922280119
2.30330143164202 1.73005199733789 -1.08760048314024 5.69420334642428
-0.440009882934659 0.233686523698091 -0.898035469382918 0.0180157035136004
-0.128235078293959 0.368417525455919 -0.85033342818756 0.593863271599641
-1.04805105826762 0.21914998677975 -1.47758503235593 -0.618517084179306
1.36959455542714 0.661092954454391 0.0738523646965381 2.66533674615775
0.0346907121513859 0.318843230336946 -0.590242019309027 0.659623443611799
-0.711109825691395 0.266268960104466 -1.23299698749615 -0.189222663886641
0.442710689011765 0.883335152039779 -1.2886262089862 2.17404758700973
0.00682553645743034 0.289540438394165 -0.560673722795133 0.574324795709994
0.0644640168050735 0.328217629118645 -0.57884253626747 0.707770569877617
-0.306714831865162 0.221488906071174 -0.740833087764664 0.127403424034339
-0.335890134029734 0.347326997773587 -1.01665104966597 0.344870781606497
0.552172880209282 1.14223503255703 -1.6866077836025 2.79095354402106
0.741532219722884 0.462474282925488 -0.164917374811071 1.64798181425684
-0.415704435930999 0.205187777363394 -0.817872479563251 -0.0135363922987465
0.531054764526123 0.71183000207733 -0.864132039545443 1.92624156859769
-0.403440973971403 0.345521001390325 -1.08066213669644 0.273780188753634
-0.388669096445375 0.362727856834224 -1.09961569584045 0.322277502949704
-0.11256600380341 0.273208025261129 -0.648053733315224 0.422921725708404
