estimate0.01 std0.01 lowerCI0.01 upperCI0.01 estimate0.02 std0.02 lowerCI0.02 upperCI0.02 estimate0.03 std0.03 lowerCI0.03 upperCI0.03 estimate0.04 std0.04 lowerCI0.04 upperCI0.04 estimate0.05 std0.05 lowerCI0.05 upperCI0.05 estimate0.06 std0.06 lowerCI0.06 upperCI0.06 estimate0.07 std0.07 lowerCI0.07 upperCI0.07 estimate0.08 std0.08 lowerCI0.08 upperCI0.08 estimate0.09 std0.09 lowerCI0.09 upperCI0.09 estimate0.1 std0.1 lowerCI0.1 upperCI0.1
0.304345654455787 0.348962580858367 -0.379621004026612 0.988312312938186 -0.0126188570159562 0.296550450463899 -0.593857739925199 0.568620025893286 0.276389789961076 0.257879414913515 -0.229053863269413 0.781833443191564 0.391810661898722 0.227140993955332 -0.0533856862537281 0.837007010051173 0.492885261004158 0.218486099651069 0.0646525056880624 0.921118016320254 0.461201756484131 0.227016647092545 0.016249128182742 0.90615438478552 0.418659647133153 0.242871789486477 -0.0573690602603423 0.894688354526648 0.429483124354257 0.244250919656576 -0.0492486781726316 0.908214926881145 0.329986820421071 0.245764139705833 -0.151710893402362 0.811684534244504 0.292130556930779 0.239614006216584 -0.177512895253726 0.761774009115285
0.150175037529711 0.427065747012449 -0.686873826614689 0.987223901674111 -0.126866013688072 0.29924286432013 -0.713382027755527 0.459650000379383 0.0688184000223198 0.262777358464693 -0.446225222568479 0.583862022613118 0.0872324567185336 0.261310737463707 -0.424936588710332 0.599401502147399 0.253546614260739 0.261532416675821 -0.259056922423871 0.766150150945349 0.259503963404535 0.261689880986667 -0.253408203329332 0.772416130138401 0.24743426252279 0.266077245289562 -0.274077138244751 0.768945663290331 0.270191314068307 0.275743330009255 -0.270265612749832 0.810648240886446 0.27111082390529 0.27518883748792 -0.268259297571033 0.810480945381613 0.317232255339599 0.274438574955541 -0.220667351573262 0.85513186225246
0.192766384414063 0.363674508101641 -0.520035651465153 0.905568420293278 0.521920887517655 0.351937399169938 -0.167876414855423 1.21171818989073 0.818516985776182 0.37532766958551 0.0828747533885817 1.55415921816378 0.324676990482577 0.356705189655756 -0.374465181242705 1.02381916220786 0.483124789858025 0.311162657042426 -0.126754017945129 1.09300359766118 0.241942281501087 0.285286994508709 -0.317220227735981 0.801104790738156 0.354433328021741 0.25303862830157 -0.141522383449336 0.850389039492818 0.469112834072506 0.2451770908063 -0.0114342639078413 0.949659932052853 0.362723573606433 0.228496796723195 -0.0851301479710288 0.810577295183895 0.360875971907145 0.233582784470035 -0.0969462856541229 0.818698229468413
-0.20362442979064 0.348131751782451 -0.885962663284244 0.478713803702964 0.0148480001441178 0.341703875605911 -0.654891596043467 0.684587596331703 -0.379181570848668 0.326146392293163 -1.01842849974327 0.260065358045932 -0.448461230480206 0.286653470504708 -1.01030203266943 0.113379571709022 -0.326931404650456 0.233237444339046 -0.784076795554987 0.130213986254074 -0.211546402670581 0.221312691230072 -0.645319277481523 0.22222647214036 -0.24418340428815 0.20686475062873 -0.649638315520461 0.16127150694416 -0.191600434043959 0.204191101620828 -0.591814993220782 0.208614125132865 -0.107519816178593 0.208697342208656 -0.516566606907558 0.301526974550373 -0.118175573209014 0.210987711736432 -0.531711488212421 0.295360341794392
-0.180691495091428 0.293737707489003 -0.756417401769875 0.395034411587019 0.188135713527544 0.271892085082791 -0.344772773234727 0.721044200289814 0.0610914980947188 0.268806053698909 -0.465768367155144 0.587951363344581 0.231176790055868 0.270691407315806 -0.299378368283112 0.761731948394847 0.288945762861697 0.266895071250413 -0.234168576789114 0.812060102512507 0.160217339663249 0.278012030206757 -0.384686239541995 0.705120918868492 0.0782590621800174 0.283218473629395 -0.476849146133598 0.633367270493632 0.17791287021858 0.284801991645385 -0.380299033406375 0.736124773843535 0.271378663589241 0.291749278472466 -0.300449922216792 0.843207249395275 0.373387916593102 0.292048328111927 -0.199026806506274 0.945802639692478
0.145542695103279 0.448716489122172 -0.733941623576178 1.02502701378274 -0.152194354594791 0.398227758804856 -0.932720761852309 0.628332052662727 0.144006962619279 0.323410798661453 -0.489878202757169 0.777892127995727 -0.00926812089579876 0.313480011056401 -0.623688942566345 0.605152700774748 0.143231255527486 0.303580251992631 -0.45178603837807 0.738248549433042 -0.0985791291992588 0.284173313932924 -0.65555882450779 0.458400566109272 -0.0150810481733026 0.257787177584798 -0.520343916239506 0.490181819892901 0.076622487648383 0.250083721245651 -0.413541605993093 0.566786581289859 0.112361174441436 0.242140516479115 -0.362234237857629 0.5869565867405 0.084530496314561 0.243602740319828 -0.392930874712303 0.561991867341425
0.843712082124542 0.503649984389764 -0.143441887279397 1.83086605152848 0.285396716157519 0.328992240261954 -0.359428074755911 0.930221507070949 0.26514840875958 0.312292175794614 -0.346944255797864 0.877241073317025 0.375437823846207 0.30046253310357 -0.21346874103679 0.964344388729204 0.17891568693967 0.313004308898147 -0.434572758500697 0.792404132380038 0.358540079834419 0.298451065979957 -0.226424009486296 0.943504169155134 0.0408580185538933 0.295167939964365 -0.537671143776262 0.619387180884048 0.139815880966686 0.289239352129423 -0.427093249206983 0.706725011140354 0.102724069053327 0.276708319074407 -0.439624236332511 0.645072374439166 0.0481687941795693 0.270668744931869 -0.482341945886894 0.578679534246032
-0.281974461291662 0.215877525830912 -0.705094411920249 0.141145489336925 -0.0341056148121308 0.221159178303025 -0.467577604286059 0.399366374661797 0.213536713827496 0.222899680764339 -0.223346660470609 0.6504200881256 0.335070625135223 0.231104220107237 -0.117893646274962 0.788034896545408 0.389593819685938 0.232501177643173 -0.0661084884946811 0.845296127866557 0.210591582071044 0.251758270838025 -0.282854628771485 0.704037792913573 0.163558342163743 0.250999220350824 -0.328400129723872 0.655516814051358 0.271524940310527 0.24618764426337 -0.211002842445679 0.754052723066733 0.330657383876224 0.24388068815371 -0.147348764905048 0.808663532657496 0.436448285536184 0.245767961724449 -0.0452569194437353 0.918153490516103
0.00461884195148721 0.28924939183324 -0.562309966041663 0.571547649944638 0.31396116627243 0.279286773321391 -0.233440909437497 0.861363241982357 0.344996231260309 0.281720336435771 -0.207175628153803 0.89716809067442 0.273238225066841 0.274548050021768 -0.264875952975824 0.811352403109506 0.354789499625601 0.27100567452235 -0.176381622438204 0.885960621689406 0.486369061823135 0.266844907358836 -0.0366469566001835 1.00938508024645 0.0169502827390848 0.24608320529125 -0.465372799631764 0.499273365109934 0.071951921963942 0.232416167059329 -0.383583765472342 0.527487609400226 0.182581281725219 0.22637316677394 -0.261110125151703 0.626272688602142 0.316307425113822 0.221974754198746 -0.11876309311572 0.751377943343363
-0.109218857658515 0.268596522568808 -0.63566804189338 0.417230326576349 0.171274489906101 0.265139460901777 -0.348398853461383 0.690947833273584 0.0996752747867767 0.258611556758135 -0.407203376459167 0.606553926032721 0.280359618469016 0.25081842698461 -0.211244498420819 0.771963735358851 0.237614373133329 0.247610637790957 -0.247702476936947 0.722931223203605 0.396912925977985 0.248689409956778 -0.0905183175372989 0.884344169493269 0.566650898767413 0.250479838901906 0.0757104145196773 1.05759138301515 0.451146508590274 0.265582312185686 -0.0693948232936713 0.971687840474219 0.43131231895078 0.26849169376641 -0.0949314008313843 0.957556038732944 0.380794284797412 0.261407749023795 -0.131564903289226 0.89315347288405
0.663434348394105 0.410634042381713 -0.141408374674052 1.46827707146226 0.954977058397092 0.382995712065258 0.204305462749187 1.705648654045 1.18740520205951 0.378446480869788 0.445650099554724 1.92916030456429 1.16419318525839 0.382885511382471 0.413737582948748 1.91464878756803 0.66912338163302 0.349918356435498 -0.0167165969805552 1.3549633602466 0.764086937942324 0.330139265929162 0.117013976721166 1.41115989916348 0.657677893848789 0.322661442725615 0.0252614661065833 1.290094321591 0.662691724439548 0.300289553918314 0.0741241987596535 1.25125925011944 0.304414615329245 0.299714527123511 -0.283025857832837 0.891855088491327 0.341114163670494 0.279634272686957 -0.206969010795943 0.88919733813693
0.389440150828427 0.331529311849853 -0.260357300397284 1.03923760205414 0.662769453108494 0.294443020482549 0.0856611329626975 1.23987777325429 0.83490749649927 0.270582875236653 0.30456506103543 1.36524993196311 0.694894409336932 0.25854064102403 0.188154752929832 1.20163406574403 0.686086711237095 0.24924206417381 0.197572265456427 1.17460115701776 0.677528707626041 0.276266811989305 0.136045756127003 1.21901165912508 0.65580343111718 0.261598082047111 0.143071190304843 1.16853567192952 0.626855585391923 0.257402093097508 0.122347482920807 1.13136368786304 0.578319864770213 0.258905352257695 0.07086537434513 1.0857743551953 0.564549073784552 0.253286706806534 0.068107128443745 1.06099101912536
-0.235517630822745 0.408960848773854 -1.0370808944195 0.566045632774009 0.0113853829790401 0.381130234150612 -0.73562987595616 0.758400641914241 0.206859422806013 0.342165041233095 -0.463784058010852 0.877502903622878 0.092720276454179 0.296934240665285 -0.489270835249779 0.674711388158137 -0.0686643728576966 0.262997261369552 -0.584139005142019 0.446810259426626 -0.166640808116106 0.26713223176204 -0.690219982369705 0.356938366137493 -0.0272218447019253 0.273987804397061 -0.564237941320165 0.509794251916314 0.0973031461261702 0.266190381110624 -0.424430000850653 0.619036293102994 0.205660246825563 0.26250513144755 -0.308849810811636 0.720170304462761 0.226308630798303 0.262043233241865 -0.287296106355752 0.739913367952358
0.132682987695273 0.539529574553961 -0.924794978430492 1.19016095382104 -0.14125872363584 0.451098080704588 -1.02541096181683 0.742893514545152 0.0967712640223103 0.423318257567611 -0.732932520810207 0.926475048854828 0.263353481786018 0.410286393072384 -0.540807848635854 1.06751481220789 -0.0350016998969986 0.355613131273065 -0.732003437192207 0.662000037398209 -0.167619281475287 0.340065604427735 -0.834147866153648 0.498909303203073 -0.203937036301177 0.321985153285027 -0.83502793673983 0.427153864137477 -0.0899840705973048 0.304948846309578 -0.687683809364079 0.507715668169469 -0.0132565250719986 0.301728701066773 -0.604644779162873 0.578131729018876 -0.206765904552803 0.279714564954023 -0.755006451862688 0.341474642757081
0.504953068803841 0.450255558776719 -0.377547826398529 1.38745396400621 -0.0562830700098875 0.306065054008501 -0.656170575866549 0.543604435846774 0.233089667327604 0.301467836304279 -0.357787291828784 0.823966626483991 0.456679636790627 0.290864600303899 -0.113414979805015 1.02677425338627 0.343705875024971 0.294372998172907 -0.233265201393928 0.920676951443869 0.084113188753785 0.28308859860531 -0.470740464512623 0.638966842020193 0.112299176508361 0.26560054105804 -0.408277883965398 0.63287623698212 0.132947726042205 0.237593560609782 -0.332735652752967 0.598631104837378 0.0373117523947262 0.231466811334005 -0.416363197819924 0.490986702609376 -0.0691606966696668 0.228523318661614 -0.517066401246431 0.378745007907097
1.09917479538868 0.468321544579727 0.181264568012413 2.01708502276494 1.47361362019166 0.449349070021139 0.592889442950224 2.35433779743309 1.25394722976162 0.47233318591107 0.328174185375925 2.17972027414732 1.0802096767561 0.460254116380713 0.178111608649899 1.98230774486229 0.607823701613384 0.392749839302803 -0.161965983420111 1.37761338664688 0.755164339850746 0.35180783659516 0.0656209801242328 1.44470769957726 0.434578583679708 0.318146966307577 -0.188989470283142 1.05814663764256 0.445266538069424 0.334323829412437 -0.210008167578952 1.1005412437178 0.38663324562846 0.325550005807698 -0.251444765754628 1.02471125701155 0.460173978823251 0.316167002259039 -0.159513345604466 1.07986130325097
1.29075201492393 0.620823365093659 0.0739382193403619 2.50756581050751 0.565198351950206 0.505359128207774 -0.425305539337031 1.55570224323744 0.179871767977477 0.413234551255032 -0.630067952482386 0.98981148843734 0.30799275781816 0.350494206935007 -0.378975887774454 0.994961403410775 0.434095870028794 0.308471077869567 -0.170507442595558 1.03869918265315 -0.0403008087658232 0.288259073510874 -0.605288592847137 0.52468697531549 0.0512705937150005 0.276703884354438 -0.491069019619698 0.593610207049699 0.127623643900859 0.272082180112583 -0.405657429119804 0.660904716921523 0.164584519840313 0.266558911131362 -0.357870945977156 0.687039985657781 0.251074347618232 0.26730696223104 -0.272847298354606 0.774995993591069
0.0223299614466208 0.462771998367212 -0.884703155353114 0.929363078246356 0.321837180571543 0.381983524272545 -0.426850527002646 1.07052488814573 0.559880436797255 0.349229125680372 -0.124608649536274 1.24436952313078 0.687160235474326 0.328262332560092 0.0437660636565453 1.33055440729211 0.846954244521418 0.308444940186679 0.242402161755527 1.45150632728731 0.474410782448968 0.293625989282854 -0.101096156545426 1.04991772144336 0.288641761223687 0.286476245180272 -0.272851679329645 0.850135201777019 0.392249302895539 0.270714284949481 -0.138350695605444 0.922849301396522 0.337765219596615 0.265730408914556 -0.183066381875915 0.858596821069144 0.375438154660308 0.255938698233693 -0.12620169387773 0.877078003198347
-0.348075845231355 0.229824208213299 -0.79853129332942 0.102379602866711 -0.0350403814200515 0.225697946379455 -0.477408356323784 0.407327593483681 0.211019639841205 0.226553919829111 -0.233026043023853 0.655065322706263 0.451132379062238 0.227472556396901 0.00528616852431302 0.896978589600164 0.543013648754501 0.253231028934184 0.0466808320434998 1.0393464654655 0.643170636224681 0.248783263001895 0.155555440740967 1.13078583170839 0.684009113069129 0.253250785675449 0.187637573145248 1.18038065299301 0.67680740556735 0.251243313172295 0.184370511749652 1.16924429938505 0.677464340138485 0.256596046520491 0.174536088958322 1.18039259131865 0.700676465236694 0.261147827822935 0.188826722703742 1.21252620776965
-0.34887812705854 0.321722183824078 -0.979453607353733 0.281697353236653 0.105428749023185 0.312114135222587 -0.506314956013086 0.717172454059455 0.372644997416473 0.267497866351688 -0.151650820632835 0.896940815465781 0.527950109860123 0.256881436692877 0.0244624939420853 1.03143772577816 0.621276926283494 0.251065475504692 0.129188594294298 1.11336525827269 0.383120545823021 0.24947044079596 -0.10584151813706 0.872082609783102 0.349498981620554 0.257956746030558 -0.156096240599339 0.855094203840447 0.457329235420579 0.249713232523609 -0.0321087003256956 0.946767171166853 0.294971739888236 0.229800425146509 -0.155437093398921 0.745380573175394 0.361537859748398 0.222781187675048 -0.0751132680946958 0.798188987591491
-0.675152213847966 0.629711961436928 -1.90938765826434 0.559083230568413 -0.395854105827494 0.342930020660145 -1.06799694632138 0.276288734666391 -0.20020742772408 0.320291058518733 -0.827977902420798 0.427563046972637 0.0123821381253011 0.306846650684149 -0.58903729721563 0.613801573466232 0.053730143812816 0.282096802882077 -0.499179589836056 0.606639877461688 0.071723483158217 0.268146736185882 -0.453844119766113 0.597291086082547 0.180030349728556 0.255177571934517 -0.320117691263097 0.680178390720209 0.228723652426292 0.255939016404759 -0.272916819727037 0.73036412457962 0.0940577196379586 0.247170368807008 -0.390396203223778 0.578511642499695 0.167155267635131 0.245767516252074 -0.314549064218934 0.648859599489195
-0.294940075763782 0.374454935681774 -1.02887174970006 0.438991598172496 0.0371946457959211 0.31567743354866 -0.581533123959452 0.655922415551294 0.252368200600701 0.310031530379985 -0.35529359894407 0.860030000145471 0.360200630812568 0.304337772550451 -0.236301403386315 0.956702665011452 0.557500549241338 0.29754936616492 -0.0256962084419043 1.14069730692458 0.600002594369178 0.280091573630936 0.0510231100525447 1.14898207868581 0.790816566025898 0.278836758873666 0.244296518633512 1.33733661341828 0.57715018088662 0.28525266788866 0.018054951824846 1.13624540994839 0.524585312434794 0.280384990589632 -0.0249692691208848 1.07413989399047 0.404613749895152 0.28238445496239 -0.148859781831133 0.958087281621437
-0.0220801657092267 0.245070469068694 -0.502418285083868 0.458257953665414 0.24877560647159 0.222826128725705 -0.187963605830792 0.685514818773973 0.230020093940085 0.23103289787465 -0.222804385894229 0.6828445737744 0.423783676708624 0.231067960202314 -0.0291095252879107 0.87667687870516 0.294806547085697 0.234131820956081 -0.164091821988222 0.753704916159615 0.434422469050305 0.239577087813912 -0.0351486230649631 0.903993561165573 0.555568898960095 0.239517071538205 0.0861154387452142 1.02502235917498 0.602977937700305 0.241515327856692 0.129607895101189 1.07634798029942 0.689789610576847 0.24035086733909 0.218701910592231 1.16087731056146 0.626503258571008 0.237944629928908 0.160131783910348 1.09287473323167
-0.471874068917235 0.265184044497059 -0.99163479613147 0.0478866582969997 -0.170774158787506 0.263104639295075 -0.686459251805852 0.344910934230841 0.0308843715682499 0.260351769406197 -0.479405096467896 0.541173839604396 0.125620454295295 0.259959213705305 -0.383899604567104 0.635140513157693 0.180960002345704 0.270628307506045 -0.349471480366145 0.711391485057553 0.245251113129697 0.280302512596528 -0.304141811559499 0.794644037818893 0.198318960213207 0.284018108608207 -0.358356532658879 0.754994453085293 -0.0541302270019096 0.279733716988642 -0.602408312299647 0.494147858295828 -0.0073588089451031 0.281871758864932 -0.559827456320369 0.545109838430163 0.0336345879721063 0.282169727366855 -0.519418077666929 0.586687253611142
-0.304179173956918 0.557377759338065 -1.39663958225953 0.788281234345689 0.104677823652385 0.306158979556081 -0.495393776277534 0.704749423582304 0.390062471704735 0.27340476492215 -0.145810867542679 0.925935810952149 0.48522102157636 0.259310153967623 -0.0230268802001811 0.9934689233529 0.527095632916049 0.243950179679246 0.0489532807447263 1.00523798508737 0.524192023532478 0.249768695556689 0.034645380241367 1.01373866682359 0.61204289042512 0.245049680334203 0.131745516970082 1.09234026388016 0.492034072551544 0.24518408258549 0.0114732706839826 0.972594874419105 0.512255288457609 0.235686820692659 0.0503091198999973 0.974201457015221 0.348840301427623 0.231407918678543 -0.104719219182322 0.802399822037568
0.0906257836743665 0.314751200932248 -0.526286570152839 0.707538137501572 0.351382603599307 0.307834074503785 -0.251972182428112 0.954737389626726 -0.223943438174844 0.305858554234462 -0.823426204474391 0.375539328124702 0.00547984871634788 0.28426558686993 -0.551680701548714 0.56264039898141 0.146571034307394 0.270430290268908 -0.383472334619666 0.676614403234454 0.113683623977926 0.259159516872139 -0.394269029091466 0.621636277047319 0.0628455639837235 0.258562879850397 -0.443937680523054 0.569628808490501 0.130483826751726 0.263618488098434 -0.386208409921205 0.647176063424656 0.22522496692518 0.262045508142013 -0.288384229033165 0.738834162883526 0.370928661289232 0.265481882973403 -0.149415829338637 0.891273151917102
0.784597868948977 0.499890381852868 -0.195187279482645 1.7643830173806 0.655630852566822 0.433863635924503 -0.194741873845203 1.50600357897885 0.27260494593087 0.358375155267952 -0.429810358394315 0.975020250256055 0.26381956289198 0.324063885419158 -0.37134565252957 0.89898477831353 0.318387596268905 0.292358425333514 -0.254634917384782 0.891410109922591 0.437869477888117 0.267373462478691 -0.086182508570117 0.961921464346352 0.481082327255532 0.261289891872147 -0.0310458608138765 0.993210515324941 0.452678685717758 0.259420600560514 -0.0557856913808487 0.961143062816364 0.433258544690465 0.251236786698887 -0.0591655572393535 0.925682646620284 0.482154378747453 0.244611600852967 0.00271564107563865 0.961593116419268
0.316623274469074 0.278554553663063 -0.22934365071053 0.862590199648678 0.605945974440087 0.273855443886555 0.0691893044224388 1.14270264445774 0.765198487414441 0.28059797884437 0.215226448879476 1.31517052594941 0.434046779149251 0.290112209213104 -0.134573150908433 1.00266670920694 0.526472917594414 0.293567856128195 -0.048920080416848 1.10186591560568 0.498155704138026 0.281142671734978 -0.0528839324625308 1.04919534073858 0.373527148982006 0.281001152499067 -0.177235109916166 0.924289407880178 0.35042817684502 0.280934098405164 -0.200202656029101 0.901059009719142 0.425517027580725 0.263363251177536 -0.0906749447272449 0.941708999888696 0.275968734729032 0.251542561860765 -0.217054686518067 0.76899215597613
0.643148377226248 0.798968298592574 -0.922829488015198 2.20912624246769 -0.15769037219499 0.536652034719245 -1.20952836024471 0.89414761585473 -0.0558829699647589 0.40421391722613 -0.848142247727973 0.736376307798455 0.141990083721367 0.345419317688855 -0.535031778948788 0.819011946391523 -0.119937355901532 0.302662661653852 -0.713156172743082 0.473281460940018 0.0247845635019581 0.266250608019311 -0.497066628215891 0.546635755219807 -0.131490660597698 0.250958718265052 -0.6233697483972 0.360388427201805 -0.0374141497643062 0.241256141929865 -0.510276187946842 0.43544788841823 0.0137320148197417 0.228988528229881 -0.435085500510825 0.462549530150309 0.0397939938914714 0.224314771536923 -0.399862958320899 0.479450946103841
-0.0696191199948427 0.424272090659113 -0.901192417686705 0.761954177697019 0.223545320796406 0.445556222785923 -0.649744875864003 1.09683551745682 -0.478843830930619 0.37964020280817 -1.22293862843463 0.265250966573395 -0.353837026682293 0.313033425765372 -0.967382541182423 0.259708487817837 -0.213015671514654 0.275898648273663 -0.753777022131034 0.327745679101726 -0.143848354995626 0.247825270091665 -0.629585884375289 0.341889174384038 -0.325791686553859 0.239221517485275 -0.794665860824997 0.14308248771728 -0.181803298630359 0.222408842151243 -0.617724629246794 0.254118031986077 -0.134637617699117 0.211640400986489 -0.549452803632636 0.280177568234403 -0.0182998723789152 0.202850797264672 -0.415887435017673 0.379287690259842
-0.359124461904311 0.219066876765327 -0.788495540364352 0.0702466165557294 -0.123575798637536 0.208153808714669 -0.531557263718286 0.284405666443215 0.117554518192343 0.204941494523989 -0.284130811074676 0.519239847459362 0.0239698064647876 0.198028789934446 -0.364166621806727 0.412106234736302 0.189449143895156 0.201418241962703 -0.205330610351742 0.584228898142055 0.351000750288425 0.204933399916095 -0.0506687135471202 0.752670214123971 0.465698088725193 0.20909144891024 0.0558788488611225 0.875517328589264 0.375240439371457 0.208248314459047 -0.0329262569682747 0.783407135711188 0.230131727682807 0.215887681834595 -0.193008128712998 0.653271584078613 0.256700839915699 0.220276269363195 -0.175040648036164 0.688442327867561
0.451932161119451 0.405517974239448 -0.342883068389867 1.24674739062877 0.233059656852023 0.345194436433772 -0.44352143855817 0.909640752262216 0.470614692661795 0.279313937039218 -0.0768406239350723 1.01807000925866 0.334552265066227 0.260943501480572 -0.176896997835694 0.846001527968148 0.34011027511595 0.252715207653059 -0.155211531884045 0.835432082115945 0.367183521424685 0.257204833378575 -0.136937951997323 0.871304994846692 0.457530773159197 0.262751847588254 -0.0574628481137803 0.972524394432175 0.62891705905802 0.267727541458026 0.104171077800289 1.15366304031575 0.744170518638102 0.257804779652417 0.238873150519364 1.24946788675684 0.707316733461907 0.248652748028892 0.219957347325278 1.19467611959854
0.442909446373211 0.354842001359992 -0.252580876292373 1.1383997690388 0.706297022768062 0.327629402963203 0.0641433929601846 1.34845065257594 0.645481587722016 0.346699942795199 -0.0340503001565737 1.32501347560061 0.798183652554447 0.338560069860318 0.134605915628223 1.46176138948067 0.448554208415806 0.309598133496844 -0.158258133238008 1.05536655006962 0.363868112884276 0.306905814565655 -0.237667283664408 0.96540350943296 0.340446907737628 0.311078705634443 -0.26926735530588 0.950161170781135 0.251392560986451 0.295766326161699 -0.328309438290478 0.831094560263381 0.180945345066792 0.293679447192363 -0.39466637143024 0.756557061563825 0.00970107437518486 0.282523646494113 -0.544045272753277 0.563447421503647
0.465108498236695 0.344999599988312 -0.211090717740397 1.14130771421379 0.84270506142152 0.334985206949068 0.186134055801348 1.49927606704169 0.711982249068489 0.348324254187263 0.0292667108614534 1.39469778727552 0.447541173731564 0.351229663004216 -0.240868965756698 1.13595131321983 0.697525681750253 0.340790390120205 0.0295765171146503 1.36547484638586 0.524245299327076 0.332766649751534 -0.127977334185931 1.17646793284008 0.2830343370341 0.31350742869227 -0.331440223202749 0.897508897270949 0.211344177021169 0.27978849442721 -0.337041272056163 0.759729626098502 0.287767419600479 0.257516448474696 -0.216964819409926 0.792499658610883 0.185825302018473 0.236115492554291 -0.276961063387938 0.648611667424884
0.0154213734212232 0.256475682693975 -0.487270964658967 0.518113711501414 0.339277105935044 0.243807273991857 -0.138585151088995 0.817139362959084 0.325706562674304 0.233540732987596 -0.132033273981384 0.783446399329991 0.539947388212865 0.215419467290554 0.117725232323379 0.962169544102351 0.581698370680107 0.209024085071817 0.172011163939345 0.991385577420869 0.626740160037126 0.211880743399363 0.211453902974375 1.04202641709988 0.744218304702122 0.209030825950313 0.334517885839508 1.15391872356474 0.806270451380498 0.21329917887066 0.388204060794003 1.22433684196699 0.928724352201047 0.224104363673859 0.489479799400284 1.36796890500181 0.906315072904049 0.226855441521816 0.461678407521289 1.35095173828681
0.693749512559286 0.650318067083797 -0.580873898924956 1.96837292404353 -0.0901081997754571 0.311982845061905 -0.701594576096791 0.521378176545877 -0.197322987589381 0.26813711890325 -0.722871740639751 0.328225765460989 0.0817569622216505 0.263766308197522 -0.435225001845493 0.598738926288794 0.114208935829827 0.252937758895137 -0.381549071604642 0.609966943264296 0.175857677436393 0.22933552195531 -0.273639945596014 0.6253553004688 0.25033580891338 0.216133321819932 -0.173285501853687 0.673957119680447 0.322541192988207 0.220042020110147 -0.108741166427682 0.753823552404096 0.239014158937901 0.218731005151292 -0.189698611158631 0.667726929034433 0.381860013392841 0.222934019902315 -0.0550906656156957 0.818810692401378
0.210626016517484 0.339896694715443 -0.455571505124784 0.876823538159751 0.522888007394568 0.338255759042917 -0.140093280329549 1.18586929511868 0.328301851303998 0.35016386183732 -0.35801931789715 1.01462302050515 0.217034877636052 0.330440498696647 -0.430628499809376 0.864698255081479 -0.0280343396756362 0.280945713091511 -0.578687937334997 0.522619257983725 0.11325128845666 0.254395082296356 -0.385363072844198 0.611865649757518 0.241410175314626 0.233849990582444 -0.216935806226964 0.699756156856216 0.378130204075085 0.233850479785813 -0.080216736305109 0.836477144455279 0.496767270259842 0.236045015870879 0.0341190391529186 0.959415501366765 0.541060771710525 0.230921487913237 0.0884546554005812 0.993666888020469
-0.198560781845231 0.284100954778831 -0.75539865321174 0.358277089521277 0.212143617029898 0.282340652411376 -0.341244061696399 0.765531295756195 0.422779090069577 0.277779108910568 -0.121667963395136 0.967226143534291 0.470351073109018 0.272229830666693 -0.0632193949977001 1.00392154121574 0.603345213648335 0.276487554722075 0.0614296063930682 1.1452608209036 0.731580707512279 0.290228731946543 0.162732392897055 1.3004290221275 0.498981874163013 0.299939214340869 -0.0888989859450908 1.08686273427112 0.557554664592318 0.299635086182459 -0.0297301043253017 1.14483943350994 0.46454916372419 0.30870679918784 -0.140516162683975 1.06961449013236 0.229708376254197 0.295477144687031 -0.349426827332384 0.808843579840778
1.03754047394606 0.476795256111839 0.103021771966856 1.97205917592526 0.286882859872631 0.503066562839289 -0.699127603292374 1.27289332303764 -0.170409054214032 0.406038051212446 -0.966243634590427 0.625425526162362 -0.0118191456617046 0.342562581631119 -0.683241805658699 0.659603514335289 0.191649821462146 0.332484555375319 -0.460019907073478 0.843319549997771 0.342842487933981 0.318243561267268 -0.280914892149865 0.966599868017827 0.217213475599148 0.303391435588914 -0.377433738155124 0.81186068935342 0.263794755575816 0.300752528695131 -0.32568020066664 0.853269711818272 0.266457472781958 0.299644587582877 -0.320845918880481 0.853760864444397 0.375137783215202 0.288781477268953 -0.190873912231945 0.94114947866235
0.00768615709249576 0.443556211064942 -0.861684016594791 0.877056330779783 0.428063815363954 0.364650759264711 -0.286651672794879 1.14277930352279 0.124555537460604 0.310518532057063 -0.48406078537124 0.733171860292447 0.316126152317072 0.261683548819083 -0.196773603368331 0.829025908002475 0.346886892797048 0.261817106085611 -0.166274635130749 0.860048420724845 0.484573065054261 0.267826839737585 -0.0403675408314055 1.00951367093993 0.452405338437631 0.280977289620681 -0.0983101492189045 1.00312082609417 0.498608070953672 0.275489212963899 -0.0413507864555701 1.03856692836291 0.41436564170107 0.263236666723799 -0.101578225077575 0.930309508479716 0.532475902037556 0.26083292870394 0.0212433617778338 1.04370844229728
0.55168536139332 0.541014068605132 -0.508702213072738 1.61207293585938 0.140859905060113 0.391417928941615 -0.626319235665453 0.908039045785679 0.357914225844422 0.358733977129192 -0.345204369328795 1.06103282101764 0.616737988487991 0.340571225174437 -0.0507816128539056 1.28425758982989 0.601648259529557 0.326080297132324 -0.037469122849799 1.24076564190891 0.732458214176162 0.304259737349219 0.136109128971693 1.32880729938063 0.872922124952991 0.30656027018434 0.272063995391685 1.4737802545143 0.771972952075587 0.321609151504626 0.14161901512652 1.40232688902465 0.767039133085211 0.308343041006221 0.162686772713017 1.3713914934574 0.54806818462895 0.289699962466063 -0.0197437418045322 1.11588011106243
0.340795226488668 0.682678148386909 -0.997253944349674 1.67884439732701 0.264497455627265 0.490439259460968 -0.696763492916233 1.22575840417076 0.513509855660314 0.416816787788655 -0.30345104840545 1.33047075972608 -0.162466041002675 0.371162184351682 -0.889943922331972 0.565011840326621 -0.00434754858511144 0.316882256496181 -0.625436771317627 0.616741674147404 0.110235581821171 0.292178976800519 -0.462435212707846 0.682906376350188 0.0552440803381598 0.287330165199781 -0.507923043453412 0.618411204129731 -0.0750213359180526 0.291672140877206 -0.646698732037377 0.496656060201272 -0.109512025624497 0.285713855130307 -0.669511181679898 0.450487130430903 -0.0552767330732418 0.292233084907688 -0.628053579492311 0.517500113345827
0.53964498678164 0.389883028107386 -0.224525748308836 1.30381572187212 0.882255091712676 0.368981729910288 0.159050901088511 1.60545928233684 0.605518033204772 0.377753564717648 -0.134878953641817 1.34591502005136 0.325676745993359 0.359556835408149 -0.379054651406613 1.03040814339333 0.454115187541092 0.308840508555632 -0.151212209227945 1.05944258431013 0.352703518969773 0.273991748635833 -0.18432030835646 0.889727346296005 0.18723785173091 0.269547270963989 -0.341074799358507 0.715550502820328 0.165321111406748 0.263340406615437 -0.350826085559509 0.681468308373005 0.133988702354586 0.243091259643662 -0.342470166546992 0.610447571256165 0.102627698031884 0.22756259813159 -0.343394994306032 0.5486503903698
0.520458978338549 0.343731374821063 -0.153254516310735 1.19417247298783 0.446795265889736 0.306709264837215 -0.154354893191205 1.04794542497068 0.175653494979445 0.298120463664331 -0.408662613802644 0.759969603761534 0.373005759883878 0.306085528969941 -0.226921876897207 0.972933396664963 0.290144548960091 0.2981785342266 -0.294285378124044 0.874574476044226 0.431696284859381 0.30003493692998 -0.156372191523379 1.01976476124214 0.368462421902302 0.316065624177699 -0.251026201485989 0.987951045290592 0.106500990540938 0.318558587156154 -0.517873840285125 0.730875821367 0.0874476929344147 0.308169824822296 -0.516565163717285 0.691460549586114 -0.0399868649103983 0.301853589466825 -0.631619900265374 0.551646170444578
0.725886617313608 0.563570956368536 -0.378712457168722 1.83048569179594 -0.07339920718476 0.450686473846267 -0.956744695923444 0.809946281553924 0.153625359634161 0.331844917453497 -0.496790678574694 0.804041397843016 -0.191811741937959 0.283079398221168 -0.746647362451449 0.363023878575531 -0.0302918789635909 0.255706891860387 -0.531477387009949 0.470893629082767 0.0736905168268328 0.240072564498301 -0.396851709589837 0.544232743243502 0.102414991692629 0.23427251086383 -0.356759129600479 0.561589112985736 0.0586573389676632 0.224841678277193 -0.382032350455635 0.499347028390962 0.0138808201286216 0.221207042277561 -0.419684982735398 0.447446622992642 -0.0216961362305885 0.229807116554425 -0.472118084677261 0.428725812216084
0.857183411236967 0.608049653032953 -0.33459390870762 2.04896073118155 -0.0667041048594159 0.447110020570733 -0.943039745178052 0.80963153545922 0.15036721290322 0.303679136314117 -0.444843894272449 0.745578320078888 0.295142549702693 0.25499987396836 -0.204657203275293 0.79494230268068 0.168105704077998 0.24708000730195 -0.316171110233824 0.652382518389819 0.2890490645803 0.230958723818311 -0.16363003410359 0.74172816326419 0.147485075354349 0.233668481006886 -0.310505147419148 0.605475298127845 0.279639919492618 0.22705254612989 -0.165383070921966 0.724662909907202 0.370177655784648 0.224386545335079 -0.0696199730721078 0.809975284641404 0.463484736319475 0.227461681352014 0.0176598408695275 0.909309631769421
0.82695704693489 0.540016881218315 -0.231476040253007 1.88539013412279 1.00203153591093 0.491419244927461 0.0388498158531071 1.96521325596875 0.734507546618324 0.442902684363803 -0.13358171473473 1.60259680797138 0.494213522429886 0.391495896827905 -0.273118435352808 1.26154548021258 0.307262820773987 0.348074574361713 -0.37496334497497 0.989488986522944 0.481892411153907 0.333204660074982 -0.171188722593057 1.13497354490087 0.383411649551383 0.347154178736256 -0.297010540771678 1.06383383987444 0.0993259103368895 0.347180689436664 -0.581148240958973 0.779800061632752 0.0483085377847448 0.329479676655512 -0.59747162846006 0.694088704029549 -0.0268774765484334 0.304749030163737 -0.624185575669357 0.570430622572491
0.556374777686365 0.689993385717883 -0.796012258320686 1.90876181369342 0.0531859645816706 0.425163036376509 -0.780133586716288 0.886505515879629 0.367800231918925 0.375538000923225 -0.368254249890597 1.10385471372845 0.551414473967938 0.375756700030116 -0.185068658091089 1.28789760602696 0.246164304252617 0.352618029567501 -0.444967033699684 0.937295642204918 0.400864288039339 0.357540171987138 -0.299914449055452 1.10164302513413 0.178740472596369 0.33884267915072 -0.485391178539042 0.84287212373178 -0.00305542188656693 0.327241403110419 -0.644448571982988 0.638337728209854 0.0954980421118233 0.300747768038917 -0.493967583244454 0.6849636674681 0.0606421848821517 0.286058276422147 -0.500032036905256 0.621316406669559
0.450397978378091 0.424389341923254 -0.381405131791486 1.28220108854767 0.226045020125747 0.380460017880534 -0.5196566149201 0.971746655171594 0.365235448896422 0.314451298448954 -0.251089096063527 0.981559993856371 0.243832354021713 0.272586131592454 -0.290436463899496 0.778101171942922 0.401965708016291 0.243020918810645 -0.0743552928525739 0.878286708885156 0.365007795350962 0.242021413119474 -0.109354174363208 0.839369765065132 0.257337714539121 0.255639082245708 -0.243714886662467 0.758390315740709 0.333182501412199 0.269570353638859 -0.195175391719965 0.861540394544363 0.488312963909451 0.278618836471739 -0.057779955575158 1.03440588339406 0.669711619833409 0.283122290325895 0.114791930794655 1.22463130887216
-0.339015960269929 0.268173474830311 -0.864635970937338 0.18660405039748 -0.117573748711468 0.231858262072781 -0.572015942374119 0.336868444951183 0.0438375686345907 0.217921828446261 -0.38328921512008 0.470964352389261 0.0409902533207529 0.21670184312944 -0.383745359212949 0.465725865854455 0.194480145526687 0.222030046164704 -0.240698744956133 0.629659036009506 0.362168532328101 0.21749244439962 -0.0641166586951548 0.788453723351357 0.25483267587802 0.212706914177534 -0.162072875909946 0.671738227665987 0.359435350153717 0.211690915194797 -0.0554788436280853 0.774349543935519 0.408243988272776 0.208472218587792 -0.000361560159297114 0.816849536704848 0.557512089841948 0.20513024851609 0.155456802750411 0.959567376933485
-0.202632265131812 0.38459881536512 -0.956445943247447 0.551181412983822 -0.308631745917425 0.311338253734453 -0.918854723236952 0.301591231402103 -0.0270014639912424 0.275240639548678 -0.566473117506651 0.512470189524166 0.18001630306866 0.263356105838916 -0.336161664375615 0.696194270512936 0.329654128840618 0.242912180164805 -0.1464537442824 0.805762001963636 0.445711303943095 0.238972045594418 -0.0226739054219637 0.914096513308154 0.526801875451965 0.243762066154262 0.049028225789612 1.00457552511432 0.520617176721648 0.230835653661134 0.068179295545825 0.973055057897472 0.599099914155998 0.229182272102959 0.149902660834199 1.0482971674778 0.674952798100623 0.232662147187915 0.218934989612309 1.13097060658894
0.241379506184776 0.457859014660068 -0.656024162548956 1.13878317491851 0.549929460261242 0.388179718265719 -0.210902787539566 1.31076170806205 0.289802926375357 0.37522860507471 -0.445645139571075 1.02525099232179 0.48525825787121 0.332747224992349 -0.166926303113795 1.13744281885621 0.155260043140106 0.351451785156098 -0.533585455765847 0.844105542046059 0.0022394614405824 0.353096028959926 -0.689828755320873 0.694307678202038 0.124445488465177 0.344563044257387 -0.550898078279301 0.799789055209656 0.226126025396018 0.341271415736801 -0.442765949448113 0.895018000240148 0.17490831423652 0.330356007978507 -0.472589461401353 0.822406089874394 0.0845566195056057 0.322459185843601 -0.547463384747852 0.716576623759064
1.18743173075771 0.601663143237224 0.00817197001274517 2.36669149150267 0.997894944024456 0.552716486959658 -0.0854293704164724 2.08121925846539 0.205607256620804 0.439447109895977 -0.655709078775311 1.06692359201692 0.195354512709057 0.309208851046049 -0.410694835341199 0.801403860759313 0.410730448941187 0.271455063040305 -0.12132147461781 0.942782372500185 0.452981000728775 0.265621964648098 -0.0676380499814973 0.973600051439047 0.545544996138097 0.262117090023502 0.0317954996920325 1.05929449258416 0.617889039594256 0.267947854375163 0.0927112450189362 1.14306683416958 0.579130618749683 0.262154535855719 0.065307728472473 1.09295350902689 0.541604883683012 0.253368399458242 0.0450028207448572 1.03820694662117
-0.42121218770938 0.221357167464164 -0.855072235939141 0.0126478605203823 -0.14303038415588 0.219424270734155 -0.573101954794824 0.287041186483064 0.0615482879989244 0.220739633909466 -0.371101394463629 0.494197970461478 0.279002285905156 0.221940652913528 -0.15600139380536 0.714005965615671 0.30213009022796 0.221580890447029 -0.132168455048218 0.736428635504137 0.502422971592528 0.20241533157963 0.105688921696452 0.899157021488604 0.503622631839257 0.198900072281342 0.113778490167827 0.893466773510686 0.574338013238431 0.197834448179051 0.186582494807491 0.962093531669371 0.605850809083645 0.204928697720702 0.204190561551069 1.00751105661622 0.666662149176848 0.204756947633156 0.265338531815861 1.06798576653783
0.388437611213111 0.475656178252399 -0.543848498161591 1.32072372058781 0.683003405860722 0.493783717207456 -0.284812679865891 1.65081949158734 0.544915099471096 0.486927580010116 -0.409462957348731 1.49929315629092 0.221126162433907 0.418609562937645 -0.599348580923876 1.04160090579169 0.294862549704062 0.362192998778522 -0.415035727901842 1.00476082730997 0.221151712263795 0.329175650109481 -0.424032561950788 0.866335986478378 0.139606940156991 0.27394958125548 -0.397334239103749 0.676548119417731 0.0913768569316865 0.260514200379179 -0.419230975811503 0.601984689674877 0.190778064864484 0.249261774509393 -0.297775013173927 0.679331142902895 0.305733899399043 0.239017999949956 -0.162741380502871 0.774209179300956
-0.0147408697603351 0.541885580875742 -1.07683660827679 1.04735486875612 0.247548421767092 0.252054564503909 -0.246478524660569 0.741575368194753 0.359617190442345 0.231399604847247 -0.09392603505826 0.81316041594295 0.47371791013734 0.231130727699785 0.0207016838457609 0.926734136428919 0.321177885104599 0.22579667431557 -0.121383596553919 0.763739366763117 0.435424172381475 0.220133965597151 0.00396159981105915 0.866886744951891 0.265315482517472 0.22066123996453 -0.167180547813006 0.69781151284795 0.353971521292836 0.221576833296655 -0.080319071968607 0.78826211455428 0.399294227990834 0.234371038068521 -0.0600730066234666 0.858661462605134 0.33618608133729 0.236403650080038 -0.127165072819585 0.799537235494164
0.0302518853685116 0.371277003169346 -0.697451040843407 0.75795481158043 0.00350383470138227 0.3216510431198 -0.626932209813426 0.633939879216191 -0.0846031555660991 0.267461729460897 -0.608828145309457 0.439621834177259 0.0460390051722166 0.240897129295463 -0.426119368246891 0.518197378591325 0.221641963320683 0.242199672431178 -0.253069394644426 0.696353321285792 0.349334643129226 0.245843830185241 -0.132519264033847 0.831188550292299 0.271055328053455 0.251175876453682 -0.221249389795761 0.763360045902671 0.29591693231061 0.253148217280784 -0.200253573559727 0.792087438180948 0.454156037430215 0.255875926527891 -0.0473607785644516 0.955672853424881 0.512443077434912 0.250481504819695 0.0214993279883088 1.00338682688151
-0.0397136346147453 0.257382663987844 -0.54418365603092 0.464756386801429 0.0332835859558156 0.285057567289859 -0.525429245932308 0.59199641784394 0.277378951561462 0.294283297160147 -0.299416310872427 0.85417421399535 0.463950183138438 0.283512935490495 -0.0917351704229316 1.01963553669981 0.642533393279689 0.282681625553764 0.0884774071943106 1.19658937936507 0.76378582555465 0.300141823702343 0.175507851098058 1.35206380001124 0.485898005014239 0.291154003843079 -0.0847638425181958 1.05655985254667 0.400875912947775 0.288908298704134 -0.165384352512328 0.967136178407878 0.520865737334964 0.281944011247093 -0.0317445247093392 1.07347599937927 0.468762937205672 0.265012148133724 -0.0506608731364265 0.98818674754777
0.0405118809269298 0.35435857649487 -0.654030929003016 0.735054690856876 0.288947285304359 0.33977723575874 -0.377016096782772 0.95491066739149 0.526924168395454 0.333740731222208 -0.127207664800074 1.18105600159098 0.660002209637455 0.323957327269004 0.0250458481902065 1.2949585710847 0.758394806988267 0.327297257985534 0.116892181336621 1.39989743263991 0.324842240551 0.326228027864727 -0.314564694063864 0.964249175165864 0.396026164542793 0.301964571227428 -0.195824395062965 0.987876724148552 0.486594765124137 0.285348798612456 -0.0726888801562769 1.04587841040455 0.549626345483512 0.255423625577534 0.0489960393515458 1.05025665161548 0.356503458127853 0.255849178366197 -0.144960931469894 0.8579678477256
0.140950190911945 0.312564796256537 -0.471676809750869 0.753577191574758 0.333353216958455 0.311038838417026 -0.276282906338916 0.942989340255826 0.345490909588296 0.283418829926325 -0.210009997067301 0.900991816243893 0.235796355255696 0.244697264124089 -0.243810282427518 0.715402992938909 0.363999031376189 0.229151332500019 -0.0851375803238476 0.813135643076225 0.331636223929538 0.219214553005839 -0.0980242999619056 0.761296747820982 0.458542317836441 0.218239379976997 0.030793133081527 0.886291502591356 0.490891595077337 0.218890239027041 0.0618667265843378 0.919916463570337 0.350336683574639 0.208932747701855 -0.0591715019209973 0.759844869070275 0.312779874271059 0.212592298226476 -0.103901030252834 0.729460778794953
0.475126024941595 0.432698476666814 -0.37296298932536 1.32321503920855 0.175317452485036 0.339879953899362 -0.490847257157713 0.841482162127785 0.464499928123827 0.300887575152628 -0.125239719175324 1.05423957542298 0.562821438971283 0.285125541028836 0.00397537855476382 1.1216674993878 0.215961977824524 0.261011319444052 -0.295620208285817 0.727544163934865 0.336246946897775 0.248835343728264 -0.151470326809624 0.823964220605173 0.455950676680648 0.244311892588196 -0.0229006327922157 0.934801986153511 0.356266485043657 0.242840705815521 -0.119701298354764 0.832234268442079 0.472582235905147 0.232412141067911 0.0170544394120418 0.928110032398252 0.46880179082619 0.221350340657757 0.0349551231369856 0.902648458515395
-0.0086682837082328 0.394110796239345 -0.781125444337348 0.763788876920883 -0.0106874619676653 0.372478757410304 -0.740745826491862 0.719370902556531 0.180671873421403 0.34662260085158 -0.498708424247694 0.8600521710905 -0.0610424079040159 0.28267489281083 -0.615085197813242 0.49300038200521 0.0745232996433266 0.215010806739755 -0.346897881566594 0.495944480853247 0.0493692975697325 0.198525418812688 -0.339740523303136 0.438479118442601 0.111514398454209 0.199485033476788 -0.279476267160295 0.502505064068712 0.169282906391784 0.200666063013389 -0.224022577114459 0.562588389898026 0.147180553220915 0.206654466961064 -0.257862202022771 0.552223308464601 0.124994494955368 0.21040598466038 -0.287401234978976 0.537390224889712
1.24046195969386 0.580533282155067 0.102616726669932 2.3783071927178 0.753732314681173 0.499037170241443 -0.224380538992055 1.7318451683544 0.245069156028115 0.399783652958577 -0.538506803770696 1.02864511582693 -0.0938043352188513 0.334222699592652 -0.748880826420449 0.561272155982746 -0.016756985622298 0.305359381787189 -0.615261373925189 0.581747402680593 -0.0961472663583722 0.279893437418879 -0.644738403699375 0.452443870982631 -0.0222080708140562 0.261635964093999 -0.535014560438294 0.490598418810182 0.0936074369381789 0.258269268159486 -0.412600328654413 0.599815202530771 0.111010003504914 0.238615018321743 -0.356675432405702 0.57869543941553 0.201964174565853 0.227376769329754 -0.243694293320466 0.647622642452172
0.036130608296818 0.244569176098079 -0.443224976855416 0.515486193449052 0.432650315379012 0.228670284430237 -0.0155434421042526 0.880844072862277 0.57323067427452 0.21481564154911 0.152192016838265 0.994269331710775 0.610284624167749 0.20340688260503 0.211607134261891 1.00896211407361 0.708705271624274 0.216494042999489 0.284376947345275 1.13303359590327 0.621190759292451 0.228348003337073 0.173628672751788 1.06875284583311 0.680545674581415 0.224024520383873 0.241457614629025 1.11963373453381 0.573798119871192 0.214143688519504 0.154076490372965 0.99351974936942 0.705469506089604 0.207484120818332 0.298800629285673 1.11213838289353 0.692654138945181 0.217192398107901 0.266957038653695 1.11835123923667
0.0106560533699793 0.321051934570394 -0.618605738387993 0.639917845127951 0.291069091208886 0.307238114713907 -0.311117613630371 0.893255796048144 0.507269005329124 0.273465364375282 -0.0287231088464277 1.04326111950468 0.720822043112693 0.249635090059136 0.231537266596787 1.2101068196286 0.505804727535326 0.230130059813401 0.054749810301059 0.956859644769592 0.621941864136531 0.209061442148277 0.212181437525909 1.03170229074715 0.593005381458398 0.215830349920748 0.169977895613731 1.01603286730306 0.605396700079522 0.217238086100574 0.179610051322396 1.03118334883665 0.533305011680437 0.221815160457918 0.0985472971829182 0.968062726177955 0.415012440654539 0.220971383399711 -0.0180914708088941 0.848116352117972
0.825544595631475 0.513634699271589 -0.181179414940839 1.83226860620379 0.383716235007163 0.414688763975995 -0.429073742385787 1.19650621240011 0.208470867495159 0.29900621006823 -0.377581304238573 0.79452303922889 0.07619942818278 0.2645838469542 -0.442384911847453 0.594783768213013 0.258397566837023 0.251869994395642 -0.235267622178436 0.752062755852482 0.281954255824136 0.255586193587051 -0.218994683606483 0.782903195254756 0.444295253407784 0.257277496607707 -0.0599686399433217 0.948559146758889 0.536347874171243 0.257899214935891 0.0308654128968966 1.04183033544559 0.574336127791839 0.248806530368046 0.0866753282704688 1.06199692731321 0.479880467848462 0.249707734687213 -0.00954669213847542 0.9693076278354
-0.0368601750888007 0.299195721780467 -0.623283789778516 0.549563439600914 0.262688176131941 0.28403823251411 -0.294026759595714 0.819403111859596 0.480140855088004 0.271580954017834 -0.0521578147869511 1.01243952496296 0.6115691262742 0.279186725971436 0.0643631433701858 1.15877510917821 0.322416156663489 0.311350189080091 -0.287830213933489 0.932662527260468 0.295304047760512 0.309257848337356 -0.310841334980706 0.901449430501729 0.152448787491882 0.29016287325519 -0.41627044408829 0.721168019072054 0.0861764649135507 0.266175776657606 -0.435528057335357 0.607880987162458 0.137064723140378 0.250737753517833 -0.354381273754575 0.62851072003533 0.165764790063127 0.247259072697706 -0.318862992424377 0.650392572550631
1.44058154366964 0.697367129874713 0.0737419691152015 2.80742111822408 0.768695641236186 0.530282052171136 -0.270657181019241 1.80804846349161 0.998780317020978 0.462000924622371 0.0932585047611322 1.90430212928082 0.524068486592809 0.442100252368408 -0.34244800804927 1.39058498123489 0.224640376248902 0.41592768087698 -0.590577878269979 1.03985863076778 0.304773404765074 0.390574592582338 -0.460752796696309 1.07029960622646 0.440369644075255 0.366749232632402 -0.278458851884252 1.15919814003476 0.214195652369366 0.340432148993777 -0.453051359658436 0.881442664397169 -0.00315214974406608 0.311783118804516 -0.614247062600917 0.607942763112785 0.116332460715952 0.285086151985812 -0.442436397176239 0.675101318608143
0.630909397808764 0.331952250838564 -0.0197170138348202 1.28153580945235 0.935933807690798 0.328204756095716 0.292652485743194 1.5792151296384 1.12692720448012 0.338002060540916 0.464443165819921 1.78941124314031 0.723618004742581 0.339755828067832 0.0576965817296295 1.38953942775553 0.848256570536252 0.335622619985307 0.19043623536505 1.50607690570746 0.616868093705179 0.302074272708836 0.0248025191958615 1.2089336682145 0.472957478663774 0.278555546775558 -0.0730113930163204 1.01892635034387 0.552629210494979 0.252985624959072 0.0567773855751977 1.04848103541476 0.573193921028733 0.245576333432257 0.0918643075015091 1.05452353455596 0.452383572532086 0.247905492765405 -0.0335111932881076 0.93827833835228
0.132063392897287 0.319783661746106 -0.494712584125081 0.758839369919655 0.440882337926597 0.324649341484973 -0.19543037138395 1.07719504723714 0.65865695999259 0.327460851615752 0.0168336908257172 1.30048022915946 0.575251725578448 0.331374967182603 -0.074243210099454 1.22474666125635 0.309201572917829 0.29570216464189 -0.270374669780277 0.888777815615934 0.433666691923907 0.267224582190618 -0.0900934891697041 0.957426873017517 0.516746929404601 0.259291102308791 0.00853636887937104 1.02495748992983 0.420096762605683 0.258621375250945 -0.0868011328861693 0.926994658097536 0.375859784665961 0.258625877599652 -0.131046935429356 0.882766504761278 0.458043846384694 0.253061487706471 -0.0379566695199903 0.954044362289377
0.0342926960565952 0.310379851569766 -0.574051813020146 0.642637205133336 0.349289281289446 0.312659024319833 -0.263522406377426 0.962100968956318 0.423152570660098 0.278781280156693 -0.123258738447021 0.969563879767216 0.633443798710401 0.274569838348069 0.095286915548186 1.17160068187262 0.165884738147889 0.264478318692827 -0.352492766490051 0.68426224278583 0.155179212576426 0.241401170730707 -0.317967082055759 0.628325507208611 0.235121405278262 0.232553405671363 -0.220683269837608 0.690926080394133 0.272931809239686 0.231241025368205 -0.180300600481996 0.726164218961368 0.331817740323386 0.228596347972532 -0.116231101702777 0.779866582349548 0.277328661795011 0.234256642439683 -0.181814357386767 0.73647168097679
0.189092729402982 0.349477156914764 -0.495882498149956 0.87406795695592 0.635650226523918 0.326570955451308 -0.00442884616064698 1.27572929920848 0.799430235113431 0.295379266711691 0.220486872358516 1.37837359786835 0.73087534815221 0.296918124480362 0.148915824170701 1.31283487213372 0.915208221848431 0.305177463852789 0.317060392696964 1.5133560509999 0.844855900024104 0.316649522857726 0.224222835222961 1.46548896482525 0.765534147659036 0.326305295610951 0.125975768261573 1.4050925270565 0.455881997448409 0.339597627248432 -0.209729351958519 1.12149334685534 0.51353349868568 0.340829596121062 -0.154492509711601 1.18155950708296 0.369373448894356 0.32635918498114 -0.270290553668678 1.00903745145739
1.08288522580565 0.544010959077913 0.016623746012943 2.14914670559836 0.776018399917251 0.436106694062834 -0.0787507204459044 1.63078752028041 0.188708427793995 0.399762827913283 -0.594826714916039 0.972243570504029 0.400746376342141 0.358220382034677 -0.301365572445826 1.10285832513011 0.585158931003938 0.344400875231116 -0.0898667844490492 1.26018464645693 0.72059509304866 0.347489599346771 0.0395154783289881 1.40167470776833 0.623919132481962 0.361234921544659 -0.0841013137455694 1.33193957870949 0.424030588996053 0.352147453430715 -0.266178419728149 1.11423959772026 0.083649202715489 0.341326242406885 -0.585350232402006 0.752648637832984 0.160187813362453 0.338616114844554 -0.503499771732874 0.823875398457779
0.664996404496397 0.725636030743055 -0.75725021575999 2.08724302475278 -0.15194214023095 0.431705805233757 -0.998085518489115 0.694201238027214 0.0184727223717864 0.283956900123191 -0.538082801869668 0.575028246613241 0.210298946368227 0.261409940123635 -0.302064536274097 0.722662429010552 0.374080392536411 0.262622637636689 -0.140659977231499 0.888820762304321 0.227444406396404 0.264530072486519 -0.291034535677173 0.745923348469982 0.175120421663108 0.268699325937015 -0.35153025717344 0.701771100499657 0.345569194543721 0.274336904768052 -0.192131138801661 0.883269527889103 0.384334295563597 0.266103386850947 -0.137228342664258 0.905896933791453 0.476829544174271 0.259133969338039 -0.0310730357282863 0.984732124076828
-0.222785015307122 0.435823241456938 -1.07699856856272 0.631428537948476 0.224619628656667 0.30232630439544 -0.367939927958395 0.81717918527173 0.408299666379719 0.274565323195294 -0.129848367083057 0.946447699842495 0.565608361506547 0.264997546633126 0.0462131701056204 1.08500355290747 0.534144904342811 0.25447416854843 0.035375533987887 1.03291427469773 0.59915591245807 0.262682530438699 0.0842981527982197 1.11401367211792 0.469264091503247 0.262662127740416 -0.0455536788679676 0.984081861874462 0.404092763364236 0.265439075510465 -0.116167824636276 0.924353351364747 0.491491283667896 0.273502696357802 -0.0445740011933964 1.02755656852919 0.440845580181662 0.284000011210454 -0.115794441790829 0.997485602154152
-0.446014951338003 0.38734944894446 -1.20521987126914 0.313189968593138 -0.085297844266194 0.346652354996918 -0.764736460060154 0.594140771527766 0.113399870401345 0.335658268314868 -0.544490335495795 0.771290076298486 -0.0251936410740274 0.32317279296411 -0.658612315283683 0.608225033135628 -0.0917452879582256 0.299747762145989 -0.679250901764364 0.495760325847913 -0.240473816713438 0.28649962681748 -0.802013085275698 0.321065451848823 -0.0948405374605166 0.26237255017913 -0.609090735811611 0.419409660890578 -0.0420300162246618 0.260370128529133 -0.552355468141763 0.468295435692439 -0.09458926994561 0.261096884430437 -0.606339163429266 0.417160623538046 -0.0544449347334349 0.253536688341761 -0.551376843883286 0.442486974416416
0.213760232481012 0.427387027857044 -0.623918342118795 1.05143880708082 0.53869475871135 0.423700705753948 -0.291758624566387 1.36914814198909 -0.0566778046063035 0.350088000717642 -0.742850286012881 0.629494676800274 0.0571537433151605 0.289149069176872 -0.509578432271508 0.623885918901829 -0.050474306854227 0.258967928598908 -0.558051446908087 0.457102833199633 0.055173771430064 0.244180555577801 -0.423420117502426 0.533767660362554 0.146414224814856 0.233671785138634 -0.311582474056867 0.604410923686579 0.168473216624383 0.22844491526513 -0.279278817295272 0.616225250544038 0.219961956292846 0.234899437708847 -0.240440941616493 0.680364854202186 0.144512169203242 0.224355588694473 -0.295224784637926 0.58424912304441
-0.148547875479173 0.207355150479969 -0.554963970419913 0.257868219461566 0.040980940222348 0.201856552174068 -0.354657902038826 0.436619782483522 0.115085661302231 0.206498834970283 -0.289652055239523 0.519823377843984 0.226716610809258 0.205242925519159 -0.175559523208293 0.62899274482681 0.371802275172464 0.196876887637293 -0.0140764245966301 0.757680974941558 0.461262916053621 0.204780861670944 0.0598924271785713 0.86263340492867 0.455245093442494 0.219385276418855 0.0252499516615389 0.88524023522345 0.414887698168012 0.218185708264879 -0.0127562900311503 0.842531686367174 0.453291952642935 0.224602364776449 0.0130713176810955 0.893512587604774 0.407374026535202 0.230168421794474 -0.0437560801819675 0.858504133252372
0.12433148899937 0.315791002809679 -0.494618876507601 0.743281854506341 0.449173665450537 0.2912818535244 -0.121738767457286 1.02008609835836 0.72627156391323 0.280038984557792 0.177395154179958 1.2751479736465 0.728477687725902 0.304403701162438 0.131846433447523 1.32510894200428 0.270691325306319 0.27431645820683 -0.266968932779069 0.808351583391706 0.36085580805763 0.246792762457233 -0.122858006358546 0.844569622473805 0.270553476403441 0.223892215182565 -0.168275265354386 0.709382218161268 0.362955288200177 0.222517431708941 -0.0731788779493478 0.799089454349702 0.400733976016417 0.221742123652186 -0.0338805863418681 0.835348538374702 0.448123589877705 0.2271323538224 0.00294417638580174 0.893303003369609
0.54660279469255 0.352955268254951 -0.145189531087153 1.23839512047225 0.936443230196479 0.329619205418209 0.290389587576789 1.58249687281617 0.537919272071144 0.330979406788687 -0.110800365234683 1.18663890937697 0.440580297412204 0.328952706244708 -0.204167006827423 1.08532760165183 0.564224395086562 0.318401953162271 -0.0598434331114889 1.18829222328461 0.420672477212467 0.327321138517403 -0.220876954281642 1.06222190870658 0.300801444105271 0.310181065099379 -0.307153443489512 0.908756331700054 0.140527719851852 0.278466307460367 -0.405266242770467 0.68632168247417 0.127208484198659 0.258571569444761 -0.379591791913074 0.634008760310391 0.0980335058924132 0.252639112848365 -0.397139155290383 0.593206167075209
0.589207817363002 0.470471540630882 -0.332916402273527 1.51133203699953 0.872079683586524 0.390045748551174 0.107590016426224 1.63656935074682 0.396120046119167 0.338393444988604 -0.267131106058496 1.05937119829683 0.391840090565358 0.331905618912862 -0.258694922503851 1.04237510363457 0.461069765548045 0.310106844484456 -0.146739649641488 1.06887918073758 0.552168357309416 0.312675989324547 -0.060676581766696 1.16501329638553 0.501224622667889 0.308912606059414 -0.104244085208563 1.10669333054434 0.377003247854686 0.295723227340125 -0.202614277731958 0.95662077344133 0.311043549260889 0.269575664844797 -0.217324753834914 0.839411852356691 0.367812735757398 0.264250296927561 -0.150117846220622 0.885743317735418
-0.0423608865108223 0.379385904721962 -0.785957259765868 0.701235486744224 -0.213495975021295 0.349517470609829 -0.898550217416561 0.47155826737397 -0.470694761591812 0.270393976266381 -1.00066695507392 0.0592774318902948 -0.331583586171056 0.23535631333976 -0.792881960316987 0.129714787974874 -0.176393439056486 0.233909568982862 -0.634856194262895 0.282069316149922 -0.0324607818805706 0.232250828021988 -0.487672404803667 0.422750841042526 0.0495080486178122 0.230799865690544 -0.402859688135654 0.501875785371278 0.18075655511064 0.221623057005124 -0.253624636619404 0.615137746840684 0.159420529137389 0.21560305183453 -0.26316145245829 0.582002510733067 0.274082332419317 0.225185908982923 -0.167282049187213 0.715446714025847
0.125240772062337 0.422481589487919 -0.702823143333985 0.953304687458658 0.425282318248023 0.356040378694308 -0.27255682399282 1.12312146048887 0.270552640155704 0.351762025485373 -0.418900929795626 0.960006210107035 0.481475071197018 0.350352796756048 -0.205216410444836 1.16816655283887 0.604768865134105 0.333062477141888 -0.0480335900639959 1.25757132033221 0.149726857636613 0.298380642305593 -0.435099201282348 0.734552916555575 0.246951740008714 0.284053951430188 -0.309794004794454 0.803697484811882 0.167612295435125 0.290969401432914 -0.402687731373387 0.737912322243636 0.237047021791496 0.294593510668442 -0.340356259118649 0.814450302701642 0.326796412002638 0.291120739796463 -0.243800237998429 0.897393062003705
0.242182939798197 0.418021539493751 -0.577139277609554 1.06150515720595 -0.280074404690942 0.34571478583709 -0.957675384931638 0.397526575549753 -0.112662156007714 0.274950528173303 -0.651565191227388 0.42624087921196 -0.0742075372013045 0.252471137334309 -0.569050966376551 0.420635891973942 -0.218443244466648 0.254773064177673 -0.717798450254888 0.280911961321592 0.00348019202434413 0.254878533961361 -0.496081734539923 0.503042118588612 0.102734991359432 0.246139176492481 -0.379697794565832 0.585167777284695 0.0187597593294804 0.242885016805782 -0.457294873609853 0.494814392268814 0.0164484862386699 0.238848714594711 -0.451694994366963 0.484591966844303 0.0363930612583647 0.23680365601904 -0.427742104538954 0.500528227055683
0.0454579546562793 0.30577780612788 -0.553866545354366 0.644782454666924 0.32452501772349 0.281231501893046 -0.226688725986881 0.875738761433861 0.532241062524793 0.281367096069323 -0.0192384457710799 1.08372057082067 0.404471608586124 0.27598890446914 -0.13646664417339 0.945409861345639 0.330669669473191 0.256868582393707 -0.172792752018474 0.834132090964857 0.169297990828926 0.240446538691756 -0.301977225006915 0.640573206664768 0.299939838393867 0.241233033882977 -0.172876908016768 0.772756584804503 0.271324259415085 0.236800715382172 -0.192805142733973 0.735453661564143 0.361037964301777 0.247401162881323 -0.123868314945615 0.84594424354917 0.344730479034145 0.244488755296461 -0.134467481346918 0.823928439415207
0.740911973732617 0.51273994129802 -0.264058311211502 1.74588225867674 0.208704416842042 0.355581915705638 -0.488236137941008 0.905644971625092 0.19647521185757 0.268275432121808 -0.329344635101175 0.722295058816314 0.314593786416324 0.254216073574541 -0.183669717789776 0.812857290622423 0.477892494588449 0.247171404308566 -0.00656345785634016 0.962348447033238 0.467516451694755 0.251568557264784 -0.0255579205442224 0.960590823933732 0.451567960256862 0.257068180712157 -0.0522856739389659 0.955421594452689 0.413895720622641 0.262361248325094 -0.100332326094544 0.928123767339826 0.455956870708122 0.261571613854894 -0.0567234924474702 0.968637233863715 0.438938408561016 0.267154229750472 -0.0846838817499087 0.96256069887194
0.461912364199421 0.488191610018549 -0.494943191436934 1.41876791983578 0.257852543177938 0.416964159491136 -0.559397209424688 1.07510229578056 0.475445622734481 0.342260834948586 -0.195385613764748 1.14627685923371 0.234583620350981 0.313750835124013 -0.380368016492086 0.849535257194047 0.412835090384155 0.287227526024799 -0.150130860624452 0.975801041392761 0.439005706576652 0.268233151278682 -0.0867312699295655 0.964742683082869 0.543955504742717 0.254334194269306 0.0454604839748766 1.04245052551056 0.533410417695624 0.253504188631918 0.0365422079770645 1.03027862741418 0.621215181995368 0.242950111028593 0.145032964379326 1.09739739961141 0.659832882629876 0.238298196785697 0.192768416929911 1.12689734832984
0.802900922391334 0.502947754959047 -0.182876677328399 1.78867852211107 0.423608561047287 0.542545974469092 -0.639781548912134 1.48699867100671 0.0786928018338846 0.463001486042531 -0.828790110809476 0.986175714477245 -0.264587220826598 0.373716238836662 -0.997071048946456 0.467896607293261 -0.178299790695873 0.307532922577972 -0.781064318948698 0.424464737556953 -0.0838180016616168 0.287504270101151 -0.647326371059874 0.47969036773664 0.0518805454784257 0.283969522112035 -0.504699717861163 0.608460808818014 0.0257863350356629 0.273717292326395 -0.510699557924071 0.562272227995397 0.0906299168430831 0.27192900461802 -0.442350932208237 0.623610765894403 0.136226283930744 0.265798223276778 -0.384738233691741 0.657190801553228
0.15585288054846 0.360769635515347 -0.551255605061619 0.86296136615854 0.0402390453230261 0.28706404941651 -0.522406491533333 0.602884582179386 0.281102070300836 0.280321739302184 -0.268328538731445 0.830532679333117 0.464334353891903 0.287926504079259 -0.100001594103445 1.02867030188725 0.117822508239581 0.286463294507702 -0.443645548995515 0.679290565474676 0.03265854732839 0.287776460524716 -0.531383315300053 0.596700409956833 -0.00938702366359412 0.275545420990266 -0.549456048804516 0.530682001477328 0.127900282262841 0.272391009730169 -0.40598609680829 0.661786661333973 0.208352777112565 0.258669145208574 -0.29863874749624 0.71534430172137 0.247393857111622 0.250117344375779 -0.242836137864905 0.737623852088148
-0.0888741660584843 0.273508013759768 -0.62494987302763 0.447201540910661 0.207609958641884 0.268031985536858 -0.317732733010357 0.732952650294126 0.430778877151668 0.257465899739104 -0.0738542863369765 0.935412040640312 0.579018037934756 0.258496217953987 0.0723654507449411 1.08567062512457 0.697291310077019 0.256835976758126 0.193892795631093 1.20068982452295 0.427324803840046 0.25992390033169 -0.0821260408100669 0.93677564849016 0.499209756804654 0.259313037965799 -0.00904379760831275 1.00746331121762 0.598036837186867 0.249707226599993 0.108610673050881 1.08746300132285 0.539844476502395 0.256496570841944 0.0371111976521846 1.0425777553526 0.646085640052109 0.254557022462045 0.1471538760265 1.14501740407772
0.819421849147348 0.82498270691354 -0.797544256403191 2.43638795469789 -0.00171252078331086 0.508203703676566 -0.997791779989381 0.994366738422759 0.310917074103984 0.331039785497246 -0.337920905470619 0.959755053678586 0.0469795812546113 0.263270809544024 -0.469031205451675 0.562990367960898 0.14261722804174 0.245005063449061 -0.337592696318419 0.622827152401899 0.0687701950736345 0.229279855500649 -0.380618321707637 0.518158711854906 0.146018839569798 0.233814859776042 -0.312258285591246 0.604295964730841 0.158473778690568 0.241010580598038 -0.313906959281586 0.630854516662722 0.314096539418485 0.23744850542359 -0.151302531211753 0.779495610048722 0.434824237110237 0.231927691632923 -0.0197540384902914 0.889402512710766
0.467976269640737 0.435672239830349 -0.385941320426748 1.32189385970822 0.204608369626417 0.316661569275275 -0.416048306153121 0.825265045405956 0.455359543029359 0.266459095760728 -0.0669002846616683 0.977619370720385 0.596399118207757 0.258946448883755 0.0888640783955974 1.10393415801992 0.621859450811067 0.26961471604747 0.0934146073580256 1.15030429426411 0.711135362008847 0.285897942722042 0.150775394273644 1.27149532974405 0.682426716381626 0.281946200068813 0.129812164246752 1.2350412685165 0.422842947458045 0.260517233217369 -0.0877708296479986 0.933456724564089 0.563002181204041 0.250796625807614 0.0714407946211167 1.05456356778696 0.51060584444696 0.243945845001476 0.0324719882440672 0.988739700649852
0.817826896348671 0.525603040484068 -0.212355063000101 1.84800885569744 0.450106160011216 0.442267336393721 -0.416737819320477 1.31695013934291 0.704725398683202 0.379209620026562 -0.0385254565688585 1.44797625393526 0.85905486525284 0.372884605322441 0.128201038820857 1.58990869168482 0.443203585891153 0.354067841939203 -0.250769384309684 1.13717655609199 0.628524329351854 0.327624721707358 -0.0136201251945678 1.27066878389828 0.651201234574944 0.306574396580675 0.0503154172768202 1.25208705187307 0.631737813387539 0.293988472155698 0.0555204079623713 1.20795521881271 0.550821049349688 0.285511585189598 -0.00878165762192484 1.1104237563213 0.63377696118042 0.282881669728428 0.0793288885127007 1.18822503384814
-0.0094947795857061 0.266761267482568 -0.532346863851539 0.513357304680126 0.297668329605107 0.280569886273682 -0.25224864749131 0.847585306701523 0.569198984894753 0.268475587901276 0.0429868326082511 1.09541113718125 0.686776277530902 0.244370585553009 0.207809929847004 1.1657426252148 0.654455470504228 0.238589082371565 0.18682086905596 1.1220900719525 0.647433752313084 0.233558754103296 0.189658594270624 1.10520891035554 0.680865016871509 0.228827840610469 0.23236244927499 1.12936758446803 0.65366592794763 0.233146101104046 0.196699569783699 1.11063228611156 0.383833186797068 0.229292553015485 -0.0655802171132814 0.833246590707418 0.52564040915604 0.228037573089031 0.0786867659015382 0.972594052410541
1.15497393984111 0.920476561247445 -0.649160120203885 2.9591079998861 -0.505761314015715 0.503110884059749 -1.49185864677282 0.480336018741393 -0.344664506519756 0.291435154880252 -0.915877410085049 0.226548397045538 -0.221864858925095 0.260395708232632 -0.732240447061054 0.288510729210865 -0.128562798404527 0.259197316217023 -0.636589538189892 0.379463941380837 0.0959294087273586 0.252434207112569 -0.398841637213277 0.590700454667994 0.0498904307313681 0.244914840261494 -0.43014265618116 0.529923517643896 0.120253735967459 0.23151430504566 -0.333514301922034 0.574021773856952 0.127074367500848 0.22894663846889 -0.321661043898177 0.575809778899872 0.15703276014382 0.22347327210654 -0.280974853184998 0.595040373472637
0.5887430085306 0.43461246320369 -0.263097419348631 1.44058343640983 0.869565783056756 0.461612818348113 -0.0351953409055455 1.77432690701906 0.596094098037703 0.443409559478434 -0.272988638540028 1.46517683461543 0.111622175421785 0.375673615594975 -0.624698111144366 0.847942461987935 0.0273335926752927 0.280412646568215 -0.522275194598409 0.576942379948995 0.11046541529549 0.276207754766703 -0.430901784047248 0.651832614638228 0.215077968021685 0.261610615826446 -0.297678838998149 0.72783477504152 0.247791523375722 0.251680095934853 -0.24550146465659 0.741084511408034 0.284783123496638 0.244316425020823 -0.194077069544175 0.763643316537452 0.337650405767952 0.234769467334822 -0.1224977502083 0.797798561744203
0.0709636886076779 0.42436324419245 -0.760788270009524 0.90271564722488 -0.10468789462436 0.37262530147791 -0.835033485521065 0.625657696272344 0.152002183330871 0.345610169870328 -0.525393749614972 0.829398116276714 0.0975582791068692 0.337075723429542 -0.563110138815033 0.758226697028771 0.300693514512953 0.32586000970875 -0.337992104516197 0.939379133542104 0.0406894334118841 0.303282855023858 -0.553744962434878 0.635123829258646 -0.0753023475065675 0.278134418463051 -0.620445807694148 0.469841112681013 0.0193343516455122 0.266047342519153 -0.502118439692028 0.540787142983052 0.121359893591596 0.255940004609546 -0.380282515443113 0.623002302626305 0.0490656334497359 0.247185465530738 -0.43541787899051 0.533549145889982
-0.221246456630102 0.241230793924771 -0.694058812722653 0.251565899462448 0.0500412823801601 0.249457521798817 -0.438895460345522 0.538978025105842 0.341826107612737 0.227617501757393 -0.104304195831753 0.787956411057226 0.375503644529033 0.237091358765969 -0.0891954186522661 0.840202707710331 0.498763969998884 0.232862615489092 0.0423532436402642 0.955174696357504 0.289673545231731 0.215808927126579 -0.133311951936365 0.712659042399826 0.380986511802731 0.204793739318927 -0.0204092172623669 0.782382240867828 0.473191365870208 0.206583611350853 0.0682874876225353 0.878095244117881 0.243090886254942 0.200821613852674 -0.150519476896299 0.636701249406183 0.288962064000961 0.209400295110322 -0.121462514415269 0.699386642417192
0.347315236468065 0.436577112700525 -0.508375904424964 1.20300637736109 0.670046325357182 0.377833029201533 -0.0705064118778227 1.41059906259219 0.862391892674078 0.320139248421486 0.234918965767965 1.48986481958019 0.395800280679889 0.291399600056093 -0.175342935430054 0.966943496789831 0.339432470064442 0.253255585769518 -0.156948478043812 0.835813418172697 0.425920532759268 0.224238997393966 -0.0135879021329048 0.86542896765144 0.455575199767381 0.218425744469627 0.0274607406069129 0.883689658927849 0.495296395140791 0.212678254295384 0.0784470167218391 0.912145773559743 0.513039746594343 0.210937838162059 0.099601583796707 0.926477909391979 0.444795902767961 0.210880439654252 0.0314702410456277 0.858121564490295
0.292690637656803 0.494777930561796 -0.677074106244317 1.26245538155792 0.275867851764171 0.357612676603632 -0.425052994378948 0.97678869790729 0.527919973226185 0.336587147531386 -0.131790835935332 1.1876307823877 0.458191104016246 0.321008733040499 -0.170986012743132 1.08736822077562 0.520378213456345 0.304144223602412 -0.0757444648043819 1.11650089171707 0.234860993762558 0.285210692041829 -0.324151962639427 0.793873950164543 0.322891238893585 0.268906087664888 -0.204164692929596 0.849947170716767 0.255251730385528 0.258264031605691 -0.250945771561625 0.761449232332682 0.372043816196696 0.258243056548161 -0.134112574637699 0.878200207031091 0.391953528805652 0.260489555400914 -0.11860599978014 0.902513057391444
-0.234791387150916 0.383585628109318 -0.986619218245179 0.517036443943347 0.111650262656509 0.337642897991304 -0.550129817406448 0.773430342719466 0.347489860976323 0.314195201921388 -0.268332734789598 0.963312456742243 0.214596386572615 0.307637649622207 -0.388373406686912 0.817566179832142 0.316776065909104 0.293367837719686 -0.258224896021481 0.891777027839689 0.476536957775241 0.29855760737993 -0.108635952689421 1.0617098682399 0.532227571197056 0.303810292014164 -0.0632406011507055 1.12769574354482 0.345470097829162 0.312752018834256 -0.267523859085981 0.958464054744305 0.459926104746297 0.303469885893602 -0.134874871605162 1.05472708109776 0.395016712046371 0.313723683547741 -0.219881707707203 1.00991513179994
0.422946668859211 0.424489863763253 -0.409053464116766 1.25494680183519 0.79525542425215 0.359372887819857 0.0908845641252304 1.49962628437907 0.447740937537341 0.321625130260184 -0.18264431777262 1.0781261928473 0.636584624099785 0.325583828429131 -0.00155967962131276 1.27472892782088 0.324424629378222 0.32441932277369 -0.31143724325821 0.960286502014655 0.353586231889545 0.304323971906152 -0.242888753046513 0.950061216825602 0.494393714663078 0.290279771133889 -0.0745546367593435 1.0633420660855 0.488588431129431 0.269925946673341 -0.0404664243503164 1.01764328660918 0.461238922710894 0.265922931488122 -0.0599700230058251 0.982447868427613 0.567891531473903 0.262398690141827 0.0535900987959225 1.08219296415188
-0.228447757299676 0.322602770287865 -0.860749187063891 0.403853672464538 0.100102674210395 0.309249620683695 -0.506026582329646 0.706231930750437 0.367668420285346 0.311487179808622 -0.242846452139552 0.978183292710244 0.141597766997083 0.311902292927973 -0.469730727141744 0.75292626113591 0.12326726490352 0.306700073590756 -0.477864879334362 0.724399409141402 0.0327591155909828 0.277206363364843 -0.510565356604109 0.576083587786075 -0.0356504283958371 0.26126473401175 -0.547729307058866 0.476428450267192 0.0606433335453157 0.25282371946935 -0.434891156614609 0.556177823705241 0.0546680480804128 0.249793913154922 -0.434928021703235 0.54426411786406 0.164725763078347 0.250887675093396 -0.327014080104709 0.656465606261403
-0.071818426146641 0.324934624417707 -0.708690290005346 0.565053437712064 0.208324807865801 0.281138673849615 -0.342706992879445 0.759356608611046 0.0395197360381258 0.238079422532959 -0.427115932126475 0.506155404202726 0.161441270971336 0.207036299760028 -0.24434987655832 0.567232418500992 0.357968233979517 0.20070865039763 -0.035420720799838 0.751357188758873 0.455622436409738 0.195165348162782 0.0730983540106853 0.838146518808792 0.460935447673621 0.199728815860305 0.0694669685874239 0.852403926759819 0.465892376431276 0.201294545390272 0.0713550674663428 0.86042968539621 0.434980845424971 0.200754906887204 0.041501227926051 0.82846046292389 0.525348770451829 0.199452750273914 0.134421379914958 0.916276160988699
0.510803137490775 0.411169855348205 -0.295089778991706 1.31669605397326 0.459047235386082 0.396236937026661 -0.317577161186173 1.23567163195834 -0.0104231680064121 0.33149054683107 -0.66014463979531 0.639298303782486 0.223477838787212 0.295814253404636 -0.356318097885875 0.803273775460298 0.301726496203314 0.287835166435534 -0.262430430010332 0.86588342241696 0.495403715213277 0.272719006563399 -0.0391255376509857 1.02993296807754 0.601539428680257 0.268303083045888 0.0756653859103164 1.1274134714502 0.422558397051672 0.264328395816554 -0.0955252587487747 0.940642052852118 0.297305071719391 0.263970239053409 -0.22007659682529 0.814686740264072 0.374290409044617 0.259904473278637 -0.135122358581511 0.883703176670745
-0.250746748419037 0.222906509057926 -0.687643506172572 0.186150009334498 0.0518521711885411 0.216221640096364 -0.371942243400331 0.475646585777414 0.243696447799183 0.211954848183943 -0.171735054641346 0.659127950239712 0.402660467805963 0.207354234563599 -0.00375383193869144 0.809074767550617 0.464614053508462 0.203401129327028 0.065947840027487 0.863280266989437 0.346412761015145 0.219809056510794 -0.0844129897460114 0.777238511776302 0.287983029647062 0.220520060372568 -0.144236288683172 0.720202347977296 0.396364598296249 0.217656797951354 -0.0302427256884052 0.822971922280904 0.45061179935384 0.219584082578087 0.0202269975007902 0.88099660120689 0.495592240244794 0.215189827518311 0.0738201783089047 0.917364302180684
0.999197745944425 0.635890235799531 -0.247147116222656 2.24554260811151 0.0981279073520991 0.433873054770356 -0.752263279997799 0.948519094701997 -0.314199988776058 0.341579455260476 -0.983695721086592 0.355295743534476 -0.168786677804582 0.25515041893649 -0.668881498920103 0.33130814331094 -0.0665688739421133 0.239980612547427 -0.53693087453507 0.403793126650843 0.0455331976147683 0.236397475639585 -0.417805854638818 0.508872249868354 0.129700762348205 0.237283566334363 -0.335375027667145 0.594776552363556 0.0222236974768273 0.230166456574981 -0.428902557410135 0.47334995236379 0.0151459652035841 0.234414915928264 -0.444307270015813 0.474599200422981 0.0995496785910651 0.235431844721013 -0.361896737062121 0.560996094244251
0.368277406393345 0.388336426193255 -0.392861988945435 1.12941680173212 0.66858676154258 0.396155796124034 -0.107878598860526 1.44505212194569 0.879303557654156 0.40026069248916 0.0947926003754027 1.66381451493291 0.68212487327994 0.372006439129421 -0.0470077474137262 1.41125749397361 0.47587076604473 0.335097749034563 -0.180920822063014 1.13266235415247 0.495587316484188 0.3139736279741 -0.119800994345047 1.11097562731342 0.506291484867593 0.296665043709986 -0.0751720008039801 1.08775497053917 0.251584355060596 0.283698090648602 -0.304463902610665 0.807632612731857 0.330766099343446 0.281864718548898 -0.221688749012394 0.883220947699286 0.284168063044559 0.272671840319286 -0.250268743981242 0.81860487007036
-0.379296753277939 0.682084416062857 -1.71618220876114 0.957588702205261 -0.0131763272189058 0.370873020059473 -0.740087446535473 0.713734792097661 0.318185515490992 0.348686387916842 -0.365239804826018 1.001610835808 0.510895344160602 0.36774061506361 -0.209876261364073 1.23166694968528 0.447088386403041 0.355564928036304 -0.249818872548114 1.1439956453542 -0.136425280590492 0.329838990016501 -0.782909701022834 0.51005913984185 -0.123478721294953 0.288606993538348 -0.689148428630114 0.442190986040209 0.00457609393021863 0.265733002430798 -0.516260590834146 0.525412778694583 0.070620961172621 0.254578711123148 -0.428353312628748 0.56959523497399 0.16709272342092 0.252490278366385 -0.327788222177194 0.661973669019035
0.511755509868137 0.376226300783766 -0.225648039668044 1.24915905940432 0.729883200498792 0.346553481263002 0.0506383772233073 1.40912802377428 0.700659583801336 0.346546543130813 0.021428359264942 1.37989080833773 0.413747116136529 0.352361027823519 -0.276880498397569 1.10437473067063 0.467453620508161 0.33268894886956 -0.184616719276177 1.1195239602925 0.212336260201891 0.299995202425539 -0.375654336552166 0.800326856955948 0.330052985901441 0.274916331364466 -0.208783023572912 0.868888995375794 0.260072775298193 0.252287693324592 -0.234411103618007 0.754556654214394 0.359462275311471 0.24611070399062 -0.122914704510143 0.841839255133085 0.318144830935694 0.23474776994311 -0.141960798152801 0.778250460024189
0.169225126093441 0.396338296222987 -0.607597934503614 0.946048186690497 -0.230516294601417 0.30185932696667 -0.82216057545609 0.361127986253257 -0.00822356062447782 0.262915300757104 -0.523537550108401 0.507090428859445 0.16195050113675 0.239587687237954 -0.30764136584964 0.63154236812314 0.314625523809585 0.220543847531028 -0.117640417351231 0.7468914649704 0.284520455978317 0.210349587799873 -0.127764736109433 0.696805648066068 0.404760269343303 0.208130300458893 -0.00317511955612737 0.812695658242734 0.407629612509086 0.214495306758186 -0.0127811887369582 0.82804041375513 0.523233360723435 0.220810385270188 0.0904450055938655 0.956021715853004 0.504041333672572 0.223747233610955 0.0654967557951003 0.942585911550044
0.845384400527106 0.562555443319422 -0.257224268378962 1.94799306943317 0.34051073210471 0.457815905619605 -0.556808442909715 1.23782990711914 0.629509269937335 0.397380463310269 -0.149356438150792 1.40837497802546 -0.118830351922778 0.325769352111886 -0.757338282062074 0.519677578216519 -0.0195771303799208 0.271610245709003 -0.551933211969566 0.512778951209724 0.0933421168651034 0.241459378137653 -0.379918264284696 0.566602498014903 0.0733567801274422 0.236144855019295 -0.389487135710376 0.53620069596526 0.157352239433453 0.239420512170112 -0.311911964419966 0.626616443286872 -0.0852710031412651 0.23191111250155 -0.539816783644303 0.369274777361773 0.0288770027050662 0.218316911217047 -0.399024143280346 0.456778148690478
-0.274746446590485 0.214789004969812 -0.695732896331317 0.146240003150348 0.00605974889411698 0.21445042804524 -0.414263090074554 0.426382587862788 0.161640345622526 0.21528389138842 -0.260316081498776 0.583596772743829 0.340684795570653 0.213204260758032 -0.0771955555150897 0.758565146656397 0.560428448303748 0.200958041953015 0.166550686075838 0.954306210531658 0.612241304922102 0.212857580178406 0.195040447772427 1.02944216207178 0.557523370722956 0.213904810226044 0.13826994267991 0.976776798766001 0.430031898091194 0.209608410453426 0.0191994136024792 0.84086438257991 0.47934500730255 0.213294855917349 0.0612870897045457 0.897402924900555 0.433055231229539 0.218742364597074 0.00432019661927535 0.861790265839804
0.43012539284071 0.359414993663256 -0.274327994739271 1.13457878042069 0.640541801051322 0.317615073906829 0.0180162561939378 1.26306734590871 0.505362250690194 0.318372532399082 -0.118647912812006 1.12937241419239 0.627204826786306 0.316945580854048 0.00599148831237206 1.24841816526024 0.746182462101101 0.312122840882473 0.134421693971453 1.35794323023075 0.729713042487745 0.334879308132604 0.0733495985478415 1.38607648642765 0.768058307810769 0.355628749721948 0.0710259583557517 1.46509065726579 0.54245091375622 0.378944228428322 -0.200279773963292 1.28518160147573 0.441677613705135 0.363663950638768 -0.271103729546849 1.15445895695712 0.407280491378145 0.353069229053876 -0.284735197567451 1.09929618032374
-0.065717302283653 0.253216064179389 -0.562020788075256 0.43058618350795 0.171646309122672 0.241797209393656 -0.302276221288894 0.645568839534239 0.360841576329801 0.232141869031114 -0.0941564869711817 0.815839639630784 0.59825833931653 0.22816110152223 0.15106258033296 1.0454540983001 0.516553776053097 0.226665677786588 0.072289047591384 0.96081850451481 0.548611696403104 0.254122079753343 0.0505324200865521 1.04669097271966 0.404623270936883 0.273018978508167 -0.130493926939125 0.939740468812891 0.382591346820925 0.263748698367049 -0.134356101978491 0.899538795620341 0.291749602518639 0.251899902590949 -0.20197420655962 0.785473411596899 0.287437810921437 0.227301318981486 -0.158072774282275 0.732948396125149
-0.0470143229448834 0.324003808466393 -0.682061787539014 0.588033141649248 0.254386995011745 0.311403644154486 -0.355964147531048 0.864738137554538 0.155478097441228 0.273188633918471 -0.379971625038975 0.690927819921431 0.129190239876995 0.241382057496756 -0.343918592816647 0.602299072570638 0.241907104274829 0.222362190821118 -0.193922789734562 0.67773699828422 0.369641580442419 0.217382407961114 -0.0564279391613635 0.795711100046202 0.517648255841957 0.225910257400431 0.0748641513371121 0.960432360346801 0.522093258249737 0.222853957976642 0.0852995006155188 0.958887015883955 0.464148390116433 0.224990780995619 0.0231664593650194 0.905130320867847 0.373547294709661 0.228170968625058 -0.0736678037954526 0.820762393214775
-0.0768331573768588 0.404301721407618 -0.869264531335791 0.715598216582073 0.237474070418809 0.399312304544368 -0.545178046488152 1.02012618732577 0.460636683309584 0.384690666145384 -0.293357022335369 1.21463038895454 0.293185519947968 0.365077250436463 -0.4223658909075 1.00873693080344 0.090573500607749 0.324365219979159 -0.545182330551403 0.726329331766902 0.0471398549077626 0.286022234602822 -0.513463724913769 0.607743434729294 -0.0940892446102242 0.269225089994336 -0.621770420999123 0.433591931778675 -0.0423638962371924 0.264641042686548 -0.561060339902826 0.476332547428441 0.0443418068704413 0.256551692721807 -0.4584995108643 0.547183124605182 0.114766116370316 0.248859546334087 -0.372998594444494 0.602530827185127
-0.769728306594951 0.547957320567991 -1.84372465490821 0.304268041718312 -0.480997240519183 0.221972833235684 -0.916063993661124 -0.0459304873772429 -0.29212467473138 0.210171390830974 -0.704060600760089 0.119811251297329 -0.118776202859172 0.192829834022476 -0.496722677543225 0.259170271824881 -0.190777182225545 0.194412790640211 -0.571826251880358 0.190271887429269 -0.10870019343644 0.203219177032377 -0.507009780419898 0.289609393547018 0.00631215528199724 0.207858434543415 -0.401090376423096 0.413714686987091 0.0789077248790198 0.209832451867652 -0.332363880781579 0.490179330539619 0.130094883429134 0.205124621691675 -0.271949375086548 0.532139141944817 0.191818591523923 0.204831171732655 -0.209650505072081 0.593287688119927
-0.43155273148937 0.529559452179154 -1.46948925776051 0.606383794781772 -0.04001887500599 0.25982395191889 -0.549273820767015 0.469236070755035 0.124969179479822 0.245369441061607 -0.355954925000928 0.605893283960571 0.286208683332931 0.232554758521226 -0.169598643368672 0.742016010034533 0.316014072913812 0.225748754327384 -0.126453485567862 0.758481631395485 0.443491773608903 0.216573885595892 0.0190069578409539 0.867976589376852 0.39879728510509 0.214600039793884 -0.0218187928909224 0.819413363101102 0.460551961211455 0.210800382094401 0.0473832123064294 0.873720710116481 0.483984239610934 0.220691260709496 0.0514293686203214 0.916539110601546 0.520620344439594 0.227712284692995 0.0743042664413236 0.966936422437864
-0.0294750172497963 0.271655150522583 -0.561919112274059 0.502969077774466 0.225527742666831 0.265490423128212 -0.294833486664464 0.745888971998126 0.514092728032721 0.244871005410602 0.0341455574279424 0.994039898637501 0.641656717903754 0.225214101456109 0.200237079049781 1.08307635675773 0.541163810104629 0.233246213971762 0.0840012307199767 0.998326389489282 0.459699043069381 0.257017996948807 -0.0440562309502811 0.963454317089042 0.570709585456424 0.270951082549474 0.0396454636594548 1.10177370725339 0.448649394801051 0.274094911175895 -0.088576631103703 0.985875420705805 0.199705009355398 0.271769041019711 -0.332962311043236 0.732372329754032 0.116533851706569 0.250235247449443 -0.373927233294339 0.606994936707476
0.539213309682821 0.499843840999499 -0.440480618676197 1.51890723804184 0.113797635347876 0.337161058731442 -0.547038039765751 0.774633310461503 0.354808920661984 0.320175814922805 -0.272735676586713 0.982353517910681 0.590977310885324 0.28818149140914 0.0261415877234106 1.15581303404724 0.444698622306017 0.267343061909373 -0.0792937790363538 0.968691023648388 0.487552494438969 0.253655216893786 -0.00961173067285137 0.98471671955079 0.6055692976586 0.262657005250378 0.0907615673678583 1.12037702794934 0.579417254442743 0.278452259219157 0.0336508263731954 1.12518368251229 0.380054393861039 0.277192148746274 -0.163242217681657 0.923351005403735 0.184898772772692 0.26638022950744 -0.337206477061891 0.707004022607275
0.577748840013255 0.641211685856863 -0.679026064266196 1.83452374429271 0.202343379798596 0.523148811984912 -0.823028291691831 1.22771505128902 -0.135725788877644 0.330057745840186 -0.782638970724409 0.511187392969121 0.0852060608613814 0.279049128030592 -0.461730230078578 0.632142351801341 0.275385122907081 0.257844515731962 -0.229990127927566 0.780760373741727 0.423296584974486 0.242516836103538 -0.0520364137884499 0.898629583737421 0.402032119517169 0.242196622990485 -0.0726732615441815 0.876737500578519 0.474072715231638 0.233031831856225 0.0173303247934378 0.930815105669838 0.536882158708661 0.226002206559039 0.0939178338529438 0.979846483564377 0.675131692411288 0.229875517626385 0.224575677863572 1.125687706959
-0.148182600607435 0.391913886821243 -0.916333818777071 0.6199686175622 0.233092816110092 0.311296163398432 -0.377047664150834 0.843233296371018 0.435990654033673 0.293979435109172 -0.140209038780305 1.01219034684765 0.351533994043963 0.288295694054333 -0.213525566302529 0.916593554390455 0.455644595765179 0.275928356271861 -0.0851749825276679 0.996464174058026 0.58354121248291 0.271599268035084 0.0512066471341448 1.11587577783167 0.489880733598722 0.272016510166174 -0.0432716263269788 1.02303309352442 0.359341613874138 0.273643167687008 -0.176998994792397 0.895682222540673 0.245706756309561 0.277653188437305 -0.298493493027557 0.789907005646678 0.273959886325895 0.27157656674995 -0.258330184504006 0.806249957155796
0.219885904893959 0.320219507146201 -0.407744329112595 0.847516138900513 0.589724059834719 0.30433826720825 -0.00677894389345091 1.18622706356289 0.416577090346219 0.291347309352536 -0.154463635984752 0.98761781667719 0.474204682659909 0.279681451418509 -0.0739709621203689 1.02238032744019 0.584041781490873 0.283698039571256 0.027993623931211 1.14008993905054 0.684912527399439 0.287585140184287 0.121245652638237 1.24857940216064 0.421215912135125 0.293578100405286 -0.154197164659235 0.996628988929486 0.526975908931363 0.29415200904227 -0.0495620287914865 1.10351384665421 0.326140193237855 0.275427993002332 -0.213698673046715 0.865979059522426 0.456426243327078 0.266556931479316 -0.0660253423723818 0.978877829026537
0.0204362783078212 0.650271064668857 -1.25409500844314 1.29496756505878 0.339085242163418 0.410378118087141 -0.465255869287379 1.14342635361421 -0.29206122662916 0.296573231152716 -0.873344759688482 0.289222306430163 -0.174635135422987 0.264858420779002 -0.69375764014983 0.344487369303856 -0.0273891569920369 0.256291933977489 -0.529721347587916 0.474943033603842 0.0372012541062262 0.259363533660528 -0.471151271868409 0.545553780080861 0.0862418660033316 0.256973408491681 -0.417426014640363 0.589909746647026 0.245221900804326 0.245589722331637 -0.236133954965681 0.726577756574334 0.337257851394432 0.236518891000773 -0.126319174967084 0.800834877755947 0.212484072128905 0.23471087609287 -0.247549245013121 0.672517389270931
-0.0772950854313601 0.334551318188136 -0.733015669080107 0.578425498217387 0.206126955530146 0.335837835048709 -0.452115201165322 0.864369112225615 0.464767252824659 0.331038162869447 -0.184067546399457 1.11360205204878 0.58790875583417 0.312208757150163 -0.0240204081801485 1.19983791984849 0.478197893276124 0.313946471742442 -0.137137191339062 1.09353297789131 0.144456793164813 0.296492967466678 -0.436669423069875 0.725583009399502 0.303075084624003 0.283138232884383 -0.251875851829388 0.858026021077394 0.186869931372345 0.26567436059488 -0.33385181539362 0.707591678138309 0.255881275015724 0.254637797171104 -0.243208807439641 0.754971357471088 0.270467003815037 0.251186856698899 -0.221859235314804 0.762793242944879
-0.109274117261923 0.374428022993933 -0.843153042330033 0.624604807806186 0.224148303544672 0.3582000063164 -0.477923708835472 0.926220315924815 0.478894856304255 0.337304492074008 -0.182221948160801 1.14001166076931 0.697389472714343 0.308117133405288 0.0934798912399777 1.30129905418871 0.386557398603866 0.309864404857288 -0.220776834916419 0.99389163212415 0.346898321630461 0.313667447751153 -0.2678898759618 0.961686519222722 0.436906393739263 0.316652868619861 -0.183733228755665 1.05754601623419 0.095949248651235 0.293960328419045 -0.480212995050093 0.672111492352563 0.195144791558329 0.270991056423148 -0.335997679031041 0.7262872621477 0.035425099220582 0.245654980896257 -0.446058663336082 0.516908861777246
0.029288514795635 0.464322879623602 -0.880784329266624 0.939361358857894 -0.174709023829798 0.384039696518809 -0.927426829006664 0.578008781347067 0.0548023975918462 0.336889088533812 -0.605500215934426 0.715105011118119 0.0160837745076721 0.318275587296254 -0.607736376592985 0.63990392560833 -0.0521685602286868 0.30915160349977 -0.658105703088236 0.553768582630863 0.0768559920284766 0.303823788246868 -0.518638632935384 0.672350616992338 -0.120768553027562 0.309436430266139 -0.727263956349194 0.485726850294069 -0.176000487304735 0.288896336028463 -0.742237305920522 0.390236331311052 -0.115389679986958 0.276338944975233 -0.657014012138415 0.426234652164499 -0.213113698193157 0.260559559675981 -0.72381043515808 0.297583038771766
-0.0738984328892625 0.283431787017669 -0.629424735443894 0.481627869665369 -0.153241844223961 0.285159071957096 -0.712153625259869 0.405669936811947 0.0363747020531393 0.297614739882457 -0.546950188116476 0.619699592222755 0.232619190785854 0.296382538977903 -0.348290585610837 0.813528967182544 0.44187549779222 0.279069018095027 -0.105099777674033 0.988850773258474 0.418536414953236 0.279025881843664 -0.128354313460346 0.965427143366817 0.496654808825184 0.275059036358958 -0.0424609024383742 1.03577052008874 0.405654157607937 0.279702791562536 -0.142563313854634 0.953871629070507 0.441364105471649 0.296548841867576 -0.139871624588799 1.0225998355321 0.199692939790284 0.280414823116083 -0.349920113517239 0.749305993097808
0.769694245685732 0.596301779904609 -0.399057242927302 1.93844573429877 0.170115208892569 0.378043394613223 -0.570849844549347 0.911080262334486 0.375500838431178 0.319194754997239 -0.250120881363411 1.00112255822577 0.504914393569315 0.299118671679417 -0.0813582029223433 1.09118699006097 0.315714789974841 0.286787049529299 -0.246387827102584 0.877817407052266 0.224810568427443 0.289935572229114 -0.343463153141621 0.793084289996507 0.216854412881517 0.296364986905129 -0.364020961452536 0.79772978721557 0.137901182518186 0.290649096500901 -0.431771046623579 0.707573411659952 0.250976934652864 0.288944297417766 -0.315353888285957 0.817307757591685 0.393938674710425 0.292933993508967 -0.18021195256715 0.968089301988
-0.00131932652302691 0.39747206903417 -0.780364581830001 0.777725928783947 0.285345974693645 0.295400905777226 -0.293639800629719 0.864331750017009 0.432659094961684 0.298146842018164 -0.151708715393918 1.01702690531729 0.618294300874443 0.288988383309822 0.0518770695871925 1.18471153216169 0.779595076681031 0.265619093061639 0.258981654280219 1.30020849908184 0.652727668141051 0.251486288491732 0.159814542697257 1.14564079358485 0.627623846698279 0.241866213846159 0.153566067559808 1.10168162583675 0.729328127633861 0.235236476801809 0.268264633102315 1.19039162216541 0.811160370213648 0.244385508800596 0.33216477296448 1.29015596746282 0.6059968231225 0.245425713368801 0.12496242491965 1.08703122132535
0.285568972057311 0.374680398477917 -0.448804608959407 1.01994255307403 0.649346380552942 0.318054885007246 0.0259588059387394 1.27273395516714 0.546261064091171 0.300682160303994 -0.0430759701046562 1.135598098287 0.675848592138325 0.30069003505512 0.0864961234302908 1.26520106084636 0.632225706623057 0.308369903229816 0.0278206962926186 1.2366307169535 0.535181734118888 0.309452169679057 -0.0713445184520635 1.14170798668984 0.32637702305032 0.313868543008602 -0.288805321246539 0.941559367347179 0.474329934948556 0.286507777573296 -0.0872253090951043 1.03588517899222 0.57366375821849 0.276505741121758 0.0317125056198437 1.11561501081714 0.358628008895219 0.271519314080474 -0.173549846702511 0.890805864492949
-0.162505491779275 0.410465685825911 -0.967018235998061 0.642007252439511 0.140908417640189 0.377738313121854 -0.599458676078646 0.881275511359023 -0.018561954644277 0.351365142573789 -0.707237634088903 0.670113724800349 -0.125226719305534 0.291178216625757 -0.695936023892018 0.44548258528095 -0.343695526245176 0.271889496852848 -0.876598940076757 0.189207887586406 -0.120494040134367 0.261081376525752 -0.63221353812484 0.391225457856106 -0.0596276627948765 0.252584200120734 -0.554692695031514 0.435437369441761 0.0217476616887863 0.257755250666208 -0.483452629616981 0.526947952994553 0.128217585892468 0.252081739668437 -0.365862623857668 0.622297795642605 0.140269633904287 0.252792504229038 -0.355203674384627 0.635742942193201
-0.682212800436085 0.334177297543484 -1.33720030362131 -0.0272252972508564 -0.313629697118174 0.27877481882574 -0.860028342016624 0.232768947780275 -0.264269293715716 0.271612530602244 -0.796629853696115 0.268091266264683 -0.0765460156565507 0.26293094743198 -0.591890672623231 0.438798641310129 0.0419385615005139 0.246518586150167 -0.441237867353814 0.525114990354842 0.142693869508956 0.230984311284113 -0.310035380607906 0.595423119625818 -0.0787821079503295 0.228468028474899 -0.526579443761131 0.369015227860472 0.00215156261659666 0.224926526788526 -0.438704429888915 0.443007555122108 0.0957155339609378 0.226007399110705 -0.347258968296045 0.53869003621792 -0.249067595254047 0.217881356220193 -0.676115053445625 0.177979862937531
-0.351821150558574 0.311800998323804 -0.96295110727323 0.259308806156081 0.000118166124145613 0.269120063813505 -0.527357158950324 0.527593491198616 0.194867903518086 0.252457889865748 -0.299949560618781 0.689685367654952 0.23897344328087 0.229790587867565 -0.211416108939557 0.689362995501297 0.226832850942679 0.229124608136482 -0.222251381004826 0.675917082890185 0.328328942880159 0.232159831774685 -0.126704327398224 0.783362213158541 0.285271243964404 0.243270269663829 -0.191538484576702 0.76208097250551 0.388788943597247 0.242105089354214 -0.0857370315370125 0.863314918731506 0.466024787091968 0.237874751409928 -0.000209725671491745 0.932259299855427 0.424877115169962 0.242517906758004 -0.0504579820757252 0.900212212415649
0.682231811376596 0.453918559864985 -0.207448565958775 1.57191218871197 0.959294224019696 0.42504635536276 0.126203367508687 1.79238508053071 0.288474749480026 0.400341643827368 -0.496194872421615 1.07314437138167 0.449754013432016 0.355618220770299 -0.24725769927777 1.1467657261418 0.306599764580778 0.337152646205193 -0.354219421981401 0.967418951142957 0.391954234542981 0.318098536281837 -0.231518896569419 1.01542736565538 -0.13916302103694 0.287159664254591 -0.701995962975938 0.423669920902057 -0.0718947525709018 0.269054836861653 -0.599242232819741 0.455452727677938 0.0855059144748592 0.23727185559833 -0.379546922497867 0.550558751447585 -0.0689684581938168 0.237684781669988 -0.534830630266994 0.39689371387936
0.421046102503194 0.405657454329958 -0.374042507983524 1.21613471298991 0.29624185669764 0.330473495135846 -0.351486193768617 0.943969907163897 0.246271933155951 0.340059409576988 -0.420244509614947 0.912788375926848 -0.0610623246980873 0.341105792973662 -0.729629678926465 0.60750502953029 -0.220712570268747 0.304381646589482 -0.817300597584131 0.375875457046637 -0.140505166596843 0.284432170938756 -0.697992221636805 0.41698188844312 -0.412228166280657 0.26532782059209 -0.932270694641155 0.10781436207984 -0.301360933160777 0.264500402756028 -0.819781722562592 0.217059856241038 -0.208689551882194 0.259001043472752 -0.716331597088787 0.2989524933244 -0.127288874569604 0.250927983329029 -0.6191077218945 0.364529972755292
