estimate0.01 std0.01 lowerCI0.01 upperCI0.01 estimate0.02 std0.02 lowerCI0.02 upperCI0.02 estimate0.03 std0.03 lowerCI0.03 upperCI0.03 estimate0.04 std0.04 lowerCI0.04 upperCI0.04 estimate0.05 std0.05 lowerCI0.05 upperCI0.05 estimate0.06 std0.06 lowerCI0.06 upperCI0.06 estimate0.07 std0.07 lowerCI0.07 upperCI0.07 estimate0.08 std0.08 lowerCI0.08 upperCI0.08 estimate0.09 std0.09 lowerCI0.09 upperCI0.09 estimate0.1 std0.1 lowerCI0.1 upperCI0.1
0.253989307162192 0.319818120190832 -0.372854208411839 0.880832822736223 0.0167990624335637 0.247049714942558 -0.46741837885385 0.501016503720977 0.236159228966988 0.208010173031499 -0.171540710174749 0.643859168108726 0.317566576654133 0.183181574680042 -0.0414693097187483 0.676602463027015 0.37491135793543 0.169505693780332 0.0426801981259799 0.707142517744881 0.350319836072767 0.163928872662079 0.0290192456550931 0.671620426490441 0.376589139903425 0.168378143777702 0.0465679780991291 0.706610301707721 0.387576232819157 0.174907922956908 0.0447567038236171 0.730395761814697 0.322942927826534 0.178053772400997 -0.0260424660794207 0.671928321732489 0.271847647464666 0.180242108727588 -0.0814268856414057 0.625122180570737
0.101267138511411 0.405467642574765 -0.693449440935128 0.895983717957949 -0.116450359163488 0.255957247095542 -0.61812656347075 0.385225845143774 0.02376672844507 0.223004609366628 -0.41332230591352 0.46085576280366 0.0676074719239201 0.215739088936115 -0.355241142390866 0.490456086238706 0.142698615723077 0.213449187753346 -0.27566179227348 0.561059023719635 0.167729899491671 0.21273714093847 -0.249234896747731 0.584694695731073 0.161133452734524 0.213602799499221 -0.257528034283948 0.579794939752997 0.19700689516432 0.216108846586869 -0.226566444145944 0.620580234474584 0.233353333703267 0.21794044130703 -0.193809931258512 0.660516598665047 0.26067739491327 0.217559310032805 -0.165738852751029 0.687093642577568
0.144804556674466 0.348635677975246 -0.538521372157015 0.828130485505948 0.40626280189252 0.317800019501525 -0.216625236330469 1.02915084011551 0.587584907027343 0.315592769479331 -0.0309769211521455 1.20614673520683 0.348006555616505 0.294365921943369 -0.228950651392498 0.924963762625507 0.479469821919334 0.263141441583176 -0.0362874035836915 0.99522704742236 0.261921870815374 0.241514710621923 -0.211446962003595 0.735290703634342 0.322814609766621 0.21009037542618 -0.0889625260686905 0.734591745601933 0.385588452930293 0.204873786592918 -0.0159641687918259 0.787141074652411 0.334615484580044 0.19767088869415 -0.0528194572604903 0.722050426420579 0.34622686133546 0.199472273947787 -0.0447387956022017 0.737192518273122
-0.260273147838234 0.332295332444246 -0.911571999428956 0.391025703752489 -0.103552956639573 0.298418379209868 -0.688452979890914 0.481347066611769 -0.377915425770973 0.270390337222887 -0.907880486727831 0.152049635185886 -0.461548802050956 0.232782595595905 -0.91780268941893 -0.00529491468298166 -0.379247088245647 0.196298153101995 -0.763991468325557 0.00549729183426245 -0.320898559508776 0.188087787156056 -0.689550622334646 0.0477535033170945 -0.36144526494598 0.177391468303935 -0.709132542821693 -0.0137579870702673 -0.339403836103106 0.176283662720658 -0.684919815035597 0.0061121428293841 -0.323596923196875 0.179193630668854 -0.674816439307829 0.0276225929140795 -0.302809221659663 0.178421323604587 -0.652515015924653 0.0468965726053275
3.31942194766732e-05 0.280161524271801 -0.549083393353253 0.549149781792206 0.297439641845 0.236583722010005 -0.166264453294611 0.76114373698461 0.248060520543063 0.244294662273605 -0.230757017513203 0.726878058599329 0.445403148328507 0.240533833189781 -0.026043164723463 0.916849461380477 0.480066162544662 0.232844196853476 0.023691536711849 0.936440788377474 0.412202802397728 0.236544354814734 -0.0514241330391498 0.875829737834606 0.321735859846636 0.243101214417475 -0.154742520411616 0.798214240104887 0.385295656211805 0.245014897824583 -0.0949335435243774 0.865524855947986 0.441760031149872 0.243669738568534 -0.0358326564444554 0.919352718744199 0.493438684639612 0.249254195837393 0.00490046079832152 0.981976908480903
0.100837914814011 0.433082848794136 -0.748004468822496 0.949680298450518 -0.132982406629059 0.364542548480484 -0.847485801650808 0.58152098839269 0.190032158750838 0.30446703247583 -0.40672322490179 0.786787542403465 0.126112018525871 0.285920505223769 -0.434292171712716 0.686516208764457 0.217288900446734 0.269701916928463 -0.311326856733055 0.745904657626522 -0.039897349763178 0.241801751577818 -0.513828782855701 0.434034083329345 0.0120033374093282 0.213209818848263 -0.405887907533267 0.429894582351923 0.110941043419682 0.196290323847394 -0.273787991321211 0.495670078160575 0.123892882230011 0.18569462208849 -0.24006857706343 0.487854341523451 0.105316346084135 0.18404147157952 -0.255404938211725 0.466037630379994
0.783320390194453 0.46247458537369 -0.123129797137979 1.68977057752689 0.304725368003927 0.293900227392897 -0.27131907768615 0.880769813694005 0.34046179959774 0.27266992300097 -0.19397124948416 0.874894848679641 0.404197687755795 0.256650591092655 -0.0988374707858092 0.907232846297399 0.256233756724862 0.265474154602962 -0.264095586296943 0.776563099746667 0.34509906120955 0.250527431669366 -0.145934704862408 0.836132827281508 0.195017217988113 0.246856238343296 -0.288821009164747 0.678855445140973 0.245986979657621 0.243790322441705 -0.231842052328119 0.723816011643362 0.201797399802276 0.240847412312878 -0.270263528330964 0.673858327935516 0.14959043531048 0.23357416264552 -0.308214923474739 0.607395794095698
-0.316779713204905 0.208979084251032 -0.726378718336927 0.0928192919271163 -0.060706148083431 0.206496571887192 -0.465439428982326 0.344027132815464 0.128904671760822 0.198588467267559 -0.260328724083595 0.518138067605238 0.199274245835509 0.19496846812856 -0.182863951696468 0.581412443367486 0.259530174956754 0.192403117671844 -0.117579935680059 0.636640285593568 0.181114283040404 0.205647693972138 -0.221955197144986 0.584183763225794 0.147612901599312 0.209071048846588 -0.26216635414 0.557392157338624 0.218938556467898 0.209876395415019 -0.192419178545539 0.630296291481336 0.253197817668241 0.203846052769735 -0.146340445760441 0.652736081096922 0.303071524996018 0.204877433048224 -0.0984882437785007 0.704631293770536
-0.0413537993326438 0.27987330580553 -0.589905478711482 0.507197880046194 0.192838058974239 0.258608651996947 -0.314034898939778 0.699711016888256 0.255018765908409 0.245329006172118 -0.225826086188944 0.735863618005761 0.278233630461715 0.234823963248214 -0.182021337504784 0.738488598428215 0.317686152736579 0.216024698429562 -0.105722256185363 0.741094561658521 0.370048809276218 0.198214090585388 -0.0184508082711421 0.758548426823579 0.0777775121299418 0.184718470239633 -0.28427068953974 0.439825713799623 0.130043927553462 0.177035039228234 -0.216944749333876 0.4770326044408 0.201232595784638 0.176651657577316 -0.145004653066902 0.547469844636178 0.311229864495438 0.183264971572916 -0.0479694797874774 0.670429208778353
-0.135234167166287 0.261827948369608 -0.648416945970719 0.377948611638144 0.0940854687268353 0.248771830818179 -0.393507319676795 0.581678257130466 0.0298666114342075 0.2340499306646 -0.428871252668408 0.488604475536823 0.144198765805277 0.219262697922203 -0.28555612212224 0.573953653732794 0.13350275768011 0.209533911900732 -0.277183709645325 0.544189225005545 0.214276652894427 0.202078868486299 -0.181797929338719 0.610351235127574 0.279728078593408 0.199779439622104 -0.111839623065916 0.671295780252732 0.248386997873808 0.198326655779114 -0.140333247453255 0.637107243200871 0.26641764732434 0.1927947442365 -0.1114600513792 0.64429534602788 0.237440315758838 0.187680171828614 -0.130412821025246 0.605293452542922
0.601965582292662 0.393229671542056 -0.168764573929768 1.37269573851509 0.823302986653587 0.370790977499252 0.096552670755054 1.55005330255212 1.06656077002948 0.337557449618292 0.404948168777628 1.72817337128133 1.10973998904768 0.326808280712183 0.469195758851799 1.75028421924356 0.790791378692579 0.294871804372988 0.212842642121522 1.36874011526364 0.826302869848352 0.277895920407441 0.281626865849768 1.37097887384694 0.766439245602981 0.27098815825702 0.235302455419222 1.29757603578674 0.774935080731475 0.273928253919062 0.238035703050114 1.31183445841284 0.588452562728299 0.27145487670214 0.0564010043921047 1.12050412106449 0.609855021663818 0.261583320412429 0.0971517136554564 1.12255832967218
0.341261858830537 0.320589537451202 -0.287093634573818 0.969617352234893 0.554121360545904 0.274428211125899 0.0162420667391414 1.09200065435267 0.657930624944628 0.239290403176688 0.18892143471832 1.12693981517094 0.570748662263705 0.212641012555016 0.153972277655873 0.987525046871537 0.587868803919763 0.195782748373513 0.204134617107678 0.971602990731849 0.589491461497553 0.187014356672838 0.22294332241879 0.956039600576315 0.565818870421237 0.183439970575538 0.206276528093182 0.925361212749291 0.564958899745583 0.180609440825271 0.210964395728053 0.918953403763114 0.563360408047223 0.184999543256422 0.200761303264635 0.92595951282981 0.539388020809264 0.186312911476042 0.174214714316221 0.904561327302307
-0.11000211657159 0.362097458618141 -0.819713135463145 0.599708902319966 0.0911464683037383 0.327927172588468 -0.551590789969658 0.733883726577135 0.221901595569236 0.295784081290253 -0.357835203759659 0.801638394898131 0.125417459778545 0.253986359803397 -0.372395805436113 0.623230724993203 0.0120065724416865 0.2278630644181 -0.43460503381779 0.458618178701163 -0.0663224090652659 0.216872420254607 -0.491392352764295 0.358747534633763 0.0311438951316394 0.210594890333458 -0.381622089921937 0.443909880185216 0.0943455134937935 0.201037287707088 -0.299687570412099 0.488378597399686 0.144098956812904 0.197799445400758 -0.243587956172581 0.531785869798388 0.164280101822533 0.198040517517961 -0.223879312512671 0.552439516157737
0.57897781321177 0.526011084327532 -0.452003912070192 1.60995953849373 0.295652543584537 0.404615248731244 -0.497393343928701 1.08869843109778 0.452259408262935 0.363919149427239 -0.261022124614454 1.16554094114032 0.538768348167856 0.377194704268126 -0.200533272197671 1.27806996853338 0.246718873308816 0.354327063832508 -0.4477621718029 0.941199918420533 0.118899003861956 0.346408768028884 -0.560062181474656 0.797860189198569 0.0692241462931629 0.3114560062425 -0.541229625942136 0.679677918528462 0.187110408469841 0.298715494954146 -0.398371961640286 0.772592778579968 0.227208292166727 0.285065142015956 -0.331519386184545 0.785935970518 -0.0538119099769703 0.257271093984679 -0.558063254186942 0.450439434233001
0.456487611378634 0.415017813402172 -0.356947302889623 1.26992252564689 0.0670233234837503 0.265531169362919 -0.453417768467571 0.587464415435071 0.259274525524338 0.247034294209743 -0.224912691126758 0.743461742175434 0.389069943319735 0.223517526248917 -0.0490244081281411 0.827164294767612 0.419048874332768 0.225966331995447 -0.0238451363783075 0.861942885043844 0.234764734943335 0.212610408437583 -0.181951665594328 0.651481135480998 0.226152110402126 0.204765088319491 -0.175187462704076 0.627491683508328 0.258239009770062 0.196284613730035 -0.126478833140808 0.642956852680931 0.211533061848735 0.20169920737617 -0.183797384608558 0.606863508306028 0.147208335225607 0.197382836641521 -0.239662024591775 0.534078695042988
1.04166465246874 0.447266613141929 0.165022090710555 1.91830721422692 1.28535005066975 0.396700744424106 0.507816591598499 2.06288350974099 1.14819156482159 0.349366186197979 0.463433839873548 1.83294928976962 1.08552978217184 0.31767672943684 0.462883392475636 1.70817617186805 0.842632175323469 0.271273590795102 0.31093593736507 1.37432841328187 0.88517625327373 0.249306822785722 0.396534880613716 1.37381762593374 0.741592084023587 0.213788064067601 0.322567478451089 1.16061668959608 0.742413964961733 0.217166094752301 0.316768419247223 1.16805951067624 0.72526086378378 0.20471667682653 0.324016177203781 1.12650555036378 0.744253281508048 0.199055240863731 0.354105009415136 1.13440155360096
1.53704384096319 0.606103198179195 0.349081572531973 2.72500610939442 1.05684878895684 0.565361304790243 -0.0512593684320335 2.16495694634572 0.617107248890236 0.506206224708512 -0.375056951538448 1.60927144931892 0.685113656322303 0.412826278782564 -0.124025850091523 1.49425316273613 0.753505993070626 0.358586572464162 0.0506763110408674 1.45633567510038 0.197584503748384 0.324999516371268 -0.439414548339302 0.83458355583607 0.256230516205037 0.281981877370188 -0.296453963440531 0.808914995850606 0.289099458685698 0.245646439593872 -0.192367562918292 0.770566480289688 0.30213616074748 0.219158416490185 -0.127414335573282 0.731686657068241 0.342849515209671 0.217153245403634 -0.0827708457814528 0.768469876200794
0.157262366698216 0.414148517927328 -0.654468728439348 0.968993461835779 0.39365662777657 0.336540580857701 -0.265962910704523 1.05327616625766 0.568106291322712 0.298517465249835 -0.0169879405669646 1.15320052321239 0.645387229314304 0.278660231168566 0.0992131762239149 1.19156128240469 0.70529870817929 0.252204076057036 0.210978719107501 1.19961869725108 0.43128935043954 0.236795871527985 -0.0328305577553094 0.89540925863439 0.339663570528248 0.222560984050597 -0.0965559582109222 0.775883099267417 0.38131992988574 0.217694351418913 -0.0453609988953294 0.808000858666809 0.381312444441185 0.219121428135535 -0.0481655547044633 0.810790443586833 0.433716194038117 0.213468061858289 0.0153187927958711 0.852113595280362
-0.385232451184679 0.223186616106408 -0.822678218753239 0.0522133163838819 -0.118124988425989 0.213504763913762 -0.536594325696963 0.300344348844984 0.0723535010935139 0.208726255989205 -0.336749960645328 0.481456962832356 0.219327547598574 0.206290504840843 -0.185001841889477 0.623656937086626 0.315131673019941 0.21128547335765 -0.0989878547610529 0.729251200800935 0.34671111770586 0.205332228999843 -0.055740051133833 0.749162286545553 0.40224126839016 0.204514626629204 0.00139260019691972 0.803089936583401 0.377099852976764 0.201309752927928 -0.0174672627619752 0.771666968715504 0.382403774334268 0.200718699963841 -0.0110048775948601 0.775812426263395 0.417979471058433 0.199634047294368 0.0266967383614729 0.809262203755394
-0.388151114288295 0.306454467225833 -0.988801870050928 0.212499641474339 -0.00934801862162149 0.2834226891795 -0.564856489413442 0.546160452170199 0.186865494879766 0.231414437421326 -0.266706802466034 0.640437792225566 0.268437082897703 0.204090382729632 -0.131580067252376 0.668454233047781 0.30935277667732 0.1875463980901 -0.058238163579275 0.676943716933915 0.187518335792477 0.181491545432771 -0.168205093255754 0.543241764840709 0.177638827009834 0.18129034491508 -0.177690249023723 0.532967903043391 0.225211746290592 0.181277560971735 -0.130092273214009 0.580515765795194 0.181631156514883 0.176326692437499 -0.163969160662615 0.52723147369238 0.219153619965642 0.176748869474788 -0.127274164204943 0.565581404136227
-0.598252387872274 0.57769429959127 -1.73053321507116 0.534028439326616 -0.360538682259806 0.302863889711096 -0.954151906093554 0.233074541573943 -0.212305940929309 0.286165251175592 -0.77318983323347 0.348577951374852 -0.0683378519332165 0.272847330521837 -0.603118619756017 0.466442915889584 0.0117974440589397 0.253293696891351 -0.484658201848109 0.508253089965989 0.09000867188781 0.23690530234305 -0.374325720704569 0.554343064480189 0.143368099557237 0.225820659894937 -0.299240393836839 0.585976592951313 0.182368760997773 0.211505443690965 -0.232181908636519 0.596919430632064 0.0420989825481779 0.201457176042973 -0.352757082496049 0.436955047592404 0.0860714050089677 0.19127875476689 -0.288834954334137 0.460977764352073
-0.206258971904859 0.327728538499162 -0.848606907363215 0.436088963553498 0.0632678713938696 0.261919765586848 -0.450094869156352 0.576630611944091 0.220519267566541 0.249620805089819 -0.268737510409505 0.709776045542587 0.307378659705936 0.243669603992007 -0.170213764118398 0.78497108353027 0.400971726560898 0.238019224133987 -0.0655459527417154 0.867489405863512 0.476191982945144 0.223003052490473 0.0391060000638159 0.913277965826472 0.559499285914369 0.217771463567441 0.132667217322185 0.986331354506554 0.374318856783292 0.213483487294861 -0.0441087783146359 0.79274649188122 0.345789893679442 0.205222155921704 -0.0564455319270979 0.748025319285981 0.320899622702545 0.209038990041109 -0.088816797778028 0.730616043183118
-0.0641433142991894 0.236144312000117 -0.526986165819418 0.398699537221039 0.157377039199765 0.206547436812393 -0.247455936952525 0.562210015352056 0.173576541632388 0.202855105325302 -0.224019464805204 0.571172548069981 0.291432610464448 0.195690400551397 -0.092120574616291 0.674985795545186 0.24404919891034 0.196450310605916 -0.140993409877255 0.629091807697935 0.318179863643089 0.198877612179429 -0.0716202562285911 0.707979983514769 0.423064330402541 0.195816094433372 0.0392647853131311 0.806863875491951 0.46618028941637 0.192479276757174 0.0889209069723095 0.84343967186043 0.489123128748307 0.190991767846444 0.114779263769277 0.863466993727338 0.444453501709812 0.19053072053277 0.0710132894655828 0.817893713954042
-0.50759181288843 0.257547406979138 -1.01238473056754 -0.00279889520932008 -0.25023935326417 0.249764401271715 -0.739777579756732 0.239298873228391 -0.0962806290940703 0.246902346423236 -0.580209228083614 0.387647969895473 -0.0456159041939156 0.244651924686899 -0.525133676580238 0.433901868192407 0.0375738277654979 0.245599520133033 -0.443801231695248 0.518948887226243 0.129727514558418 0.242978626328761 -0.346510593045953 0.605965622162789 0.117663486951386 0.239428151978708 -0.351615690926881 0.586942664829653 -0.0575609840419964 0.232276262631865 -0.512822458800452 0.397700490716459 -0.0436090611332353 0.232502189394922 -0.499313352347282 0.412095230080811 -0.0514397805338411 0.227784988475458 -0.497898357945738 0.395018796878056
-0.225434364789766 0.512319605809501 -1.22958079217639 0.778712062596856 0.117213529076156 0.259325558989917 -0.39106456654408 0.625491624696393 0.32658118674893 0.2277728675197 -0.119853633589682 0.773016007087543 0.38344168604337 0.216982523120092 -0.0418440592720109 0.808727431358751 0.451465882038755 0.198854429984514 0.0617111992691081 0.841220564808403 0.442534875828613 0.199485725295233 0.0515428542499565 0.83352689740727 0.460551799757782 0.189643038708583 0.0888514438889604 0.832252155626604 0.414609199687838 0.187302226163759 0.0474968364068697 0.781721562968806 0.439703619503015 0.1841893429505 0.078692507320035 0.800714731685996 0.377756741237814 0.185900947078717 0.0133908849635285 0.742122597512099
0.0464289465264136 0.304892936229974 -0.551161208484336 0.644019101537163 0.237115013894764 0.260240159675238 -0.272955699068702 0.747185726858231 -0.0897089497701449 0.24799469163164 -0.575778545368158 0.396360645827869 0.0649740156835799 0.227509611441733 -0.380944822742217 0.510892854109377 0.146707376467624 0.204951765644534 -0.254998084195663 0.548412837130912 0.157354775830512 0.196136115506885 -0.227072010562983 0.541781562224006 0.134294052871402 0.190975595033481 -0.240018113394222 0.508606219137025 0.164552946120292 0.190145384389003 -0.208132007282155 0.537237899522738 0.207784781716944 0.18354593509932 -0.151965251077722 0.567534814511611 0.271264676316106 0.182185392876078 -0.0858186937210073 0.62834804635322
0.720186027887366 0.49187003851798 -0.243879247607874 1.68425130338261 0.671462909926427 0.422814916857826 -0.157254327114911 1.50018014696777 0.356538889586268 0.337704505820522 -0.305361941821955 1.01843972099449 0.490179643009957 0.304800709681205 -0.107229747965205 1.08758903398512 0.553007785307383 0.263685005320066 0.0361851748800525 1.06983039573471 0.654675849032936 0.230581190757347 0.202736715148535 1.10661498291734 0.673366925416195 0.212703717427059 0.256467639259159 1.09026621157323 0.637491246878628 0.210309992993691 0.225283660610994 1.04969883314626 0.647263272879838 0.206451848902393 0.242617649031148 1.05190889672853 0.674841680924597 0.201611545237355 0.279683052259382 1.07000030958981
0.269988367919584 0.269118673657146 -0.257484232448422 0.797460968287589 0.490681382433156 0.254690190162077 -0.0085113902845152 0.989874155150827 0.577297956164307 0.242804921820324 0.101400309396472 1.05319560293214 0.438619217686094 0.239768392277033 -0.0313268311768903 0.908565266549078 0.558376776368053 0.238542525893061 0.0908334256176527 1.02592012711845 0.529342412450599 0.23127118703461 0.0760508858627625 0.982633939038435 0.396710925181515 0.226655350346575 -0.0475335614977722 0.840955411860802 0.365293662362705 0.228272573959905 -0.0821205825987094 0.81270790732412 0.389704895829187 0.211938982842935 -0.0256955105429659 0.80510530220134 0.293561693597457 0.205666639902175 -0.109544920610806 0.69666830780572
0.788257428020437 0.746260613499548 -0.674413374438676 2.25092823047955 0.145625798541292 0.519405930391842 -0.872409825026718 1.1636614221093 0.296440670071267 0.40666205448387 -0.500616956717117 1.09349829685965 0.421542102470116 0.343639432942653 -0.251991186097484 1.09507539103772 0.0997225526101485 0.279157768183656 -0.447426673029817 0.646871778250114 0.188087318581473 0.227962074062094 -0.25871834658023 0.634892983743176 0.0425901327548741 0.206673534588019 -0.362489995037643 0.447670260547392 0.0902361389636948 0.184147289408772 -0.270692548277499 0.451164826204888 0.107271049955186 0.170962098812823 -0.227814663717948 0.44235676362832 0.101893815708027 0.167812946984992 -0.227019560382558 0.430807191798613
-0.12845427279686 0.40476660911539 -0.921796826663024 0.664888281069304 0.0787060540418939 0.397406718684815 -0.700211114580343 0.85762322266413 -0.382402341661968 0.3198023838861 -1.00921501407872 0.244410330754788 -0.292854498320468 0.270876683944196 -0.823772798851091 0.238063802210156 -0.204391871170398 0.236358528962959 -0.667654587937798 0.258870845597003 -0.183104281319205 0.210753594944376 -0.596181327410181 0.229972764771772 -0.299687376754023 0.200405834859435 -0.692482813078515 0.0931080595704687 -0.208737054335619 0.18997101582951 -0.581080245361458 0.163606136690221 -0.187271105825001 0.182428137473156 -0.544830255272387 0.170288043622385 -0.108675243423216 0.181396976731385 -0.464213317816731 0.2468628309703
-0.393869529573187 0.213946321878775 -0.813204320455585 0.0254652613092113 -0.193002422237186 0.193848711063524 -0.572945895921694 0.186941051447322 -0.0198983988352556 0.182034236875879 -0.376685503111979 0.336888705441467 -0.0715077228145108 0.174827345394964 -0.41416931978864 0.271153874159619 0.0383000585279721 0.175514505622444 -0.305708372492018 0.382308489547962 0.184477296506997 0.167966835185258 -0.14473770045611 0.513692293470103 0.223624354145958 0.16379097462946 -0.0974059561277837 0.544654664419701 0.212453838085481 0.159769761567151 -0.100694894586135 0.525602570757097 0.169317967306316 0.166050477027836 -0.156140967668243 0.494776902280876 0.201559246378833 0.170049593844825 -0.131737957557025 0.53485645031469
0.388422247941353 0.382807490055226 -0.36188043256689 1.1387249284496 0.244560498341816 0.29979331620746 -0.343034401424806 0.832155398108437 0.410336865387927 0.233258895225558 -0.0468505692541665 0.867524300030021 0.310768001061317 0.201370693530124 -0.0839185582577255 0.70545456038036 0.332866449281013 0.189775538045154 -0.039093605287489 0.704826503849515 0.373583285295039 0.187596646328319 0.00589385849153434 0.741272712098544 0.416954961100646 0.18726626677512 0.0499130782214098 0.783996843979882 0.509111058340978 0.191066195686091 0.13462131479624 0.883600801885717 0.552337369543998 0.18938260459813 0.181147464531662 0.923527274556333 0.506969192387745 0.184068955773364 0.146194039071951 0.867744345703539
0.396370528249014 0.34382906858445 -0.277534446176508 1.07027550267454 0.588792636316792 0.301435381557908 -0.00202071153670669 1.17960598417029 0.561348860792664 0.28691281551068 -0.00100025760826905 1.1236979791936 0.62901142327073 0.274349191932092 0.0912870070838293 1.16673583945763 0.52134761758402 0.249807434521152 0.0317250459225615 1.01097018924548 0.432809029233262 0.250373095264431 -0.0579222374850226 0.923540295951546 0.431803307676067 0.250343379845618 -0.058869716821344 0.922476332173479 0.349993897776004 0.240704627930723 -0.121787172968213 0.821774968520221 0.32329034379154 0.232939930481358 -0.133271919951921 0.779852607535001 0.168017902136644 0.223525270043231 -0.270091627148088 0.606127431421377
0.400307598194861 0.331634931534184 -0.24969686761214 1.05031206400186 0.683411071178713 0.303693584045729 0.0881716464490845 1.27865049590834 0.616747782502606 0.3008294830653 0.0271219956946182 1.20637356931059 0.599138177531898 0.31208756358335 -0.0125534470914682 1.21082980215526 0.718798291621315 0.306633673113045 0.117796292319748 1.31980029092288 0.57117173934284 0.30300782894846 -0.0227236053961416 1.16506708408182 0.367584051594151 0.275491610148799 -0.172379504297496 0.907547607485797 0.260715005821418 0.247784789238565 -0.224943181086169 0.746373192729005 0.299793655336528 0.224968398706909 -0.141144406129013 0.740731716802069 0.237626824707921 0.206092436572728 -0.166314350974626 0.641568000390469
-0.0178078955968974 0.249564454604627 -0.506954226621965 0.471338435428171 0.24387885953263 0.223464868160822 -0.194112282062581 0.68187000112784 0.253899145565448 0.203006944646674 -0.143994465942033 0.65179275707293 0.396115162235377 0.18592133745787 0.0317093408179528 0.760520983652802 0.446115198162645 0.176636747329232 0.0999071733973506 0.792323222927939 0.468557996189646 0.174356482134415 0.126819291206192 0.8102967011731 0.527917426544578 0.175496292680789 0.183944692890231 0.871890160198924 0.576045514015771 0.170609545861934 0.24165080412638 0.910440223905162 0.634891865651533 0.173293112488581 0.295237365173915 0.974546366129151 0.637358870686275 0.173816479184825 0.296678571484017 0.978039169888532
0.609703097290272 0.60331546762761 -0.572795219259843 1.79220141384039 -0.0758250560953785 0.275874270607077 -0.616538626485249 0.464888514294492 -0.168047310105139 0.235602333960724 -0.629827884668158 0.293733264457881 0.0447546461383853 0.223872168326126 -0.394034803780821 0.483544096057592 0.104580427767928 0.210603539069516 -0.308202508808322 0.517363364344179 0.136124077675951 0.189963357393935 -0.236204102816162 0.508452258168064 0.172227028669418 0.177481845827108 -0.175637389151712 0.520091446490549 0.198857265336524 0.179634706954772 -0.153226760294829 0.550941290967877 0.140868129405754 0.175383382073615 -0.202883299458531 0.484619558270039 0.257893508035163 0.178866728012643 -0.0926852788696167 0.608472294939943
0.169016635961274 0.328069590483822 -0.473999761387016 0.812033033309565 0.406711238241103 0.312860609742119 -0.206495556853451 1.01991803333566 0.329966359191225 0.291458753933323 -0.241292798518089 0.901225516900538 0.251784090782907 0.268728060645464 -0.274922908082202 0.778491089648016 0.0534334635484135 0.231133160206086 -0.399587530455515 0.506454457552342 0.148474653469619 0.194566837129741 -0.232876347304673 0.529825654243911 0.222144359388328 0.181362526420032 -0.133326192394935 0.577614911171591 0.322751791027943 0.18111255085879 -0.0322288086552862 0.677732390711171 0.385112221984494 0.180828283962718 0.0306887854175675 0.739535658551421 0.394407044228061 0.178275983332075 0.0449861168971948 0.743827971558928
-0.239629300710245 0.270924259025682 -0.770640848400582 0.291382246980092 0.0869364536254487 0.256587758124832 -0.415975552299222 0.58984845955012 0.235328093089815 0.23829273208557 -0.231725661797903 0.702381847977532 0.242295737315488 0.219549393602746 -0.188021074145894 0.672612548776871 0.282088947275945 0.211138353916294 -0.131742226399992 0.695920120951882 0.321568097626316 0.208900355028205 -0.0878765982289659 0.731012793481597 0.267240018834293 0.205707964911791 -0.135947592392817 0.670427630061404 0.283094953976277 0.202547333378627 -0.113897819445831 0.680087727398385 0.302446913958317 0.202940697369179 -0.0953168528852729 0.700210680801908 0.193559660836256 0.208905493641184 -0.215895106700466 0.603014428372977
0.985448082695223 0.444589547666264 0.114052569269346 1.8568435961211 0.581977162152203 0.481526097402575 -0.361813988756843 1.52576831306125 0.0690889742286371 0.406227109140668 -0.727116159687072 0.865294108144346 0.180933411746291 0.319351366299825 -0.444995266201367 0.806862089693948 0.316100434269836 0.272847507494064 -0.218680680418529 0.850881548958201 0.389247485728439 0.242821742949082 -0.0866831304517617 0.86517810190864 0.289751032756405 0.22596257749071 -0.153135619125386 0.732637684638196 0.310332398478711 0.220460068377239 -0.121769335540678 0.742434132498099 0.33366310977504 0.215314137994043 -0.0883526006932836 0.755678820243364 0.386045938384966 0.211393433219618 -0.0282851907254847 0.800377067495416
-0.0437375700311229 0.424207709951131 -0.875184681535341 0.787709541473095 0.280858672782446 0.32450184568504 -0.355164944760233 0.916882290325124 0.0631450686347762 0.253897422392632 -0.434493879254783 0.560784016524336 0.187166205149907 0.210795679946289 -0.22599332754482 0.600325737844633 0.231785034446055 0.206045194068876 -0.172063545928942 0.635633614821052 0.293453880457918 0.20891799096448 -0.116025381832462 0.702933142748298 0.30696524105467 0.210637960021973 -0.105885160588397 0.719815642697738 0.404914958630987 0.201925273052587 0.00914142344791713 0.800688493814057 0.326976502559224 0.195732914594394 -0.056660010045788 0.710613015164237 0.398839653995609 0.190358476705111 0.0257370396535913 0.771942268337628
0.709445830508092 0.50159793733199 -0.273686126662608 1.69257778767879 0.322405355971154 0.330558098861579 -0.32548851779754 0.970299229739849 0.48530254605688 0.295607707071633 -0.09408855980352 1.06469365191728 0.650512420899739 0.284913215516628 0.0920825184871482 1.20894232331233 0.699452731262141 0.275815329575486 0.158854685294188 1.24005077723009 0.765535224620591 0.277774574934817 0.22109705774835 1.30997339149283 0.929476430721794 0.277020473749412 0.386516302172947 1.47243655927064 0.886503417591369 0.279300550829871 0.339074337964823 1.43393249721792 0.90094655004211 0.263948631000733 0.383607233280675 1.41828586680355 0.835743588818194 0.250968799690965 0.343844741423903 1.32764243621249
0.533321377013871 0.624470639341327 -0.69064107609513 1.75728383012287 0.518254505578707 0.466172410991739 -0.395443419965102 1.43195243112252 0.668594430446886 0.402268567782153 -0.119851962406133 1.4570408232999 0.0606375106323097 0.33858484633988 -0.602988788193854 0.724263809458474 0.15858038995704 0.284130843027006 -0.398316062375893 0.715476842289972 0.217810627199552 0.237757022346122 -0.248193136598846 0.683814390997951 0.198163779861975 0.225165045050507 -0.243159708437018 0.639487268160968 0.145505944247653 0.229094006584816 -0.303518308658586 0.594530197153893 0.093205882519603 0.22757647955474 -0.352844017407688 0.539255782446894 0.107814115419016 0.230601048654845 -0.34416393994448 0.559792170782512
0.485867518251847 0.374853599084818 -0.248845535954397 1.22058057245809 0.729779114933135 0.331649807341152 0.0797454925444777 1.37981273732179 0.64870950244527 0.324815615751001 0.0120708955733088 1.28534810931723 0.482408599673041 0.299500941099247 -0.104613244881482 1.06943044422756 0.543740896498146 0.268041256072556 0.018380034595937 1.06910175840035 0.469660847427806 0.236640017595369 0.00584641294088373 0.933475281914728 0.348567788070301 0.223922035979941 -0.0903194024503841 0.787454978590986 0.355692660230561 0.219337695929881 -0.0742092237920049 0.785594544253128 0.343183804831898 0.212222110743777 -0.0727715322259048 0.7591391418897 0.30295684537991 0.199317130479605 -0.0877047303601154 0.693618421119935
0.450812563587235 0.326331178879916 -0.188796547017401 1.09042167419187 0.447874516271513 0.267850999062709 -0.0771134418913955 0.972862474434422 0.314592366200421 0.244423394701318 -0.164477487414163 0.793662219815005 0.435013748641649 0.240517000563947 -0.0363995724636869 0.906427069746986 0.366741308085885 0.242362842602765 -0.108289863415535 0.841772479587304 0.429551532056838 0.242732620320913 -0.0462044037721506 0.905307467885826 0.379624353168708 0.251779870427159 -0.113864192868523 0.873112899205939 0.261371630960553 0.254124771068779 -0.236712920334253 0.759456182255359 0.241443300617544 0.252003078535154 -0.252482733311357 0.735369334546446 0.113229676054734 0.249375411998759 -0.375546131462834 0.602005483572301
0.673379960486076 0.530727709252296 -0.366846349648424 1.71360627062058 0.0558276693323718 0.403339969159259 -0.734718670219775 0.846374008884519 0.205607077642583 0.291708213117717 -0.366141020068143 0.777355175353308 -0.0392769699719728 0.23483968689662 -0.499562756289347 0.421008816345402 0.0631220822119798 0.193460366674765 -0.316060236470559 0.442304400894518 0.117467061673733 0.183699655170648 -0.242584262460738 0.477518385808204 0.135582827244102 0.183314560218148 -0.223713710783469 0.494879365271673 0.161737463113728 0.181011247075648 -0.193044581154543 0.516519507381999 0.111438775545893 0.182872100876857 -0.246990542172747 0.469868093264534 0.045319230153539 0.183888492834707 -0.315102215802486 0.405740676109564
0.784747775515976 0.577770478572139 -0.347682362485417 1.91717791351737 0.0261347553543914 0.405144845873327 -0.767949142557329 0.820218653266112 0.185299162540857 0.283142484731585 -0.369660107533049 0.740258432614764 0.275591156251141 0.233190673397301 -0.181462563607569 0.73264487610985 0.136661679633601 0.212986317370754 -0.280791502413077 0.554114861680279 0.210550599829738 0.191764197229595 -0.165307226740268 0.586408426399743 0.12534841186185 0.181154153372746 -0.229713728748731 0.480410552472431 0.197629846885277 0.173021694645183 -0.141492674619282 0.536752368389836 0.233376900895995 0.172008540014527 -0.103759837532477 0.570513639324467 0.254169842475965 0.172661612410872 -0.0842469178493443 0.592586602801275
1.02535617365407 0.510681199190339 0.0244210232410056 2.02629132406713 1.14561477103412 0.472729575098956 0.219064803840164 2.07216473822807 0.942802791422377 0.420954661649282 0.117731654589784 1.76787392825497 0.67753519902245 0.366837573161413 -0.0414664443739183 1.39653684241882 0.49621008965238 0.312072374224717 -0.115451763828066 1.10787194313283 0.573228859127319 0.298793795354233 -0.0124069797669786 1.15886469802162 0.554372596136927 0.301901181967163 -0.0373537205187121 1.14609891279257 0.253488766719282 0.298672978835552 -0.3319102717984 0.838887805236964 0.276697993212156 0.273434112283076 -0.259232866862674 0.812628853286985 0.188451573881272 0.246085789600103 -0.29387657373493 0.670779721497474
0.710997317311453 0.613563636375634 -0.491587409984789 1.9135820446077 0.211411921650142 0.365691522488972 -0.505343462428244 0.928167305728527 0.402334479072125 0.315709475689499 -0.216456093279293 1.02112505142354 0.481482791011657 0.314772431598117 -0.135471174920653 1.09843675694397 0.291304113029327 0.294742716215141 -0.28639161075235 0.868999836811005 0.359410365248647 0.292580229995301 -0.214046885542143 0.932867616039436 0.1957576769056 0.273836423289587 -0.340961712741991 0.732477066553191 0.0984359810024892 0.264113979242516 -0.419227418312841 0.61609938031782 0.131095723825331 0.248675198231259 -0.356307664707938 0.618499112358599 0.11559305101292 0.238981214885012 -0.352810130161704 0.583996232187544
0.39519699683133 0.40851966817858 -0.405501552798686 1.19589554646135 0.231314114333888 0.33851887984345 -0.432182890159275 0.894811118827051 0.328118515378136 0.27641399860756 -0.213652921892682 0.869889952648954 0.219795737024304 0.237479776040437 -0.245664624014952 0.68525609806356 0.323352067533735 0.205137279155168 -0.0787169996103951 0.725421134677865 0.3079838335421 0.203472749381888 -0.0908227552464 0.706790422330601 0.257905856340579 0.216186747040837 -0.165820167859462 0.681631880540619 0.297241396790756 0.225242136729502 -0.144233191199067 0.738715984780579 0.413765207458066 0.230802388764979 -0.038607474521292 0.866137889437425 0.581903833207699 0.227592141165922 0.135823236522491 1.02798442989291
-0.255005364614097 0.238182709795307 -0.7218434758129 0.211832746584705 -0.0582414401553144 0.195516225472213 -0.441453242080852 0.324970361770223 0.0707162190898931 0.177863900885383 -0.277897026645458 0.419329464825245 0.0866771840026579 0.172916759421908 -0.252239664464281 0.425594032469597 0.18973640136463 0.17131785972086 -0.146046603688255 0.525519406417515 0.288258582360075 0.163795253222742 -0.0327801139565004 0.60929727867665 0.251718392126129 0.159425797355708 -0.0607561706910597 0.564192954943317 0.295668287996592 0.156634536934261 -0.0113354043945601 0.602671980387744 0.292619956929496 0.157508731546123 -0.0160971569009044 0.601337070759897 0.343789043895637 0.156955679144673 0.0361559127720779 0.651422175019197
-0.246663443176885 0.367905321899103 -0.967757874099127 0.474430987745358 -0.313902336558721 0.279816342845906 -0.862342368536695 0.234537695419254 -0.07601992090763 0.242685897274518 -0.551684279565686 0.399644437750426 0.0769588954753673 0.230404644062439 -0.374634206887013 0.528551997837748 0.186638608987284 0.214227250128227 -0.233246801264041 0.606524019238609 0.270700596971831 0.206678680270473 -0.134389616358296 0.675790810301957 0.349048360113866 0.207831337740778 -0.0583010618580602 0.756397782085791 0.377202082820079 0.201176029947831 -0.0171029358776691 0.771507101517828 0.415890839224532 0.200294783119368 0.0233130643105704 0.808468614138494 0.418337829880454 0.19787169976655 0.0305092983380169 0.806166361422891
0.173924160168609 0.439318548192082 -0.687140194287871 1.03498851462509 0.397014096260588 0.363716505544125 -0.315870254605898 1.10989844712707 0.219591893308439 0.347154072232035 -0.46083008826635 0.900013874883228 0.415941186521285 0.30872775160458 -0.189165206623692 1.02104757966626 0.238962677816681 0.324263354914937 -0.396593497816594 0.874518853449957 0.0604728186405268 0.341181132137257 -0.608242200348496 0.72918783762955 0.167876432904737 0.351589313454963 -0.521238621466991 0.856991487276464 0.267758462181102 0.346880441967225 -0.412127204074659 0.947644128436863 0.311562270282236 0.348602383852829 -0.371698402069308 0.994822942633781 0.204459140562316 0.344757432995226 -0.471265428108327 0.880183709232958
1.07904833308884 0.570924466300775 -0.0399636208606837 2.19806028703835 0.976327576457132 0.490695204919756 0.014564974814411 1.93809017809985 0.312486095068749 0.372395125525682 -0.417408350961587 1.04238054109908 0.30213349117812 0.263602997835399 -0.214528384579262 0.818795366935502 0.456739214251741 0.226655332708001 0.0124947621440588 0.900983666359423 0.523253950511326 0.227404048585526 0.0775420152836946 0.968965885738957 0.569452618574476 0.230256317122433 0.118150237014508 1.02075500013444 0.618684464156492 0.234351539430516 0.159355446872681 1.0780134814403 0.57971225358095 0.234471346290348 0.120148414851867 1.03927609231003 0.555347455232258 0.232487576608757 0.0996718050790952 1.01102310538542
-0.455502560537489 0.21435021811155 -0.875628988036126 -0.0353761330388518 -0.221553839385427 0.20461785227758 -0.622604829849485 0.179497151078631 -0.068455822104459 0.195625973918645 -0.451882730985003 0.314971086776085 0.0820759160252241 0.186630226057821 -0.283719327048105 0.447871159098553 0.124035890765446 0.17965907130799 -0.228095888998215 0.476167670529107 0.232217006216 0.163104349167956 -0.0874675181531928 0.551901530585194 0.242872230485266 0.158425611777957 -0.0676419685995305 0.553386429570062 0.278339829162272 0.155044846110693 -0.0255480692146866 0.582227727539231 0.292455698292943 0.155118936136354 -0.0115774165343109 0.596488813120197 0.31130241851376 0.152402487914805 0.0125935422007417 0.610011294826779
0.327500051214693 0.453459943248772 -0.561281437552901 1.21628153998229 0.541402234424803 0.432598878901991 -0.306491568223099 1.3892960370727 0.484555545608437 0.395289502268778 -0.290211878838368 1.25932297005524 0.214851959944751 0.345694770819423 -0.462709790861318 0.892413710750821 0.280585092747727 0.282442385679788 -0.273001983184658 0.834172168680111 0.22528686091693 0.245800755992278 -0.256482620827934 0.707056342661794 0.148901083787188 0.202849442695119 -0.248683823895246 0.546485991469621 0.113430993932612 0.18845072884651 -0.255932434606548 0.482794422471773 0.150463228769097 0.17799488244174 -0.198406740816714 0.499333198354909 0.174075337104686 0.173801776941629 -0.166576145700907 0.514726819910279
0.0575299624958789 0.496746603854702 -0.916093381059336 1.03115330605109 0.273307689719368 0.22045756255043 -0.158789132879474 0.70540451231821 0.393412103129199 0.203913644875017 -0.00625864082583383 0.793082847084232 0.468733966101632 0.196621647602102 0.0833555368015121 0.854112395401752 0.388142731333084 0.193813536848389 0.0082681991102419 0.768017263555926 0.454224639317849 0.195568687751064 0.0709100113257647 0.837539267309934 0.361475422317187 0.19929785459244 -0.0291483726839947 0.752099217318369 0.396515898916009 0.20321607496237 -0.00178760801023709 0.794819405842255 0.456509102136488 0.211441661989704 0.0420834446366676 0.870934759636309 0.447901005246784 0.216179048367536 0.0241900704464127 0.871611940047154
-0.0196710006006837 0.356459840259475 -0.718332287509255 0.678990286307887 0.0140926580342937 0.283442890796519 -0.541455407926883 0.569640723995471 -0.0617183332988547 0.215412955697728 -0.483927726466401 0.360491059868692 0.0205945902617131 0.187588761898882 -0.347079383060095 0.388268563583521 0.118912550288222 0.182813452031395 -0.239401815693313 0.477226916269757 0.185687972987429 0.17744820952062 -0.162110517672986 0.533486463647845 0.197022155520766 0.182254499635085 -0.160196663764001 0.554240974805534 0.202601539459251 0.184173499311483 -0.158378519191256 0.563581598109758 0.277352609793475 0.185460051477536 -0.0861490911024947 0.640854310689445 0.301977426623287 0.183222482510082 -0.0571386390964745 0.661093492343048
-0.082961544938196 0.249967352196093 -0.572897555242537 0.406974465366145 0.0442115957001439 0.256618921195188 -0.458761489842424 0.547184681242712 0.210466372214537 0.246678876948217 -0.273024226603968 0.693956971033042 0.32832097813618 0.229436713386875 -0.121374980102095 0.778016936374456 0.412693096165361 0.218271610061048 -0.0151192595542933 0.840505451885016 0.442983720008762 0.215906400794869 0.0198071744508197 0.866160265566705 0.346839822858285 0.207473653576719 -0.0598085381520846 0.753488183868654 0.287816070936819 0.204180624086341 -0.11237795227241 0.688010094146048 0.340649277462011 0.202923260740491 -0.0570803135893512 0.738378868513373 0.328991946474512 0.196505500810854 -0.0561588351147621 0.714142728063786
0.139081950032899 0.304577110542287 -0.457889186629985 0.736053086695782 0.335152037020366 0.281449502086568 -0.216488987069308 0.88679306111004 0.50394657867384 0.274791110594966 -0.0346439980922926 1.04253715543997 0.570502131933226 0.260809452330252 0.0593156053659315 1.08168865850052 0.6060470090617 0.249345701085705 0.117329434933718 1.09476458318968 0.412986210977676 0.248265360773814 -0.073613896138999 0.899586318094352 0.445907531791421 0.232457820677568 -0.00970979673661271 0.901524860319454 0.487300611596326 0.224336995731764 0.0476000999620685 0.927001123230583 0.489320670409709 0.204460031174742 0.0885790093072145 0.890062331512202 0.389219461398444 0.196429111459733 0.00421840293736669 0.774220519859521
0.0971263969140466 0.313907256107124 -0.518131825055917 0.71238461888401 0.330383257381202 0.300318517289389 -0.258241036506 0.919007551268404 0.369083856906282 0.270105950957373 -0.160323806970169 0.898491520782734 0.243636128725754 0.225485562052515 -0.198315572897176 0.685587830348684 0.327214630398928 0.213406543728746 -0.0910621953094147 0.745491456107271 0.363654867949526 0.204817557913267 -0.0377875455604778 0.765097281459531 0.513586385849272 0.19982533578539 0.121928727709909 0.905244043988636 0.524131798739339 0.204432844081314 0.123443424339965 0.924820173138714 0.423471645190267 0.194863958148712 0.041538287218791 0.805405003161742 0.404046218819471 0.200861662409297 0.0103573604972476 0.797735077141694
0.425060856492199 0.415620443693206 -0.389555213146486 1.23967692613088 0.196634389438035 0.303404249213985 -0.398037939021375 0.791306717897445 0.400714067413625 0.253923235153633 -0.0969754734874962 0.898403608314746 0.512107562328352 0.230349813989432 0.0606219269090659 0.963593197747638 0.263249423487721 0.203398045563625 -0.135410745816984 0.661909592792425 0.334824199116052 0.187305964426946 -0.0322954911607614 0.701943889392866 0.404317982505264 0.179701523897319 0.0521029956665185 0.756532969344008 0.344652052640128 0.172681328730722 0.00619664832791317 0.683107456952343 0.408777879870781 0.168896472288252 0.0777407941858083 0.739814965555754 0.408741000199989 0.164938459343483 0.0854616198867628 0.732020380513214
-0.0648365264084698 0.380968690453301 -0.81153515969694 0.68186210688 -0.0358676451796629 0.340884205468992 -0.704000687898887 0.632265397539561 0.0855111058180322 0.286634335631477 -0.476292192019663 0.647314403655728 -0.109889376454971 0.222114790427213 -0.545234365692308 0.325455612782366 -0.0405439775193662 0.177728285833675 -0.388891417753369 0.307803462714636 -0.050480949293672 0.16873691726775 -0.381205307138462 0.280243408551118 0.0046136865960229 0.172652363367593 -0.333784945604459 0.343012318796505 0.0662268744744083 0.175450325900728 -0.277655764291018 0.410109513239835 0.0714643873934617 0.178899374955017 -0.279178387518371 0.422107162305295 0.0990795854004998 0.180090551197691 -0.253897894946974 0.452057065747973
1.15086406704354 0.544850140685453 0.0829577913000554 2.21877034278703 0.77464446301094 0.442256799170203 -0.092178863362657 1.64146778938454 0.397354955575306 0.370632583922851 -0.329084908913482 1.12379482006409 0.0771901362998553 0.302493254467924 -0.515696642457275 0.670076915056986 0.130095220456115 0.273650449260145 -0.406259660093769 0.666450101005999 0.0228303082825414 0.254943083988998 -0.476858136335894 0.522518752900977 0.0632531442476535 0.231863760347999 -0.391199826034425 0.517706114529732 0.134051332330665 0.233934025746227 -0.32445935813194 0.59256202279327 0.18916564640288 0.220288569363627 -0.24259994954983 0.62093124235559 0.241262162132028 0.214358513005522 -0.178880523358796 0.661404847622852
-0.00022724808496144 0.234792486312879 -0.460420521258204 0.459966025088281 0.325330457960201 0.212940308315127 -0.092032546337447 0.742693462257849 0.427103309710465 0.190036809010912 0.0546311640490773 0.799575455371853 0.481079670183142 0.172086588960996 0.143789955819589 0.818369384546695 0.532800856897196 0.171202693690729 0.197243577263368 0.868358136531024 0.508143854678686 0.174046426696124 0.167012858354283 0.849274851003089 0.526880795931285 0.17374702379171 0.186336629299533 0.867424962563036 0.465094441600508 0.167238206937675 0.137307556002665 0.79288132719835 0.531817045793918 0.161381263623991 0.215509769090895 0.848124322496941 0.504181943233425 0.165153800046574 0.18048049514214 0.82788339132471
-0.0302878553770185 0.308895688864907 -0.635723405552237 0.5751476947982 0.197513737764386 0.281680851361491 -0.354580730904137 0.749608206432908 0.343976478982214 0.236859879672981 -0.12026888517683 0.808221843141257 0.463230856286915 0.198659897713868 0.0738574567677327 0.852604255806097 0.318807876699127 0.171353343673974 -0.0170446769018632 0.654660430300117 0.370490790826374 0.150544490306741 0.0754235898251613 0.665557991827587 0.381246329812681 0.15035357990126 0.0865533132062101 0.675939346419151 0.395277687107309 0.147451816301707 0.106272127155963 0.684283247058656 0.383479830933961 0.150583990697808 0.0883352091662569 0.678624452701664 0.368954285453763 0.155060931562111 0.0650348595920257 0.672873711315501
0.735714043542483 0.469112983062151 -0.183747403259332 1.6551754903443 0.404264319114863 0.34398837007153 -0.269952886225336 1.07848152445506 0.261660846576784 0.250265396288457 -0.228859330148591 0.75218102330216 0.168526276380403 0.217024787501309 -0.256842307122162 0.593894859882968 0.295297381369862 0.206019400433046 -0.108500643478907 0.699095406218631 0.334587190520929 0.206663665172844 -0.0704735932178444 0.739647974259703 0.427486220140579 0.206554698820478 0.0226390104524413 0.832333429828716 0.473131839876304 0.208666710369779 0.0641450875515364 0.882118592201072 0.495365254111711 0.206865474426563 0.0899089242356474 0.900821583987774 0.424022220479712 0.206022038020524 0.0202190259594858 0.827825414999939
-0.0719368246042782 0.288815784557353 -0.63801576233669 0.494142113128134 0.170038831654771 0.263633597027719 -0.346683018519559 0.6867606818291 0.306684501451313 0.242037495322447 -0.167708989380682 0.781077992283309 0.366432207651029 0.230657096595523 -0.0856557016761955 0.818520116978253 0.293172121584405 0.237302719508675 -0.171941208652598 0.758285451821408 0.338165235967457 0.222315177785814 -0.0975725124927385 0.773902984427652 0.213661507265637 0.21636340964969 -0.210410775647756 0.637733790179029 0.139732755690246 0.204208180042998 -0.260515277194031 0.539980788574522 0.204712548962303 0.189723690395192 -0.167145884212273 0.576570982136879 0.230179320009723 0.186733599033977 -0.135818534096873 0.596177174116318
1.56199036570015 0.619125767483258 0.348503861432964 2.77547686996733 0.980497254301352 0.465673924743559 0.0677763618039763 1.89321814679873 1.10314269338266 0.405819072195164 0.30773731188014 1.89854807488518 0.991400982194261 0.412651065942706 0.182604892946558 1.80019707144196 0.577486519834852 0.397117952777441 -0.200864667608932 1.35583770727864 0.648741520121628 0.37413876850631 -0.084570466150739 1.382053506394 0.770761206910186 0.356255360400172 0.0725007005258483 1.46902171329452 0.613231483213929 0.311282701358106 0.00311738855204124 1.22334557787582 0.313612915052461 0.278205525964207 -0.231669915837384 0.858895745942306 0.377837217819098 0.250772301318654 -0.113676492765465 0.86935092840366
0.572805388617923 0.321568703489312 -0.0574692702211284 1.20308004745697 0.802620291291403 0.30275804395943 0.209214525130919 1.39602605745189 0.916180722621814 0.283544965950645 0.36043258935855 1.47192885588508 0.668287827706871 0.259755263871466 0.159167510518799 1.17740814489494 0.717852606453237 0.245169059579825 0.237321249676781 1.19838396322969 0.607841386157505 0.221690399466711 0.173328203202752 1.04235456911226 0.516785601324433 0.204131614179901 0.116687637531826 0.91688356511704 0.544627482108712 0.185564852638247 0.180920370937747 0.908334593279676 0.549302319847121 0.184990781037404 0.186720389013809 0.911884250680433 0.473403183490369 0.185016852733935 0.110770152131857 0.836036214848881
0.0954969493516407 0.308377687145598 -0.508923317453731 0.699917216157012 0.340930317761301 0.294561172129804 -0.236409579613115 0.918270215135717 0.480637314434563 0.275331357029 -0.0590121453422774 1.0202867742114 0.424998771809065 0.260693723856697 -0.0859609269500623 0.935958470568192 0.271868186341723 0.231905078578616 -0.182665767672366 0.726402140355811 0.404426768302193 0.220807856226451 -0.0283566299016518 0.837210166506038 0.422537595037501 0.219109884030642 -0.00691777766255636 0.851992967737559 0.345294722956462 0.22111118241773 -0.0880831945822883 0.778672640495212 0.311557737833433 0.219919433978213 -0.119484352763864 0.742599828430731 0.438254911103815 0.21751063043194 0.0119340754572131 0.864575746750417
-0.00899346323297379 0.299230912732199 -0.595486052188083 0.577499125722136 0.243604139932976 0.285126617231266 -0.315244029840305 0.802452309706257 0.322250048744683 0.247988937550959 -0.163808268855197 0.808308366344564 0.43838362657625 0.222411610263716 0.00245687045936749 0.874310382693133 0.193158603711851 0.207669652153395 -0.213873914508803 0.600191121932505 0.192889754147227 0.194239562907353 -0.187819789151184 0.573599297445638 0.245222470045843 0.192857554550235 -0.132778336872618 0.623223276964303 0.331934951876745 0.194508741042054 -0.0493021805656799 0.71317208431917 0.365206100917837 0.193226087857572 -0.0135170312830046 0.743929233118679 0.345202554793742 0.19440508735953 -0.0358314164309372 0.726236526018421
0.121056015702285 0.330672641703335 -0.527062362036252 0.769174393440823 0.464236185371652 0.292764001626957 -0.109581257817184 1.03805362856049 0.549589601352091 0.24855145843183 0.0624287428257046 1.03675045987848 0.510345578084352 0.234133556268001 0.0514438077990709 0.969247348369633 0.583698560835462 0.225153738658832 0.14239723306415 1.02499988860677 0.546947473965322 0.216175417710372 0.123243655252994 0.970651292677651 0.48464666712716 0.218662864633336 0.0560674524458218 0.913225881808499 0.394166801988084 0.218020545018527 -0.0331534662482282 0.821487070224396 0.486344801146449 0.219677934299231 0.0557760499199568 0.916913552372941 0.40579261664725 0.222344137671456 -0.0300018931888046 0.841587126483305
1.00162872437712 0.509836710921244 0.00234877097147612 2.00090867778275 0.83669206519494 0.380375486981905 0.0911561107104057 1.58222801967947 0.408601076747061 0.322232513253162 -0.222974649229137 1.04017680272326 0.532055545319783 0.27694994997304 -0.0107663566273745 1.07487744726694 0.615701732798879 0.269137267312776 0.088192688865839 1.14321077673192 0.661608967531458 0.265681856063929 0.140872529646157 1.18234540541676 0.708448093118918 0.270039597642676 0.179170481739273 1.23772570449856 0.603927538325228 0.27617629291228 0.0626220042171584 1.1452330724333 0.399240594182791 0.267514014197216 -0.125086873643752 0.923568062009334 0.41962349973692 0.274263843985143 -0.11793363447396 0.9571806339478
0.581948689505622 0.677510935576825 -0.745972744224954 1.9098701232362 -0.110566764586461 0.375580694151424 -0.846704925123252 0.62557139595033 0.01448647907203 0.243486633023842 -0.462747321654699 0.491720279798759 0.138069807548475 0.220070405613356 -0.293268187453703 0.569407802550653 0.219050734508497 0.215617763030253 -0.203560081030799 0.641661550047792 0.13703725750367 0.216479774770979 -0.28726310104745 0.561337616054789 0.0950237061491085 0.211291603717699 -0.319107837137581 0.509155249435798 0.179120347512244 0.20757410668152 -0.227724901583535 0.585965596608023 0.186797262787581 0.204506021358136 -0.214034539074365 0.587629064649527 0.226863341846914 0.200637866127465 -0.166386875762918 0.620113559456745
-0.131385960495027 0.399124755861289 -0.913670481983154 0.6508985609931 0.246074193900318 0.26349594617435 -0.270377860601407 0.762526248402044 0.379353826158851 0.235546153020542 -0.0823166337614114 0.841024286079114 0.477811081371006 0.227337304846729 0.0322299638714163 0.923392198870595 0.468889571652241 0.222035339083633 0.0337003070483207 0.904078836256162 0.494021280759324 0.234004780818794 0.0353719103544872 0.952670651164161 0.530151113449565 0.23804948240285 0.0635741279399794 0.996728098959151 0.532967822048167 0.249959936976201 0.043046345574813 1.02288929852152 0.771650528758775 0.267555913296221 0.247240938698181 1.29606011881937 0.723404226513232 0.261929780910839 0.210021855927987 1.23678659709848
-0.505550356072603 0.367914305036104 -1.22666239394337 0.21556168179816 -0.204821220779059 0.320230472938566 -0.832472947738648 0.422830506180531 -0.0835304165029912 0.292578942869824 -0.656985144527846 0.489924311521864 -0.117883652376932 0.275748342828872 -0.658350404321522 0.422583099567658 -0.179594200471067 0.261837834784284 -0.692796356648263 0.333607955706128 -0.309867758848598 0.257505148680348 -0.814577850262079 0.194842332564884 -0.171877662472196 0.24633728293795 -0.654698737030579 0.310943412086187 -0.141062211351668 0.247958016505476 -0.627059923702402 0.344935500999065 -0.174939243031459 0.248712093987436 -0.662414947246833 0.312536461183915 -0.131026392475943 0.242437184580778 -0.606203274254268 0.344150489302382
0.169379213068489 0.416021279345315 -0.646022494448329 0.984780920585307 0.404921779675651 0.38366490842927 -0.347061440845719 1.15690500019702 -0.0231625269718754 0.305779228710599 -0.622489815244649 0.576164761300898 0.053810602240262 0.255704779707584 -0.447370765986602 0.554991970467126 -0.0508721821752456 0.233209977548215 -0.507963738169746 0.406219373819255 0.0149764430594617 0.2159572168998 -0.408299702064146 0.438252588183069 0.0639356687002506 0.204732918175619 -0.337340850923962 0.465212188324463 0.0840711378396316 0.196425940574986 -0.300923705687341 0.469065981366604 0.101156337864141 0.192630216756694 -0.27639888697898 0.478711562707262 0.0942026390180741 0.184431808119586 -0.267283704896315 0.455688982932463
-0.176389289302548 0.20294663093756 -0.574164685940166 0.221386107335071 -0.0175640912931172 0.191408908228753 -0.392725551421472 0.357597368835238 0.0536089279830458 0.189945242382077 -0.318683747085825 0.425901603051917 0.133687695255668 0.183669043612486 -0.226303630224803 0.49367902073614 0.240078679179833 0.174586936961333 -0.102111717264379 0.582269075624046 0.27970985681791 0.176735034783196 -0.0666908113571542 0.626110524992974 0.298443123650082 0.184440663732575 -0.0630605772657647 0.659946824565928 0.271605725135904 0.180238214574308 -0.0816611754297403 0.624872625701549 0.323212935465857 0.183798901957246 -0.0370329123703445 0.683458783302059 0.293817779611306 0.18980471534317 -0.0781994624613063 0.665835021683918
0.0814104839147871 0.303781562364261 -0.514001378319165 0.67682234614874 0.339108422984108 0.273543975941073 -0.197037769860395 0.875254615828611 0.52879585560285 0.239150798875679 0.060060289806519 0.997531421399181 0.542450417714428 0.232942888429277 0.0858823563930443 0.999018479035811 0.282770542203451 0.211786783575147 -0.132331553603836 0.697872638010738 0.3880372670881 0.204221725915922 -0.0122373157071067 0.788311849883306 0.291490723792259 0.190150851178157 -0.0812049445169278 0.664186392101446 0.348051062610079 0.189209711625984 -0.0227999721768505 0.718902097397008 0.354787548723076 0.189177678940762 -0.016000702000818 0.725575799446971 0.397614968885639 0.195164913732165 0.015091737970596 0.780138199800682
0.489507527910915 0.342344444002293 -0.18148758233358 1.16050263815541 0.770304846820109 0.293797464911447 0.194461815593673 1.34614787804654 0.57770522673788 0.282925122030748 0.023171987557615 1.13223846591815 0.62936379890439 0.283321770839835 0.074053128058313 1.18467446975047 0.694165999384064 0.277996533925237 0.149292792890599 1.23903920587753 0.571993227952525 0.278584329678029 0.0259679417835877 1.11801851412146 0.509750198686997 0.268980692464117 -0.0174519585426717 1.03695235591667 0.30908148092054 0.244830503632545 -0.170786306199248 0.788949268040328 0.284785529868816 0.218745018249058 -0.143954705899337 0.713525765636969 0.224100517428969 0.208668754894092 -0.184890242163452 0.63309127702139
0.744474301886197 0.427457253047518 -0.0933419140869379 1.58229051785933 0.950195832625108 0.343531561487653 0.276873972109308 1.62351769314091 0.623616130697744 0.273723188347988 0.0871186815356876 1.1601135798598 0.642287745703391 0.253699120167538 0.145037470175016 1.13953802123177 0.719519703662713 0.250584570195573 0.22837394607939 1.21066546124604 0.759905081988346 0.260978479391221 0.248387262381552 1.27142290159514 0.7029289299635 0.267215171690494 0.179187193450132 1.22667066647687 0.608104301843274 0.252714931281254 0.112783036532016 1.10342556715453 0.490915977729579 0.235657749195489 0.0290267893064213 0.952805166152737 0.510072674236899 0.221890902926859 0.0751665045002558 0.944978843973542
-0.103827970891743 0.359083091758561 -0.807630830738523 0.599974888955037 -0.234176296818357 0.311370876951939 -0.844463215644156 0.376110622007443 -0.428264086522078 0.239108587608507 -0.896916918234751 0.0403887451905955 -0.317914418375537 0.20414137787322 -0.718031519007048 0.0822026822559729 -0.216865704126756 0.194494840102946 -0.59807559072853 0.164344182475018 -0.13164876757977 0.189095506436063 -0.502275960194454 0.238978425034914 -0.0993160833348394 0.184078786676386 -0.460110505220555 0.261478338550877 -0.0390115938081952 0.179500483542204 -0.390832541550914 0.312809353934524 -0.0248019369802462 0.17171138362031 -0.361356248876053 0.31175237491556 0.0157988598307683 0.171913976412689 -0.321152533938102 0.352750253599639
0.29066795685239 0.377701643163549 -0.449627263748167 1.03096317745295 0.522501312437963 0.307429081804363 -0.0800596878985892 1.12506231277451 0.400896430893797 0.292363722674343 -0.172136465547915 0.973929327335509 0.526813666780875 0.281053397576486 -0.0240509924690369 1.07767832603079 0.666958542413018 0.276149297837101 0.1257059186523 1.20821116617374 0.354352004224396 0.251588633896824 -0.138761718213378 0.847465726662171 0.382314436528079 0.238373777571956 -0.0848981675129557 0.849527040569113 0.386972340675248 0.241434787502415 -0.0862398428294854 0.860184524179981 0.423243001060202 0.250759051073181 -0.068244739043233 0.914730741163637 0.438244159302069 0.239574475844077 -0.0313218133523216 0.907810131956459
0.198855804350751 0.398032865477609 -0.581288611985362 0.979000220686865 -0.178659413852835 0.317294445518072 -0.800556527068255 0.443237699362585 -0.0597069688038506 0.256358031887657 -0.562168711303658 0.442754773695957 -0.0149491769442827 0.242810471175401 -0.490857700448068 0.460959346559503 -0.114175684045554 0.243507142832271 -0.591449683996805 0.363098315905697 0.133074629048521 0.2397540999155 -0.336843406785859 0.602992664882901 0.188042267593641 0.227263107998648 -0.25739342408371 0.633477959270991 0.117146705432004 0.224274174594438 -0.322430676773096 0.556724087637103 0.129278691382666 0.227818275203868 -0.317245128016915 0.575802510782247 0.1397995700187 0.229780900327065 -0.310570994622347 0.590170134659747
0.0100707755811473 0.295647584964815 -0.569398490949891 0.589540042112185 0.231036129619881 0.259747973051299 -0.278069897560664 0.740142156800426 0.360866449034864 0.240887542861814 -0.111273134974291 0.833006033044019 0.281844565266567 0.216555314712235 -0.142603851569414 0.706292982102548 0.224545434415602 0.198256039806473 -0.164036403605085 0.613127272436288 0.183838388138521 0.182460724366962 -0.173784631620724 0.541461407897767 0.253807796776811 0.181186168485543 -0.101317093454853 0.608932687008475 0.232067108909715 0.178675045104596 -0.118135979495293 0.582270197314724 0.26474395426578 0.182774965041727 -0.0934949772160041 0.622982885747564 0.262365202153194 0.180185309090294 -0.0907980036637827 0.61552840797017
0.648519312943531 0.472666216827827 -0.277906472039011 1.57494509792607 0.207345492896552 0.286405134765105 -0.354008571243054 0.768699557036157 0.203272451905407 0.211565021802374 -0.211394990827246 0.617939894638059 0.307390632047627 0.199653605645227 -0.083930435017017 0.698711699112272 0.390455188835171 0.196192296742482 0.00591828721990606 0.774992090450437 0.396383976844599 0.199717193333941 0.00493827791007539 0.787829675779123 0.399994473387841 0.205528914899231 -0.00284219981465067 0.802831146590333 0.405450631722703 0.210753855610094 -0.0076269252730809 0.818528188718488 0.392973899057011 0.213632969362253 -0.0257467208930059 0.811694519007028 0.379513295298856 0.214853305920498 -0.0415991843053193 0.800625774903032
0.402968523176834 0.467872720073155 -0.51406200816655 1.31999905452022 0.210449239135005 0.369534270279571 -0.513837930612955 0.934736408882964 0.363034230114791 0.28233466080184 -0.190341705056816 0.916410165286398 0.199465936497389 0.241659027271202 -0.274185756954167 0.673117629948944 0.310394244308831 0.218060028947492 -0.117003412428254 0.737791901045916 0.332308438757362 0.20379311439836 -0.0671260654634235 0.731742942978147 0.380025404368622 0.186751067674209 0.0139933117271729 0.74605749701007 0.398486263225199 0.186658247902373 0.0326360973365475 0.764336429113851 0.45150885264308 0.184384655517847 0.0901149278280999 0.81290277745806 0.468833514216836 0.185118696464303 0.106000869146803 0.83166615928687
0.711503994997295 0.482369363187133 -0.233939956849486 1.65694794684408 0.586265039803697 0.483078124944116 -0.360568085086771 1.53309816469417 0.232936866242449 0.423404078597867 -0.596935127809372 1.06280886029427 -0.101469897466989 0.356631387632907 -0.800467417227486 0.597527622293508 -0.0425811297216072 0.281933685430067 -0.595171153164539 0.510008893721325 0.00867516846204364 0.264544068905376 -0.509831206592492 0.52718154351658 0.15619960636917 0.250307485096823 -0.334403064420604 0.646802277158943 0.142028975350456 0.245143058501159 -0.338451419311816 0.622509370012727 0.1809193942702 0.23609170381389 -0.281820345205025 0.643659133745425 0.187670523815044 0.236295045457731 -0.275467765282109 0.650808812912196
0.107027788923277 0.345378890854786 -0.569914837152104 0.783970414998657 0.0395787865095529 0.256596473727235 -0.463350301995828 0.542507875014934 0.205221524648544 0.240263699430347 -0.265695326234936 0.676138375532023 0.30447170971888 0.228455596384401 -0.143301259194546 0.752244678632306 0.160681972184835 0.220460136358131 -0.271419895077101 0.592783839446771 0.114316667908981 0.215520321229767 -0.308103161701362 0.536736497519325 0.0465786864029665 0.216624000285665 -0.378004354156937 0.47116172696287 0.134548912273526 0.212882185950141 -0.282700172188749 0.551797996735802 0.159679772168198 0.206531186447311 -0.245121353268532 0.564480897604927 0.149344847734118 0.20315531742124 -0.248839574411511 0.547529269879748
-0.124807616094067 0.263822919120276 -0.641900537569808 0.392285305381673 0.129076351786258 0.249264799433714 -0.359482655103822 0.617635358676338 0.303962137652995 0.231280267655745 -0.149347186952265 0.757271462258255 0.400981179218937 0.220864953455692 -0.0319141295542201 0.833876487992093 0.461318219305825 0.20853728705245 0.0525851366830238 0.870051301928627 0.32395879868251 0.208984184573898 -0.0856502030823306 0.73356780044735 0.352132239899995 0.202373208409906 -0.0445192485834215 0.748783728383411 0.394492793917487 0.198057657266549 0.00629978567505124 0.782685802159923 0.353313839466443 0.199366991335403 -0.0374454635509468 0.744073142483833 0.378095111813667 0.19538456693237 -0.0048586393737774 0.761048863001111
0.938023431069324 0.761158473935932 -0.553847177845103 2.42989403998375 0.221637253073134 0.481663032781337 -0.722422291178286 1.16569679732455 0.45100310042789 0.297700600065876 -0.132490075701227 1.03449627655701 0.166736281810755 0.234031309458715 -0.291965084728326 0.625437648349835 0.230290886555264 0.207407092734113 -0.176227015203597 0.636808788314126 0.173497035509729 0.189935600436164 -0.198776741345151 0.545770812364609 0.221332042569539 0.185542384165396 -0.142331030394637 0.584995115533715 0.231289927912501 0.187109665265819 -0.135445016008503 0.598024871833506 0.333535918562791 0.186942895182826 -0.0328721559955485 0.69994399312113 0.408511797163478 0.180212879732889 0.0552945528870161 0.761729041439939
0.40771860786498 0.414360401159133 -0.40442777840692 1.21986499413688 0.204640162627868 0.279094280239899 -0.342384626642334 0.751664951898069 0.396236226154911 0.233455982353762 -0.0613374992584634 0.853809951568285 0.488977059997959 0.220466066620632 0.0568635694215204 0.921090550574397 0.545347208774442 0.216967419117802 0.12009106730355 0.970603350245334 0.587553736197027 0.216604471600994 0.163008971859079 1.01209850053497 0.635323431083594 0.216476117096201 0.21103024157504 1.05961662059215 0.475223416651629 0.200981523786477 0.081299630030134 0.869147203273123 0.548260811436241 0.197652810357466 0.160861303135608 0.935660319736874 0.501525084209904 0.195507022253476 0.118331320593091 0.884718847826718
0.740901795732708 0.503575899943984 -0.246106968157501 1.72791055962292 0.454866085404033 0.393795479074325 -0.316973053581644 1.22670522438971 0.6227235527415 0.337664335587547 -0.0390985450100914 1.28454565049309 0.778093654316299 0.321063188170907 0.14880980550132 1.40737750313128 0.618822760870192 0.288574502472667 0.0532167360237656 1.18442878571662 0.712678416393023 0.264179353107493 0.194886884302336 1.23046994848371 0.714690561898945 0.245424198228967 0.23365913337017 1.19572199042772 0.735328471592733 0.234929225599379 0.27486718941795 1.19578975376752 0.671060147651316 0.227239044448267 0.225671620532713 1.11644867476992 0.699122496449468 0.225945038299314 0.256270221382812 1.14197477151612
-0.0438858249671465 0.259286364422157 -0.552087099234575 0.464315449300282 0.209766830023807 0.258789992901905 -0.297461556063926 0.71699521611154 0.394450016981185 0.240242469152347 -0.0764252225574154 0.865325256519786 0.463445585441551 0.212536516916474 0.0468740122852622 0.88001715859784 0.438270261575898 0.199367191550177 0.0475105661375516 0.829029957014244 0.453663330301218 0.186934843175135 0.0872710376779536 0.820055622924483 0.462210973220526 0.177293945105546 0.114714840813656 0.809707105627396 0.444016434929937 0.175514153918655 0.100008693249372 0.788024176610501 0.304012304552832 0.17086452915523 -0.0308821725914181 0.638906781697083 0.38440863667285 0.170015815833237 0.0511776376397066 0.717639635705994
1.04311981538092 0.841417279844565 -0.606058053114428 2.69229768387627 -0.399535016250375 0.440842621582484 -1.26358655455204 0.464516522051293 -0.263469212245265 0.246570759177686 -0.746747900233531 0.219809475743 -0.17838061500884 0.217335243529927 -0.604357692327497 0.247596462309817 -0.117484122026921 0.212996574256803 -0.534957407570255 0.299989163516413 0.085595995311071 0.204523383856272 -0.315269837047222 0.486461827669364 0.0892634664474345 0.193957966187119 -0.290894147279319 0.469421080174189 0.124191366303243 0.184586564469948 -0.237598300057854 0.48598103266434 0.105194544165243 0.175880903446124 -0.23953202658916 0.449921114919646 0.106365885176562 0.175612701404244 -0.237835009575757 0.450566779928881
0.540990984644514 0.418855626480878 -0.279966043258008 1.36194801254704 0.737404938526642 0.420587612357249 -0.0869467816935663 1.56175665874685 0.641785727703144 0.386668631172678 -0.116084789395305 1.39965624480159 0.220174818380333 0.325786259154041 -0.418366249561587 0.858715886322253 0.141535192839592 0.244262997651025 -0.337220282556416 0.6202906682356 0.195052510944852 0.229195888945166 -0.254171431387673 0.644276453277376 0.260569087208012 0.212784032832057 -0.15648761714282 0.677625791558844 0.283408045969573 0.206578388597057 -0.121485595680659 0.688301687619804 0.35265714460617 0.202416149887919 -0.044078509174151 0.749392798386491 0.382211240134676 0.193404651154179 0.00313812387248463 0.761284356396867
0.0232278786547671 0.407605192012796 -0.775678297690312 0.822134054999846 -0.0951303202892435 0.32861947268608 -0.73922448675396 0.548963846175473 0.0705769694285332 0.291639355058955 -0.501036166487018 0.642190105344084 0.0149022100696106 0.273473908700738 -0.521106650983835 0.550911071123056 0.116831582931214 0.25337834255752 -0.379789968481525 0.613453134343954 -0.0536793965380999 0.229682738869116 -0.503857564721567 0.396498771645367 -0.129179499411312 0.21019897883785 -0.541169497933498 0.282810499110873 -0.0684857870253683 0.200717487340401 -0.461892062212554 0.324920488161817 -0.0129169838182284 0.196972976300681 -0.398984017367562 0.373150049731105 -0.0655601793276551 0.194689629773837 -0.447151853684375 0.316031495029065
-0.249989116000016 0.234644352399216 -0.70989204670248 0.209913814702448 -0.0209152773083527 0.232014410458845 -0.475663521807689 0.433832967190983 0.202969156656668 0.205582959632017 -0.199973444222085 0.60591175753542 0.259044112452927 0.200557121351929 -0.134047845396853 0.652136070302707 0.327052258356023 0.189291268868188 -0.0439586286256257 0.698063145337671 0.211251284272064 0.174034480349151 -0.129856297212272 0.552358865756401 0.261671708095623 0.162895415764383 -0.0576033068025677 0.580946722993814 0.29880834761478 0.16360403510262 -0.0218555611863551 0.619472256415915 0.173566615985678 0.159344930598032 -0.138749447986464 0.48588267995782 0.19363818330687 0.162616261868278 -0.125089689954955 0.512366056568695
0.286020076798793 0.415583171795017 -0.528522939919441 1.10056309351703 0.528468715147404 0.325665861794334 -0.10983637396949 1.1667738042643 0.648407268421115 0.248914853966322 0.160534154647125 1.13628038219511 0.3901588253399 0.20795249606884 -0.0174280669550263 0.797745717634825 0.336440799425682 0.180827672478728 -0.0179814386326245 0.690863037483988 0.389744223587812 0.174217330464732 0.0482782558769376 0.731210191298686 0.423997138205042 0.177897231172554 0.0753185651068356 0.772675711303248 0.457986296881067 0.184481018834086 0.0964034999662578 0.819569093795876 0.460800619911347 0.189696760485684 0.0889949693594073 0.832606270463288 0.434759188421996 0.19291608691187 0.056643658074731 0.812874718769262
0.403025039494456 0.435627468575879 -0.450804798914267 1.25685487790318 0.432825545760132 0.292888703227711 -0.141236312566182 1.00688740408645 0.589528710490519 0.251776106654455 0.096047541447787 1.08300987953325 0.570740098576267 0.23920852834977 0.101891383010719 1.03958881414182 0.641875610454117 0.228124060819019 0.194752451248841 1.08899876965939 0.391541858012259 0.219157726301434 -0.0380072855385505 0.821091001563069 0.440401506920025 0.200340308101492 0.0477345030411009 0.833068510798948 0.442808305807683 0.19380684204812 0.0629468953933682 0.822669716221998 0.500998937833482 0.192465247435238 0.123767052860417 0.878230822806548 0.497509706151803 0.192409190904756 0.120387691978481 0.874631720325125
-0.128018314135357 0.346538424937997 -0.807233627013831 0.551196998743118 0.14668745593765 0.309416929026923 -0.45976972495512 0.753144636830419 0.303717152822328 0.27980521278347 -0.244701064233273 0.85213536987793 0.260902948874809 0.27059465760063 -0.269462580022425 0.791268477772043 0.31920527636929 0.257618003616142 -0.185726010718349 0.824136563456928 0.408378046472942 0.257502853300274 -0.0963275459955943 0.913083638941478 0.531720320011969 0.261766741880118 0.018657505926937 1.044783134097 0.362501936413767 0.258150061745342 -0.143472184607104 0.868476057434637 0.403850957597234 0.251729912226578 -0.0895396703668598 0.897241585561328 0.334288564924884 0.256598845309367 -0.168645171881475 0.837222301731242
0.358032557913991 0.403475585513939 -0.432779589693329 1.14884470552131 0.623365543427889 0.314407461994654 0.0071269179183675 1.23960416893741 0.380346142052691 0.264706190192987 -0.138477990725563 0.899170274830944 0.489371648170816 0.263634667975558 -0.0273523010612786 1.00609559740291 0.285341913570361 0.255383890120928 -0.215210511066659 0.78589433820738 0.301099306524713 0.240946789217448 -0.171156400341486 0.773355013390911 0.394502508795335 0.233383833803664 -0.0629298054598463 0.851934823050516 0.396979671742133 0.230823209450306 -0.0554338187804663 0.849393162264732 0.445343104772476 0.226849270714342 0.000718534172365004 0.889967675372587 0.496915970939325 0.222958412050592 0.0599174833201647 0.933914458558486
-0.267673725613826 0.310286554401992 -0.875835372241732 0.340487921014079 -0.0105214506248992 0.284284015367651 -0.567718120745495 0.546675219495697 0.146522884156568 0.262080664959407 -0.36715521916387 0.660200987477005 0.0523594915221912 0.245873861932115 -0.429553277864754 0.534272260909136 0.0481468478253939 0.235372687503364 -0.4131836196812 0.509477315331988 -0.020272136502835 0.220026287847394 -0.451523660683727 0.410979387678057 -0.0676746457157856 0.209250752927505 -0.477806121453696 0.342456830022125 -0.00651928039569349 0.20293706692345 -0.404275931565656 0.391237370774269 -0.0356864029332166 0.201663722104881 -0.430947298258782 0.359574492392349 0.0048487734004854 0.199123665718735 -0.385433611408235 0.395131158209206
-0.11082183108768 0.31417819749597 -0.726611098179782 0.504967436004422 0.120973653005253 0.255795030244343 -0.380384606273659 0.622331912284165 -0.00128614047194764 0.204631030300015 -0.402362959859976 0.399790678916081 0.0824241965553829 0.175517937155572 -0.261590960269537 0.426439353380303 0.211463531645111 0.168438445124233 -0.118675820798387 0.541602884088608 0.262490404009236 0.164755024482242 -0.0604294439759576 0.58541025199443 0.276853032530216 0.1623250697957 -0.0413041042693562 0.595010169329787 0.319351879938776 0.161658862434335 0.00250050956747838 0.636203250310073 0.335906446080408 0.163411194512998 0.0156205048349326 0.656192387325883 0.371177240280718 0.165909619573684 0.045994385916297 0.696360094645139
0.456530039764657 0.39392584284114 -0.315564612203978 1.22862469173329 0.483501978154133 0.343133651192693 -0.189039978183546 1.15604393449181 0.111257232324973 0.277725436024545 -0.433084622283135 0.655599086933082 0.332916220594558 0.266183396091949 -0.188803235745661 0.854635676934777 0.434160627956197 0.256262268569564 -0.0681134184401481 0.936434674352543 0.553974982436778 0.241082756903209 0.0814527789064879 1.02649718596707 0.590158284869506 0.232385528653792 0.134682648708074 1.04563392103094 0.434950997672021 0.220358866637424 0.00304761906267048 0.866854376281372 0.34683655933562 0.218155733914776 -0.080748679137341 0.77442179780858 0.365823425858938 0.207997806576251 -0.0418522750305137 0.773499126748389
-0.28170962839251 0.2154655626074 -0.704022131103014 0.140602874317995 -0.0297240040957798 0.204100148381802 -0.429760294924112 0.370312286732553 0.111794767156947 0.193015219640727 -0.266515063338877 0.490104597652771 0.251091200007406 0.183160050538729 -0.107902499048503 0.610084899063315 0.291477049288233 0.171327145600542 -0.0443241560888296 0.627278254665295 0.231223520255164 0.176871675681076 -0.115444964079746 0.577892004590073 0.18335870276373 0.178951822264795 -0.167386868875267 0.534104274402727 0.250884594194921 0.182076565148513 -0.105985473496164 0.607754661886006 0.295038041857664 0.184365143973474 -0.066317640330345 0.656393724045672 0.300771714034929 0.184130490439681 -0.0601240472268464 0.661667475296704
0.914992045432498 0.588321716406521 -0.238118518724284 2.06810260958928 0.212341950483002 0.418055367456845 -0.607046569732415 1.03173047069842 -0.15208524329019 0.325335948998333 -0.789743703326923 0.485573216746543 -0.0439306286607928 0.228571512075631 -0.491930792329029 0.404069535007443 0.0247298565202957 0.206615918677875 -0.38023734408834 0.429697057128932 0.0904987630257928 0.199625723518442 -0.300767655070354 0.48176518112194 0.135730295789685 0.189436464192094 -0.235565174026819 0.507025765606189 0.0607091321603677 0.184702685955861 -0.30130813231312 0.422726396633856 0.0528861895944597 0.185435218436028 -0.310566838540156 0.416339217729075 0.0974885182738681 0.185281611197529 -0.265663439673289 0.460640476221025
0.311374557268567 0.375125016607492 -0.423870475282117 1.04661958981925 0.535682334980722 0.364116095407928 -0.177985212018816 1.24934988198026 0.65153555606811 0.346443643864508 -0.0274939859063253 1.33056509804255 0.591261106381546 0.293641256209833 0.0157242442102736 1.16679796855282 0.437763885772236 0.277564281204013 -0.106262105387631 0.981789876932102 0.444247756540093 0.262309843330721 -0.0698795363881205 0.958375049468307 0.508279520768046 0.248670051901885 0.0208862190403519 0.995672822495739 0.385178580601884 0.244993335054425 -0.0950083561047893 0.865365517308557 0.418936481301544 0.242330137446546 -0.0560305880936863 0.893903550696775 0.426848265107951 0.2447752978417 -0.0529113186617806 0.906607848877684
-0.266008107457635 0.630571283414527 -1.50192782295011 0.969911608034839 0.0308717906624905 0.306604001056792 -0.570072051408822 0.631815632733803 0.266550355499461 0.278120904964968 -0.278566618231876 0.811667329230797 0.363644630958863 0.283194650605834 -0.191416884228573 0.918706146146298 0.334191723825149 0.272108301531965 -0.199140547177503 0.867523994827801 -0.00243090452897188 0.243877560683331 -0.480430923468301 0.475569114410357 -0.0177788136776649 0.211862099449676 -0.433028528599031 0.397470901243701 0.0610881085434529 0.193076655006359 -0.317342135269011 0.439518352355917 0.0988709385742417 0.186531594192568 -0.266730986043191 0.464472863191674 0.148139617139612 0.18178351542321 -0.20815607308988 0.504435307369104
0.458204906295531 0.36088136334618 -0.249122565862983 1.16553237845404 0.617804316337397 0.313031007564762 0.00426354151046304 1.23134509116433 0.629863189428319 0.288199462362955 0.0649922431969274 1.19473413565971 0.476948734121631 0.288262208851943 -0.0880451952281762 1.04194266347144 0.53279621521724 0.272516592874935 -0.00133630681763119 1.06692873725211 0.313727343021589 0.247040558035739 -0.17047215072846 0.797926836771638 0.366960820567047 0.222785383953977 -0.0696985319827483 0.803620173116842 0.301802557508257 0.204494696851563 -0.0990070483208069 0.702612163337321 0.34342854458994 0.200248558078483 -0.0490586292438874 0.735915718423767 0.299719732433336 0.188353534495229 -0.0694531951773122 0.668892660043984
0.127317920588162 0.377717613787547 -0.613008602435429 0.867644443611754 -0.203826230726611 0.261093120622418 -0.71556874714655 0.307916285693329 -0.023923586431162 0.220015053801085 -0.455153091881289 0.407305919018965 0.0985524944785054 0.19676815606683 -0.287113091412482 0.484218080369493 0.198970489845893 0.183188414776414 -0.160078803115877 0.558019782807664 0.174621476307708 0.175026264261259 -0.168430001644359 0.517672954259775 0.23185911991937 0.170860959074873 -0.103028359867382 0.566746599706121 0.251970619728182 0.167387377467298 -0.0761086401077216 0.580049879564086 0.309471409487404 0.166647398927563 -0.0171574924106189 0.636100311385427 0.306103917430925 0.164892444337577 -0.0170852734707255 0.629293108332575
0.772805625955394 0.534428418840816 -0.274674074972605 1.82028532688339 0.5014086635138 0.432738252366749 -0.346758311125027 1.34957563815263 0.664913784194901 0.379002988031279 -0.0779320723464053 1.40775964073621 0.0282117681323331 0.309720429543898 -0.578840273773707 0.635263810038373 0.149297784855676 0.258435954223998 -0.35723668542336 0.655832255134711 0.22296340521805 0.225552653343771 -0.219119795335742 0.665046605771842 0.169872151375992 0.22852913482818 -0.278044952887241 0.617789255639225 0.279314414618339 0.229505598048799 -0.170516557557307 0.729145386793985 0.0674387888556625 0.225973871685601 -0.375469999648116 0.510347577359441 0.221741836362598 0.207780475545511 -0.185507895706603 0.628991568431799
-0.297493530527701 0.210076104256256 -0.709242694869962 0.11425563381456 -0.0538579444412544 0.205410599682435 -0.456462719818828 0.348746830936319 0.056602337289992 0.199326730739281 -0.334078054959 0.447282729538984 0.186861142590489 0.19010681720378 -0.18574821912892 0.559470504309898 0.329355407745759 0.17355740707945 -0.0108171101299626 0.669527925621481 0.365284037748779 0.174545712665039 0.0231744409253024 0.707393634572255 0.357199020470049 0.171936264185912 0.0202039426656611 0.694194098274437 0.27982619425993 0.16605139955311 -0.0456345488641656 0.605286937384025 0.29520346470406 0.165759987542886 -0.0296861108799959 0.620093040288116 0.334084558277233 0.169808468880866 0.0012599592707353 0.666909157283732
0.372795475237174 0.345647775570786 -0.304674164881565 1.05026511535591 0.526893931359742 0.286426047128912 -0.0345011210129267 1.08828898373241 0.469594627636594 0.271466662045199 -0.0624800299719955 1.00166928524518 0.548121521008924 0.260227306905965 0.0380759994732324 1.05816704254462 0.587098126565237 0.245522426334272 0.105874170950064 1.06832208218041 0.561781937648587 0.245587925870936 0.0804296029415525 1.04313427235562 0.599737887260245 0.252641355189386 0.104560831089048 1.09491494343144 0.451997486827409 0.245871608274723 -0.029910865391048 0.933905839045866 0.396988453164061 0.234366834952467 -0.0623705433427752 0.856347449670896 0.433154326387989 0.224230763245426 -0.00633796957304511 0.872646622349024
-0.0925897904388697 0.247394543859659 -0.577483096403802 0.392303515526063 0.101401205883716 0.22850656126997 -0.346471654205426 0.549274065972857 0.236251093644363 0.212986695884673 -0.181202830289596 0.653705017578321 0.388877482479266 0.19996939373471 -0.00306252924076528 0.780817494199298 0.376385693946592 0.191969228086406 0.000126006897236242 0.752645380995947 0.390649785793678 0.189600027684755 0.019033731531558 0.762265840055799 0.29875088617857 0.193156631813806 -0.0798361121764885 0.677337884533629 0.305135874542971 0.189887220744831 -0.0670430781168984 0.67731482720284 0.291715202657012 0.183035376020494 -0.0670341343431559 0.650464539657179 0.296717095414183 0.17658000022461 -0.049379705026053 0.642813895854419
-0.086954987668175 0.31305175032956 -0.700536418314114 0.526626442977764 0.157841246705996 0.281911802595597 -0.394705886381374 0.710388379793366 0.0909661907722086 0.229180845587179 -0.358228266578662 0.540160648123079 0.0871674243513541 0.198013712391609 -0.300939451936199 0.475274300638907 0.154018372143708 0.179733455023327 -0.198259199702012 0.506295943989428 0.22861837233494 0.173964800730987 -0.112352637097794 0.569589381767674 0.314827225975193 0.173590461542641 -0.0254100786483845 0.65506453059877 0.316365123544283 0.167235884926395 -0.0114172109114513 0.644147458000016 0.314391656620385 0.167259347487534 -0.0134366644551822 0.642219977695952 0.270505289664912 0.165507622721071 -0.0538896508683864 0.594900230198211
-0.119877234535165 0.387149426962863 -0.878690111382377 0.638935642312046 0.116961342700492 0.361603950019889 -0.59178239933849 0.825705084739474 0.256408198529318 0.321904576694899 -0.374524771792685 0.88734116885132 0.157139139700903 0.286430086168022 -0.404263829188419 0.718542108590225 -0.000345599090179949 0.249278812176893 -0.48893207095689 0.488240872776531 0.0265839540391557 0.234133435928422 -0.432317580380551 0.485485488458862 -0.077703728182839 0.228744554303566 -0.526043054617828 0.37063559825215 -0.0485607171303468 0.22631915794243 -0.492146266697509 0.395024832436815 0.044282518193155 0.229251256471513 -0.40504994449101 0.49361498087732 0.112353073170252 0.22487329095394 -0.32839857709947 0.553104723439974
-0.714299496252143 0.504389895448717 -1.70290369133163 0.274304698827342 -0.467139449172421 0.190346922304737 -0.840219416889706 -0.0940594814551355 -0.28319538769999 0.177112635021597 -0.63033615234232 0.06394537694234 -0.162869905836006 0.160331369486133 -0.477119390028827 0.151379578356815 -0.169785524007568 0.158816591491086 -0.481066043330096 0.14149499531496 -0.0917773503594539 0.161248375982532 -0.407824167285217 0.224269466566309 -0.0144894307421899 0.16654369251069 -0.340915068063142 0.311936206578762 0.00574845244745981 0.16945115675912 -0.326375814800415 0.337872719695335 0.0562890155014577 0.170895451093544 -0.278666068641888 0.391244099644804 0.124052661136176 0.172538059149802 -0.214121934797436 0.462227257069788
-0.377388514077848 0.480411168065555 -1.31899440348634 0.564217375330641 -0.0475769444925257 0.220902310739389 -0.480545473541728 0.385391584556677 0.0827449206067282 0.207414928843044 -0.323788339925639 0.489278181139095 0.182884617600217 0.194912021801642 -0.199142945131001 0.564912180331435 0.209943370576298 0.185828416328302 -0.154280325427173 0.574167066579769 0.279991348590245 0.18136649101669 -0.0754869738024673 0.635469670982958 0.284226785202126 0.180806484354319 -0.0701539241323396 0.638607494536591 0.315192598097317 0.178237162345744 -0.0341522401003405 0.664537436294975 0.348702450581138 0.182141293783036 -0.00829448523361348 0.705699386395889 0.409591868346259 0.185390615792667 0.0462262613926328 0.772957475299886
-0.0677145722373652 0.261897005386249 -0.581032702794413 0.445603558319683 0.135380249608475 0.244460282963945 -0.343761905000858 0.614522404217808 0.324740112378805 0.217189707925108 -0.100951715154407 0.750431939912017 0.389334718305519 0.195779394943974 0.00560710421533056 0.773062332395708 0.342669186414412 0.185221572443953 -0.0203650955757361 0.705703468404559 0.393738224940929 0.180097794019895 0.0407465486619336 0.746729901219924 0.437377186156278 0.178780959408559 0.0869665057155027 0.787787866597053 0.346569247850317 0.181146048780278 -0.00847700775902871 0.701615503459663 0.240853192081268 0.18247550089903 -0.116798789680831 0.598505173843366 0.205767140483355 0.174329830842008 -0.13591932796698 0.547453608933691
0.481668084209642 0.466012269508179 -0.431715964026388 1.39505213244567 0.126430714525993 0.293264077282292 -0.448366876947299 0.701228305999284 0.299333781869983 0.262970245340229 -0.216087898996865 0.814755462736832 0.430508217407578 0.232439721736914 -0.025073637196774 0.886090072011929 0.323126001412658 0.208153821309439 -0.0848554883538435 0.731107491179159 0.386374269756449 0.190088026944103 0.0138017369460073 0.758946802566891 0.431251778347111 0.189253709930805 0.0603145068827333 0.802189049811489 0.415754210714041 0.195088970051183 0.0333798294137221 0.79812859201436 0.449394146005681 0.195962799659823 0.0653070586724285 0.833481233338934 0.347016846011436 0.194415865048317 -0.0340382494832644 0.728071941506136
0.508033884618836 0.613239884143467 -0.693916288302358 1.70998405754003 0.213429136569551 0.465992719065895 -0.699916592799603 1.12677486593871 -0.104414987880778 0.291243247378503 -0.675251752742644 0.466421776981088 0.0625879597081569 0.234960928803309 -0.397935460746329 0.523111380162643 0.189153360388302 0.205486246606725 -0.213599682960879 0.591906403737483 0.288769249594868 0.194229803439322 -0.0919211651462025 0.669459664335938 0.296992555685741 0.194983066655462 -0.0851742549589655 0.679159366330447 0.320607294421751 0.194586556944501 -0.0607823571894706 0.701996946032973 0.347870324824768 0.194055023318974 -0.0324775208804214 0.728218170529957 0.441405199483634 0.198835634050047 0.0516873567455425 0.831123042221726
-0.068683685761048 0.34432612770879 -0.743562896070277 0.606195524548181 0.237940993200025 0.259663367853527 -0.270999207792889 0.746881194192938 0.374437413257998 0.24261509475757 -0.101088172466839 0.849962998982835 0.3342343928326 0.235660101026818 -0.127659405179963 0.796128190845163 0.384297236979774 0.223787127154906 -0.0543255322438418 0.822920006203389 0.414916730392781 0.216361216557321 -0.00915125405956835 0.838984714845131 0.335554857554638 0.209381855631469 -0.0748335794830411 0.745943294592318 0.280339300063957 0.209487004993524 -0.130255229723349 0.690933829851263 0.241417846334338 0.207020118271756 -0.164341585478303 0.647177278146979 0.326209161949443 0.210418218198405 -0.0862105457194302 0.738628869618316
0.170665849921778 0.307794792192364 -0.432611942775256 0.773943642618812 0.454518864954121 0.271840021664344 -0.0782875775079941 0.987325307416236 0.352087880294221 0.244969335256757 -0.128052016809023 0.832227777397465 0.424181680480861 0.231980995201347 -0.03050107011378 0.878864431075502 0.478733215683674 0.232749783099535 0.0225436408085863 0.934922790558762 0.587302225470453 0.222087103251369 0.152011503097769 1.02259294784314 0.485554883185644 0.222858001272548 0.0487532006914487 0.922356565679839 0.501563854529156 0.220444467408144 0.0694926984091945 0.933635010649118 0.401925302362476 0.216776647581211 -0.0229569268966964 0.826807531621649 0.44816459128411 0.215500466956563 0.0257836760492463 0.870545506518974
0.145323625075248 0.594000194093518 -1.01891675534805 1.30956400549854 0.385459832094527 0.365530928035251 -0.330980786854564 1.10190045104362 -0.168519473437428 0.25979048305468 -0.677708820224601 0.340669873349746 -0.0487634310882631 0.224738700728428 -0.489251284515982 0.391724422339456 0.0521283240402277 0.210453483776002 -0.360360504160737 0.464617152241193 0.0897264720471435 0.205891327076058 -0.31382052902193 0.493273473116217 0.107774773252085 0.202323323702509 -0.288778941204833 0.504328487709004 0.17533622560857 0.195039323753361 -0.206940848948017 0.557613300165157 0.214631481856759 0.194445436436128 -0.166481573558052 0.59574453727157 0.149524805134406 0.191548495767573 -0.225910246570037 0.524959856838849
-0.111057366650661 0.323547268737523 -0.745210013376207 0.523095280074885 0.118543037344435 0.310523018162129 -0.490082078253338 0.727168152942208 0.30257892625072 0.292868777958512 -0.271443878547964 0.876601731049405 0.374835213244328 0.260408458143814 -0.135565364717548 0.885235791206205 0.307574409381979 0.255916913657624 -0.194022741386963 0.809171560150921 0.12130318880458 0.244292952417411 -0.357510997933546 0.600117375542706 0.265954239674727 0.2383996018863 -0.201308980022422 0.733217459371875 0.227808063432235 0.231408366560783 -0.2257523350269 0.681368461891371 0.268590676433759 0.230249935519988 -0.182699197185418 0.719880550052936 0.26545441125713 0.221732877032137 -0.169142027725858 0.700050850240117
-0.13026766882937 0.36385891906447 -0.843431150195731 0.582895812536991 0.13846904785146 0.334121628542162 -0.516409344091178 0.793347439794098 0.310116573441388 0.297369389091185 -0.272727429177336 0.892960576060111 0.425194990699761 0.252540961311865 -0.0697852934714951 0.920175274871016 0.213039217756528 0.232347395919947 -0.242361678246568 0.668440113759624 0.190427162760558 0.220095154535124 -0.240959340128286 0.621813665649401 0.217586956927283 0.217281149123491 -0.208284095354759 0.643458009209325 0.118129548707061 0.205039577893883 -0.283748023964949 0.520007121379072 0.145856640523232 0.195330696726237 -0.236991525060192 0.528704806106657 0.0881086660492707 0.197616601126467 -0.299219872158604 0.475437204257145
-0.0296517945260674 0.443743265818431 -0.899388595530193 0.840085006478058 -0.181876271124418 0.328808899551131 -0.826341714244634 0.462589171995798 -0.0343748778692308 0.267241304426613 -0.558167834545393 0.489418078806932 -0.0386309236705094 0.24593995413031 -0.520673233765918 0.443411386424899 -0.0848000115772161 0.232898209983747 -0.541280503145361 0.371680479990929 -0.0299330528824056 0.228049981479852 -0.476911016582916 0.417044910818105 -0.144775476150936 0.230146763181123 -0.595863131985938 0.306312179684065 -0.166502296970986 0.219893562717949 -0.597493679898166 0.264489085956194 -0.151776650863869 0.215290613929529 -0.573746254165745 0.270192952438007 -0.188933939525596 0.201515035598784 -0.583903409299213 0.20603553024802
-0.11416312698412 0.27410509267659 -0.651409108630237 0.423082854661996 -0.147799716510507 0.26613678093359 -0.669427807140344 0.37382837411933 -0.00657295401097158 0.268426427886833 -0.532688752669164 0.519542844647221 0.120468373023145 0.258162514625513 -0.385530155642861 0.626466901689151 0.282094385449992 0.248497799021164 -0.204961300631489 0.769150071531473 0.289184336281423 0.24424054952764 -0.189527140792752 0.767895813355597 0.297114701358759 0.236727585014719 -0.16687136527009 0.761100767987607 0.255819056805029 0.234431260371418 -0.20366621352295 0.715304327133007 0.324487939852462 0.237553400479307 -0.141116725086979 0.790092604791903 0.202036047970335 0.231543213124226 -0.251788649753149 0.655860745693819
0.926207235274668 0.582975461242341 -0.21642466876032 2.06883913930966 0.342136260488854 0.339978785089443 -0.324222158286453 1.00849467926416 0.492824873105348 0.289211218942764 -0.074029116022469 1.05967886223316 0.567263681598225 0.26263639293264 0.05249635145025 1.0820310117462 0.553613162059911 0.254750824306892 0.0543015464184026 1.05292477770142 0.462489690775752 0.256876255477693 -0.0409877699605264 0.965967151512031 0.505106880224475 0.263708547294221 -0.0117618724721983 1.02197563292115 0.441935341035062 0.262485196325334 -0.0725356437625934 0.956406325832717 0.505484537636049 0.267833646509645 -0.0194694095228563 1.03043848479495 0.576824655375396 0.263974745777666 0.0594341536511702 1.09421515709962
0.206815909777016 0.400937472606404 -0.579021536531534 0.992653356085567 0.449871591387072 0.253737891407014 -0.047454675770675 0.947197858544818 0.555857587229994 0.237542820027919 0.0902736599752725 1.02144151448472 0.671905195290293 0.233427300277321 0.214387686746743 1.12942270383384 0.752775252964674 0.227974149341197 0.305945920255928 1.19960458567342 0.715385182950057 0.220376709305408 0.283446832711456 1.14732353318866 0.717438528406507 0.215341613313126 0.29536896631278 1.13950809050023 0.750614357926072 0.21131118903884 0.336444427409946 1.1647842884422 0.857466178036228 0.208644150051752 0.448523643934794 1.26640871213766 0.702060263047155 0.204519726872565 0.301201598376928 1.10291892771738
0.232551647929056 0.358758464338812 -0.470614942175016 0.935718238033127 0.516166649824911 0.294425748404633 -0.0609078170481696 1.09324111669799 0.494156319569757 0.255904851952643 -0.00741719025742382 0.995729829396938 0.563588939231528 0.244526894900988 0.0843162252255908 1.04286165323746 0.51723830419487 0.238969277173286 0.0488585209352294 0.98561808745451 0.548150735577482 0.238017489027864 0.0816364570828689 1.01466501407209 0.420241476466342 0.234369677747843 -0.0391230919194304 0.879606044852114 0.481700805912032 0.219670329052088 0.0511469609699397 0.912254650854123 0.507614403008129 0.209840681673812 0.0963266669274573 0.9189021390888 0.439083428350611 0.20752417612081 0.0323360431538237 0.845830813547399
-0.210709587803158 0.39496696664769 -0.984844842432631 0.563425666826314 0.0265976278033826 0.341932851048543 -0.643590760251762 0.696786015858527 -0.0685226857012676 0.304515787274234 -0.665373628758767 0.528328257356231 -0.167666461159452 0.250496033756269 -0.658638687321738 0.323305765002835 -0.328958937316964 0.229078356527066 -0.777952516110013 0.120034641476086 -0.164393394645501 0.221083030441533 -0.597716134310906 0.268929345019905 -0.128621987119167 0.223034673104038 -0.565769946403082 0.308525972164748 -0.0574610636737055 0.223973282489403 -0.496448697352936 0.381526570005525 0.0451883784450822 0.218589479015932 -0.383247000426144 0.473623757316308 0.0971301637728585 0.214198787460711 -0.322699459650136 0.516959787195853
-0.588530042751972 0.287443946792408 -1.15192017846509 -0.0251399070388524 -0.275534093967616 0.227096321217206 -0.72064288355334 0.169574695618108 -0.230406638450596 0.217945751400487 -0.65758031119555 0.196767034294359 -0.102889497446345 0.206233215822886 -0.507106600459201 0.301327605566512 -0.0370118085127629 0.193424868381631 -0.41612455054076 0.342100933515235 -0.00729321654519044 0.182967149482741 -0.365908829531363 0.351322396440983 -0.142050918569295 0.182446647581992 -0.499646347829999 0.21554451069141 -0.105456234971159 0.179169677031949 -0.456628801953779 0.24571633201146 -0.0837601245396392 0.180342601522114 -0.437231623522983 0.269711374443705 -0.223801499505372 0.176840762254076 -0.570409393523361 0.122806394512618
-0.274419254649849 0.268976860093153 -0.801613900432428 0.25277539113273 0.0261199863943999 0.232067706611427 -0.428732718563998 0.480972691352798 0.173120076743573 0.217566809593141 -0.253310870058984 0.59955102354613 0.242072005175813 0.203963007350932 -0.157695489232014 0.64183949958364 0.261423838716517 0.205432425057399 -0.141223714395985 0.664071391829018 0.321006619629785 0.201368941457407 -0.0736765056267328 0.715689744886304 0.279050169487592 0.194960620032208 -0.103072645775535 0.661172984750719 0.370152241608565 0.195311512153388 -0.0126583222120756 0.752962805429206 0.389491887942871 0.19263496487845 0.0119273567811099 0.767056419104633 0.412898827842825 0.188344821249764 0.0437429781932871 0.782054677492363
0.645549059070147 0.441626212431433 -0.220038317295462 1.51113643543576 0.844854268819608 0.387705087127462 0.0849522980497823 1.60475623958943 0.388899196227488 0.334447920353291 -0.266618727664963 1.04441712011994 0.478581080643722 0.303252938094906 -0.115794678022295 1.07295683930974 0.554485817300959 0.302591437544587 -0.0385934002864307 1.14756503488835 0.576857119623743 0.297857924008144 -0.00694441143221847 1.1606586506797 0.105742370713558 0.257494802103288 -0.398947441408887 0.610432182836003 0.162689508286685 0.226422229307815 -0.281098061156632 0.606477077730003 0.236653089823038 0.197736371846067 -0.150910198995253 0.624216378641328 0.14512173888141 0.202015551191664 -0.250828741454252 0.541072219217072
